solver_type L2R_L2LOSS_SVC_DUAL
nr_class 2
label 0 1
nr_feature 32502
bias -1
w
0.9428527154451372
0.6275975553202046
0.8927616695241424
1.740498528553633
0.8634393824186292
0.856671726539095
0.2857142857142857
0.3978383864005901
0
0.7191388488629521
0.8000000000024174
0.4849039153298206
0.4251201031099542
-0.5191482942680974
-1.502087921543007
0.4860408801803189
0.0880090506520497
0
0
0
0
0.660131614654706
0
0.3148312281024999
0.8594935971804017
0.7515588493738814
0.2713999855577303
0
0.1345975824260555
0.1342497002623412
0.366276210198708
0.119899540023575
0.4236109562314027
0.1083884142418921
0.1453921752578872
-0.4157039519127383
0.4882877330644049
0.003057561201659751
0.6819909197231437
0.3210711136588458
0.4
0.2295300896679748
0.8581151399330086
0.4042569489827387
0.3000831491411876
0.4539298221863209
0.3800182270896938
0.308397884509888
0.3826422310596716
0.1951621088236233
0.7614758330288196
0.5764395919499555
0.2743612599939662
0.5088182259530272
-0.168371573690611
-0.5170781012553451
0.832349037815388
0.8074527907924158
0.8357628392919463
-0.03659310258605099
0.1406725085076128
0.6967340919786905
0.1326479563034463
0.2343993847162256
0.7141736218918777
0
0
0.3998236273424418
0.5556560123125603
0.7283672769407492
1.054306256387597
-0.07202272787714634
0.4829800434322636
0.5220891228489786
0.4035364762511356
0.5449456773256409
0.1672889405128435
0.177218058741166
0.1349732787948783
0.2791730489369325
0.4880684046979721
0.04218937694716406
-0.433966097612339
0.1300409731936593
0.1300409731936593
0.1300409731936593
-0.02481526130809456
0.6896034331629517
0.507610900393369
0.4959463212980224
0.2271660575811122
0.03653151784041601
0.4485831706236911
-0.3730889033667307
0.4344422393899294
-0.1274472608930418
0.1142269629393653
-0.3800064108258265
0.2702431497545177
0.3869422925842727
0.6297322469185745
0.2188696864661415
0.2327250903250819
0.8478538407115928
0.1013838872327216
1.042504943068711
0.7405687991537072
0
0
0.5189703173899443
-0.1330307338309434
0.7151013033531859
-0.4010247343361271
0.05484389665131446
0.1156238056499665
0.3592801319797856
0.8873446584973764
0.09254200312079677
0.515425834073753
0.2264626590547886
0.2177739922577132
0.216941617059185
0.5163201178196151
-1.32502380860385
-0.5598983549181918
0.4416613233289176
0.5398372904099802
0.2620100126326932
0.596068356611287
0.2331635574208729
0.6800785057897277
-1.387778780781446e-17
0.3616802401100642
0.6666666666666666
-0.1948108469558507
0
0.08448195942173954
0
0.775811897649943
0.3183998708082557
0
0.5803640683207572
0.7302450883574271
0.2055652746804681
0.1319793373678727
0.491384019760488
-0.07327004324017958
0.6143982516125073
0
0.3017119134125106
0.7192646425926018
0.246451421276519
0.4504663074704838
0.1780204041896345
0.3096931470462525
0.5854658612036499
0
0.645808767077827
0.3778821388655212
0.2937927127617493
-0.6785801407588218
-0.4802152618431181
0.4987099130219911
0.08757245567844281
0.2038512569584523
0.9565471101456372
-0.1603651957194286
0.7050275329409307
0.764604416143603
0.1099734087007007
0
0.9419228306626694
0.6228614975394773
0.03142355411169333
0.03142355411169333
0.3713891765440378
-0.07316089016964784
0.3554007804606425
0.3616911017271369
0.05479489340985144
0.6666666666666666
0.6059491311228382
0.3515386018142604
1.050501701630906
0.6538478470261193
0.2773785225064974
0
0.3516819598494815
0.4
0.4
0.4962190577441289
0.1518196141804428
0.2762772638140841
-0.009396727902998935
-0.05521821505430728
0.4262751332207294
-0.3035943472925812
0.4942415018476393
0.7686145663672398
0.8135071112529622
-6.938893903907228e-18
1.156922379951198
0.7783441065575492
0.5740665563653775
0.8382127447765351
0.1567912639241216
0.2019079098423499
0.2636020200506161
-0.03148132775008113
-0.02752146590461073
0.2806168216989624
0.2797167413206336
0.2509781595870818
-0.4201593526501892
0.3153237263384018
0.1936820378244606
0.4395604395604982
0.7468528371630244
0
0.06291432613032588
0.3873901767202193
0.9991759809615405
-0.3640624587606909
0
0.2966326963314166
0.7296857355244567
0.02500715633632763
0.4608571138347374
0.6091787725607744
0
0.6666666666666666
-0.1814224903034054
0.8064875600311936
0.4106496773174889
0.2837982670537436
0.1046483186209354
0.1046483186209355
-0.5744644798684198
0.5387084987881348
0.2379295425107163
0.09239568609372709
0.7941100836887087
0.8056486009312108
-0.1602228696661889
0.47675055984202
0.1378781817967681
1.010784930815604
-0.5672318533398006
0.7523747588235934
0.5676008926608124
-0.01762725883465889
0.2265192270228152
0.3041159406656666
0.7939171083490417
0.4190197356725128
0.7999999999996816
0.638667486037422
0.7999999999992837
0.6138186931608478
0.4371795466491882
0.1611015788148287
0
0
0.6666666666666666
0.4188458321235211
-0.008297562295120346
0.4020681816655605
-0.0462946190062463
0.4789779102610685
0.6745102931020786
0.6734716617440061
1.080474175447053
0.6299676669500622
0.3917941319986535
0.7472927357261209
0.2693941274486004
0
0.4507309180676667
0.5352433056132676
0
0.5538752754106476
-0.3376197767278577
0.2468968128794428
-0.3102910223517044
0.8720256934809244
0.2898798076773013
0.08387548897679405
0.08387548897679405
0.3790232614270984
0.4117634519679827
0.4129040665411522
0.9763872630269507
0
0.1621621621620403
-0.6852175794828606
0.556683064593923
-0.2373426785283897
0.3035461688566062
0.1605319293252308
0.5075599036960535
0.3736263736264392
0.5488552292412586
0.5394487488727592
0.8467058691251262
0.3864105304940397
0
0.9620669442245215
0
0.1806694791145201
0
0
0
0.08249722435957665
0.2933000645753647
0.006596275506744839
0.4233354171135473
0.173798975092892
0.3427476294556657
0.2485694876182771
0.6806874693223419
-0.3748138169765651
0.4027477709018954
0.4027477709018954
-0.9457344468329756
0.3646016957377418
0.7930901606087294
0
-1.387778780781446e-17
0
0.1929143728774467
0.3159949740070582
0.9276340538099687
0.7924621125350473
0.7172902005551771
0
0.7178296495099212
0.3459174458949429
0.4905442934036403
0.2954363704123779
0.1412214545435827
0.6903293840122712
0.5487098965818513
0
-0.2085122631028833
0.3847150072390957
0.591038573811419
0.08117800800185142
0.002335478444158661
0.004195076544562394
0.9051318511040822
0.004195076544562394
0.002399556560421449
0
0.0005399584600177161
0.5893992168404022
0.6907884652306998
0
0.7562970583816457
0.9473684183676954
0.1126560274977233
0.8105485479425549
0.8827219205399085
0.01550666442991572
0.1604295691285908
0.9537147586476599
0
0.5776227891090339
1.050090725679765
0.496390873616097
0.496390873616097
-0.580669028872255
0.1113852207702659
0.345553241212795
0.5470666375889028
0.4453582279706347
0.2466430360262469
0
-0.06087541165635146
1.05640040538115
0.6341463414633068
0
0.4699499543218527
0
0.03778471203770356
0
-0.8432725789020505
0.7758754219535586
0
0
0.1788460634882959
0.06211195556420832
0.2281446254433348
0
-0.3059318596792567
0.7483053660421983
0.901581530306766
0.4514543051519777
0.7960430165589851
0
0.5631591274429673
0
0.9397251575440524
0
0.3116298798826449
0.4615385887300774
0.2231504382071349
0.6121045461676393
0
0.481850491698475
0
0.8571428573436466
-0.2160826528831959
0.7752144503292504
0.2147000442219787
0.3502391516711521
0
0.8262156779884171
0.3277626797122577
0.4782145013026305
-0.0144946017360234
0
0.4089507588169459
0.03655650833557517
0.05459766496161225
0.0867103044999315
-0.2503987233228677
0.06338831521586535
-0.005355325060751464
0.5685418827987567
0.2096854638044058
0.3441274186603603
0.1050201552235575
-0.1129684411726094
0.9730011200169599
0.313945655777741
0
0.5678810633184903
0.4835168282215427
0
0
0
1.128644610487986
0.5806226791190002
0.2830428707131677
0.8000000000007383
-1.296833664344192
0.7455182770753319
0.5455232398583558
0.603485391294366
0.476665588222932
0.4536640002870158
0
0.4437297538787163
0.005201926135953986
0.2778467639467715
0.05735839541105681
0.1228658182998522
0.9672917987020787
0.6666666666666666
0.4
0.4000000000000001
0.3781463482403337
0.1324229434152187
1.022724165796899
-0.5340862486953484
0.2950217035299358
0.5389323041181802
0
0
0.6871916308111649
0.780717033879136
0.6666666666666666
0.3458457357485158
0.4995838681502105
0.4246985600938289
0.1265610798668361
0.1265610798668361
0.6835973003329098
0.7999999999892472
0.2202179418771316
0.4759855198366967
-0.1085134838780916
0.6227329544865579
0.002182813896737777
-0.1151321228656103
1.076305664630572
0.2149786762077567
0.1018325148005344
0.3396603025958017
0.6666666666666666
0.2013180351334693
0.6985780521822819
0.7058823529409362
0.3633628890244908
0.3801608000317581
1.404474035451568
-0.1919572120629888
0.1435420855560639
-0.1785600751088227
0.008490500834847401
0.01260521278824875
0.008490500834847401
-0.0004705564400751625
0.20688348475269
0.3722226499525903
-0.1749095486851795
0.5213411121480549
0
0.2734712425923253
0
0.7160627350368517
0.4586052762299363
0.156536635393666
0.820466951923748
0.4671806655701387
0
0.1038747087928214
0.7295058161493125
0.7272727272729678
0.2784702735461732
0.4219564354821496
0.1713172313120391
0
0
0.2682524341227374
0.4420805164571115
-1.387778780781446e-17
0.4259103459239031
0.3589045779542352
0.4390274318488942
0.5898876639622758
0.4568471871191365
0.06829759066419559
-0.3075712312499356
0.2113618855242211
1.056715834262477
-0.3738806853818722
0.3540531701139054
0.06440825954696855
0.1309683450950051
0.7224575152809297
0.3073204281859031
0.03291125696485746
0.03291125696485746
0.5553478194835858
0.03291125696485746
0.133840072388302
0.03291125696485746
0.03291125696485746
0.03291125696485746
-0.3059857851164357
0.1386826881913489
0.3612844667114261
0.3198090107792906
0.07961890099990818
0.7339744610238225
0
0.1432422795164967
0.6059833150533785
0
0
0.3481281920830431
0.007180496253126368
-0.09883351480204938
0.682968334764095
0.7422066936075226
0.2912272483713552
0
0.01394232613596122
0.8641672297217353
0.161851294843855
0.09405118408574253
0
1.504318940253207
0.6743758683927468
0
0
0.1387901476568223
0
0.6859100033391498
0.5336153223584542
0.3854320816021125
0.4097920570795319
0.7517509367010708
0.03727528137066861
-0.5932853401679778
0.1586983034533635
0.03727528137066861
0.9259485624146512
0.03727528137066861
-0.1520103250855007
0
0.1292011351373759
-0.009297855943601236
0.03395050961178325
0.2251060653708336
0.9802356855423668
0.7558890377543861
0.8449712162604959
0.6112187459520527
0
0.2601420423315944
0.4
-0.04340981669138733
0
0.04402840876949361
0.04402840876949361
-0.7814100883138504
0.2082919633773706
0.5072221693534582
0
0.6666666666666666
0.001813052002831694
0.001813052002831694
0.001813052002831694
0.3387943614489482
0.03356831250488463
0.5774239115954307
0.03356831250488463
0.1698041653577016
0.6900468106354496
0.2857142857142857
0.2857142857142857
0.2857142857142857
0
0
-0.2952434998557016
0
0.6540260416331645
0.3360448613487664
0.07668538683899402
0.3874655039089474
0.2049065674864447
0.2953356515153966
-0.1671793230947387
0.7066530512283044
-1.274921133689355
0.8197269910173889
-0.1383950389759956
0.191147403921702
0
0.9326982869914331
0.5114920875026108
0.09273278754310466
0.7635843561238755
0
0.1971331969173562
0.857142857313193
0.4895687302484386
0.4
0
0.157842366731661
0
0
0.4057470052496351
0.2653890047120474
0
0.3691040925979402
0.4
0.4
0
0.02768082008799778
0.1835911248596071
0
-1.490936582074682
0.07976243867119423
0.6272215442593472
0.890919468421987
0.1299496672783271
0.468715854013656
0.3203237259551129
0.05312388716584125
0.5125782578248854
0
0.34130805691729
0.8309359926050458
0.6310000149248864
0
0.7366423351881619
0.2070184628243281
0.205059472188814
-0.2598911034612997
-0.1732197661913056
0.1845382836467637
0.5917874037754768
-0.1152005236241973
0.6675435359414067
0.2375659997502815
0.2375659997502815
0.31630712596233
0.2375659997502815
0.2375659997502815
-1.635685388098441
0.2375659997502815
0.291909226234419
0.2375659997502815
0.4974759915504549
0.3102711412680667
0.3238437284419426
0.5556808770879978
0.7871553467442114
0.07045653342624414
0.362705402447677
0.362705402447677
0.7935014941825469
0.4907036686924778
-0.0280769008716022
-0.5155654764009795
0
0.8819750240537028
0.35758409902902
0.5398650599351454
-0.01388009221270863
0.8089491829727677
0.01650835935499633
0.4197935709613179
0.278014606129334
0.0922861402089932
0.6666666666666666
0.8882875188867193
-0.5700494916283233
-0.2138247379309178
0
0
0
0
0
-0.3557552163473204
0.005065707060325148
0.4759108148110064
0.7448923153865397
0.611729057610928
0.1160366917933304
0.1160366917933304
0.1160366917933304
0.1160366917933304
0.1160366917933304
0.1160366917933304
0.1160366917933304
0.2882259420176922
0.6666666666666666
0.8176243115680154
0.5159274002180594
0.05207712829830058
-0.5031799941526441
0.3098079795701446
0
1.387778780781446e-17
0.6666666666666666
0.255781969383275
0.8840509858633681
0
0.3215973003174395
0.1824525556107501
-0.3312820986521879
0.09153818601603142
0.8280996541774078
0.223441752607181
0.7775802796689455
0.4834309535562956
0.6929583607995109
0.2181645436996117
0.0789311380988986
0
0.2981889596577966
-1.046294923988058
1.318908386703293
0
0.2445388776992591
-0.4282855707049612
0.634659735949651
0.243554663140635
0.04962414944081999
0.2296528740970604
-2.05713973480204
0
0.8210681980578906
0.4663611704007462
-0.3303862596188282
0.05585645621400728
0.05585645621400728
0.1439339056183752
0.5081207619405649
0.2066354595763669
0.2348377171370575
0
0
0
0
0
0.3299688959869874
0.1818181818181818
0.1818181818181818
0.1818181818181818
0.1818181818181818
0.1818181818181818
0
0
0
0.7424881603850098
0
0
0
0
-0.143598754905
0.3858460619907086
0.0430795867285686
0.908241762042068
-0.261426228877892
0.2448538749903557
0.2448538749903556
0.2448538749903556
0.2448538749903556
0.2448538749903556
-0.2335059910032765
0.5456797427975741
0.8350391635452222
0.2001029327043581
0.6531316412904946
0.3027593925178819
0.6116708303159613
0.3687304612406362
0
0.9853948034112705
0.423245217943315
0.476172925874209
0.2749703344684348
0.4636762427290468
0.9237237738102669
0.6085738122242949
0.2246839474431104
-0.07267541086624091
0
0.3901639035622523
0.06461324491082379
-0.2902842322596847
0.5590430866683219
0.1947829492432808
0.4937346290560034
0.7999999999969529
0
0.3486571280456094
0
0
0
0
0
-0.1184462082271468
0.4784148316231348
0.4
0.4
0.0009620241255943987
0
0.07660155744515985
0.5556325823056294
0.7272727272729678
0.1818181818180215
-0.4365682608031095
0
0
0.2761134387098576
0
0
0
0.3130197888743124
0
0.6666666666666666
0.6197055260042537
0.8000000000121661
0.2866054736141108
0.06823338158146523
0.2911400781629017
0.9176430884017951
0.2088456363253644
-0.6532624448559619
-0.02050185377220121
0.3141937518307083
0.1228092500478553
0
0
0
0
0
0
0.2888585983655912
0.7635476555079297
0.4303571372112353
0.4
0.4
0.193548387096889
0.02323885117261484
0
0
-0.554269443013937
0.4228713974394766
0.3414998892843357
0.3414998892843357
0.3414998892843357
0.09337575447005514
0.1649054146916417
3.469446951953614e-18
0.6180054237897027
0.729266334463706
-0.08466192579516391
0.4024335694748915
0.2526970477861069
-0.09759175974513662
0.90736018543888
0.6666666666666666
0.6641616768888601
0.0125280061571807
-0.0715031628616267
0.2818042943241632
-1.268363823978351
-1.437282000716677
0.2612844380254069
0.1544874100741504
-0.1491066831254451
0
0.257012896808825
0.6666666666666666
0.5207540682965326
0.5248908143280767
0.6740596674436686
-0.01145827004731337
-1.12186994105055
0.9523809489827816
0.05299756858312366
0.05299756858312366
0.3663136882703554
0.4504829032242169
0.4624959969038971
0.2654811579694715
0.5574891071476245
0.2633666652960482
1.071306597474887
-1.169174029195026
0
-0.2422460314580071
3.469446951953614e-18
0
0.5758946990544375
0.2439625078377304
0
0.8316312520001145
0
0
0.3703156721810971
0.09012152968149352
0.3321171166210506
-0.05720815157441611
0.8474904835612498
0
0.3992265225007023
0.575397947838499
0.6666666666666666
0.7170085939009274
0.009473520569133045
0.009473520569133045
0.009473520569133045
0.2441070272654398
0.630395801526359
0.7649170841875021
-0.4321847080357908
-0.165440301030129
0
0
-0.1575515181869805
0.3724232615083917
0
0.6666666666666666
0.06238835969035648
0.04262652145211875
0.50096131727503
0.8000000000122387
0.2325319739808155
0.2325319739808155
0.6666666666666667
0.7445152038996853
0
0
0
-1.173990644255163
-0.7268525353199266
-0.5666585166843862
-0.5666585166843862
-0.08009385476803944
0.1085136840013636
0.08405962340914887
0.9486763982616899
0
0
0.5402405685074008
0.0819631328302078
0.0819631328302078
0.0819631328302078
0.0819631328302078
0.6374717186593349
0.1412641303569599
-0.8350817615954449
0.0819631328302078
0.04268617286212771
0.0819631328302078
0.0819631328302078
-0.4754136285565712
0.0819631328302078
0.1979796579106481
0.7029594739460735
0.7234067179359178
0.01600095606875778
0.3340583439785934
0.6003625416249807
0.3340583439785934
0
0.4076127659680949
1.29882382144036
0.4266036105878463
0.9502762608041725
0.5045046673047038
0.1988946916361521
0.8597973395419795
0
0.3022608933284111
0.9525370846765743
-0.3559755766245201
0.7507936244194346
0
0
0
0.9164983796172352
0.4985987395992727
-0.5325289001257141
0
0.5889043443300604
0.6483693063454221
0.1213174942750358
0
0.5159828442179388
-0.7509641184919138
0.06995711897500911
0.6528830780722437
0.06488842847899158
0.06488842847899158
-0.5880256530228575
0.08134255165149262
0.5048356864066004
-0.1369239584078691
0.08134255165149262
0.08134255165149262
0.5400392291026729
0.2222222222222222
0.2222222222222222
0.2222222222222222
0.2222222222222222
0
0.2371778863882873
0.5504137196259115
0.3091506052307715
0.1960155269206454
0.1960155269206454
0.1960155269206454
0.3824496592816041
0
0.1799266144412141
0
0
0
0
0
-0.2297786119452941
-0.6601455590146728
0.4774473133051557
0.1533267063266459
0.04186207672045793
0
0
0.07342934060657808
0.4538843008071544
-0.2435818546728527
-1.584386850061304
0.5651812988703199
0.1267348112033694
0.5714285714283776
0.09750056702936664
0
0.5302925892043874
0
0.1040178005117636
0
0.1229298615334608
0.1229298615334608
0.6348888778717728
-0.5687130992644639
-0.6096949995357483
-0.7698475063473915
0.002626692734303922
0.002626692734303922
0.007037822812154006
0.4327804776394996
0
0
0
0
0.365524337371871
0.474629994768858
0
0
0.3424323217469217
0
0.5550929211894137
0
0.4005665179533617
0.09022646176401841
0.7830013302936909
0.8696676976129647
0.1775203465079639
0.1775203465079639
-0.2598413054054897
0.1311712436972215
0.1775203465079639
0.8557731305440044
0.2494488348277661
0
0
0.3075511029621596
0
0.4
0
0.1562919658629875
0.8151137674591205
0.7037412016625144
0.06484176211496001
0.7468183858383385
0
0
0
0.06771442608076025
0.2219519637769875
6.938893903907228e-18
0.6666666666666666
0.2052043330295298
-0.3793660851779426
-1.517883041479706e-17
0.05648967812741573
0
0.2112626689696764
0.6441361582738787
-0.4750483053445882
0
-0.560314650411958
1.096633312207556
0
0.6164270373700037
0
0.1742473596832143
0.6666666666666666
0.1622594775518171
0.4581188798718344
0
0
0
0.393683766315768
-0.2823869630058816
0.6666666666666666
0
0.5686283650828943
0.6666666666666666
0
0.7020864544595369
0
0.6506527586970663
0.1050122015179758
0
0
0.4386331802900978
0.05383985321016167
0.556364481031001
0.51986015882196
0.6666666666666666
0
0.2334458257852954
0.7106183076175665
0.6369880523302643
-0.7947342398480197
-0.7939794767374195
0.05885271774056774
0.07464049755129315
0.07464049755129309
0.02065088648338455
0.8056486009312108
-0.5076325692973093
-0.511545619362996
0.4525698765794166
0.7755058128429303
-0.6191949239836286
0.1367339011189
0.1367339011189
0.1367339011189
0.2380724065763988
0.1367339011189
0.1367339011189
0.08751348548769973
0.9116581781189341
-0.6554189963950954
0.5340632808048802
0.6758654468273135
0.2830623283077892
0
0
0
0
0.1350742816297235
0.07886991542346446
-0.02598626764459724
-0.1273477298251733
0.1485380418183959
0.1485380418183959
0.5560736601228168
0
0.4968951553839834
0
0
0
0
0
0.2115406268969662
0.1068253083962782
0.08416921495386151
0.2651948232613038
0.08416921495386151
0.717443828436359
0.136454574356792
0.6110622677115083
0.407230643664134
0
0.4397400860181283
0
0.3669765370282128
0.1640010319755853
0.07245069243064191
0.5015365449784797
0
0.4927584952747383
0.3620882387421039
0.405598707058083
0.327098903212642
0.2827555374164334
0.06537011766736792
0
0
0
0.875123949581226
0.6666666666666666
0.5945945945945631
0.1621621621621747
0.1621621621621747
0.1696430547332082
0.1696430547332082
-0.8567965713077644
-0.3264215118243983
-0.5154503144013241
0.1109378172065236
0.7596978483067383
0
0.7019813530866752
0.5365776678361979
0.2575434053231382
0
0
0
0.05776501635789641
0
0
0.6634328117511208
0
0
-0.2780217168145096
0.1106382216381946
0.5181576201721315
0.7223703812907243
0.4914183330445021
-0.6648148134407067
-1.614245171775629
0
0.3910437692904887
0.07245069243064191
-0.2151547020778141
0.07245069243064191
0.3399327924184679
0
0.6907675087329139
0
0
0
0.157842366731661
0.3549172629130394
0.680873031403314
0.0109292959879247
0.7999999999988532
0.6666666666666666
-0.08731063416308171
-0.4617525657875516
0
0.275424389778596
0.1904406023536358
0.4011878137886578
0.01228666083521716
0.1782669318641756
0.7999999999987095
0.5768761838064301
0.7772648909512339
0
0.3496312316979907
0.2749673145025479
0.4074824620335406
0.3949025576740925
0
0
0
0.4797895711852561
1.060497141130266
0.3610472788851459
0
0
0
0.1066407375630526
0.1066407375630526
0.5537954649767807
0.5891595373291392
0.422606947361886
0.422606947361886
0.3301434350044797
0.1603230359244944
0.1603230359244945
-0.1693135050553826
-0.746029742416926
0.2177129166425401
0
0
0
0.02409114019109207
0.9993050668233119
-0.3509840900694389
0
0
0.4230724529402631
0.2811172427069584
0
-0.2959762422850301
0.3678934887700923
0.8274929969655472
0.384574988934041
0.3678934887700923
0.6506490261865254
-0.7328043580487491
0.3678934887700923
0.7436822156811578
0.5379241008247683
0.1652925813309979
0
0.1016782951750907
0
0.06757425969417524
0
0.8169064223957031
0.6666666666666666
0.111102626344229
0.5227095931156466
0
0.04492022276546888
0
0.4
0.8869241730792188
0.1094493210632786
0.7577489507545001
0.1094493210632786
0.1698222031711639
0.1698222031711639
0.1698222031711639
0.1698222031711639
0.3730073065395184
0.8235294117636018
-0.05055030956405189
0.6223778899659467
0
0.6518732096777685
0.8895493369292621
0.3699316554870555
0.1419322053522942
0.619370772120291
0.3426394132131207
0.1616184130167972
0.3036962426083852
0
0
0.5900478137604989
0.06908722133167711
0.3851956314054228
0.3851956314054228
0.4733856717073009
0
0
0
0.6337878057195345
0.2780921312747611
-0.3895318859725818
-0.4068981872080171
0.3840489540922188
0.3840489540922189
0.7999999999992837
0.4
0
0.06918138504061362
0
0
0.6709600670685755
0.5770578018321612
0.1610139002911758
0
0
0.4187398212651293
0.9554114730154005
0.2874482708881884
0.006993462008014439
0.2979463161406638
0.4584123855203393
0
0.5245278931901562
0.05402056488007895
-0.1024235153352643
0.6322905605789982
-1.032360091926019
0.1237421907865268
0.2805128891281973
0.2805128891281973
0.2676424951071105
0.01464098549382832
0.1897665482213088
0.3375102472959977
0.0859416997141743
0.3526118613941658
0.07419911023258663
0.6042530747581679
0.5292376558007691
0
0.07656089511158537
0.1653182900000502
0
-0.5352325550702353
0.2096189882893179
0.2931126587374691
0.2931126587374691
0.2857142857142857
0
0
0
0
0.2536138197193716
0.1681755401758012
0
0.1099734087007007
0.1558360271908258
0.9008243083123146
0
0
0
0.5908163199739779
0
0
0.0723025261987419
0.0723025261987419
-0.5535366398059538
0
0.4129057071573562
0
0.1383306127805662
-0.1889938943969352
0.7254930140170619
0.7253412740470548
0.06295532639167747
0.06295532639167747
0.06295532639167747
0.06295532639167747
0.0003076467295383883
-0.3173729399363477
0.7505681893913019
0.5570255456788559
0.1954547838121238
-0.4351754088422441
0.6666666666666667
0.5392607100611833
0.3993559723343464
0.4009660414984803
0.1643323183475803
0.3108092348018244
0.275424389778596
0.6666666666666666
0
0
0.3091269593795217
0.5306970426513197
0.1890207619903573
0.8502724229652534
0
-0.4751099697913159
0.2222222222222222
0.2222222222222222
0.2222222222222222
0.2222222222222222
0
0.4500841476704651
0
-0.6267983771259269
0
0.7004329338095701
0
0
0
0
0.4412089305532388
0.01268794328015813
0.05892964567200478
0.1132358968319297
0.08193235858499362
0.5210117716991006
0.1132358968319297
0.1132358968319297
-0.5060855173420795
-0.5226187745427066
-0.5226187745427066
0.559608530186292
0.2537872041157802
0.2537872041157802
0.6666666666666666
0.6847583953660399
-0.02713759304905973
0.161432261219591
0
0
0
0.5139676847074861
0.4939832903591653
0.8000000000054395
0
-0.8064963425567627
0.1195091205820087
0.177055674152608
0.630967921607876
0.5844426420243687
0.2562695657866602
0.6447926529708352
-0.6398713640113238
0
0
0
0.6666666666666666
0.2764165434809068
0.2009156177465093
0.399061502303877
0.6851650543937634
0
0.368240681943031
0
0
0.1376731356460257
0.4023609553487376
0.0520987022765223
0
0.007568705100998666
0.007568705100998666
0.3131371423263442
0.5304033530428539
0.307480252977828
0.2718748020770407
0.6792393717300949
0.5995644509622237
0
0.2857142857142858
-0.2240644256067589
0.6666666666666666
-0.006580683338211069
1.01780785212447
1.01780785212447
0.006718911721721027
0
0
0
-1.734723475976807e-18
0.002114247743209874
0
-0.8939857196197613
0
0
0.4601993344167644
0.08118631432627525
0.704033280307388
0
0.3443662295601007
0.08213133554381062
0.2342665758305203
0
0.3122747130848704
0.05904193699430103
0.01728036683002702
0
0.6030848910279456
0
0
0.2898233473627032
0
0
0.286270344736136
0.4
0.4
0.07355624594109803
-0.5273687823343245
0.04735561625062534
0.1009288154234444
-0.5776573000466949
0.1790763911420606
0.1496247942498618
0.2207081112592003
0
0.2685209879528214
-0.3049959456356737
0.1497809537156637
0.1789838257216078
0
0.1369274090581335
0
0.09777925643097408
0.6172937144761685
0
0.6890368121855823
0.4171952132413271
-0.1495312691282795
0.9228861104138686
0.0962048290834651
0.0962048290834651
0.9856079598474564
-0.7327250417798301
-0.1762064838779289
0.3073761890965087
0
-6.938893903907228e-18
0
0.2119668373570888
0.2188696864661415
0
0.173798975092892
0.1526631424069652
0.7155968689598611
0.02070191089127706
0.02070191089127706
0.6908343244819075
0.7040472531650014
0.6666666666666666
0
0.4339559233866973
0.00222472819997283
0.1631717796013912
0
0.4956643611241519
0.6666666666666666
0
0.8366300729941858
0
0
0
0.1827716287136775
-0.5923772862220197
0.4582216769534961
0.3327806120998268
0.1733400102262401
0
0
0
0
0
0.1289111364720316
0.1040975866138812
0.3731584032569378
0.2102442068267646
0.8917702250195987
0
0.6666666666666666
-0.1470197011029351
0
-0.4297555636496526
0.0104566100795616
0.1350103612219521
0
0.1828887158367501
0.1828887158367501
-3.469446951953614e-18
0.9030964457326213
0.138453825716413
0
0
0
0
0.421648815447176
0.6666666666666666
-0.2453958327332423
-0.2453958327332423
0.8695652175544206
0
0
0.06577897579481327
0.2201627364164801
0.7111488032628285
0.2145071598675964
1.813149630436328e-11
0
0
0
-0.6518480371549513
0
0.6774870053911156
0.0329236377136701
0.7872694872987499
0.607396218283457
0
0
0
0
0
0
0.2991815741348375
6.938893903907228e-18
0
0
-1.417508368905006
0.7008246877966112
0.0917972506014377
0.2283968917608877
0
0
0
0
0.2315057578726468
1.34254324510514
0
0.09230243059215569
0.09230243059215569
0.2940130015716768
0
0.2618755963549861
0.4098555202614601
0.2702702702703483
0
0.758235057349361
0.526566450822251
-0.2628670026914228
0.1725310293397386
0
-0.9662989486602971
0.05939749679619721
0
0.5982996689761108
0.388894431575636
0.3489191912386337
0.6666666666666666
0
0.4011142209369609
0.1944562126840069
0.07823362992660608
0.3146113914337143
0.1656274337507457
0.06239677104889453
0
-0.5896543462272661
0.2061479423118272
0
0.3024214883064188
0
0.4147022714881087
-0.2991661100463198
0.274445613868324
0.4594416634492724
0
-0.1215615033933843
0
0.2967117528436001
0.1040975866138812
0.1040975866138812
0.4569656971519843
0.2040443507522359
1.334104082458358
0.4092627938947893
0.4363290527883313
0.427456521429122
0.7071914676351161
0
0.3458457357485158
0.311483124080527
0.3592801319797856
-0.298196915294461
0.4783004800532875
0.6666666666666666
0.04125906417737964
0.3926081215573604
0.04125906417737964
0
0
0.9547876754070589
0.4
1.734723475976807e-18
0.308511799097555
0.167816904520534
0
0.01979341676161855
0
0
0.2529794691168366
0.2358198419946981
0.09832519605760515
0.04463737093736068
0.04463737093736068
0.04463737093736068
0.04463737093736068
0.04463737093736068
0.04463737093736068
0.04463737093736068
0.04463737093736068
0.04463737093736068
0.04463737093736068
0.04463737093736068
0.04463737093736068
0.08662567880883763
0
0.06338831521586535
0.9156456034590884
0
0
0.386175472006076
0
0.4254363015525756
0.2213097165597513
0.6666666666666666
-0.5724202677695158
0.6666666666666666
0.4
0.4
0.01408036861575228
0.01408036861575228
0.01408036861575228
0.01408036861575228
0.01408036861575228
0.01408036861575228
0.6666666666666666
0.1283696177906944
0
0
0
0
0.6666666666666666
0.07662182027464405
0.1185891791159652
0.1533741794909325
0.4712238199744964
0.5420727457051848
0.3557686052052719
0.5370950208859649
0.04285454956350525
0.04285454956350525
0.7845172140683917
-2.081668171172169e-17
0.4994626251733727
0.2043148527230682
0.2043148527230682
0.2525382272428534
0.3268092880303931
0.2398491013276594
0.2398491013276594
0.2471158685365986
0.5483588837424265
0
0
0.09115453707313706
0
0
0.4439097028010934
0
0
0.3265794553847478
0.3833470688705117
0
0
0.6666666666666666
0.581394719158502
0.09107737641682385
0
0.1258109976411384
0.1258109976411384
-0.5839184574212192
0.6666666666666666
0.3867579557744072
0
0.2424285560688738
0.2770382386504209
0.4
0
0
0
0.09363848463225188
0.6728029550908029
0
0.8143924518439208
0.03065753909683682
0.1328700350417159
-0.4998471127690003
0.02759856464059555
0.05005901599683096
0
0.01691153710308479
0.0007016999467964226
0
0.4125114374872211
0.4125114374872211
0.6666666666666666
0.210738902545823
-0.3101843539472398
0.1141936180474003
0.2135959788636048
0
0
0.7121635037893252
0.5331805557844196
0
0.5140868328157873
0.3832467973195524
0.1702630582482188
0.3674261287596697
0.4232749428082287
0
0.6666666666666666
0
0.641507767050681
0.01053074785244897
0.6666666666666666
0
-0.06059275063844064
0
0.3448301988603655
0.1465700770412392
-1.559280129271975
0.09917722885331885
0.5820910266525247
0
0.3893904528922655
0
0.07660155744515987
0.07660155744515987
0.07660155744515988
0.07660155744515987
0.07660155744515987
0.8954034572356266
0
0.3160360593918211
0.1246891912949147
0
0
0
0.5428638778067917
0.1002600067747889
0.1643496117051675
0
0.175223315536991
0
0
0
0
0
0
0
0
0.1399796911997161
0.2017105709795209
0.2017105709795209
0.201710570979521
0.2009156177465093
-0.1142033097662962
0.2009156177465093
0.2009156177465093
0.2009156177465093
0.2009156177465093
0.2009156177465093
0.1237737282371849
0.06026963226043831
0.3386858754862889
0
0
0
0.001610069164133904
0.2698415296258056
0
0
0.2945398290648427
0.4063106692737298
0.2113093417200921
0.07874112621204832
0.2826015283046679
0.07874112621204832
-0.7110403628168228
0
0.2355496270103997
0.5781988997509407
0
0.9134600994590905
0
0
0.2894023991169604
0.04100769430769684
0.4496194700927431
0.2506152805724262
0.3121212093302576
0
0.05494053055007635
0.4464575839164833
0
0.4918602816062699
0
0
0
0
0.5047947799243885
0
0.6722256184270418
0.4173778777875471
0
0.4192354697575461
0
0
0
0.6898757675268063
0
0
0
0.4760708322648177
-0.472013475678436
-0.969737201792498
0.5909999593088361
0.01848796603629572
0.08895610356429927
-1.088249997641123
0
0.1780411580809635
0.4560318956858588
0.278335304607076
0.5210985286941179
0.6666666666666667
0.6666666666666666
0
0
0.411926929983741
0.303670256159268
-0.9912790062540813
0.2714839564480243
0.4770478897811042
0
-0.06785657129797404
0.7434670157494649
0
0.5206071938649416
0.2927246075735043
0.3635468185991038
-0.653072793441566
0.5692486251846129
0
0
0
0.4
0.2701215706298346
-0.1311277378270512
0.1202722592938743
0.1343171629102711
0.1343171629102711
0.1343171629102711
0
0.2857142857142857
0.1408685130874354
0
0.6354160567421149
0.6354160567421147
0.2029972949210835
0.1753164748330858
0
0
0
0.3596777551605433
0
0
0
0
0.4692771469627787
0.05468000272413668
0
0
0.2733631564331276
-0.2269423507677815
0.6666666666666666
0
0.240321711030722
0.2838202931400884
0.7925845300821279
0.09523809523809523
0.09523809523809523
0.09523809523809523
0.09523809523809523
0.09523809523809523
0.09523809523809523
0.09523809523809523
0.09523809523809523
0.09523809523809523
0.09523809523809523
0.6666666666666666
0.6666666666666666
0.1891531521104354
0
0.2165811449281411
0.3168260865916402
0
0.6666666666666666
0.6051429339777485
0.1978984015848848
0
-0.4290714817676731
0
0
0
0.2195616834591152
0
0.2184779169383038
0.1473818098145817
0
1.073551220025143
0
0
0
0.6469913011913193
0.2946247393194585
0.2946247393194585
0.2719929842789413
0
0
0
-8.673617379884035e-19
0
-8.673617379884035e-19
0
0.6185494734757905
0.02057144101136271
0.1109378172065236
0.1109378172065236
0.1109378172065236
0.1109378172065236
0
0
0
0.6666666666666666
0.09381525123970225
-0.1835205690770973
0.09381525123970225
0.7148456218386657
0.1449032379064233
0.090455559729961
0.090455559729961
0.006718911721721037
0
0.2423319735300008
0.3914209379257504
0
0.09584112787612199
0.1302469949012602
0.5140370142814319
0
0.2857142857142857
0.2857142857142857
0.2857142857142857
0.3173939693484111
0.5239090459773834
0.2460297156303318
0
0
0
0
0
0.574174636296549
0
0
0
0
0
0.6914407038274549
-1.00221523279657
-0.3725573099745508
-0.7899481372664567
0
0
0.2553240216462106
0.6666666666666666
0
0.09611419619649719
0.05733474603269477
0.5459879394746276
0.2536693707068544
0.08116374989524709
0.08116374989524709
0.08116374989524709
0.08116374989524709
0.175741270113044
0.1247325236950241
0.07826023379830785
0.1058735881982418
0.4
0.764483134259709
0.03821486981622991
0.03821486981622991
0.04187150818248497
0.8480573722384889
0.5556778757066227
-0.3469173682862554
-1.953775061464077
6.938893903907228e-18
0.2119668373570888
-0.5252344467092894
0.1023045974314863
-0.2719912101141039
-0.5226047892392849
-0.003574377707703063
0
0.2857142857142857
0.4797370595863364
0.4507549978767205
0
0
0
1.387778780781446e-17
0.04432769029775779
0
0.01364143010978623
0
0.5465768941436988
0.06917061107512915
0.4470432809188606
0.05459766496161224
0
0
0.2731753422395331
0.448718330494855
-1.218698025555556
0
0.3231620975709068
-0.4630411292559156
-0.8917734435312212
-0.8917734435312212
0.06291422417089651
0.06291422417089658
0
0
0
0
0.6131863652617402
0
0.9889584888904446
0.08202742913865717
0.08202742913865717
-0.8524208106721247
0.5765119034568847
-1.069335850227222
0.2498480174848127
-1.440801867630397
0.3359315445152271
0
0.4
0.5113147669888084
0.3528841953922691
0.431366891979108
-0.05825121294092339
0.1711634315091843
0.02939249504558707
0.02939249504558707
0.02260910744452603
0.02260910744452603
0
0.3478772337381296
0.4245364782301134
0
0
0
0.1797100742515788
0.5820482381935386
0.5035566277211292
0.3406553542601063
0
0.4643450491596048
0
1.040834085586084e-17
0.3476643748771026
0.02963902785346783
0.1222431869967288
0.6666666666666666
1.387778780781446e-17
0
0.6666666666666666
0
0
0
0
0.1377123631324518
0
0
0.6666666666666666
0.07495735020817787
0.07495735020817787
-0.3882128974338928
0.09273278754310466
0.09273278754310466
-0.3974464376543789
0.3519519911022176
0.544359323337597
0.3251099346491085
-0.8386718852751645
0.2857142857142857
0.2857142857142857
0.4337078195632145
0
0
0.07662182027464405
0.07662182027464405
0.07662182027464405
-1.362914608800522
0.5783063561470364
0.7999999999918408
0.4081892504395569
0
0
0.4643904292641531
0
0.2469253916313897
0.1986039624944886
0.9875834054337027
0
0
0
0.3770123243980047
0.6908042579237975
0
0.1305553500689915
0.1305553500689915
0.1305553500689915
0.401008154704385
0
0.3582423013360206
-0.8938898580016081
0
0
0.1228092500478553
0.2837769732977013
0
0
0.01917586477043573
0.4
0
0
0
0.4185590887072839
0.133129543357422
0.488371634488896
0
0.5622906679915303
0.1797098001465331
0.3164031571289925
0.7838199399052022
0
0.2981158159630282
0.9365487503187948
0
0
0
0
0
0
0
0
-0.4630156848645344
0
0.2188696864661415
0
0
0
0
0
0
0.5770607410143165
0.6666666666666666
0.1810256083074423
0
0
0.237652063211998
0
0
0.05263735387450206
0
0
0
0.6503300554267424
0.6666666666666666
0.08187391929116947
0.1044732999260983
0
0
0
0
0.0949675781758658
0.0949675781758658
0
0.3709625828360559
0.4
0.4
0.1605263141760284
0
0.234684080960596
0.2327250903250819
0
0.4965933209645194
0.04415248299861672
0
0
0.6666666666666666
0.5685418827987567
-0.8513205425508198
0.4725247689611327
0
0.395854059194168
0
0.5790499798442494
0.4205817514545709
0
0
0.2920984060314376
0.6666666666666666
0.4685924344546372
0.5784856741569839
0
0
0.1731964446384609
0.1731964446384609
0.4485138711765463
0.1731964446384609
0
0
0.2045407189013856
0
0.6466755594844005
-0.5817850497726247
-0.482873648588788
-0.5817850497726247
0.2813705867503052
-0.4511347954096916
0
0
0
0.009143379929528128
0
0
0.5139308219932932
0.08980909750714133
0
0
0
0.4427081793799628
0.1266980503386312
0.2105677504025568
0.3931881259784646
0.09382636851381797
0.09382636851381797
0.09382636851381797
0.09382636851381797
-0.1012555052917682
0
-0.1917301909602818
0
0.8296075699905514
0.4271085130375243
0.4
0.4
0.2402881547230735
0
0.1999822592076591
0
0.06918138504061362
0.2391899011104865
0.2391899011104865
0.2391899011104865
-0.1181135310655525
0.2391899011104865
-0.8223121112834212
0.216941617059185
0.216941617059185
0.216941617059185
0.5071107888972474
0
0.2307681019825872
0.6455503687879176
0
0.05301008467305576
0
0.1950258532811794
-0.3157349548330909
0.4978033900462817
-0.2857142857142857
-0.2857142857142857
-0.2857142857142857
0
0.3434746579742282
0.1819925324592359
0.704247083200468
0.1497543144174497
0.03775591625617448
0.03775591625617448
0.67909620945338
0.449884943229831
0.2301197171840421
0.845735804293715
0.845735804293715
-0.3876362457921197
0.6444099307532855
-0.09913026150379889
0.3735137511206914
0.2166668183144064
0.5197730406461115
-0.5274854775013058
0.01468576912118465
0.2959866264474485
0
0
0.4
0
0.3315829150540885
-0.7924588863818558
0.1972745134937112
0.1972745134937112
0.1538461538461539
0.1538461538461539
0.1538461538461539
0.1538461538461539
0.1538461538461539
0.1538461538461539
0.1578238102299383
0
0.2065150766289722
0
0.7663541794188531
0
0
0
0
0.06829759066419559
0.8395041079443315
0.8381789095374967
0.121690371220468
0.005655576548883511
0.03314935892421659
0.1662878737391321
0
0
0
0.4020681816655605
0.1111222838336723
-0.05128469543270382
0.5631376048382959
0.5631376048382959
0
0.6666666666666666
-0.2949275336386867
0.6666666666666666
0
0
0.1562919658629875
0.1562919658629875
0.2586167359806861
0.1562919658629875
0
0
0.04494181217131235
0.04494181217131235
0.07274579307013565
0.02967602310984018
6.938893903907228e-18
0
0.4835341982797174
0.3443105344801883
0.4235645791569087
0.170565440362214
0
0
0.01979341676161857
0
0.6490865068052108
0.403148060517416
0.3451762803199708
0.2619348927830593
0.2619348927830593
-0.9576280876464436
0
0
0.3652009959327343
0.1622594775518171
0.6188265932068244
0
0
0
0
0.9339802987892608
0
0.5417638514550529
0
0
0.6717578103784935
0.1404707545861683
0
1.0716545578893
0.2857142857142857
0
0.2857142857142857
0
0.2857142857139628
0
0
0
0.05383985321016169
0.1266980503386312
0.4
0.4
-0.5366107774045764
0.4066067409227376
0.4066067409227376
0.130037929888267
0.279910111914397
0.2235164277787045
0.745884021070666
0
0
0.1377065364455599
0.009156117511663049
0
0
0.1333333333333333
0.1333333333333333
0.1333333333333333
0.1333333333333333
0.1333333333333333
0.1333333333333333
0.1333333333333333
0.286824208523888
0.3627274899917017
0.315587380968597
0.08998087762462406
0.748918282173002
0.6484855950422027
0.6666666666666666
-0.2206063968883526
0.4342859381994605
0.4342859381994605
-1.52111208828087
0.4342859381994605
0.4342859381994605
-0.9216134227484707
0.2228044398470581
0.03976335875699333
0.343090877032727
0.06397229284778035
0.009445094789219698
0.009445094789219725
0.007489642709460583
0.2592192035591129
0.2592192035591129
-0.4203347221939771
0.1903350720907828
0
0
0.1779383465155643
0.3444359076649021
0.05924000404525768
0.4440828381698853
0
0
0
0
0.03680709357753432
0.03680709357753432
0.3769930193911371
0.1063163968029366
0
1.02454837896262
0
0.6666666666666666
0.2007270965563753
0
-0.2156478161970797
0
0
0
0
0
0
0
0
0
0.1087409335308474
0.2539385667610577
0.2539385667610577
0.1377280556582241
0.8000000000004776
-0.9334733147350578
0.5764266355838216
0.2368622237541708
0
0.2778272777772872
0
0.3146364189070334
0
0.2465086276268137
0.8806871562454917
-0.1008932652351441
0.4182766358720901
0.3664534760519857
-0.1643031325266195
0.006092353657490199
0.1222258142772147
0.3834692068479261
0.7405789971854908
0.7405789971854909
0
0.7574991572695988
0.09917494692925873
0.09917494692925873
0
0.1724945147463286
0
0
0
0.07230015393893008
0.07230015393893008
0.157842366731661
0.585498897164268
0
0.0633167461323049
0
0.4346157659039657
0
-0.4207836276063834
0
0.4626721709396963
-0.02030969736414989
0.4816217521695082
0.08695652180811234
0.2379683748594744
0.06230046291570272
0.2786620784385931
-1.196209587127951
0.02224970411206679
0.8642412415191782
0.133129543357422
0.133129543357422
0.2400385373090616
0.133129543357422
0
0.06394256260684988
0
0
0
0
0
0
0
0
0
0
0.1897940170624169
0
0
0
0.7286458179611867
0
0.5340452925371842
0.2301163939321054
0.2301163939321054
0.3918327990560374
0
0
0.2452628040080722
0
0.1615653079458592
0.6767589762017366
0.1467669776106524
0.1467669776106524
0.1467669776106524
0.1467669776106524
0
0
0
0
0
0.6765999147822519
-0.03515036942883937
0.1312530105209947
0.2067855948262349
0.2857142857142857
0.2857142857142857
0.2857142857142857
0.2530526369982415
0.6700632747243572
0
0
0
0
0.4518254280713217
0.3665688785922332
0
0
0
0
0
0
0
0.8000000000011702
-8.673617379884035e-19
0.03809818970324196
0
0
0
0
0
0.5064843646789888
0.4357765282177834
0.2373065722574752
0
0.4654192867040202
0.2222222222222222
0.2222222222222222
0.2222222222222222
0.2222222222222222
0
0
0.3464865698683007
0.8944558193131975
0.3392491268313848
0.8000000000011774
0
0
0
0
0
0.155509710378186
0
0.1621621621620403
0
0
0
-0.4718966236784054
0
0.07044975059626968
0.07044975059626968
0.07044975059626968
0.07044975059626968
0.1850948213086547
0
0.4402870586085864
0
0
0
-1.2848323091127
-0.511951735440903
0.1022712436876529
-0.5611410359949045
-0.965297627949655
-0.5038843789081728
-0.965297627949655
3.469446951953614e-18
0
0
0.7999999999963737
0
0
0
0.1820016819588545
0.04699283384392122
-0.2524321630779773
0.2698415296258056
0.2698415296258056
0.4905254483815208
0
0
0.3715772231910885
0.6666666666666666
0.6666666666666666
0.3769930193911372
0.3769930193911372
0.3612692438562526
-0.182018936436217
0
0
0.4492590964530614
0
0.06872909311446561
0.2622265810553492
0.06872909311446561
0.06872909311446561
0.3703061247004238
0
0.6666666666666666
0
0.1377614394791171
0.3362237592505654
0
0
0.02761335439993393
0.04414661160056099
0
0
0
0
0
0.155185644216485
0.155185644216485
0.6666666666666666
0
0
-0.6505649893450186
1.734723475976807e-18
0.3072328355680882
0.2627967303165253
0.2627967303165253
0.3428396075048289
0
0
0
0.09481152584596243
0
0
0
0
0
0
0.3874655039089474
0.0911476146923539
0
-0.7787254878050058
0.2084016074239272
0.07791995986889728
0.1065041388617231
0.1065041388617231
0.5035658322946164
0.2160640851999588
0.1394825515273942
0.02632597542221104
0.02632597542221104
0.5085311022856344
0.03624452163083538
0
0
0
0
0.001859598100403734
0.3650207488641545
0.3738693291932713
0.1090769887531995
0.7272727272725906
0.1818181818177717
0
0.3656386958014815
0
0.05296148782400566
0.1445429640678447
0.5715587485758222
0
0
0
0.117647058823073
0.043660713819205
-0.9133399091757757
1.275313031609687
0
0.05208749680156299
0.1518555245066683
0
0
0
-1.233731201254912
0.3590769847768058
-0.1518809393376905
-0.1518809393376905
-0.7698777010675334
0
0
0.7602272647234948
0.28062438474096
0
0
0
0
0
0
0
0.1299224847565285
0
0.3342521431883281
0.2857142857142858
0.4
0
0.6666666666666666
0.07086743555680512
0.3551189928185576
0.6906101532736992
0
0.03997524033700251
0.03997524033700251
0
0
0
0
0.3545308822412038
0.3545308822412038
0
0.2804442757657534
-0.7937821755453712
0.4103597095007557
0.5685760062219865
0.7022210719705891
0
0.1462482675653014
0.254443990105368
0.1462482675653014
0.3510750866105378
0.3510750866105379
0
0.1347764989633498
0.4405334421073095
0.2245634112299856
0.2245634112299856
0.2245634112299856
0.2245634112299856
0
0.510412331230765
0
0
0.06230046291570272
0.06230046291570272
0.06230046291570272
0.06230046291570272
0.06230046291570272
0.6601478946604029
0.1043520523522641
0.1043520523522641
0.1043520523522641
0.1043520523522641
0.1043520523522641
0.1043520523522641
0
0
0
1.098451915389001
0.2684026100540804
0.6966870425239727
0
0
0
0.2673762138905457
0.3621877397365081
0.1449108441251787
0.1252686049841182
0.392957426499786
0
0
0.2622348940162901
0.1225904659824635
0.1225904659824635
0
0
0
0
0.2301522133322672
0
0
0.1487928589561822
0.1487928589561822
0.1487928589561822
0.009094297932522128
0.04135739358346652
0.04857263825469602
0.6666666666666666
0
0
0.2241937584564648
0.1787519833049335
0.4
0.2978914617151803
0.266810816977055
0
0
0
0.4456342460845232
1.006704268336732
0.09094427522347502
0.1863413551829164
0.1863413551829164
0.1863413551829164
0.4220934076470222
0.3852710615686518
0
0
0
0
0
0
0
0
-0.5361399416538032
0.08431537731403582
0.2230434087730593
0.09149075914219315
-0.8534345641127313
0
0.4674972981607349
0
0
0
0
0
0.004944887728766285
0
0.1484006713669662
0.207033925098296
0.009619853776224839
0
0
0.2628252888352276
0
0.3225677531442083
0.3225677531442083
0
0.0406831940467389
0.4566585291185416
0.008959814993921877
0.2304246277487568
0.2304246277487568
0.138956216153712
0
0.09335567292639003
0.09335567292639003
0.09335567292639003
0.09335567292639003
0.09335567292639003
0.09335567292639003
0.4
0.05781963437291546
0.4100423925398727
0.3065644691841173
0
0
0.7385334377768996
0
0
0
0.2248759237528947
0.2248759237528947
0
-1.011678168362223
0.2203142914866837
-1.194389949150698
0.008043495734838891
0.008043495734838891
0
0.5347062706930347
0
0.9230769244410715
0.1176470588235294
0.1176470588235294
0.1176470588235294
0.1176470588235294
0.1176470588235294
0.1176470588235294
0.1176470588235294
0.1176470588235294
0.3971244991252404
0
0.311629879882645
0
0.6714371691091769
0
0
0
0
0.5315837234151947
0.4209869005097489
0.6666666666666666
0.06531523062797916
0.06794488809798367
0.06531523062797916
0.06531523062797916
0.06531523062797916
0.06531523062797916
0.06531523062797916
-0.5749923080307892
0.6304890951960992
0.6304890951960992
0
0.5840469127227844
-0.9874315516779102
0.6666666666666666
0
0.1241889714840762
0
0.4319206903692756
0.06971516954566243
0.4
0.4
-0.7829957903174887
0
0
0.05170752579574255
0
0
0
0
0.5483655590839922
0.1008374500790838
0
0
0
0.2907077744915819
0.2907077744915819
-0.2560639056394318
0.09917722885331885
0.09917722885331885
0.09917722885331885
0.09917722885331885
0.555140706324771
0.6956521739128714
0.4228355683874624
0
0.3226413739542904
0
0
0
0
0
0.6021255051931177
0.2652496632045882
0
0
0.344747576527637
0
-0.9565246320616303
0
0.1069089939516396
0
0
0.5428974314182096
0.4345974830070697
0.2737338554397318
0.4786262367584386
0
0.2428642293892661
0.051852972239271
0.051852972239271
0.2402881547230735
0.2435298488241745
0.3031104819385908
0
0.2857142857142857
0.2857142857142857
0.2857142857142857
0.1698203990799847
0
0
0.2988643220104
0.2804442757657534
0.04622681487096289
0.6666666666666666
0.6666666666666666
0
0
0.1480256647520671
0
0.08032210136805654
0.08032210136805654
0.08032210136805654
0.5440555633936627
0.100962535456977
0.100962535456977
0.09075552392331589
0
0.45848746040653
0
0
0
0
0.6666666666666666
0
0
0.1314002465943752
0
0.01842368839091032
0
0
0
0
0
0.4743861851360222
0.1844872323551762
0.2425547668489553
0.2425547668489553
0
0.2135643693282667
0.4360968240666217
0.2464095684375532
0
-1.061316251430058
0.02321883134872293
0.6666666666666666
0
0.6939715900763492
0.1483893533643711
0.2250422245894549
0
0.2400533857684087
0
0
0
0
0
0
0
0
0
0.2587663052380889
0
0.07533864330494545
0.07533864330494545
0.07533864330494545
0.47437275134602
0.1013253543093853
0.1013253543093853
0.1013253543093853
0.1013253543093853
0.1013253543093853
0.1013253543093853
0.1013253543093853
0.008977895795912587
0
0
0
0.2049065674864447
0
0.07263054653625255
0.6207270959153552
0
0
0.2954521592060068
0.3640036363661013
0.2529463903341563
0.2529463903341563
0.1200359713878785
0
0
-1.555306878252467
0.2974326783583349
0.1760912984799502
0.2857142857142857
0.2857142857142857
0.2857142857142857
0.7341918493218802
0
0
-0.6666666666666666
-0.9740281763607173
-0.7363761131487194
0.2160343158442098
0.7553586051072582
-1.147269757154471
0
0.1069089939516396
0.1069089939516396
0
0
0
0.0520987022765223
0
0.1705604266019595
0.1705604266019595
0.06169245541655861
-0.02397196060325835
0
0.7108145017075631
0.6666666666666666
0
0
0
0
0
0
0
0.4953247354607834
0.6666666666666666
0
0
0
0.3716030710497328
0.2513308117558585
0.2513308117558585
0.6666666666666666
0
0.3409113643292778
0.2126389324801208
0.4
0.07263054653625255
0.07263054653625255
0.1124513195139603
0.1124513195139603
0.1124513195139603
0.1124513195139603
0.4939622815075464
0
0
0
0
0
0.2137862445868844
0
0
0
0.4297398906909831
0.137977683524752
0
0
0.2441300396467745
0
0
0
0
0
0.6666666666666666
0.05665908445488115
0.00218281389673777
0.00218281389673777
0.00218281389673777
0
0.06533083783312142
0.06533083783312142
0.4241143329469088
0.2356528928102264
0.2356528928102264
0
0
0.6666666666666666
0.06807899041572113
-0.4
-0.4
0
0.2956784750486181
0.06336608805890108
0
0.6666666666666666
0
0.6666666666666666
0.4031235143649309
0
0.4591157855273684
0.3499241234947397
0
0.1403289018242476
0.6370655164488266
0
0.592318255295428
0.1683794427824516
0.1683794427824516
0.1683794427824516
0
0
0
0
0.2494488348277661
0.2494488348277661
0.4080056601770785
0.1654959964458372
0.01979341676161857
0.01979341676161857
0.01979341676161857
0.01979341676161857
0.01979341676161857
0
0.1810256083074423
0.1810256083074423
0.1810256083074423
0.2439024390241138
0.3266673649722938
0.3982241485998348
0
0.6852746325909405
0.03560545090078726
0.03560545090078726
0.03560545090078726
0.03560545090078726
0.03560545090078726
0.03560545090078726
0.03560545090078726
0.03560545090078726
0.04490373122279522
0
0
0
0
0
0
0
0
0.4
0.3881866271258302
-1.02018825117262
0.3881866271258302
0
0.1041934781004169
0.3601936515738265
0
0
0.06734749919995421
0.06734749919995425
0
0
0
0.6666666666666666
0
0.5667416995012426
0.5526900787516335
0.6826732976823972
0.1463414634147315
0.1463414634147315
0
0.3269003025293779
0
0
-0.5767162373615438
0.02625872911419602
-1.25647841037981
0.101068872744638
0.101068872744638
0.004433413495762952
0.1492258855266681
0.2496329465592187
0.4791424284114883
0.6666666666666666
0
-0.1556199657361832
0.6878576862381494
0
0.5713712661278975
0.4844248123415683
-0.6502123043694912
0.3398228955387825
0.09084041753344108
0
0.06062695467284531
0.06062695467284531
0.5700238637220618
0
0
0
0.4951553538227595
0.6666666666666666
0
0.705567195611406
0
0
0
0.06772720878667843
0
0.1369274090581335
0.1369274090581335
0
0
0
0
0
0
0.3673061073907037
0
0.01667685528112514
0
-0.2307722367753153
-1.188954499048593
0.237132786365686
-0.8126313375935573
0.05912068940486827
0.157262427299691
0.157262427299691
0.139233405600713
0.4843389640038119
0
0
0
0
0.356200410892322
0
0
0
0
0
0
0
0
0
0.04490373122279522
0
0
0
0
0
0
-0.4351111618042647
0.3651322800672712
0
0.06150592875783121
0.2520433542677721
-0.7596462958789055
0
0.6051989525944478
0
0.5968394189485082
-0.317407770081936
0
0.6052530003172569
0
0.02785260611647233
0
0.2857142857142858
0.2857142857142858
0.3863684209508083
0.04906716555389025
0
0.08904161244479386
0.08904161244479386
0
0
0
0
0
0
0
0.04082784995392917
0
0.6666666666666666
0
-0.9977944704420164
0
0.07902163285899008
0.4
0.4
-0.4832115215919674
-0.4832115215919674
-0.4832115215919674
-1.507300268059678
0
0.3883044396341033
0.07873768967483691
0.09110235278477627
0.09044020006235853
-0.5548054941949006
0
0
0.1247702111531827
0.08215158060844094
0.6286490303671901
-0.1095890410959605
0.3373584789949691
0.3532887789073956
0
0
0.6062261905603918
0.6062261905603918
0
0.4263319346205481
0.04618600210679272
0
1.908195823574488e-17
0.06211006129433586
0
0
0
0
0
0
0.266304197646387
0
0.6666666666666666
0
0
0
0.1780411580809635
0
0.4584874604065299
0
0
0
0
-0.0724043461500723
0
0
0
0
0
0
0
0.0825888614671484
0.4605137957892634
0
0
0.08229134679098811
0.08229134679098811
0
0.8571428572202764
0.4279085136487062
-0.7674276521072833
0.4039417749710689
0.6666666666666666
0.3706114412200765
0.08602358429511255
0
0
0.8205361396734513
0
0
0
0
0
0
0.2434074147521514
0.08980909750714133
0.5360561981856645
0
-0.5365480667199782
-0.5313097845968953
-0.03320800713656077
-0.9039571826599372
0.6666666666666666
0
0.2857142857142857
0.06957729948442987
0.0104566100795616
0.0104566100795616
0.0104566100795616
0.0104566100795616
0.3838266592383992
0.3838266592383992
0.1298881306630643
0.08004287718830368
0.4325916896452641
0
0.5725552416399371
0
0
0.4561759985815564
0.4330269899055833
0.06901951853977858
0
0.2338440892476407
0
0.0148334354325907
0.1971266822481816
0
0.6666666666666666
0
0
0
0.2250422245894549
0.2250422245894549
0.1005653216573758
0
0.4567397393419241
0.1910361823950911
0
0.2560001734734099
0
0
0
0
0
0.2048531752514785
0.6516730801525836
0.6516730801525836
0.2985309078077253
-1.166969963265264
0.04198830787147699
0
0
0
0
0
0.6666666666666666
0.1751745913838275
0
0
0
0
-0.6704499194299188
0
0.05461223164743376
0.05301008467305576
0
0.3432432960458255
0
0.09218126937889309
0
0.1528168206069719
0.1528168206069719
0.1528168206069719
0.1528168206069719
0.421230907013937
0.03538484502322845
0
0
0.02924284110818965
0
0
0.1865555893433174
0
0
0
0
0.3129377160138979
0.3129377160138979
0.1633362270346436
0
0.1016389190395292
0
0
0.1195091205820087
-0.3416810899596943
0
0
0.1249750534072147
0
0.4
0.4
-0.2628670026914228
0.3829701789112456
0.3829701789112456
0
0
0
0
0
0
0
0.05918428982394764
0
0.0869565217391796
0.0869565217391796
0.0869565217391796
0.1557595445468766
0.6216046602505299
0.1557595445468766
0.02423020220945542
0.02423020220945542
0.1623824834189772
0
0.3283381198976802
0.06578848001435136
0.3720574554315423
0
0
0.6666666666666666
0
0.3170857715981978
0.3170857715981978
0.3170857715981978
0.06564337324314246
0.3681102466088203
0
0
0
0
0.1066407375630526
0.1066407375630526
0
0.06099210464008869
0
0
-0.3834134416168894
0.6666666666666666
0
0
0
0
0.2090323606189714
-0.2094823391286875
0
0.3709254718663139
0.1859374538835599
0
0
0
0.1934974879408839
0.05510197651173605
0.1139864063594155
0.1139864063594155
0.1386099203989327
0.5020687914137048
0.004073537788001642
0.004073537788001642
0.1811266123717898
0.004073537788001642
0.004073537788001642
0.004073537788001642
0.004073537788001642
0.0708779052977566
0.08926470264951775
0.2857142857142857
0
0.2857142857144149
0.2286056182169972
0
0
-0.4074273731140039
0.3116298798826449
0.1828887158367501
0.4724705188724985
0.0785427254073162
0.0785427254073162
0.0785427254073162
0.0785427254073162
0.1956113479824858
0.28894664864903
0.28894664864903
0.002114247743209867
-0.09604015397456413
0.191107565746644
0.191107565746644
0.1828560539859542
-0.5923832591893317
-1.04434850824078
0.2130168033398027
0.04239383592095945
0.05904193699430103
0.05904193699430103
0.06743272390030877
0.06743272390030877
-0.725889384912315
0.6666666666666666
0.4
0
0
0
0
0.006363334842814765
0.006363334842814765
0.006363334842814765
0.006363334842814772
0.03867365179039464
0.006363334842814765
0.5922057441491032
0.2222222222222222
0.2222222222222222
0.2222222222222222
0.2222222222222222
0.1897665482213088
0.1897665482213088
0.1818181818180215
-1.035204933834088
-0.9377894551700517
0.7194846568199167
0.1153619040789811
0.4817619644349876
0.09531180462948978
0.09531180462948978
0.1815863102229009
0.1150046686896351
0.1765033571335472
0
0
0
0
0
0.3350091198613553
0.4167058406210927
0.2362272408459155
0
0
0
0
0
0
0
0
0
0
0
0.1939256612941786
0.1939256612941786
0.1594801508144928
0.1594801508144928
0.2749406698294902
0.2749406698294902
0.2749406698294902
0
0
-1.550125246776599
0.1248119372028913
0
0
0
0.4615385887300774
0.02451239990213688
0.01842004624464668
0.01842004624464668
0.01842004624464668
-0.1521529559342804
0
0.6407684843622186
0.2113093417200921
0.2113093417200921
0.6651426691533892
0.1483759272796235
0.1483759272796235
0.1615653079458592
0
0
0
0
0
0
0.1491427874687429
0.6271430313281428
0.1491427874687429
0
0.08118631432627525
0.08118631432627525
0.446147973759315
0.3033769783006848
0
0
0
-1.133512893246411
0.1442007963742567
0.1152697519827903
0.1152697519827903
0
0.2207081112592003
0
0.5136466068880168
0
0.6666666666666666
0.1208758566210083
0.8185972753275468
0.219853247699473
0.3358072223082536
0.2311005996366642
0
0.1230862509555416
0.6666666666666666
0
0
0.1885606841529427
0
0
0.4884383991865775
0
0.5764862394138308
0
0
0.1016389190395292
0
0
0
0.4565141324183486
0.4565141324183486
0
0.4
0.4
0
0
0.1474972057039562
0.3670627497118345
0
0
0
0.4004189410591724
0
0
0.6666666666666667
0.6666666666666666
0
0.01464794923944886
3.469446951953614e-18
0.07110178656257087
3.469446951953614e-18
0
0.4694293793794889
0
0
0
0.1176470588236255
0.1176470588236255
0
0.07181321923050084
0.07181321923050084
0.2923938949061288
-0.5385280113220258
0.2923938949061288
0.2923938949061288
0.2452628040080722
0
0.3165739592492735
0
-0.3241947848082223
0
0.08448195942173954
0.08448195942173954
0.08448195942173954
0.08448195942173954
0.08448195942173954
0.08448195942173954
0.08448195942173954
0.2363698272588052
6.938893903907228e-18
-0.2135229183200151
0
0.09031032720463071
0
0
0
0.2274588695427681
0.2274588695427681
0.4
0.4
0.2166012408739503
0.2857142857142856
0.815042114969121
0
0.171205572971573
0.2484107912453558
0.6666666666666666
0.6666666666666666
0
0.4582669574705286
-1.20897492079821
0
-1.095132602061776
0
0
0.5468550369045416
0
0.03057811861511287
0.03057811861511287
0.6666666666666666
0.6666666666666666
0
0.03602100898079504
0
0.7426614779254256
0
0
0.431970620222899
0.9568093735180362
0
0.1035540186313005
0.2628252888352276
0
0
0.5243875303943895
-0.4264448154583165
-0.4264448154583165
-0.4264448154583165
0.08177039231808531
0.08177039231808531
0.08177039231808531
0
0
0
0
0.4559859709805253
0.4414746084317251
0.04167060661284491
0.4098132634312265
0
0.2103285335645325
0.2103285335645325
0.6666666666666666
0
0.05349156522471144
0.05349156522471144
0.05349156522471144
0.05349156522471144
0
0
0.3614313567780009
0.3064908262279244
0
0
0
0
0
0
0
0
0
0
0.7584505217609731
0.3766314674088824
0.195244329175372
0
0.1375103431474927
0.1375103431474927
0.4253475469656418
0
0.1870870594609468
0.1870870594609468
0.3451952918866862
0.1870870594609468
0
0.4
0.4
0.083357287653225
0
0
0
0.1765033571335472
0.1765033571335472
0.1765033571335472
0
0.03871811289155377
0
0
0
0
0.3065644691841173
0.3065644691841173
0.265729039919916
0.3657661520892117
0
0
0
-0.6328311679383279
0
0
0
0
0
0
0
0
0
0
0
0
0
0
0.1377796000927515
0.2912125903094833
0.09124583759699832
0
0
0
0
0.1139132331005116
0.03863408024263199
0.03473350507799
0
0.6666666666666666
0
0
0
0.7273179560261388
0.2366034475305094
0
0
0
0.452279190261489
0
0.3323571022607359
0
0
-1.018230243769584
0
0
1.220978097253845
0
0
0.1689693137359724
0.1689693137359724
0
0.2958324108791684
0.8888888889159559
0.6758936066959994
0
0.4368015866498857
0.2628061659985981
0.2628061659985981
0.2628061659985981
0
0
0
0
0
0
0.2200776904195225
0.2200776904195225
0.2812793898069735
0.04541419523345958
0
0
0
0.07863342647048618
0.426011602952535
0
0.1115135806153579
0.1115135806153579
0.1115135806153579
0.1115135806153579
0.1115135806153579
0.5693464664336824
0.5751642553969022
0
0
0.002114247743209867
-0.8932264356159979
-0.1491994509421984
0.1225404774664899
0
0.7272727272724386
0.2920910262628499
0
0.3605907404984539
0.1392236637995291
0.2561463826398735
0.3596285197782002
0.2561463826398735
0.07552010699890231
0.4
0
0.1391321268995677
0
0
0
0
0
-0.6453142280126484
0.08209527668244579
0
0.3610236661136864
0.1017691365889748
0.2007270965563753
0
0.3369908376813698
0
0
0
0
0
0
0
0
0
0.2560001734734099
0.3685005555115444
0.2459508284712611
0.2459508284712611
0.1482810097845599
0
0
0.3049718148310873
0.3474468556222842
0.3474468556222842
0.157262427299691
0.06619674165767067
0.2816702527272307
0
0
0.2793680493576381
0
0
0
0
0.2315953410057957
0.7999999999963737
0
0
-0.3514187099464561
0
0
0
0
0
0.4838364262958608
0.02314833155392376
0.1533237218847058
0.1269271003722975
0.2671648397195492
0.2671648397195492
0
0.3894057482626241
0.3894057482626241
0.2358187519782605
0.2358187519782605
-0.8154719702838045
0
0
0
0
0.383642661925913
0.1376785665613541
0.2796551213007977
0
0
0
-0.1233691482025146
0
0
0
0
0.4047426568928051
0.2701299563359068
0.1739129993330382
0.04140885558655951
0
0
0
0.5076536790678878
0.3289931492038107
0.3289931492038107
0
0
0.6666666666666666
-1.185362786337872
0.01716935420469509
0.01716935420469509
0.01716935420469509
0.4814963086676787
0
0.01898987806952015
0
0.2346335066963067
0
0
0.01320700559249796
0
0
0
0.2825125300746588
0.3412087230338841
0.7141002758105076
0
0
0
0
0.6666666666666666
0.1465341025665686
0.01401882847171649
0
0
0.6666666666666666
0.2468565381957603
-0.3602527918698313
0.3675269227655007
0
0.0558355267394482
0
0
0
0.4507549978767205
0.1006521593698704
0.1286195014746493
-0.3696312320843302
0.1153328694602993
0.06245907761610275
0.06245907761610275
0.06245907761610275
0.06245907761610275
0.1208976493348928
0.6188945796990144
-1.45369763443673
0.07823362992660611
0.07823362992660611
0.3335770370564758
0.3931903552960607
0
-0.2239323715909916
0
0
0
0
0
0
0
0
0
0.1797100742515788
0.6666666666666666
0.1643496117051675
0.6581735384217983
0
0
0
-1.241264682469739
0.4970670764829781
0
0
0
0
0
0.0212633638485859
0.0212633638485859
0
0.2791770019444486
0
0
0
0
0.3784733718590494
0.01770527505187391
0.2575987715645983
0
0.2924568098204162
0.2465753424656552
0.2465753424656551
0.2465753424656552
0.2465753424656552
0.6666666666666666
0
0.1845382836467637
0.3141884912527436
0
0
0
0
0
0.03778471203770356
0.07914210562117011
0.3111892785235515
0.04906716555389026
0
0.4
0.4
0.4
0
0
0
0
0
0
0
0.175223315536991
0.175223315536991
0.02533362108509039
0.01770527505187391
0.2082772251277971
0.4
0.6666666666666666
0.008944978334357943
0
0
0
0.08008879286827311
0.08008879286827311
0.08008879286827311
0.6666666666666666
0.3225806451608887
0.5161290322577776
0.2295645609403
0.2779241731854767
-0.8433371325013124
0
0
-0.4290714817676731
0.0558355267394482
0.0558355267394482
0.05758795773965875
0
0
0
0.0852565494790887
0
0
0
0
0
0
0
0
0
0
0.02768082008799778
0.02768082008799778
0
0
0
0
0
0.08260513113343511
0.08260513113343511
0.08260513113343511
0.08260513113343511
0.08260513113343511
-0.7461447591262473
0
0
0.1594211370656069
0.6666666666666666
0.6678133554262903
0.126672981317717
0.0804910826991013
0.0804910826991013
0
0.2486071843849087
0.2486071843849087
0.2486071843849087
0
0
0.1142201417269047
0
0.589450809437157
0
0
0
-0.4976688193300159
0
0
0
0.1378150861069629
0.006718911721721027
0.006718911721721027
0.006718911721721027
0.4
0.4
0
0
0
0.002201904670919947
0
0
0
0
0.04796226107053048
0.1696662982191992
0.04796226107053048
0
0
8.673617379884035e-19
0.1253101801506944
0.06651836313233429
0.06651836313233429
0
0
0
0.2457332596123554
0.2457332596123554
0
0.6666666666666666
0
0
-1.240982796353412
0.8000000000024174
0
0
0
-0.8404707834471354
0
0
0.5035658322946164
0.6666666666666666
0.3198258840992444
0
0
0
-0.3622066207446367
0.03384192215218938
0.2398464286207092
0.400383928448227
0.2398464286207092
0.6789498989156025
-1.58251524497274
0.190814422532475
0
0.002005858571202451
0
0
0.5607749857104642
0.5895035500372607
0.3157608959311549
0.01233599221901201
0.1228092500478553
0.1228092500478553
0.1228092500478553
0.1228092500478553
0
0
0
-0.948570094239843
0
0.187549468038398
0.04100769430769684
0.04100769430769684
0.3830424656316163
0.05621424306075361
0
0
0
0.004411130077850076
0.6362999142802321
0
0.4437297538787164
0
0
0
0.4
0
0
0
0.3710693146248905
0.5758762539875425
0.1973440534117745
0
0.7008932316322281
0.6582631914745007
0.206934090042093
0.1208356189798775
0.2437972510608231
1.387778780781446e-17
0
0.1328668036385925
0
0
0
0.4
0.4
0
0.0852565494790887
0.0852565494790887
0.0852565494790887
0.0852565494790887
0.5743615498561313
0.5743615498561313
0
0
0
0
0.1240485933813998
0
0
0.09390065961293499
0
0.06593406593405908
0
0.2588079753546962
0
0
0.2206839187557151
0
0
0
0
0.1601038692631942
0
0.07297853334089051
0.8735562353812166
0.002005858571202451
0
0.2059681031839156
0.2061479423118272
0.4856980784706482
0
0.1525080105025207
0
0
0
0
0.01890498134904847
0.01890498134904847
0.01890498134904847
0.01890498134904847
0.1436737038734617
0.2468728113039116
0.6666666666666666
0
-1.622066129563371
0.04740837965568045
0.04740837965568045
0.04740837965568045
0.02045667768823986
0.02045667768823986
0.02045667768823986
0.02045667768823986
0
0
0.05157660342361254
0.2216332567644854
0
0
0.2857142857142857
0.2857142857142857
0
0
0
8.673617379884035e-18
0.5785038453371401
0
0
-0.6666666666666666
0
0
0
0
0
0
0
0.4511902242293923
0.2295470761177251
0
0
0
0
0
0
-0.6738324738728452
-0.004307244493421125
0
0
0.3832511499305652
0
0
0.01382912710934097
0.04873475340945672
0
0.08904711953275725
0
0.1166820115745707
0.2797572877861619
0.0423460487470244
-0.3800064108258265
0.05447627055814338
0.2222222222222222
0.2222222222222222
0.2222222222222222
0.2222222222222222
0
0
0
0
0
0
0
0.002629657470004525
0.002629657470004525
-0.2614063407511286
0.002629657470004525
0.05452424320694016
0
0.4230665030762383
0.2912125903094833
-0.3006594293386443
0.3342521431883281
0
0.3362689273627871
0
0
-0.8106027560725709
-0.8106027560725709
-0.8106027560725709
0.1457025796842187
0
0
0.4
0.4
0.1818181818183742
0.6666666666666666
0
0
0.2610784499091567
0.2610784499091567
0.1910361823950911
0.4
0.2236406732685335
0.01257990435944809
-0.55930849287871
0.5152146948989214
0.1077300678002397
0.1077300678002397
0.1077300678002397
0.1077300678002397
0.6666666666666666
0
0.2588733144154176
0
0.2315265834460918
0
0
0
0
-0.6726404094869731
0.293490254525996
0.6666666666666666
0
0.1202941546610262
0.6666666666666666
0
0
0
0
0
0
0.5708404966319954
0
0.4
0.4
0.2245301599370966
0
0.2827035982383022
0.1581082324257395
0.2819400841156769
0
0
0
0
0
0
0.2819353097738935
0.2819353097738935
0.2819353097738935
0.2819353097738935
0.3526346408585314
0.3778988537397933
0.4790479537125817
0
0
0
0.02224865545854177
0.02224865545854177
0.2038604020926194
0
0
0
0
0
0.2628252888352276
0.4
0.4
0
0
0
0
0
0
0
0
0
0
0.09431703385574129
0.09431703385574129
0.4
0
0
-2.775557561562891e-17
0.1247702111531827
0.5774481574409909
0.1760492550985349
0
0
0
0
0
0.17714485916342
0.17714485916342
0.2837165301221221
0.6666666666666666
0
0
0.01450213241041724
0.01450213241041724
0.4726817682705389
0.2172192299666951
0
0
0
0
0.6714371691091769
0.4901335527734524
0.4901335527734524
-0.8314610241816701
-0.8314610241816701
0.07681066445347635
0
0
0
0
0
0
0
0
0.4
0
0
0
0.7606370969699273
-0.5366175731180064
0.1874664349781429
-0.7593170001138989
0.4856980784706482
0.295202287753303
0.295202287753303
0.295202287753303
0.02209921346042657
0.02209921346042657
0
0
0
0.6666666666666666
0.6248345267433199
0.2501212273220429
0.02589847743623912
0
0
0
0
0.09090999058528368
0
0
0.1522540058159168
0.6151184903338967
0
0
0
0
0
0
0
0.1883405377961301
0
0.4
0
0.1335150578281214
0
0.4
0.3983394989047337
-0.3586992955054506
-1.910771373298338
0.4
0
0.1051217078310378
0.1051217078310378
0.1051217078310378
0.1051217078310378
0.1051217078310378
0.1051217078310378
0.1051217078310378
0.3423807424156751
0
0
0.6666666666666666
0
0
0.5422962737711218
1.040648346538732
0.6666666666666666
0
0
0
0.4111259324740008
0.4794331048705869
0.1432422795164967
0
0
0
0
0.173798975092892
0
0
0.3596777551605433
0.03624452163083538
0.03624452163083538
0.04381477093709178
0.6666666666666666
0
0
0.05085172988167392
0.1017648213834861
0.1017648213834861
0.1017648213834861
0.1017648213834861
0
0
0
0
0
0
0.1281605980361598
0
0.3291022549286591
0
0
0
0.2402019664088569
0
0
0
0
0
0
0
0
0
0.5822215544471745
0.08998087762462406
0.08998087762462406
0
0.2857142857142857
0.2857142857142857
0
0
0
0
0.3839824818436346
0.6666666666666666
0.1579265884713959
0.02739677081860637
0.2464289819542274
0.1534768430353418
0.1534768430353418
0.6666666666666666
0.5021933552043885
0
0
0.03384192215218939
0.6666666666666666
0
0.3314007269964245
0
0
0
0
0.705747780732139
0
0.1249750534072147
0.1249750534072147
0
0.6666666666666666
0.09738871940665296
0.09738871940665296
0
0.2348377171370575
1.190620880486372
0.002788213954306482
0.002788213954306482
0
0.4188604996608585
0
0
0
-0.5146013533037256
0
0
0
0.2857142857142857
0.2857142857142857
0.224517988294015
0
0
0
0.2668108169770549
0
0
0
0.1511939350057948
0.1511939350057948
0.001610069164133904
0.001610069164133904
0.001610069164133904
0
0.3351392736392352
0.3166775534084831
0.2889548123226738
0.2970137197444665
0
0
0.6245316795840608
0.3764083499403452
0.2813893718811479
0.5361648329112014
0.5692486251846129
0
0.7999999999997307
0.0914159882690693
0.0914159882690693
0.0914159882690693
0
0.6666666666666666
0.07606249503919982
0.07606249503919982
0.4187723643191341
0
0
0
0
0
0
0.0878915755581431
0.0878915755581431
0.0878915755581431
0.0878915755581431
0
0
-0.6107382374269282
0.01228666083521716
0.01228666083521716
0.01228666083521716
0.01736630123543541
0
0
0
0
0.6666666666666666
0.6666666666666666
0
0
0.6666666666666666
-0.7545994630455163
0.2325958206476571
-0.6032226380172242
0.1034821371383265
0.1034821371383265
0.1034821371383265
0.1034821371383265
0.1034821371383265
0.1034821371383265
0.1034821371383265
0
0.4016633966769858
0.9221711420442866
0
0
0
0
0.6666666666666666
0
0
0.6666666666666666
0.6666666666666666
0.08269911682123847
0.1008374500790838
0.1008374500790838
0.1008374500790838
0
0
0
0
0
0.07963528398041347
0.2861265555347205
0
0
0
0
0
0
0.2358198419946981
0
0
0.6314565135130111
0
-0.8308853891877069
0
0
0.3821738119123744
0.09087022602772815
-0.4564746892088962
-0.5472459825783943
0.06405731596205487
0
0
0
0
0.1739644671365484
0
0.1770530745837882
0
0.1621080594719154
0.1438209103944265
0.1438209103944265
0.1438209103944265
0.1065663843884078
0.1065663843884078
0.05263735387450206
0.05263735387450206
0.05263735387450206
0.05263735387450206
0.3285872500244127
0.3285872500244127
0
0
0.07406700355729839
0.07406700355729839
0.1180611295799089
0.2232815177728581
0
0
0
0.6666666666666666
0.03863408024263199
0
0.4827602173762012
0.4827602173762012
0.0791215505997992
0
0
0
-0.9399307723486062
0.04186207672045794
0.04186207672045797
0
0
0
0
0.797031954144541
0.2875810899447371
0
0.5758595746007378
0.6666666666666666
0
0
0.3726661048734522
0
0
0
0
0
0
0
0
0
-0.4415279424260796
-2.207693293948974
0
0.005230843232360434
0.005230843232360434
0
0.2888585983655912
0
0.2242227498858039
0.2555429734610692
0.1241889714840762
0
0
0.1179301288570957
0.08920795687078713
0.1936116633116213
-1.121416881550685
0
0.01096235473595199
0
0
0
0.1121723616260674
0.1121723616260674
0
0
0.1584305715965393
0.1584305715965393
0.02820930684655439
0
0
0.02328386837238004
0
0
-0.3662934723713626
0
0.6666666666666666
0
0
0
0
0
5.204170427930421e-18
0.004300415868764715
0.004300415868764715
0.004300415868764715
0
0
0
0.7847650575656626
0
0
0.09079291433886111
0.5681588120783992
1.908195823574488e-17
0
0
0
0
-1.387778780781446e-17
0.6666666666666666
0.04522194298890805
0.04522194298890805
0
0
-1.472801838325929
0.6666666666666666
0.09126951533093072
-0.8835592601026564
0
0
0
0
0.1698964087346945
0
0
0
0.2464406421039742
0
0
-1.094276396814999
0
0
0.1139132331005116
0.4956821008074812
0.06260921718452309
0
0
0.04082784995392916
0
0
-0.9179238328947354
-0.1186389872058985
0
0
0
0
0
0
0
0.167816904520534
0.5776216309905721
-0.4062358105056761
-0.1969951399887477
-0.4062358105056761
-0.4062358105056761
-0.4062358105056761
0
0
0.3024435229277987
0.3024435229277987
0
0.4791227781008107
0.1379922936108577
0
0.2391941692171121
0.03099157320752875
0.03099157320752875
0.03099157320752875
0
0.07690972933760325
-1.720076191788663
0.1167176296094962
0.2149432070847573
0.5131041031406494
0
-0.9378938254207915
0
0
0
0
0.7231079505301092
0
0
0.09115453707313707
0.09115453707313707
0.09115453707313707
0.09115453707313707
0.09115453707313707
0.09115453707313707
0.3823663230195822
0.7999999999983882
0.1945885832519573
0.1815863102229009
0.1815863102229009
0.2197652260457887
0.2197652260457887
3.469446951953614e-18
3.469446951953614e-18
3.469446951953614e-18
0
0.4
0.4
0
0
0
0
0
0
0.1245953658125627
0
0.7337876339057079
0
0.06308130079262891
0
0.2380898455454614
0.0185595590385813
0.0185595590385813
0.222804439847058
0.003841360146768675
0
0.1447924720309051
0.2049704247234919
0.1457861348995443
0
0.01320144096795726
0.2737365974380267
0
0
0.09089689206886978
0
0
-0.3435142712276551
0.3548793226140143
0.001535412697490721
0.001535412697490721
0.001535412697490721
0
0
0
0
0
0
0
0
0
0
0.4
0.6666666666666666
0
0
0
0.3166927126482399
-2.775557561562891e-17
-2.775557561562891e-17
0.3635324937083741
0.2070305775729226
0.2070305775729226
0.2857142857142857
0.2857142857142857
0.2857142857142857
0.6666666666666666
0.2939466951866597
0
0
0.1057322432042416
-0.3561643835616157
-0.3561643835616157
0
0
0.1202908104866302
0.1202908104866302
0.4507708477053716
0.04425991664754457
-1.770625364742971
0
0
0.6666666666666666
0.38010482688172
0
0
0
0.3141920252954442
0.3141920252954442
0
0
0.2161969053172603
0.09337575447005517
0.09337575447005517
0.09337575447005517
0.09337575447005517
0.588602225662257
-0.6846877290088542
-0.6846877290088542
-0.6846877290088542
1.104417234604227
0.1592341577846604
0.1592341577846604
0.1592341577846604
0.1592341577846604
0.2035411273811661
0
0.1388241910995354
0.1388241910995354
0.1388241910995354
0
0.3977543531227574
0.3977543531227574
0
0
0.1318972144224145
0.6666666666666666
0.5278637257041151
0
0
0
0
0.4444445295830857
0.4444445295830857
0.1002600067747889
0.1002600067747889
0.6666666666666666
0
0.3669203532715046
0
0
0
0
0
0.6666666666666666
-0.8014424615850746
0
0
0
-0.3178396725182909
0.2048531752514785
0.2048531752514785
0
0
-0.7097294550623575
-0.7097294550623575
0.0009620241255943987
0.0009620241255943987
0
0
0.003841360146768675
0.003841360146768675
0
0
0
0.001928452476798305
0.001928452476798305
0.6666666666666666
0
0.669525229379424
0.0775284121906647
0.1274489097422203
0.1274489097422203
0.1274489097422203
0.171601392740837
0.1274489097422203
0.1274489097422203
0.1274489097422203
0
0.6218163938186523
0.07347139694980856
0.07347139694980856
0.07347139694980856
0.07347139694980856
0.07347139694980856
0.07347139694980856
0.07347139694980856
0.1325920863546768
0.4
0.2041351817719068
0
0.05893068286022071
0.1620843387259735
0.05918428982394763
0
0
0.1789838257216078
0
0
0.4
0
0.01066346252982105
0.01066346252982105
0.01066346252982105
0.01066346252982105
0.01066346252982105
0.01066346252982105
0.287802494884566
0.2474838666923964
0.002201904670919947
0.6666666666666666
0
0
0
0.04906716555389026
0
0
0.1117740942285751
0.1117740942285751
0.1117740942285751
0.6666666666666666
0
0
0
0.2737365974380267
0.6666666666666666
0.05601078356931147
0.05601078356931147
0.05601078356931147
0.05601078356931147
0.05601078356931147
0.05601078356931147
0
0
0
0
0
0
0.3622276472543056
0
0
0
0
0.2119668373570888
0.1959193702226058
0
0
0.6666666666666666
0
0.5009613172750301
0.5009613172750301
0.6666666666666666
0
0.08876565374212395
0
0
-0.6526287357277607
0.06973102850958222
0.4
0.4
0.02368310240962809
0.5709031706038946
0.1395480140580942
0
0
0
0.04432769029775779
0.2588733144154176
0
0
0
0
0
0.06542512587519371
0
0
0
0
0.4
0
0
0.2935074705246475
-0.5975546841812307
-0.5975546841812307
0
0
0
0.8289115182470687
0.3104924620142359
0.3104924620142359
0.3104924620142359
0
0
0
0
0.1628313765664968
0.1628313765664968
0.1628313765664968
0
0
0
0
0
0
0.3033295238138282
0.01839271875615644
0
0
0
0.1176470588235294
0.1176470588235294
0.1176470588235294
0.1176470588235294
0.1176470588235294
0.1176470588235294
0.1176470588235294
0.1176470588235294
0.1198732248016127
0
-0.6515543062214533
0
0
0
0.1736089747995761
0
0
0
0
0.160537499827518
0.160537499827518
0.160537499827518
0.160537499827518
0.160537499827518
0.2952497614580056
0.2952497614580056
0.07253640141704024
0.07253640141704024
0
0
0
0
0.1217864474073267
0
0
0
0
0
0
0
0.2475673130885399
0
0.7999999999586942
0.0421455333506484
0.09698480036212329
0.09698480036212329
0.176210144797245
0.176210144797245
0.2857142857142858
0
0
0.1149198156961866
0
0.3459985514797989
0.3459985514797989
0.2857142857142857
0.2857142857142857
0.2857142857142857
0
0
0.1587939684124806
0.3486571280456094
0.08518022176185716
0.08518022176185716
0.08518022176185716
0.09095451300243257
0.2376163632555067
0.2376163632555067
0
0.0224604513562354
0.005238282123082675
-0.3435142712276551
0
0
0
0
0.2084741292371923
0
0
0.261590736136504
0
0
0.09148177328309187
0.09148177328309187
-0.06406765290343314
0
0
0.6401298322032547
0
0
0.0517152427001849
0.4
0.4
0
0.1474896844938414
0
0.7546317102333018
0.4884383991865775
0
0.6351837245719011
0.6666666666666666
0.6666666666666666
0
0
0
0
0
0
0
0
0
0
0.5790291996006942
0.4179175392041586
0
0
0
0
0
0
0
0
0
0.7008932316322281
0
0
0
0
0
0
0
0.345295379543761
0.9829396272749094
0
0.2503125536336455
0.3180392837098181
0
0.00209671557203456
0.1026028662989451
0.1026028662989451
0
0
0
-1.046742770085684
0.04622681487096286
0.04622681487096286
0.04622681487096286
0.06945699675928178
0.06945699675928178
0.06945699675928178
0
0
0
0.6082446698955146
0
0
0
0
0.4187398212651293
0
0
0.4786079513648394
0.3408480863093579
0.09372485634148758
0.09372485634148758
0.0520987022765223
0
0.09384538721800792
0.09384538721800792
0.09384538721800792
0.2206269909781936
0
0
0
0.02785260611647233
0.3061727963468916
0
0
0
0
0.1527816694028273
0.1527816694028273
0
0.6666666666666666
0.1413354003694455
0
0
0
0.5603994377185938
0.002066843463676284
0.6666666666666666
0
0.1698100488332721
0.2047011561001238
0.2047011561001238
0.2047011561001238
0
0
0
0
0
0.4115177963530161
0
0
0
0
0
0
0
0
0
0
0
0
0
1.387778780781446e-17
0.1114247365587047
0.1114247365587047
0
0
0.1986031834986354
0
0
0
-1.042944554579482
0
0.4
0.4
0
0
0
0
0.4
0.2439024390244621
0.04751652998907076
0.5623065790348798
0
0.02385760582364711
0.02385760582364711
0.02385760582364711
0
0
0.03635088103666315
0
0
0
0.1213723401178771
0.1213723401178771
0.6666666666666666
0.4700421369188138
0
0
0
0
0.2819400841156769
0.2819400841156769
0.00222472819997283
0.00222472819997283
0
0
0.2488337897631691
0.3398062304895902
0
0.2812007334993728
0.04857263825469602
0.7693270637810494
0
0
0
0.2857142857142857
0.2857142857142857
0.2610595239866637
0
0
0
0
0
0.41790216550097
-0.3388059026992902
0
0
0
0
0
0.1615653079458592
0.6407896772285394
0.4710260284256393
0.4710260284256393
0
0
0
0.06338831521586535
-0.3612855041045208
0
0
0.04432769029775777
0.178863034317637
0.178863034317637
0.178863034317637
0.178863034317637
0
0
0.3869199704902951
-0.9848625217595823
0
1.387778780781446e-17
0
0.5506066654728555
0.5506066654728555
0
-0.7495772170735691
0.2568672843616078
-1.195468207148318
0
0.2503125536336455
0.2503125536336455
0.5303750594833665
0.5303750594833665
0.4
0.3102711412680667
0
0.2483446923523261
0.2235164277787045
0
0
0
0.05455661156788964
0.05455661156788964
0
0
0
-0.685517937490982
-0.685517937490982
0.5114645263662009
0.1870203240128711
0.1870203240128711
0.6666666666666666
0.4
0.4
0.1531763774737731
0.5550929211894137
0
0
0
0.5340452925371844
0.04432769029775779
0.04432769029775779
0.04432769029775779
0.04432769029775779
0.04432769029775779
0
0
0.1716230793210717
0.2119668373570888
0.2833844287569711
0.3031447700288063
0.3031447700288063
0
0
0
0
0
0
0
0
0.1866006044504785
0
0
0
0
0
0
0
0.22639529778882
0
0.7157723088475482
0
0
0
0
0
0
0
0
0
0
-2.012072931250832
0
0
0
0.4
0
0
0
0.09443088186423602
0
0.4749150024855364
0.4749150024855364
0
0.05301008467305576
0.05301008467305576
0.05301008467305576
0
0.4519652490514482
0.4519652490514482
0
0
0
0.2466321856944713
0.09505784155498832
0.4046629581959493
0.1988946916361522
0
0
0.0060923536574902
0.0060923536574902
0.0060923536574902
0.0060923536574902
0
0.0191251533958304
0
0
0
0.4761877375156797
0.4761877375156798
0
0.6666666666666666
0.09109946684205783
0
0
0
0.05452424320694016
0
0
0.08904711953275725
0.3825599641596322
0.3825599641596322
0
0.01691153710308479
0.01691153710308479
0.4
0.4
0.03682234607837027
0.03682234607837027
0.09741547866403619
0
0
0.0007547631106001636
0.6086189287374517
0.0007547631106001636
0.0007547631106001636
0
0
0.06577897579481327
0.1418618388074533
0
0
0.2088456363253644
0
0
0
0
0.4
0.396044353618254
0
0
0
0
-1.126297026060933
0.4561844422804551
0.2149199779858808
0
0
0.3429348026231595
0.2015357107994429
0
0.2795073390507986
0
0
0.2857142857142858
0.2857142857142858
0
0
0.08400943781951151
0.08400943781951151
0.08400943781951151
0.08400943781951151
0.08400943781951151
0.08400943781951151
0
0
0.01304744335360995
0.01304744335360995
0
-1.09406648245883
-1.09406648245883
0
0.1025627102942848
0.05575477168306144
0
0.6666666666666666
0
0
0.2716993861980324
0.04751554006119972
0
0
0.3228816106704592
0
0.1275182908185086
0
0
0
0
0.1387280314590234
0.4924134266054923
0
0.2129949455218608
0.2129949455218608
0.4533458925087518
0.4533458925087518
0.4533458925087518
0
0.08267626097742901
0.08267626097742901
0.2539711086572878
0.05434322648413737
0.05434322648413737
0.3180392837098181
0.6666666666666666
0.1828887158367501
0
0
0
0
0
0.6749794538747675
0
0
0
0.2167364198083198
0
0.7737178672459167
0
0.2588157877069747
0.2588157877069747
0
0
0
0.5762311671250673
0.4802809696172755
0
0.358065088000244
0.04937132341436228
0
0
0
0.07993507794850617
0.07993507794850617
0.07993507794850617
0
0.4239963359886252
0
0
0.06524512376597186
0
0
0
0.2857142857142857
0.2857142857142857
0.05402056488007895
0.05402056488007895
0.05402056488007895
0.05402056488007895
0.05402056488007895
0
0
0
0
0.3318980321080112
0.6666666666666666
0.3288752294315745
-0.9693958864449674
0.8111345998388744
0
0
0
0
0
0
0.06593406593405908
0.06593406593405908
0.06593406593405908
0.06593406593405908
0.06593406593405908
0.06593406593405908
0.06593406593405908
0
0
-1.240842089005275
0.6666666666666666
0.268926349608192
0
0.4
0.6666666666666666
0
0
0.6666666666666666
0
0
0
0
0.6666666666666666
0
0.09565574142737289
0.3867684996737804
0
0
0
0
0
0
0
0.09262403012674821
0
-0.5146013533037256
-0.5146013533037256
0
0
0
0.01653325720062709
0.1004326871307992
0.1004326871307992
0
0
0
0
0
0
0
0
0
0
0
0
0
-1.046228803402557
0.4
0.4
0.3098118761902889
0
0
0
0
0
0
0
-0.6493284892705425
0
-0.9609205857062154
0.4797071499156331
0.4797071499156331
0
0.2815934374071277
0.2081377718301144
0.2081377718301144
0.02383183160451764
0
0
0
0
0
0
0.2857142857142857
0.2857142857142857
0.3291022549286591
0.04031862819216962
0
0
0.1917217005784393
0.1917217005784393
0.1917217005784393
0
0
0
0
0.1480512262540976
0.1480512262540976
0.2951477724503043
0
0
0
0
0
0
0
0
0
0
0.168775539514287
0.2684026100540804
0
0
0
0
0.5316841825192201
-0.7737046436420503
-0.7737046436420503
-0.7737046436420503
0
0
0
0
0.01111204369348044
0.01111204369348044
0.01111204369348044
0.01111204369348044
0
0
0
0
0
0
0.245479147090369
0.09891140118383693
0.09891140118383693
0.09891140118383693
0.09891140118383693
0.3431955261832053
0.3689764499502621
0
0
0.4812833125551896
0.08895610356429927
0
0
0.17735867427384
0
0
0
0
0
0
0
0.06588356983133971
0
0.4
0.4
0
0
0
0
0
0
0
0
0
0
0
0
0
0.1217040371486687
0
0
0.1420806615600777
0.1420806615600777
0.5457605885433633
0.4
0
0
0
0.2622348940162901
0
0
0
0
0.08004287718830368
0.08004287718830368
0
0
0
0
0
0
0.2291238187827158
0.5046154940909221
0
0.04827788408133616
0
0.3435713460103155
0.245931192333544
0.245931192333544
0
0.3721152682267611
0.3721152682267611
0.3721152682267611
0.6666666666666666
0.01666401730034864
0.4843389640038119
0.0208000327728753
-0.5307566085786053
-0.5307566085786053
0.04635935453288388
0.6666666666666666
0
0
0
0
0.1216903712204681
0.1216903712204681
0.1216903712204681
0.543855599090546
0.2531238999610232
0
0.2173991023886442
-0.8209212374669228
0
0
0.3159387579223934
0
0
0
0
0
0.2299057678676821
0.2299057678676821
0.6666666666666666
0
0
0
0
0.1132880309896226
0.1132880309896226
0.1132880309896226
0.1132880309896226
0
0
0.14211575160774
0.14211575160774
0.14211575160774
0.14211575160774
0.14211575160774
0.14211575160774
0.14211575160774
0.14211575160774
0
0
0
0
0.403148060517416
0.09089209876131531
0
0
0
0.1674980039818334
0.4364221369972189
0
0
0
0
0
0
0
0.02190812511119151
0.02190812511119151
0.02190812511119151
0
0.4
0.4
0
0.1601038692631942
0.1601038692631942
0.1601038692631942
0.1601038692631942
0.1601038692631942
0.6666666666666666
0
0.5606902538286327
0.3406553542601063
0.3406553542601063
0.1274765891194685
0.1804419619348588
0.1804419619348588
0
0
0.3255429213072169
0.2282585960455452
0
0.3469689281835752
0.3469689281835752
0
0
0
0
0
0
0.3886049039907546
0.1090769887531995
0.1090769887531995
0.3770385070733804
0
0.530011532329123
0
0.1387280314590234
0.1387280314590234
0.1387280314590234
0.1387280314590234
0.1387280314590234
0.1387280314590234
0.2529794691168365
0.4577683231740878
0
0
0.302260893328411
0
0
0.006775663258647372
0.006775663258647372
0.006775663258647372
0.006775663258647372
0.006775663258647372
0.006775663258647372
0.006775663258647372
0.006775663258647372
0.006775663258647372
0
0
0
0
0
0
0.2835443163428714
0
0
0
0.3949248226879367
0.04415248299861672
0.04415248299861672
0.04415248299861672
0.04415248299861672
0.04415248299861672
0.04415248299861672
0.04415248299861672
0.04415248299861672
0.3266673649722939
-6.938893903907228e-18
0
0
0.09055148259132587
0.05912068940486831
0.05912068940486831
0
0
0
0
0
-0.4750483053445882
0
0
0
0.6666666666666666
0
0
0
0
0
0
0
0
0.07122834803967708
0
0.2327867902244606
0.2327867902244606
0.2327867902244606
0.2327867902244606
0.2327867902244606
0.04384785196569786
0.1948371304839412
0
0
0
0
0
0.5015365449784797
0.6666666666666666
0.0909169392002821
0
0
0.6666666666666666
0
0
0.06918138504061362
0.1869131878854423
0.4928655743242138
0.4928655743242138
0
0
0.2377011979001459
0.2377011979001459
0
0
0
0
0.3373696134799908
0.1790763911420606
0.1790763911420606
0
0
0
0.3654206130797364
0
0
0
0.4
0.4
-0.2628670026914228
-0.2628670026914228
0
0
0
0
0.4
0.4
0
0
0.05461223164743376
0
0
0.4654192867040202
-0.7129203417014869
-0.4620715960895616
-0.4620715960895616
-0.6162347225267284
-0.6162347225267284
-0.6162347225267284
0
0
0
0
0
0.1622594775518171
0.4
0.4
0
0.193548387096889
0
0
0.9696969697453811
-0.9611018641469922
-0.9611018641469922
0
-1.273166888912054
0.01862784962902542
0.01862784962902542
0
0.3873901767202193
0
0.3463485362274015
0.3463485362274015
0.1899805019616811
0.2840547355198573
0.2779241731854767
0.4
0.07455253620213415
0
0
0
-0.3241947848082223
-0.3241947848082223
0.4
0.4
0.1119597987258052
0.180224177207719
0.07902163285899008
0.06103643058604621
0.06103643058604621
0
0
0.6414179345335723
0.1567219438749986
0
0.6666666666666666
0.4830166270362488
0.1432422795164967
0
0
-0.4
-0.4
0
0.6666666666666666
0
0.04121381685101315
0.04121381685101315
0.3467448241541143
0.1667824808240908
0
0
0
0.1102837811424549
0
0.1891145946449886
0
0
0.07649821627859152
0.07649821627859152
0.07649821627859152
0.2835864844970537
0
0
0
0
0
0
0
0
0.6666666666666666
0
0
-0.7491715108071979
-0.7491715108071979
0.07912155059979921
0.4
0.4
0
0
0
0
0
0.03974284360675311
0.03974284360675311
0.1604295691285908
0.1604295691285908
0.1604295691285908
0
0.3286932158993658
0.3286932158993658
-1.142397877690006
0.3454143618064652
0
0.07912155059979921
0.1934974879408839
0.07149222031723844
0
0
0
0
0
0
0
0
0
0
0
0
0
0
0
0
0
0.2956784750486181
0.1018325148005344
0.1959193702226058
0
0
0
0.5703718481275845
0.001795519984140946
0
0.009696025058054791
0.01917586477043573
0.01917586477043573
0.07618480146164057
0.07618480146164057
0.07618480146164057
0.07618480146164057
0.07618480146164057
0.07618480146164057
0.07618480146164057
0.07618480146164057
0
0
0
0
0.277915520696362
0
0.4089596110388913
0
0
0.05095364453201261
0.05095364453201261
0.4
0
0.1213174942750358
0.1213174942750358
0.1213174942750358
0.04873475340945672
0.04873475340945672
0
0
-0.6380028886521469
0.1374301190091345
0
0
0.4226716733807475
0
0
0
0
0
0
0
0
0.1149198156961866
0
0
0
0
0
0.5575051019662853
0.2035411273811661
0
0
0
0.2307734798173743
0.4
0.04062504932890631
0.04062504932890631
0.04062504932890631
0
0
0.006533791755344095
0.2734712425923253
0
0.2857142857142857
0.2857142857142857
0.2857142857142857
0
0.002005858571202451
0.002005858571202451
0.2015357107994429
0.2015357107994429
0.2015357107994429
-0.6974477573311885
0.4673838405009135
0.4293963197164061
0.4293963197164061
0
0
0.6666666666666666
0
0.481611943124054
0
0
0.3252421568734363
0.3252421568734363
0
0
0
0
0
0.7232977159515859
0
0.0109292959879247
0.03947409127719678
0.2231261986309045
0
-0.7173352922937751
-0.7173352922937751
0.2591133697309755
0.2733631564331276
0
0
0
0
0
0.2734045664858479
0
0.2259766042637491
0
0.2668108169770549
0.1615653079458592
0.6666666666666666
0.4
0
0
0
0.2500764132373799
0.122821150847205
0.122821150847205
0.122821150847205
0.122821150847205
0
0
0
0.09728432526167163
0.09728432526167163
0.09728432526167163
0.09728432526167163
0.09728432526167163
0.09728432526167163
0
0
0.1921398343097349
0
0
0.2323941997024785
0.6319363730719567
0
0.4001658902646407
0
0
0
0.01031976891015403
0
0
0.2737426541061055
0
0.6666666666666666
0
0
0
0
0.02326763694137607
0.2141872051238819
0.1177318028448287
0.1391321268995677
0
0.2857142857142857
0.2857142857142857
0.2857142857142857
0
0
0.02445406059221473
0.02445406059221473
0.02445406059221473
0.02445406059221473
0.02445406059221473
0.1208976493348928
0.5029050048490584
0
0.9655172505298202
0
0.5095681706181743
0
0
0
0.07122834803967709
-0.6666666666666666
0.4111259324740008
0
0
0
0
0
0
0
0
0.3868595077728613
0.02265609344241662
0.327655434675206
0.327655434675206
0.2867823498707474
0
-0.4872959546335787
-0.4872959546335787
0.4072306436641342
0.138956216153712
0.138956216153712
0
0.6666666666666666
0.4
0
0
0
0
0
0
0
0
0
0
0
0
0
0
0
0
0
0
0
0
0
0
0
0
0
0
0
0
0
0
0
0
0
0
0
0
0
0
0
0
0
0
0
0
0
0
0
0
0
0
0
0
0
0
0
0
0
0
0
0
0
0
0
0
0
0
0
0
0
0
0
0
0
0
0
0
0
0
0
0
0
0
0
0
0
0
0
0
0
0
0
0
0
0
0
0
0
0
0
0
0
0
0
0
0
0
0
0
0
0
0
0
0
0
0
0
0
0
0
0
0
0
0
0
0
0
0
0
0
0
0
0
0
0
0
0
0
0
0
0
0
0
0
0
0
0
0
0
0
0
0
0
0
0
0
0
0
0
0
0
0
0
0
0
0
0
0
0
0
0
0
0
0
0
0
0
0
0
0
0
0
0
0
0
0
0
0
0
0
0
0
0
0
0
0
0
0
0
0
0
0
0
0
0
0
0
0
0
0
0
0
0
0
0
0
0
0
0
0
0
0
0
0
0
0
0
0
0
0
0
0
0
0
0
0
0
0
0
0
0
0
0
0
0
0
0
0
0
0
0
0
0
0
0
0
0
0
0
0
0
0
0
0
0
0
0
0
0
0
0
0
0
0
0
0
0
0
0
0
0
0
0
0
0
0
0
0
0
0
0
0
0
0
0
0
0
0
0
0
0
0
0
0
0
0
0
0
0
0
0
0
0
0
0
0
0
0
0
0
0
0
0
0
0
0
0
0
0
0
0
0
0
0
0
0
0
0
0
0
0
0
0
0
0
0
0
0
0
0
0
0
0
0
0
0
0
0
0
0
0
0
0
0
0
0
0
0
0
0
0
0
0
0
0
0
0
0
0
0
0
0
0
0
0
0
0
0
0
0
0
0
0
0
0
0
0
0
0
0
0
0
0
0
0
0
0
0
0
0
0
0
0
0
0
0
0
0
0
0
0
0
0
0
0
0
0
0
0
0
0
0
0
0
0
0
0
0
0
0
0
0
0
0
0
0
0
0
0
0
0
0
0
0
0
0
0
0
0
0
0
0
0
0
0
0
0
0
0
0
0
0
0
0
0
0
0
0
0
0
0
0
0
0
0
0
0
0
0
0
0
0
0
0
0
0
0
0
0
0
0
0
0
0
0
0
0
0
0
0
0
0
0
0
0
0
0
0
0
0
0
0
0
0
0
0
0
0
0
0
0
0
0
0
0
0
0
0
0
0
0
0
0
0
0
0
0
0
0
0
0
0
0
0
0
0
0
0
0
0
0
0
0
0
0
0
0
0
0
0
0
0
0
0
0
0
0
0
0
0
0
0
0
0
0
0
0
0
0
0
0
0
0
0
0
0
0
0
0
0
0
0
0
0
0
0
0
0
0
0
0
0
0
0
0
0
0
0
0
0
0
0
0
0
0
0
0
0
0
0
0
0
0
0
0
0
0
0
0
0
0
0
0
0
0
0
0
0
0
0
0
0
0
0
0
0
0
0
0
0
0
0
0
0
0
0
0
0
0
0
0
0
0
0
0
0
0
0
0
0
0
0
0
0
0
0
0
0
0
0
0
0
0
0
0
0
0
0
0
0
0
0
0
0
0
0
0
0
0
0
0
0
0
0
0
0
0
0
0
0
0
0
0
0
0
0
0
0
0
0
0
0
0
0
0
0
0
0
0
0
0
0
0
0
0
0
0
0
0
0
0
0
0
0
0
0
0
0
0
0
0
0
0
0
0
0
0
0
0
0
0
0
0
0
0
0
0
0
0
0
0
0
0
0
0
0
0
0
0
0
0
0
0
0
0
0
0
0
0
0
0
0
0
0
0
0
0
0
0
0
0
0
0
0
0
0
0
0
0
0
0
0
0
0
0
0
0
0
0
0
0
0
0
0
0
0
0
0
0
0
0
0
0
0
0
0
0
0
0
0
0
0
0
0
0
0
0
0
0
0
0
0
0
0
0
0
0
0
0
0
0
0
0
0
0
0
0
0
0
0
0
0
0
0
0
0
0
0
0
0
0
0
0
0
0
0
0
0
0
0
0
0
0
0
0
0
0
0
0
0
0
0
0
0
0
0
0
0
0
0
0
0
0
0
0
0
0
0
0
0
0
0
0
0
0
0
0
0
0
0
0
0
0
0
0
0
0
0
0
0
0
0
0
0
0
0
0
0
0
0
0
0
0
0
0
0
0
0
0
0
0
0
0
0
0
0
0
0
0
0
0
0
0
0
0
0
0
0
0
0
0
0
0
0
0
0
0
0
0
0
0
0
0
0
0
0
0
0
0
0
0
0
0
0
0
0
0
0
0
0
0
0
0
0
0
0
0
0
0
0
0
0
0
0
0
0
0
0
0
0
0
0
0
0
0
0
0
0
0
0
0
0
0
0
0
0
0
0
0
0
0
0
0
0
0
0
0
0
0
0
0
0
0
0
0
0
0
0
0
0
0
0
0
0
0
0
0
0
0
0
0
0
0
0
0
0
0
0
0
0
0
0
0
0
0
0
0
0
0
0
0
0
0
0
0
0
0
0
0
0
0
0
0
0
0
0
0
0
0
0
0
0
0
0
0
0
0
0
0
0
0
0
0
0
0
0
0
0
0
0
0
0
0
0
0
0
0
0
0
0
0
0
0
0
0
0
0
0
0
0
0
0
0
0
0
0
0
0
0
0
0
0
0
0
0
0
0
0
0
0
0
0
0
0
0
0
0
0
0
0
0
0
0
0
0
0
0
0
0
0
0
0
0
0
0
0
0
0
0
0
0
0
0
0
0
0
0
0
0
0
0
0
0
0
0
0
0
0
0
0
0
0
0
0
0
0
0
0
0
0
0
0
0
0
0
0
0
0
0
0
0
0
0
0
0
0
0
0
0
0
0
0
0
0
0
0
0
0
0
0
0
0
0
0
0
0
0
0
0
0
0
0
0
0
0
0
0
0
0
0
0
0
0
0
0
0
0
0
0
0
0
0
0
0
0
0
0
0
0
0
0
0
0
0
0
0
0
0
0
0
0
0
0
0
0
0
0
0
0
0
0
0
0
0
0
0
0
0
0
0
0
0
0
0
0
0
0
0
0
0
0
0
0
0
0
0
0
0
0
0
0
0
0
0
0
0
0
0
0
0
0
0
0
0
0
0
0
0
0
0
0
0
0
0
0
0
0
0
0
0
0
0
0
0
0
0
0
0
0
0
0
0
0
0
0
0
0
0
0
0
0
0
0
0
0
0
0
0
0
0
0
0
0
0
0
0
0
0
0
0
0
0
0
0
0
0
0
0
0
0
0
0
0
0
0
0
0
0
0
0
0
0
0
0
0
0
0
0
0
0
0
0
0
0
0
0
0
0
0
0
0
0
0
0
0
0
0
0
0
0
0
0
0
0
0
0
0
0
0
0
0
0
0
0
0
0
0
0
0
0
0
0
0
0
0
0
0
0
0
0
0
0
0
0
0
0
0
0
0
0
0
0
0
0
0
0
0
0
0
0
0
0
0
0
0
0
0
0
0
0
0
0
0
0
0
0
0
0
0
0
0
0
0
0
0
0
0
0
0
0
0
0
0
0
0
0
0
0
0
0
0
0
0
0
0
0
0
0
0
0
0
0
0
0
0
0
0
0
0
0
0
0
0
0
0
0
0
0
0
0
0
0
0
0
0
0
0
0
0
0
0
0
0
0
0
0
0
0
0
0
0
0
0
0
0
0
0
0
0
0
0
0
0
0
0
0
0
0
0
0
0
0
0
0
0
0
0
0
0
0
0
0
0
0
0
0
0
0
0
0
0
0
0
0
0
0
0
0
0
0
0
0
0
0
0
0
0
0
0
0
0
0
0
0
0
0
0
0
0
0
0
0
0
0
0
0
0
0
0
0
0
0
0
0
0
0
0
0
0
0
0
0
0
0
0
0
0
0
0
0
0
0
0
0
0
0
0
0
0
0
0
0
0
0
0
0
0
0
0
0
0
0
0
0
0
0
0
0
0
0
0
0
0
0
0
0
0
0
0
0
0
0
0
0
0
0
0
0
0
0
0
0
0
0
0
0
0
0
0
0
0
0
0
0
0
0
0
0
0
0
0
0
0
0
0
0
0
0
0
0
0
0
0
0
0
0
0
0
0
0
0
0
0
0
0
0
0
0
0
0
0
0
0
0
0
0
0
0
0
0
0
0
0
0
0
0
0
0
0
0
0
0
0
0
0
0
0
0
0
0
0
0
0
0
0
0
0
0
0
0
0
0
0
0
0
0
0
0
0
0
0
0
0
0
0
0
0
0
0
0
0
0
0
0
0
0
0
0
0
0
0
0
0
0
0
0
0
0
0
0
0
0
0
0
0
0
0
0
0
0
0
0
0
0
0
0
0
0
0
0
0
0
0
0
0
0
0
0
0
0
0
0
0
0
0
0
0
0
0
0
0
0
0
0
0
0
0
0
0
0
0
0
0
0
0
0
0
0
0
0
0
0
0
0
0
0
0
0
0
0
0
0
0
0
0
0
0
0
0
0
0
0
0
0
0
0
0
0
0
0
0
0
0
0
0
0
0
0
0
0
0
0
0
0
0
0
0
0
0
0
0
0
0
0
0
0
0
0
0
0
0
0
0
0
0
0
0
0
0
0
0
0
0
0
0
0
0
0
0
0
0
0
0
0
0
0
0
0
0
0
0
0
0
0
0
0
0
0
0
0
0
0
0
0
0
0
0
0
0
0
0
0
0
0
0
0
0
0
0
0
0
0
0
0
0
0
0
0
0
0
0
0
0
0
0
0
0
0
0
0
0
0
0
0
0
0
0
0
0
0
0
0
0
0
0
0
0
0
0
0
0
0
0
0
0
0
0
0
0
0
0
0
0
0
0
0
0
0
0
0
0
0
0
0
0
0
0
0
0
0
0
0
0
0
0
0
0
0
0
0
0
0
0
0
0
0
0
0
0
0
0
0
0
0
0
0
0
0
0
0
0
0
0
0
0
0
0
0
0
0
0
0
0
0
0
0
0
0
0
0
0
0
0
0
0
0
0
0
0
0
0
0
0
0
0
0
0
0
0
0
0
0
0
0
0
0
0
0
0
0
0
0
0
0
0
0
0
0
0
0
0
0
0
0
0
0
0
0
0
0
0
0
0
0
0
0
0
0
0
0
0
0
0
0
0
0
0
0
0
0
0
0
0
0
0
0
0
0
0
0
0
0
0
0
0
0
0
0
0
0
0
0
0
0
0
0
0
0
0
0
0
0
0
0
0
0
0
0
0
0
0
0
0
0
0
0
0
0
0
0
0
0
0
0
0
0
0
0
0
0
0
0
0
0
0
0
0
0
0
0
0
0
0
0
0
0
0
0
0
0
0
0
0
0
0
0
0
0
0
0
0
0
0
0
0
0
0
0
0
0
0
0
0
0
0
0
0
0
0
0
0
0
0
0
0
0
0
0
0
0
0
0
0
0
0
0
0
0
0
0
0
0
0
0
0
0
0
0
0
0
0
0
0
0
0
0
0
0
0
0
0
0
0
0
0
0
0
0
0
0
0
0
0
0
0
0
0
0
0
0
0
0
0
0
0
0
0
0
0
0
0
0
0
0
0
0
0
0
0
0
0
0
0
0
0
0
0
0
0
0
0
0
0
0
0
0
0
0
0
0
0
0
0
0
0
0
0
0
0
0
0
0
0
0
0
0
0
0
0
0
0
0
0
0
0
0
0
0
0
0
0
0
0
0
0
0
0
0
0
0
0
0
0
0
0
0
0
0
0
0
0
0
0
0
0
0
0
0
0
0
0
0
0
0
0
0
0
0
0
0
0
0
0
0
0
0
0
0
0
0
0
0
0
0
0
0
0
0
0
0
0
0
0
0
0
0
0
0
0
0
0
0
0
0
0
0
0
0
0
0
0
0
0
0
0
0
0
0
0
0
0
0
0
0
0
0
0
0
0
0
0
0
0
0
0
0
0
0
0
0
0
0
0
0
0
0
0
0
0
0
0
0
0
0
0
0
0
0
0
0
0
0
0
0
0
0
0
0
0
0
0
0
0
0
0
0
0
0
0
0
0
0
0
0
0
0
0
0
0
0
0
0
0
0
0
0
0
0
0
0
0
0
0
0
0
0
0
0
0
0
0
0
0
0
0
0
0
0
0
0
0
0
0
0
0
0
0
0
0
0
0
0
0
0
0
0
0
0
0
0
0
0
0
0
0
0
0
0
0
0
0
0
0
0
0
0
0
0
0
0
0
0
0
0
0
0
0
0
0
0
0
0
0
0
0
0
0
0
0
0
0
0
0
0
0
0
0
0
0
0
0
0
0
0
0
0
0
0
0
0
0
0
0
0
0
0
0
0
0
0
0
0
0
0
0
0
0
0
0
0
0
0
0
0
0
0
0
0
0
0
0
0
0
0
0
0
0
0
0
0
0
0
0
0
0
0
0
0
0
0
0
0
0
0
0
0
0
0
0
0
0
0
0
0
0
0
0
0
0
0
0
0
0
0
0
0
0
0
0
0
0
0
0
0
0
0
0
0
0
0
0
0
0
0
0
0
0
0
0
0
0
0
0
0
0
0
0
0
0
0
0
0
0
0
0
0
0
0
0
0
0
0
0
0
0
0
0
0
0
0
0
0
0
0
0
0
0
0
0
0
0
0
0
0
0
0
0
0
0
0
0
0
0
0
0
0
0
0
0
0
0
0
0
0
0
0
0
0
0
0
0
0
0
0
0
0
0
0
0
0
0
0
0
0
0
0
0
0
0
0
0
0
0
0
0
0
0
0
0
0
0
0
0
0
0
0
0
0
0
0
0
0
0
0
0
0
0
0
0
0
0
0
0
0
0
0
0
0
0
0
0
0
0
0
0
0
0
0
0
0
0
0
0
0
0
0
0
0
0
0
0
0
0
0
0
0
0
0
0
0
0
0
0
0
0
0
0
0
0
0
0
0
0
0
0
0
0
0
0
0
0
0
0
0
0
0
0
0
0
0
0
0
0
0
0
0
0
0
0
0
0
0
0
0
0
0
0
0
0
0
0
0
0
0
0
0
0
0
0
0
0
0
0
0
0
0
0
0
0
0
0
0
0
0
0
0
0
0
0
0
0
0
0
0
0
0
0
0
0
0
0
0
0
0
0
0
0
0
0
0
0
0
0
0
0
0
0
0
0
0
0
0
0
0
0
0
0
0
0
0
0
0
0
0
0
0
0
0
0
0
0
0
0
0
0
0
0
0
0
0
0
0
0
0
0
0
0
0
0
0
0
0
0
0
0
0
0
0
0
0
0
0
0
0
0
0
0
0
0
0
0
0
0
0
0
0
0
0
0
0
0
0
0
0
0
0
0
0
0
0
0
0
0
0
0
0
0
0
0
0
0
0
0
0
0
0
0
0
0
0
0
0
0
0
0
0
0
0
0
0
0
0
0
0
0
0
0
0
0
0
0
0
0
0
0
0
0
0
0
0
0
0
0
0
0
0
0
0
0
0
0
0
0
0
0
0
0
0
0
0
0
0
0
0
0
0
0
0
0
0
0
0
0
0
0
0
0
0
0
0
0
0
0
0
0
0
0
0
0
0
0
0
0
0
0
0
0
0
0
0
0
0
0
0
0
0
0
0
0
0
0
0
0
0
0
0
0
0
0
0
0
0
0
0
0
0
0
0
0
0
0
0
0
0
0
0
0
0
0
0
0
0
0
0
0
0
0
0
0
0
0
0
0
0
0
0
0
0
0
0
0
0
0
0
0
0
0
0
0
0
0
0
0
0
0
0
0
0
0
0
0
0
0
0
0
0
0
0
0
0
0
0
0
0
0
0
0
0
0
0
0
0
0
0
0
0
0
0
0
0
0
0
0
0
0
0
0
0
0
0
0
0
0
0
0
0
0
0
0
0
0
0
0
0
0
0
0
0
0
0
0
0
0
0
0
0
0
0
0
0
0
0
0
0
0
0
0
0
0
0
0
0
0
0
0
0
0
0
0
0
0
0
0
0
0
0
0
0
0
0
0
0
0
0
0
0
0
0
0
0
0
0
0
0
0
0
0
0
0
0
0
0
0
0
0
0
0
0
0
0
0
0
0
0
0
0
0
0
0
0
0
0
0
0
0
0
0
0
0
0
0
0
0
0
0
0
0
0
0
0
0
0
0
0
0
0
0
0
0
0
0
0
0
0
0
0
0
0
0
0
0
0
0
0
0
0
0
0
0
0
0
0
0
0
0
0
0
0
0
0
0
0
0
0
0
0
0
0
0
0
0
0
0
0
0
0
0
0
0
0
0
0
0
0
0
0
0
0
0
0
0
0
0
0
0
0
0
0
0
0
0
0
0
0
0
0
0
0
0
0
0
0
0
0
0
0
0
0
0
0
0
0
0
0
0
0
0
0
0
0
0
0
0
0
0
0
0
0
0
0
0
0
0
0
0
0
0
0
0
0
0
0
0
0
0
0
0
0
0
0
0
0
0
0
0
0
0
0
0
0
0
0
0
0
0
0
0
0
0
0
0
0
0
0
0
0
0
0
0
0
0
0
0
0
0
0
0
0
0
0
0
0
0
0
0
0
0
0
0
0
0
0
0
0
0
0
0
0
0
0
0
0
0
0
0
0
0
0
0
0
0
0
0
0
0
0
0
0
0
0
0
0
0
0
0
0
0
0
0
0
0
0
0
0
0
0
0
0
0
0
0
0
0
0
0
0
0
0
0
0
0
0
0
0
0
0
0
0
0
0
0
0
0
0
0
0
0
0
0
0
0
0
0
0
0
0
0
0
0
0
0
0
0
0
0
0
0
0
0
0
0
0
0
0
0
0
0
0
0
0
0
0
0
0
0
0
0
0
0
0
0
0
0
0
0
0
0
0
0
0
0
0
0
0
0
0
0
0
0
0
0
0
0
0
0
0
0
0
0
0
0
0
0
0
0
0
0
0
0
0
0
0
0
0
0
0
0
0
0
0
0
0
0
0
0
0
0
0
0
0
0
0
0
0
0
0
0
0
0
0
0
0
0
0
0
0
0
0
0
0
0
0
0
0
0
0
0
0
0
0
0
0
0
0
0
0
0
0
0
0
0
0
0
0
0
0
0
0
0
0
0
0
0
0
0
0
0
0
0
0
0
0
0
0
0
0
0
0
0
0
0
0
0
0
0
0
0
0
0
0
0
0
0
0
0
0
0
0
0
0
0
0
0
0
0
0
0
0
0
0
0
0
0
0
0
0
0
0
0
0
0
0
0
0
0
0
0
0
0
0
0
0
0
0
0
0
0
0
0
0
0
0
0
0
0
0
0
0
0
0
0
0
0
0
0
0
0
0
0
0
0
0
0
0
0
0
0
0
0
0
0
0
0
0
0
0
0
0
0
0
0
0
0
0
0
0
0
0
0
0
0
0
0
0
0
0
0
0
0
0
0
0
0
0
0
0
0
0
0
0
0
0
0
0
0
0
0
0
0
0
0
0
0
0
0
0
0
0
0
0
0
0
0
0
0
0
0
0
0
0
0
0
0
0
0
0
0
0
0
0
0
0
0
0
0
0
0
0
0
0
0
0
0
0
0
0
0
0
0
0
0
0
0
0
0
0
0
0
0
0
0
0
0
0
0
0
0
0
0
0
0
0
0
0
0
0
0
0
0
0
0
0
0
0
0
0
0
0
0
0
0
0
0
0
0
0
0
0
0
0
0
0
0
0
0
0
0
0
0
0
0
0
0
0
0
0
0
0
0
0
0
0
0
0
0
0
0
0
0
0
0
0
0
0
0
0
0
0
0
0
0
0
0
0
0
0
0
0
0
0
0
0
0
0
0
0
0
0
0
0
0
0
0
0
0
0
0
0
0
0
0
0
0
0
0
0
0
0
0
0
0
0
0
0
0
0
0
0
0
0
0
0
0
0
0
0
0
0
0
0
0
0
0
0
0
0
0
0
0
0
0
0
0
0
0
0
0
0
0
0
0
0
0
0
0
0
0
0
0
0
0
0
0
0
0
0
0
0
0
0
0
0
0
0
0
0
0
0
0
0
0
0
0
0
0
0
0
0
0
0
0
0
0
0
0
0
0
0
0
0
0
0
0
0
0
0
0
0
0
0
0
0
0
0
0
0
0
0
0
0
0
0
0
0
0
0
0
0
0
0
0
0
0
0
0
0
0
0
0
0
0
0
0
0
0
0
0
0
0
0
0
0
0
0
0
0
0
0
0
0
0
0
0
0
0
0
0
0
0
0
0
0
0
0
0
0
0
0
0
0
0
0
0
0
0
0
0
0
0
0
0
0
0
0
0
0
0
0
0
0
0
0
0
0
0
0
0
0
0
0
0
0
0
0
0
0
0
0
0
0
0
0
0
0
0
0
0
0
0
0
0
0
0
0
0
0
0
0
0
0
0
0
0
0
0
0
0
0
0
0
0
0
0
0
0
0
0
0
0
0
0
0
0
0
0
0
0
0
0
0
0
0
0
0
0
0
0
0
0
0
0
0
0
0
0
0
0
0
0
0
0
0
0
0
0
0
0
0
0
0
0
0
0
0
0
0
0
0
0
0
0
0
0
0
0
0
0
0
0
0
0
0
0
0
0
0
0
0
0
0
0
0
0
0
0
0
0
0
0
0
0
0
0
0
0
0
0
0
0
0
0
0
0
0
0
0
0
0
0
0
0
0
0
0
0
0
0
0
0
0
0
0
0
0
