solver_type L2R_L2LOSS_SVC
nr_class 2
label 0 1
nr_feature 32502
bias 0.5
w
-0.08317004504465358 
-0.0533529038722465 
0.121355511573791 
0.3237438315654967 
-0.2971435242580362 
-0.07178677298055178 
0.2838610316417025 
-0.6366784907067765 
-0.2870693244730356 
0.2902671183200602 
0.002452440696287963 
0.2167921146646339 
-0.02274643153763167 
0.07257783452269484 
-0.002406996625042055 
-0.2007345554512902 
0.3511263928812223 
0.001860442018707909 
0.001860442018707909 
0.001860442018707909 
0.001860442018707909 
0.02535606805928547 
0.0594990846208962 
0.2535400776263919 
-0.04286258062752683 
-0.5175562902887573 
0.1427741338884574 
0.04270299472339643 
0.2367528320939196 
-0.04468275468672682 
0.2803546420569351 
0.2658694884594138 
-0.691824536400009 
-0.2491379210067542 
0.004925459649771404 
0.07182718470222815 
-0.0872861139405213 
0.07497188073077306 
0.07616833557475645 
-0.07009926312329653 
-0.1621752439377797 
0.058289876387217 
0.2345776674976711 
-0.5213120207381067 
0.385146657224841 
0.5235187855182561 
0.4335086073481599 
-0.8789933762107504 
0.01246382506341407 
-0.09666407342464345 
0.1239567369176955 
0.06053861367136867 
-0.124283555436302 
0.1235742231449146 
-0.1488596831916541 
-0.5925892728957842 
-0.03867212159469656 
-0.2103105751307068 
-0.02143102588738818 
-0.20654708400241 
-0.0412460520639565 
0.06004617396534491 
0.01743551986890388 
0.007062382348555118 
0.09342513252257396 
0.03501466756070163 
7.432135650874995e-05 
0.1999380314873718 
0.07143985684468754 
0.336568183724463 
-0.07844066287943167 
0.1929721733446706 
0.007588440928341503 
0.05657704744750818 
0.3484219270919693 
-0.04889056334048584 
0.07059892198354714 
0.09850471710109553 
0.2323662577588775 
-0.06378068168337456 
-0.001820121844281557 
0.3844130219161047 
0.06216730597011952 
0.0001317215557426399 
0.0001317215557426399 
0.0001317215557426399 
-0.04191376525341843 
0.007747535201408942 
0.3331619977468455 
0.4301160245447901 
0.0656446042595355 
-0.1134798087336277 
0.03693067788753067 
-0.08883303472093469 
-0.04747421197716843 
0.6601650282747946 
0.09711588288251741 
0.1480368839845861 
0.1373790294717622 
0.07198042402553195 
0.1307184709185466 
0.05172873149674318 
0.4183817540295767 
-0.04038027225185717 
0.006356088828640157 
0.5057740446477231 
0.0625093699203325 
0.1879673967245799 
2.033223802999674e-05 
0.08012230260379401 
0.4435110238026829 
0.003986974890937127 
0.2753536229197159 
-0.01309144338624152 
-0.1413681087643462 
0.002791816466461194 
-0.03816130336130629 
0.2012893272215809 
0.01905832777380096 
-0.4753168594247601 
0.1739925973555404 
0.0593098199646247 
0.1196434843643594 
0.1948601595778056 
0.3058852181416269 
0.02069526244807467 
-0.08457644218689993 
5.433630842674496e-05 
0.1278901417316844 
-0.01918217797303292 
0.04033713486653576 
0.2263785940794971 
0.1763585368202852 
-0.1240458941360761 
-0.1303161733519637 
0.2243765871162328 
0.04599795614360664 
0.2243765871162328 
0.1042600867782231 
0.1790058232464698 
0.0003903881959433137 
0.06167970258194075 
-0.106809145659169 
-0.02666570840242883 
-0.0029755750428506 
-0.09118530695737041 
0.127231468856622 
0.04960452883925215 
0.002617396552087218 
0.2163610357632534 
0.003891497698144692 
0.2942141418301111 
-0.09511935601006673 
0.1742352460586959 
0.4443038745598183 
-0.09672955006833102 
0.0005886950370360811 
0.2836262726726066 
0.2575333606269922 
0.2056856331477724 
0.000556022144287084 
0.1045568823170937 
0.4441263411714726 
-0.3325834121551023 
0.2753119459403377 
0.1562475556737128 
0.02683565803116453 
-0.07617670132970748 
0.1082815049247186 
0.09620044174344662 
0.000781879324719877 
0.06987458263798539 
-0.0786861911160863 
-0.008201657399176894 
-0.009030437087455741 
-0.1195837260984882 
0.3056987405056475 
0.02103838635139957 
0.01582990701530372 
-0.1262385611090025 
0.4755178631537089 
-0.01042901866406014 
0.1597551297925957 
0.1667434193892502 
0.3922429523540482 
-0.03901743556091718 
0.0001697765075236734 
-0.1957168255858871 
0.001993559770777554 
0.08470357181600312 
0.01158169329655832 
0.0971949816294197 
-0.2245564002543138 
0.1554210727481934 
-0.07654436349696245 
3.456187803733358e-05 
0.5019686466596237 
-0.2811097707729192 
0.2476028941957698 
0.09945617073921273 
0.008370291663468647 
0.5752221240135135 
0.2266841916262098 
-0.00221634087618529 
-0.4039430208990786 
-0.1359127526666123 
-0.09404918154292197 
0.2731592668764812 
0.6473942186288062 
0.3074917784076952 
0.1630926658149203 
-0.07218656746229572 
0.04000056475620864 
0.01399577116118802 
-0.02342378892514921 
0.1902801289995682 
0.3419428024488442 
0.002702553628899377 
0.0008694394208867067 
0.09755219061086674 
0.2088876860882275 
-0.3863694353722942 
0.1646814015600863 
0.005605860202460605 
0.04467832855573964 
0.1503427181683452 
-0.3189983852521033 
0.02166328411162475 
0.195842929247175 
0.1874768661448428 
0.3134161848307488 
0.116479665013944 
0.5078798818322114 
-0.1312293668369763 
0.1224110337473737 
-0.9048809618591546 
-0.2750358062372531 
-0.1114435918571402 
0.08336632228210979 
0.09592248723090271 
-0.1191321375444096 
-0.2096725287696282 
0.09057602032158051 
-0.1782306838995428 
0.1850296110598283 
0.1318326568471994 
-0.05308170485972646 
0.2982584992410222 
0.2513841168403501 
-0.07583188893879451 
-0.2625038477775758 
0.002045183496534184 
0.2007576390356591 
0.3189538396744993 
-0.1447344074931228 
0.3122197125548469 
0.4389146816232511 
-0.03041640073863543 
0.0710346868801371 
0.0860704033190078 
0.1384130313516846 
0.0009560961441363172 
0.0008918562781049996 
0.002452440696287963 
-0.1699241175863379 
-0.1464999615700589 
0.0850615172059447 
0.02433236978078818 
-0.0731992234654945 
-0.03825100555512169 
0.2849620370796297 
-0.05545608040814945 
-0.06258312264080712 
0.2154143805605089 
-0.1701793547185653 
0.02296672916716802 
0.003584717786503149 
0.3326551916200512 
0.4149693570457336 
0.002539954881977162 
-0.04184993377563967 
0.3849846511930424 
0.03546997378003728 
-0.09388671437633568 
-0.2169249676421019 
-0.08908482104288774 
-0.003971545383063045 
0.03092302262784286 
0.004681523528699304 
-0.04030220577041846 
0.1164126973181334 
-0.08912658665202462 
0.0479377823996889 
0.001426684095026416 
0.01031396824291464 
0.4868357513820671 
0.2894531668222677 
0.4270393406579207 
0.3144331105256168 
-0.09873363354107688 
0.3767159376884905 
0.4672639168594788 
0.1575489898272455 
-0.1314919364475619 
-0.2228779464954958 
-7.813499504354659e-05 
0.6308402911547772 
0.0007865598609123007 
-0.1519011480402858 
0.001235219281756208 
0.2417761302000124 
0.04151268756033677 
0.2848323251985104 
0.04783086539906277 
0.04526315666908085 
0.1682771763469871 
0.1956324828251286 
0.1096848959960896 
0.03806428775575791 
0.2212317374889864 
0.00814876094723482 
0.03098355925301101 
0.03095944171066499 
0.06847213090136334 
-0.08789539203951444 
0.02026085233404612 
0.009826295581806633 
0.1836849980819349 
0.009900616938315381 
-0.1906118106446262 
-0.1296015609698856 
0.5310976702618073 
0.07899804491762462 
-0.04133410708014532 
0.3107324408287665 
-0.2129677623035177 
-0.3866091144906246 
0.2713601308808535 
0.005121390835644564 
0.1395090191372939 
0.04334305425039511 
0.02797715310773071 
0.0003307895611373116 
0.3717549920342011 
0.2462130559327942 
0.2458869960534717 
0.2427346612345368 
0.01032144940663761 
0.007483620140949263 
-0.3448786330028997 
0.08194439975182378 
0.008988146215299406 
0.03754881818465555 
0.001918865462081743 
-0.3118218993747767 
0.1278973867985902 
0.1106456201395059 
0.003704882188486585 
0.1408372180117884 
0.4147528862379999 
-0.09835402750642762 
0.1952409165027778 
0.2264843249565983 
0.02455288976963039 
0.1614023367066191 
0.001065552349533296 
-0.19574247426859 
0.3959928893553838 
0.08941217643257764 
0.002743760027689683 
0.2320604374418889 
0.01269999606762615 
0.05048850343249367 
0.0118232247396937 
0.1743832213709155 
-0.1068844542009257 
0.0003609956573655878 
0.009288004840295419 
-0.1032096163453143 
0.1951961826285007 
7.569791254313262e-05 
-0.1122308491450752 
2.966494595832784e-05 
0.1431040739578022 
-0.01752563176385539 
0.1093089188576944 
0.2354783025289153 
0.0001113747901373762 
0.0002783977556112739 
-0.02122767441511024 
0.4844184271876006 
0.001639907924234304 
7.432135650874995e-05 
0.05772923995113596 
-0.1064472218027613 
0.09751160582743899 
-0.2299980386101918 
0.1737501692525134 
0.002084261505556197 
0.137526364730821 
0.09663945681621885 
-0.0242457295942254 
-0.4327141610531071 
-0.04013644878599835 
0.5450954319007861 
-0.3489589601262297 
-0.1611758486112343 
0.1751949574969386 
-0.01933432467396567 
0.2433120989806239 
-0.2549726646027255 
0.07286011259445208 
-0.3968640132881886 
-0.09511226771586444 
0.4754481696705798 
0.0001386302652889991 
-0.1833932712584439 
-0.1031125365006082 
-0.1244654110246964 
0.04429936249598126 
-0.7071536095255058 
0.004119857205096332 
0.2135579524420279 
0.09955705109863568 
0.0002641533685997422 
0.06050423743289325 
0.02564903947718613 
0.08388920922116701 
0.0002587852205276679 
0.1973161925578932 
0.000644562034425877 
0.4026281361196412 
0.0600827890511221 
0.2292530324533261 
0.06435549088741724 
0.2510571885249909 
-0.09475227708543742 
0.377829747105171 
0.01893828412849861 
0.01893828412849861 
0.01893828412849861 
-0.09339085891595832 
0.05676777271341863 
0.4736109521723006 
0.9014638117912367 
-0.3473138718961417 
-0.2261309113749524 
0.0003678494642551751 
0.184155927125045 
0.0004846486872940666 
-0.03129329929309804 
0.0002000811288041114 
0.1424838729293512 
0.07865595615140404 
-0.1626048268685459 
0.268274368697222 
0.03067185709404328 
-0.1253978249863941 
0.5411890109876772 
0.1170804292261478 
-0.01564504461427601 
-0.3465332481914715 
-0.07563773340623117 
-0.1853438494723998 
0.07406536017700624 
-0.04608744997410562 
0.03930540163448555 
0.02758684846181761 
0.04605443347265738 
0.079248821422824 
0.2716005993011133 
0.2105431640938515 
0.2524005272216501 
0.02196630094080825 
-0.1422932640223229 
0.0017423050250832 
0.0017423050250832 
0.03466255202464686 
-1.652314554644697 
-0.04889218690066495 
0.4158017082968394 
0.07605597885987635 
0.200123644642691 
0.3605784815495189 
0.007589592732974462 
0.5299585013602469 
0.3132776898665519 
-0.2785244689881791 
-0.3421817448848046 
-0.2514136260497474 
0.006325353126969322 
0.1214037763252507 
0.005367366942832541 
-0.2832483392390547 
0.1380812378958971 
0.2363054915689947 
-0.09811084753814472 
0.1851878518017624 
0.2351573050398604 
0.02786871788555302 
-0.1285904201397875 
0.02786871788555302 
-0.07230612537151944 
-0.04098667216582676 
0.8082613707902973 
0.1605695298431592 
0.002131481351392622 
0.0001876970181684966 
0.0002202351347278348 
0.0001876970181684966 
-0.09642165923398946 
0.08175728896499519 
0.1925234106326248 
-0.1177585749475283 
0.3594738800654662 
0.0007281993781931191 
-0.0005778840304408874 
0.1780419348950155 
-0.1882508340708395 
-0.0817266660861819 
-0.2640450812208797 
-0.004198082617632591 
0.1694807385674759 
0.004294687019565007 
0.414344065346359 
0.04332000978006408 
0.184868671417442 
0.1682285643873004 
0.1158084426627815 
0.3778280626470886 
0.3247417669316847 
-0.02069332004085588 
0.001204918663337403 
-0.17935700069044 
-0.1466188610755611 
0.01164167895889873 
0.370672051782392 
-0.02478733362265102 
0.001060766702915704 
0.147593299648928 
0.1229820454290157 
0.02934788532212902 
0.01705292754551119 
0.01604355970712583 
0.1091151171983643 
0.01705292754551119 
0.0426750363342954 
0.01705292754551119 
0.01705292754551119 
0.01705292754551119 
0.2205086532548228 
7.432135650874995e-05 
0.5002019160392477 
0.01824970472089881 
-0.2131197321427469 
0.02070649628681929 
0.4292080969499862 
0.09363117015826582 
-0.3053917816715145 
0.009671413718001154 
0.009671413718001154 
0.1880646485813668 
0.213169686356984 
0.170598083079474 
0.1423803763471639 
0.1602543007921217 
0.001409807259119623 
-4.191706764052533e-05 
-0.1307089440930618 
-0.181933678023061 
0.09316616619676653 
0.3121302110459712 
0.4138561409347173 
-0.1133356001733843 
0.1948070627183945 
0.2164593760062953 
0.2513219688279444 
-0.04180216289717215 
0.0663263250788208 
0.05830493825201186 
-0.243180141692799 
0.3441607141543256 
0.0003595452556134177 
0.3532931474749756 
-0.3654499592271944 
0.01172888697084941 
0.003849025614469082 
0.0008704296467442517 
0.1161832009996709 
0.008456493233889077 
-0.3059704600860088 
0.1286105507532352 
0.2013341165484203 
0.2647050686485517 
-0.191767519541742 
0.04280881650209584 
0.4432385798481674 
0.1114641810205978 
0.2922805508521631 
0.08731811983717408 
0.108165870269117 
0.1746243164946516 
0.3349000599516092 
0.01933439248426064 
0.2392431384468854 
-0.0005997661727376198 
0.3289569689041007 
-0.2577111372961877 
0.1196567808083422 
0.4349831769209631 
-0.0001239190383297197 
0.132548605791987 
0.01562634324060562 
0.01562634324060562 
0.01562634324060562 
0.1458608210259369 
0.001018497087178537 
0.1536571501291953 
0.1129248318800308 
0.09857939341069857 
-0.007476277748007369 
0.0311052598742238 
-0.07374955817593709 
0.02176256810238733 
6.84727629695483e-05 
0.0007884158379566655 
0.2182275449219355 
0.01590753050640552 
0.04971822509827051 
0.0005406371247690016 
0.1348143557731497 
0.09263221804597391 
0.005331982363872012 
0.1754653759196618 
-0.2655774809690822 
-0.1130065725266343 
0.1508722559287353 
-0.1476689537094981 
-0.1926822637106834 
-0.06755798200335661 
0.01501368015256442 
-0.218097427201713 
0.2295058994941624 
0.1452763265871731 
0.4666058544010301 
0.00559664025884616 
0.008706625970923559 
0.201045080042585 
0.004160679651812015 
0.008935206377359181 
0.001383191951060912 
0.2225165637653945 
-0.0001745894826386204 
-0.0002132983501792843 
0.3587862989620127 
0.2379176352168537 
-0.0002132983501792843 
0.3983636213684123 
0.1225413889098707 
0.001069450207161572 
0.1371920286233728 
0.1365140688636042 
-0.2637649367784266 
-0.3175671371503049 
0.1116767958756639 
0.1447967218390985 
0.1632891204690643 
-0.02845669260323992 
0.2995191747983555 
-0.1760170113515588 
0.3519396761719847 
0.005427850730847821 
0.4130080369656802 
0.0003744525355619724 
0.06274995331419396 
-0.2039076962181098 
0.1398251978171006 
0.01190141853926534 
-0.1795037568798258 
0.000618357810997618 
0.02855306532228542 
0.08722711313646864 
0.2864416757774397 
0.1444938576395464 
-0.2787881803519712 
0.3278375520405374 
0.03581994879683045 
0.266412914773903 
0.05737051085759577 
-0.1667020610263646 
0.05726824299121663 
0.05730548414820735 
0.06233480222673611 
0.05730548414820735 
-0.9322828977803885 
0.05730548414820735 
0.009728863305074734 
0.2663101007541571 
0.2934825391755292 
0.001172572562294568 
-0.4218542088441979 
0.06705511042964736 
0.0001481347350469457 
0.0001481347350469457 
0.1267318063166812 
0.143829846995533 
0.07006595836813641 
0.07564171437497823 
-0.305211888681906 
-0.1820698008395331 
0.4334148756365107 
-0.01143838886927568 
-0.2174121342569985 
0.06920467223365613 
0.05061616358489793 
0.005232577034554944 
0.212822878669318 
-0.08219373913196909 
0.03853005014876659 
-0.1935507339820447 
-0.1184579279870815 
0.4239948204702317 
0.009541808362409808 
0.0001706471617795001 
0.04034230141915258 
-3.636783300859546e-05 
0.03477191180726417 
0.009802679521807862 
0.0001869249795051925 
0.3590134057293846 
0.1716693091485353 
0.253203079203195 
0.001161234963633033 
0.004402277751603077 
0.0888810501699869 
0.001299542205815738 
0.001299542205815738 
0.001299542205815738 
0.001727197834469618 
0.02084427213264679 
0.1685442574684266 
0.0298087310035925 
0.2080591853268557 
0.2408635933044953 
0.1891736742066338 
0.08302225159607249 
0.4192773259483695 
0.06273601927811522 
-0.06031855968915681 
0.3538226924719617 
0.2820820722971655 
4.229192279613258e-05 
-0.2501594522483593 
-0.361629308028346 
0.0841563795719121 
0.1401175503850937 
0.3826957918669757 
-0.2689884939740407 
0.2753334403338287 
0.03859729322758044 
-0.06053796165614986 
0.9471331359880939 
0.003105315413873597 
0.0007602392862729005 
0.004583475640836434 
-0.01005382895978152 
-0.1270121830091863 
0.01028371014058702 
0.1770699621036882 
-0.2085848099037311 
-0.3690592522510439 
-0.6426310587332038 
0.1722003846639419 
-0.2175100307725387 
0.4290879082714987 
0.06853798529663302 
0.2943434593126156 
-0.3513025266100566 
0.2189234967815163 
0.006228348601086187 
0.0002814105010863183 
0.272623090462923 
-0.1517111993720839 
0.05592178409910736 
0.06735560450991045 
0.01098057022731869 
0.01098057022731869 
0.01098057022731869 
0.01098057022731869 
0.01098057022731869 
0.09857520865934712 
0.01961477915952322 
0.0005293053211193047 
0.5799850380159771 
0.0005293053211193047 
0.01907442870372417 
0.002613893981009654 
0.002613893981009654 
0.002613893981009654 
-0.09859304240259761 
0.07311471310249076 
0.02231092927674328 
0.02230248498604307 
0.02231092927674328 
-0.2697647201141981 
0.006470267760617868 
0.09942302383982678 
-0.2602498942694631 
-0.2019223537853362 
0.04470300498930383 
0.118444839991236 
0.001260403532644477 
0.001260403532644477 
0.001260403532644477 
-0.2736301948228109 
0.04831813289593004 
0.1511528790182847 
-0.2296692596797865 
0.3551171565871379 
0.002347177818219684 
0.3980826190390754 
0.1101103235307224 
-5.243392025745821e-05 
0.3344066994334906 
-0.1178370083569354 
-0.05285443377867536 
0.1034078524847808 
0.2118272435043523 
0.02486544408273239 
0.1700795286768088 
0.03125455229088066 
-0.0597245054448327 
0.1060321969502379 
0.1114778544431077 
-0.3747311136107778 
0.06024038256889852 
0.002456839258885932 
0.05983140611487382 
-0.1838116706094063 
-0.03396545617048211 
0.1929470627412432 
-0.3296161601072565 
-0.2526605646539053 
0.361865228177753 
0.01853587656264139 
0.2914293025618322 
0.02991447137624672 
0.4342703036862217 
-0.23127130336707 
0.002321333730063083 
0.002321333730063083 
0.1292764412865448 
0.000374164097998226 
0.1589755640843231 
0.01996589003948477 
0.007492708609246337 
0.002782188094592894 
0.1587264854797494 
-0.7091652234013355 
0.02883867745362803 
0.01755217454507082 
0.1601933716490024 
0.100747958530297 
0.3032774236827572 
0.317941922530029 
-0.2948952570717308 
0.002452440696287963 
0.4307181147740318 
0.137552004373778 
0.1048925280234165 
0.3183998202486288 
0.07853473044176255 
0.2734678140158248 
-0.2645995091794924 
0.2699086324346485 
-0.6237359128859499 
0.009356894135738574 
0.009940433673166736 
0.004907449737940048 
0.001643578496929923 
0.001643578496929923 
0.001643578496929923 
0.001643578496929923 
0.001643578496929923 
-0.8057885195666564 
-0.04641943845027421 
0.0005154849167697504 
0.04524186164896399 
0.001329611538809737 
0.05033536240504552 
0.1401856834015221 
2.411754234602482e-05 
0.01334948083706493 
0.4565812973855645 
-0.03835682543201049 
0.3744876435137335 
0.543729887487492 
-1.129523411606601 
0.05482446325009942 
-0.008707610987886749 
0.02324197700381684 
0.2781305070755888 
-0.3225420281753593 
0.004664279142557862 
0.1512661537613374 
0.2957612814573297 
0.197580098885907 
-0.3210565713605582 
0.04704837014106607 
0.2816593937427238 
0.1150572767971557 
0.002374600860336382 
0.334699089833608 
0.09521272940883266 
0.354845770301162 
-0.4059982969351235 
0.0002844383087444468 
0.1805047857224358 
7.432135650874995e-05 
0.151036580441111 
0.04256418815036402 
0.09401630326920951 
-0.1913614615337546 
0.00228639057568326 
0.002472136238245625 
0.2774249618838044 
0.01089691987989304 
-0.003423563119138487 
-0.003423563119138487 
-0.8521353708518024 
0.4359291863315695 
0.3152300743629322 
0.2994857477674436 
-0.0605637663538975 
0.01089769466593077 
0.1344793140886175 
0.1313144954677292 
-0.2628112984807678 
-0.1189697901738075 
0.001704690347385936 
0.0002123058850685492 
-0.2394412076636692 
0.08146426188869843 
0.01371451969869606 
-0.02541325442752471 
7.432135650874995e-05 
0.0002245446040414799 
0.04660871297953384 
0.2839501936325518 
-0.4270150400088072 
-0.2592243785819254 
-0.3036401858784697 
-0.005021167095696053 
0.1262092780071216 
5.327242807892567e-05 
0.002452440696287963 
0.0004181965979353311 
0.002928592881489934 
0.2333560970102806 
0.002928592881489934 
0.140289324087598 
-0.3684896196875261 
-0.3874255634685895 
0.001420136676093752 
0.320696824812853 
-8.772683831860292e-05 
-8.772683831860292e-05 
-0.03008164173512924 
0.002962050268601942 
-8.772683831860292e-05 
0.1397578332896182 
0.01190797899027101 
-0.01189617591827228 
0.1654388452876197 
0.007329360302206083 
0.04380002713811789 
0.04380002713811789 
-0.3595604851158906 
0.04104295765736613 
0.006041781117512947 
0.006041781117512947 
0.006041781117512947 
0.0008056084641052088 
0.02284475145332313 
0.001912750363229843 
0.001912750363229843 
-0.1434950661146768 
0.02153859158470335 
0.001412081445583656 
0.0330845353723167 
0.09417289122911665 
5.045092865767232e-06 
-0.3235289282743222 
0.03919784271723757 
0.0298701337898319 
0.0298701337898319 
0.02992249537067537 
-0.3715239804314547 
0.1359927814331852 
0.03081849485462454 
0.0298701337898319 
0.03174415515857312 
0.0298701337898319 
0.03001357952230869 
0.03477474409720615 
0.0298701337898319 
0.2663733821679195 
-0.5432947646366586 
0.1151822144273937 
0.09063615595471383 
0.003114315722177703 
0.2031201508707212 
0.0002171604783839794 
0.1205759592413946 
0.1126516122744389 
-0.28552974650374 
0.07683407065584892 
-0.06624202299025764 
-0.0354533519165287 
0.0835070206249444 
0.1065732218695815 
0.0001993549076412485 
0.1574817161303292 
0.1684071311469411 
0.2471077259825802 
0.0416871324399119 
0.0001884257093351711 
0.0001884257093351711 
0.0001884257093351711 
0.1433490548782846 
0.2571893854931327 
-0.1026775401142604 
0.0009340002030629715 
-0.070085522212916 
0.2554992889416747 
0.09775890405419206 
0.002323286936098245 
0.1003916551839734 
0.05328430013901342 
-0.2996834558412753 
0.3286740178268893 
0.1316947518408499 
0.08597712750807274 
0.1441436442477184 
0.1474119222904797 
0.100859720006936 
0.1188721045574095 
0.0003839429265873325 
8.618094647518484e-05 
0.4240297462819611 
0.001762215994415753 
0.001762215994415753 
0.002374501241716928 
0.001762215994415753 
0.1714470018236069 
-0.410894003702204 
-0.4150465318605491 
0.299170730842521 
-0.6023597268580594 
-0.6023597268580594 
-0.6023597268580594 
0.06515067704770534 
0.06777018908701385 
0.1712046310208511 
0.1357523013892866 
0.1357523013892866 
0.0007800601590968219 
0.1327498728438799 
7.432135650874995e-05 
0.2304458647601195 
0.1217333594754697 
-0.004610407462280539 
0.396970842826692 
0.0935029106406278 
0.07620490219799682 
0.07620490219799682 
-0.444671763137886 
0.392185744306548 
0.6197195394420257 
6.342834603128906e-05 
-0.1832229034296119 
0.07389119700199631 
-0.386703981309726 
0.002230471558016259 
1.632854383131189e-05 
0.04502438131589365 
0.0002882438215899376 
0.00540301417601928 
0.175388234579041 
0.0005147823959476156 
0.0005147823959476156 
0.3630587678980467 
-0.05366975263436488 
0.1626953867581556 
0.03425932585916219 
-0.4221984274362391 
-0.4333191647489127 
0.03508212458547316 
0.1482796631100167 
7.010094089872403e-05 
0.2829070951867444 
7.507763608764841e-05 
7.507763608764841e-05 
-0.2629139514277365 
0.000113699943573707 
0.005784605009780583 
7.434819702570219e-05 
0.026830041703147 
7.434819702570219e-05 
-0.4572403083664182 
0.0185295032670965 
0.5071363650361228 
0.006591205032691942 
-0.2702129001117377 
0.0193699226795765 
0.03800011346956537 
0.0001309143266614837 
-0.0818925930113629 
0.01140005335552388 
0.0001309143266614837 
-0.06167660839859114 
0.1524363344983748 
0.1006468986880788 
0.1081731889929677 
-0.09511669391170863 
0.00020274964772746 
0.2413429985313356 
0.1255732003765957 
0.005754777716216053 
0.2200581934426308 
0.01217535289077667 
0.1735219137321148 
0.1122305572698234 
0.006179133106254946 
0.0003044958870809482 
0.001007909831046663 
0.2661826898949841 
0.1550906105569542 
-0.1334328940476902 
0.002452440696287963 
0.06871487307992372 
0.2551219043494128 
0.02572077423789573 
0.09678679282863968 
7.432135650874995e-05 
0.1626897506843765 
0.0003101667279235337 
0.2711809503211072 
0.03892717653475632 
0.1117154314143534 
0.1262314511237336 
0.009301412582211904 
0.08699022137394609 
-0.5980479250695079 
-0.2383685481112525 
0.2764253958487445 
-0.4387779566340425 
0.2738494255266806 
0.003010108405625128 
0.00315609858676049 
0.003010108405625128 
0.3109034122711546 
0.3764705753660759 
0.2138586288649071 
0.006589446046953882 
0.1525983610039032 
0.1290536917829172 
0.008677511406665629 
0.2349606819587728 
0.009486178576464869 
0.1375248363527829 
0.468926711995087 
0.0009462235602862901 
0.0009462235602862901 
0.01742285265789717 
-0.0009357181972536697 
0.08188378501656195 
0.003783934606504322 
0.004753773354331942 
0.02076384518089604 
0.000520628415662352 
0.06970720987718633 
0.05956805968711903 
0.001805551404859609 
0.06438308906378097 
-0.2174455879976306 
0.2438728498064241 
0.0548259494799011 
0.1209587252471211 
0.1435414758513254 
0.1730314542345836 
-0.5135446775266683 
-0.1392967623389458 
0.3324579782584209 
0.4100503618595075 
0.0003492724784330315 
0.0003492724784330315 
0.0003492724784330315 
0.0151309912306038 
0.0003492724784330315 
0.0003492724784330315 
0.0006779941318771315 
-0.09767220188876861 
0.06533280649828314 
-0.043434818193739 
0.1367922093369414 
0.01818087138788572 
0.01986932531130425 
0.01974723501541231 
0.01974723501541231 
0.01974723501541231 
0.1797501195280694 
0.1752925481710583 
0.01211577715019335 
0.2919897029814348 
0.0044680231741903 
0.1286677938172984 
-0.1383063041633262 
0.05403744660722254 
0.08910489819628081 
0.06414197306248842 
0.06414197306248842 
0.06414197306248842 
0.06414197306248842 
-0.4082348710563584 
-0.5804870960549318 
0.1524307787629992 
0.1523132789718132 
0.01752968430181293 
0.005944020827153586 
0.1593550274788456 
0.2610290878863109 
-0.1716969372990538 
0.003068317110547939 
0.001086299672142979 
-0.1239782563950869 
0.1123203422572625 
-0.1485263586443188 
-0.1724051724586231 
0.101877293581782 
0.06727138380126738 
7.432135650874995e-05 
0.1433679197719837 
-0.1565428010075778 
0.1475436336005422 
0.05881637768705565 
-0.02814346052534751 
0.1074130114198727 
0.0007382899595448425 
0.01139324792829153 
0.5820998210997463 
0.005918530157483375 
0.003358864615040822 
0.2461004923537098 
0.03755600931775034 
0.0005187196818393872 
0.0006330037783416283 
0.194939473542889 
0.1351431789566473 
-0.2729150806648556 
0.3968015121428124 
-0.4413831130630225 
0.3353730305742268 
-0.4789287614014466 
0.4546864216625922 
-0.2509892740224591 
0.0004890814229155522 
0.1879152035694217 
0.4397369147942646 
0.2037928427565957 
-0.1690175334430557 
0.07126893381801172 
0.158612657586576 
0.4369156384646244 
0.08039712074223801 
-0.0003209132947577462 
-0.2307521628147531 
0.2702979838469114 
0.08312405168540424 
-0.3767536449150898 
0.0003141689244033701 
0.3216992835834726 
7.432135650874995e-05 
0.009160912780990486 
0.2346017400577584 
0.0001110934969670644 
0.1026652379634149 
0.0002828269577644997 
0.07215873703848251 
0.001204198860886346 
0.2118379767011846 
0.004304865538822634 
0.0008094756380665695 
0.3835198697687017 
0.113106228582964 
-0.04284424516497639 
-0.006895243919101643 
0.04038399518947763 
-0.4114851015081743 
0.002452440696287963 
0.1236536174206451 
0.09723012620730784 
0.2624876992233885 
0.2638534258107125 
-0.1424328970828284 
-0.4648272513328578 
0.2999935552005702 
-0.3135786817128632 
0.308229620013357 
0.1224498293733693 
0.1674266713792276 
-0.001203857861541488 
0.08197789081394161 
0.02176712895199055 
0.3671642329313602 
0.05385576156692222 
5.301474421436228e-05 
0.09444734243613008 
5.301474421436228e-05 
0.3067741887752778 
0.0003135447388279302 
0.1210475072035243 
0.001754536095616699 
0.001754536095616699 
0.001754536095616699 
0.003425694520805819 
0.005453706015804358 
-0.02572809516770728 
0.3417278781561611 
0.0058322536413103 
0.3644775605657852 
0.001255846319920012 
0.0003299888133699684 
0.02730034856536901 
0.002256440942505262 
0.002600159397119901 
-0.001625743912577267 
0.3326196650809923 
0.3306616103099646 
0.3308530925990688 
-0.5989730479708626 
0.05891213749357543 
0.4182539976393225 
0.2783595622265042 
-0.004746447706859008 
0.02444225482310819 
-0.227381067105582 
0.07487641626048019 
-0.1123889871879674 
0.000450051683266561 
-0.2358384804346263 
0.0994452535570987 
0.0009602741321527873 
0.01940027291749522 
0.1116084770578177 
0.06838598796269589 
0.07560454935068286 
0.1289237904339542 
0.2446651963049345 
0.1713164860669431 
0.1766415076622864 
0.1852776477235225 
-0.2336775306587977 
0.1648463405159295 
-0.2601212684611335 
0.2417290243615765 
0.02022239324953721 
0.06902635046036995 
0.1719382642284532 
0.09441652879698952 
0.1453393297540403 
0.02958289532872303 
0.001030866609053313 
0.0003080253063024399 
-0.08757446587827089 
0.0003080253063024399 
0.0002005704192339887 
0.0002005704192339887 
0.0002005704192339887 
0.0002005704192339887 
0.2143490917832621 
-0.1962244841542455 
0.1660898121707018 
0.3878959250072178 
0.3020043793940036 
-0.1968124232152433 
0.2735704092876675 
-0.2865536599020387 
0.00919550038023787 
0.1521550678932661 
0.0934197013489332 
0.0006191805606455244 
-0.4053439077057708 
0.001055187727927696 
0.001055187727927696 
-0.2039318493795469 
0.0367907286752789 
0.01944491216446756 
0.02683270458986807 
0.1894781295279628 
0.2274641173902229 
-0.0002199473884121869 
0.1654433915290495 
-0.1123050624373653 
0.3734955092582141 
0.01772772514171311 
0.006887412432611822 
0.301521913463447 
0.0002832043772271185 
0.004642667460126165 
0.09560750077397326 
0.0186648521992124 
0.01044011490421763 
0.03113093856398806 
-0.0001919155654646506 
0.2793553955679757 
0.005080449410625138 
0.0904584647618516 
-0.00975971006234938 
0.0977607966846266 
0.001059130942234936 
-0.2054632158062853 
-0.5019554605881138 
-0.4254949439879793 
0.2334120387125382 
-0.590819165519969 
0.2533962190857134 
0.2280936325482807 
0.0003746137146316435 
0.2525325562430005 
-0.3264859725628629 
0.008880866143099127 
-0.07266843671605638 
-0.4757348798598551 
0.01205427918978434 
0.0438343536436485 
7.938789775127456e-05 
0.04990242401252741 
-0.1607315073172816 
0.1368025472400209 
0.1850028284670536 
-0.1432904800115247 
0.0001327042931214266 
0.1876511475259807 
5.425723177553913e-05 
0.4319104807676009 
0.0004226460975364483 
0.2926449981887571 
0.1078895115135956 
0.006544415918194029 
0.0009892477983855237 
0.07422682701414088 
0.002111625287522904 
0.0003763210761617212 
0.1210583465074253 
0.6584796774585173 
0.0003636595368876175 
0.002736400110919076 
0.2826535592387007 
-0.5580271908531658 
0.0003365347718531905 
-0.01443537488850534 
0.131431448107878 
-0.0005714885783498092 
0.01821344233344336 
-0.0005714885783498092 
0.1039897870685895 
0.1463592789408898 
0.1474263949338324 
0.04223750666258811 
0.0002825158650340003 
0.02292032940243373 
0.09381198365413514 
-0.07618375512633538 
0.09381198365413514 
-0.0001861325557217928 
0.1359855241755033 
0.4149418916048625 
0.146581837388666 
0.0004794958036051546 
0.0004794958036051546 
0.0004794958036051546 
0.0004794958036051546 
-0.1982807788509479 
0.1743805683370538 
-0.337161718957654 
0.01239538030259435 
-0.04635953608902929 
0.2763107359990918 
0.07568753045823093 
0.006827743941392659 
0.001947104286092534 
0.009412560043898973 
0.01154680795946312 
0.08157472095860473 
0.001086229720952247 
0.05805648339883767 
0.00187111304857236 
0.00182686392617727 
0.0003680639795063549 
0.005707982067808899 
0.03030069572732089 
0.4254640248102539 
-0.9273921426093908 
-0.2569802493668831 
0.001832340075551521 
0.001832340075551521 
0.001832340075551521 
0.001832340075551521 
-0.002233558774516732 
-0.005183054873155774 
0.2468182550456944 
0.03091103242637905 
0.0002229640695262499 
0.04759803068958667 
0.03224124376733241 
0.1541148436284318 
0.1463939247324608 
0.137685368922746 
0.395277711083288 
0.00203426357775423 
0.7703681337636845 
0.001074684508873954 
0.1938541731975807 
-0.003450417933432385 
0.0009251492257300658 
0.0009251492257300658 
0.2664995285800735 
0.253076306508641 
-0.9573752575676453 
-0.09228909639395132 
0.008199292590585093 
0.08927783459356295 
0.002452440696287963 
0.1107095581762562 
-0.2532065157685718 
0.0005940247944186029 
0.04263681662249687 
0.04263681662249687 
0.04263681662249687 
-0.004284116635572472 
0.207714760451125 
0.004596433749788203 
-6.412974372293435e-05 
-0.01581087465642892 
0.1726757702625526 
0.126168470138768 
0.1728182654244002 
0.06737018381963969 
0.0003733449035598697 
0.4682090561221774 
-0.1205348504229939 
8.296053472380994e-05 
0.2886098348196155 
6.558903223304791e-05 
0.003664338257018338 
-0.5627327586265674 
0.07662229556198517 
2.055814555933386e-05 
0.187859979890267 
-0.480658486229025 
-0.2227783001023555 
-0.4210519854344171 
-0.5686764649506768 
-1.145164090266467 
-0.1078388698214896 
-0.07977706753122894 
0.02252626685864069 
-0.740069190750793 
-0.2041858031980937 
0.189221180492399 
0.04590037466585564 
0.2718139934368913 
-0.7595601640009393 
0.08918473472592642 
0.1769476995954622 
0.001123444597455936 
0.002816453539072745 
-0.3869261423002823 
0.002452440696287963 
-0.2630341808897496 
0.000260037437139913 
0.001677754731948796 
0.004655097765624044 
0.004192731693136728 
0.0004583042560381558 
0.0004583042560381558 
0.0008101611548902042 
-0.009370568221149667 
0.0004583042560381558 
0.122493671293762 
0.06283738497947094 
7.432135650874995e-05 
-0.007513806015488986 
0.1450190014644795 
0.2315389088592764 
0.02022752550610118 
0.06344970664294944 
0.06567625872816497 
0.1381590860397797 
-0.0005809340413487029 
0.01219145213605688 
-0.4976317862023361 
-0.2963045211445601 
0.03991030963732067 
0.1533406567111181 
0.01425768387358619 
0.05570669499709457 
0.2036893996832805 
0.01425768387358619 
0.01425768387358619 
0.0005761771721536221 
0.01562087846296248 
0.001786910308748974 
-0.2849433735210456 
0.1124282254772549 
0.3266025918497099 
3.641569154743912e-05 
0.2371789724296903 
0.2242303269454162 
0.4335912841467929 
-0.1711781237096061 
0.04979575723933296 
0.1033362968449006 
0.435177301695581 
0.0004769417313468798 
0.1313639017602866 
0.0003920502125406725 
0.1850278390024433 
-5.27492168601976e-05 
0.01827412323453332 
-0.09021230367820494 
-5.27492168601976e-05 
0.04920978726085316 
0.2397455616704911 
0.1910482483559914 
0.1978147837410655 
0.0009900438477830971 
0.0009900438477830971 
0.2187001718413878 
0.1663257526804861 
0.1098865010571309 
0.002360010382254616 
0.0002003090607732743 
0.09049544278287726 
0.1671878744023327 
-0.8400422656828876 
0.3198630160709608 
0.01374604022931561 
0.1837968974361624 
-0.2644540744775248 
0.547104852325819 
0.01007747461430635 
0.01007747461430635 
0.03744005983946051 
0.06676343795999873 
0.07801327528510654 
0.06510789605111666 
-0.0855865101397885 
0.318796446946287 
-0.4300405191005823 
0.2048385288360187 
-0.2305547515405993 
-0.6519525505593743 
0.000105364827877412 
0.2172379232454336 
0.000105364827877412 
0.000105364827877412 
0.000105364827877412 
0.2112115303234678 
0.1101903339910455 
0.002613598419842709 
0.2762284234589198 
-5.680943905924112e-05 
0.003360946756766286 
0.003360946756766286 
-0.09483294075360904 
0.003360946756766286 
0.002869057849504732 
0.1511069483272518 
0.0456624594427119 
-0.1647156605051032 
0.1176727169724145 
0.3106457312474972 
0.1317512675355931 
0.002452440696287963 
-0.2208005013461372 
0.0001029266129401329 
0.2972024879549005 
0.05033775433702716 
-0.04542745748833452 
-0.4528088607976055 
0.03954125682478071 
0.0007536502607328137 
0.0003442452316082654 
0.001040904527879524 
0.06204266620746285 
7.432135650874995e-05 
7.432135650874995e-05 
7.432135650874995e-05 
7.432135650874995e-05 
0.1292880868058943 
0.003849113487797071 
0.002621811779983219 
0.01058014579639142 
-0.1916983436183294 
8.794038027671352e-05 
8.794038027671352e-05 
0.1162676338730601 
0.01578774925459134 
0.001250651959985651 
0.0004685835870247264 
-0.4515526372982285 
0.000350387210255483 
0.0002764665266649127 
0.0003958746412389151 
0.06318026848527883 
0.0002021451701561627 
0.2109007449428716 
0.001375634327742875 
0.1514129709882533 
0.2019064899523184 
0.1407419581810246 
-0.007656714259039365 
0.0003971001284142695 
0.0003971001284142695 
0.0003971001284142695 
0.001186183265540633 
0.1953290689355306 
0.331812180666314 
0.08869199034855015 
1.153593990966398e-05 
0.0001530752335434001 
-0.4099601532561815 
0.4323972706747232 
-0.003497831185633151 
-0.003357061467561389 
0.06047881708462745 
7.432135650874995e-05 
0.01632154169338083 
0.09474450236955098 
0.1080895214531155 
0.007289638810604702 
0.0003741708863242002 
0.003179823120560033 
0.1288646921552571 
0.000177763641730033 
0.4187497288594282 
0.0003595452556134177 
0.0008800630959484891 
2.06683080587232e-06 
0.3763994693087256 
0.2185326615022688 
0.0005691962691533325 
0.000751998564981433 
0.003052797687071659 
0.155832155059714 
-0.03528484523999725 
0.0001975049934163778 
0.05211829410786645 
-0.7447026002342639 
0.1745029567594923 
0.002541897074255304 
5.818758983827277e-05 
0.008741851002681428 
0.2858310130489156 
-0.3700215598668559 
-0.07069462832100254 
-0.4219053457805594 
0.01502087766237907 
-0.0007560091548941436 
0.1389520120788638 
0.1514498704837725 
-0.0007560091548941436 
0.04201548202219022 
0.1760464867408311 
0.01083463704117654 
0.01056965237450117 
0.0003971440806323536 
0.06915383299901542 
-0.4585679697838895 
0.2582020993430973 
0.01687816739277314 
0.0006757825090656407 
0.002655806852753192 
0.0002302101841599424 
0.1110636505216499 
0.2788955284553785 
0.08404694968708812 
-0.2549526089456963 
0.1509030464875722 
0.3161110478453629 
-0.000809824687364346 
0.04249702584678017 
0.009753611147342625 
0.3471516549863196 
-0.02100243417215945 
-0.2286943739269144 
0.2131058232924684 
0.002452440696287963 
0.002915257332287601 
-0.2651188081256085 
0.1040232798786444 
0.1076902912105919 
0.0008730008781655604 
-0.009213320676182996 
0.003037012333972009 
0.2960064521463276 
0.1012763101255695 
0.05609865796893409 
0.06013043109499274 
0.002877740366826306 
0.003764915088019742 
0.1785138448315756 
0.05489312533858522 
1.283781790438523e-05 
0.3189969537510256 
0.0001815318185992396 
0.09935726446070264 
0.0001815318185992396 
0.0001815318185992396 
0.0001815318185992396 
0.0001815318185992396 
0.0001815318185992396 
0.0001815318185992396 
0.0001815318185992396 
0.01685595329135698 
0.0001815318185992396 
0.0001815318185992396 
0.1240673327014064 
0.009066660875250692 
0.06931407982976388 
0.02479897631855171 
0.002094151848319439 
0.002094151848319439 
0.08992748245582802 
0.002094151848319439 
0.6157384461515271 
0.07303561326623924 
0.002452440696287963 
0.3184179288299475 
-0.1592525152821209 
-0.2695851314322574 
0.140676488915235 
0.03736839931780304 
0.01466484225916735 
0.01466484225916735 
0.01466484225916735 
0.01478255495956548 
0.01466484225916735 
-0.2483698416665039 
0.08450909407376216 
0.01030836101762784 
0.01030836101762784 
0.01030836101762784 
0.01030836101762784 
0.002452440696287963 
0.4943518308764969 
0.1480361690658047 
0.1481556062385164 
-0.3444246242587369 
-0.1887921466925401 
0.170181931435991 
0.04293493745171724 
0.005908489505830059 
0.0005299507053251238 
0.01143304016323123 
0.003681161030477192 
0.001491891011664575 
0.124504505912066 
0.0004935565295119246 
0.296882296382939 
0.07852475740419258 
-0.3440569812782395 
0.03742373982654074 
-0.4485136935538406 
0.001043580315347319 
0.0545565570580237 
0.05506170984926332 
0.189824997768659 
-0.3790888474953722 
0.156185833159959 
0.02899701335438944 
0.0001382122244127142 
0.000155677575459593 
0.05855567399058156 
0.07505212934853765 
0.0004140967115787017 
0.08041467384621828 
0.002617792811609309 
0.2241150680565736 
-0.1173430664088716 
-0.9009310839663457 
0.001460060359278915 
0.00244056972697083 
0.02291437880408966 
0.04132863338487394 
0.04884836355672913 
0.08228135756826885 
0.06386251234395703 
0.06009324142974336 
0.1064317762591976 
0.03606282597995895 
0.03606282597995895 
0.07872343071606927 
0.1693569240258977 
0.1109093287183158 
0.08487690555639778 
0.03315377161930925 
0.02709749413639774 
0.02683332221064669 
0.06886258990029909 
0.002065973041945428 
0.002219612182656955 
0.01983785835288268 
0.464286342749465 
-0.1244505443166861 
0.0008825515572576117 
0.02141186076737353 
0.0002325267077244157 
0.1262782681842765 
0.0002173764649942487 
0.03156041540084331 
8.499662873467547e-05 
0.08301049546125805 
0.1050015322863337 
-5.305620339542404e-06 
0.3237071180973277 
0.2087365075878005 
0.1822025555178793 
-0.4225225679707042 
0.2510211673916515 
-0.0020074815148791 
-0.01661839525645067 
-0.5938351354249933 
-0.0052691033111645 
0.002452440696287963 
0.02102143252041737 
0.05074966789941429 
-0.002294898645415665 
0.2600146691152299 
0.004084834561035136 
0.4675245229013244 
0.0001083729828283031 
-0.001264214049057273 
0.00262286929735015 
7.432135650874995e-05 
0.002306397201646686 
0.0007086105630084344 
0.1286647161928523 
0.4265302302050965 
-0.0002930893134197152 
0.002264824969192948 
0.0004234702231013037 
0.008963081072941848 
0.0004234702231013037 
0.0004234702231013037 
0.5124013925708767 
-0.0002181916680834291 
-0.04148228072452304 
-0.02142998790951084 
-0.1777040300675569 
0.1173169831576567 
8.343183938910852e-05 
-0.005616504422577672 
0.4299481292033822 
-0.01338428679640832 
0.09696459119565108 
0.09740244201604731 
0.09696459119565108 
0.09696459119565108 
0.04440743594488917 
0.04275690170305621 
0.04404917995828785 
0.04404917995828785 
0.04404917995828785 
0.04404917995828785 
-0.4655054582985949 
-0.5057185108213849 
0.128490521268933 
0.1287497527637803 
0.0009523828094220693 
0.01002143141436277 
0.01597961509573788 
-0.00311137369633922 
0.000229068804590626 
0.000229068804590626 
0.000229068804590626 
-0.0004604624549366434 
0.003895854454736703 
0.2500671961491662 
0.01155791572018502 
0.01155791572018502 
0.0897867223665423 
0.1026923649067506 
0.09672398234029311 
0.02686769783839949 
0.02710410700329848 
-0.2129597083140895 
0.02899563800286011 
0.07698544861030342 
0.1988081023507605 
-0.5470844199215263 
-0.157316659643336 
0.2127548915510905 
0.07455590634141686 
0.0253270677050728 
0.03777262198625976 
0.001711974077987067 
-0.1727116408394914 
0.2110945062442977 
0.2418091019302549 
0.06993773025864684 
0.1578333744427982 
0.2846264180100786 
0.1607507008530815 
-0.4232344299740498 
0.001456427524050144 
0.008133797712804682 
0.4241019580370892 
0.002284280881161951 
0.0008345835711605434 
0.3539683335591032 
0.0989496326080843 
0.0006904981170219978 
0.0006904981170219978 
0.118187949572334 
-0.0003376288975015752 
-0.335701763233863 
-0.08155247581213511 
0.1967143516972184 
0.1996914011673134 
0.0124361187612439 
0.05087576483392448 
0.006228356858304019 
0.1576881243287757 
0.007049432673108789 
0.4179561554320684 
0.2198846909158484 
0.3754373816134807 
0.2168092647027111 
0.02134224194204963 
0.1358678643724426 
0.6228528693801513 
-5.879200646849095e-06 
0.001709694450700409 
6.211691927409192e-06 
0.1828901216917573 
0.07943278719281698 
0.02677799086838477 
0.4044469065079815 
-0.8887129181596585 
-1.066543689954634 
0.1235702372741551 
0.06197813165943951 
0.0002440385886978397 
0.2418677759282505 
-0.7463492420763869 
0.02817972975299205 
-0.2468059586923241 
0.007669692712883524 
-0.3008424896425428 
0.07995485200620835 
0.07541558223727819 
0.1365889564840496 
-0.2636869332344294 
0.05941134932834458 
-0.2614646373337825 
-0.728735199539693 
0.01016404681831787 
0.006349561659184065 
0.01280836403795542 
0.068292340606498 
0.0899377639002357 
0.1736296447891518 
0.02334379635052933 
0.02136217547335386 
0.02146717942682261 
0.02207158346028084 
0.03823555145723017 
0.03977212043838611 
0.09870973600015062 
-0.0001717334607974353 
0.1590703903490008 
0.0467659148759775 
0.008714793323615638 
0.003533071373561881 
0.0002449512310734483 
0.0002449512310734483 
6.499271406276409e-05 
0.01120455626644533 
4.7205295646413e-05 
4.7205295646413e-05 
4.7205295646413e-05 
4.7205295646413e-05 
0.00266653911170432 
-0.8947313605455117 
0.1285755721797102 
0.1223817371215291 
0.1511855249422594 
0.4851053970001906 
0.140009665643718 
0.08197363278635145 
-0.4338110371147108 
-0.3807721059041365 
0.1651245167772311 
0.001066366290354134 
0.001066366290354134 
0.001066366290354134 
0.001066366290354134 
0.001066366290354134 
0.001066366290354134 
0.001066366290354134 
0.001066366290354134 
0.001066366290354134 
0.001066366290354134 
0.004682218777524099 
0.002627522165594228 
0.0671392425334392 
0.03743382313207547 
0.006624546374557705 
-0.009744392216786236 
0.01217086099103138 
0.2222822780688604 
0.07514779905056394 
0.1215019588200688 
0.04323829839180619 
0.1546308823530048 
0.04327838045301815 
-0.2600278683735842 
0.00518374156508056 
0.005043363170360725 
0.1269254636328703 
0.227356631457246 
0.01109034003281084 
0.0001661650832743956 
0.001182644953888883 
0.0009651602021659247 
0.0004040153352659371 
0.0004040153352659371 
0.2759931490558792 
0.02772492063769139 
0.0004805249796249081 
0.02429538431536342 
0.0127967238465704 
0.01556123670979486 
0.01316370571297866 
0.052469881619488 
0.004208077195688698 
0.05953555337123699 
-6.104284703365464e-05 
0.2138687736476293 
0.340169574086038 
-0.2758524558681027 
0.2832186199058621 
0.2850101358306649 
0.2850101358306649 
0.06117016653930357 
-2.723308638261118e-05 
-2.723308638261118e-05 
0.002452440696287963 
0.01649404300230781 
-0.4732645802028367 
0.01649404300230781 
0.003565769482244626 
0.1501603716632027 
0.2456040513725301 
0.06514830124113043 
0.003668410213044383 
0.0008259001826053904 
-3.648607229067792e-05 
0.00143427902103497 
-1.091429251573395 
0.01341307905334428 
-0.06257516549465909 
0.03009826013713979 
0.0003967877470110639 
0.000356421180015868 
0.001785940409135829 
0.001785940409135829 
0.00155246739633111 
0.009501820396558685 
0.3194965285899568 
0.0461895023354208 
4.813786576589238e-05 
0.01034555736385413 
0.01034555736385413 
0.01034555736385413 
-0.1608070061959781 
0.01034555736385413 
0.01034555736385413 
0.01034555736385413 
0.01034555736385413 
0.01034555736385413 
0.1040032477235013 
5.007581253880087e-05 
0.003277516194875522 
0.3294121217570715 
0.06460955061060679 
-0.001279759249350932 
0.005978943016917053 
0.002452440696287963 
0.07982841339250223 
0.3431571383090647 
0.3226308608470733 
-0.4486108816864018 
0.0005281056492594977 
0.001172337286350655 
0.0007624692296340499 
0.0007624692296340499 
0.007123075049370598 
0.1160351788407667 
0.3091001790801019 
0.001100900222739648 
0.005160949770071483 
0.008631311671150147 
-0.3341084509391642 
-0.3982436450007251 
-0.5765595832845308 
0.02494045976421005 
0.09310749439266 
-0.4624848875106193 
0.1128005000082649 
0.1126396784445341 
-0.1199901450663916 
0.2530338207015605 
0.001177423455358371 
0.08180896549280207 
0.3670877695774527 
-0.009902610408625764 
0.2957334586138355 
0.1044345928082702 
0.1987139801142363 
0.1216784705030738 
0.03721248867575576 
0.6495313911505356 
-0.6475845869600578 
-0.3451627086429258 
0.04727888718496556 
0.00498932516499441 
-0.001482171897610867 
0.3524685292403408 
2.940771639169769e-05 
-0.243136488741822 
0.02224585545167715 
0.07514388478116603 
0.08734732197367585 
0.0130905637684249 
0.006399630367202661 
0.0003321926845814371 
0.2992261219370942 
0.02418517007259457 
-0.2901478778778429 
0.004535433463018546 
0.06094866494587617 
0.05342893911541706 
0.05484520762109443 
-0.006806154858986927 
0.1042356913156025 
0.5582805321096143 
0.0002812514208901641 
0.0002812514208901641 
0.01940278108110686 
0.0942060899801683 
0.04905792868305883 
-0.1676194806679977 
-0.005819286962261675 
-0.005218415785812627 
0.3614696824607901 
-0.00481547714088251 
0.01299878863112472 
-0.3923563890046233 
0.01406822872988052 
0.1469923592422246 
0.07541064836395614 
0.1430226356943241 
0.08060052643694132 
0.0008424622845871367 
0.08469365182561459 
0.0002147858750466375 
0.01232895388652466 
0.02153022383500694 
0.02153022383500694 
0.0005673780054395374 
0.1704682957984723 
-0.2020106158463084 
0.09643528503331823 
0.002025391675863492 
-0.2899661320054255 
0.0003374901982591446 
7.432135650874995e-05 
0.1144928595424663 
0.459399116297514 
0.04980623914090748 
0.3406146066834168 
-8.055862210460612e-05 
0.0003804072059021714 
0.3695976002334518 
-0.4190198794542386 
-0.002211692165718009 
0.1017761318212778 
0.00162789206161936 
0.004642667460126165 
0.2653527577099425 
-0.1015761937633976 
0.002452440696287963 
0.005679872940333387 
0.06918475560328409 
-0.002024570333960949 
-0.6758061644345253 
0.1384336842526923 
0.1678554129176147 
0.4373281596221268 
0.002452440696287963 
0.03503726641550957 
0.0009737616388949314 
0.1482620382041936 
0.0001155334121059259 
0.08638940497034672 
0.1733477874647727 
0.06717747600237292 
0.005143189565568417 
0.1338168211934597 
0.1685447130220649 
0.001617551921689391 
0.001617551921689391 
0.3977026090614128 
0.0008855457760401238 
0.0008855457760401238 
0.001387414290819792 
0.001387414290819792 
0.001387414290819792 
0.04756590037463334 
0.01030957786196892 
0.004642667460126165 
0.005977361928153249 
0.002955141759082237 
0.002955141759082237 
0.07294183002241192 
6.709234837464235e-05 
-0.3645010395936701 
0.06886419995532062 
-0.00273453204105837 
0.0001512832154345648 
0.1372232927225381 
0.1741391265868779 
0.004404348684803396 
0.004201589729677812 
-0.002033502171550397 
0.1500694283625114 
0.09422220643832553 
0.09422220643832553 
0.1407165655688836 
5.838405217445282e-05 
0.6033924978513517 
0.1215846694694728 
0.06700260121932179 
5.838405217445282e-05 
0.002382803496379743 
-0.003710835404889317 
5.340808114712722e-05 
5.340808114712722e-05 
-0.02997925307978172 
0.03376507441503192 
-0.0007814216938028596 
-0.0007814216938028596 
-0.0007814216938028596 
0.07306019232148479 
0.133142146910336 
0.103852829893448 
0.006839779315196842 
0.1256432965826856 
0.02973337772931882 
0.06536951996766431 
-0.6867963605592244 
0.1748376996750299 
0.297986288877387 
0.4191997075461086 
0.0002612842308423269 
0.1443515390138548 
0.1415775344369405 
0.1415775344369405 
-0.3894190369781747 
-0.5924669899540876 
0.1418588615782387 
0.1415775344369405 
-0.2493067079946978 
-0.0008530320671038725 
0.09173322188151824 
0.1069382123247209 
0.000128480694281381 
0.0002188974873522701 
-0.005659199455797591 
0.0001477767220586408 
0.0001469025826084832 
0.02124451557563101 
0.1516096781180742 
0.08970288720552863 
0.0002809850402779544 
0.0002809850402779544 
0.0007688537755372531 
0.0002809850402779544 
0.0002809850402779544 
0.02882121638322892 
0.0002809850402779544 
0.03536068669065687 
0.001130594634885332 
0.3855476487973362 
0.2836658495160456 
0.08379450919109552 
0.189615650603471 
0.01710102701304411 
0.01732464736867994 
0.0001059882573495187 
0.0001059882573495187 
0.0404363418615983 
9.385920373486048e-05 
0.000494854443726227 
0.1071183625548104 
0.002321333730063083 
0.002321333730063083 
0.06915404058073946 
0.001018997218819202 
0.1496921934605661 
0.0005506968104515613 
0.00303794856500036 
0.4759057923704026 
-0.1682133951137312 
0.004100153532511355 
-0.3050836100017716 
0.002828071536510731 
0.0009231159329969674 
0.3545263279649342 
0.02177729317605254 
0.0007466940745386657 
0.4045773840510819 
0.2370364363793478 
0.003799833004289307 
0.07122296784286725 
0.01153137315087958 
0.1270345699367649 
0.03590770639440188 
0.002452440696287963 
-0.004428375048235287 
-0.008276573368925313 
0.06811762732785609 
0.0001641742642381984 
-0.003152821726483468 
0.1242216189178383 
0.05093573464762838 
0.0339168035298526 
6.030337101240733e-05 
-0.005209388673247572 
0.1329116795002845 
6.030337101240733e-05 
0.00250820739754955 
0.0822477150596012 
-0.2581062871287812 
0.001179905062384828 
-0.4642124211156407 
0.3386037425282823 
0.0001180949745810558 
-0.0001182025695137874 
-0.000285310686313642 
0.06985536802724417 
-1.043975023261782 
-0.1510753136193258 
-0.3028012446357474 
0.0920361485245717 
0.001359511050672012 
0.001359511050672012 
0.1105341704976662 
0.08385686714373936 
0.2599297292697292 
0.00313119892381452 
0.3325857790303315 
-0.414719765996822 
-0.414719765996822 
-0.414719765996822 
-0.414719765996822 
-0.1153271941772832 
0.1068480431168116 
0.2036921033932738 
-0.00822550085983793 
-0.004136214574444028 
0.03233363429659778 
0.1225910973197355 
0.001457586594414673 
0.1417084660079136 
0.02023933711293295 
0.06986337553601207 
-0.6851881474864462 
-0.5256047751036543 
0.002542539161124984 
0.0002797434886652713 
0.0002797434886652713 
-0.06228588321487565 
0.0002797434886652713 
0.003964140361142021 
0.004571245448972694 
0.004571245448972694 
0.1147987756791644 
0.1373368633924122 
0.0009271581308362785 
0.0004804091712473157 
0.2089500735671668 
0.0001001166364946015 
0.08796679182362219 
-9.349247547868594e-05 
0.4553373603576186 
-0.1379796317010474 
0.1421523622556828 
0.001791228359208796 
0.001791228359208796 
0.003674946390207648 
0.0002770358373662278 
0.3621851788894022 
0.002284910166642062 
0.1434009110719752 
0.0008641705916961963 
0.01775764287847811 
0.001626713445975084 
0.003976510738940191 
0.007539690252986866 
0.004779361593837813 
0.08189453298439385 
0.0008810454149404698 
0.1414137550659276 
-0.0003841500368740166 
-0.171754638256248 
0.02285404465465561 
0.0001367528360884713 
-0.1513250770526234 
0.04474581453548835 
0.100436268773365 
0.001997741642280005 
0.09506358134899776 
-0.5740564824732873 
0.005481268981871019 
0.005580156659157443 
-0.8109044875374323 
-0.2227824514192208 
-0.4189791932029716 
0.1240848097638994 
0.001543556217255633 
0.001543556217255633 
0.001543556217255633 
0.001543556217255633 
0.001543556217255633 
0.001543556217255633 
0.1608651763635863 
-0.1944838122691041 
0.0008447003180346183 
0.104927210929825 
0.1070057323316353 
-0.4830242328693889 
-0.4830242328693889 
0.01670155963869598 
0.01670155963869598 
-0.0001326659008770076 
0.03359595253190523 
0.06469554581459404 
0.2047107139855488 
0.0003084577468046502 
0.01283266172355322 
0.1627821305812536 
0.001526784500474233 
0.0001647519741235152 
0.00968502184234893 
0.00024260435615092 
0.4498334009004577 
0.03889598885110718 
-6.809077460228294e-06 
0.2976831348031527 
0.1530325732268253 
0.002452440696287963 
0.3185199934501146 
-0.01267696340930818 
0.1861949259957701 
0.0003314559493004543 
0.002039974634952597 
0.002039974634952597 
-0.1611824768239815 
-0.01478122958745723 
0.0002522451754133532 
0.6997961683344485 
-0.6434570242468711 
-0.2234659607670497 
0.5870963709375059 
0.00196434398165992 
0.05295797280987513 
0.1146637084639482 
0.04105389630939404 
0.02935052210668724 
0.02444225482310819 
-0.7070266930759326 
0.0002105098481694656 
0.0002105098481694656 
0.2132244683208561 
-0.8340714976059872 
0.002982600781824695 
0.003156961407513615 
0.180197983371618 
0.1376105742308927 
0.1376105742308927 
0.007845885015852325 
0.08752110016444273 
0.0008832895259756366 
0.1700571924680558 
0.06649917954665004 
-0.2782356231125007 
0.07279604407933456 
0.07334062559989886 
0.01087905010703646 
0.04428662102951184 
0.05374580069690556 
0.003471176347164734 
0.005438897333400295 
0.1606047854352347 
0.1606047854352347 
-0.3340561340330627 
0.2504838080410587 
0.0007502315134477624 
0.01238750191634077 
-0.2415268900433005 
-0.4894656096171703 
-0.2415268900433005 
0.09190160485933997 
0.1946430683288956 
0.1958985228015151 
7.837621160166716e-05 
0.07662088154082147 
0.0004434341705049213 
-0.4338176173203481 
0.002321333730063083 
0.002321333730063083 
0.1383792005892922 
0.005454631859233963 
0.005454631859233963 
0.4396178462472934 
0.175242246022642 
-0.6578015660647263 
0.09115356537326125 
0.002457745353358871 
9.575391021487266e-06 
0.0930005800000928 
0.1272666175723917 
0.00651479281163952 
0.03143977461372864 
0.001379424082272545 
0.001379424082272545 
0.001764458404731858 
0.001379424082272545 
0.001379424082272545 
0.001379424082272545 
0.001379424082272545 
0.07100579489158176 
0.1950772959903852 
0.0003279954909033771 
-0.5801687864173656 
0.2464283312197436 
0.1845201253510372 
0.004357745045942205 
0.443659906896829 
-5.979399117826062e-05 
-5.979399117826062e-05 
0.04210701505745459 
0.0006826061240883839 
-5.979399117826062e-05 
0.001064893788466952 
0.2925287812631603 
0.1602293680128921 
0.003095917356009994 
0.000160179205222629 
0.04370385495782905 
0.00444757686013822 
0.1625349019761438 
0.0005258126522871748 
0.009577541271434136 
0.2870531543372831 
0.000175560791223815 
0.04807778984527609 
-0.4196890294924294 
-0.3884113806153918 
0.394602198417488 
0.0002207718809803291 
-0.4244622722688784 
0.0005582143473091658 
0.0005582143473091658 
0.0005582143473091658 
0.0005582143473091658 
0.001573893381326904 
-0.0335418954194916 
0.004689482852324548 
0.0002694684358631944 
0.0002550937425619223 
0.05217345393968611 
0.001088304961327809 
0.329216205810295 
0.199661237546165 
-0.002111467156918035 
0.1715153267235385 
0.002209437541552776 
0.002209437541552776 
0.002209437541552776 
0.002209437541552776 
0.002209437541552776 
0.002209437541552776 
0.002209437541552776 
0.002209437541552776 
0.003571470067903494 
-0.001375997138862438 
0.01423225471780378 
0.01423225471780378 
0.0909155423809645 
0.005993592585085864 
0.0003420613153199378 
-0.01154811908107325 
0.0544600776959594 
-0.01541787425516469 
0.07478237025652902 
0.01265349933095532 
-0.005423611318165451 
-0.007713148287057338 
0.1059892943182914 
0.002097750300329286 
0.4498809798021528 
0.2235001297008438 
0.5579377285338882 
0.007787462711997281 
-0.4444601899416115 
-0.4156119031013153 
0.0722407437371235 
-0.3048289698206356 
0.01039242780101874 
0.3313175015653211 
0.00111262291037201 
0.0007386220184062121 
0.0002820137161072691 
0.1789656666093723 
0.04285050148078881 
-0.0006005632834949485 
0.004333634973277449 
0.1009884005301531 
0.0001086387837506667 
0.0001086387837506667 
0.001662199889793977 
0.001082578051492802 
0.05773704561137978 
-0.7974871850498009 
-9.599067512311341e-05 
0.02740189167156632 
0.000160734454933134 
0.1891547773764064 
0.0542743818789608 
0.1990315467803196 
-0.08889583785793632 
0.08952810985162975 
0.09015524565937806 
0.3236450430211237 
0.0375564141273981 
0.1033776433977013 
0.0005274092738311948 
0.07901935579770322 
0.1148304454455419 
0.0009329100769582194 
0.0009329100769582194 
0.001511938491972278 
0.0009329100769582194 
-2.839222717208726e-05 
0.1584724240402094 
0.1574909571506196 
0.1865362020634741 
0.0001599102465916732 
0.0004931265843084809 
0.0002216245828022834 
-0.0003633387181158791 
-0.0003633387181158791 
-0.0003633387181158791 
-0.0003633387181158791 
-0.0003633387181158791 
0.1241149488809775 
0.0008140708570778455 
0.08156962749933645 
0.0002895742856059037 
-0.08281822550999281 
0.008437221262850621 
0.02465563312826765 
0.05477120275471418 
0.0962617661125367 
0.0002203946006898549 
0.04993103281919811 
0.03571189310953754 
0.04360587294460649 
-0.004997869252059541 
0.08104744241061032 
0.1100150592229096 
0.008854123076075901 
0.0002256793348730427 
0.0002256793348730427 
0.0002256793348730427 
0.0001232985397002765 
0.01409475945652563 
0.0453530835929995 
-0.0002000312607426474 
-0.001595093629449008 
0.003358579925245507 
0.003407742882379542 
0.08614743691271924 
-0.003136737501430677 
0.1206583781000231 
0.001193018379061405 
0.001193018379061405 
0.002504229812119914 
0.4668424915355196 
0.07696156949746581 
0.07696156949746581 
0.07696156949746581 
0.07696156949746581 
0.04452036901617799 
0.02140370468182166 
0.126785727479903 
0.03737085687518349 
0.000186805751611954 
0.0001633946427899742 
0.0001633946427899742 
0.0001633946427899742 
0.0001633946427899742 
0.0727344834641587 
0.002302031728935457 
0.1267553553329302 
0.001286626916714659 
0.1043218067838806 
0.0005449249978497353 
0.000358255986601323 
0.000358255986601323 
0.4482494130588804 
-0.3111461133097868 
0.3705691856180623 
0.2622651567427683 
0.1025631920241227 
0.01268782898872723 
0.001469812800505455 
0.001469812800505455 
0.001469812800505455 
0.007697192748990351 
0.06933413762779875 
0.07470263423969301 
0.2772769660389732 
0.0002944959424242505 
-0.08013750984091453 
0.0003626392291493577 
0.08111736750241412 
0.0758450604616102 
0.0758450604616102 
0.07636535000048425 
0.005306898896163292 
-1.262889939259008 
0.0006038529479977516 
0.0263414612118487 
0.0263414612118487 
0.0263414612118487 
0.08995839826088201 
0.03767673328312568 
0.000135279415944147 
0.000135279415944147 
0.000135279415944147 
0.000135279415944147 
-2.215388819799792e-05 
9.02992393863308e-05 
0.1323154567842436 
9.02992393863308e-05 
9.02992393863308e-05 
9.02992393863308e-05 
0.2277387245137502 
0.0001709986264372053 
0.02641500232501914 
0.2161190090081482 
-0.0009449384704935474 
0.001040966529089647 
-4.518448449986009e-05 
-0.1820011724336258 
0.414300476741143 
0.0007098430461063409 
0.004902685400043147 
0.0007098430461063409 
0.0007098430461063409 
0.0007098430461063409 
0.1179851442905069 
0.1448561675677195 
0.1591170890939977 
0.000235784026319687 
-0.0008460297499606419 
0.196525034425621 
-0.0065366118578248 
0.1287928348190209 
0.008787903403838161 
0.002452440696287963 
0.002510290222274936 
0.06953857342491823 
0.001437129558950836 
0.09098006004127947 
0.1617293134489698 
0.002929505532807308 
0.0001113054156477007 
0.166015926432669 
-0.2182795978870105 
0.01373163353116204 
0.007871563934712569 
5.421518817040787e-05 
5.421518817040787e-05 
0.0489791927750423 
0.008009161558489568 
0.002452440696287963 
0.1573262304648943 
0.2918712981592951 
-0.6310100738879368 
0.04328266304815132 
0.04328266304815132 
0.004880953809539674 
0.02636880977321353 
0.07022504458967603 
-0.002138461871821932 
-0.002138461871821932 
-0.002138461871821932 
0.006842209963554895 
0.007139670287822886 
0.1536495301312183 
0.00516668237967963 
0.0002923921603816479 
0.0002923921603816479 
-0.4228541942804855 
0.00958033594059335 
-0.0007009338286687081 
0.001029037708956647 
0.1464932866897913 
0.001126419894152435 
0.3918140321873701 
6.137041580387187e-05 
6.137041580387187e-05 
-0.4134268551220936 
0.02432997445302636 
0.002050118420844682 
0.28524530512405 
0.01027586203569012 
0.0005202494955612498 
0.0005202494955612498 
0.0007406245719905933 
0.2545616558686622 
8.219553504780098e-05 
0.08681549482295775 
0.004200039536413117 
0.0005902695218812147 
0.000380750758425951 
0.000380750758425951 
0.002535644082766299 
0.3547876875296256 
0.02554353657440442 
0.1264616324540737 
0.1264616324540737 
0.03000725192080769 
0.1750445890750663 
0.3917536407549639 
0.01430741754518694 
0.01286520389770764 
0.01286520389770764 
0.01161663393263544 
0.04186862765498815 
0.0006045629911592063 
0.03774347736850528 
0.006823859929874955 
0.001781230595520527 
0.002401974715336914 
0.02035209766968778 
-0.0006946475295375158 
-0.02728591277386002 
0.06917711430621365 
0.002305904199993278 
0.2785289923532973 
-0.005616022161062666 
-0.005878096943149863 
0.08241772386232993 
-0.0007408654316874231 
-0.06567697697749215 
-0.8388601887612014 
0.002410609038484991 
0.1237824910022853 
0.1465299169299218 
-1.872851050723694e-05 
0.00336182842876859 
-1.872851050723694e-05 
0.02576799135172985 
0.0003000737440445128 
0.04885558523018577 
-0.004889126756489859 
0.1924198661785646 
-1.521185492463378 
-0.005966595067327368 
-0.2907105578378585 
0.1703599779238071 
0.0686066832679617 
0.003788486065483494 
0.0002724690044128437 
0.0002724690044128437 
0.0002724690044128437 
0.01723903506045471 
0.0002724690044128437 
-0.4601945456464762 
0.0002724690044128437 
0.007743923154963994 
0.05814817592551971 
-0.2225624877572659 
-0.0005575021983582597 
0.002452440696287963 
0.02371168705248306 
0.08556136033313379 
0.08873618744193891 
0.0001995334705937382 
0.1898583805975292 
0.1898583805975292 
0.0004604377611713951 
0.0004604377611713951 
0.0004604377611713951 
0.0004604377611713951 
0.05578498593905965 
6.020315276878255e-05 
0.1513522026283696 
0.001843296673928799 
0.07835996128497941 
0.05523308116141795 
0.4034756958577649 
0.1318055593917728 
0.02312368293487077 
0.0005609019628223464 
-0.001272719114059425 
0.0005609019628223464 
0.4670075392076127 
-0.4502618958931909 
0.0001214331918803663 
2.977007979822294e-05 
0.02248730744874247 
0.0001519419679495321 
0.0001519419679495321 
0.0001519419679495321 
0.0003629434722999384 
0.04444045975898947 
0.05560965376043449 
0.2735376320694314 
0.4094885470957495 
0.03618316870348148 
0.03618316870348148 
0.03618316870348148 
0.03618316870348148 
0.03618316870348148 
0.4300194394718814 
0.02996333568357928 
0.02996333568357928 
0.02996333568357928 
0.02996333568357928 
0.02996333568357928 
0.02996333568357928 
0.02053938307681329 
0.06289460149599654 
0.008209582634097231 
0.01405701504973436 
0.11279430320514 
-0.4253940295812182 
6.898426974235672e-05 
0.01114772179467927 
6.898426974235672e-05 
0.0002548475254594689 
0.08417390766006058 
-1.09457749147064 
0.1802617262768109 
0.1745022978217018 
-0.001385606059104246 
-0.0009345646985071444 
0.06040417141145549 
-0.6447108131040631 
-0.6447108131040631 
-0.003027862211939056 
-0.003027862211939056 
0.05534371293891871 
-0.003027862211939056 
0.06757805919600174 
0.007327210625984878 
0.0003264433177695202 
0.006704853108520651 
0.02461692476463986 
7.235393496534048e-05 
0.2344319405661218 
0.02020136051321219 
0.1287600189179209 
0.08062440917077307 
9.982023277392664e-05 
0.07023513897674365 
-0.004198035710937246 
0.0008821658727753153 
0.1240486539012217 
0.2863381407887652 
-0.479246831905217 
3.214234850811198e-05 
3.214234850811198e-05 
0.0001064637050168619 
0.01390320657431906 
0.0003975435833185798 
0.2185889152228039 
0.0002202296051014944 
0.0002202296051014944 
0.0002202296051014944 
0.05546219167527079 
0.08485460121213119 
0.0001566090077038894 
0.0001566090077038894 
0.0001566090077038894 
0.0001566090077038894 
-0.2238571443508987 
0.0001377334734966406 
-0.0001148842670564214 
-0.007093058510727187 
-0.09193029406231648 
0.00178071468646368 
0.1820744319319693 
0.1453272684211377 
0.433406868408794 
0.0004771153833126212 
0.09457995383255234 
0.001486002563746127 
0.04832604815037887 
-0.0002371777529783302 
-0.0002371777529783302 
-0.0002371777529783302 
0.2267501668531274 
0.0249697019717213 
0.0002729840628180251 
-0.2030999324113571 
0.02998882012783803 
0.03214993399690969 
0.03214993399690969 
0.03218276482150942 
0.03214993399690969 
0.1561822388277511 
0.000491031117151313 
0.02272573601203612 
0.1320621340516313 
0.03769896646115594 
0.03456565688628999 
0.001183962105272865 
0.001183962105272865 
-0.5035078951591406 
-0.2155659917378779 
0.0818159809797271 
0.000734050934558533 
0.000734050934558533 
0.000734050934558533 
0.000734050934558533 
0.000734050934558533 
0.002965118658786611 
0.0005084113555616798 
0.000299257398044229 
0.06354533085183554 
-0.0217931089608937 
0.06135203885672429 
0.0007063675573695275 
0.0563050785636485 
0.05896556294255646 
0.0563050785636485 
-0.005451094002077285 
-0.005451094002077285 
0.213635430512489 
7.432135650874995e-05 
-0.343173607462785 
0.002734202077212947 
0.004347461947215222 
-0.006021893074108119 
-0.001568903013943812 
0.09576956835654467 
0.06927178983963615 
0.01595374358469338 
0.001303768218862358 
0.001303768218862358 
0.001303768218862358 
0.001303768218862358 
0.001303768218862358 
0.001303768218862358 
0.001303768218862358 
0.001303768218862358 
0.0007496836882325321 
0.00017147256371444 
0.2413309795687195 
-0.008125385767088713 
-0.0004291959934172772 
-0.002161532285770512 
-0.002335193185214245 
0.2914897016580307 
-0.002335193185214245 
0.01897373662057046 
0.006384155706863274 
0.002452440696287963 
0.001188845556595243 
0.2324794216709224 
0.001188845556595243 
0.001188845556595243 
0.001188845556595243 
0.001188845556595243 
0.001188845556595243 
-0.1853862542434967 
-0.5100244106555438 
0.3457655437145569 
0.08175838787210128 
0.03939053255470609 
0.0001777296902901294 
0.002452440696287963 
-5.908634664808561e-05 
0.6381629457975813 
-0.2371474088663418 
-0.1693189912544989 
0.003492655410635211 
0.002321333730063083 
0.002321333730063083 
0.07965353288925411 
7.432135650874995e-05 
0.0002175859175096388 
0.0003750434197664468 
0.1218708831006761 
-0.2371837881200045 
-0.007719959425042775 
0.2081132741322682 
0.01225146029385198 
0.004563121033667301 
0.006006281307888778 
0.006006281307888778 
0.1392329792746402 
0.0001811321517574772 
-0.000178332436097581 
0.3955012528984477 
0.001060540679447777 
0.03786593723560931 
0.001313676513821343 
0.0003314959906208395 
0.3116279974285813 
0.006759856192824545 
0.02444225482310819 
0.00102563753248409 
0.1807820373740172 
-1.805875290023103e-05 
0.0003032285586664672 
0.003704750590262456 
0.003704750590262456 
0.4748844732999992 
-0.5488122893803368 
0.2542179028795643 
0.0001041645313897122 
0.0001041645313897122 
0.0009779219803914151 
0.002698201906778344 
0.0109462827458507 
0.06841157892477522 
0.0004870397129536612 
-9.198870206039735e-05 
-9.198870206039735e-05 
-0.5713775366749914 
0.001044631130035129 
0.1878307699207261 
-0.4610993310839497 
-0.4646410808681048 
0.002128473335098824 
0.0003304484704416968 
0.2174298878983849 
0.001159037960400567 
0.3717508718522363 
0.003773181905680194 
0.1266629088248561 
0.001046996422187034 
0.08518509615187003 
0.001046996422187034 
-3.896173996490932e-07 
0.000149437647787484 
0.000149437647787484 
0.00446175824521334 
0.001768975317420049 
0.07154540685133702 
0.002452440696287963 
0.002452440696287963 
0.0002620747820871966 
0.0002620747820871966 
0.03905269666754161 
0.0003477409317888843 
0.0003028559658211577 
0.00392328786467025 
0.0006430576528532846 
-0.004728027462617618 
0.0004930113202521097 
0.0004930113202521097 
-0.2413768055409466 
7.182156092648293e-05 
0.1940746520664117 
0.1934985557145085 
0.1262404370913113 
0.1236786463684863 
0.1236786463684863 
0.002452440696287963 
-0.02103318418363912 
-0.02093610042975477 
-0.6864689126658799 
0.009457288755001158 
0.1080182481375771 
0.002638299207992488 
5.334610463637569e-05 
1.29432218000198e-05 
0.1519892966211499 
0.0003184363503675166 
0.04514239447528488 
0.03825424655495458 
0.000584719826741635 
0.000915739998089008 
-0.2676936941087025 
-0.1710024559062742 
-0.06277839167179979 
0.003187498729600727 
-0.1950956349928646 
0.01683841407568872 
0.005233180922948502 
0.002452440696287963 
0.0002223694988034089 
-0.1032510532777898 
0.001125907730779576 
-0.0008721100549842121 
0.0005202895388740445 
0.02479149338573477 
0.08619376104142291 
-0.3861377701951375 
-0.3861377701951375 
-0.1787903960004508 
-0.1787903960004508 
-0.1787903960004508 
-0.1787903960004508 
-0.3861377701951375 
0.04749809229435507 
0.05813795720421833 
0.0003447708376434111 
0.0005033257249087271 
0.0005033257249087271 
0.0005033257249087271 
0.01039159969759865 
0.4435143179033886 
0.0007140402501616979 
0.0007140402501616979 
0.0007140402501616979 
0.0007140402501616979 
0.0007140402501616979 
0.0007140402501616979 
0.008111073906903099 
0.0003127588626007185 
0.0003127588626007185 
-0.009898499985057367 
0.008090678925587624 
0.0002272004612221529 
0.002820953865621637 
0.0001876246760863103 
0.0001065320773996078 
-0.03155761590940062 
0.07539078606367412 
-0.001513897482276316 
0.02439283257623304 
0.005369237022469421 
0.08583885126972232 
2.419228907566943e-06 
0.04060723633561011 
-0.449773290906849 
0.005007094936192712 
0.001785255009558197 
0.001997864195028622 
0.001997864195028622 
0.001997864195028622 
0.02306484162169048 
-0.002759247845418658 
-0.002759247845418658 
0.002452440696287963 
0.002680586265545291 
0.01550946858297737 
0.004657001249714887 
0.0005692538903547945 
0.001046043138592124 
-1.084196571847287 
0.001151018886228342 
0.0005790284150140586 
0.0008638810824075302 
0.0008638810824075302 
0.0008638810824075302 
-0.5959211687170314 
0.3056090515641466 
0.000552479533325024 
0.0007222803144147758 
0.19927267999406 
0.3176921575859281 
0.0001223476533872461 
0.5120433152452734 
0.002452440696287963 
3.073411741396671e-05 
3.073411741396671e-05 
3.073411741396671e-05 
3.073411741396671e-05 
3.073411741396671e-05 
0.03625542945540794 
0.001427394686584841 
0.004813021790444372 
0.002452440696287963 
-0.002591198814369136 
0.1340952295193881 
0.30679321701687 
0.0256848488375441 
0.001130774407769935 
0.001315562522117077 
0.002452440696287963 
0.1474048078210865 
0.4816862942786638 
0.03062789883771002 
0.1420498749938712 
0.0004762447766196792 
0.0004762447766196792 
0.07718381612673419 
0.07718381612673419 
0.07718381612673419 
0.07718381612673419 
-0.4091040857229349 
0.2559270378227752 
-0.3784400586168034 
-0.3778615117469469 
-0.3778615117469469 
0.0024005989504303 
0.1455072577464498 
-0.002149423438546892 
-0.002149423438546892 
-0.00167366947563781 
0.002470519738410076 
-0.9960463300467671 
7.432135650874995e-05 
7.432135650874995e-05 
0.03031223394546546 
6.132294667640706e-05 
6.132294667640706e-05 
-4.013568712234868e-05 
-4.013568712234868e-05 
0.02254032299381781 
0.1811035418626415 
0.003217270305782266 
0.0001564418006355603 
0.0001564418006355603 
0.0001564418006355603 
-0.9280177031995814 
0.000789055805969827 
0.000789055805969827 
0.1327898433442556 
0.00217468713446195 
0.1045266241873095 
0.01451550087466644 
2.948306297508211e-05 
0.00501585091541219 
0.002582085590056386 
-0.004179978854747399 
0.002239896443748193 
-0.9261469136373951 
0.01420254661175102 
0.07059890930760755 
0.02693738264002946 
0.002452440696287963 
0.01245273750581295 
0.0009262203135162171 
0.1095178795037416 
0.01177570748711199 
0.1970524556394547 
0.0002646695808950996 
9.105318545109202e-05 
-1.202489225103708 
0.00684278085296789 
3.439402303261775e-05 
0.06943147395214733 
-0.001599275694476166 
-0.001599275694476166 
-0.001599275694476166 
0.1211728880044307 
0.1319688397274635 
0.1319688397274635 
0.1431775810601211 
0.05407887833838259 
-0.3418850623008664 
0.002632028619216724 
0.1577728343833694 
0.002504860698124878 
0.002504860698124878 
0.002504860698124878 
0.002504860698124878 
0.002504860698124878 
0.0115033971424939 
0.0894219021652507 
0.002078178396686415 
0.0894219021652507 
0.0003931836138976735 
0.02599029141380563 
0.0005012786409558653 
-1.272316087466369e-05 
0.01359712406173532 
0.01239826870006142 
0.01239826870006142 
0.01518940328402403 
0.01239826870006142 
0.01239826870006142 
0.01239826870006142 
0.01239826870006142 
0.01239826870006142 
0.009127800489552158 
0.0002091288100655678 
0.0002091288100655678 
0.0002091288100655678 
0.0002091288100655678 
0.0002091288100655678 
0.0002091288100655678 
0.05120479516149948 
0.0006076245415087076 
0.2069198047144785 
0.01196194417098974 
0.02653322749878426 
0.01494794885095937 
0.0114338080154596 
0.003295239408550781 
0.1851211669135258 
0.001459239216365245 
-0.5584760712735146 
0.001265695022766204 
0.001716909688138966 
0.1325456450887638 
0.003958376806952567 
6.427400305214307e-05 
-0.3571801461331895 
0.05682946427597072 
0.2158263473583525 
0.08811956447002799 
0.003931557369130252 
0.000565806399076152 
0.03297229337372248 
-0.2259722481500571 
0.000231956628614562 
0.0002157474154813287 
0.0002157474154813287 
0.0003437184546146381 
0.2509653504075357 
0.1267786399783044 
0.02402987453771566 
0.02402987453771566 
0.004497275354133271 
0.3764773454702312 
0.0008386625789196078 
0.0001558294288190316 
0.1853885195178462 
0.004347215636952595 
-0.003106133999882369 
0.1979950258915504 
0.000128896139219328 
-0.2756669149338841 
-0.9536229243394271 
-0.5710566983661391 
0.0004330624380664823 
0.1804419519675252 
-0.002479098039802963 
0.007394196143937626 
0.007394196143937626 
0.2004120118550769 
0.04113425637171641 
-7.116323361317756e-05 
0.0001541293458360939 
0.000133461302365487 
0.01951068637049488 
-0.02288627806909739 
0.2887886733931439 
7.432135650874995e-05 
0.1587344695219487 
7.031058198562367e-05 
0.02945745394595509 
0.02907423145683525 
0.0109866584562007 
0.0004419170021779289 
0.07668807836999572 
0.07668807836999572 
0.3289222922164344 
0.04844088979634031 
0.04824091820059432 
0.04824091820059432 
-0.0008411458293704307 
0.008496879633606336 
0.2157868421721876 
-0.7519588534302604 
0.1155178096485133 
0.0001178421383498384 
0.2908767683959259 
0.001700066430478077 
0.002075367497356241 
0.09955576803559968 
0.281724916834241 
0.03655511962244795 
-0.3252692466225715 
0.0559538540614396 
0.2006847606920964 
0.1195600315377322 
0.0004860962928812137 
0.0928529020196027 
5.883897956797379e-05 
9.068593660452211e-05 
-0.01404574300779357 
5.211350041047688e-05 
5.211350041047688e-05 
5.211350041047688e-05 
-7.102434038004781e-05 
-7.102434038004781e-05 
-7.102434038004781e-05 
0.001679930543407834 
0.01422819500166144 
-0.6053121843832733 
0.01422819500166144 
0.001575689625122526 
0.0003530350258074354 
0.001055036877461276 
0.075028310851351 
0.2752898642843562 
0.07521979391260586 
0.05388424938288981 
-0.5293432664457252 
0.2680790750415074 
-0.001945997371557109 
-0.640467236402669 
0.0002443590953463427 
0.05445913777698584 
-0.001112821161327734 
0.04714720465204856 
0.036307008381583 
0.007527591049153898 
-0.004488564698570886 
0.1534344360239117 
0.001894358613120806 
0.001968679969629556 
0.04026297719381344 
0.1761872916054733 
0.0003538537642992327 
-0.2830442331962138 
0.01631346251357586 
0.0003604914864046067 
7.432135650874995e-05 
0.003215757956331121 
0.4319015438265134 
0.009597104309098029 
0.009597104309098029 
0.01370025028134772 
0.01389624943645935 
0.0243085435147062 
0.04238137133048671 
0.01661078591929485 
0.006418857226343423 
-0.004675756860897873 
0.1349693431954986 
0.002321333730063083 
0.002321333730063083 
-0.005838386072071864 
-0.005838386072071864 
-0.02439129181467072 
0.01380085167580458 
-0.000150337060895087 
0.0597007666810502 
0.0001172468250327761 
0.1453272684211377 
0.1453272684211377 
0.3045359967881821 
-0.05380057169329564 
0.0187605504448473 
0.06926035467157123 
0.05598321602119409 
0.05940542012241943 
0.01609669084824741 
0.2064451165602682 
-0.0007245482863553611 
0.03363238154711547 
0.2025864324747045 
0.005486231835244919 
0.3157313778625573 
0.0004455619161034917 
0.001176877932493773 
0.02016023978408945 
0.0001431751594147578 
0.01509032861352734 
0.003485794161235695 
0.0093653567471825 
0.1359205167389193 
0.1326239490179006 
0.1326239490179006 
0.001081710248482114 
0.001081710248482114 
0.001151571341355696 
-0.006327129998684901 
0.015685728307565 
0.0002843160013267283 
0.004183058537042897 
0.03878673688965137 
-2.057524303344564e-05 
0.01851696419958069 
0.02195645592921711 
0.01851696419958069 
0.05878348173044532 
-0.01856542764201027 
0.0004616192327167137 
-0.9279069390454893 
7.432135650874995e-05 
7.432135650874995e-05 
7.432135650874995e-05 
0.001269950227769432 
0.001269950227769432 
0.001269950227769432 
0.001269950227769432 
0.0482952968852439 
-0.4205117998448876 
6.826179854989296e-05 
7.432135650874995e-05 
0.05846615375360193 
0.05846615375360193 
8.139463423470505e-05 
0.003755740532202687 
0.01185693681568608 
0.0001058589328513468 
0.1901214900529127 
-0.01054163813201396 
0.1769371086130798 
0.03945314860594264 
0.01094172902993284 
5.19354755765756e-05 
0.1019193179499562 
0.001394090783160874 
0.0005119203695672845 
-0.0002057710717280453 
0.002328018231677142 
0.003910084421815863 
0.001998750073912948 
0.2103932907737326 
0.0005021625910039015 
0.06732438457883883 
0.001173403649258284 
0.04066992439792786 
0.04104946187177977 
0.1178598047884256 
-0.0004240387535699872 
0.002452440696287963 
0.03288821182541449 
0.06714661890731727 
0.0009488963130218448 
7.432135650874995e-05 
7.432135650874995e-05 
7.432135650874995e-05 
7.432135650874995e-05 
0.0003888495900773242 
0.003287184368297562 
0.1018665456123183 
0.2590207810341174 
0.02979252286155364 
0.1401786344234411 
0.0004278725196395515 
0.008688559914988396 
0.0002442885890156327 
0.0009649370147939985 
0.0004982984477979193 
-1.128209733882528 
0.0004042117734426324 
0.0002575681165754515 
0.005971215006223015 
0.0008109700043146392 
0.1307018528900073 
0.007248602045129134 
0.002432282082420039 
0.005849473169751323 
0.004182539509021616 
0.004346747763848737 
-0.001392399593858258 
-0.001392399593858258 
0.02426588833210364 
7.251757245151815e-05 
0.224052212648072 
0.0152291245027344 
-0.01795919301835554 
0.1276974151286534 
7.432135650874995e-05 
0.00309526979907927 
-0.007426148906641494 
-0.004071889445104899 
-0.8328685588833394 
0.2573028383602242 
0.00269692982496708 
0.00269692982496708 
0.09768243608467315 
0.0578556224766443 
0.0006949886319931584 
0.0002065069763741753 
0.0002065069763741753 
0.0002065069763741753 
0.0002065069763741753 
0.0002065069763741753 
0.00271917330569524 
0.1466119624437885 
0.0002065069763741753 
0.0002065069763741753 
0.0002065069763741753 
0.2542527232165538 
0.001933096798176706 
0.5091883184680079 
0.09633212969270108 
0.251255435868203 
-0.4348692147748072 
0.05552037203691174 
0.04763659336603331 
0.07282770385726724 
-0.01498385089703361 
-0.4887457275556811 
-0.5217122058255165 
-0.5217122058255165 
-0.5217122058255165 
0.2318131251156071 
-0.1137283664307246 
0.0005550457431746827 
0.07312130223323658 
0.00066237319055555 
-1.273819941342764 
0.0449794517266159 
0.1814730748398758 
0.0449794517266159 
-2.187837887316801e-06 
-2.187837887316801e-06 
0.1478733926995366 
0.0002330031837617624 
0.0008974944649816258 
-1.217761550386167 
0.1061667611043224 
0.3674628286170816 
0.01885439473076038 
0.2290630930190496 
0.0002091530957912288 
0.0222465333380493 
-0.374200320134845 
-0.374200320134845 
0.02839743771570618 
0.00976901170298021 
0.002321333730063083 
0.002321333730063083 
0.003604676253972114 
0.0003073514148991253 
0.0003073514148991253 
0.1867447273709545 
7.432135650874995e-05 
7.432135650874995e-05 
7.432135650874995e-05 
7.432135650874995e-05 
7.432135650874995e-05 
-0.6408063846711156 
0.3709507192678685 
-0.001597067616886475 
-0.001560596169209966 
0.001038681770553381 
0.003600525330412003 
-0.3049949682898398 
0.009877124919408757 
0.008765370114626966 
0.001513742723609495 
-0.006086088799761799 
0.08757192368273607 
0.1636485020465922 
0.02064465866158485 
0.1289911875851666 
0.04138316675607551 
0.0002209962597208434 
0.01858844973230922 
0.002452440696287963 
0.01418984898606439 
0.000342880977464752 
0.000342880977464752 
0.000342880977464752 
0.1292513969974644 
-0.016423657063041 
-0.005926044764830948 
-0.005926044764830948 
0.001183077629109716 
4.329682890852658e-05 
0.000225984542936005 
0.000225984542936005 
-0.4227034084185375 
0.009449114681912806 
0.01901759060889848 
0.01901759060889848 
-0.2374156260450637 
-0.1476484905923737 
0.0001647788974976207 
0.0001647788974976207 
0.0001647788974976207 
0.02513102382618169 
0.08048061932711226 
0.158869253180375 
2.225049505446904e-05 
0.2660140067409483 
0.09383676806069105 
0.01674740168148146 
0.1266845385321646 
0.1457079188359695 
0.1470459304056379 
7.124556723626484e-05 
0.04798417450686222 
0.1159270193372769 
0.03762024288004202 
0.0008412618163573221 
-0.3906767418242229 
-0.3906767418242229 
-0.08607910858830789 
-0.3906767418242229 
-0.3906767418242229 
-0.3906767418242229 
-0.3906767418242229 
0.0755307153846885 
0.0005125570057985026 
0.06247190558555041 
0.0001204620304713998 
0.1730745226775174 
-0.468254344203632 
0.00055885674782551 
0.02194031198926038 
-0.09863889924406227 
0.2282152765707255 
0.1304999613818238 
0.03559480948717307 
0.03523067317963794 
0.03523067317963794 
0.03523067317963794 
0.03523067317963794 
0.005687945892054715 
0.1975583088289032 
0.008970625397735807 
-0.01147971125704373 
0.187748691627844 
-0.0001086805727626316 
-0.0001086805727626316 
1.451464567741492e-06 
0.003313924313484336 
-7.339623428819347e-05 
-0.000213394654159568 
0.01094316614097607 
0.2426419917119827 
0.2426419917119827 
0.004296438445420572 
0.0009624952586652079 
0.2625124815240047 
0.002452440696287963 
0.2872693539858739 
0.09158126690587436 
0.216631761089191 
0.0003867805721263183 
0.0003867805721263183 
0.0005015402243474877 
0.0005015402243474877 
0.0005015402243474877 
0.0006362645923481754 
0.003421876070051637 
0.0005015402243474877 
0.8229104077563656 
0.001832340075551521 
0.001832340075551521 
0.001832340075551521 
0.001832340075551521 
0.003979641237075256 
0.003979641237075256 
0.08871730211700994 
-0.349300554302356 
0.2964319333766936 
0.005751669513729056 
0.06817068887340376 
0.2083883210681123 
-0.5424915788504874 
0.05994888764188226 
-0.4704994195408744 
0.09675457131681867 
0.2118184506621618 
0.03700921484337545 
0.009191468507138929 
0.000117712700398135 
0.006299705023006205 
0.004014386791820018 
0.006470166111461438 
-0.4963964461791148 
0.1642476407812412 
0.07810618008505754 
5.935342021843716e-05 
5.935342021843716e-05 
5.935342021843716e-05 
5.935342021843716e-05 
5.935342021843716e-05 
0.1060689637094958 
0.0009014942711446958 
0.0009014942711446958 
0.0009014942711446958 
0.0009014942711446958 
0.00193176152184356 
0.00193176152184356 
0.06797220617728819 
0.06797220617728819 
0.001047894078212336 
0.001047894078212336 
0.001047894078212336 
-0.001348554154063452 
-3.158514683534478e-05 
0.1387859341864643 
0.0002549206265502814 
0.01176787872540029 
0.0001360011179758332 
0.0001360011179758332 
0.004123475696819584 
0.06192183116600587 
0.00269278292779329 
0.1948093716728482 
0.00269278292779329 
0.121989829437154 
0.002751472114573468 
0.1383704041516779 
0.0002933819921368108 
0.0002933819921368108 
0.0002467910189829269 
0.03383119447463993 
0.2390427197665588 
0.1806970097933946 
0.00118055786795844 
0.00118055786795844 
0.0001436627277232227 
0.0001436627277232227 
-9.946325276114826e-06 
-9.946325276114826e-06 
0.002193597323646164 
0.3008591734930249 
0.002193597323646164 
-4.678212035923023e-06 
0.07794543518178981 
0.0004897330656578864 
0.03488964377978371 
0.07973642072885048 
0.0002479201551632903 
-0.003970940288163362 
0.001370600078719911 
0.01985364075953631 
0.327590187699779 
0.0001587280401383113 
-0.004017976488713099 
0.0001913872141299672 
0.05774169787492055 
0.3742312342380405 
-0.004284116635572472 
0.1552642535472582 
0.0001044705367087995 
0.0006017516677425024 
0.614828094967922 
0.009003617733590444 
0.001438313423324678 
0.008055285846461572 
-3.624557950530194e-05 
0.234173394529547 
0.2610296746309566 
0.03597999415889756 
0.001011597166308478 
0.1517014518786686 
0.001011597166308478 
0.001115845739861276 
0.1670110516760336 
0.0001215049435476262 
0.0621611374701773 
0.05837157515085777 
0.05574889104180104 
0.06507382986528085 
2.048267074708094e-05 
0.4406552573698327 
0.0006351560346053798 
0.05760637227188722 
0.05760637227188722 
0.0582002902493801 
0.002321333730063083 
0.002321333730063083 
0.002896600761016724 
0.003337796964691107 
0.1656490688259918 
0.1017228356040893 
-0.192816471719913 
0.0003296605603641921 
0.0003296605603641921 
0.004850249644829022 
0.550825832439044 
0.0001768342028640931 
0.1716250149473083 
0.01804526809274812 
0.0002456400031168347 
0.007796451833995901 
0.04826931517705089 
-0.3157069945452908 
0.04826931517705089 
0.001783080213575728 
0.0002652688886448151 
9.072259875113879e-05 
0.0002135422358925881 
0.06675844971584954 
0.001631551436195344 
0.001631551436195344 
-0.2602001835305693 
0.006747679756261313 
0.077085129241905 
0.1045506835352874 
-1.13581204736977e-07 
0.0005056464041837702 
0.0002511160074556574 
0.04860374219666602 
0.06200165189092152 
0.1500044547472842 
0.0004644128095464376 
0.1171465926340839 
-0.01016615396220752 
0.0004523997318450447 
0.0004523997318450447 
0.0004523997318450447 
0.0004523997318450447 
0.0004523997318450447 
0.0004523997318450447 
0.000627563558392341 
-0.6994572995340668 
-0.6992408072082822 
0.1435013767790136 
0.002646410160845956 
0.0007266348116055414 
0.02547401722987849 
0.1218472385605215 
0.009817231311534927 
0.0009763135564478558 
0.05087541524725739 
0.00382243783629415 
0.001868077211223562 
0.0005336026778308224 
0.2479387195738697 
0.0002297148814970353 
0.07736004073920921 
0.001263348840937584 
0.0208500867602977 
0.002452440696287963 
0.002821337609307686 
0.00618073711678753 
0.1650212860415704 
0.003839857241694892 
0.001188727996390076 
-7.568095244781331e-05 
0.1396828019378698 
0.1396828019378698 
0.183459128642605 
-0.9659515053378566 
0.004310587319874827 
0.3657918240056144 
0.002452440696287963 
0.01902075847455207 
0.01583749746042599 
0.0001344173103566778 
0.05700714124212524 
0.0630577922677792 
-7.983848444604019e-05 
-7.983848444604019e-05 
0.127559311574433 
-0.007268417345478363 
4.49229514302812e-05 
0.07970982774585582 
0.0002120164789032235 
0.1315598198129393 
0.1315598198129393 
0.003474954614327761 
0.0009789408723131579 
0.0009027875803087119 
0.1941160098488772 
0.002430171468760672 
0.01971595214804481 
0.07004115129554628 
-0.0275155458529098 
-0.0275155458529098 
7.432135650874995e-05 
0.01664902728144788 
0.04730386036413688 
-0.001954038177182814 
0.0001545771641669066 
0.1909611265605231 
0.0974178914418449 
0.0009804580326710588 
-0.001576143553968721 
0.002452440696287963 
0.001463175870668517 
0.0354922840005473 
0.001741217871784446 
0.01489626111175329 
0.001741217871784446 
6.653014273586882e-05 
6.653014273586882e-05 
0.0008597621580666596 
0.0002064451133340799 
0.003807706009810911 
0.004825138316469375 
0.004825138316469375 
0.004825138316469375 
0.004825138316469375 
0.004825138316469375 
0.001866023816336941 
0.001545678699035105 
0.0003959385789420242 
0.0002474947100755702 
0.26170184768184 
-0.003734490918099566 
0.01685113640701805 
0.02577472937767955 
0.008352819578558171 
0.007867700401864066 
0.0006656004226822715 
0.195651138868346 
0.001265322087334881 
0.02688490842882292 
0.005528227002870496 
0.001265322087334881 
0.02697035975199905 
0.1098431185293257 
0.001133068222803696 
0.1355939848174763 
0.04385319975557826 
0.00170709541426434 
4.955239523267648e-05 
0.001275484406308064 
0.04652128568252972 
0.01200552120486076 
0.03804548099897313 
0.006446602177673002 
0.004355149777255849 
0.01050231838689835 
0.06907098747564958 
0.006502792508261956 
-0.5956163279306361 
0.08175491700110818 
0.03589165363200324 
-0.3172235135718835 
0.01420302385119826 
0.0001175502177289395 
0.1070974258827554 
0.001044253110233758 
0.2713933864649379 
-0.08699831063013259 
0.005344680108226959 
0.005344680108226959 
0.005344680108226959 
0.005344680108226959 
0.005344680108226959 
0.0001307525226678099 
0.0001307525226678099 
0.598326866060957 
0.04302396691938999 
0.04420574116025624 
0.04420574116025624 
0.009093424177438728 
0.09085305607096129 
-0.0157010758444878 
0.1595313320012428 
0.00184856713464363 
0.00184856713464363 
0.0002235098853331697 
0.006467747222302127 
0.1277410330156605 
-0.2525089502236825 
-0.0002498664104295138 
0.07820736664399561 
0.002559868936885689 
0.01153873760831042 
0.0002228331799839774 
0.0002228331799839774 
0.0003322262534862237 
0.009929689642753583 
0.187952643378223 
-0.3541197746106904 
0.03498015876762037 
-0.01452992984496887 
-0.01495365036462122 
0.2518418242203595 
0.0001796051485032849 
0.0001796051485032849 
1.374210824891281e-07 
4.268204789954632e-05 
4.268204789954632e-05 
0.02757277817756938 
-0.00360563479049536 
-0.00360563479049536 
0.05292831896318015 
0.05292831896318015 
0.05574234304486318 
-0.001930906098950042 
0.1872595679684229 
0.003441081345122853 
0.1235723548058533 
0.001247072775512253 
0.0343692452417399 
0.0004862447433076298 
7.432135650874995e-05 
0.001111365895741532 
-0.007113442816199964 
0.2865311402638225 
5.884067095281385e-05 
5.884067095281385e-05 
5.884067095281385e-05 
-0.0140619340457318 
-0.0140619340457318 
0.08244725902483853 
0.03957402538859591 
0.0002157272793052844 
-0.004196835916378518 
0.03926147141087998 
0.1029890893381085 
0.02444225482310819 
0.2858340726608604 
-0.0002367652954351661 
-0.0004055685820672228 
-0.0004055685820672228 
-0.0004055685820672228 
-0.0005863715943080244 
0.1890986007494993 
0.04531703498373101 
0.0003718372949791417 
0.0003718372949791417 
-0.01163309519920983 
8.886880074264266e-05 
0.02103001490674448 
0.05453996154653581 
6.379203394013495e-05 
0.004330884885299306 
0.5812904857313183 
0.00150784559991505 
0.01487236286417695 
0.0387717930991824 
0.001157746943310339 
0.1224556250500847 
0.001157746943310339 
0.00170323969755342 
0.130326081823039 
0.1288667488075713 
0.008046122035513874 
9.048589086066613e-05 
9.048589086066613e-05 
9.048589086066613e-05 
9.048589086066613e-05 
9.048589086066613e-05 
0.005369619247092496 
0.1355939848174763 
0.4864136571386635 
0.2923748997703888 
0.2466693456864318 
-0.002022343162267507 
-2.339610301543443e-05 
0.277666240492746 
-0.0001131515127202843 
0.0023685723529322 
0.02156224760438025 
0.01108857094323927 
0.3253410203790923 
-0.0001379886006111927 
9.572575464010677e-05 
9.572575464010677e-05 
9.572575464010677e-05 
0.0007433226616218032 
0.03886527183341253 
0.2837291084561142 
-0.7502832073026369 
0.001029852859999391 
0.08571158394865477 
-0.003685815507010084 
0.001811343406956425 
-4.875073123459273e-06 
0.09080165542365311 
0.0003046623705261384 
0.000810255452113613 
0.08247039987379663 
-0.4679611007331494 
-0.4679611007331494 
-0.0001611855355534486 
0.01834906627635238 
0.01834906627635238 
0.01834906627635238 
7.432135650874995e-05 
0.0002772061173800689 
0.004769473881839249 
0.03768363301949956 
0.1393523522810917 
0.001456471672798819 
0.002236858515418402 
0.001020325581137892 
0.001137354757077328 
0.0429330721116348 
0.0429330721116348 
0.03859729322758044 
0.0001728665751277232 
-0.0006449503235352578 
0.000419317589264568 
0.0001234338456586993 
0.0001234338456586993 
-0.8962909509385445 
0.0569082349321272 
-0.01068786778573125 
0.4578513011960144 
0.0005588129995654806 
0.2281170813806578 
0.008915626355957136 
0.008915626355957136 
0.008915626355957136 
0.008915626355957136 
0.001704220977486451 
0.1419317175248355 
0.2731312218056588 
0.0008887098639388665 
0.2215964752865217 
0.05790812689518784 
0.0004745039056310971 
-1.205929894696276 
0.02975598221336388 
0.02968166085685512 
0.1179573741061226 
0.0001757234083780069 
0.1506847827884115 
0.1822409091085182 
0.136732383665768 
-0.3824572983620845 
0.2869105468524241 
0.2869105468524241 
-0.001054538712303934 
0.09570297606385646 
0.09700671268333354 
-6.757600577506003e-05 
-6.757600577506003e-05 
0.002452440696287963 
0.01092025350130734 
7.031542611453894e-05 
7.031542611453894e-05 
7.031542611453894e-05 
-0.1807656892981828 
0.02161293996747753 
-0.000428795896074473 
0.653802974791846 
0.0003306505819884024 
-0.0001551135414322314 
-0.02124835147681278 
0.005517351895393732 
7.425373608079909e-05 
7.425373608079909e-05 
0.0001005079111905142 
0.0006746112012373053 
0.0009551856439836709 
-0.4381146467389334 
0.0009184031310499217 
0.01029785046416449 
0.08362112916084155 
0.007722876374403598 
0.05294582672497435 
-0.0008967384551496179 
0.00382639119589067 
0.00138022520504117 
0.00138022520504117 
-1.263993877214939 
0.002448276544611663 
0.0846775199750624 
0.0843258595479057 
0.3883920832360605 
-0.01868257914022822 
0.000757662319546288 
-0.8899099190407357 
-0.8899099190407357 
0.0008384831070883459 
0.04342405721646792 
9.908360997061595e-05 
0.003028910214779092 
0.006700509015353634 
0.0007388447872334043 
0.0007388447872334043 
0.001037007796603426 
0.0007388447872334043 
0.02310565640961761 
0.2865996860428243 
0.05776484468627113 
-0.5197719497797447 
-0.6556930305177219 
0.03674630943509396 
0.001199342179420142 
0.08618371004728742 
0.0009605071184830931 
0.0003897011280253034 
0.0003897011280253034 
0.000585019699149193 
0.08775418196650453 
0.09416794511130223 
-0.0002164587153903064 
-0.0009244713437246676 
7.861603805771682e-05 
0.0244901985837876 
0.009960582142769311 
0.002452440696287963 
0.1067383402282339 
0.0009743681530349257 
-0.01507330688812845 
0.002843667797405853 
0.0004349393095854764 
0.06257346755687164 
-0.0002153709165749351 
0.1208175685342701 
0.02626114742387893 
0.02626114742387893 
0.02626114742387893 
0.0001346448056025752 
0.0001809414255763501 
0.0001809414255763501 
-0.003410513590995875 
0.00959621021819356 
0.0128477310023724 
0.07787030718949865 
0.07787030718949865 
0.003064326141901035 
0.003453921376432382 
0.0008084868955016452 
0.05955328065929356 
0.06152761887954866 
0.09215503421069875 
0.000969016428193002 
0.02281140769080103 
0.000969016428193002 
0.000969016428193002 
0.0175391129451682 
0.2148965945069855 
-0.0070522498027819 
0.006897935137085644 
0.02967079030917776 
0.02819492961473024 
0.02819492961473024 
0.009276775315330296 
0.009276775315330296 
0.0006260436322187942 
0.004215982699239943 
0.02858923207420058 
0.0004251108959622123 
-6.456155256587308e-05 
0.002321333730063083 
0.002321333730063083 
0.0173826467123908 
0.1994997405294417 
0.09089858456685521 
-0.0005534137720669294 
0.06520848482702672 
0.06499763762171944 
0.06479885673032798 
0.0648311153462466 
0.0004378508203962502 
0.0004378508203962502 
0.0007139085983152428 
0.0002071292203089934 
0.08750651176647334 
0.001659356635523104 
0.002452440696287963 
0.08310251757855489 
0.01907501694923309 
-0.8676636037139196 
7.432135650874995e-05 
2.217601573145819e-06 
2.217601573145819e-06 
2.217601573145819e-06 
0.1112379261084325 
0.001959566069793067 
0.003784900779456655 
0.2091944183552181 
0.2090959533155242 
0.3575489350057059 
0.1271084711780353 
-0.005882565516301555 
0.1088408931169249 
-0.01251544764193425 
-0.01251544764193425 
-0.0001518227597598929 
0.09770429373767406 
0.01015286149065939 
0.01015286149065939 
0.264139748547461 
0.006359885912026533 
0.07411965630458679 
0.006359885912026533 
0.006359885912026533 
0.0115297522756727 
0.0115297522756727 
-0.0008282954001501647 
0.0322710156894489 
-0.0001332571057776604 
-0.0001332571057776604 
0.0009741580551574021 
0.0009741580551574021 
-0.5703141483442263 
-0.5703141483442263 
-0.5703141483442263 
-0.5703141483442263 
-7.902811706659035e-05 
0.05759208526584637 
0.05761727783121359 
0.05759208526584637 
0.1197029213597224 
-0.3318579938787258 
0.0004279204768231093 
0.0005579618678733752 
0.02590088240808705 
-1.193582559855739 
0.002452440696287963 
0.0800615701871891 
0.0002625224483489403 
7.432135650874995e-05 
7.432135650874995e-05 
5.760861671123002e-05 
0.0003932727949310551 
0.0003932727949310551 
0.0003932727949310551 
0.001292544863008522 
0.001292544863008522 
-5.609942501961422e-05 
0.0191116295937675 
-0.01279120921509857 
0.003899059057514098 
-0.003340442500929846 
0.01990148614604347 
-0.2698511142024089 
0.1943064697645474 
0.01897171760494101 
-0.377518941176436 
0.09087740707929202 
-0.008501006468644611 
0.0003280322202809606 
0.0003280322202809606 
0.00185092785352974 
0.0381224795456948 
0.00514948276330925 
-0.2549899686649084 
0.00514948276330925 
0.2283392759374534 
0.0002182297532844125 
0.02040246549338082 
-0.002207308892019463 
-0.001777884090974629 
0.2566415748585107 
0.129046727738102 
0.001130697752738508 
0.0009182835995823443 
0.0002773413036096515 
0.06586758947003253 
-0.0290011352706177 
-0.8479336285516955 
-0.1402456671756027 
0.0001751638265472965 
0.0001751638265472965 
0.0001751638265472965 
0.0008406717482961818 
0.0008406717482961818 
0.0001489778572250004 
0.01103465717369204 
0.1459992564397496 
0.002680765424057468 
0.01021959140483806 
0.005993592585085864 
0.003075022801091802 
0.0005941894054888564 
9.97810350423055e-05 
0.03575294373469776 
0.3066248307111701 
3.60885575835959e-05 
0.003692539464001542 
0.002452440696287963 
0.05386090880055298 
-3.126724571959278e-05 
3.868042257566013e-05 
-3.126724571959278e-05 
0.1795984666027398 
0.3287095961905137 
0.001430652303423043 
0.02196302709817262 
