solver_type L2R_L2LOSS_SVC
nr_class 2
label 0 1
nr_feature 32502
bias 0.5
w
0.08707029682129365 
0.01900851995064031 
0.18582209085332 
0.1756676874375254 
0.1259573833422952 
-0.1393074412423418 
-0.002833083182360159 
0.004181666516885591 
0.009595805890260198 
-0.1616757276865934 
0.0003261584866222799 
-0.03291089743012419 
-0.1444779630851147 
0.1546272988074371 
0.0001165030166240187 
0.3753536957540144 
0.335623811247297 
2.041502903845285e-05 
2.041502903845285e-05 
2.041502903845285e-05 
2.041502903845285e-05 
-0.08053835527236887 
0.0002612330117637687 
-0.03826732838804207 
0.2679360649656756 
0.4293557772115454 
-0.4146975405075665 
-0.5407214809891523 
0.1236824895749634 
0.1982993625776105 
0.02904644004722146 
-0.2191425061942737 
0.03265211968935185 
0.4195921994815793 
0.07175348720386994 
0.1036887641201376 
-0.1481810537545171 
-0.2447558414348153 
-0.0284302539442494 
-0.1216048296692848 
0.1232482086255932 
0.3541529774128825 
-0.2254578911977102 
0.3924133028438033 
-0.04257787427805042 
0.3103221652140327 
0.08284570230710502 
0.01120636184272101 
0.2526918602910105 
0.1835027947833974 
0.273549399949731 
-0.1493807372812871 
0.1016866508909124 
0.1953443929255496 
-0.03018613565294067 
0.05998306780823764 
-0.2819972216836898 
0.1139628375267759 
0.1602562288209706 
-0.1168327956051617 
0.17284584515483 
0.2565171126926493 
-0.06115690340970948 
0.0002853423486575718 
-0.2032723192865059 
0.002682281073071535 
0.0003985321267863094 
-0.1618276144148296 
0.1605623894187689 
0.3105642662765829 
-0.3056373054181796 
-0.1202972099900643 
0.1210838873682455 
0.6964176298641265 
0.04863200570569633 
-0.01266964904610567 
-0.2299358310337225 
-0.02567817185441582 
-0.0827193165137961 
0.1238101904394485 
0.2520257122693291 
-0.2657143950670829 
-0.178229187722764 
0.06090291522244696 
0.06090291522244696 
0.06090291522244696 
-0.001183823240450282 
0.3109939877670279 
0.6280494269447152 
0.04040207440580604 
0.0009452685745575766 
-0.2322427488982947 
-0.1522185378506186 
0.1316742960119792 
-0.03757671337772758 
0.03246799840725027 
0.4477546731555776 
0.1961265477214071 
0.1442368773164932 
0.525146266279817 
0.4539260299983979 
0.1925632112259291 
0.1328643406918692 
-0.07001232151416688 
-0.004266618518891417 
-0.07055267967681772 
0.0968818872301431 
0.0005816113294649524 
5.834388915825068e-05 
0.2738159459021274 
-0.1010256351203619 
-0.3324750449125433 
0.1088011693702007 
-0.2516806947254335 
0.2473109413562647 
0.0001378603101867102 
0.0114913143326613 
0.2047764820235297 
0.1619170900053684 
0.5646202652910043 
0.005437736144950507 
0.02962414611950902 
0.5135988997464316 
0.1583089632560964 
0.1356919311028867 
-0.1019695407066715 
0.1927724261749313 
2.382564484607005e-05 
0.1590094846318847 
0.3376340623568325 
0.06567759046460225 
0.3643959238870969 
-0.01836414153623348 
0.01799753603139395 
0.6496463471723212 
0.0001927853979019285 
0.01762577531424372 
0.0001927853979019285 
0.1229861596505036 
-0.1407299926136253 
0.0003987184733244373 
-0.05608609433958215 
0.01654487509757839 
0.2365832229428636 
0.5148801488347318 
-0.1576751638396617 
-0.274025802115655 
-0.0323567628520354 
0.0004016305547265411 
0.4052910424290118 
0.01001016335839351 
0.02707806133618677 
-0.1094150103393852 
-0.0158194804111681 
-0.3920845774841991 
-0.01622703418449997 
-0.8542596620982503 
0.01237707915319283 
0.001240909886434263 
0.08630281311509565 
0.0001525207928335496 
0.0005592148824267744 
0.121382573736968 
0.1708998985804947 
-0.002565581478848871 
0.09058466839257603 
0.2797341104391786 
-0.0443074393829439 
-0.1887484908706373 
0.174720791250588 
0.04724301717046463 
-0.1580687393624933 
-0.1255150219547868 
7.647691623970844e-05 
1.061415135053739e-05 
-0.131389813965235 
0.2009130369537366 
-0.01891593675540309 
-0.03083312338019171 
-0.1598489749089458 
-0.6108812159057589 
-0.1445025432888767 
0.05771940703920143 
-0.170080710923339 
-0.09850269239569892 
-0.1580997268244043 
0.08788472871297591 
0.1394690032854055 
0.0002802828318798238 
0.1696479473794355 
-0.1545814161350604 
0.0004122956636921703 
0.3289007439591425 
-0.2963155110161 
-0.1630763142103146 
0.180070115654591 
-0.09368407802682933 
-0.334547771150979 
-0.1777110520293396 
-0.2561368274634074 
0.08917503963680541 
-0.189191388343268 
0.09447383017885697 
0.1362272517878728 
-0.1062853951502006 
-0.1828690625692836 
-0.1798225948125418 
0.04477675398965328 
0.236536439420396 
0.3694282955724467 
0.2534641459583722 
0.05270805063786248 
0.1964568304415542 
0.616024544314201 
0.1003455767789635 
-0.2956765778085803 
-0.4554986235808487 
0.2575249038163986 
0.1125846481838009 
0.08795726268744478 
0.0927094985184734 
0.1508507898709366 
-0.2275047295400548 
0.1153534524984018 
0.014220479587745 
-0.3547120524823819 
0.5484620843468865 
-0.165503615988625 
0.3126460452751016 
0.001656494520385487 
0.004230452840235373 
-0.07455915049494341 
0.01187563446144305 
0.3389010345637926 
0.09495424665376112 
0.002200273594093365 
0.1022056426353081 
0.004672245199033961 
0.1923724024460773 
-0.1238220316042578 
-0.06448490629968744 
0.2363432568831948 
0.1202377722337027 
0.3899553271279684 
0.5433751616979664 
0.1834920781268594 
0.5187798602019077 
0.4855276922164581 
-0.1653792777734085 
0.1906133745479624 
0.5419442203885251 
-0.2115765653887123 
0.08722137827924915 
0.1838971394946731 
-0.4349873481058832 
-0.2181839504404959 
0.1920596728049499 
0.3029444478659717 
0.04017402686657727 
0.08021463782522187 
0.07982840526804411 
0.003296054737259353 
0.003239273310739283 
0.0003261584866222799 
-0.2173701243785707 
-0.2435546449540485 
-0.1241820822998232 
0.782666390408603 
-0.09390115789907962 
0.3528658343457712 
-0.6001881308288523 
-0.2234701946635148 
-0.02116806672225516 
0.05906387938016287 
0.3023388903489113 
-0.02013278495899131 
0.0926912088668355 
0.09477179906802209 
0.3891563188811011 
0.004066614016919993 
-0.117079666735343 
-0.07606440482050014 
0.8480287859959976 
0.4522064895605598 
-0.3794708371233526 
-0.0519356401180925 
0.2113696072644427 
-0.3053394771166487 
0.2156467545708622 
-0.3818482113361963 
0.4715046523290115 
0.4549849232170264 
6.024723407810361e-05 
0.168741558943837 
0.1249534182552044 
0.4282287142205455 
-0.2519986203433672 
0.1803905221838326 
-0.1436689740418191 
0.507329195395035 
0.2060353035922612 
0.07393346831560574 
0.1434125449640931 
0.3380614380688494 
0.1391313828451445 
3.036466327861086e-06 
-0.005045059380422476 
0.3091239033508593 
-0.1034787146967607 
-0.9085409469833169 
0.001739896730831241 
2.041502903845285e-05 
0.1183325954788956 
0.03247257376731279 
-0.1014595603268785 
0.0231736272434835 
0.03921947291695316 
-0.04024640274494475 
0.0001814653869276394 
-0.006519731560990318 
0.06133930740383267 
0.04030296310465492 
0.04028254807561647 
0.04605649526629266 
0.7356783522703664 
0.2159936041024843 
0.0002572585188700456 
0.0008694518297395866 
0.0006384069738240451 
0.2203713795189196 
-0.2072364292598129 
-0.1228328442230086 
-0.1300591510231281 
0.405775816685857 
0.1652759110250966 
-0.1560412962950298 
0.5838829229849259 
0.5168219819125562 
0.01120267490940613 
0.01269638489374499 
0.009933837324056508 
0.302153120629429 
4.753913977311732e-05 
0.006825688124087738 
0.4885802581036282 
0.191098607489842 
0.1042340256501433 
0.0009013832131701941 
0.0004189278199331144 
0.1202350762905562 
0.00104790855719817 
0.0006102570163551697 
0.000385512286796688 
0.0002723044667152348 
-0.1108198622276638 
0.2468921506020006 
0.108019382716452 
0.001433353911716578 
-0.3869867692330637 
0.3515684748942055 
-0.2379250673314315 
0.5175270511239007 
0.1774860874977282 
0.002341310953761264 
0.07613351131379219 
-0.002157654665506156 
-0.04425635741531761 
0.05758685741170307 
0.3995397221069139 
0.001453461783026858 
0.02799215547013482 
-0.07756457110828321 
0.08801670700938546 
0.2195792902584948 
0.1723033029834725 
-0.0952086396601244 
9.586895617556834e-05 
0.0052362676698222 
-0.06866572101210575 
0.351731970565924 
0.0004496020639835244 
0.4217061414414225 
-0.004959459012926777 
-0.006556278128187207 
0.008074846457730791 
-0.4585556785782796 
0.5204445721404267 
0.0001089440722163082 
0.000205122062217193 
0.002185090738699151 
-0.1249518807120117 
0.02612794893656234 
0.0002870509154277157 
0.00119057346566617 
0.1152295717410021 
0.1601877418288718 
0.2409133776795575 
0.4009002718538627 
8.789553843317393e-05 
0.001528163124329888 
3.655522412692213e-05 
0.481305212142256 
0.0003856939984231268 
0.1735211625809674 
0.1098367911846346 
-0.4979787247383232 
0.1754548612546089 
2.041502903845285e-05 
0.1413717299867576 
-1.323014029232743 
-0.4294681532438829 
0.3348514701860237 
-0.0009439001261370606 
0.1395395754277136 
0.08493009439253496 
0.0001612075606229029 
-0.2220780956920659 
-0.01502557983573512 
0.3968746209936027 
0.5943924663572249 
0.001331042065849679 
0.01001018553395248 
0.1087341175431647 
0.05492795060844851 
0.05526531401128269 
-0.07640032417638912 
0.2172644941639422 
0.44091704867614 
0.0002431186969612886 
0.1682046488858939 
0.001927480365980116 
0.3922843291638392 
0.08331891071525888 
0.2578122940122993 
0.201454529577327 
-0.001621677037347634 
-0.1907766072671826 
0.28880992898314 
-0.0007492793495875506 
-0.0007492793495875506 
-0.0007492793495875506 
0.3249545062189892 
0.5924790935790043 
-0.0009532522409204588 
-0.0547410236299946 
-0.03271444178007263 
0.3395073808882245 
0.0001777035891654239 
-0.07103785452011717 
0.0009681017560023934 
0.02765810441061315 
7.435716297908886e-05 
-0.200349478938714 
6.967884062915227e-05 
0.06737795965485607 
0.1155313530637591 
0.003425191516100965 
-0.1046175040503102 
0.05447764490901978 
0.006318763923054453 
0.2336922790903495 
0.1382254595730986 
-0.07348037758368917 
0.09855557355454582 
0.2695981913407833 
0.4571843221346591 
0.020056867250889 
3.159831880996836e-05 
0.01722461544715559 
0.003191424113704721 
-0.03793806550484462 
0.2521417882996642 
0.01860491244078986 
0.008108919091486071 
0.4229141868999344 
0.0002061380401047997 
0.0002061380401047997 
0.06548271071886463 
0.0005866041895257311 
0.6935871463594643 
0.3684126421571835 
-0.1918783170588656 
0.5189597252387366 
-0.3175126084698475 
0.5674279046081313 
-0.1847538162929838 
0.3719193247080537 
-0.7750994828362211 
0.2102529715146951 
0.001442293920919317 
0.004090790542036154 
0.1499286691402942 
0.0006431104431004888 
-0.1470941049843002 
-0.160474467253145 
0.004573429343343639 
0.09247125775098297 
-0.1065063111840455 
0.07634366922541144 
-0.000452265120108772 
0.04051918084514972 
-0.000452265120108772 
-0.170654471486774 
0.08973366352564559 
0.3853526433012242 
0.1579331183234639 
0.0001576322936112307 
0.1574242513658709 
-0.7001429674447267 
0.1574242513658709 
-0.1713270033440409 
0.3097284786758478 
-0.1022709899073257 
-0.3211488162354038 
-0.405545562900155 
3.837365374988131e-05 
0.1407459334529511 
0.3550291855865802 
0.03242623622475485 
-0.07094475070898816 
0.4775172140164661 
0.1233460245367693 
0.08905376187006149 
0.09161801261437279 
0.3773672844791575 
-0.4086847753136968 
0.2209832670207487 
0.5042539966598777 
0.2633818357546554 
0.169484994884338 
-0.3215442776333478 
0.05249628296371769 
-2.672649904688262e-05 
0.1497922812358352 
0.06485039699608636 
0.06056828082100437 
-0.319647779597276 
0.6667857285064624 
-0.5561412500152313 
0.003849269836421515 
0.3107538636931764 
0.0007977237981679901 
0.0001609020153880489 
0.2773283018810929 
0.0478790631816859 
0.0001609020153880489 
0.08509537988314124 
0.0001609020153880489 
0.0001609020153880489 
0.0001609020153880489 
-0.1371821698689407 
0.1569487181459236 
0.1607716657868521 
0.3802214002755214 
0.07910689722480838 
0.0001132291320824907 
0.04651644758985882 
-0.2882065645975766 
0.2861470680962447 
-4.619010244417749e-05 
-4.619010244417749e-05 
0.2685054777303416 
0.09959486021960341 
0.4273145718405589 
0.0009500692262854049 
0.6300818720673842 
0.0002353250493286067 
2.041502903845285e-05 
0.01956106738473896 
0.3898839931862002 
-0.516127884087236 
0.1228368848050344 
0.1953998095968839 
0.4615672051061803 
0.1280298794370927 
-4.907490728000754e-05 
0.08408325448330795 
0.5580023758644594 
0.0001322089079735128 
0.5568144329531869 
-0.613735504038303 
0.5710649907949159 
0.0001412266753308289 
0.4089862057433852 
0.03491060331061305 
0.2888685156320721 
0.02960513259131891 
0.02865887135332978 
0.2886446115034803 
0.1374483170058838 
0.08176539890188993 
0.1930365477072323 
0.3248187839695048 
0.2671693367393435 
0.3245551674731773 
-0.0660304334941423 
-0.0117336049232912 
0.0179529406705121 
-0.01081118377182521 
0.1590493893883817 
-1.402483314109729e-05 
0.6839099691703805 
0.08621760501957122 
0.2061488102153961 
0.008268717794264744 
0.0166822057022336 
0.01626328242084589 
0.1507791289086615 
0.2835269135708327 
-0.4563800414249425 
0.0007298492051125558 
0.001139936384702363 
0.05191920126642514 
0.05191920126642514 
0.05191920126642514 
0.3099332135667782 
0.001997457331392651 
0.1957647731255727 
0.3455976103349097 
8.840028278472818e-05 
0.121645566678156 
0.07693585896082919 
-0.3156487231609951 
0.06387042965426253 
2.850915986018619e-05 
5.608791633140021e-05 
-0.2117279796854889 
2.373976520316943e-05 
0.151404933806968 
0.001055647692040673 
0.0001624241346520004 
0.002588265425486301 
0.1808614268397611 
0.0502987296761515 
0.4390089316429776 
0.1794593434118829 
-0.2406383418712492 
-0.1468437105514682 
-0.1464818706133825 
-0.1796410409629839 
-0.3518337946886591 
0.2562820643474368 
-0.4261492643257318 
-0.3497511557768975 
0.4112695628919166 
0.0003019053373933458 
0.1044472535462032 
0.2324479208290485 
0.04580737198314298 
0.009209157940148939 
0.001341624106372129 
0.2672186538522533 
0.05758035770266029 
2.694390584015242e-05 
0.3596861588442674 
0.02415203160550001 
2.694390584015242e-05 
0.4155835660646023 
0.2753774998436762 
0.0001583780154653851 
0.4254561013497422 
-0.3205261567293726 
-0.5671324115667106 
-0.3495511926639446 
6.070289876370436e-05 
0.3655464527597229 
-0.6541001035943099 
-0.6001622393362394 
0.3094073209363427 
-0.05789753587004556 
0.0004185892941945516 
0.2359729147626231 
-0.006348407562719781 
0.002978097062089976 
0.05879293932645784 
0.2146845268357963 
0.1149301147265519 
8.887073127787874e-05 
-0.0005204684375790925 
0.07936827591097667 
0.02411792196541646 
0.05262397313909446 
-0.5018582356082842 
0.1094305098050303 
-0.06358796320210669 
0.2802502645050186 
0.05713364013032537 
-0.6229099891320291 
0.0001019155160633791 
-0.01653335566219327 
0.006257563956851064 
0.0001285267433790303 
0.3846523428300159 
0.0001285267433790303 
7.826701655283179e-05 
0.0001285267433790303 
0.6408983371499682 
0.1758959355962995 
-0.1937936145722634 
0.05415957946990798 
0.1048600414634518 
0.001022448799157991 
0.04072987243389725 
0.04072987243389725 
0.4114281858262682 
0.1251552450310507 
0.150825716039559 
0.09170788425000574 
0.1226708275313606 
0.1876250809418959 
-0.3661468001248639 
0.3453804458384505 
0.4443457758178683 
-0.1562503970349224 
0.09406188984946982 
0.0001598764216025468 
0.07477016744711912 
0.111029403769779 
0.0005181518622739856 
-0.2329811000263712 
-0.1143584736802921 
0.05030111211917128 
0.03747045719931114 
0.04975594046226806 
0.07548547815424081 
-3.518227582254279e-05 
-4.734428895609947e-05 
0.0009627638773299851 
0.08750825013831437 
0.2083776515682969 
0.1571819695787083 
0.158236883020597 
0.02201915217387773 
0.0002373140410558386 
0.0001086881118067716 
8.827308276831881e-05 
8.827308276831881e-05 
8.827308276831881e-05 
0.0001952965121195144 
0.09132320549283586 
0.000520248064874875 
0.05212546451230185 
0.03096954041740664 
0.02011019626564925 
0.2231569088730438 
0.2768895654465001 
0.001650131100501423 
0.05564336762512175 
-0.2025514421893519 
0.3787642491345653 
0.1527794524172574 
-3.714242216109796e-06 
0.3242427824018623 
0.04542894293712413 
0.05291407882033833 
0.03789281535177833 
-0.01062471551370783 
0.1928768292098176 
0.3622432031344874 
9.534574133016266e-05 
0.2333719656795899 
-0.3802166833585016 
0.001827474138747943 
0.0001092098499103367 
0.1001359024589605 
0.157676060676984 
0.399723940909343 
4.044472509800222e-05 
0.06614807206211333 
0.2394554042944378 
0.0001309897759111848 
0.0003707155012437571 
-0.7360464395085572 
0.07598940779982896 
0.000221091656478249 
0.001690862416368254 
-0.08909120713930614 
0.0115893944590252 
0.002171527859264688 
0.000405018133695887 
0.0002027147290797456 
-0.0003893443494986705 
-0.2222275129959504 
0.1712146704495797 
-0.006510134204263246 
-0.009945398690450604 
-0.009945398690450604 
-0.009945398690450604 
-0.009945398690450604 
-0.009945398690450604 
0.003402841251646393 
0.0003937373258383559 
0.0001797263995061582 
0.08371776349696455 
0.0001797263995061582 
0.0114887013429499 
0.0008430728862290665 
0.0008430728862290665 
0.0008430728862290665 
0.3250078560732991 
-0.00368258724612495 
-0.003736405855950119 
-0.003741566110961123 
-0.003736405855950119 
0.2787201337905172 
0.07891055067877489 
-0.3045907959639743 
0.283767102814217 
0.4217005162995016 
0.02691740757469562 
0.02701525959352347 
0.0268743056953934 
0.0268743056953934 
0.0268743056953934 
0.203270949149588 
-0.0793424914785005 
0.09917756067864372 
-0.1100342844414161 
-0.2827859687112296 
0.05279927015309004 
0.3019404903536539 
0.3187065387384495 
0.0103186954045693 
0.1101226822481179 
0.5475582409740243 
-0.2113388428230016 
0.0001438831194689023 
0.1507327417057496 
-0.07061279291916511 
0.09139761743403135 
-0.3079045501354079 
0.09941670911576383 
0.2492400288716515 
-0.1587641663319931 
0.000723793840627555 
0.00368678840596499 
0.04873681877655719 
-0.1610515121151743 
-0.1160643731296017 
-0.1463262354106198 
0.0001413922874968789 
0.1691638510892184 
-0.0002809912118683197 
0.0004029148772027748 
0.0003620848191258693 
0.000180839356840675 
2.041502903845285e-05 
0.117778571830847 
0.005345731159773378 
0.0002812606099183829 
0.0002812606099183829 
0.05132830178047032 
7.784420789106213e-05 
0.002402988157099752 
0.1040216633966667 
0.001601497689262236 
0.0530224537090077 
1.01412169089866 
-1.552069912207571 
0.0001638704761538458 
0.1345148063284922 
0.0008195780237334891 
0.0007149476500533246 
0.1075611793046262 
0.1102209222270031 
0.1917241432923042 
0.0003261584866222799 
0.01992503539620196 
0.007814264649904368 
0.1109684656006027 
0.3429142353057524 
0.0006397645025195699 
0.2149006827332518 
0.1299113798967394 
0.0004173305701099816 
0.0005943191208732659 
0.1280772573860823 
0.0002035638700756663 
0.0003251675323548854 
6.588768786443559e-05 
6.588768786443559e-05 
6.588768786443559e-05 
6.588768786443559e-05 
6.588768786443559e-05 
-0.09570298790442111 
0.2030762232563878 
-0.002080587881077475 
0.145368472218494 
7.813179369630726e-05 
0.02753150733338006 
0.08805659323435314 
2.041502903845285e-05 
0.001467985526910201 
0.4221740639142479 
0.2603631634368286 
-0.003092444020311329 
0.0384368991936947 
0.00320616159984671 
-0.06264883557281595 
0.03862031554841255 
-0.2402673531689074 
0.2189173993238131 
0.3917555556969919 
0.07674240965189175 
0.1041957372513391 
0.1742945713991751 
0.101217908099099 
-0.3367126951621118 
-0.3731360849478622 
-0.7312312461709605 
-0.1673541223709388 
0.1413691469220325 
0.1871092723141104 
0.01636686341677487 
-0.0001517016387170391 
-0.03023428881956687 
0.000510112478467302 
0.1479097283614376 
3.07540715958745e-05 
0.1460556408704801 
0.139245020497499 
0.1929935520304764 
0.01888800068915588 
0.0002818349911834935 
0.0002753472551445144 
0.002499196253996276 
0.2963226670296205 
-1.680017596591369e-05 
-1.680017596591369e-05 
0.1018258557120771 
0.004051506045169616 
-0.3520660910770196 
-0.5229887380790194 
0.31799251340711 
-0.001465193064534605 
0.2506359938483789 
0.2100997553510122 
3.497297533181513e-05 
0.02912484195855815 
-4.530714634332169e-06 
5.128312090102354e-05 
-0.3049509125450859 
0.0003892907372469869 
0.0001392976317395319 
0.4482173225599428 
1.317013887273897e-05 
0.2072286138041973 
0.2119026956383952 
-0.3912136521104733 
0.2444845643288668 
0.2698690768010385 
0.2051256286255215 
3.092754525682482e-05 
-0.1719280207187737 
4.837350020789361e-05 
0.0003261584866222799 
0.08243599674425449 
5.901581187153828e-05 
0.0009572446736911264 
5.901581187153828e-05 
0.007607696913350687 
0.06978981979393913 
0.158873693127924 
0.0004973323316865561 
-0.1811973738750883 
0.002230162917641652 
0.002230162917641652 
-0.08421755657168907 
0.002649384950400212 
0.002230162917641652 
0.02925381821717882 
0.1784299909746484 
0.4954737246453451 
0.09418518582084262 
0.0007714914309444436 
0.02774323489809112 
0.02774323489809112 
-0.5473635069581424 
-0.5284213675725051 
3.283535597876138e-05 
3.283535597876138e-05 
3.283535597876138e-05 
0.0002070065698613578 
0.08285543011928903 
9.58354355324612e-05 
9.58354355324612e-05 
0.3626290457541521 
0.03111160148971737 
0.0001081790864785737 
0.1411311624935291 
-7.554658263081212e-07 
2.823411257669201e-05 
0.04940489938668343 
0.105983029354169 
2.564913100001059e-05 
2.564913100001059e-05 
0.004626172604302479 
0.4371708496308383 
0.09547774857426261 
0.0001575206809018137 
2.564913100001059e-05 
0.2404637208163022 
2.564913100001059e-05 
8.349144292563844e-05 
0.176014804804672 
2.564913100001059e-05 
0.1742381688377394 
-0.4125396860715883 
0.1594316978569574 
0.05090506869151767 
-0.0005537129115733602 
0.0006842462492655226 
4.231314976580462e-05 
0.391556561832511 
0.1654807169197084 
0.3123508976232401 
0.0003534312709141229 
0.1946390592857502 
0.04902232249557727 
0.0005365609873633424 
0.4607950055948717 
0.1445052560798781 
-0.3181815287862928 
0.2525203489843595 
0.0001185158289436336 
0.4092449530539989 
9.950618879051521e-05 
9.950618879051521e-05 
9.950618879051521e-05 
-0.1184203563207426 
0.05855663718252445 
-0.2141352341367319 
0.01432003924104547 
0.3276974418127166 
0.07321731504308217 
0.005423829566474213 
-0.03979097044042203 
-0.2672336586414992 
0.00338099663570013 
0.003308829204924334 
0.2513909589216422 
0.01955110593133995 
0.0001135179536130537 
-0.005115965895397216 
0.03652290761919182 
0.001030324994021603 
0.1334521382834913 
0.0001980780019561705 
9.12216361420298e-05 
0.01963352819640142 
0.0001898116753902285 
0.0001898116753902285 
0.0002142619336781889 
0.0001898116753902285 
0.3386900941784379 
0.1093504322085305 
-0.1788318366124443 
0.1034536324690749 
0.0001608354353210985 
0.0001608354353210985 
0.0001608354353210985 
-1.309613695347684e-05 
0.02292721895210916 
0.1014133240438993 
5.461926945268598e-05 
5.461926945268598e-05 
4.642970660534838e-05 
0.003475342731230869 
-4.910351301372811e-06 
-0.2313998673969193 
0.184412713027962 
0.00922058847427069 
0.0184457558512837 
0.002190418057513782 
2.041502903845285e-05 
2.041502903845285e-05 
0.1166578531157881 
-0.1995213431343185 
0.3002521628586807 
2.554660246411781e-05 
-0.1336306298172835 
0.1858650991235569 
0.04867136876769122 
0.07420720119687876 
2.041502903845285e-05 
-0.1515208136966464 
4.717251951412855e-05 
0.1649664770603516 
0.0001793716120827306 
0.0007588461983074115 
0.0007588461983074115 
0.01443271253318896 
0.2765782168975146 
-0.7339992052525184 
0.09961360829590828 
0.0001128829956747299 
0.0002076928080618818 
0.000226277217374009 
0.1879820240723505 
0.0001529964482354657 
0.1879799096656934 
0.0001354985291511181 
0.0001354985291511181 
0.02851457034833065 
0.002896115211859869 
0.357195006008628 
8.174132661707578e-05 
0.002845422139360067 
8.174132661707578e-05 
0.1912745598721144 
1.231886132549735e-05 
0.1777585996622116 
0.2153004304240917 
-0.5276391377325065 
-0.4545321369197308 
0.0606856698862718 
0.06064690403740028 
0.07310772940184508 
0.05819303135580681 
0.06064690403740028 
0.1276381607111662 
0.0006314730922885732 
0.0005172697149956705 
0.003139531377977129 
0.1785324642760661 
0.0005641561229573943 
0.0002193229041425687 
0.4112945911422932 
0.003654182270644744 
0.09673139121172714 
0.005391529666299265 
0.2005571805044795 
0.2483191724167879 
0.0007177069060744802 
-5.829053839351186e-06 
0.0001493617784705784 
-0.1967529984721184 
-0.06790494023786194 
0.1115740824885028 
0.0003261584866222799 
0.06069654814571369 
-0.2649078991821959 
0.02642995162906133 
0.1293230024381372 
0.1285155209763657 
0.1393408904896188 
-1.150128028693388 
0.135599149979249 
0.1290275152423614 
-0.001897262558491089 
-0.2175695451021702 
-0.001948809011974219 
0.1462941494116229 
1.834813974370149e-05 
0.2628980107249828 
0.01638889566031115 
0.1165125383039582 
0.1956554587876309 
7.987061439770716e-06 
0.02846354356810533 
7.987061439770716e-06 
0.4146694617127297 
0.03157440981125 
0.009771046621243255 
0.2893149076942297 
0.08661961677704164 
-0.1621164796416768 
0.366143102606574 
2.054500854940722e-05 
3.689187228019067e-05 
0.7921180660932718 
0.2591046253968161 
0.08909565855824313 
0.08909565855824313 
-0.0009652593003631844 
-0.005921973922314399 
-0.1409020816492448 
0.1800246379290693 
0.0005787955870670943 
-0.0004981510710461181 
0.0001470369345233273 
0.007745622364479758 
-0.3607253961003369 
9.630819213581552e-05 
0.0002310153284687398 
0.05910648557278918 
0.2561431495972428 
0.07982715766740625 
-0.7702691906048567 
0.000123483285682207 
0.2514374122881923 
0.01825591566245913 
-0.07615338570057802 
0.01525544602165763 
0.1243550304016923 
0.0008444855053999879 
0.0008444855053999879 
0.0008444855053999879 
0.01508338006514787 
0.0008444855053999879 
0.0008444855053999879 
-0.0172275108422198 
0.1170921856518816 
-0.1159397247410207 
0.1625539683492423 
0.0003580465049862267 
0.0008454918217323943 
-0.0009843557989201528 
-0.0007815323646402504 
-0.0007815323646402504 
-0.0007815323646402504 
0.06200445560936343 
-0.4044788143833452 
0.3236108066268658 
0.2972965102933636 
0.000124825474905542 
0.1948746169194887 
0.1854249254970124 
-0.002334900726379187 
0.03409591120387576 
3.478380029921833e-05 
3.478380029921833e-05 
3.478380029921833e-05 
3.478380029921833e-05 
0.0002404268221197461 
0.0008335581249638273 
0.07249205690628334 
0.0001386951217994237 
0.03312760178793948 
5.48032513669552e-05 
0.5073935684222546 
0.310383325569665 
-0.3702152211615996 
0.09138447136904937 
0.0001018691238490118 
0.260422695917594 
-2.578169507154839e-05 
0.2108869978108582 
0.1512806745067128 
-0.4630837965433823 
0.4220522664440801 
-6.426858481431594e-06 
0.1118148993568229 
0.4206866344580286 
-0.3887539774290439 
-1.278949599000434 
-0.3638728656630298 
-0.002232300093636853 
0.0002223447590093519 
0.0001029576245738142 
0.001693572307855027 
0.001349689125523615 
0.0004133444732700737 
0.08047417998655486 
0.2135415214055472 
0.0001412255357563874 
0.001172251035299689 
0.02348639147912344 
0.3185943228199263 
0.3216752797479434 
0.1972944410492074 
0.01226091618695346 
-0.5105626008926569 
3.581436237715397e-05 
0.01276687038262096 
0.1145098015085942 
7.321281058967048e-05 
-0.0006315257553611945 
3.503012875690003e-05 
0.009326863015051218 
0.001887368910474653 
2.041502903845285e-05 
5.582417341081869e-05 
0.1518941792820696 
-0.6839059964869957 
0.0941664970263919 
0.5249999732947217 
-0.03895221487791069 
0.2907707588074842 
0.3888631788804528 
6.588777417795112e-05 
0.106152573370164 
0.052271322653912 
2.041502903845285e-05 
0.006061299771496629 
-0.4587590809397517 
-0.4279531096396056 
-0.5345881801681509 
-0.3208067149163811 
0.1021004309709067 
-0.1791995631764279 
0.02110565468923141 
0.0007158852540131199 
-0.01429696275472962 
0.1330732892755723 
0.2248000095490639 
0.4041979487410304 
0.002142524313499651 
0.004619222370259603 
0.0003261584866222799 
0.03060134037182157 
0.08241596953601572 
0.000731948671044395 
0.03522031504915747 
-0.0359627741638419 
-0.2093361131509091 
-0.0003561213673628008 
0.0009786824966517603 
0.232504768354113 
0.002240040805150291 
0.1535882623818138 
0.000587128565084839 
0.168837721716772 
0.004446027935839047 
0.503935534120669 
0.01368636763795272 
-1.395893107380125e-05 
-0.0005238696701141884 
-1.395893107380125e-05 
0.006082949297564264 
0.0001005999854573693 
-0.1145997264967195 
9.303620850223588e-05 
9.303620850223588e-05 
9.303620850223588e-05 
0.0004230042874470567 
0.001070049772854222 
0.4593449521410235 
0.008418233623815901 
0.0001485863485939752 
0.0001082995242897072 
0.000333588462848548 
0.0001113909975093774 
0.05246963160744246 
0.0002761578610632233 
0.000302832752147174 
0.0001102607478428257 
-0.01002444289135937 
-2.29636147906346e-05 
2.755766761453361e-05 
0.6797828527455154 
0.2090323172992306 
0.3633282639451177 
0.0438474124121125 
-0.0177567633991868 
3.735213327173226e-05 
-0.3573723564527879 
0.2651587917048485 
0.2111708391427553 
0.0001108372280894387 
0.1542848542367864 
0.0008259339522441354 
0.2183645660198089 
0.01099201243312533 
0.002567628276058747 
0.0004679425858234119 
-0.4042956870367412 
0.2384495025464499 
0.1330416817698765 
-0.0002913118955119789 
-0.0001708414026495818 
0.04604734279680334 
-0.04089147190514619 
-0.0001717815817369545 
0.06917365608891796 
0.4116614029149919 
0.4735023556852671 
0.3328472238819518 
0.3269073409723855 
0.218526282324958 
-0.0005404157557414736 
0.123513354250785 
0.0001051564548147014 
8.543423188892833e-05 
0.1084906173947879 
8.543423188892833e-05 
0.0001293362226797432 
0.0001293362226797432 
0.0001293362226797432 
0.0001293362226797432 
0.3669845513543193 
0.004614174654059015 
-0.1697086995659779 
0.01828527950926173 
0.3888391685304936 
-0.05923002127600088 
0.3417721737494375 
-0.2405186033281067 
0.0004045731817684621 
0.0003593321543849309 
0.0001121024765521689 
-1.035904454326155 
-0.4017651564282635 
0.0005171706380635813 
0.0005171706380635813 
0.02434276248804156 
0.0432601446508665 
0.0379944895570254 
0.02798837919061284 
-0.1013969752195775 
-0.0008678625022318938 
-4.217911705504233e-05 
0.03877264407767901 
0.001631196973967086 
0.06833171484440423 
0.0002965628613928246 
0.0003703813445063139 
0.07416811931654504 
0.03238969304373403 
0.0005625212198367657 
0.002070329316407142 
0.002222274366751891 
0.01717863991859918 
0.0008210243288395239 
2.041502903845285e-05 
0.0968952083216809 
0.0004905409746821695 
0.3095756852084651 
0.252436059718875 
0.004768336348274893 
0.001997155216442801 
-0.07314415085288757 
-0.0004192067561105238 
0.08231861984541874 
-0.0002122490552052828 
0.005959992863099823 
-0.0001179426395471151 
-0.008337401787462678 
0.07827752935713918 
0.0001668557760304309 
0.001889038806978385 
6.6508497378482e-05 
0.3487198683322131 
0.06997643103578477 
0.0001746143245021711 
0.04846814510803293 
0.0007534632683361478 
0.1237146573369213 
0.0140300871323933 
0.6744067127706924 
-0.822390747228724 
-0.1579896380505807 
0.0002109665788322998 
0.5339162546178903 
-3.923995982929854e-05 
0.1407846309104969 
0.0001285880275223487 
0.0001633202323076228 
0.103686376619394 
0.1238684663944758 
6.884462798937953e-05 
0.05176867870834716 
0.0002566812489451198 
5.810266786917645e-05 
0.05157521926569657 
0.0001371435144435201 
0.07553766399289345 
0.07571139181262083 
0.1418435203281606 
-0.0005184333705557354 
1.195910589190135e-06 
-0.3000774183543889 
0.07938627227266457 
0.0003793522868094325 
-0.0109886095794601 
0.0003793522868094325 
0.3986829650904405 
0.4031738515817093 
0.2460868613745896 
0.03239977567376142 
0.001500424894399326 
0.002267836151258161 
7.894526484030787e-06 
0.09863970157238508 
7.894526484030787e-06 
-0.002516995024951154 
-0.1081314151049756 
-0.5184938888711388 
-0.230364099841835 
0.0004196739072228701 
0.0004196739072228701 
0.0004196739072228701 
0.0004196739072228701 
0.08049063431087003 
0.1009212353250319 
0.3563040268223294 
-0.6465166784140423 
0.2787639061506955 
-0.2142324191458336 
-0.1791123801804254 
0.7163487009912163 
0.0003642693929221326 
0.0003069827153246291 
-0.002857144862636558 
0.1542970463451124 
0.0001833420223716473 
0.17180344814158 
6.202760192688078e-05 
5.492690798844474e-05 
0.0001246281110671124 
4.968477994590594e-05 
0.0150859805118127 
0.2203707005008912 
0.0001601692145027824 
0.1579275637074813 
0.0001928728577361109 
0.0001928728577361109 
0.0001928728577361109 
0.0001928728577361109 
-0.1656869520502413 
0.02536864159974625 
-1.250348049702175 
0.4230237685823943 
-0.001578737069940005 
0.1591535923943937 
0.1990600393492457 
0.07697543791720822 
8.862396355231507e-05 
0.0001355383295484877 
0.1388950427440116 
0.0004838635092608583 
0.0003295775369587866 
-0.3078390688997911 
-0.4836668494493924 
-0.2733978071193087 
-0.3734519450612366 
-0.3734519450612366 
-0.002270028135307359 
0.3011563502287785 
-0.0001014434684957567 
0.03643434372572266 
3.63227204120338e-05 
4.849223590450522e-05 
0.0003261584866222799 
0.1927706562618719 
-0.4436551339610837 
0.1150132226134329 
0.0711441919311773 
0.0711441919311773 
0.0711441919311773 
0.0001116056942697975 
0.3060599497275153 
0.0006367502600865296 
0.0001530836857679947 
0.03834186889630392 
0.05630721058712047 
0.0001793035053335451 
0.1357008201232854 
0.3156505394584341 
0.005811729509825727 
0.234863319339323 
0.01887316997149852 
0.1154779357011907 
-0.0004390592439047472 
3.880128816082973e-05 
0.1403722776351313 
0.0004024729257416317 
0.0801779780269725 
3.317067361498621e-05 
0.1350371903636586 
3.964072891755107e-05 
0.007427526810554296 
4.843748969146324e-05 
2.547068308968351e-05 
2.665756237687294e-05 
0.01937395939121575 
-0.4126565168096289 
-0.6910925356619186 
0.0002165737411624796 
-0.0003793138923227909 
0.0002704455258787596 
0.0004790454976800772 
0.07761945558743213 
0.003918850202950022 
0.001759964477264035 
0.03511379375336225 
-0.0002726152297279388 
0.0002619207805137684 
0.1147169847385554 
0.0003261584866222799 
-0.6543443036949335 
7.100402864388685e-05 
0.05501040093631042 
0.1263671208013072 
2.663690383596859e-05 
0.004012332322195356 
0.004012332322195356 
0.004106152512162271 
0.0008731928876117151 
0.004012332322195356 
0.02878224131692437 
0.1317019865335132 
9.667630602996213e-06 
0.01434699638619304 
0.05667661152252663 
0.01419141992915025 
-0.00426051399178166 
0.01432997313864149 
0.002103922634582073 
-0.2972586435722337 
-0.002531249906723848 
0.3073716832666901 
0.0003053508079270995 
0.1832882676065747 
0.03746906042068313 
0.06767821718771659 
2.727475407909792e-05 
0.0001140359029219722 
5.665749946202089e-05 
2.727475407909792e-05 
2.727475407909792e-05 
0.009687779672035988 
0.0003029521504891621 
0.0002773347838346545 
0.3400797444688244 
0.0009760419690769755 
0.2370771675091642 
-1.53065131598345e-06 
0.00528171435764649 
0.0005581680983327803 
-0.08004855572114802 
0.08171185451924413 
-2.436979903896746e-05 
0.3645794954007947 
-0.09377578031334234 
0.1063937890507073 
0.3615959237052435 
-0.003589737929116968 
0.09050480563291982 
0.08830120004642757 
0.1390693072644645 
0.08695700552168102 
0.08830120004642757 
0.07145374121060208 
0.1335649792842715 
-0.4619887502924923 
0.05945909055227389 
0.1404021434918662 
0.1404021434918662 
0.3209862716295302 
-0.1719428141577901 
-0.0645908965655702 
0.000412178222520042 
2.041502903845285e-05 
0.07521976554135108 
0.001831564013872302 
-0.5677955851720362 
-0.1174328305439309 
0.1072938843643013 
0.2115346186040237 
0.07407821640150247 
-0.3426136604214256 
0.01836155496844592 
0.01836155496844592 
0.0008533971818360065 
-0.7524195372241635 
0.2454337120034348 
0.2446360601562697 
-0.03428609786861359 
-0.4639186026341626 
0.08072561648201343 
0.08017275451971194 
0.2579023147307351 
0.0004250223954003311 
-0.004203023079465139 
-0.2088844292374257 
-0.004203023079465139 
-0.004203023079465139 
-0.004203023079465139 
0.4370398354781934 
0.1125027841308032 
0.000378584152988596 
0.1690951054314132 
0.0002561860689107167 
-0.001084530059968503 
-0.001084530059968503 
-0.0008984957204661382 
-0.001084530059968503 
0.0818545159469638 
-0.2635708414085145 
0.08183893641473082 
0.106401712706955 
0.3044112618501282 
0.1957673323315928 
0.2609964161317086 
0.0003261584866222799 
0.1090648218126024 
0.1760454529974707 
0.1382044980466209 
0.1568191907306671 
0.002308337134695657 
0.0002884083453242001 
0.07489283340512941 
-0.001755318171893137 
0.0001727143827186242 
7.203423472412846e-05 
0.09055768851339414 
5.448082057177653e-06 
5.448082057177653e-06 
5.448082057177653e-06 
5.448082057177653e-06 
0.000523916988306264 
0.0003432293844739531 
-0.00205357936388688 
-0.0008337036838552592 
0.5841584862163488 
0.0499109419842288 
0.0499109419842288 
-0.4405576824204929 
0.02388434006028185 
0.1032953102170696 
3.612235320610541e-05 
0.0008968013955734985 
0.0001505244270263493 
-1.809094163867848e-05 
0.00124600106526037 
0.12100668287334 
-3.850597067713128e-05 
0.5437463547939257 
0.0002618241586345374 
0.2529011740041848 
0.1748393764854999 
0.001154446843001985 
0.05820351861142586 
4.738787701316454e-05 
4.738787701316454e-05 
4.738787701316454e-05 
0.09071449916507329 
-1.222027897724569 
0.6423678751417702 
0.1912286614163823 
0.1913048200611688 
0.000274301130919432 
0.05047859814291943 
0.1849966150271805 
-0.02024816649959912 
-0.5517965040836258 
0.2804661921275999 
0.03035949806905307 
0.2487000636570263 
0.04394114611711443 
0.0452706262111283 
1.450602530048455e-05 
4.335288137338879e-05 
0.0001354542887424194 
0.07745904241431907 
5.230171061257345e-05 
0.02849050012950012 
0.0001412266753308289 
0.1351740824095982 
0.002907427497989562 
-0.3717315945244005 
0.1226570474346216 
0.01082776799111291 
0.0008460504180796413 
0.0007393843969930646 
1.011272255433144 
0.1063777096320901 
3.398643009484834e-05 
0.02261209209432791 
-0.003506913040031963 
0.0001014166468797213 
0.001479995305078628 
2.216451042173981e-05 
0.3517078868982989 
0.0001991678874812776 
0.1544038994463136 
0.1618498675366884 
0.001108516785171959 
0.005309760107675327 
-1.946898452268857e-05 
0.09306600905012848 
0.12505808204082 
-1.946898452268857e-05 
0.2201852856497581 
0.1933323855154361 
0.03319195628641133 
-0.0003220402307985505 
0.1947984774580629 
-0.1237776978580181 
0.0004194173920257784 
0.05171666962298185 
0.0004260341468819452 
-0.8739211727417717 
0.001207013584543727 
8.557669079752026e-05 
0.2534922200855533 
-0.7450975917160902 
0.004761833764857434 
0.1942006828460364 
2.275044232657572e-05 
0.2092194859976939 
0.005881794823120286 
0.0001616172170087062 
0.006516397418053401 
0.7367119166279664 
0.0110697536397848 
0.04114568173503948 
0.4719376547177294 
0.0003261584866222799 
0.04665368738227844 
0.280922220008763 
-0.6814101869623215 
0.9799741758295261 
0.0007557505468195452 
0.07659846041321788 
0.0009520947689295491 
0.06205102528771803 
0.1229425190436544 
0.002192591752015566 
4.921685722293001e-05 
0.0003117002144338504 
-0.00128225510841291 
-0.0001229159553696764 
0.01390496102708239 
0.01106745867572991 
0.155817220532123 
9.998665228026379e-05 
0.0001230956620723351 
9.998665228026379e-05 
9.998665228026379e-05 
9.998665228026379e-05 
9.998665228026379e-05 
9.998665228026379e-05 
9.998665228026379e-05 
9.998665228026379e-05 
0.01275914916445531 
9.998665228026379e-05 
9.998665228026379e-05 
0.0002897353397720428 
0.1494514312675363 
6.293109555805229e-05 
0.001274626681082002 
0.002540302571603265 
0.002540302571603265 
-0.6630634359128249 
0.002540302571603265 
0.3631762472860751 
0.02184520261417048 
0.0003261584866222799 
-0.009193222637420081 
0.06031238501776864 
0.09520495595162942 
0.000268618688909889 
0.03918419158063453 
0.0389438617655823 
0.0389438617655823 
0.0389438617655823 
0.03896853888098071 
0.0389438617655823 
0.01929447267807988 
0.01717239660994302 
0.01652556277183728 
0.01652556277183728 
0.01652556277183728 
0.01652556277183728 
0.0003261584866222799 
-0.2681934063542367 
0.0004071127924988092 
-0.0008413619972731592 
0.1287293719046347 
0.3100544458063797 
0.06018767341637684 
0.06433973199942179 
0.0003596306048461976 
0.0001385332848478253 
0.001362877461185591 
-0.008550295441516123 
0.0007836902762256979 
-0.001716084644890617 
9.390254483690553e-05 
0.2536253396826672 
0.331516068294902 
0.01727348467390057 
-0.0008309960572512098 
-0.000161750198014233 
0.0002066477122452165 
-0.0004596378322841312 
-0.0004039847124601707 
-0.003352615903156079 
0.0005423015506310728 
-0.0001804506706752629 
0.05220602835272619 
0.0002136323946859768 
0.3093370535606038 
0.3148566212887559 
-0.6098229026577014 
0.2185473853107457 
0.2212905907516376 
0.0004444667726675427 
-0.03943143587974363 
-0.1854132677156682 
0.1044298288225729 
3.190279908287069e-05 
7.080448072292514e-05 
0.5060589906305759 
0.05905579107536379 
0.07135345846073333 
-0.8177314995260123 
0.3987925104605441 
-0.8088470683015373 
0.0002747480824322273 
9.263267724980629e-06 
9.263267724980629e-06 
5.32800105926724e-05 
0.01501072889180053 
0.4622615906245574 
0.03326939264186451 
-0.01008451477914391 
0.06818232552097185 
0.07181852971318063 
0.08907172147341173 
9.580163097668654e-06 
-0.00336436185109472 
9.735199258376919e-05 
0.0007145935685278933 
0.1414168816179897 
1.254148253724808e-05 
0.2098149181988038 
-0.7306240141823012 
-0.6827168654747838 
0.001558099457012123 
0.08649096433247005 
9.558210589213662e-06 
0.4680909279386249 
8.978060445787431e-05 
0.000159521701560232 
0.2215433583316825 
-0.1620367164452941 
4.858179379507634e-05 
0.1907381944155847 
0.05222335229164211 
0.1504734747928927 
0.001676363995171621 
0.001548036253864897 
2.268561086950327e-05 
0.0003261584866222799 
-5.88349524002478e-05 
-2.788756755422675e-05 
0.09633368471039379 
0.1358045024759692 
0.002877857817051345 
0.4167672234905541 
-3.880724534228229e-05 
4.425922495422768e-05 
0.008821905883595941 
0.008635247245344924 
0.1486904228185454 
0.0001231855946163208 
0.04020480502075188 
-0.5560769573307257 
0.1868691245540292 
0.000419597172140068 
0.000348290615792351 
0.01334915225057697 
0.000348290615792351 
0.000348290615792351 
-0.1993979136501141 
-7.953822806083611e-05 
0.3227058068109951 
0.5198660025646138 
0.06881164030146895 
0.05622210776013149 
1.631565072943005e-05 
0.009202645212683337 
0.001414880080455617 
0.2659636441279652 
3.712183893725335e-05 
0.0001707475533584569 
3.712183893725335e-05 
3.712183893725335e-05 
0.001634386891349341 
0.00156417446236134 
0.001505426975554071 
0.001505426975554071 
0.001505426975554071 
0.001505426975554071 
0.09816993020727235 
0.07756645120366464 
0.07741568953294567 
-0.4225610708257756 
0.02585374248661329 
0.006530526877698676 
0.00376951469902515 
0.1036549705898185 
5.86288312998143e-05 
5.86288312998143e-05 
5.86288312998143e-05 
0.3711736716085482 
9.742611683966006e-05 
0.02970798277558945 
0.0005643056645844609 
0.0005643056645844609 
0.0002279430044668116 
0.2903430000589534 
0.253402090675353 
-0.001233966865305679 
0.03885567841786324 
0.07227256525203327 
-0.0006428327857052336 
0.07863620368924003 
2.041502903845285e-05 
0.05799762294966604 
0.003657525044641338 
0.0002122005121131436 
0.001860647226022311 
0.2839192564058645 
0.144181801889175 
4.725045748055468e-05 
0.2058876403770742 
-0.3315077072618458 
-0.7354487236937585 
0.1044006935969539 
0.1257003071797683 
0.1872960549003216 
0.0678566583186318 
0.03546791924745368 
-0.0004755580850222596 
0.01420384490707994 
0.06440697029037135 
1.220241433906372e-05 
0.0002239737515065394 
-0.03291655924119394 
0.1249041958343132 
2.041502903845285e-05 
2.041502903845285e-05 
-1.207636192118724 
0.02759042772897873 
0.1467922602741779 
-0.2354376414284035 
0.1841989663671393 
0.06364720041215285 
2.041502903845285e-05 
0.0001126051078313789 
0.0001189078364845162 
0.001261370200991065 
0.0002474715731722294 
-0.0002054756569982515 
0.05818356463050421 
0.01082790924865832 
0.07199041691581995 
2.041502903845285e-05 
0.08616388193126824 
0.2242767202363385 
-9.226324364992773e-05 
0.1783612006147086 
2.041502903845285e-05 
6.987264221491344e-05 
-0.3510704079271811 
0.1381788820687281 
0.2027486475899255 
0.0003293429635068008 
0.07810103487447952 
0.2529846997613062 
3.101169132215469e-05 
0.001457432658234791 
0.5296949586411897 
0.03651905881679464 
0.1577658843495161 
0.1479536839648427 
0.07154309365183235 
-0.1763510842216489 
0.002031228389326784 
7.010526676751595e-05 
0.1533794700922793 
0.04575256403203189 
0.004053069119502843 
0.3705236602169399 
-0.04293266945291355 
0.0002298114650394692 
0.001836451802720962 
-0.0009082098708125218 
0.2911619051782013 
0.3122252614055733 
0.08405910138631682 
-0.005657072628358625 
6.642466257971151e-05 
4.8290585947786e-05 
0.000114858465256927 
-0.5906884840968519 
-0.6136889874476141 
-0.4311863978515134 
0.07582909922839924 
0.05819432693915676 
0.0003629567232578001 
0.5916569025923525 
0.0003587536426608735 
2.337207239002008e-05 
2.337207239002008e-05 
0.001799516469303695 
-0.4031566170450477 
-5.453174537591724e-07 
-5.453174537591724e-07 
-5.453174537591724e-07 
-5.453174537591724e-07 
0.0002407201601928846 
0.03366712414736308 
0.0008922175624244172 
0.1833919979500032 
0.1402340766292128 
0.1530843052939227 
0.005890887869123201 
-0.00353534242190745 
0.06622002595500288 
0.0005721597431545709 
0.2770142282573053 
4.283078426427263e-05 
4.283078426427263e-05 
4.283078426427263e-05 
4.283078426427263e-05 
4.283078426427263e-05 
4.283078426427263e-05 
4.283078426427263e-05 
4.283078426427263e-05 
4.283078426427263e-05 
4.283078426427263e-05 
0.04113771895418664 
-1.614107812321893 
0.01508908009364348 
0.0004402976752814877 
9.373207308705708e-05 
-0.2277533098641281 
0.05632704787061581 
0.07782079306252845 
0.3834042429287042 
0.1334208445604295 
3.12650280217939e-05 
0.0001359652853604196 
0.00165695552427621 
0.000117576639293819 
0.009025628835393415 
9.924042400150477e-05 
-0.0003339903010269782 
-0.5266448140855171 
0.1066469477488367 
0.1220852991892657 
0.3960111551388994 
0.0002762737176523128 
7.704607812614591e-05 
7.704607812614591e-05 
0.0002508981807273305 
0.02475633113586512 
0.0001698472509509469 
0.0003083710843317245 
0.0009153935250938911 
0.004648209988103662 
-4.601467955469486e-05 
0.0005044413501624627 
0.0001885665730206468 
0.002999608187499867 
0.0009070135949462549 
0.05974644201283782 
0.0001906801223718657 
0.1201978100844758 
0.0313990695066644 
7.891739064875402e-05 
7.891739064875402e-05 
0.06953767573087041 
0.06917918385288123 
0.06917918385288123 
0.0003261584866222799 
0.001219826671467243 
0.01008294828730826 
0.001219826671467243 
0.005761166825045275 
0.1318817413690063 
0.09849624424827561 
7.616698664511717e-05 
0.004636523537795234 
0.004639456601430574 
0.0003572539669851021 
0.1863891537316193 
2.041502903845285e-05 
0.0008113130037163424 
0.0934815527489955 
0.279968940167306 
3.370008582848537e-06 
0.000314296060011717 
0.0002285441457072845 
0.0002285441457072845 
0.0002300643713457897 
0.04157324516577852 
0.09432463811093386 
0.317550626200473 
2.041502903845285e-05 
-0.0005900800823082851 
-0.0005900800823082851 
-0.0005900800823082851 
-0.1114531389533042 
-0.0005900800823082851 
-0.0005900800823082851 
-0.0005900800823082851 
-0.0005900800823082851 
-0.0005900800823082851 
0.1614204369214266 
0.0001445486543948691 
0.2437779566420906 
-0.004822590001619381 
0.0003546911771000038 
1.991986490532639e-05 
0.01641227767634975 
0.0003261584866222799 
8.930173651065591e-05 
8.741245261850945e-06 
9.926695503936443e-05 
-0.3728611425076751 
0.0002398478878369757 
0.0002479671944153033 
0.0001493652584492241 
0.0001493652584492241 
0.001243751938388556 
-0.009536195273079202 
-0.1412306133070938 
0.001316707324353021 
0.0198388608779719 
0.0004095299544759733 
-0.4810241198376213 
0.09419589103082347 
0.09388545944913619 
0.0007405500890633558 
0.1075405266735088 
0.2231293968393819 
-0.0007145455645748124 
-9.623786964965366e-05 
0.07887630335978685 
0.1570072260232894 
0.0002303775789351162 
0.07144048043561187 
0.0199138127041391 
0.000127452840864977 
0.150638997542993 
0.03925475891608561 
0.0401301298160455 
0.0003256773280313492 
0.2040347952294161 
0.002947497708439997 
9.665625017679001e-05 
0.2332835888864636 
0.3205097292331691 
0.1544277343062345 
0.0211100680121775 
0.0003594680321406747 
0.0001638331841940654 
0.06915472299446583 
0.07870448948937296 
0.0006688108062799859 
-0.0006735921035470906 
0.000273956972846289 
0.0001404318303576207 
8.6119973222329e-05 
-0.3870197343891826 
-0.2769442096349837 
-0.9457902614690907 
-0.8923516517078802 
-0.248071478897735 
-4.86090313948456e-05 
0.005241391985947716 
0.2806646729349321 
0.0001039921307073593 
8.923401933743223e-05 
0.07127647119528327 
0.07127647119528327 
0.2231095185974899 
-0.7638446616228773 
0.07136780008788725 
-0.8183957207769966 
0.03297080365317481 
3.532713437014141e-05 
0.0008543279184027822 
0.0003577329941482983 
0.08948037548702774 
-0.0009843053835147351 
0.2151335002833922 
0.002285046233669254 
-4.917413225639615e-05 
0.08615446851027149 
0.0007500790592775307 
0.0002834721325484539 
0.008956054002415996 
0.006569669506887074 
0.4531680023041754 
3.724583306805258e-05 
3.724583306805258e-05 
9.662914909163712e-05 
0.0001037681876238511 
0.4324311858513843 
0.08816297796878857 
0.3247589384809531 
0.0001019107067916281 
0.02467153397524632 
-0.0001757177355049302 
0.003263800821292511 
0.0329709484113268 
0.02692407079125093 
0.07690187890580565 
5.047714817489109e-06 
0.0002211431488726619 
0.0008982612776919246 
-0.3418969225942053 
0.0004148064500877932 
0.0001699717498285137 
8.001104188963049e-05 
0.0005625212198367657 
0.1416094947305005 
0.1410150449654398 
0.0003261584866222799 
5.839984744186124e-05 
0.01665746354540769 
0.002318658086835717 
-0.0004494606786190291 
0.04035046374584019 
0.0005838705773661032 
0.09658083404331508 
0.0003261584866222799 
0.0434801883229747 
0.04504248753397429 
-0.6501079935289709 
0.002480503654328392 
0.003317669323842169 
0.002774011490654014 
0.04103161027440525 
0.1487033171080436 
0.001425327816748546 
0.008849942468068106 
0.1890161345402347 
0.1890161345402347 
-0.003730343814488796 
8.520017571619451e-05 
8.520017571619451e-05 
0.09821093725021449 
0.09821093725021449 
0.09821093725021449 
0.1284144794999011 
0.1522898115623398 
0.0005625212198367657 
0.2717144619718898 
0.0001604482570481939 
0.0001604482570481939 
0.0003242180024327905 
1.537767885503958e-05 
-1.342799433934053 
0.07902154147424985 
-0.2426470622101378 
2.038820196587201e-05 
-0.5031332796275905 
0.0006712676171193334 
-0.000501867048587934 
0.1515894549940587 
-0.0002002119833641456 
0.01763921874524214 
2.041502903845285e-05 
2.041502903845285e-05 
0.03024085145811596 
-0.5042970325388072 
-0.001983382022740794 
-0.3588134716808488 
0.03664928152328299 
-0.5042970325388072 
0.004129266179928896 
0.004542335032264139 
0.004038072686511966 
0.004038072686511966 
0.00459906541950137 
0.0003610928624587892 
0.04064582709617558 
0.04064582709617558 
0.04064582709617558 
0.1258797910786515 
0.05117421034321561 
-0.1558978426399119 
1.332941139057497e-06 
0.002567888092176604 
0.03315664473020798 
0.0001388003674303921 
0.003576709521938559 
0.1151894932779573 
0.06528830045613847 
-0.2455927876610514 
-0.0007062159079448143 
-0.0005002077630871133 
0.0001073455435622563 
0.0001073455435622563 
0.1894999934828906 
0.00753103999694508 
0.0002593311697951398 
0.0001073455435622563 
0.5371607251816206 
0.0001130545091527275 
0.2070837370982661 
0.119820785032002 
2.753516671101119e-05 
6.718327705366585e-05 
6.146306161643928e-05 
3.675801793413432e-05 
0.001231150572214279 
0.001912860750054361 
0.1124403746767757 
0.0001680076493785266 
2.041502903845285e-05 
2.041502903845285e-05 
0.00283510065994224 
2.041502903845285e-05 
2.041502903845285e-05 
0.03283171026511433 
2.041502903845285e-05 
4.000090029372546e-05 
0.2873582884367969 
-0.3469198187510801 
0.003716941246544141 
-0.6017501513027625 
-0.2650023508935758 
-1.686335485068245e-05 
1.538264623504914e-05 
1.631052085950713e-05 
1.631052085950713e-05 
0.6882695530249681 
0.0008078716429964965 
0.1865712156233624 
0.1876920963895251 
0.0002812606099183829 
0.0002812606099183829 
-0.586236190742224 
4.524920422989457e-05 
0.1433789321578199 
0.09466177332558076 
9.512736156766716e-05 
0.4463832249975583 
0.000218802390031824 
0.001804457749852853 
0.08432915971131677 
0.0005056545112256687 
5.392244055416664e-05 
0.0005009202193744235 
0.2820179721735081 
8.93469167304072e-05 
0.1651912588641876 
7.980524169523991e-05 
0.125408213878078 
-0.002538459343546204 
-7.050943875157125e-05 
0.01987598387446704 
4.249924396222681e-06 
0.0003261584866222799 
0.3758468632170097 
0.001881983450568988 
0.1439745767417846 
0.0001260931816713065 
0.156609318410275 
0.1566980293471761 
0.1572850439138538 
-0.5322342407612767 
0.003317003727677808 
0.03238790638937077 
0.004056539184466985 
0.003317003727677808 
0.0004630934002727138 
0.03601108024574677 
0.05414957472499271 
4.398329683650771e-05 
0.06792950052559128 
0.171333248448269 
2.583220046910571e-05 
0.08595290834445965 
2.041502903845285e-05 
0.009647579062414353 
1.313549525353677e-05 
0.08263889620377149 
0.2641592001038257 
0.07740850721674701 
0.07597731418688146 
0.07597731418688146 
0.05528382656700669 
0.173896442394561 
0.08448781875481629 
0.07157703832667281 
0.1683701350105476 
0.0003817856842953776 
0.0003817856842953776 
0.0003817856842953776 
0.0003817856842953776 
0.3859963279043297 
0.005902896409393514 
0.1004143241073998 
0.08506180590313056 
0.1464717498049951 
0.1528281600005982 
0.2345176931605283 
0.0002420545158762734 
0.08696710650515219 
-0.1273477937404619 
0.3880240034811145 
0.1030045463198285 
0.3238936759041655 
0.000852982838826794 
0.0006507450641748393 
0.0006507450641748393 
0.6690871601370695 
0.0006507450641748393 
-0.003060473833807071 
6.670401254478092e-05 
6.670401254478092e-05 
0.07807226681790386 
0.0002358446830809278 
0.1650604974350878 
0.0005274498248939263 
0.2563311379726454 
0.0003744747155202407 
0.0008282596463159396 
0.001313053835344835 
0.0804149764925447 
0.009955609336518442 
0.1038551567110481 
0.0002372616453171735 
0.0002372616453171735 
0.0002589967763893 
6.836236062633177e-05 
0.3549328090498491 
0.002002312332627851 
0.2816451225123005 
0.0002634156452289943 
0.001288045034445231 
0.001016616571065117 
0.001259076483008445 
0.006371838687104606 
5.640390360235736e-05 
0.1390675264797705 
0.0002243518204184918 
0.03751140039105286 
4.680153104251126e-05 
0.005831927097498114 
0.06490998045138209 
3.377044214415906e-05 
0.0001719131635948226 
0.0003178499982384208 
0.01170932125638675 
0.03369788252765979 
0.000297475948569513 
0.5990904594402658 
-0.009216840719432639 
0.03183520221890216 
0.05218737643081323 
0.1341652131216121 
0.06155156011900226 
0.0001427005980097499 
0.0001345463711423338 
0.0001345463711423338 
0.0001345463711423338 
0.0001345463711423338 
0.0001345463711423338 
0.0001345463711423338 
0.273838113010842 
-0.003684163477996633 
0.03016723996203768 
2.041502903845285e-05 
0.2110874081475579 
-2.240848174902576e-05 
-2.240848174902576e-05 
0.4508347423254894 
0.4508347423254894 
-0.0002854714400385651 
0.002775009595122366 
-0.561586260242151 
0.397311907423638 
0.02111301476035001 
7.51106508075534e-05 
0.0001373989681144068 
0.0002718109172781289 
0.0001563138483353979 
0.05110337622994865 
0.001666155617901197 
0.1789978638962491 
0.09116389451426096 
-0.1467344360269153 
-1.526320037696034 
0.02283974295363231 
0.0003261584866222799 
0.03335111779402358 
0.002769501121113164 
0.05684270057667206 
-6.140566355497164e-05 
0.001837036889282581 
0.001837036889282581 
-0.1787624179123926 
0.5477938833641051 
-9.462644329776102e-05 
0.00123659348034859 
0.001684098474875106 
0.0001289542881020592 
-0.3936098752490171 
0.1556068847263484 
-0.9196049265475834 
0.07486023305629354 
9.755051086501259e-06 
0.0004817336563321872 
3.735213327173226e-05 
0.001376567374989888 
6.673406254521297e-05 
6.673406254521297e-05 
0.03649600817329586 
0.001109563394974828 
0.007455919553562495 
0.05977596618860596 
0.03308555704143142 
0.04991209942574432 
0.04991209942574432 
0.1133863848928016 
0.01108710448131436 
0.000153426045242271 
0.02506211887418118 
3.93353824973886e-05 
-0.4227618312905049 
-0.0006713620457554956 
0.1561636348946385 
0.0001350852449483309 
0.1952525530785477 
0.001738977748298166 
4.522952889122642e-05 
0.4038854727948397 
0.0001108100480264313 
0.0001108100480264313 
0.1003350199822958 
0.008138879892840709 
0.04480864631715859 
0.0006316579328266289 
0.0196515956415689 
0.01942680450841913 
0.0196515956415689 
-3.45542216512655e-05 
-0.001637725085128157 
0.01337766274411563 
-0.001174977233275099 
0.0991084386376991 
0.0004499025596533076 
0.08384874101147965 
0.0002812606099183829 
0.0002812606099183829 
0.1837935425049648 
0.0001105579339872691 
0.0001105579339872691 
-0.00500008072125736 
0.2449551586990914 
0.07526235135389199 
-0.2214474801995548 
-0.2859352274182663 
-0.5683635634865006 
0.07667145862242397 
0.024781935337927 
-0.0006005106195703104 
0.04943955401286403 
9.832265614110514e-05 
9.832265614110514e-05 
0.0001955142049394909 
9.832265614110514e-05 
9.832265614110514e-05 
9.832265614110514e-05 
9.832265614110514e-05 
0.007065307257594739 
-0.3970542074968991 
0.1105728682479586 
0.09740238384046347 
0.0002475267632062863 
-3.629751088707131e-06 
0.1365186058215627 
0.08356603828164301 
0.006439906638356661 
0.006439906638356661 
0.006203628807146921 
0.006087871593855442 
0.006439906638356661 
0.0002091098773567981 
0.2406345918406581 
0.1948933958274446 
0.0001883384105940026 
-0.0001255359104416249 
0.004328551123399582 
0.0002089706778589432 
0.0005954727270696836 
0.0001812953634308482 
0.0002017103924693011 
0.1036341272549688 
0.03843840753834065 
-0.002552342903387047 
0.0001101011901478171 
0.001812042911491929 
-0.4390535248466155 
0.2707335954664084 
0.09734362787843562 
-0.002046286771859786 
-0.002046286771859786 
-0.002046286771859786 
-0.002046286771859786 
0.0400389867446806 
0.1372824617821185 
-0.01089692884377608 
0.001360407949694909 
0.0007546618040054964 
0.001576806746441941 
7.134707430780796e-05 
0.006389826214961584 
0.601378702426172 
1.790800801344077e-05 
-0.002029316109518097 
0.04382300481098263 
0.04382300481098263 
0.04382300481098263 
0.04382300481098263 
0.04382300481098263 
0.04382300481098263 
0.04382300481098263 
0.04382300481098263 
0.04393850187992535 
0.0002115312384897486 
3.677803551776384e-05 
3.677803551776384e-05 
0.0001290226103478787 
0.0007211454496879983 
0.0009690281888665314 
-0.001365444413042559 
0.3172000797564645 
4.162026947851713e-05 
0.000442346401349591 
0.000677069048657249 
0.0002888122543640829 
0.0001963717015007321 
0.03220532980371942 
0.1108762983707047 
-0.2807565610287077 
0.3541862275962014 
0.2089487303849092 
0.002856442573709996 
0.1016479259725395 
0.2266406844409915 
0.001431901307564896 
0.1332668139384225 
0.0003924596820158477 
2.041502903845285e-05 
0.0001631670738528421 
0.0001058968269427981 
8.821567102107481e-05 
0.1508437099871253 
0.1547231357401062 
0.0006093404311023484 
0.0008239327565038039 
0.3848575449928563 
7.899360896449468e-05 
7.899360896449468e-05 
0.2261668661500217 
0.0008346604642479037 
0.006283712113171146 
0.0002772130839328339 
5.928167556481831e-05 
0.002954765354167147 
5.784518441875547e-05 
0.2087869432180576 
0.0004644929385277312 
0.04760237322844722 
0.07337324902298856 
0.03925102172652005 
0.0001556485168238083 
0.07799560153538648 
0.002381447045813512 
0.06980433933507009 
0.0001132608922053115 
0.6767151875029073 
0.0005161831967485858 
0.08592595959576729 
0.08592595959576729 
0.08602786049368537 
0.08592595959576729 
0.2504576651127455 
0.1027167337011555 
-0.0001149060294399555 
-0.002294931276792771 
2.041502903845285e-05 
0.02711677877416147 
5.538290188825354e-05 
3.289624113052496e-05 
3.289624113052496e-05 
3.289624113052496e-05 
3.289624113052496e-05 
3.289624113052496e-05 
0.0001452686222776639 
0.0002417699589814543 
0.0009160071135525672 
0.05402576282467107 
0.007156617650756262 
0.0001600563632332373 
0.09037493096411665 
0.1114135710888151 
-0.0007729944580504261 
0.009020962787729009 
0.4842911688784551 
0.003801787505640576 
0.0001823316996228479 
-6.766218372702194e-06 
0.000363251873339481 
0.2522064749168563 
0.4322088430193728 
6.033875585819527e-05 
6.033875585819527e-05 
6.033875585819527e-05 
0.05541729910262738 
0.05937886139603839 
0.05550482633485358 
0.01677977076085193 
0.04506217237804522 
0.0004190242117998266 
0.002066557922400731 
0.007989219082281982 
-0.01800723711428264 
0.00120939990698046 
8.530571456832882e-05 
8.530571456832882e-05 
0.0009826733501393094 
0.2983792446582629 
6.539475665527869e-05 
6.539475665527869e-05 
6.539475665527869e-05 
6.539475665527869e-05 
0.0003137139204342361 
0.004290890454239447 
-0.7381163752256321 
0.05920931230774375 
0.1725170140846225 
6.331094838478477e-05 
6.331094838478477e-05 
6.331094838478477e-05 
6.331094838478477e-05 
-0.03458550544802683 
0.0001672600613248697 
-0.2496998047909239 
0.331349760328297 
0.1367414311337481 
0.000216995647490524 
0.0001289599157952733 
0.0001289599157952733 
-0.161364614111776 
0.05584344162253872 
0.02426057941923672 
2.041502903845285e-05 
0.02144604045970073 
0.0002610878594951085 
0.0001832554564792033 
0.0001832554564792033 
0.0001832554564792033 
0.06012779633859682 
-9.01247052891253e-05 
0.2820740117565722 
0.4786181647698534 
0.001530222750799203 
0.006854848495146572 
0.03228952548841253 
0.0001987105112335747 
2.403109812752292e-05 
2.403109812752292e-05 
5.216921027700665e-05 
0.0001775432808533844 
0.0005271356760680444 
-0.02279304593677483 
2.995150167848478e-05 
2.995150167848478e-05 
2.995150167848478e-05 
0.1855319294803083 
-0.0001112484175006746 
3.298832802563384e-05 
3.298832802563384e-05 
3.298832802563384e-05 
3.298832802563384e-05 
0.0001107301811931204 
0.0001037563793113718 
-0.05354145728727179 
0.0001037563793113718 
0.0001037563793113718 
0.0001037563793113718 
1.881487041786922e-05 
-0.3529476607286599 
-1.203122035649805 
0.2190607158129133 
0.2192375019417569 
0.2190046783476456 
0.2189684858412517 
-0.08659163919791886 
0.06600867724899162 
0.01401949920696634 
0.01459473883870655 
0.01401949920696634 
0.01401949920696634 
0.01401949920696634 
-0.6414158092963699 
0.03472902158709618 
0.1729844498671838 
-4.194062993291407e-06 
-0.001090991891698234 
0.007626420497391848 
0.001393096363554846 
1.55580185199269e-05 
0.0008272155811816874 
0.0003261584866222799 
0.08772638867208433 
0.0003816536397372854 
0.0001115033794049518 
0.0001020113954858451 
0.0002336289071989313 
0.002044206522232119 
-1.828999739615448e-05 
0.2661178346620512 
0.1320713826142635 
0.001458899163678177 
0.1842355323783195 
0.001390123759749849 
0.001390123759749849 
0.3414630382893205 
0.01876361170372731 
0.0003261584866222799 
-0.001279692370254765 
2.882706244957223e-05 
0.2398089434035557 
-3.254366267510656e-05 
-3.254366267510656e-05 
0.01975551496572522 
0.01521652462152456 
-0.003436468912858037 
-0.003387907299408468 
-0.003387907299408468 
-0.003387907299408468 
0.001740897228038408 
-0.002960504900828395 
0.001678276304226236 
0.07294700218051006 
0.07271819486735989 
0.07271819486735989 
-0.007899439030172838 
0.0003271048713166533 
0.0323180321064323 
0.0002204085071490066 
0.1797283613821676 
0.0002527296567462088 
-2.01262309076866e-05 
0.005364460739286036 
0.005364460739286036 
-0.5401308495946341 
-0.5868447345184917 
0.0007096680667098143 
-0.0002548295709791223 
0.004930606179977715 
0.002390850128313904 
0.002390850128313904 
0.002422892689531111 
-0.0002976367435890371 
-2.914073324619352e-05 
0.12742783586725 
0.001864077331254015 
0.0001015218391373504 
1.603949860357968e-05 
1.603949860357968e-05 
0.3278602899807511 
0.0359609191695805 
0.001444252459102145 
9.331630701091968e-05 
9.331630701091968e-05 
-0.002646668322372106 
0.0001546610606839335 
-0.4964998845268901 
0.0003068771350708538 
3.0244472829934e-05 
3.0244472829934e-05 
0.0001558110976249412 
0.001067627586876088 
0.0001117907383857172 
0.05620660437529623 
0.04376272826688954 
0.000386838500356161 
0.1154970214296153 
-0.4313381043362773 
0.2082728348609455 
0.2327745137317634 
0.06044962772031888 
0.0005311874372173651 
-2.957405136881669e-05 
6.131239102702433e-05 
-5.720215437226697e-06 
0.0007697335061321643 
0.07224991986047823 
0.0241931062806518 
0.001698018312527273 
0.0004355290334761393 
0.1209706113203905 
0.04011833919004772 
0.1052243923277149 
0.1310051993776016 
0.1052243923277149 
0.0001540067720134224 
-0.0002637435587347755 
0.008619850839756877 
0.006568266777817783 
0.1279672566302872 
-8.059419802996495e-05 
0.1124060257664561 
0.001440599564018212 
0.0007286821653289049 
0.004125939486217044 
0.001289766755334856 
0.001177885906945344 
0.001177885906945344 
0.001177885906945344 
0.001305769984573484 
0.001177885906945344 
0.02414286190013095 
0.001177885906945344 
0.0005320677204851566 
0.06225950001306745 
0.1575122580140884 
0.00159483129671961 
0.0003261584866222799 
1.787618232531099e-05 
0.04880978243999023 
0.01080918337815845 
0.0006935877497821489 
-0.003373280208969367 
-0.003373280208969367 
8.82804064293999e-05 
8.82804064293999e-05 
8.82804064293999e-05 
8.82804064293999e-05 
0.0002007933967294374 
-7.088494771865573e-05 
-0.001167090097056367 
0.0002433742174388341 
0.04921608451431571 
0.1019978073302768 
0.03967789377351293 
0.4008828051629407 
0.0003142644830135106 
0.000134195425078085 
0.2345287564594025 
0.000134195425078085 
0.05903107102951269 
0.1059943038562422 
0.01220826441913522 
0.01445381816997921 
8.074135186075777e-05 
1.176877572844781e-05 
1.176877572844781e-05 
1.176877572844781e-05 
-3.828452928514043e-05 
0.0001717199519507541 
-0.3367442366355433 
2.041502903845285e-05 
0.03159883401922271 
3.308551403920556e-05 
3.308551403920556e-05 
3.308551403920556e-05 
3.308551403920556e-05 
3.308551403920556e-05 
0.1369731617295151 
0.0001019221857125698 
0.0001019221857125698 
0.0001019221857125698 
0.0001019221857125698 
0.0001019221857125698 
0.0001019221857125698 
5.97008679170599e-05 
0.011798058773683 
-0.003034293218939448 
0.001115371024655611 
0.0001665971663061269 
-0.09112499527745592 
4.404650447437799e-05 
0.02524754076869768 
4.404650447437799e-05 
0.1321911167399949 
-0.2214476638989453 
0.2528827983381811 
-0.4135453864490015 
-0.0003208494261595493 
8.16601161538114e-05 
0.03225653162550794 
0.0002400403117983793 
-0.000424444239902639 
-0.000424444239902639 
0.0001293563313676887 
0.0001293563313676887 
0.0001414000019734791 
0.0001293563313676887 
-0.000394823547339118 
-0.01582565165189625 
-3.618774021933103e-05 
0.02738235795117041 
0.1021030673995909 
2.041502903845285e-05 
6.87296629283697e-05 
0.03257084467049389 
0.03238721261094826 
-0.435221337699316 
0.03229967166411082 
0.03258185149829458 
0.07538560391675692 
0.002229910986445222 
0.008171989723323277 
0.5390390578637605 
0.2646495065311989 
2.041502903845285e-05 
2.041502903845285e-05 
0.0003891247405441494 
-0.8191889388689929 
0.0005083716904218102 
0.0986331785131455 
5.762801510778095e-05 
5.762801510778095e-05 
5.762801510778095e-05 
0.0007411683844878689 
0.003991241185778814 
5.584654550525232e-05 
5.584654550525232e-05 
5.584654550525232e-05 
5.584654550525232e-05 
0.1157061340943104 
0.0001009151740298723 
2.041502903845285e-05 
0.2483154279988226 
0.3040772642785873 
9.664785975888531e-05 
0.03133270156857261 
-0.0005568753505013832 
-0.0916942512166935 
0.0127589153283994 
0.2281295315213163 
0.001015127228911309 
0.001822866552216658 
0.001553144083311498 
0.001553144083311498 
0.001553144083311498 
7.343815179098863e-05 
-0.9919945237753323 
0.000201789503180883 
0.1156712392874302 
-1.733990752974957e-05 
4.38858108694589e-05 
4.38858108694589e-05 
5.643651062438734e-05 
4.38858108694589e-05 
0.07300002386293213 
0.0350546879782959 
7.911018163728909e-05 
5.275267494191054e-05 
0.03898515663060993 
5.153465135851258e-05 
0.001050468511746886 
0.001050468511746886 
3.49460420320639e-05 
0.008201584166610341 
0.002772733990473552 
0.0001243065714309904 
0.0001243065714309904 
0.0001243065714309904 
0.0001243065714309904 
0.0001243065714309904 
0.01017750104349236 
0.0200660665391907 
0.0007439799848148293 
-0.008363777269382569 
-0.008163876413876468 
-0.009874561976500978 
0.02823135797460583 
0.00494436113664437 
0.04624479249251144 
0.00494436113664437 
0.09182108209897311 
0.09182108209897311 
0.211980089101916 
2.041502903845285e-05 
0.108405200105865 
2.041502903845285e-05 
4.735571102386051e-05 
2.996589963054624e-05 
0.3661774871258013 
-0.7141583562651992 
0.001343753844193185 
0.003435358111364748 
8.488512275125985e-05 
8.488512275125985e-05 
8.488512275125985e-05 
8.488512275125985e-05 
8.488512275125985e-05 
8.488512275125985e-05 
8.488512275125985e-05 
8.488512275125985e-05 
8.55834125234856e-05 
2.041502903845285e-05 
0.007781996086083518 
0.000495328477037438 
0.132917864581506 
0.1327160178793545 
0.1326661454020232 
0.1335919797123608 
0.1326661454020232 
0.01501597577001672 
0.0001070626906817706 
0.0003261584866222799 
0.0001089973849756372 
0.01682589301062727 
0.0001089973849756372 
0.0001089973849756372 
0.0001089973849756372 
0.0001089973849756372 
0.0001089973849756372 
0.05987872245276773 
0.0002202089472533973 
0.0001759307289712876 
0.02762296325638959 
-0.5751178834054669 
7.403933850839424e-05 
0.0003261584866222799 
0.07734468148004403 
0.0002117672056098059 
0.07649998459728602 
0.0828969809422868 
0.03369177468912958 
0.0002812606099183829 
0.0002812606099183829 
0.0004259994991317651 
2.922519182792321e-05 
1.036412852546347e-05 
0.1304831207744314 
0.2952681067084231 
0.0001527201541824542 
0.05518087097667358 
3.766949997244934e-05 
0.0003352759518548403 
0.01336224737641607 
0.001876236637661736 
0.001876236637661736 
0.0531636015148273 
0.001119402618060637 
0.2233164287951755 
-0.006955507866250364 
0.0002654479974321247 
0.0233035852556918 
0.0003270651526517129 
0.0002401343188014399 
-0.3353255524109314 
0.0007920160537195076 
3.735213327173226e-05 
0.2150533949888279 
0.04167595749577505 
0.0006256443044132764 
7.198100859497892e-05 
0.09523025850460744 
0.09523025850460744 
0.0002951372497230981 
0.000759455796719509 
0.004923104924422054 
0.1082624774336692 
0.1082624774336692 
0.0001197359325819109 
0.08399565147040541 
0.0003934383440455844 
0.0003772644532022494 
0.0003908222474421075 
0.000288921349524033 
0.000288921349524033 
0.04035368022414853 
0.001217503471250394 
-0.0004116267792637448 
0.0003897767371132792 
0.5122379114571252 
-0.008816748300696394 
0.04259860942251604 
0.2506613253685949 
0.001349008393048152 
-0.009450912292866135 
0.002583884919692271 
1.796101628721572e-05 
0.0001912956254633439 
0.177586237130477 
0.0001912956254633439 
2.805035217374368e-05 
0.09844697009073908 
0.09844697009073908 
0.0003259908790091816 
0.0002229591884003811 
0.1507285680133437 
0.0003261584866222799 
0.0003261584866222799 
6.703260646425137e-05 
6.703260646425137e-05 
-0.8628819757946042 
0.6300877651372098 
-0.0003090045763819892 
0.00043625420179454 
0.1133154544307807 
0.05809415471821379 
0.0001040737447887777 
0.0001040737447887777 
-0.3560655520038148 
0.1814327524728336 
0.001012255049458781 
0.0008520091731655959 
0.0001562602934278379 
-0.0001197663579424855 
-0.0001197663579424855 
0.0003261584866222799 
0.2796012157663487 
0.2791319292201269 
0.06094599362636185 
0.3757644550354963 
-0.003263025644981177 
0.0002693368446583587 
0.001257111339814866 
6.216876929017134e-05 
0.2317181940628799 
-1.154658223574159 
0.004288716365842694 
0.007157155236528694 
0.0001615346340198025 
0.0002124144448562229 
-0.1539093899501358 
-0.001607537975054398 
0.05947476830803401 
0.05637274695985336 
0.0001624666187131187 
0.1527000916528694 
0.01142173202435645 
0.0003261584866222799 
0.000111307588667269 
0.2600791800623296 
0.002806674750444317 
9.218890826152338e-05 
2.813811214948373e-05 
0.0003404523109780519 
-0.5843346566169626 
9.161610415298792e-05 
9.161610415298792e-05 
0.0001837842352335756 
0.0001837842352335756 
0.0001837842352335756 
0.0001837842352335756 
9.161610415298792e-05 
9.776467635816561e-05 
0.0001118177746184916 
0.0001376837705421377 
0.0003601849247508761 
0.0003601849247508761 
0.0003601849247508761 
0.2027805224621585 
-0.004126248204639795 
6.761064804337196e-05 
6.761064804337196e-05 
6.761064804337196e-05 
6.761064804337196e-05 
6.761064804337196e-05 
6.761064804337196e-05 
0.4030639151749941 
0.0001225955301412625 
0.0001225955301412625 
0.0005226881936780125 
0.0005180276119467063 
0.1372144356885069 
0.1249286476987643 
-5.512766071500511e-06 
0.0515608213709165 
-0.00177710276319998 
0.001425915542997217 
-0.001385021311567502 
0.004125910909258593 
0.382669445530411 
0.1722953018457681 
0.0001293930926023183 
0.0001908312891527507 
0.00386268545637893 
0.0003385627914222094 
-0.01828727588703427 
0.000240381816562666 
0.000240381816562666 
0.000240381816562666 
-0.002514367839683847 
0.0002507056131652461 
0.0002507056131652461 
0.0003261584866222799 
0.0003017912045655424 
0.001579301985974736 
0.2000752075463802 
0.0007675079755335787 
-0.003314270360264679 
0.0003936993704757029 
0.0002529373388313116 
0.0001019008979180746 
4.05441085920445e-05 
4.05441085920445e-05 
4.05441085920445e-05 
-0.0003260226657270444 
-5.815928116536588e-05 
0.002217351824162362 
0.002591914384084184 
0.04910654320570311 
0.3345647565775912 
5.970782082186396e-05 
0.1409028447205342 
0.0003261584866222799 
0.03426847181181622 
0.03426847181181622 
0.03426847181181622 
0.03426847181181622 
0.03426847181181622 
0.02045771572279879 
0.02045476698985202 
0.0372947040048009 
0.0003261584866222799 
0.2052165284249984 
0.1518331469969193 
0.0009769899538827986 
0.001474544588366128 
0.0001090205712991754 
9.818617400511262e-05 
0.0003261584866222799 
0.001647491650472194 
0.4664443004477735 
0.01511164333632681 
-0.01012860106962296 
0.0001962444196408324 
0.0001962444196408324 
0.0002264567984519245 
0.0002264567984519245 
0.0002264567984519245 
0.0002264567984519245 
0.1085359797152617 
0.0009010609326959799 
0.1825420519188136 
0.0001390421082708306 
0.0001390421082708306 
0.1650075335797089 
0.07635655175088148 
0.01108863926267225 
0.01108863926267225 
0.0002209043378321709 
0.0008283824726566691 
3.169281952339629e-05 
4.019097809213091e-05 
4.019097809213091e-05 
0.06389435456826863 
0.09777874589233576 
0.09777874589233576 
0.1046556337959455 
0.1046556337959455 
-0.001500432081788662 
0.4278643980541016 
0.09313922753968107 
0.001433475908535838 
0.001433475908535838 
0.001433475908535838 
2.264803303364759e-05 
0.02660180937727556 
0.02660180937727556 
0.01521437645177593 
0.0001230933062465186 
0.0001761652089390871 
-0.002203728509687619 
3.436101541934229e-05 
0.004545576765867984 
2.344848368321488e-05 
0.0002412227545023404 
0.1814355768567756 
9.752650793345946e-06 
0.3879849706216572 
0.0003000426563328293 
0.05498351273807274 
0.0003261584866222799 
0.1503803795390779 
0.0003562103785224435 
0.05620662495612249 
0.08639210125323807 
0.1921428788691641 
0.0001017060602918147 
8.482959774006835e-06 
9.848365680456439e-05 
0.573788936405959 
-0.0002351362549772658 
0.05193499585219639 
0.0001007275707401169 
0.0001007275707401169 
0.0001007275707401169 
3.642445283174656e-05 
2.89506244982934e-05 
2.89506244982934e-05 
6.978068257519907e-05 
0.0001016127193553619 
0.0338879347070272 
0.006463863596783469 
0.716186252760731 
8.055464598224658e-05 
8.055464598224658e-05 
8.055464598224658e-05 
8.055464598224658e-05 
8.055464598224658e-05 
0.002322902044210845 
0.0001475926203400738 
0.000112183475967708 
0.0001475926203400738 
0.0001151337192930335 
-0.004333108366425201 
4.42033558582331e-05 
0.0001078631715935349 
0.1993668674004175 
8.927128296836215e-05 
8.927128296836215e-05 
-0.0001128511330137551 
8.927128296836215e-05 
8.927128296836215e-05 
8.927128296836215e-05 
8.927128296836215e-05 
8.927128296836215e-05 
0.009203768980272182 
4.291149494377236e-05 
4.291149494377236e-05 
4.291149494377236e-05 
4.291149494377236e-05 
4.291149494377236e-05 
4.291149494377236e-05 
0.003543965381672001 
0.005468942968235252 
-0.0001368720376950327 
0.2509197990301228 
0.2516267617233156 
-0.2049669219087609 
0.1078092357431245 
0.0003341048451475808 
0.01769073444705346 
0.1009919210140043 
0.1977905208852583 
-1.251657907979139 
0.4317792190328683 
0.05563770635619238 
-0.0003270321905472246 
0.09125241357468164 
0.04553484733443366 
0.1015766897332919 
0.001596013896412229 
0.0007896982471646268 
0.1269678161738397 
0.0001070448748295987 
0.005551666142594543 
0.04483751931810132 
0.0001713122720638712 
3.550755475845593e-05 
3.550755475845593e-05 
2.667489108395061e-05 
0.1297084374287838 
-0.002616414806025843 
0.04836807325417608 
0.04836807325417608 
0.04674007502225391 
0.1461911926065 
0.001149893088911781 
9.01020268907126e-05 
0.05813753849648136 
0.05653173930174359 
0.0007998111034920093 
0.2109864024233561 
6.93072338993253e-05 
0.001994686255291156 
0.000185930381391874 
0.04419383819501943 
0.0001266580021456218 
-0.4463857714810007 
0.08091839368314402 
0.0001864407657265811 
0.0001864407657265811 
0.4083461894592281 
0.113342626216369 
2.041502903845285e-05 
0.1510782946789498 
9.888941344103955e-05 
-0.006496648933277558 
0.0002041502903845283 
0.1089815503596269 
0.00420084917455415 
-0.004286277653564473 
-0.004494071453248811 
0.0001070356068291178 
8.407359558534406e-05 
0.03491427667138617 
0.000135442923258616 
6.583542376971658e-05 
6.583542376971658e-05 
0.07969162244285963 
0.0623748669220161 
0.000443570291050718 
0.000443570291050718 
0.001603165761660964 
0.002655780230857501 
-6.76881980004891e-05 
0.001503602307988977 
0.3514293347506665 
2.532305656636377e-05 
-0.001607015555728803 
0.0002490947259071827 
0.04151713629033861 
0.08772334033917055 
-0.000159668758897663 
0.0007967195420173024 
0.2028752308998317 
0.0004953761978297032 
0.1330477218004185 
0.005728761290054465 
0.1157992863683117 
0.05509896757726574 
0.1190817323620391 
7.640436013967037e-05 
0.0488688549474469 
0.04890143198961891 
0.04890143198961891 
0.04890143198961891 
0.0004660536703102118 
0.0004660536703102118 
0.0004660536703102118 
0.008325922731618703 
-0.00352521235712706 
0.03154667651776098 
-0.00352521235712706 
8.826658534852418e-05 
0.2432744916118988 
0.0001141154697888225 
-0.0003369286863236505 
-0.002041548087514817 
-0.0007812535756321163 
2.508438568451424e-05 
0.005285182213935821 
0.005040516953311735 
-0.003362571880287965 
0.3802995487745932 
-0.001722667454130534 
0.001183677742119284 
0.3596706797612449 
-7.157618330364068e-06 
0.001995070407968819 
0.0001237326918321956 
0.0004343025912888754 
0.000540021158752807 
0.0002395378525140926 
0.0001965947762583785 
0.104962677642401 
0.3113637222939724 
7.527038594306921e-05 
-0.6306894954955484 
0.4991649078524482 
0.0001895885292732281 
2.041502903845285e-05 
5.595200352818463e-05 
0.1352274927263461 
2.041502903845285e-05 
2.041502903845285e-05 
0.001406934397939552 
0.01018130031951249 
7.573682503836791e-05 
-0.0011206868163848 
0.0001581125755289983 
0.08603537705971259 
-0.001771849874835223 
-0.001363833911069027 
0.0002812606099183829 
0.0002812606099183829 
0.0003551200544811635 
0.0003551200544811635 
0.0005529311509949706 
0.00699624889443503 
0.3758479234035529 
0.0003238384913482941 
5.545670448842416e-05 
-0.0005568753505013832 
-0.0005568753505013832 
0.009770240059014839 
0.0001633202323076228 
0.02765337442239557 
0.04906686686603905 
0.004381199593411498 
-0.001371351520303348 
0.000500429461786891 
0.009292317988776042 
3.360213427191911e-05 
0.05564358187925873 
-0.0001885153808799802 
0.006069267203950512 
0.0003144145887066818 
0.0466014363591169 
0.015964965812455 
-0.0004164254838426714 
3.060628126788782e-05 
0.005230314942217713 
-0.00402153177979446 
2.041502903845285e-05 
0.000230219817239122 
0.0001427578484679426 
0.0001427578484679426 
2.041502903845285e-05 
2.041502903845285e-05 
0.0001983594398596235 
8.088247209200504e-05 
0.03357806626222344 
0.02855782955521785 
5.797517612263255e-05 
0.022857126268226 
3.384086817381429e-06 
1.853914299583657e-06 
0.03028306995111549 
1.853914299583657e-06 
0.2475048829144306 
2.041502903845285e-05 
0.001817913325601968 
0.2262412295619703 
-0.0007167937388358023 
-0.0007167937388358023 
-0.0007167937388358023 
9.144410484380881e-05 
9.144410484380881e-05 
9.144410484380881e-05 
9.144410484380881e-05 
0.05991339305104248 
0.0003771772302198976 
0.000146959416844627 
0.0001431412871344109 
2.608192094371842e-05 
2.608192094371842e-05 
0.0001527213756111415 
0.04573172569274292 
0.8479781544579725 
4.602966358797984e-05 
0.06487208532783276 
-1.006496607274015 
-0.6506032047184085 
0.04067688765544318 
-1.415994587026912 
0.1306404154328187 
-0.2017035732043055 
0.04805039307556635 
-3.067024225797311e-05 
0.0007054728610248091 
0.000355714483454644 
0.000260206062810207 
2.041502903845285e-05 
0.08906711433550882 
0.0001119384989572356 
0.01711170578769165 
-0.001960841697919115 
0.009154123916993714 
0.05889098097127755 
0.02439023452621238 
3.106114861909498e-05 
0.0003261584866222799 
4.839997471099118e-06 
-4.034603401133372e-05 
0.0001819101675974582 
5.373050970670409e-05 
5.373050970670409e-05 
5.373050970670409e-05 
5.373050970670409e-05 
0.07878207185885228 
0.0788220012885882 
0.2607167078900275 
0.0006374292158872788 
0.3961936775404856 
0.0001282694527521985 
-0.0002264895545744616 
0.001409294785485955 
0.0009608581434063148 
0.007995491012029444 
0.0001632713051777327 
0.2395060213382793 
0.05840753526602764 
0.001609011121349006 
0.000132002910534206 
1.911408713978353e-05 
0.0003986456744980467 
2.041502903845285e-05 
0.3358530602825342 
0.0003632611876591711 
0.0001636638482302511 
0.0001028285599570646 
6.405079611203967e-05 
6.405079611203967e-05 
-0.004049146779068154 
1.247341471951961e-05 
0.1814909692694268 
0.0004398541913787986 
1.173784712642557e-05 
0.08238286833469646 
3.95788241322638e-06 
0.0001224901742307171 
-0.0003293349112843532 
-0.0001240151390907273 
0.02007074991108144 
0.004429768787508979 
0.0001138999169833642 
0.0001138999169833642 
0.000748994526321477 
0.0201167534404679 
0.0006718928401153611 
0.000210392168448213 
0.000210392168448213 
0.000210392168448213 
0.000210392168448213 
0.000210392168448213 
0.03844685484945014 
0.001422628219251854 
0.000210392168448213 
0.000210392168448213 
0.000210392168448213 
-3.787691345445821e-06 
0.252930371812686 
0.002747307234366835 
0.1522383924229387 
0.00281753830927634 
-0.0002792065780344424 
0.481536875302199 
0.0001237493021469289 
-0.5769422139308932 
0.2474817982757307 
0.05488984485598331 
6.391991121342613e-05 
6.391991121342613e-05 
6.391991121342613e-05 
0.05166709258868539 
0.1491669820678954 
0.000961754166055566 
0.001201033567539595 
0.0001432050613125243 
0.0007921551596836595 
0.000560106820550875 
0.3041054516838895 
0.000560106820550875 
0.0003751099163821477 
0.0003751099163821477 
0.0003647489700303973 
0.007712664953318044 
0.007771862698348101 
2.041502903845285e-05 
0.05160865826489177 
0.373301382462458 
0.1492792742485969 
0.09904191130331619 
3.800646884288611e-05 
-0.7670410891254255 
-0.005085260489856765 
-0.005085260489856765 
0.447184239197862 
0.005288876782911489 
0.0002812606099183829 
0.0002812606099183829 
0.007753310665266598 
0.002817854241809058 
0.002817854241809058 
4.882676763474694e-06 
2.041502903845285e-05 
2.041502903845285e-05 
2.041502903845285e-05 
2.041502903845285e-05 
2.041502903845285e-05 
0.2686556579718547 
0.0001609683011060586 
0.04519980412744121 
0.08081612206847008 
0.0001622113031254052 
0.0824313460409596 
-0.003924393091029941 
0.09906989234064179 
-0.004166476211815572 
0.2919074766653693 
7.013267633478173e-05 
0.0005055454491199392 
0.0001691720462809161 
1.776737534131687e-05 
0.02966241315694565 
0.07013504461437511 
0.01016205310401704 
0.07970329796196572 
0.0003261584866222799 
6.585220939731297e-05 
9.878105077393974e-05 
9.878105077393974e-05 
9.878105077393974e-05 
0.1364348375161943 
-1.621563166580021 
0.0516704255070938 
0.0516704255070938 
0.001222183139112575 
0.001162156198208311 
8.461632383782559e-05 
8.461632383782559e-05 
0.000153961262677128 
0.2607141356190732 
0.0005020852084640767 
0.0005020852084640767 
0.09019735632019735 
0.02376029151930881 
0.001383221368975138 
0.001383221368975138 
0.001383221368975138 
5.484426998850466e-05 
3.368242175445093e-05 
0.3496902015623271 
0.2230049575077828 
0.2357565945280589 
0.0361391845466538 
0.000133391852410355 
-5.269580576567988e-05 
2.041502903845285e-05 
-0.05149920445477772 
0.1287165780689618 
0.5412354617713554 
0.3812837354261145 
0.03559534753505931 
9.620534347940031e-05 
8.37096858085824e-05 
8.37096858085824e-05 
0.08993673251082726 
8.37096858085824e-05 
8.37096858085824e-05 
8.37096858085824e-05 
8.37096858085824e-05 
0.001739181746475754 
0.0001397590483116155 
-0.01181554572269225 
2.664101990879177e-05 
0.01819968191290847 
1.646627553085203e-05 
0.0001173230894065157 
0.08762691835481504 
0.04478062509130343 
0.0002182074217144085 
0.001490648954164787 
0.0002216412202734535 
4.357736354638297e-05 
4.357736354638297e-05 
4.357736354638297e-05 
4.357736354638297e-05 
0.0111526226471427 
0.001082699235096998 
5.882952766114229e-05 
2.129633668053686e-05 
0.127789050981067 
0.0008945292913255026 
0.0008945292913255026 
3.455694791477739e-05 
0.1279681547759655 
-0.00236969909104638 
0.0001347577918500683 
0.001292842562066808 
2.105097123872408e-05 
2.105097123872408e-05 
0.0002491004122766834 
0.0001410881911368358 
0.0008500392711808863 
0.0003261584866222799 
0.1400682714950256 
-0.002605257824928215 
0.06861610277183629 
-0.701979068439448 
-0.701979068439448 
0.0001363598652854527 
0.0001363598652854527 
0.0001363598652854527 
0.0001604460585369478 
0.0003336587068685342 
0.0001363598652854527 
0.0610070264298917 
0.0001928728577361109 
0.0001928728577361109 
0.0001928728577361109 
0.0001928728577361109 
-0.0001480670050462861 
-0.0001480670050462861 
0.0001912393379954572 
0.001086601561115994 
0.0002726119494164429 
-0.01333788372666938 
0.005419229841363101 
0.0006660366166241574 
0.1949013236217519 
0.001094211963322393 
0.04523710218014469 
0.0001327758705913109 
-0.01404325890942015 
0.0001605143723848764 
0.0001512702562132613 
2.467711539841238e-05 
-4.902672487797031e-06 
-0.00151044388398297 
9.936118003596103e-05 
0.0002800738665320307 
0.3225294849279535 
0.01402444746013941 
0.001560431217632128 
0.001560431217632128 
0.001560431217632128 
0.001560431217632128 
0.001560431217632128 
0.08364717043744674 
0.08347809630580612 
0.08347809630580612 
0.08347809630580612 
0.08347809630580612 
5.459656248043365e-05 
5.459656248043365e-05 
0.0002048431870125789 
0.0002048431870125789 
0.0002091894613655363 
0.0002091894613655363 
0.0002091894613655363 
0.001574037416658016 
0.001092436699855905 
0.0002514680610947589 
0.07494502886526253 
-0.01564099697374931 
3.397382183406598e-05 
3.397382183406598e-05 
0.0011589127639021 
0.1541237251704612 
0.0001030316906088004 
-0.0002854758511594746 
0.0001030316906088004 
0.1160421073918388 
5.586602329390288e-05 
0.2309834748072561 
6.015387807489184e-05 
6.015387807489184e-05 
7.670865141342244e-05 
0.001539193185105487 
0.006063898795906786 
-0.001805515483842533 
-0.0001856823609119299 
-0.0001856823609119299 
0.01921843244468911 
0.01921843244468911 
0.1774146515870629 
0.1774146515870629 
0.0004859416695092206 
0.3698910203614327 
0.0004859416695092206 
0.1867831673347308 
0.05709984107288929 
0.05670758697602116 
0.02489244297112269 
-0.4735032257929601 
-0.00658327221446172 
0.211038069286407 
6.494001663439368e-06 
0.0002048324633369946 
5.458431000227572e-05 
0.0001941301552209151 
0.3231828518735891 
0.3742129605668109 
-0.00150073425735143 
-0.0001053834748422391 
0.0001116056942697975 
0.0004742769287341455 
0.009852253678462243 
0.000229228075614017 
0.03799037779129416 
0.0002714181399889951 
0.03063261154449065 
-0.005587282112212474 
0.00352870487795624 
0.5857931546076173 
-0.003575807468504794 
-8.921488290953348e-05 
0.001288363997606104 
0.2157676035616392 
0.001288363997606104 
0.00145996431106489 
0.01398900232500556 
0.0003925493602528944 
0.1565986514319462 
1.204367060579023e-05 
5.4658195960235e-05 
-3.718257768467458e-05 
0.2597489138699383 
-0.002977046482837603 
-0.002958684593849327 
-2.48364394390434e-05 
-2.48364394390434e-05 
0.07553389833778264 
0.0002812606099183829 
0.0002812606099183829 
0.003126072643309523 
0.002919787782112558 
0.1860588335445042 
0.006749797593369532 
0.1270372171293472 
4.792813244040479e-05 
4.792813244040479e-05 
0.1081132172768907 
0.3628891905356945 
1.034806511345341e-05 
0.001371782021007728 
-0.5159428776723606 
-4.37739879018633e-05 
0.004882043422881481 
0.01952527801925796 
-0.3219418566809512 
0.01952527801925796 
0.0001618731918694582 
0.0001025117980067895 
0.124220843187773 
-4.355643623885799e-05 
0.0004881683615880359 
0.0001440892387865099 
0.0001440892387865099 
-8.070301895167714e-05 
0.06964342843899297 
0.06971725372310272 
0.08950094186599741 
0.06086861813359604 
-0.3105963338209586 
0.06078377736503461 
0.0001890979179955501 
0.0002781026728322523 
0.002800573541192306 
-0.0005805428215556982 
0.237935935195158 
0.03552911602584465 
0.0001601952504354396 
0.0001601952504354396 
0.0001601952504354396 
0.0001601952504354396 
0.0001601952504354396 
0.0001601952504354396 
0.0232342176493983 
0.02115591888284445 
-0.0006566323034722279 
0.0003625606833063739 
-0.001511169933337292 
8.505653132516978e-05 
0.0003297204302048933 
-5.091242108387316e-05 
-0.0001342883227471649 
0.2557313509601679 
0.1901228511840579 
0.1798304048240046 
0.02554632369316042 
0.0001513701264909384 
0.0002247911331497731 
4.983156799729146e-05 
-1.443269805240352 
8.452871359298857e-05 
0.298271676829014 
0.0003261584866222799 
0.002088653845664135 
-2.451101885143963e-05 
0.1518112547673159 
0.0001687218407532354 
0.005630169845027063 
0.0006908831035748963 
0.0001469333232950251 
0.0001469333232950251 
8.682958282675431e-05 
0.03665653141673528 
0.0008300778691837658 
0.001030929762367828 
0.0003261584866222799 
0.000355529162615031 
0.01492565350341844 
0.0004324744676155883 
0.06482999940221837 
-0.4270494472650151 
-3.398378982962972e-05 
-3.398378982962972e-05 
0.0003507790216368964 
0.1617502900146655 
-1.006072623362037 
-0.001714065453258352 
0.1064115474307029 
0.0005204846088229141 
0.0005204846088229141 
0.003696816797091998 
0.000164853634854864 
0.04696113420465658 
0.001100656320338226 
0.01511538697035396 
0.01630406298949308 
0.01487794415402635 
9.0847226579829e-05 
9.0847226579829e-05 
0.0003230881814377858 
0.0001389306295857816 
0.03638675793081263 
0.0001535442705477497 
0.001276745804669811 
0.1008369600369663 
2.041502903845285e-05 
0.0001492972319292106 
-0.001251989155150557 
0.0003261584866222799 
0.1427032704681911 
0.0001243269645178393 
-0.000612499757953403 
0.0005309941190736413 
-0.000612499757953403 
-0.005567322613987468 
-0.005567322613987468 
0.0008487997042530077 
0.0003508344216741637 
0.03102606050649015 
1.149368089393272e-05 
1.149368089393272e-05 
1.149368089393272e-05 
1.149368089393272e-05 
1.149368089393272e-05 
0.0006156511474782365 
-3.84870655542253e-05 
0.0004429394048188997 
0.0001397200043078411 
0.00157087781463474 
-0.0005098375735480666 
-0.002237660842487264 
0.002129634438633229 
0.02479858402433533 
4.707387815618718e-05 
-0.006162335327727183 
-1.411355255861542 
0.02829505879470615 
-0.2300575657171607 
0.028307935887229 
0.02829505879470615 
0.05235824060993308 
0.0005475165543765452 
0.0002354017212390982 
7.467147461291144e-05 
0.0004747735828875365 
-4.210778093650591e-05 
-2.899415618674999e-06 
2.210929623609062e-05 
0.0003652824206506159 
8.624270152993735e-05 
0.1293247419481388 
0.008280815820757546 
0.001338179390418721 
-0.002527586533215192 
0.0002892386310196223 
-4.594731436372586e-06 
0.2215975110538776 
0.0003723380569122755 
0.0008464715695656385 
-0.001317290087309999 
0.0001091205312198736 
6.008610036376321e-05 
8.149841468489094e-05 
0.01138483721392075 
0.2720837490466027 
0.05097812307992054 
2.041502903845285e-05 
2.041502903845285e-05 
2.041502903845285e-05 
2.041502903845285e-05 
2.041502903845285e-05 
0.004162755210655449 
0.004162755210655449 
0.004944533686832253 
0.0001062540520452244 
-1.909874879765281e-05 
-1.909874879765281e-05 
0.1037811480168747 
2.665756237687294e-05 
8.124244535840919e-05 
0.0006493980149127014 
1.892710826065929e-05 
1.892710826065929e-05 
0.0005976827962491608 
-0.002206716240288591 
0.2273759797979908 
0.07646300342709404 
0.1219233828236389 
0.02824595133123693 
0.0287768300830747 
0.1259674010228124 
3.895628085549739e-05 
3.895628085549739e-05 
0.0001366350163760522 
0.01261551745689412 
0.02477404016123047 
0.001799190711783115 
0.001772150736966936 
0.224819282511858 
0.004367988299466326 
0.1896898483902074 
0.002504058620596683 
0.002504058620596683 
0.5025083058792602 
0.0001240605348340365 
0.0001240605348340365 
0.001441224017424571 
3.884588894641563e-05 
3.884588894641563e-05 
0.000446218727014707 
0.000446218727014707 
0.1380905783136959 
-1.153579591741695e-05 
0.008944220446706844 
0.003926109430829662 
0.000226634245058707 
0.0003414205907124975 
-0.003009600299222559 
-0.0002254638496431942 
-0.003363705999529953 
0.0001168936861199596 
4.358515556104011e-05 
2.041502903845285e-05 
0.0003484916582550311 
0.0003484916582550311 
0.0003484916582550311 
0.002660671960124832 
0.002660671960124832 
0.0004824362466394783 
0.0003422625876245017 
0.0002022641601989733 
0.0009425360153874161 
0.02007192584725267 
0.0001344684496570534 
3.735213327173226e-05 
-5.596751388065179e-05 
0.002015733418646039 
0.001918215371961882 
0.001918215371961882 
0.001918215371961882 
0.001912062471828362 
0.05227464158201986 
0.0009174304254384068 
5.587460524295563e-05 
5.587460524295563e-05 
8.813076420840298e-07 
0.00474938950462496 
0.005110639894598646 
0.1983516300416294 
2.041502903845285e-05 
0.0005216977779122845 
-0.0008310588756558526 
3.378626912915462e-05 
0.0004602241660134789 
0.0001071322124946829 
0.0002708646025778571 
0.005338123694163886 
0.0002708646025778571 
0.0008580527618607606 
0.0002175641373079594 
-0.0001447121132152769 
-0.007127791075577148 
0.0001101032804736934 
0.0001101032804736934 
0.0001101032804736934 
0.0001101032804736934 
0.0001101032804736934 
-3.169086759459562e-05 
7.467147461291144e-05 
0.003915257987212041 
0.1637463173519302 
8.146528708415259e-05 
9.967534189497259e-05 
0.2555046571399974 
0.009575407183983241 
0.0006989830869677313 
0.0009280739447405171 
0.0003674214232990897 
0.03533679672777346 
2.041502903845285e-05 
0.003165645041363328 
0.0005038685876671215 
0.0005038685876671215 
0.0005038685876671215 
0.0001712101590530052 
0.00028991992708871 
0.0007350699926946104 
0.06858922417185219 
0.0001128115918556365 
0.1994101778486573 
0.04608319489031837 
0.2017900231390727 
1.7507756767981e-06 
2.832516313724612e-05 
-0.001647634081166001 
0.0002243712076491757 
0.0005141482159332643 
2.041502903845285e-05 
2.041502903845285e-05 
0.0007625201876308824 
-0.01139184136907588 
-0.01139184136907588 
-0.01139184136907588 
0.01055728563973463 
9.186218479272304e-05 
0.0007541449016548336 
0.2581445091573908 
4.89730926830349e-05 
0.0001340057978211745 
0.002016625223691165 
1.471006986854678e-05 
-0.0003594587331176849 
4.117538653382692e-05 
4.117538653382692e-05 
9.534574133016266e-05 
0.0001632835216833543 
0.03337838744843898 
0.3215450236981249 
0.0006149765871079862 
0.0006149765871079862 
0.0003349541984879258 
-0.000483816564257283 
0.0004606128342154904 
0.04256766227328423 
0.0001161288803770995 
0.0007536429598705007 
-0.000243482880407246 
-0.000243482880407246 
-0.000243482880407246 
-0.000243482880407246 
0.002261094412644028 
-0.6816283211113384 
0.004475586085639882 
0.1357475909937449 
0.009771240499583743 
8.422512165716388e-05 
0.01457406188878473 
0.004842233934518896 
0.0003434111604950209 
0.0003381057990500556 
0.0001462684009099158 
0.0004321344940280801 
0.0002923819112505906 
-0.2336170559436651 
0.004518541094113127 
0.02894552939671221 
6.825440472847151e-05 
6.825440472847151e-05 
-7.841347096707996e-05 
0.03335154414343413 
0.0001370024165831055 
7.235372449904118e-05 
7.235372449904118e-05 
0.0003261584866222799 
0.000647040457877864 
1.551184927945448e-05 
1.551184927945448e-05 
1.551184927945448e-05 
0.004769553875176633 
0.0009476733636910959 
0.1915334503847537 
3.34449177159596e-05 
0.0003315932791036449 
-0.4671294823972693 
-0.5928102149500992 
0.0003193823755566822 
0.2089223862561959 
0.2089223862561959 
-0.5741842160446046 
0.004504626556774884 
0.0004781375530638094 
0.0528262573770613 
0.03200321281459548 
0.0006266049304480578 
0.0002320897656772014 
0.0001239707593981901 
0.03430720936242737 
0.002702990713578273 
0.0007266294236336028 
9.792991289509186e-06 
9.792991289509186e-06 
0.0003261584866222799 
0.001112339936193352 
0.1181156560597003 
0.1368235514029515 
-0.001532372508072939 
0.07445528129478929 
0.0007581550518350379 
0.0001564171086159557 
0.0001564171086159557 
0.09862574735701843 
0.08706967558198465 
0.006218086934297289 
0.1240779680157135 
-0.7905349388977947 
0.0001642929296697361 
0.0001642929296697361 
0.0001433406175865238 
0.0001642929296697361 
0.05632964877985733 
0.2921487525875427 
-7.633655197663922e-06 
0.05805551151108886 
0.05840711356076536 
0.000437841069113424 
0.000220195069339464 
-0.001458752612449312 
0.0009435215519766416 
7.623928458255759e-05 
7.623928458255759e-05 
4.19913861080805e-05 
0.001090609134455991 
-0.004662005231881957 
2.041502903845285e-05 
0.0009529881576405127 
8.713261374989997e-06 
0.2186160928174442 
0.2103594750541913 
0.0003261584866222799 
0.002652078200591082 
0.01011718040017049 
0.5271092089358419 
0.07892902196123452 
0.01139332193123923 
0.01437531478101373 
7.759287118149334e-05 
9.676558779766356e-05 
9.570603459171069e-05 
9.570603459171069e-05 
9.570603459171069e-05 
0.0002642437267194278 
0.2176302116637927 
0.2176302116637927 
-7.288663273327924e-05 
0.05107652788308845 
0.0001080437816586698 
0.03552508481798754 
0.03552508481798754 
-4.42688649700427e-05 
0.1194827248558289 
0.0004015640939983576 
0.0004698464437667438 
0.0001266654290278964 
0.0007102297716932574 
0.0002130696319235678 
0.03867920309449861 
0.0002130696319235678 
0.0002130696319235678 
0.0006659586738866303 
-8.066117669494475e-05 
0.1066184948362736 
0.02784911362398169 
0.0008836819728575676 
8.74636205967773e-05 
8.74636205967773e-05 
8.35585428157069e-05 
8.35585428157069e-05 
0.000321745122594822 
-0.0007160803063747365 
-0.184803626685097 
-0.003639916931402028 
-0.003771207072981296 
0.0002812606099183829 
0.0002812606099183829 
0.084275806176848 
0.001662050913793025 
2.041502903845285e-05 
0.008531474637607747 
0.002899916228866998 
0.0002047233558326196 
0.0003302114308114541 
0.002827970596824344 
0.0001336257144212035 
0.0001336257144212035 
0.0001342887764935262 
0.0001993449999070628 
0.0001248638335329277 
0.02064266571790335 
0.0003261584866222799 
0.000165195491682968 
-0.001060246123453327 
2.041502903845285e-05 
0.001339472313335714 
0.1206206694694762 
0.1206206694694762 
0.1206206694694762 
-0.001167676072443417 
9.623433079099122e-05 
0.06451786308235047 
-0.06237172172613303 
0.0001246576456348379 
6.593267841948341e-05 
-5.139048253297418e-05 
0.05137336449852252 
1.701021580754966e-05 
0.07031101021986376 
0.07031101021986376 
0.002885317405252279 
-1.447349075382929e-05 
-0.001020800411968585 
-0.001020800411968585 
0.0001986553256874399 
4.860699986553048e-05 
7.629194618993198e-05 
4.860699986553048e-05 
4.860699986553048e-05 
0.0832263245228218 
0.0832263245228218 
0.00107365890135878 
4.741842109901865e-05 
0.1443450167730268 
0.1443450167730268 
0.003790716854343251 
0.003790716854343251 
-0.0001047970230428487 
-0.0001047970230428487 
-0.0001047970230428487 
-0.0001047970230428487 
0.0002602898809659277 
8.725213273119994e-05 
0.01881515663440593 
