solver_type L2R_L2LOSS_SVC
nr_class 2
label 1 0
nr_feature 32502
bias 0.5
w
0.1335659275173983 
0.1061371974996136 
0.1326714710639737 
-0.3890219683174544 
-0.0427701424256787 
0.08499472161741614 
-0.1785772585542536 
-0.2419115310169822 
0.2947883460265162 
-0.1851193192356183 
-0.008050263502801821 
0.09397766840158607 
0.06738444069244419 
-0.1145569795138194 
-0.001551788667207185 
-0.1556961114391898 
0.2333282045181224 
-0.003764751125329588 
-0.003764751125329588 
-0.003764751125329588 
-0.003764751125329588 
-0.7442197563682579 
-0.1167474174696132 
0.0777154764904511 
0.1836811247681658 
-0.06791464262074096 
-0.2042095783206444 
-0.06206159828286604 
0.4611250968111923 
-0.07591670927114229 
-0.01096044952835598 
-0.04624653964817137 
-0.2958444274311773 
-0.4008951309995663 
-0.0819684134576502 
-0.1030543604723503 
-0.1951187725766056 
-0.04559718393210031 
0.03436802057882699 
0.09436803404503641 
0.216150529642288 
-0.3690085403793781 
0.06254510246082343 
-0.2516699938819319 
-0.008282089912569254 
-0.03937248886729724 
-0.1267765778838904 
-0.04942163852497634 
0.1911867834493253 
0.09263066108847318 
0.03375869938733329 
-0.3298006232113561 
-0.1467771878467054 
-0.1838729109214121 
-0.07985898972746887 
-0.1242152050877489 
-0.02392878090510829 
-0.07982326920409162 
-0.3191504858008746 
-0.1255897190947077 
-0.01165832276307398 
0.2412408250176857 
0.0183674135555855 
-0.1653751213136206 
0.01408461603645314 
0.654346786291486 
-0.1678244335568243 
0.03997034832072102 
-0.09609041986011563 
0.07412165155245187 
-0.2653678794312733 
-0.1389289650931251 
0.1045946110399093 
-0.02866494273794599 
-0.03112491746152628 
0.1141807643517777 
-0.03019150773734821 
0.00489523290136529 
0.02076372960095369 
-0.07390136940998047 
0.08114018401426142 
-0.1576131925031423 
-0.01726418148380391 
-0.01161975075039426 
-0.01161975075039426 
-0.01161975075039426 
0.1123972553416701 
0.08308371895065017 
-0.3076490346103516 
0.02173049794431313 
-0.08031165878718124 
0.0733851605708571 
0.02032927492755807 
-0.1050988071086904 
0.1351467840090718 
0.3149555701565016 
0.1846862685666054 
-0.212021905554148 
-0.3246709312774796 
0.06671940679332673 
-0.07597886854234873 
-0.0547071183458251 
-0.2949323560100439 
-0.6264298546712406 
-0.0003151651906329717 
-0.6207976837701885 
0.09602515864659578 
-0.08141338875988324 
-0.07671396269577235 
0.04176368629432727 
-0.1412491841528334 
-0.07312547990454486 
-0.1138232099353213 
0.0426598985165761 
0.1551927367855838 
-0.4238545813963986 
0.4174559683116729 
-0.2929853392913383 
-0.08997023352098209 
-0.5198503279879347 
-0.06482227075939272 
-0.6167672105714492 
0.2188953397753217 
-0.5357791088883169 
-0.2076184722386473 
-0.03630540483506756 
0.3354940202809759 
-0.0002048985598832149 
-0.003983064174582215 
0.1227570933030666 
0.04988666513700743 
-0.561232846153798 
0.1653033189975104 
0.09664445447036098 
0.1015888341472646 
-0.03843573855354804 
-0.008834634559071441 
-0.03843573855354804 
0.07137752552417058 
0.004546541258816419 
1.477792142023211 
-0.02163925774791373 
0.008861984380065252 
0.0239087474837919 
0.2288976297749227 
-0.04349237741744293 
0.03828451557870326 
-0.09201725665748334 
-0.2052930397913728 
0.1577857973884605 
0.3073480521670605 
0.003203136403797664 
-0.03590609044176196 
-0.06761131689700595 
-0.485044479596068 
-0.05549133737415576 
-0.0006798821896034983 
-0.2159750497172123 
0.04965644728710222 
0.04190986777216699 
-0.007575174476554174 
-0.1550969710705979 
-0.1466645730836967 
0.06278833048137952 
-0.09250387241346769 
0.2139411615436331 
-0.1494153288788858 
-0.1134988867587459 
-0.0304411070440829 
-0.1495576388075546 
-7.145345164109591e-05 
-0.02998770284183951 
-0.02010726809358122 
-0.008188370987187645 
-0.01123978464712296 
-0.02631459736901106 
0.07230817784628842 
-0.1239972006814566 
0.03724144129290625 
-0.1521459991472735 
-0.5923687927535467 
0.2910122016172703 
-0.1186991873099743 
-0.01714819445324025 
-0.1687354708361708 
0.1076285671856196 
-0.001022539996386725 
-0.2105906975105589 
-0.04266491966439974 
0.05659393156577063 
0.04231379345713138 
-0.001165257985237728 
-0.8910074760463602 
-0.03885432706860449 
0.0804881670483529 
-0.0002751837821176841 
-0.3663162495754276 
-0.09160922528880561 
0.1062823410369746 
-0.38099606125019 
-0.1146375925151827 
-0.4522310092691067 
0.567148933349144 
0.03294895746562998 
0.02713698218425134 
-0.3204303617394507 
-0.1208014652965336 
0.0253212728163443 
-0.05002852557198599 
0.09833758043308224 
0.1248762600471951 
0.1948382036603757 
0.1722698537489755 
-0.01809398835042099 
-0.1333908704457569 
0.1357221002528606 
-0.3269475353433622 
-0.08973270756619267 
-0.0478990132453745 
-0.08752359404450125 
0.02367179752700614 
-0.1154367059705621 
0.2853375044746843 
-0.0001075314568510864 
-0.4835788904663336 
0.05385029404603713 
0.2469193349734046 
-0.3730610067135485 
0.1417957994038148 
-0.02164152106401815 
-0.3824881751018399 
0.05066940567542288 
-0.009288483476285258 
-0.1458684745565126 
-0.1313426234521573 
-0.09207654314332279 
-0.4641523867719216 
-0.1437589362589322 
0.05693783005814113 
0.1276643707413685 
0.16333293373948 
0.3009763604834346 
0.3381258194044667 
-0.08402761130920137 
0.09720821357094618 
-0.3406810732634344 
0.1653562299597529 
-0.6377344677281919 
0.6417850153942014 
0.04889806133419405 
0.09347877070840593 
-0.04079945432408223 
-0.03751091329115389 
0.506219746724646 
-0.7230606195804842 
0.0786418515188544 
0.07370524915173857 
-0.4217228813061111 
-0.0950432034338335 
-0.2458024344874175 
-0.1418470722341123 
0.002423255092722658 
0.003229707659488914 
-0.008050263502801821 
-0.2152477328351096 
0.01588283873833329 
0.3858960108849349 
0.07212968530744379 
0.220026083915344 
0.1177409116386379 
0.1075578134778679 
-0.08304243979983332 
0.02083230740778895 
-0.2411227569979854 
0.1956857268249373 
-0.616374678526918 
-0.00135583268250213 
-0.1065517550628579 
0.1318798859029007 
-0.1001876470722994 
0.1085523042726477 
-0.1690534183124031 
-0.1660299226257985 
-0.07392181713604544 
0.0132252551838313 
-0.03349747338628135 
0.4355369512299393 
-0.05748148711424192 
-0.1721970771944064 
-0.4234736792506624 
-0.1242890859511788 
0.1819410776868686 
-0.02706924967827218 
-0.0002435854573940568 
-0.3336707775707483 
-0.03728698329065751 
-0.4491834695256884 
0.1779464134422391 
0.07835902748163466 
-0.5333120275633089 
-0.01018988834315238 
-0.1165111084557686 
-0.1266937098954972 
-0.3279562284176714 
0.07870397159116573 
-0.1122378483940414 
0.1242306822983507 
-0.6090592053284229 
-0.008354280747631945 
-0.1290794134061807 
0.001073332777848257 
0.001458912885957485 
-0.2505488491120595 
-0.00797127192959877 
-0.1158276727073172 
-0.1563137600859641 
-0.00359032294799719 
-0.5395566019021065 
-0.000502160249881914 
0.3892388425527535 
-0.5899099655737681 
-0.003737169118564251 
-0.003673451804501436 
-0.0003060894782282439 
0.03070573012771532 
-0.1372980522493984 
-9.93302674337869e-06 
-0.08965008107470041 
-0.03002724516839734 
-0.4354824117093928 
-0.3201166311036748 
-0.4042674067913418 
0.09863789849170028 
0.1028298777392831 
-0.2368573079390811 
-0.0807639511022037 
0.004620222910193208 
-0.3601877249564134 
-0.063574278021219 
0.09751377256791735 
-0.1000977968748176 
0.5247567509380129 
-0.00920235253050934 
-0.1688171535753819 
-0.5752515121655066 
0.1585929001860393 
0.1030064898184656 
-0.004404307453380249 
0.003776797214948378 
-0.1387416950211162 
-0.03198787028879341 
-0.03941336930867272 
-0.002151331503091802 
-0.004018176813051413 
-0.1207833625313965 
-0.4201886358650946 
-0.3991495202021884 
-0.00822303338468322 
-0.6085933526518229 
-0.3108790551498578 
0.151545612839063 
-0.09767069152112576 
-0.3474370751893189 
-0.2221094161133174 
-0.2839429071449875 
-0.1861120867009218 
0.212819712647954 
-0.3449953374648191 
-0.1672815964716611 
0.5046774587643492 
-0.649498586889704 
-0.01985950952453805 
0.4197907589575384 
-0.3009516896544516 
-0.1897340343365922 
0.02216073511647795 
-0.0003821357011638847 
-0.4244502988353422 
0.07886154151261059 
-0.3624732401184791 
0.0002160940569574876 
-0.4584013559304286 
-0.03700333610318518 
0.7477356000056788 
-0.190135572126913 
-0.1262545014764401 
0.1004830371883596 
-0.09795476380092631 
-0.06708526802689099 
0.150694506433279 
-0.1778440449270804 
-0.03288793519918223 
0.00182504954459198 
-0.1937991125635975 
-0.01320971209274309 
0.05389101451889355 
0.2046832252404444 
0.106448369530002 
-0.2006799270893947 
-0.2146250585287513 
0.5400040944724643 
-0.001027891546599512 
-0.009090761910641072 
-0.1875157903147977 
-0.0465741745405109 
-0.109658909451165 
-0.4065984066684167 
-0.009940128412399796 
-0.4343292743942079 
-0.3014895079386802 
0.0762615064006969 
0.1015356423279667 
-0.1601649141724238 
0.04166433050550493 
-0.06519014075412356 
-0.1496883190605116 
-0.317979389660936 
-0.9461985654651885 
0.1365624503176093 
-0.2458658777326957 
-0.01219346558597523 
0.135440372090823 
-0.3181832543648206 
-0.0109131602157137 
-0.0002443103428385195 
-0.353483405766486 
-0.1744056576617367 
0.04863761301808901 
0.01750994970705362 
0.1124296260899782 
-0.06233690105342608 
-0.09165723095818769 
0.1287637764036483 
0.2202500517441401 
0.3720290164072924 
0.03917400502211536 
-0.4353491486580486 
-0.07505545677755263 
-0.0002368239113647817 
-0.0002368239113647817 
-0.0002368239113647817 
-0.2892305552927175 
-0.05004287801219883 
0.180499011559486 
-0.009572665743455444 
-0.1685696759241415 
-0.01802380277788437 
-0.004879605792641281 
-0.07793735283932857 
-0.0005359610491373265 
-0.4898002863480637 
-0.00432039860708174 
0.05142921959985165 
-0.0002425235194922534 
-0.1829668388813564 
-0.004331261622351895 
-0.09614157675511649 
-0.2944500796023887 
-0.2730757320267784 
0.5704937077302497 
0.197533378763696 
-0.2663925124773239 
-0.08039283544338448 
0.09981922710058021 
-0.06957386812491717 
0.1704858512858584 
-0.2734555141774055 
-0.05143852144722891 
-0.1166536111733905 
-0.2468285415201856 
0.004066452436966128 
-0.1762401357351765 
-0.3878064903724402 
-0.08338226392953092 
0.07653971661263939 
-0.001740846962050713 
-0.001740846962050713 
-0.04908338265008375 
-0.01661927918442628 
-0.004276987387358286 
-0.01285876912883813 
-0.305761131116341 
-0.4735030866390963 
0.1481048019213552 
0.03351092527994522 
0.04349257329401496 
-0.4316358616421203 
-0.09283003319300435 
0.214808939795149 
-0.1413181162644909 
-0.09544002158634395 
0.01439296287516057 
-0.01030227998149395 
-0.08740254061817271 
-0.1275303481582127 
0.601583342942869 
-0.1042025019427399 
-0.1118908290100617 
-0.05673906951077563 
-0.002824514807344523 
0.0001375897917392475 
-0.002824514807344523 
-0.1924211791326984 
-0.02754608827729811 
0.01615801925637588 
0.08451052585965377 
-0.1557544962391079 
-0.09807193711857086 
-0.09854418390507262 
-0.09807193711857086 
0.1264552307164737 
0.3029619604587345 
0.6817136891264917 
0.04973872252663913 
-0.4733366929194393 
-0.3230747179073287 
0.3015078027656141 
-0.04525220701427686 
-0.2818897148029365 
0.3403787471618984 
-0.08806787215878266 
0.1407993876679703 
-0.008822514413874025 
0.007242914815838809 
-0.2865153941997386 
0.1747031222205498 
0.437418685251319 
0.1524693325866908 
0.05110841499892056 
-0.6368373587157924 
0.2510786440750337 
0.03928345825705907 
-0.4328558002576949 
0.09640110527412596 
-0.4060730580675283 
0.1388826717099237 
0.3251947446150444 
-0.002923728614848447 
0.2708115728412854 
-0.2114918144361629 
0.245961971062538 
0.4921203421288675 
-0.0002407036628173698 
-0.001760231106734528 
-0.4204854619835818 
-0.0002407036628173698 
-0.08055241680098621 
-0.0002407036628173698 
-0.0002407036628173698 
-0.0002407036628173698 
-0.3764076977826499 
0.002460731759880646 
-0.02362897718829259 
0.04918623255870588 
-0.1102586577020695 
-0.004476011469535818 
-0.05080648670751423 
0.009901757376318212 
-0.515118987647704 
-8.907963737595554e-05 
-8.907963737595554e-05 
-0.09130473190578567 
0.005002907349265324 
0.0767621644385419 
-0.2106093257600034 
0.01595888289167961 
-0.04459606222772539 
0.03995905042946048 
-0.3506183019548541 
0.09606823571578586 
-0.1711593546517259 
-0.1068184889462257 
-0.1224429586142855 
0.2902069712106804 
0.5006162497247213 
-0.0130356340998129 
-0.1734365385762445 
-0.09452335659781144 
-0.003236015278917078 
0.1991797679682536 
-0.6422660372151464 
-0.3795587207256595 
-0.0004162708553073204 
-0.3228477282569075 
-0.1899382741101893 
-0.2120008261838849 
0.03953863866276542 
0.001406710196108823 
-0.5062456498073994 
-0.2254637805769663 
-0.2423986256584594 
-0.2210140526515612 
-0.5589327718988371 
-0.09458474235801967 
-0.5914412783729692 
0.02232737007441511 
0.1238364913240742 
-0.1529791456121928 
-0.1083114272328625 
-0.07166332714696787 
-0.1130010496235347 
-0.2154771192696615 
-0.1450721826188659 
-0.1237760871518087 
-0.105441915470128 
-0.01272191268842964 
-0.01104307341206735 
-0.06882326105863028 
-0.1547102244881253 
-0.4701447944745196 
-0.02195771224770883 
-0.03345164534153022 
-0.0670932717552031 
-0.0670932717552031 
-0.0670932717552031 
-0.07080179967288318 
0.0006266034063091683 
-0.4311160542734519 
-0.4079190084450567 
-0.01439655967307443 
0.1335428312443672 
-0.3704166997982063 
0.9330476825281644 
-0.3497309274598424 
-0.02741955394625428 
-0.02774338575434988 
0.2609712496693649 
-0.0002829784193759883 
-0.3495138791227291 
-0.01010277150494338 
-0.0003802704631928122 
-0.2496315909170164 
-0.03735635177319763 
-0.05285530303071911 
-0.2863267807676271 
-0.1234594843259031 
-0.001756429389301664 
0.2899899683691385 
0.06712867622473087 
0.02934777563382032 
-0.1890881284877181 
-0.1391230665869181 
-0.09196413539247648 
-0.08900002261043539 
-0.2878350929745135 
-0.08091131386055839 
-0.3088716298369958 
0.4724979683774754 
-0.07405189069948283 
-0.1941632246608671 
-0.00129175585982657 
-0.2742174250764548 
-0.0146782782970909 
0.0001595922519200617 
0.1681276297634618 
-0.259499207587867 
0.0001595922519200617 
0.2733256557022722 
-0.1637221239770929 
-0.0008920572709166603 
0.5569215918364387 
-0.314848567945592 
-0.1246446415495344 
-0.362214246668361 
-0.07975416574251613 
0.2110972367481166 
-0.2433261992629899 
0.09794637478310574 
0.3699707325636867 
0.5357592006702744 
0.6046532430517699 
0.2848635616803332 
0.02713108550348419 
-0.1510381716792586 
-0.1574114838244124 
0.1209689961831801 
-0.1833296889854315 
1.088289628538478 
0.178778756533448 
-0.01580062094142759 
0.000593428156079143 
-0.2820380785978537 
-0.1668957041101342 
-0.276829601079115 
-0.0935131353197827 
-0.452871794782081 
-0.1511234841768789 
-0.07112105432319024 
-0.00762847898788421 
-0.2556998305052455 
-0.3520433636951937 
-0.00291605466033647 
0.1891028727673677 
-0.00291605466033647 
0.08431107716004684 
-0.00291605466033647 
-0.09648403163229886 
-0.06274383184115968 
-0.2262338303009083 
0.0007627184212595171 
-0.656097113670721 
-0.1136498111276632 
-9.490742278909286e-05 
-9.490742278909286e-05 
0.06855228687852397 
0.04325458241635614 
-0.02772760472884089 
-0.1991471174825966 
-0.1271943332619334 
0.06600597895427802 
0.08556627305494856 
0.03858035971399551 
0.09421840932967726 
-0.1734318133179918 
0.5674038813450617 
-0.07376928764380926 
-0.1344655286545241 
0.2389781512615775 
-0.01408971242455658 
-0.1784759230949222 
-0.05411651196655529 
0.2130302624634125 
0.04713326612088506 
0.9227580605518023 
-0.1899951564443909 
-0.1862477293113922 
-0.2407475674771566 
0.4691265749256726 
-0.1980973118193664 
-0.1193705980886824 
-0.2689330276535738 
0.04664783225146169 
-0.02426158237228587 
-0.01898224665317942 
-0.07532576877868295 
-0.01749170138846717 
-0.01749170138846717 
-0.01749170138846717 
-0.01788316662851482 
-0.001409360190313956 
-0.0108046296676219 
-0.2965749348424461 
-0.06958101251723418 
-0.542654754969388 
-0.2794180460627463 
-0.3558077468226132 
-0.01441440733021494 
-0.00154286491649638 
-0.1700022563393634 
-0.01493965174571964 
0.5728663343683037 
0.6085279471910252 
0.3443738590246215 
-0.189479989864045 
-0.2434212425463081 
-0.3433991902968182 
-0.4680768841963905 
-0.2982530747876267 
-0.2266812214484162 
0.0006604155267164801 
-0.03983913375051827 
0.08106629341014823 
-0.0226322695267993 
-0.002965500513982949 
0.002578348074770907 
-0.3200062130988443 
0.2559789529409005 
-0.0007114457015106957 
-0.03404551678887462 
-0.1806874757384856 
-0.05549073864939579 
-0.000232908459506133 
0.0832017502716812 
0.3411549957640416 
-0.2600749666879276 
-0.01609737388061773 
-0.07033243541830903 
-0.08564570582741463 
0.2197231330619502 
-0.2508337688614032 
-0.2324798103561792 
-0.03213628417277494 
0.03870056195161137 
-0.1104853025988499 
0.8299385624959844 
-0.09105197713396256 
-0.09105197713396256 
-0.09105197713396256 
-0.09105197713396256 
-0.09105197713396256 
0.7415385329559815 
-0.08074757647153406 
-0.0008900179310136241 
-0.2295511606752806 
-0.0008900179310136241 
-0.004950130203132334 
-0.0002750745573420554 
-0.0002750745573420554 
-0.0002750745573420554 
-0.5112838621009895 
-0.008234131951316736 
-0.0001264847509388891 
-0.001146036851809202 
-0.0001264847509388891 
-0.6332395627232119 
0.005144186025657286 
-0.1311354686400178 
-0.2705378690596997 
0.4118730881494649 
-0.04072375907836265 
-0.001245584989447322 
-0.0002511432804725988 
-0.0002511432804725988 
-0.0002511432804725988 
-0.19309724673841 
-0.2128299039262352 
-0.009016961444463501 
-0.08832758081763371 
0.1391797203222618 
-0.001560147157670474 
0.1786389855451583 
0.1591588520192658 
0.001240463905825345 
-0.05522797875088442 
0.06115379298348787 
0.1125921263819473 
-0.05973887091065549 
-0.2136570323681627 
0.017162414621877 
0.2821439843249525 
-0.238073122666753 
-0.6641008743436977 
-0.00873536852387361 
-0.5790549121823682 
-0.06151970141600308 
-0.1729067696961797 
-0.05328238492206495 
-0.1282729313232367 
0.2884936279984893 
-0.009800746262884918 
-0.1868809694098643 
0.7923906943931206 
-0.3417159047199957 
-0.2218332817317248 
-0.2217058471035992 
0.6943987827449106 
-0.2215784124754736 
-0.2445026694646129 
-0.4227621169459714 
-0.005208005543903515 
-0.005208005543903515 
-0.1137464880235267 
-0.1000230837452704 
0.4611763666282802 
-0.08773353202178587 
-0.06965992936759431 
-0.04656450951777144 
-0.3114396796289026 
-0.2021669315675585 
0.6686742934025837 
-0.207169849519689 
-0.04085066987621217 
0.02352140862096142 
0.8614763776919334 
0.1010965265964062 
0.2909223085933636 
-0.008050263502801821 
0.03682465085781748 
-0.1192006010597692 
-0.2637180921697535 
-0.0631531779256405 
-0.04951034538613308 
-0.08902882703240744 
0.08266281505014378 
-0.003870665861741581 
-0.006517250967666415 
0.8509305745836331 
-0.122373427465673 
-0.1486580171401283 
-0.05536495108658271 
-0.05536495108658271 
-0.05536495108658271 
-0.05536495108658271 
-0.05536495108658271 
-0.4101129503063747 
0.004120940253552533 
0.0002625056524870582 
-0.01250952167588832 
-0.002211598333445619 
-0.003507818064876738 
-0.461025905683362 
-6.371731406281373e-05 
-0.001928193146819366 
-0.4795371345515102 
-0.2363405863584825 
-0.2664298013551397 
0.3326546443072607 
-0.184229418389791 
-0.03968840003224999 
-0.1827516081127391 
-0.05138007080137972 
0.06031313616893694 
-0.4548342300453561 
-0.2041883295120452 
0.3057058833554577 
-0.3529039418951117 
-0.3333784146661484 
0.3059247108185865 
0.1361696587975878 
-0.3774795055926554 
0.05810571279252641 
-0.1738507019355184 
0.002827568140829836 
-0.2477939258580277 
-0.1939799965839016 
-0.3448975091620895 
-0.0002266667101770836 
0.2036223200061149 
-0.02739086924544928 
-0.3626290987319778 
-0.01322611722962109 
-0.5744277828749406 
-0.3896552424317193 
-0.005160074089949639 
-0.005285451468301069 
-0.3655329983845996 
-0.01216634538262992 
-0.1535845734693626 
-0.1535845734693626 
-0.1222257558974445 
0.2065892942464772 
-0.08782233195286132 
-0.2472808899834499 
-0.1316930311054467 
-0.08315452592531823 
-0.1194925785434487 
-0.06936393139361123 
-0.008259794108780272 
-0.5470459468637864 
-0.2914074636567507 
-0.03898635439324542 
-0.3004943559720326 
0.8877685575827742 
-0.001742862240762383 
-0.4254889758706669 
-0.001990008619799169 
-0.3107733906958142 
0.7783425369044105 
-0.07934302182593503 
-0.2323361841531381 
-0.1763442564155142 
0.1068981152538113 
-0.3042109700359958 
0.1675166013317735 
-0.1619077195553935 
-0.008050263502801821 
-0.01989635943950287 
-0.0987823811615095 
-0.1763237378359425 
-0.0987823811615095 
0.274931798154041 
-0.02847064234110021 
0.01224036469391456 
-0.008408216439860753 
0.06188973663690561 
0.0003003774730551095 
0.0003003774730551095 
-0.2898563358121968 
-0.2052348471638654 
0.0003003774730551095 
-0.11987543627251 
-0.3883983648058859 
0.7730380444732442 
-0.3720772781540058 
-0.01462728706226617 
-0.0003039667446774847 
-0.0003039667446774847 
-0.1778887088342284 
-0.1585327506598163 
-0.06253405156000962 
-0.06253405156000962 
-0.06253405156000962 
-0.0003606234434431015 
-0.1929162479420571 
-0.005787116053722703 
-0.005787116053722703 
-0.1064960229693122 
-0.1142671280469076 
-0.0003531815004171738 
-0.2725408198672611 
-6.371731406281373e-05 
0.0112524689501355 
-0.06129842982446045 
-0.107570796101303 
-0.008071308546110474 
-0.008071308546110474 
-0.09904351211801449 
0.241009498930483 
-0.3294914590943503 
-0.04784682391847736 
-0.008071308546110474 
-0.01855111532294731 
-0.008071308546110474 
-0.008163617290748802 
-0.008803409607392884 
-0.008071308546110474 
-0.07831234909971364 
0.1232587413299955 
0.1863209774471855 
-0.3357178066181725 
-0.001246283086561328 
-0.1642391462220578 
-0.0001702542955041192 
0.4771037488904838 
0.1938109434920316 
-0.04573869560928467 
-0.1468534328483935 
0.1367025694212725 
-0.128749112932013 
-0.00304869830659137 
-0.1898719206742839 
-0.0005423103519281216 
-0.2363994976262542 
0.09017006997523566 
-0.2674867467885912 
0.1685372286653112 
-0.006535985841802086 
-0.006535985841802086 
-0.006535985841802086 
-0.1092715220392982 
-0.1888331630720624 
-0.0132759564218404 
-0.5174366040094092 
0.04349047127138611 
-0.05641897061577655 
-0.001718539427008165 
-0.002149265242767643 
-0.1882922107068505 
-0.1846496164661273 
-0.7684293811757303 
-0.6157053529078972 
-0.0746952845523364 
-0.04429674645636656 
-0.3107509362293451 
-0.1733312648849328 
-0.1961424856951409 
0.2367864623942826 
-0.001802825811824486 
-0.01775477435159804 
-0.05057846048276701 
-0.002772846477636352 
-0.002772846477636352 
-0.007271699768158335 
-0.002772846477636352 
-0.1864567615829906 
0.5739421341826456 
-0.2141756688965464 
0.2919424942321754 
-0.1040207979882992 
-0.1040207979882992 
-0.1040207979882992 
-0.03852469202889354 
-0.1959430440941509 
-0.2210496497165635 
-0.0208429891068489 
-0.0208429891068489 
-0.001305191234731828 
-0.2055956524503246 
-0.004120898777814359 
-0.2963354425775032 
0.1815682369177625 
0.001148836633526899 
0.1736249260455995 
-0.1999439701125517 
-0.07667778935506553 
-0.07667778935506553 
-0.2756903349258745 
-0.07298406266434565 
-0.604588137092816 
-6.701928072696371e-05 
-0.2095931582270158 
0.1716129905219163 
-0.2460797371227383 
0.2970420892818981 
-0.001418441931337359 
-0.2738265172078427 
-0.05388241288239436 
-0.07752718857644295 
-0.0004073414557210483 
-0.00734353997614814 
-0.00734353997614814 
-0.4159141648295174 
-0.3871822388926887 
-0.06502513036098605 
-0.01540652512928925 
-0.0009996529038247856 
-0.002607484885910345 
-0.1119516445630963 
0.1549977833182239 
-0.02702700150293381 
-0.4111988381099753 
-0.1222083049715542 
-0.1222083049715542 
-0.175253450470822 
-0.1169234719771164 
-0.4227284946087742 
-0.0001137880995216917 
-0.001429306117882249 
-0.0001137880995216917 
-0.1481302777277619 
-0.1653169223990652 
-0.3618728791028237 
-0.3001360353539621 
-0.05328059141360614 
-0.1387670528034635 
-0.0002676348490831412 
-0.000118157550309435 
-0.20171391174996 
-0.03558142914438818 
-0.000118157550309435 
-0.2336491875804284 
-0.1056189788400895 
-0.001529738216788013 
-0.0730605170400746 
0.0695471154381028 
-0.002334777529006331 
0.1776653588424078 
-0.06000783077506482 
-0.1353641013352085 
-0.4468356342472079 
-0.0525315828554901 
-0.02649338526670838 
-0.03449277785059371 
-0.01299055884943153 
-0.0004573631441412996 
-0.01400605217347103 
-0.3235829680469093 
0.1656453598862535 
-0.1305237416651627 
-0.008050263502801821 
0.02168164557677985 
-0.05804312501903503 
0.2161209167592945 
0.3390832343694033 
-0.002868457215904753 
0.3465728094998496 
-0.1313437561245534 
0.4048477517079863 
-0.295080043716392 
0.004568560727742281 
-0.3166488167485019 
0.003866615776804215 
-0.1401626605728403 
-0.01119902537205533 
0.1232439082652589 
-0.06481106090414995 
0.275071192434512 
-0.4108016026338676 
-0.00602783294293961 
-0.138322011353483 
-0.00602783294293961 
0.07663339866940568 
0.1871593637671506 
-0.1167625941257566 
-0.2386982013000553 
0.0455897700431175 
0.4583238480763129 
-0.1147294494005318 
-0.1157052962754033 
-0.1142049489269392 
-0.3325892518840103 
0.1289322461379603 
-0.0008288035233118549 
-0.0008288035233118549 
-0.804278680131297 
-0.2392426936572863 
-0.2979807771280308 
-0.4425460298679686 
-0.01044429965782974 
-0.02598734875052867 
-0.0003023331797315039 
-0.3433363126517388 
-0.3140066020001198 
0.0008937074588695648 
0.0005304197083472278 
-0.2484433502851366 
-0.2026327155627858 
-0.01527169816466883 
-0.05929625827600562 
-0.4063090132490177 
0.7531837176038225 
-0.4339672767412918 
0.1396249862391113 
-0.07007835549595338 
-0.1779254286759629 
-0.08510346813674828 
-0.08510346813674828 
-0.08510346813674828 
0.53991787423737 
-0.08510346813674828 
-0.08510346813674828 
-0.0003733915922851138 
-0.2407346278502875 
-0.0008532908960649882 
0.3796822260400677 
-0.1240057966042829 
-0.2771483385862866 
0.008817840670446338 
0.001159347685495926 
0.001159347685495926 
0.001159347685495926 
-0.1883790289531478 
-0.3137605556400445 
-0.3011024038815691 
0.07987949651427009 
-0.02915342844272019 
-0.07420135200189248 
0.04516314258649794 
-6.371731406281373e-05 
0.09145459256974457 
-0.03076483800822648 
-0.03076483800822648 
-0.03076483800822648 
-0.03076483800822648 
-0.03368455668642512 
-0.2992937081213082 
-0.1139059226345157 
0.002071057998439235 
-0.01685937203419741 
-0.0002686641159023111 
-0.1129611924270917 
-0.5509018972078805 
-0.2464958652429624 
0.3059576361898538 
-0.005671412023373022 
0.146236129102724 
0.0004142034008903916 
0.1785497540794749 
-0.3454452339175685 
-0.2449472863336019 
0.1900553247387356 
-0.1000617001800245 
0.0004004839923011229 
-0.101018468156257 
-0.598025381151511 
-0.03305841769428022 
-0.6018091532656357 
0.002613770372005234 
-0.1009359525221287 
-0.1007811153064043 
0.4174279809890691 
-0.005526641258069142 
-0.00864898183487158 
-0.1060165570208661 
-0.3666091542761505 
-0.0006269697902407751 
-0.0002276059473387805 
0.00166604855578424 
-0.04977979815365277 
-0.2858075208312036 
0.02187377712836891 
-0.1515792034728935 
-0.3043020612932382 
-0.01151014117181063 
-0.2594827541671141 
-0.1309133858936221 
-0.0009971296682998276 
-0.0129293231731614 
-0.00090194903770463 
0.3740442661188465 
-0.1420717842480453 
-0.0005436757225247046 
-0.0006658718691531467 
0.07269327813102736 
-0.2787895163594939 
-0.002145625451419571 
-0.02170403894292241 
0.1339841017210759 
-0.2257426771789722 
-0.3033518965376369 
0.01197210979853684 
-0.2544533919383847 
-0.0001492218344762576 
-6.371731406281373e-05 
-0.1725406759575309 
-0.02682804538975916 
-0.1794789710903852 
-0.003971366439970517 
0.3249564622543734 
-0.03706368181904348 
0.1258037014738217 
-0.01200170151836437 
-0.01202466031525977 
1.326037228115926 
0.4144651572505119 
0.0006980759801840108 
-0.3004579199338157 
-0.07285053820269412 
-0.01307862479110103 
-0.008050263502801821 
-0.1918106392819266 
0.274113532364097 
-0.02124999366996617 
-0.4195702462728593 
-0.1662851011864615 
-0.2422242780417491 
0.1233818006506285 
-0.1279502134800343 
-0.2201406132397335 
-0.1780174713471598 
0.08885923928731977 
0.01185286631592637 
-0.009584654810413675 
-0.3446437899523608 
-0.07582621870558674 
-0.3970235506413572 
-0.009265011369303074 
-0.2906429485434098 
-0.009265011369303074 
-0.02670447392898555 
-0.0003169331049981561 
-0.1272921780711558 
-0.0007545215104699424 
-0.0007545215104699424 
-0.0007545215104699424 
-0.002110628594036297 
-0.006823161665256856 
0.09384051813119165 
-0.2647315985195834 
-0.0005691300008368114 
-0.00234528341097159 
0.2547074706872008 
-0.02976011739963972 
-0.03008344981528449 
-0.003739032071067931 
-0.005950077097223869 
-0.000258070522230845 
0.7104724014777219 
-0.003834769959350683 
-0.003992346811373048 
-0.4324771505158337 
0.3287181892907473 
-0.3821594549533306 
-0.03150191679008898 
-0.01465560487747455 
-0.01933709408531332 
-0.09654484848846043 
-0.1220092092744752 
-0.3505978851358328 
-0.0002137866544740674 
-0.4641064116066226 
-0.1574075778738007 
-0.2324095061370346 
0.5348289276024242 
-0.32147056368166 
-0.2493288337158854 
-0.1157378115979345 
-0.1110349213949271 
-0.4352343825287517 
-0.01176210865833139 
-0.01212054018284753 
-0.02280868283178019 
-0.3283657674805921 
-0.4979742246103636 
-0.1363040031100771 
-0.05732930506133778 
-0.3154088878542009 
-0.01297828151161876 
-0.1942884233269681 
0.003507310943240196 
-0.001184745156288855 
0.09957561106654089 
1.151326272440285 
-0.0001861274967120787 
0.03430570433983031 
-0.0001861274967120787 
-0.02236486481200814 
-0.02236486481200814 
-0.02236486481200814 
-0.02236486481200814 
-0.736966518658429 
0.09937328846065707 
-0.4376213171003489 
-0.2670433207317772 
-0.01305476628441369 
-0.2230422613087431 
0.2020545729907 
0.2051707970775747 
-0.1099133214222984 
-0.1442906679576562 
-0.0006948521114291049 
-0.1140200615564056 
0.2750312554679733 
0.002597117372387521 
0.002597117372387521 
-0.3207335312842643 
-0.02930930298135554 
-0.02903981389805535 
-0.02970509428974405 
0.09238762822269764 
-0.3824627714025182 
-0.002217350420955295 
-0.122573020556519 
-0.4269659980159348 
0.3021260035393075 
-0.008379605558320459 
-0.004668956320209271 
-0.4602577359999377 
-0.0007059787884356172 
-0.01041601108780703 
-0.05895787511544241 
-0.04782693357257305 
-0.008927020398877814 
-0.08131799479749058 
-0.05717837748780304 
-0.1385247171855789 
-0.1722507506906927 
-0.0427978958686901 
-0.002525455815031728 
-0.2910889081457856 
-0.03008764849485697 
-0.2249208261328324 
-0.1130588139626766 
-0.1568452403708449 
-0.1334876506695798 
-0.4286286062242743 
-6.371731406281373e-05 
0.07993093684042703 
-0.2630061107441173 
-0.3423706356577163 
0.01762387615977307 
-0.08849418446277968 
0.3270845636146664 
-0.1527132471564945 
-0.02081496075974268 
-0.4376323347357012 
-0.04491481977864888 
-0.03294168066027921 
-0.2314432680525384 
0.2638623456642253 
0.2559936276714162 
-0.3378605760849122 
0.01188078975905256 
-0.1671907964430929 
-0.0001411931678247923 
-0.5559320685942115 
-0.006488221996381219 
-0.3386354109500978 
-0.1108958143878389 
-0.08695534183394857 
-0.09142869898141573 
-0.1918767464460734 
-0.002639387621222409 
0.001562350900383354 
0.08271130952994461 
-0.262567497067041 
0.006506931530908792 
-0.1863618695841613 
0.004996156946315955 
-0.0004495306612567081 
-0.1420712028395149 
0.6503509465007157 
-0.6395621916603635 
0.001951216039368251 
0.437204658523256 
0.001951216039368251 
-0.004187223666654288 
-0.08877086751441664 
-0.01114019453414956 
-0.02434605272384778 
-0.01983046858001158 
-0.08678341985487549 
-0.03591739120547464 
-0.1279192007852117 
-0.03591739120547464 
-0.392748662442903 
0.0867701960422181 
0.2862396572204745 
-0.07681964548188518 
-0.001350935714157247 
-0.001350935714157247 
-0.001350935714157247 
-0.001350935714157247 
-0.01871798435401196 
0.1423371816819165 
0.1661257873682838 
-0.006863686264117988 
-0.315909649250495 
-0.4742294162780062 
-0.1525970651559841 
-0.1290982414701859 
-0.1619790064094243 
-0.003173435723076676 
-0.04048302397642402 
-0.1407123970860478 
-0.001042441893782524 
-0.36614243725131 
-0.0011825053041865 
-0.001103914755815909 
-0.07833091394828934 
-0.0158777507066631 
-0.08054655273943946 
-0.04924465819983727 
-0.2173186687046312 
-0.2174842347350104 
-0.003656821765566543 
-0.003656821765566543 
-0.003656821765566543 
-0.003656821765566543 
-0.4283909772142353 
-0.03538775803000602 
-0.06988533847232357 
-0.1442499344806071 
-0.001706803780866591 
-0.3677056819926003 
-0.317611924580723 
-0.7914734029719137 
-0.01398255337929523 
-0.007272383546914132 
-0.5099172798393379 
-0.06539316521696291 
-0.2621079936773132 
-0.001306322953700389 
-0.2328315827100895 
-0.2302844400256628 
-0.0005569604000361585 
-0.0005569604000361585 
-0.01740752242006212 
0.2676358010024756 
-0.06129091759035917 
0.1150489253795331 
-0.01253223702000666 
-0.01265403589857524 
-0.008050263502801821 
-0.06828475470624366 
-0.5524887906233653 
-0.03187732251792926 
0.00406814654505616 
0.00406814654505616 
0.00406814654505616 
-0.000414563196405446 
-0.1415708635927776 
-0.01075934731574412 
0.0001632727400948226 
-0.03178743527695984 
-0.02325100686623254 
1.089037552238327 
0.1201250983934986 
0.5417277650132755 
-0.0003357592214717272 
0.2770365835444051 
-0.5063450126152502 
-0.4559284006801959 
-0.1534993869689661 
-0.008270142734617443 
-0.008380844408618002 
-0.002605547483425236 
0.1864057656004448 
0.0003048666132376751 
0.1129183288888329 
0.01048235357742251 
-0.1768355306514642 
-0.0006753068297726287 
0.01034766161318987 
-0.1883643790110654 
-0.3299263950773932 
-0.2576689999741002 
-0.0002332311727716656 
-0.001688024763439976 
-0.002674839224501025 
-0.001218701305028089 
-0.06309185644858016 
-0.01200991457857405 
-0.003821027718611726 
-0.1914255447140929 
8.618283852412046e-06 
-0.0006934428863864571 
-0.004350595046976394 
0.08666809533604744 
-0.008050263502801821 
-0.2295285383060126 
-0.001315661053510741 
-0.0483813027730289 
-0.05235243704750193 
-0.002356468795161516 
-0.002705135952628787 
-0.002705135952628787 
-0.003157650505532962 
-0.007551593295465905 
-0.002705135952628787 
-0.2319924212835724 
-0.2260469821502443 
-6.371731406281373e-05 
-0.04447146347619733 
-0.3255165603336367 
-0.07014212190668984 
0.000578947843240927 
-0.2495329425365577 
-0.001885585230690228 
0.5668106998786491 
-0.0001115508039613969 
0.3286817984449119 
-0.1232507553123064 
0.1949602371104369 
-0.0005893944263565844 
-0.004147480917418676 
-0.0001450701778854685 
-0.007626250041718331 
-0.01678171594215409 
-0.0001450701778854685 
-0.0001450701778854685 
-0.1055194724835697 
-0.03097288160997687 
-0.002960107135029773 
-0.1311834238713462 
-0.09344542024664891 
-0.4428024402088341 
-0.0001009973383661968 
-0.3417466894427037 
0.1151538228785436 
0.1265325021282233 
0.08798994991805206 
0.01468494450494181 
-0.1339722363781359 
0.01560068638698452 
-0.005163573902742902 
-0.07923978667277165 
-0.001254238324380993 
0.3332239560677397 
-8.937629223344748e-05 
0.0119510101892371 
-0.1198517662473891 
-8.937629223344748e-05 
-0.001824512992467275 
-0.3559434323193119 
0.4000429481338845 
-0.4943984806408339 
-0.0007275647201611586 
-0.0007275647201611586 
-0.390796240204674 
-0.2841554320547395 
-0.1540388689285809 
-0.04349219507044663 
0.006010814700808317 
-0.3400269584530254 
0.1033619320795394 
-0.07348273125990216 
-0.1087717112185286 
-0.208874864908101 
0.1139289283309149 
-0.3173698613383153 
0.1006061833518969 
-0.0003871843344031264 
-0.0003871843344031264 
-0.1686100991951971 
-0.00526483866953362 
-0.06898757755147802 
-0.00374308663075498 
-0.1794617849698835 
-0.2639913618207649 
-0.06917917052975206 
-0.2402864298862845 
-0.249556366484407 
-0.008037399924381183 
0.000177702552071721 
-0.2838639329740339 
0.000177702552071721 
0.000177702552071721 
0.000177702552071721 
-0.2608678182391516 
-0.2319490815677124 
-0.005728311454088318 
0.1829194164284528 
-0.06121549613069589 
-0.001840400508588452 
-0.001840400508588452 
0.5925130341872482 
-0.001840400508588452 
-0.07572489797786243 
-0.1433043816528725 
-0.08856297439987958 
0.251054093189201 
-0.3622556973042727 
-0.04214124866526713 
-0.2391080327679938 
-0.008050263502801821 
0.2826637066966937 
-0.0001058255761396449 
0.4277472205758714 
-0.1542004356515536 
-0.03776863956674416 
-0.04446809913971068 
-0.3145242327415944 
-0.1400162163819724 
-0.0008279707077855362 
-0.05546236333959169 
-0.3172187884522956 
-9.686151473355053e-05 
-9.686151473355053e-05 
-9.686151473355053e-05 
-9.686151473355053e-05 
-0.4571810904411947 
-0.008238817028803103 
-0.1377387176018344 
-0.0006294884906874399 
0.01379859020260482 
0.02071047955855156 
0.02071047955855156 
-0.1936423615403713 
-0.0007454328535877661 
-0.01423757268272067 
-0.000218589327746473 
0.3989882209390698 
-0.07254495987688141 
-0.07155481130774431 
-0.02634228391551419 
-0.2892296905936596 
-0.002120660072646238 
0.08272234074400787 
0.007455120787533371 
-0.03515772919894193 
-0.2062273750825922 
-0.06710651143349286 
-0.01181848764075785 
-0.01003886492634936 
-0.01003886492634936 
-0.01003886492634936 
-0.03388076115491015 
-0.05715810329878865 
0.2213733233316483 
-0.03523252700683573 
-0.01159071476301298 
-0.05818653572628532 
0.6262757709468094 
-0.1310447781550471 
-0.001216163896428618 
-0.002722547574222543 
-0.03545985655213123 
0.00741738028075124 
0.3512798738534229 
-0.002559823254665837 
-0.1425313041163448 
-0.02974214195064042 
-0.1119773478560546 
0.8840848652804477 
-0.1133924809283123 
-0.03172993907900325 
0.3851980662157822 
-0.0004162708553073204 
-0.0007936382600823415 
-9.361774031212655e-05 
0.1089472163354611 
-0.1581524491583929 
-0.000775372800197438 
0.3113227998949562 
0.5666766441309004 
0.2103743000563536 
-0.1109674885584156 
-0.0003522818316230659 
-0.1299518533258034 
-0.1909616665674682 
-0.03267523318787577 
-0.007928772990136897 
-0.06204401694395157 
-0.02123620096599478 
-0.2789599337750662 
-0.08819643046445684 
0.04156371117285314 
0.535752471885933 
-0.06775254778336574 
-0.03261796252479188 
-0.1226716254686486 
0.3648224400084354 
-0.03261796252479188 
-0.2260960524409845 
-0.2669347523521248 
-0.1391386861119569 
-0.1370952913186385 
0.0004162163396334172 
-0.01414379486930566 
-0.05070279590679722 
-0.3474942800810992 
-0.05072852691226327 
-0.159356453562267 
-0.1404647145358568 
-0.0002618389365232854 
-0.387480299610101 
0.5020086817832774 
-0.1775635317348986 
-0.4453688279599026 
-0.1531522740286087 
-0.4004278407788548 
-0.04609053263977649 
-0.0007464612019036493 
-0.003941243859822309 
0.1483949377997774 
0.5271281567870979 
0.2385210417188435 
-0.1604920855365324 
-0.008050263502801821 
-0.07897519888330629 
-0.3055867411532289 
-0.2098963766630411 
0.9031113358764324 
-0.09968650584188411 
-0.2627003773575058 
-0.1020310318626392 
-0.1014167983735632 
-0.4582146342772442 
-0.2531681358795975 
0.00325257096139519 
0.6617107053061299 
0.5867978983049021 
-0.04703490261799147 
-0.0658608377014856 
-0.1652262602176028 
0.1688433720379538 
-0.0003271304187430104 
-0.00126102587032193 
-0.0003271304187430104 
-0.0003271304187430104 
-0.0003271304187430104 
-0.0003271304187430104 
-0.0003271304187430104 
-0.0003271304187430104 
-0.0003271304187430104 
-0.01499945077279329 
-0.0003271304187430104 
-0.0003271304187430104 
-0.07091352044151703 
0.008394210381862938 
-0.01380364753000518 
-0.2564800034078777 
-0.00107951191435618 
-0.00107951191435618 
-0.2289705720985205 
-0.00107951191435618 
-0.1468260714612443 
-0.189272366301636 
-0.008050263502801821 
-0.06818982256857579 
-0.03723257525686317 
0.656876392692162 
0.8983663739994866 
-0.02430570909932721 
-0.02435114042349101 
-0.02435114042349101 
-0.02435114042349101 
-0.02499911184654952 
-0.02435114042349101 
-0.04227396437809112 
-0.01318843782620976 
-0.004648514534072718 
-0.004648514534072718 
-0.004648514534072718 
-0.004648514534072718 
-0.008050263502801821 
-0.2975986461568303 
-0.000294066734165497 
-0.0005557824100969962 
-0.743027818291924 
-0.2663891522552319 
0.3503630915582847 
0.6412024055931257 
-0.4101936673029584 
-0.349258806179395 
-0.3884472839256922 
0.9801989332317957 
-0.008657782620685428 
-0.08848090784107028 
-0.00217662623221682 
-0.5357726979833028 
-0.201044098500349 
-0.2011819325310016 
-0.005895106809306909 
-0.0992165237768893 
-0.005242874961871979 
0.002771650868702469 
0.002556147548117779 
-0.0641472354075272 
-0.05970959211269467 
0.02100927723114661 
-0.07575174895869032 
-0.004211522215222884 
-0.02885949724491596 
-0.2470871650588452 
0.4763711252908534 
-0.1138215517238957 
-0.1208133197137475 
-0.01026880890018966 
-0.1221023276315952 
0.06585951752841981 
-0.0008909292918791144 
-0.000125099099109092 
-0.04760399147490142 
-0.02118142048652236 
-0.006729771729275975 
-0.005669322507395629 
0.001185383319957204 
-0.007363080522647106 
-0.3314632717293235 
-0.3527955487171402 
-0.02675667682741292 
-0.02675667682741292 
-0.02707599303542703 
0.8641114112755653 
-0.2496648030937254 
-0.4668029090423669 
0.3389082679796381 
-0.01813668543535503 
-0.0198215535689893 
-0.283698532933939 
-0.0001103327703019423 
-0.3481085725286449 
-0.001248318151931602 
-0.4132966895843304 
0.03920074926421958 
1.068885933081094 
-0.04802635687966154 
-0.004332184209356123 
-0.009470047637599522 
-0.01602999528555924 
-0.1058190296765116 
-0.1035900074285008 
0.2991018462648948 
0.009355061966531285 
-0.1033689687446997 
-0.7811557129146373 
-0.2152797743227249 
-0.1121277993848285 
-0.08214565658020727 
0.1004851216511075 
-0.1276134125865034 
-0.007402848656809359 
-0.0956824906587654 
-0.0353537479870745 
-0.008050263502801821 
-5.533636755189739e-05 
-0.140072522626141 
-0.02358956991488244 
-0.6719571569007556 
0.0008065048681035758 
-0.4807315884830898 
-0.2347619203475201 
-0.0008337426287086257 
-0.107715148643084 
-0.1037914590865144 
0.003261135819755299 
-0.108339938390414 
-0.0009041086294580264 
0.2741391653060223 
1.223795884292628 
-0.2724759011470108 
-0.2692747039401159 
-0.3068249978306683 
-0.2692747039401159 
-0.2692747039401159 
0.1594166591157952 
-0.1619539215949978 
-0.1333109820406627 
0.2111460383866952 
0.1659891833684184 
0.6806187919589742 
1.052856306370024 
0.2478664505096372 
-0.06692968419466022 
-0.07435697470675362 
-0.001144389273149576 
-0.01962872011621281 
-0.001144389273149576 
-0.001144389273149576 
-0.001560086453245335 
-0.493595488070503 
-0.0003949517513746262 
-0.0003949517513746262 
-0.0003949517513746262 
-0.0003949517513746262 
-0.01786442718426354 
-0.02420057768809642 
-0.001415133072257727 
-0.1628533946943554 
-0.1470351783814491 
-0.04098511714116296 
-0.3117590895209531 
-0.001143425159797219 
-0.0007119204152146883 
-0.0007119204152146883 
-0.0007119204152146883 
-0.2093566091831567 
-0.07503658707887066 
0.4091339823128573 
-0.1564505301449496 
-0.1564505301449496 
0.002695151814849691 
-0.6421736700417637 
-0.1596794811544769 
-0.000702158826641636 
-0.001152750849259016 
-0.5418732587029127 
-0.0638997308554186 
0.4655662297126537 
-0.2559276249935301 
-0.2904497655219317 
0.1523472160547745 
-0.3008067504810518 
0.792187570924141 
0.1050834873886982 
0.2925196437410378 
-0.7509496629162135 
0.2398597637034968 
0.04643677869573982 
-0.0764505655093901 
-0.2023034126947109 
-0.0007334603062934516 
-0.2778410991072937 
-0.08544993585813233 
-0.2121074300494292 
-0.06183438797444448 
-0.09986767161447491 
-0.3431646307502995 
-0.02932147915456371 
-0.2110501662591477 
1.301865824706117 
-0.009529634959484719 
-0.001729586717497538 
-0.001729586717497538 
-0.2559182916101718 
-0.003268355977678067 
0.07661598631676464 
-0.7921679861484614 
-0.1733139990079778 
0.4433450357283285 
-4.871960911259386e-05 
-0.008448607222768885 
0.0009873111081060652 
-0.01882116831818924 
-0.1534900113014435 
-0.006474163563403379 
-0.3280603442051403 
0.08401047783326415 
-0.3513407385062726 
-0.07451629084156175 
-0.1057073304475399 
0.06288300409026427 
0.006044356879355809 
-0.02845762237780389 
-6.371731406281373e-05 
-0.4374463102971516 
-0.4963352282510561 
-0.1021994708639421 
-0.2649607811752013 
-0.1132859422236765 
-0.150177910097632 
-0.121686838207632 
-0.1188061305866458 
-0.07677702250603272 
-0.1643908791306927 
-0.1729955868981474 
-0.2809373731133555 
-0.287598136708452 
-0.0006110293276605071 
-0.3749117398670431 
-0.1158286046399289 
-0.04242299018554643 
0.1582336899728291 
0.1516284456533966 
-0.01423949833024312 
0.3949200201155467 
-0.1391520502258132 
0.00181414363414023 
3.503855401567635e-05 
-0.161533202633063 
-0.1478258173666899 
0.08009306361055581 
-0.08474619014855989 
-0.06137353605412272 
-0.02574164576022494 
-0.02213485481237666 
-0.02636826249136169 
0.08705025792497469 
-0.08808599310900826 
-0.1796637856328782 
-0.02285667894978864 
-0.2777040706339567 
0.8017204803383652 
-0.1563147319887371 
-0.1384361679925007 
0.01413656640565101 
0.01413656640565101 
0.0008810663278892158 
-0.09857242486284239 
-0.001929676171267566 
-0.001929676171267566 
-0.001929676171267566 
-0.001929676171267566 
-0.001695046637973296 
-0.008538539128271867 
-0.003043573760788234 
-0.002047348901051521 
-0.2720978288801562 
0.1400888844129807 
-0.3042369033276451 
0.003510591520243167 
-0.3303321518781281 
-0.02253007769365315 
-0.2440793735137119 
-0.00164231349196676 
-0.00164231349196676 
-0.00164231349196676 
-0.00164231349196676 
-0.00164231349196676 
-0.00164231349196676 
-0.00164231349196676 
-0.00164231349196676 
-0.00164231349196676 
-0.00164231349196676 
-0.009303218539135053 
-0.008167156408949272 
-0.1176395901047997 
-0.131828319532535 
-0.07679655879831553 
-0.01595928819618988 
-0.0009873468233544264 
0.1521540685468168 
-0.07634593854948495 
0.0695514875751643 
-0.00214863948653861 
-0.1391015977889016 
-0.1404653441851992 
0.0009912112167110034 
-0.1494063507397079 
-0.06134338807329959 
-0.02928108693346206 
-0.4766520156739325 
-0.03198863808302761 
0.01298801453020154 
-0.001246981447732278 
-0.1052194526945999 
-0.07252411709511532 
-0.07252411709511532 
-0.1325152899455388 
-0.08108800935472056 
-0.007403150963023456 
-0.2235483067702892 
-0.001944960895680483 
-0.001479813556803431 
-0.0002767470856151427 
-0.02019883644548114 
-0.01192655044574945 
-0.02060718805762285 
-0.180944911718511 
-0.1188082038117381 
0.6179672044380053 
0.1639659995885197 
-0.4314482056467573 
-0.007388979312241409 
-0.007388979312241409 
-0.08808189342926083 
-0.0001001151674192399 
-0.0001001151674192399 
-0.008050263502801821 
-0.0001709820626982589 
-0.3169686015462391 
-0.0001709820626982589 
-0.2851074452293664 
-0.2703325826362266 
-0.371318741434234 
-0.03651050239023302 
-0.2682706900841482 
-0.2644523348562542 
-0.0785486813949262 
-0.1609338297974771 
-0.239309306527854 
-0.04818070195826985 
0.0360947258119017 
-0.1319746692502477 
-0.001168271765744855 
0.03595809100101383 
-0.005677994025619664 
-0.005677994025619664 
-0.001655797589257048 
-0.08189242790826033 
0.06280985782212707 
-0.00628620506830046 
-0.1356536167191626 
-0.0003945303435182345 
-0.0003945303435182345 
-0.0003945303435182345 
-0.1717613718892093 
-0.0003945303435182345 
-0.0003945303435182345 
-0.0003945303435182345 
-0.0003945303435182345 
-0.0003945303435182345 
-0.006089278272220958 
-0.001361163082219423 
-0.05869266692211003 
-0.2415932974387351 
-0.4488598550455622 
-0.01849547158756104 
-0.1225502239749983 
-0.008050263502801821 
-0.000288685018500593 
-0.01633492213855332 
-0.002746202371512119 
-0.06345330832155356 
-0.02974302877605591 
-0.0009388230207996566 
-0.0004400179061495347 
-0.0004400179061495347 
0.02895063032990776 
-0.04081690423281326 
-0.09483823460503708 
-0.1027923316248146 
-0.08905183237170103 
-0.001413616308302128 
-0.005394858074272442 
-0.002014178671370744 
-0.001878200747147507 
-0.1730468804848139 
-0.008851582766793537 
-0.3543426504176797 
-0.000362827720352937 
1.996883394006244e-05 
-0.1448148358386294 
-0.005238317336679627 
-0.03882576301035394 
-0.3463580963045416 
-0.2436741245557138 
-0.02077151646933952 
0.1205657953410907 
-0.1362733775679789 
0.3398538130783821 
-0.1204024209139574 
-0.1770189529929219 
-0.01236092564791003 
-0.1101333440790828 
-0.3664867098711024 
0.02905153582998305 
-0.09925870901654818 
-0.4387407926524716 
-0.2075739238261746 
-0.0009028415294568048 
-0.1424590658743945 
-0.05208750306691392 
-0.1273236388463131 
-0.001744716878794147 
-0.001180745387824184 
0.0009430423095467268 
-0.001136149991139071 
0.4582049598326925 
-0.3310483526387769 
-0.0008099218045360159 
-0.05388321989257163 
-0.1298390396101278 
0.001975879187110412 
0.004425792574689283 
0.06111394109107206 
0.9506358754871189 
-0.0003170330254820532 
-0.000440678489797422 
-0.000440678489797422 
-0.1635103735309655 
-0.2033896625237203 
-0.0007567591540335776 
0.3159969380263244 
-0.20137502151126 
-0.1621701736514611 
-0.008115038421352362 
-0.07466452066588065 
-0.4251371676481831 
0.1606284133027882 
-0.1988786353636826 
-0.03646848766009768 
0.7137989412734582 
-0.2506364923798174 
-0.1928192980763834 
-0.1736707096040536 
0.7928935989654471 
0.02843706181196828 
0.4046443897744869 
-0.00892258459362266 
-0.00892258459362266 
-0.0004054493590716019 
0.002316272992498665 
0.0336558247696845 
-0.0004579565211017927 
-0.3619380857861215 
-0.0006911403503158305 
-0.009657721838002356 
5.506414015737154e-05 
-0.003040483022071953 
-0.1016220676243682 
-0.0008142699287763032 
0.01206947671530072 
-0.4490163143345746 
-0.1104316040336471 
-0.2334444188511564 
-0.3530364899539995 
-0.1351148056018233 
-0.0003951853685404624 
-0.04825848633360752 
-0.01041601108780703 
0.3088959542927583 
-0.2623502574936725 
-0.008050263502801821 
0.003297627102000075 
0.7709349111604182 
-0.03360347825965461 
0.001105932261911996 
-0.1883355308466642 
0.8203876614095414 
-0.5150840403995289 
-0.008050263502801821 
-0.03551401044735625 
-0.004532351174616916 
-0.5612706968342577 
-0.08984440873748058 
-0.08993013968203879 
-0.1011032716675972 
0.4890810365614821 
0.1434530422640168 
-0.00248495511064996 
-0.03156745841724812 
-0.001839727042279487 
-0.001839727042279487 
-0.2325538359763701 
-0.0003888382861928255 
-0.0003888382861928255 
-0.001102899067055699 
-0.001102899067055699 
-0.001102899067055699 
-0.0008548994644011048 
0.5913284309550819 
-0.01041601108780703 
-0.07319835051024283 
-0.0004507208657607184 
-0.0004507208657607184 
-0.08015767960490475 
-0.002346217767006969 
-0.1156702376787641 
-0.4227956254680013 
-0.2581048777408283 
-0.008027621826556587 
-0.6020324055229846 
-0.00881442742998588 
-0.08162594091976563 
-0.1333107237503963 
-0.3004123959356921 
-0.4186495182755516 
-6.371731406281373e-05 
-6.371731406281373e-05 
-0.3513390304434574 
-0.08279523323787139 
0.2562488991601499 
-0.07627575576244795 
0.03749829572503436 
-0.08279523323787139 
-0.02144343141724144 
-0.0486404370023557 
-0.01690528928409799 
-0.01690528928409799 
-0.05004985398738904 
-0.001970006456617517 
-0.0001287016520646971 
-0.0001287016520646971 
-0.0001287016520646971 
-0.1138598738309346 
0.4262385253192312 
-0.0005260250504677474 
-0.0001516423930955561 
-0.1092579104285856 
0.007296986495298097 
-0.1754417544176399 
0.1672574734324808 
0.513778796497728 
0.5768791308034202 
-0.1564605432796283 
-0.0008610105831807726 
-0.008596156963594408 
-0.0009921400602140582 
-0.0009921400602140582 
-0.1115700775790902 
-0.00113064932417616 
-0.001269529910207891 
-0.0009921400602140582 
-0.5677893039048693 
-0.006539316681453729 
0.4850714899418594 
-0.3192247179067992 
-0.2760419815571966 
-0.0863760140900145 
-0.09356875558395016 
-0.0001800249485318544 
-0.0003176292699785102 
-0.2070412751777184 
-0.2644675660359587 
-0.004340990509772261 
0.0001228133091191418 
0.0001228133091191418 
0.01345119519913748 
0.0001228133091191418 
0.0001228133091191418 
-0.1143476119262162 
0.0001228133091191418 
-0.0192998180281979 
-0.0004458836295761413 
-0.5150588290393948 
-0.0327747465371576 
-0.224212182617341 
-0.03179662654621213 
-0.3089114196002407 
0.6490455042439061 
-0.000249911091630772 
-0.000249911091630772 
-0.179082310768661 
-0.03711529985128259 
0.00141854468936651 
-0.1305948544265379 
-0.005208005543903515 
-0.005208005543903515 
-0.1033399084151385 
-0.005335480357144592 
-0.3921180223841932 
-0.001303666004754015 
-0.06419250178295773 
0.06944976828569124 
-0.004616754475981852 
-0.01578823536073137 
0.0683739793152344 
-0.1119862072251075 
0.01722460986837897 
-0.1548675214316264 
0.5489300013651599 
-0.08569059527655168 
-0.0215497284005954 
0.01077442409488089 
-0.3141318890427574 
-0.05850334640385785 
0.001817138744727062 
0.001938955312671927 
-0.007738881749785835 
-0.008050263502801821 
-0.1354136343691775 
-0.01396589621611701 
1.328312799531061 
-0.0001740979915874015 
-0.003305570117830184 
0.0004059073915944023 
-0.3422770968248001 
0.2254237116857173 
-0.008083561853681363 
-0.3427197240175101 
-0.03401234004313593 
-0.008083561853681363 
-0.06732338129042729 
0.001258633288525781 
-0.02062644139595268 
0.0004979344135413837 
-0.1307002080492584 
-0.008818934291403123 
-0.0001221824152930693 
-0.01371388285345897 
-6.371731406281373e-05 
-0.08785848122404359 
-0.9866691920150168 
-0.0841239276643778 
-0.2121176173338138 
-0.429696393255235 
-0.08755559873602088 
-0.08755559873602088 
-0.3390503290045119 
0.05808532673399647 
0.03565315651263734 
0.003062519706824739 
-0.0726782037103946 
-0.04609063251115588 
-0.04609063251115588 
-0.04609063251115588 
-0.04609063251115588 
-0.0212428334763415 
1.085476317246417 
-0.2622632240018742 
0.5856316854286119 
-0.3425896481926017 
-0.05668676699916405 
-0.01199169874055653 
-0.003121170861940819 
0.002612736243061686 
-0.04223786845024792 
-0.04369227004647232 
-0.4569124017808811 
-0.5361183480788768 
-0.005453423904418496 
-0.0003953065936681274 
-0.0003953065936681274 
-0.5001990591898314 
-0.0003953065936681274 
-0.000640110842132647 
-0.004245977871067689 
-0.004245977871067689 
0.1817728732748391 
0.3115836573527134 
0.0006099942997705028 
-0.0004334242880517375 
-0.1392999635575107 
-8.612316234936273e-05 
0.4941671021089414 
-0.2723407774646559 
0.2899008120060115 
0.1511212987785114 
-0.1913635766876822 
-0.00163193774892686 
-0.00163193774892686 
-0.1831590371257104 
-0.1124459868055129 
0.1026166682799526 
0.007045203460303338 
-0.1347473597621545 
0.003707410910182798 
0.1982021848995713 
-0.001409889940194315 
-0.007669326541713219 
-0.06521220022087183 
-0.000827976858230644 
-0.2114049017428036 
-0.002742612300199922 
-0.002955183352203914 
-0.0006426401215435915 
-0.2077095415039687 
0.09517299303283748 
-7.612810126160893e-05 
-0.3410268066018498 
0.4180149483146819 
-0.05543550431106498 
-0.09228316699605926 
-0.001659122106522602 
6.217924970314101e-05 
-0.08711800370151369 
-0.001423424095582214 
0.008935973746194776 
-0.2621692731459867 
-0.2371156497827383 
-0.0008359897554824581 
-0.002651519640486764 
-0.002651519640486764 
-0.002651519640486764 
-0.002651519640486764 
-0.002651519640486764 
-0.002651519640486764 
-0.09372548106450956 
-0.231324018793641 
-0.0008268348333926044 
0.01350181525007656 
-0.2406470074225811 
-0.001016666689078575 
-0.001016666689078575 
-0.02317353309292938 
-0.02317353309292938 
-0.009349875713535613 
-0.02020218333188674 
-0.4922753944640306 
0.7172996739010993 
-0.0003174463057117407 
-0.0864355443710205 
-0.09648307040400141 
-0.09394455459565919 
-0.09342354903320495 
-0.00286744605972762 
-0.002818859220528951 
-0.244274470329842 
-0.1393772654796615 
-0.001235749461401706 
-0.00163597688090683 
-0.004029584943425302 
-0.008050263502801821 
0.4568361764040108 
-0.009185658633542525 
-0.07343347709750865 
-0.2024531350684086 
-0.0002219548550202655 
-0.0002219548550202655 
-0.1896010138159278 
-0.003726410981927436 
-0.0007152233651943588 
-0.01661010240996263 
-0.2155790721575959 
-0.1071025429312051 
0.09302385419826016 
-0.01272832333971215 
-0.3435137671570738 
-0.3196810863033619 
-0.2744549587507506 
-0.002679787936809402 
-0.01933709408531332 
-0.1775158915552631 
-0.02146768635008958 
-0.02146768635008958 
0.5551752110469259 
-0.1007163367852111 
-0.01476239331896874 
-0.02998379171149525 
-0.400753568838667 
-0.0006345496410946895 
-0.0006345496410946895 
-0.002313610939419604 
-0.2448662824681894 
-0.01192829455521137 
-0.0058782330518817 
-0.1773646615060472 
0.3377263962303451 
-0.06244554440201477 
-0.2503344775223327 
-0.09608797064753682 
-0.290522372989905 
-0.008391532816351023 
-0.001095077559398293 
-0.09215710158433389 
-0.1075687863522187 
-0.1075687863522187 
-0.006652950089932358 
-0.07317683282816638 
0.006492568813401791 
-0.08505317234417802 
-0.004491744213751204 
-0.0005244241592968914 
-0.004491744213751204 
-0.07588864741543255 
-0.1269940392239355 
0.2194172603974265 
-0.001580513057538318 
0.390680556602034 
-0.1148802808552772 
0.03480716005016274 
-0.005208005543903515 
-0.005208005543903515 
-0.4238621363094274 
-0.1213231310472783 
-0.1213231310472783 
-0.1666061243926772 
0.005528273118290778 
-0.005309242954271558 
0.4032967871066785 
1.14088589130333 
-0.2866158579170736 
-0.1885198675668723 
0.001094224672165771 
-0.1492463417658849 
-0.008347942735296635 
-0.002302709212281713 
-0.002302709212281713 
-0.002615570564773786 
-0.002302709212281713 
-0.002302709212281713 
-0.002302709212281713 
-0.002302709212281713 
-0.1362220040602227 
0.3272781185658659 
-0.1211181604015941 
-0.04217535791254148 
-0.03998749964066246 
-0.03817590803227981 
-0.1081203228747811 
-0.03778391786540359 
-5.224672301129383e-05 
-5.224672301129383e-05 
-0.1029155718509865 
-0.03833590721485002 
-5.224672301129383e-05 
-0.1210048323424244 
-0.2964294786029296 
-0.001590318646225665 
-0.06061482135494278 
-0.07696540338852108 
-0.1174844769633485 
-0.03877702970453286 
-0.03916629404340662 
-0.1903953095385394 
-0.1891577267114261 
-0.3172444123526475 
-0.0126052486386514 
-0.001419950311485763 
-0.01490475839175891 
-0.05143229926477833 
-0.2005525176535801 
-0.0006229757194916402 
-0.2086518873516379 
-0.0003706634987551877 
-0.0003706634987551877 
-0.0003706634987551877 
-0.0003706634987551877 
-0.06518609560685401 
-0.06613321731101476 
-0.3627574479794086 
-0.1209470696701614 
-0.07576922538552222 
0.2041050290898853 
-0.0001842561309156776 
0.1036158797957849 
-0.5423112200138896 
-0.0004869655809131166 
-0.1163783221590137 
-0.0001723902416420494 
-0.0001723902416420494 
-0.0001723902416420494 
-0.0001723902416420494 
-0.0001723902416420494 
-0.0001723902416420494 
-0.0001723902416420494 
-0.0001723902416420494 
-0.0006933958040963041 
0.001260685104404038 
-0.01259521981754122 
-0.01259521981754122 
-0.1883733353880283 
-0.01284974323125121 
-0.0003313694040233806 
-0.2393143925408342 
-0.4850336917437212 
0.02836175408001597 
-0.1611585948039899 
-0.07087844745272802 
-0.1273502334349053 
-0.1026135195426558 
0.4886507905082877 
-0.002042540348431559 
-0.330128915933667 
-0.1372423460827128 
-0.2179892789498153 
-0.006319015737460482 
-0.3424254014346552 
-0.1932271542582074 
-0.1653996571209827 
-0.2085182546271826 
-0.005041871249818618 
-0.004991016389129094 
-0.1350886727816292 
-0.0008090602964108228 
-0.0002973152340827655 
-0.2962480458607346 
0.009162973954774679 
0.01406870491332382 
0.005878911412880359 
1.202133429392796e-06 
-0.0004969150609980158 
-0.0004969150609980158 
-0.1472628460608573 
-0.000377467993982396 
1.113399389277576 
-0.2797280226383204 
-6.309840485128256e-05 
-0.5490072563567638 
-0.00369269388831779 
0.4021388734715959 
-0.297559815663637 
-0.2388561019402466 
-0.2175261070406357 
-0.05326209131141448 
-0.01302605372657764 
0.6928570338195418 
-0.1522350950043069 
-0.1942273446686397 
-0.0003819257132953959 
-0.0940348055179146 
-0.008277867614538135 
-0.06701465440634403 
-0.06701465440634403 
-0.06744653457277709 
-0.06701465440634403 
0.005118059818256187 
-0.3450660750429727 
-0.1379760159344299 
-0.4188367383572088 
0.002046901313530899 
-0.000170375515732982 
-0.2794899148569738 
-0.001845975459369281 
-0.001845975459369281 
-0.001845975459369281 
-0.001845975459369281 
-0.001845975459369281 
1.303017226568365 
-0.003278623520663001 
-0.3593853871116293 
0.000132853235458658 
0.2838749991871101 
-0.03123640345300839 
-0.2349520587487889 
-0.3968823217238194 
0.5386286495479854 
-0.0002826237543839762 
-0.2320064262529166 
-0.0007765198997667102 
-0.1761199691705594 
-0.1758458443519859 
-0.1942718041247949 
-0.002390243761197188 
-0.09022259990278347 
-0.0002339828227776684 
-0.0002339828227776684 
-0.0002339828227776684 
-0.006994591419466141 
-0.4163018069792142 
-0.007162611155123144 
-0.03349697098932577 
-0.03375839751727103 
-0.03433543312523471 
-0.1324709561824725 
-0.2302052385374187 
-0.1039015523958232 
-0.06168053244305229 
-0.001888538678020777 
-0.001888538678020777 
-0.007953712669873436 
0.2914659140689858 
-0.0002248565280547697 
-0.0002248565280547697 
-0.0002248565280547697 
-0.0002248565280547697 
-0.005570754505321583 
-0.004305543007441842 
-0.1654496312127047 
-0.01482745533810225 
-0.002760538879783084 
-0.00158754824897021 
-0.00158754824897021 
-0.00158754824897021 
-0.00158754824897021 
-0.2162476268977923 
-0.1257915411025971 
-0.2794592064093741 
-0.006657881538543311 
-0.008631492185779651 
-0.3506615823134596 
-0.001165134701870709 
-0.001165134701870709 
-0.4557683444386966 
0.06209745242295277 
-0.393145649460108 
-0.298107644495445 
-0.1629591465878954 
-0.1309757336186803 
-0.00135362221472843 
-0.00135362221472843 
-0.00135362221472843 
-0.1585081264047221 
-0.1404024943384156 
-0.1882049310118908 
0.408815435510235 
-0.0003087514252937966 
-0.03471945128302953 
-0.1469432384588556 
-0.00646529769388458 
-0.004269184148660659 
-0.004269184148660659 
-0.004505189476536166 
-0.08746697859948374 
-0.02185327323751378 
-0.01080922520467128 
0.03244508404734954 
0.03244508404734954 
0.03244508404734954 
0.1208698456598664 
-0.04349726704376564 
-0.04851874073475469 
-0.04851874073475469 
-0.04851874073475469 
-0.04851874073475469 
-0.08668858567969674 
0.001055757595351553 
-0.1308234981887771 
0.001055757595351553 
0.001055757595351553 
0.001055757595351553 
-0.08321409055411819 
-0.0175862837108875 
-0.1792521716847337 
-0.008938799824477128 
-0.001290519008242495 
0.001387916634598137 
-0.0005179125156133715 
-0.07588354331726392 
-0.2228712586606861 
-0.0002935009381944405 
-0.01053293246773767 
-0.0002935009381944405 
-0.0002935009381944405 
-0.0002935009381944405 
-0.4200849836584519 
-0.5120595316364714 
-0.2170118948910771 
-0.03170419980235796 
0.6216724974093748 
0.2266302007246219 
0.8594400637846208 
-0.0001025094596642774 
-0.004330808557927866 
-0.008050263502801821 
-0.008220786343357675 
-0.007532433840025978 
-0.0004059194785306958 
-0.0003792822575019711 
-0.3941344357693133 
-0.3205644228177357 
-0.0766361055876027 
-0.03869555671807205 
-0.03901096400741864 
-0.06211380676115217 
-0.06024590495544705 
-0.06192364839504534 
-0.06192364839504534 
-0.1370193071971494 
0.4709064385825505 
-0.008050263502801821 
-0.09826752926489458 
-0.3066460123054953 
0.6815503122169205 
-0.0007002733920745597 
-0.0007002733920745597 
-0.0001960064176313023 
-0.3390751687790439 
-0.1420297092439647 
-0.0006950749460839275 
-0.0006950749460839275 
-0.0006950749460839275 
-0.0001956834900933468 
0.545476087613548 
0.3422818301759111 
-0.2799403202915361 
-0.001741566904854813 
-0.001741566904854813 
-0.1325160970141955 
-0.000589780617296644 
-0.006992113152762063 
-0.001409275802391009 
-0.0429543549660194 
-0.1033795704570883 
-0.001908563042521796 
0.001049639259364854 
0.001049639259364854 
0.2558032603608106 
-0.1757020452258276 
0.0004200560972654137 
-0.01453549773897893 
-0.1373377637926084 
-0.0004460211984396961 
-0.0004460211984396961 
-0.0006034089737486294 
-0.212106674861503 
-0.2437800720904188 
-0.03026426565387551 
-0.04517478773188197 
-0.0009678622240466622 
-0.01043876359750139 
-0.01043876359750139 
-0.2289698424418674 
-0.02710235592128497 
-0.1223588285716368 
-0.001367363779185626 
-0.001367363779185626 
0.09278054734235787 
-0.005137066054562191 
-0.1243944510650808 
-0.01306224147433762 
-0.01031634389621832 
-0.01031634389621832 
-0.03427693294163445 
-0.08464669128631272 
-0.0003397328850824798 
-0.001845223144399797 
0.2783322154129578 
0.2436730078152255 
-0.1621213921807145 
0.4142674709708867 
0.004390836343454402 
-0.3796879104193288 
-0.3920446076652931 
-0.001191236572731583 
-0.02246841043083383 
-0.01135582176812519 
-0.007192741493935653 
-0.1380740132136645 
0.3868180841951001 
0.1309280428937175 
-0.0779873471681561 
-0.001824119075595881 
0.3001978908694841 
0.1926864896576932 
-0.1149860769891351 
0.08850687490335922 
-0.1149860769891351 
-6.259552086012814e-06 
-0.01242714858147554 
-0.4369132769672101 
-0.0007923896696233238 
-0.1648925760529277 
-0.3530036117490729 
0.1932943130976043 
-0.3113860936820688 
0.0003068191843932234 
-0.1883377713692823 
-0.05455502550302889 
-0.05373913384109645 
-0.05373913384109645 
-0.05373913384109645 
0.8063055039236002 
-0.05373913384109645 
-0.07378056152926671 
-0.05373913384109645 
-0.001968642941110202 
0.04525149463924735 
0.4207953513961447 
-0.1058905335133358 
-0.008050263502801821 
-0.09800948637971846 
0.08237901253246535 
-0.1085651984949401 
-0.0002020310777536346 
-0.002543471261442244 
-0.002543471261442244 
-0.0006093496624327381 
-0.0006093496624327381 
-0.0006093496624327381 
-0.0006093496624327381 
-0.2333027630621138 
-0.005994939058411091 
-0.0162893734149552 
-0.005387774351209121 
-0.03460187269103343 
-0.00271159621974633 
0.03659672898631135 
-0.3158278547163633 
-0.01835929068799147 
-0.01469345640332283 
-0.0851722997053756 
-0.01469345640332283 
-0.005950464047945866 
-0.001380963708837249 
-0.00982942392747794 
-0.01021007400879561 
-0.1247908626394845 
-0.05617893120710739 
-0.05617893120710739 
-0.05617893120710739 
-0.05631379470759829 
-0.0002925642444559936 
-0.2265388498075698 
-0.006360980805849415 
-0.03887050382055326 
0.0004420120698863119 
0.0004420120698863119 
0.0004420120698863119 
0.0004420120698863119 
0.0004420120698863119 
0.2785199873043228 
-0.04614946431183871 
-0.04614946431183871 
-0.04614946431183871 
-0.04614946431183871 
-0.04614946431183871 
-0.04614946431183871 
-8.911362892342396e-05 
0.1961402908205759 
-0.1588812180602933 
0.4165901727393695 
-0.2725607632989052 
-0.1187162966366265 
-0.0001985951399372158 
-0.1225587375185808 
-0.0001985951399372158 
-0.01884356308397949 
-0.1229634054100318 
-0.01032445770322507 
-0.1167170879680454 
0.002468926207196972 
-0.0002192212754283023 
-0.03151518924317231 
-0.04308719324873988 
0.005192265598787465 
0.005192265598787465 
0.003709437899072634 
0.003709437899072634 
0.003619500719907028 
0.003709437899072634 
-0.3132031678875214 
-0.003077012307552211 
-0.002946438186485705 
0.2881331535176184 
0.2175734890242832 
0.5807880849672139 
-0.001138913750377633 
-0.008532897506813592 
-0.02285323589067456 
0.3196883604274353 
-0.0002456236962895374 
-0.1773131416501471 
-0.01597470094647032 
-0.1821095276928683 
-0.2479504684105795 
0.2183783292554004 
-0.257719023324825 
-0.0007568103288779423 
-0.0007568103288779423 
-0.2656596143863608 
-0.2553509313643929 
-0.275441305829597 
0.01529456610579626 
-0.005934451135197191 
-0.005934451135197191 
-0.005934451135197191 
-0.2964608010626131 
-0.02783724308159726 
-0.0002317498213386942 
-0.0002317498213386942 
-0.0002317498213386942 
-0.0002317498213386942 
-0.2244341837581312 
-0.0004740674375407368 
-0.03380196770227172 
-0.03289991775605985 
0.06680924876946999 
-0.0005103744853547543 
-0.2688045595329073 
-0.001589998771034981 
0.05225199287072708 
-0.0004736695722895675 
-0.2763675572797118 
-0.0003942514200984828 
-0.08772145028972331 
-5.96362436120932e-05 
-5.96362436120932e-05 
-5.96362436120932e-05 
-0.002321403919064523 
-0.0007043874889226771 
-0.04886785591864255 
0.1999772021224515 
-0.1392721548751961 
-0.07254036452885565 
-0.07254036452885565 
-0.07245837847750768 
-0.07254036452885565 
-0.05482601342223093 
-0.05424768141600513 
-0.0007401039830605268 
-0.00106270927493124 
-0.3457837521760046 
-0.0007755230488956759 
-0.02833670098979491 
-0.02833670098979491 
-0.1187670401177537 
-0.1687084047197835 
-0.1471222352516712 
-0.001041483927190023 
-0.001041483927190023 
-0.001041483927190023 
-0.001041483927190023 
-0.001041483927190023 
-0.1195945165504411 
-0.1262691857560332 
-0.010843058975597 
0.01842896410086829 
0.01957503819044337 
-0.1171900169550825 
-0.0007225108539414957 
-0.0009043729913268629 
-0.2044183246400606 
-0.0009043729913268629 
-0.002291071514378204 
-0.002291071514378204 
-0.2629706473138261 
0.02839679845500665 
-0.04687694115476491 
-7.520525932828061e-05 
-0.1427626839504589 
-0.1469701079772272 
-0.002898524753845682 
-0.06703135367333563 
0.4755395746244337 
-0.2193192500426341 
-0.00207784266608704 
-0.00207784266608704 
-0.00207784266608704 
-0.00207784266608704 
-0.00207784266608704 
-0.00207784266608704 
-0.00207784266608704 
-0.00207784266608704 
-0.001500368812620901 
-6.371731406281373e-05 
-0.3485368388677326 
-0.008348086025789613 
-0.0009219794236918127 
-0.03513007594329159 
2.580842416867414e-05 
-0.08153511753688036 
2.580842416867414e-05 
-0.01678371731986746 
-0.0003950572785314096 
-0.008050263502801821 
-0.0003953100956637388 
0.03965088675823236 
-0.0003953100956637388 
-0.0003953100956637388 
-0.0003953100956637388 
-0.0003953100956637388 
-0.0003953100956637388 
-0.03033747472504391 
-0.005770025955341118 
-0.004777525329812941 
-0.01257299636791978 
-0.2778614355491931 
-0.0006006694260657215 
-0.008050263502801821 
-0.1504581764260337 
-0.001187389969203048 
-0.03528269855154381 
-0.3523007490032541 
-0.09202380373478816 
-0.005208005543903515 
-0.005208005543903515 
-0.05396487074270114 
0.0007840756500886403 
0.00064493161641247 
-0.09495526174724642 
-0.06460722036652505 
-0.1692564872393724 
-0.000490713686530283 
-0.001368485174777896 
-0.005248359568770329 
-0.2398284565103196 
-0.2336013579927869 
-0.2336013579927869 
-0.2511727293188726 
-0.0001511662066642145 
0.005830655877029993 
0.3316693110164289 
-0.0005546504447298241 
-0.0998818386407935 
-0.02869852810906462 
-0.0004204523144812301 
-0.2133106168770402 
-0.01344449506644657 
-0.01933709408531332 
0.03623039022174082 
-0.1879469807545868 
0.0002079810918811873 
-0.005120076794799324 
-0.00060766064485261 
-0.00060766064485261 
-0.0006997207337097163 
-0.1738034319731804 
-0.003900380262349603 
-0.05820598000248431 
-0.05820598000248431 
-0.07023182414894813 
-0.2918883178412331 
-0.0009154687523109838 
-0.1078137385363741 
-0.1079118590745518 
-0.1074799789081187 
-0.1074799789081187 
-0.3543271164690366 
1.533321582861545 
-0.002433811801186049 
1.383980686082901 
-0.2076168221311515 
-0.2131937809555066 
1.081290244709778 
0.04331477433142587 
-0.02678338911243954 
0.6822698043600108 
0.2180256384991433 
-0.07056318315690632 
0.7600258841356168 
0.1063411038746604 
0.7600258841356168 
-0.2456967392670706 
-0.2729768082113151 
-0.2729768082113151 
-0.004213437354433958 
-0.003846746166843797 
-0.6225279663940997 
-0.008050263502801821 
-0.008050263502801821 
-0.004163080274189534 
-0.004163080274189534 
-0.2487020445724097 
-0.1870474369749422 
0.4815164764272988 
-0.6488876808047643 
0.8088805459694458 
-0.2980306509754719 
-0.000331692255214115 
-0.000331692255214115 
-0.2340119099037016 
0.0007755175059912005 
-0.003439613935595486 
-0.002743947659245429 
-0.08294753837339834 
-0.0703904898533609 
-0.0703904898533609 
-0.008050263502801821 
-0.007824607273196546 
0.0005131612311502814 
-0.03065038353427427 
-0.02214516775022944 
-0.006814029674349452 
0.007631910130592345 
-0.06571162719780098 
-0.2098746585201343 
0.5614604099055338 
-0.3715786901642217 
0.268210785280157 
-0.2529247549856286 
-0.03091909273125848 
-0.0299342898212956 
0.07757166168773452 
-0.1511708944539815 
-0.06607033017827285 
-0.1447951385194655 
-0.2735734550193418 
-0.1053426916075452 
-0.04454585678846049 
-0.008050263502801821 
-0.0005650497516321699 
-0.1582854428293254 
-0.05563847740514675 
-0.007428730968553248 
-0.0002360053278755082 
-0.01591284557135965 
-0.0867723409759843 
-0.00874471626013565 
-0.00874471626013565 
-0.1810863073432926 
-0.1810863073432926 
-0.1810863073432926 
-0.1810863073432926 
-0.00874471626013565 
-0.1861675514142604 
-0.1851218947521387 
-0.0007616242361317128 
-0.01906518761817423 
-0.01906518761817423 
-0.01906518761817423 
0.8121790056919079 
-0.1371331228679344 
-0.0007006661124429674 
-0.0007006661124429674 
-0.0007006661124429674 
-0.0007006661124429674 
-0.0007006661124429674 
-0.0007006661124429674 
-0.03858746591997973 
0.0009057601005366862 
0.0009057601005366862 
-0.004173243387749835 
-0.01113575437967876 
-0.06497848241768793 
-0.002575055237729386 
-0.0002101768046851698 
-0.1289896327807394 
-0.06383632715469549 
-0.1861591726066229 
-0.001376537517860855 
0.002458872409367999 
-0.1427699124730829 
-0.001016175127646761 
-0.1101546294993747 
0.2532338150660473 
-0.08097808506839073 
-0.05695659459006084 
-0.01213715508525335 
-0.004283247743750404 
-0.004283247743750404 
-0.004283247743750404 
-0.1933049659441389 
-0.0009005789541835167 
-0.0009005789541835167 
-0.008050263502801821 
-0.09303189844061777 
-0.0179200310709979 
-0.03178080731894836 
-0.005940167598721506 
-0.1262325014637969 
-0.1707013427629299 
-0.001031470339110374 
-0.0004318801664330511 
-0.1414582682704595 
-0.1414582682704595 
-0.1414582682704595 
-0.008252874419459145 
-0.0007028156225104954 
-0.0002206635569011832 
-0.3663473041386928 
-0.2271040159079497 
-0.1443309554141305 
-0.0246438314878863 
-0.05339159166926061 
-0.008050263502801821 
-0.003502734201493915 
-0.003502734201493915 
-0.003502734201493915 
-0.003502734201493915 
-0.003502734201493915 
0.0002585261297642877 
-0.0004375235272426286 
-0.1968492762422215 
-0.008050263502801821 
-0.05056916408004186 
-0.2815922815580785 
-0.25361059304357 
-0.1818077430888036 
-0.001106777186862566 
-0.07808562016278997 
-0.008050263502801821 
1.245648780510192 
0.1300253778759282 
-0.2209771604853105 
0.5507459468461292 
-0.0007136090170812561 
-0.0007136090170812561 
-0.001126817359760648 
-0.001126817359760648 
-0.001126817359760648 
-0.001126817359760648 
-0.1747309097155427 
0.5301263682144559 
0.03071934398807318 
-0.0001820946480096085 
-0.0001820946480096085 
-0.001805581236069282 
-0.005188260546756735 
0.0003379755263728853 
0.0003379755263728853 
-0.002329184475552316 
0.007542430184848686 
-0.2275272418281263 
-0.000372743413968329 
-0.000372743413968329 
-0.4280318308053576 
-0.001325605634909703 
-0.001325605634909703 
0.009680278351453022 
0.009680278351453022 
-0.0488939195527421 
-0.04021902675818624 
-0.01135988262938094 
-0.04328472366547629 
-0.04328472366547629 
-0.04328472366547629 
-3.491801303136144e-05 
-0.0008771136180590605 
-0.0008771136180590605 
1.335582597679521 
-0.005091188777088917 
0.001031012324665221 
-0.05061825160669629 
-0.0002548001948209979 
0.6626430189091461 
-0.02738738333709408 
-0.3026975406893913 
-0.004190940647282502 
-0.1004285793484115 
-0.08581629485182964 
-0.0002260627701152404 
-0.3440637330520128 
-0.008050263502801821 
0.7590816733529341 
-0.006169362543374824 
-0.09132221415210152 
-0.1255850414581516 
0.1017732020519629 
-0.0003171757353341272 
0.008309914365541042 
-0.01733824287837541 
-0.3100315614226142 
-0.001684622574486187 
-0.1423673997941628 
-0.001886151242836022 
-0.001886151242836022 
-0.001886151242836022 
-0.07384479142318587 
-0.001774753723134661 
-0.001774753723134661 
-0.08353276421229627 
-0.01419403840537952 
-0.08665201587130449 
-0.1768324288297574 
0.09980461343512032 
-0.1713738656111006 
-0.1713738656111006 
-0.1713738656111006 
-0.1713738656111006 
-0.1713738656111006 
-0.0007209094906913095 
-0.004463803818891411 
-0.004341607672262971 
-0.004463803818891411 
-0.0005007894852264287 
-0.1901957893884409 
-0.03280230871002959 
-0.2419456797193242 
-0.1634589630452249 
-0.0002780453125584404 
-0.0002780453125584404 
-0.0003417626266212541 
-0.0002780453125584404 
-0.0002780453125584404 
-0.0002780453125584404 
-0.0002780453125584404 
-0.0002780453125584404 
-0.2053146618307702 
-0.0009889992012580646 
-0.0009889992012580646 
-0.0009889992012580646 
-0.0009889992012580646 
-0.0009889992012580646 
-0.0009889992012580646 
-0.003825274580872699 
-0.0005412994114080687 
-0.3537908872983948 
-0.001407397905075493 
-0.1398214287292167 
-0.065574653356112 
-0.0009932190760406196 
-0.3857787672504733 
-0.3918268941622422 
-4.260008870001051e-05 
-0.2076562988252272 
-0.1347228896152249 
-0.001298732005533318 
0.6489788015548261 
-0.5335026463106568 
-0.0009761524578255504 
-0.1884460510631918 
-0.001764480002011763 
0.0003118625382886081 
-0.0002732609682096932 
-0.091160877119296 
-0.0004372605734885983 
-0.00123989198410239 
-0.05337135520172151 
-0.0003426856139568019 
-0.0009243987837714715 
-0.0009243987837714715 
-0.002211045026155938 
-0.7323624091930033 
-0.2361926783871801 
-0.05501139848567593 
-0.05501139848567593 
-0.000208912907918271 
-0.136386533822597 
-0.0006600751583643834 
-0.08096782864873393 
0.08683191079700407 
-0.0167360254349556 
-0.1995147245327195 
-0.1620404841751044 
-0.001684708565722448 
-0.09157290847811432 
-0.08873390723988174 
-0.3757155461942204 
-0.03008726954666295 
-0.2575210596412255 
-0.06041588325843929 
-0.03197860297375103 
-0.03197860297375103 
0.06076175584938966 
-0.02084118347568022 
-0.006668212146072519 
-0.0001528698292713865 
-0.0008563348687210363 
-0.1498150249376972 
0.03501463795784662 
-0.1024046665377057 
0.0002452202102019039 
-0.006735163165654774 
-0.002096301648114362 
-0.03129510048128164 
-0.03120003363862816 
0.5571392323983578 
-0.2098694618880037 
-0.001500380519525915 
-0.001500380519525915 
-0.3032321275639415 
-0.02031841199143974 
-0.0001473854764501605 
-0.0001473854764501605 
-0.1589636018951354 
-0.1156352246659187 
-0.008492100382815554 
-0.0107711295335117 
-0.08009752947614383 
-0.004692343556938271 
-0.003822596838798693 
0.01042818593490633 
-0.08967167214646755 
-0.09067133997269659 
-0.02953688166131877 
0.001591964089841451 
-0.1702865683300561 
-0.0004021098589029213 
-0.03663200597202149 
-0.2613367901841915 
0.002571086785454764 
-0.06904415190836065 
-0.0001701838552026488 
-0.0008844256806956368 
-0.06934474105937458 
-0.06726949554974183 
-0.06726949554974183 
-0.06726949554974183 
-0.0001884373639907495 
-0.0001884373639907495 
-0.0001884373639907495 
-0.3452739552680646 
0.006984996346500483 
-0.1283953820905344 
0.006984996346500483 
-0.1226553543975879 
-0.1748181759611415 
-0.0006795460518845214 
-0.12215881474056 
0.5808309075045408 
-0.09503196348719915 
-0.281527608452997 
-0.01130785369426616 
-0.01423063655717303 
0.003126127581412648 
0.3611942450296262 
-0.4108199491050518 
-0.1424169705892316 
-0.06333148051491684 
0.004381248816257581 
0.7383996315312793 
-0.02353276018816225 
-0.1348425915409378 
-0.008994052896191922 
-0.004000380858323611 
-0.004878856593742703 
-0.2851383198125841 
0.6452420752948463 
-0.1923397961068976 
-0.075352625268696 
-0.2534653759110228 
-0.01230227666742242 
0.6599645418991793 
0.5428297959287907 
-0.03314618272982973 
0.004330023430099656 
0.004330023430099656 
0.004044567053656894 
0.003629123963466464 
-5.254141264869586e-05 
-0.5729711597846103 
0.001704036989531437 
-0.0272649169860568 
-0.01552145340153608 
-0.02429268117492425 
-0.005208005543903515 
-0.005208005543903515 
-0.0004400244537267729 
-0.0004400244537267729 
-0.1763824770914019 
0.001127926737238917 
-0.0001044608494091789 
-0.002359611660689956 
-0.005839804182368217 
-0.001589998771034981 
-0.001589998771034981 
-0.2602593651327169 
0.02514045885892518 
-0.1722020955235114 
0.486138518458444 
-0.3695672009764529 
-0.01273581507660443 
-0.01435695303106858 
0.001938245693690956 
-0.0001733095190717525 
-0.2374610173887383 
-0.1637343873692023 
-0.1708728870588282 
0.4525295846763303 
-0.006330077707403571 
-0.01625629938122221 
-0.4226804769598365 
-0.07366846405899458 
0.6916181692769938 
0.225162425344433 
-0.1091218657044156 
-0.004230736217237907 
-0.003794534931085578 
-0.003794534931085578 
-0.01047750570109578 
-0.01047750570109578 
-0.0017701661838491 
0.016446694130125 
-0.08517100804626465 
-0.0002021104254916681 
0.003708195619059204 
-0.1024689269335424 
-0.01902487121240237 
-0.2483849287177139 
-0.3170701412928437 
-0.2483849287177139 
-0.4414632665437328 
-0.03045867870762437 
-0.0002848849015199369 
-0.1097152040826433 
-0.0005107686319223357 
-0.0005107686319223357 
-0.0005107686319223357 
-0.001095248489789606 
-0.001095248489789606 
-0.001095248489789606 
-0.001095248489789606 
-0.1371520860041754 
0.0524186929030758 
-0.1260838961694865 
-0.1259590729878274 
-0.1184662643808442 
-0.1184662643808442 
-0.04729796728140024 
-0.06708651265271176 
0.7737151335854893 
-0.01504825472283542 
0.4217587529802911 
-0.07926073642935372 
-0.2074730680990993 
-0.003285575055796431 
-0.05925424340263114 
-6.309277727205253e-05 
-0.3353683468844955 
-0.2935684735825467 
-0.004318317505735541 
0.01720916919252437 
-0.008108329477679201 
-0.1915995850918182 
0.001265214255459902 
0.0326838079438659 
-0.003372023485833685 
-0.2373330277653057 
-0.0009561890860255777 
-0.04982032163522096 
-0.05798503130271671 
-0.06634587776963012 
0.003048002062887589 
1.291731770710737 
-0.0002210857483363258 
-0.07007427227205797 
-0.09335156400970387 
-0.06007681477739553 
-0.06007681477739553 
-0.06007681477739553 
-0.06007681477739553 
-0.0003658332902938714 
-0.000574364729084217 
-0.1370094650166506 
0.427373107223848 
0.2581094634256975 
-0.3306331914127368 
0.4871339651385969 
-0.2204865899427401 
-0.004288170864426026 
-0.09777767040924794 
-0.0007247826377576828 
-0.0008986983785744683 
-0.000504331583812138 
-0.1508342925039233 
-0.09794754818139845 
-0.08099263075303668 
8.548408423685655e-05 
-0.0002406540781985487 
-0.01191112277068556 
-0.09670123601658123 
-0.09489598827259985 
-0.09110161763530265 
-0.00719272564067774 
-0.00719272564067774 
-0.0003748643703820874 
-0.0002385355099602374 
-0.06537268974240786 
-0.1093513260891416 
0.0006350480490320419 
-0.02103751772788676 
-0.002399128252535851 
-2.60135344140625e-05 
-0.01691219221230923 
-0.003055724329848496 
-0.2054908249482196 
-0.1135588642415771 
-0.05076745210041574 
-0.05076745210041574 
-0.04618498383226979 
-0.2590009527118526 
-0.0007332214582290682 
-0.0002599314388221076 
-0.0002599314388221076 
-0.0002599314388221076 
-0.0002599314388221076 
-0.0002599314388221076 
-0.01316044988615782 
-0.1539595395774245 
-0.0002599314388221076 
-0.0002599314388221076 
-0.0002599314388221076 
-0.3570229199038389 
-0.01304851687001693 
-0.1446129445338341 
-0.0563537236754198 
-0.1767376773076035 
-0.1529899401036204 
-0.200105345414206 
-0.08005143702235547 
-0.06488521595777666 
0.257215531081511 
-0.0009499027558276781 
-0.0004507520176622742 
-0.0004507520176622742 
-0.0004507520176622742 
-0.2097185032743879 
0.3386915340315301 
-0.2655852363583138 
1.168288383918286 
-0.0005783556717812868 
-0.08070521871257845 
-0.01252181085213611 
-0.3952927530743193 
-0.01252181085213611 
-0.0006673533898660535 
-0.0006673533898660535 
-0.1649575733957799 
-0.002837789465146792 
-0.00300313664435888 
0.002562993949279176 
-0.002241908050907996 
0.1481755712780224 
-0.01020605148062848 
-0.01693274965893591 
-0.02828638213254944 
-0.1683068264686372 
0.001032883421559817 
0.001032883421559817 
0.8373688261399562 
-0.02145646745307923 
-0.005208005543903515 
-0.005208005543903515 
-0.000745472373948125 
-0.0003189616584861922 
-0.0003189616584861922 
-0.047708864909266 
0.0001885989205088002 
0.0001885989205088002 
0.0001885989205088002 
0.0001885989205088002 
0.0001885989205088002 
-0.07404680985578847 
-0.05954807749778095 
-0.05804165391630552 
-0.002426740102601898 
-0.001089297730920184 
-0.005019718718260563 
-0.1619964230494467 
-0.01548953224774976 
-0.0127448172785926 
-0.005673084007271749 
-0.004426353977481305 
-0.2181451593261886 
-0.02601937844206045 
-0.002014071821707267 
-0.1782723931308276 
-0.5636178731387291 
-0.02281885867996295 
-0.03231255091706839 
-0.008050263502801821 
-0.1050871999901514 
-0.1115222545049767 
-0.1115222545049767 
-0.1115222545049767 
-0.2409821869521824 
-0.01062115754324798 
-0.0001065151768078549 
-0.0001065151768078549 
-0.07787500826746416 
-0.07428798120535079 
-0.0002589136055075866 
-0.0002589136055075866 
0.0005193525407849046 
0.6442188773109297 
-0.07549345657850483 
-0.07549345657850483 
-0.07182109502304235 
-0.1690202182545606 
-0.0001307234035278321 
-0.0001307234035278321 
-0.0001307234035278321 
-0.001090626032930646 
-0.0775019355417265 
-0.1568442181603468 
-0.3143508365750294 
0.4031790638051677 
-0.1944573747847347 
-0.2799343103402772 
4.246721540351568e-05 
-0.05917312421159612 
-0.06014717475157283 
0.006329051239941074 
-0.5025721221617766 
0.5062632484544941 
-0.002900113327618404 
-0.0002410533743325963 
-0.00623594941044894 
-0.00623594941044894 
-0.1440470429233273 
-0.00623594941044894 
-0.00623594941044894 
-0.00623594941044894 
-0.00623594941044894 
0.5200896861792768 
-0.0007556524705730823 
-0.2569334718360456 
-0.2320712934621736 
-0.001158254536278095 
-0.2431696347405826 
-0.00670363797370832 
-0.005697194071307402 
-0.3222128454308918 
-0.0006712367796844669 
-0.01341178525302025 
-6.980252585524373e-05 
-0.0009873114695921894 
-0.0009873114695921894 
-0.0009873114695921894 
-0.0009873114695921894 
-0.0003676605405581028 
-0.1501425935225131 
0.0105108306619728 
-0.0517962070425208 
-0.2278856455675676 
-0.0002835261239184534 
-0.0002835261239184534 
-6.96899413489211e-05 
-0.04949799426333942 
-0.1242575105428984 
-0.08567009178560807 
-0.1414099078525068 
-0.06971349378617545 
-0.06971349378617545 
-0.008386880852400297 
-0.0004310283489776135 
-0.1554142838451576 
-0.008050263502801821 
-0.1329010820094273 
0.03018310595207261 
-0.2789949264224555 
-0.05955282523884094 
-0.05955282523884094 
-0.0004173088797202302 
-0.0004173088797202302 
-0.0004173088797202302 
-0.08202812326249884 
-0.1112502702578735 
-0.0004173088797202302 
-0.4579399176447313 
-0.003656821765566543 
-0.003656821765566543 
-0.003656821765566543 
-0.003656821765566543 
-0.0003128685484675513 
-0.0003128685484675513 
-0.0009717698794391169 
-0.02119240292997461 
-0.01792684762339906 
-0.0002493167655678277 
-0.05133212464994025 
0.8499667103517218 
-0.1624358467156772 
-0.09170072585139348 
0.07281510471672029 
-0.0003603686063321351 
-0.1201287798786756 
-0.0005805723300146773 
-0.001039098834838262 
-0.0006479714230585067 
-0.0002836887664272707 
-0.0005472826685851206 
-0.002054766142637418 
-0.004738342164048922 
0.2925818318667525 
0.2783741781147665 
-0.0005408547977395066 
-0.0005408547977395066 
-0.0005408547977395066 
-0.0005408547977395066 
-0.0005408547977395066 
-0.03264273197922666 
-6.371731406281373e-05 
-6.371731406281373e-05 
-6.371731406281373e-05 
-6.371731406281373e-05 
-0.0008398621937282084 
-0.0008398621937282084 
-0.0003812013956822868 
-0.0003812013956822868 
-0.0003674422723547969 
-0.0003674422723547969 
-0.0003674422723547969 
-0.286984021222262 
-0.1298293104635021 
-0.0002345040494503298 
-0.0002775594198240445 
-0.0007279038191104536 
-0.000228585635512242 
-0.000228585635512242 
-0.00544825906962086 
-0.002086003128016345 
-0.0003666911875901598 
-0.1629847272526042 
-0.0003666911875901598 
-0.07687233165811153 
2.86830986532123e-05 
-0.005533403498817497 
-0.1299553783014412 
-0.1299553783014412 
-0.04700834544448423 
-0.1653415615337052 
-0.003627756192979061 
-0.001537175598401841 
-0.002172233590274143 
-0.002172233590274143 
-0.0001733621620100021 
-0.0001733621620100021 
-0.1879527478803281 
-0.1879527478803281 
-0.002454337877997076 
-0.3096373031812124 
-0.002454337877997076 
-0.5066326872733027 
0.6148606033310143 
-0.2141651450103816 
-0.001288102835722346 
-0.07463089728178533 
-0.0002424154484034214 
-0.02289270744282895 
-0.0226684275643085 
-0.1360892551326375 
-0.1029829164139372 
-0.33854284062709 
0.3901308122619426 
-0.00803439855363137 
-0.07631052115538581 
-0.2151552675363033 
-0.000414563196405446 
-0.0008492198892585788 
0.2556713193137158 
-0.0008706214995500367 
-0.2183500721948801 
0.0009070030541356859 
-0.1126290964494616 
-0.1882464784827766 
1.630902959706001e-05 
0.1759247260968347 
-0.1900607984555297 
0.0005442693798088361 
-0.0198045939327953 
-0.2220747898566348 
-0.0198045939327953 
-0.04321289764848512 
-0.0009495425037730854 
-0.0001221668411144209 
-0.05321119403369625 
-8.993717916560556e-05 
-0.2173433694946267 
-0.08642962316337718 
0.003670047982106616 
-0.6805190805020062 
-0.02499375607614464 
-0.0006652360512651582 
-0.0006652360512651582 
-0.3867462482512048 
-0.005208005543903515 
-0.005208005543903515 
0.3360557704863973 
1.022508146509937 
-0.2567018461301708 
0.531056931414967 
-0.08814863609695026 
-0.0002958055415344169 
-0.0002958055415344169 
-0.1086244453407259 
-0.008932922885756716 
-0.0001581281824211284 
-0.1446211663279351 
-0.008686285866776357 
-0.0007726088422122172 
-0.001297951718495922 
-0.03419738468348877 
-0.01193745955578378 
-0.03419738468348877 
-0.001606341317680638 
-0.02493867479426233 
-0.04288845621905813 
-0.04260156403006268 
-0.001443761974085309 
-0.003035360284681972 
-0.003035360284681972 
-0.3649308192947924 
-0.01872377100160515 
-0.0192601070455156 
-0.06846558181314599 
-0.004109425469600577 
-0.0005255767919417107 
-0.0002581210748620968 
-0.0002741248185734541 
-0.0005344182605793563 
-0.008155718078005161 
0.0375318617912014 
-0.009966443395558723 
-0.01538403529628866 
-0.001030952389908341 
-0.001030952389908341 
-0.001030952389908341 
-0.001030952389908341 
-0.001030952389908341 
-0.001030952389908341 
-0.001177778996078664 
-0.04708219315768192 
-0.08648280865960127 
0.3073432420737034 
-0.001608672369584117 
-0.110241088725074 
-0.08238820048859363 
-0.001147191184503653 
-0.2383123276890272 
-0.01437609218027023 
0.02583920556807515 
0.1078242658777519 
0.6718170205103652 
-0.05430896848599966 
-0.003967320054454312 
-0.001243681670846303 
-0.2972589843864617 
-0.04433716252363566 
-0.1880495545200984 
-0.008050263502801821 
-0.02175154938849199 
-0.2507342820342903 
-0.3268105281569172 
-0.006613037411950934 
1.010517284805131 
-0.009639245941618784 
0.003067098113180559 
0.003067098113180559 
-0.2131503058580634 
0.002749431012390643 
-0.01500619706988494 
-0.0139948097162534 
-0.008050263502801821 
-0.008076106786069931 
0.2107659638351292 
-0.0002410849062199127 
-0.0002038773436549601 
0.05803047538555579 
-0.0003731197189331133 
-0.0003731197189331133 
-0.2112818312921164 
-0.1081269726121674 
-0.0002729623819457177 
-0.00709980243324899 
-0.07493496001013654 
-7.012481425888725e-05 
-7.012481425888725e-05 
-0.007625372492045634 
0.0007131855099824345 
-0.0007932949786904253 
-0.06111227995187439 
-0.006104633903960037 
-0.006460763318361353 
-0.3014145702807395 
-3.950697104904641e-05 
-3.950697104904641e-05 
-0.0003603787540852963 
-0.0005619201336624327 
-0.0004473052707324114 
0.004712865407038253 
-0.001961292091771897 
-0.1170095346187987 
0.0001174362612243573 
-0.4734769328801736 
-0.1995488870529313 
-0.008050263502801821 
-0.009998556923207483 
-0.002087164888816434 
-0.0002768435589511028 
-0.001010302156202057 
-0.0002768435589511028 
-0.1262089476710572 
-0.1262089476710572 
-0.1518102720187279 
-0.01585404809592454 
-0.05715998401649657 
-0.004690227618603084 
-0.004690227618603084 
-0.004690227618603084 
-0.004690227618603084 
-0.004690227618603084 
-4.664098758755309e-05 
-0.1323425154957454 
-0.004951647433340751 
-0.0008325995495483802 
-0.04114848381197074 
-0.2324675541409766 
-0.1286428361104016 
-0.05496078424800287 
-0.0006748397852739675 
-0.000309333456964454 
-0.1063814986029573 
0.00118946961506558 
-0.002181157698357748 
-0.07392774615959309 
-0.002832526470239523 
-0.002181157698357748 
-0.000323332415644767 
-0.02663315027901659 
-0.00131071715938925 
-0.2906553488582494 
-0.09303002778141012 
0.003961955085487419 
0.9177484013113532 
-0.00011793984230845 
-0.02352729313263669 
-0.02207049185629396 
-0.4305022410285425 
0.08556226142418537 
1.060533079477139 
-0.004425651772949639 
-0.03476343913032186 
-0.07763141772166146 
-0.1383553092297832 
-0.1917991250096946 
0.4393998736843717 
0.3828536957758651 
-0.2084557212414857 
3.041358653966816e-05 
-0.01303712239272323 
-0.0009726275504513673 
-0.2117637925167196 
-0.2545216989946155 
-0.0002431943003994721 
-0.0002431943003994721 
-0.0002431943003994721 
-0.0002431943003994721 
-0.0002431943003994721 
-0.007515110306324614 
-0.007515110306324614 
-0.2291298939049302 
-0.01487305857331568 
0.0001379375430119975 
0.0001379375430119975 
-0.1317460636291254 
1.106823034858325 
-0.01275492084436529 
-0.1610569554347284 
-0.07024185086578659 
-0.07024185086578659 
-0.1172170078113939 
-0.1131831531018659 
-0.04916405069717961 
-0.1736586339659663 
-0.05818043835722059 
0.008971943817531988 
-0.007320382269888009 
0.501649492530296 
0.5437130163832409 
0.5437130163832409 
-0.0002334840352188908 
-0.0005737907234200717 
-0.03830560913090162 
-0.09459290723666361 
-0.035159354312687 
-0.00263376278748951 
-0.1673212453705968 
-0.1191435267234661 
-0.0006811148730979022 
-0.0006811148730979022 
-0.04402915219256007 
-0.0100445566515326 
-0.0100445566515326 
-0.7382021436491578 
-0.007674593953935597 
-0.007674593953935597 
-0.08259316496548011 
-0.08259316496548011 
-0.002111407785285924 
-0.1360696778705245 
-0.1835059951150968 
-0.008234057435316376 
-0.1129995989242728 
-0.04319131412044541 
-0.1574328167954431 
-0.1267335149545164 
-0.126051186975218 
-0.03806235673672485 
-0.1301238729882216 
-6.371731406281373e-05 
-0.09096336668090206 
-0.09096336668090206 
-0.09096336668090206 
-0.003932000199517249 
-0.003932000199517249 
-0.1307520797884703 
-0.001025070972197236 
-0.3697654198286345 
-0.1709692259061266 
1.098695987326827 
-0.03649584584178797 
-0.01933709408531332 
-0.0971476921333065 
-0.04705623288383227 
-0.0002600458433627766 
-0.0002600458433627766 
-0.0002600458433627766 
-0.0005070111636349905 
-0.001462461681445216 
-0.1219792599004813 
-0.3620525256318305 
-0.3620525256318305 
-0.004972020527600953 
-0.01240798644231702 
-0.1521599886195765 
0.1732460380195517 
-0.1056764008752663 
-0.009677111592499 
0.5248567870781239 
-0.2925054139837904 
-0.001857262764826693 
-0.000402027995447463 
-0.003734436094899148 
-0.005491903752109529 
-0.003734436094899148 
-0.0002944548926378109 
-0.1573517434691575 
-0.0004254194476941709 
-0.007551795434266827 
-0.0002013660886966976 
-0.0002013660886966976 
-0.0002013660886966976 
-0.0002013660886966976 
-0.0002013660886966976 
-0.008158308579079367 
-0.2906553488582494 
-0.07878133290920236 
-0.05119146988432482 
-0.02879680243665421 
-0.01310807114882752 
-0.01647772689787387 
-0.01154995386786737 
0.005297299872254303 
-0.004928545812250199 
-0.08848733880435559 
-0.001416920541592132 
-0.003848893736789911 
-0.001132637338953643 
-0.1371751482526717 
-0.1371751482526717 
-0.1371751482526717 
-0.0009855871540359997 
-0.001424321577898673 
-0.06211951751716762 
0.1476884616296842 
-0.0008499635119070378 
-0.0004867046213521131 
-6.371731406281373e-05 
-0.008018365026694181 
-0.3637880139308234 
0.9017314652270489 
0.000156132906676341 
-0.0002737781778155511 
-0.130762649514736 
-6.371731406281373e-05 
-6.371731406281373e-05 
-0.0006605073308589954 
0.4341681202609747 
0.4341681202609747 
0.4341681202609747 
0.003017915646880628 
-0.0003374979099512847 
0.1068666891038103 
0.3739818683400338 
-0.09364156573104167 
-0.09496860500716697 
-0.0005751794091677566 
-0.2793492953852603 
-0.2798874765174335 
-0.008555648959742663 
-0.008555648959742663 
0.0006604155267164801 
-0.08061920038418623 
-0.2452025815847831 
-0.00061904584552865 
-0.002544537986153104 
-0.002544537986153104 
-0.3256036615384408 
-0.3738885010511638 
-0.009690420540815757 
-0.1022470448272938 
-0.0005800023660812205 
-0.04088396092687505 
-0.0517852213547178 
-0.0517852213547178 
-0.0517852213547178 
-0.0517852213547178 
-0.04548823802347939 
-0.1883924437936438 
-0.03880209379704579 
0.02104827189087521 
-0.1019770134809615 
0.001807046339817297 
-0.02580269868096198 
-0.01875426054630326 
-0.00555900249588675 
-0.005030389520930911 
-0.01221941895433337 
-0.09189902565087812 
-0.1229803180035645 
-0.04212016187745003 
-0.003500088222704494 
-0.004634991349328087 
-0.0005908931425483744 
-0.0005908931425483744 
-0.08219976601194116 
-0.2756085192647835 
-0.0002715297128734102 
-5.027587556020885e-05 
-5.027587556020885e-05 
-0.008050263502801821 
-0.2193754007985311 
-0.000239179770038128 
-0.000239179770038128 
-0.000239179770038128 
-0.02033996861421261 
0.06240329559892802 
0.0008070668760126081 
-0.0007375757991372553 
0.7335780565729042 
-0.02466473686864044 
0.003823431303398672 
-0.0001421102071954616 
0.03735742573784313 
0.03735742573784313 
-0.04645210183023787 
-0.0002301863728407193 
-0.01590898331461108 
-0.1786818938898416 
-0.01114854587657556 
-0.009996466737008738 
-0.06459595296311553 
-0.0008679892762054514 
0.08623699161921572 
-0.1752221115586412 
-0.1341133002608981 
-0.001033799247069719 
-0.001033799247069719 
-0.008050263502801821 
-0.01125213323049066 
-0.3926921268947933 
-0.008637054084284425 
-0.0001171029517556877 
-0.2589685943813247 
-0.004261567260299667 
-0.009812197528873218 
-0.009812197528873218 
-0.0803437872049045 
1.855988640148344e-05 
-0.1541744638875303 
-0.000963402318402531 
-0.09492426973206967 
-0.001046378099810787 
-0.001046378099810787 
-0.1102355031043569 
-0.001046378099810787 
-0.1140740960075246 
0.05234564352398311 
-0.01897338157742768 
0.008499791254090292 
-0.0005903695384479338 
-0.0006207981653750845 
-0.003352345285739352 
-0.1368016774291563 
-0.01204393078750441 
-0.06053139436361162 
-0.06053139436361162 
-0.02992722988861516 
-0.0002871513871940554 
-0.06405015511586939 
0.01536782659395738 
-0.01255957116428209 
-0.01096376017689034 
-0.1158193485988584 
0.002140699449312274 
-0.008050263502801821 
-0.002483478409876448 
-0.03400479955006672 
-0.3708362481062952 
-0.01976963058211689 
-0.0003770770317997112 
-0.2240289713038697 
-0.001391261823056594 
-0.000834422535940565 
-0.00160796358426006 
-0.00160796358426006 
-0.00160796358426006 
-0.0005743863261647252 
-8.178769963934521e-05 
-8.178769963934521e-05 
0.4139681057486292 
0.01664763296544182 
-0.2758074100465475 
-0.04896537841145112 
-0.04896537841145112 
9.064789992590436e-06 
-0.2874252103841555 
-0.3050566900268438 
-0.004327493144418154 
-0.004046732435618029 
-0.0001120233711840871 
-0.01117878241700194 
0.03613487335571794 
-0.01117878241700194 
-0.01117878241700194 
-0.3478711741862595 
-0.1752009054330281 
-0.002055783289624997 
-0.1953764808628751 
-0.1202443915359257 
-0.08706895014469661 
-0.08706895014469661 
-0.00588634245267869 
-0.00588634245267869 
-0.0276497578995784 
-0.3016296133294284 
-0.1491261874068309 
-0.07002016475116879 
0.00408691288349179 
-0.005208005543903515 
-0.005208005543903515 
0.5401602561837431 
-0.1366768812713808 
0.9457179737771114 
-0.1026665145619913 
-0.001446330371231626 
-0.005499805464092609 
-0.001181383024289061 
-0.001204761276092767 
-0.01848433084306322 
-0.01848433084306322 
-0.000819131117106378 
-0.001017734942773724 
-0.07075998911771107 
-0.007818362558023264 
-0.008050263502801821 
0.7724556295934146 
-0.01535011968653976 
-0.01571187403817654 
-0.06544663053772988 
-0.1047490712357158 
-0.1047490712357158 
-0.1047490712357158 
0.1363580899183484 
-0.004050569419379014 
-0.006514336387013053 
-0.3520488198033477 
0.4784513775768647 
-0.01459463543721637 
-0.1122447502503716 
0.0155616484219958 
-0.1331541117148441 
-0.0003190156578056754 
-0.0003190156578056754 
-0.212821611380292 
-0.001374602907310778 
-0.0004215114512645126 
-0.0004215114512645126 
-0.009514470855405369 
-0.001619994869850691 
-0.03160094177005974 
