solver_type L2R_L2LOSS_SVC
nr_class 2
label 0 1
nr_feature 32502
bias 0.5
w
0.1412332091580471 
0.4249105327931433 
0.3159942730813683 
-0.3994848825814983 
-0.08914550300691593 
-0.03033605809235928 
0.5670570333644164 
-0.6184270686006911 
0.1234169201110884 
0.09766293221047963 
0.08057874399336028 
0.1855974843878733 
-0.01119588877587463 
0.1226412042963349 
0.0413183966600681 
-0.2153265259840866 
-0.07453292335399986 
0.01562952902744246 
0.01562952902744246 
0.01562952902744246 
0.01562952902744246 
-0.02694027148002928 
0.03069079173988243 
-0.02997418696648782 
0.05588402291482878 
-0.1287576397611933 
0.331632999004021 
0.2073964337540692 
2.003168435741817e-05 
-0.08568603176222661 
0.002437834648879333 
0.5383859604662906 
0.007079146654155688 
0.2417565272146391 
0.06078655896938422 
0.4298980550219876 
-0.1085247291484136 
0.1363678367997943 
0.02284422978882343 
-0.07016714802605814 
0.5423267340117806 
0.08967408309257693 
0.3385665732563111 
0.5681650800115546 
0.04212108761464717 
0.104258938241769 
0.048208013457876 
0.04674411342318389 
0.2759579206450379 
-0.1349118756098408 
0.2739903875326557 
-0.0734115914710238 
-0.08378711456303287 
0.05612603040889091 
0.0411499692093709 
0.1208302323459427 
0.5650459142611508 
-0.1886326695459223 
0.1401016125017037 
-0.1245081018756858 
0.1188062475941158 
0.1282583244329906 
0.03647009127906702 
0.0125469548390498 
0.165780792026874 
0.001959609304853752 
8.70765801486752e-05 
0.19521503834202 
-0.1914703074696099 
0.3939251459668084 
0.4434367204560096 
0.150700612160073 
0.6033929355753218 
0.09772979996820881 
0.4511058216450177 
-0.008916899261831323 
0.4093769390457307 
0.09455787079615732 
0.06736959356608714 
0.1075192959596153 
0.01314413445399595 
0.1655922677955692 
0.3384940048684147 
0.001065498264557903 
0.001065498264557903 
0.001065498264557903 
-0.08229127348952875 
-0.0625943611749943 
-0.1479203740815917 
0.5115405804069882 
0.08997468120238741 
-0.06823660091002978 
0.03359661868761679 
0.1756414491331736 
0.1709072880316643 
0.2406319318163122 
0.3572685176044606 
0.03232196427020979 
-0.008373772637582164 
0.4056314848393758 
0.02478403094998044 
0.08450687265962188 
0.07414945689031767 
-0.4288219206866295 
0.322069519933775 
0.4062113414712946 
0.08609755697346062 
0.2085211559900802 
0.00251347504377945 
0.06548364820529833 
0.05727491069932605 
-0.2361353002796867 
0.3504446722652436 
0.02118179190373221 
0.04240474917098118 
0.12507298694408 
-0.03977818318530739 
-0.3302920162421503 
0.1520641064376607 
0.2042330297071588 
-0.208478252123985 
0.1183985982985895 
0.214865194885145 
0.4097814029704194 
0.3156524018866494 
0.7615709784994237 
-0.1538202481424746 
0.0003422574230044523 
-0.06824013637066235 
0.07005212566338334 
-0.1225621534667716 
0.2678148627004746 
0.3148441376261899 
0.03236140020337809 
0.09386536863198187 
0.003656737320843422 
-0.219871742366981 
0.003656737320843422 
-0.06302055625103221 
0.1795117701682813 
0.001143963627113238 
0.06128573966542632 
0.2119713198265258 
0.1380560634989268 
-0.0645713192633387 
0.1037231843408885 
0.08046804284707179 
0.1650653370663309 
0.115281113834305 
-0.04168292122163381 
-0.2879041842038302 
0.1070286557992787 
0.3939593737904951 
-0.1430910365375353 
0.154589532432418 
-0.2244416938167797 
0.0417686466932017 
-0.2467965762629258 
0.4374690270414114 
-0.007037771009366657 
0.004395491460527104 
0.03068740711065004 
0.2598673470161218 
0.09708851169533009 
0.001865251140930289 
-0.1649333069875547 
0.01712008379102275 
-0.1741807330437157 
-0.07442864301633903 
0.3275175919396434 
0.03867672907597387 
-0.01364382076054839 
0.3093361544808748 
0.01623797751988781 
0.001290458819888804 
0.00490466232952794 
0.04954132553905606 
0.3443194895165574 
-0.07586807302188107 
0.04962054550242877 
0.4821474348014769 
0.08938050833598775 
0.7169968105153768 
-0.03427136173651334 
-0.2213385842060323 
-0.03743550415557763 
0.008799109951590597 
1.032171066207502 
0.2514761213732327 
-0.2164081060565444 
0.1591333363258624 
0.122479272122961 
-0.2076126341071753 
0.05840745724894612 
0.006062800081665656 
0.00996121195227332 
0.0335320841143619 
0.4950566007547345 
0.5006564443038511 
0.1138617480159102 
0.3902604613261585 
0.0140157213048504 
-0.2685820963070877 
-0.108573370374981 
0.1069828646154677 
0.04744225747233463 
-0.1972768742447725 
0.04260337395180266 
0.01701173270390117 
0.02944166694543915 
-0.04701547998480435 
0.09562495318569048 
0.1558847797010579 
0.4177033444388022 
0.4326666719895499 
-0.0529364184419765 
0.1147871693599859 
-0.3450341445203274 
0.1046834992523955 
0.4386685926800628 
-0.07444857648356154 
-0.1200091597241586 
0.2930186983756757 
0.001478548378325624 
0.6102177074978483 
0.1296220038641167 
-0.132028185956532 
0.1200112404809903 
0.2149786659377574 
0.1180275155316185 
0.2816902142681824 
0.06898145544790488 
0.0798577561170609 
-0.1762300031863686 
0.02768875127512207 
0.05937416363801888 
0.3209562634580301 
0.3527753828352089 
-0.07196299730472652 
-0.06597083805324234 
0.02509850502368504 
0.008981209806609708 
0.1625249685241868 
-0.1934857459530176 
-0.07302055371458384 
0.3223240775299988 
-0.4870527311659632 
0.04297365499582941 
0.1630767584439729 
0.1480407165614051 
0.4766892011154411 
-0.06149020380964681 
0.7804500430977583 
0.2286883656334379 
0.1725361258783368 
0.4848659482023633 
0.04058421257771449 
0.0009817202899601255 
0.2621885719653932 
-0.04070346448179265 
0.07135659280499394 
0.006479202552613425 
3.50256390930141e-05 
-1.078944428143207 
-0.367274365737874 
-0.0002622522696393605 
0.3726621747247666 
-0.06964564274599233 
0.3693426218327933 
-0.04736288669062571 
0.25839982039658 
0.4005439291066019 
0.07426631508874611 
0.03894969302012851 
-0.1632978238845443 
0.5120885452872255 
0.2334556688200003 
-0.1590268522282348 
-0.1700273914407563 
0.2781047676490318 
0.1430783043989383 
-0.07645170463182635 
-0.1323121620966758 
0.1090776620432435 
0.443775387950875 
-0.1139261550363667 
0.005520138269808331 
0.09919471437159164 
0.1364012404382711 
0.1645834675451057 
0.2965737404035483 
0.6357991869412941 
0.0005070204294390784 
0.03799479416095355 
0.4474329704233441 
0.09786658992679434 
0.3600885979969974 
0.2614751967506754 
-0.09439718395360486 
0.1080246954196176 
0.08993240136067147 
0.2858205843153935 
0.6654922221037912 
-0.02019570587654865 
0.2944842513085063 
-0.0002683342917188439 
0.3266990091449589 
0.06565814986200628 
0.104445934336936 
0.02341650632772782 
0.3225174050173887 
0.2061010444544866 
0.3148524038597407 
-0.5932080171218493 
-0.2001617986510643 
0.001164721785449227 
0.09123712367778933 
-0.3683202809007212 
0.07398118577868371 
0.005991405212133477 
0.535363109246152 
0.05810893462199065 
0.05817113974260175 
0.2736078537519912 
0.2859437655662028 
-0.2161564206832521 
-0.5048126295357956 
-0.2358701244559365 
-0.4853787269717854 
-0.1480193620784888 
0.2259535619817427 
-0.1082222401743088 
0.2765486352667101 
0.6008058228200349 
-0.08305411581689519 
0.412791855294027 
-0.05603889698819859 
0.1972954419676924 
0.1089694003323219 
0.4988130743001464 
0.6655391867694332 
0.1102508831888992 
0.004751350907547608 
0.2035968328430016 
-0.1279577757747588 
0.4092605182772678 
0.236599495548829 
0.0912278993724278 
0.1033935454382217 
-0.3000987599872182 
-0.1117604430275446 
0.2954500734233689 
0.0938217872759847 
0.02044650846778001 
-0.07954704051924882 
0.3935762827798244 
0.3100976049826722 
0.09212172617818287 
0.0701584348367629 
0.2447055729349448 
0.09536451592375528 
0.01201836531317545 
-0.1326286068991127 
0.2775775078153481 
-0.04434293771891792 
0.4318751674364928 
-0.004977733483408586 
-0.03098899758638463 
0.2426880139701338 
0.007784875964586105 
0.08196885233240833 
0.2020887868468086 
-0.2853533838295048 
0.01670058211215721 
0.375870373910447 
0.089020768810239 
0.003426301678906102 
0.1505840294187521 
-0.3276034312634358 
0.2980966232607332 
0.00017150895206584 
0.2923185483701322 
0.0001350866102311399 
0.4335043830486724 
-0.73583762890203 
0.3395289975474635 
0.3698732409305714 
0.0004447607380708637 
0.0003159984762295555 
0.0973155134571521 
0.2211810996407185 
0.4592165567962714 
-0.005894130362564385 
0.1542338770458481 
0.2144648969254587 
0.3509918956913437 
-0.1772262202951151 
-0.05256212206191601 
0.1768190941994506 
0.3284223422428096 
0.02478795665876105 
0.09456552341098423 
-0.05274195829543632 
-0.4569130779747684 
0.318466915157884 
-0.1585030103108871 
-0.1366738914072462 
0.05215136686423735 
-0.08476083445720968 
0.1642027956492988 
-0.2420807288247727 
-0.03603608243512878 
0.3635354367438003 
0.0948275122372674 
0.2430022888533437 
0.0002824565162971876 
0.4351932822515528 
-0.02300310153177303 
-0.02232200058535205 
-0.2072336422754915 
0.001942160121085189 
-0.04530170743212782 
-0.5365458991183494 
0.09645741235828692 
0.0008002424540931319 
0.1053293766859023 
0.4063900286502313 
0.5495163705494136 
0.0006705974514351472 
0.2521671336334527 
0.02186497868578691 
0.7640380269136258 
0.06202192371792946 
-0.03882000424472542 
0.08798298003820805 
0.3261684501481689 
0.1730537914173987 
-0.4738206730937726 
0.04901999602416494 
0.04901999602416494 
0.04901999602416494 
0.3112021729223892 
0.520713956678697 
0.01013843709556624 
-0.2546413854719117 
0.1140312253601974 
-0.5395707859373923 
0.001437125756876706 
0.03769291968521525 
0.05558168605802454 
-0.2230579973393694 
0.00580190920876073 
-0.2138670014374495 
0.1986131431185283 
0.2517619010107736 
-0.2132016752681619 
0.1575128037356741 
0.05598600058230479 
-0.08436857705000277 
0.1293028921577428 
0.6228749731479342 
0.1839111931365941 
0.02541844419760241 
0.4978113188644436 
0.3242291223564351 
0.6464540646803646 
0.2870359976317564 
0.0004537106069846889 
0.01392285146498337 
-0.5236322204002756 
0.5601179626856424 
-0.0593486817452457 
0.08619930159314255 
0.06818523184875175 
-0.1512829085649698 
0.01293618151518325 
0.01293618151518325 
0.1552520124229611 
0.1069260198828432 
-0.1554826325545821 
-0.1035532670045568 
0.2296295133358515 
0.009503813153930856 
0.4270908903489329 
-0.06281394225180818 
0.2438930884181056 
0.1914231633592338 
0.2361988207430564 
0.2355093849974188 
0.1517877152402913 
0.1575100837433944 
0.06956277297004392 
-0.6732738663144823 
-0.04220652430013887 
0.2427758490862492 
0.06023572877648445 
-0.07249876290660714 
-0.3664518742754772 
0.900177100009479 
0.003660489178145038 
-0.02227676229935489 
0.003660489178145038 
0.006266781800909213 
0.1968526810677055 
0.1665784402588518 
-0.1590032966766131 
0.1435966927835124 
0.004509689453945745 
0.01327031411404687 
0.004509689453945745 
0.2071135577531086 
0.4866817159261652 
0.5113224441984308 
-0.2112095193150068 
0.3914261833636198 
0.00035742113300676 
0.06880440602558888 
-0.2824011699080979 
0.1939992567940166 
-0.1278148878199045 
0.2743917795410274 
-0.008257263023849944 
0.09787531349112172 
0.07763316201725613 
0.07520808973011607 
-0.3077422697095156 
0.1912339521692685 
0.2981873278755927 
0.3430095186677807 
0.534821838743072 
0.0568797141300571 
-0.6372050335631656 
-0.002031124910032032 
-0.5518881028289109 
0.06478629474834458 
0.1819878361729594 
0.002565058584362075 
0.856794368853705 
-0.1253226824263186 
-1.237038096060983 
-0.0689666738677283 
0.117790983575877 
0.01303016988205698 
0.01447621802766975 
-0.07203323729879807 
0.01303016988205698 
0.1173701560813482 
0.01303016988205698 
0.01303016988205698 
0.01303016988205698 
0.08793203570936906 
-0.01847999486240604 
0.3813038541128932 
0.07980813915874327 
0.04823937549916309 
0.001436225844904043 
0.3191968571686688 
0.1727364787194597 
-0.09409517241433143 
0.1469462808292782 
0.1469462808292782 
-0.6842477317475513 
0.3128003011958797 
0.07970885298765885 
0.1688373642196903 
0.03518886210560944 
0.1977321081608585 
6.94158958847555e-05 
0.17650260255948 
0.355279770526161 
0.2554073906602848 
0.3035774839534874 
-0.3971292927836404 
-0.02578673235205506 
0.39901027065136 
0.1468180022612688 
0.05507211745037115 
-0.04079246359774315 
0.1496362696346154 
-0.1939079059431252 
-0.08963907750833987 
0.04182868401554547 
0.06981298009166038 
-0.1560993705311903 
-0.6388704489122485 
-0.2266515353394482 
0.1670772774984983 
0.0571835464913197 
0.1308108686191681 
0.2203492888365543 
0.130722424163896 
0.1701153494530203 
0.5303067155704888 
-0.08717341912845264 
0.5395067669486444 
-0.03887152659880672 
-0.184457966782071 
0.1508653590377854 
0.07621093180163561 
0.3225343410996593 
-0.0005282205798965913 
0.4687126432382033 
0.006705383076634225 
0.2136766334642432 
-0.722753864009094 
-1.092830712864009 
-0.6091756094351735 
-0.3163696991159104 
0.001541993055954894 
0.2342247817045874 
-0.005078748538947187 
0.4907575242031753 
-0.5750562222423239 
-0.5750562222423239 
-0.5750562222423239 
0.5994239804880076 
-0.8908882772572277 
0.2332450109436994 
0.1186011816256996 
0.3620412396466774 
0.2737972735381883 
-0.5109404561308439 
0.3307815562348843 
-0.9502586917690674 
0.0008189277671397129 
0.001723718607088138 
-0.01524279998831426 
0.03515738491315706 
0.05301275795438627 
0.002867978115740982 
0.2689921603709656 
0.2784778063304538 
0.2859462226067801 
0.06959297391079114 
0.2078729524159872 
-0.2314096452561881 
0.3853995478314844 
0.02848416863407592 
-0.3001236732287331 
0.01373966970577953 
-0.3968555894951211 
0.05309918526157004 
0.1083652463983906 
0.06852237777904152 
-0.2373523404936327 
-0.1676256568062126 
0.1591790500370946 
0.3881255902399974 
0.1895993086067418 
0.06011288196298655 
0.006478500353303371 
-0.0466602875539416 
-1.087936686880689 
0.01679497447182017 
0.04615406860419245 
0.3090609826320512 
0.01679497447182017 
0.272295297843874 
-0.3643916289355176 
0.2440124281687998 
0.1630239533768397 
0.1465561145766837 
0.04567559846421409 
0.2151397089625861 
0.03219640050483399 
0.07044698278493153 
0.3727733861343883 
-0.3751124046510035 
0.1479628289033593 
0.3804743556005063 
0.1194971890166067 
0.6138862955820423 
-0.2673941117476308 
-1.054015904606233 
-0.1814458072398474 
-0.5379024991129785 
-0.3085137137680389 
0.005521695130748035 
0.293489099015622 
0.002916084699639645 
0.01151955712031874 
0.2361631798806721 
-0.05877842980268465 
-0.06574522671864098 
-0.2108680758976461 
0.2773261422503271 
0.081497721456656 
0.2570567003244032 
-0.002612148991986688 
0.2326701478324405 
0.001951394511055314 
0.003233965439606335 
0.1141402224655152 
0.003233965439606335 
0.1341055556927349 
0.003233965439606335 
-0.1819390014367779 
-0.3575351829985575 
0.4989486854433636 
0.001517575389774068 
-1.329275310719107 
0.1372138396140394 
0.003080725160892304 
0.003080725160892304 
0.1457076371600737 
0.2064333795406513 
-0.09650326110789739 
-0.8118133302595236 
-0.5803825181613878 
-0.1228424669119173 
0.07140856575791843 
0.4646197966696626 
1.642284823265977e-05 
-0.05698099518294011 
0.1868657020477791 
0.2009525133713327 
-0.2748457085907295 
0.01894742443049898 
0.08247606693402823 
0.814089120196705 
-0.02542702353454613 
-0.1747716690869844 
0.1798404252617713 
0.01699976817526529 
-0.515977725509969 
0.05926470992867527 
0.1555262062684049 
0.2595677526320317 
0.07380209649706239 
0.2888518564473939 
-0.2118547006727119 
-0.09975387229053063 
0.1768302434460265 
-0.5262526249394627 
0.09917741467194317 
0.09909033809179449 
0.09909033809179449 
0.09909033809179449 
0.1071127270325344 
0.01568329708749137 
0.1017158492104427 
0.08667331835337846 
0.1737630767227086 
-0.3224929407995809 
0.08945064331922192 
0.1113437355868015 
0.004840897604415495 
0.09614381450211913 
0.2136542902734552 
0.1520188705971207 
-0.01357137158044143 
0.007349896001870615 
-0.03549096664878212 
-0.2522465298320185 
-0.3183538007325079 
-0.3104702339301973 
-0.5093390411378687 
0.3711257730239712 
0.1371033891313274 
0.1336385901452645 
0.3159489513268868 
0.2652820518431303 
-0.5078569896582527 
0.08302449272925329 
0.2816410596771108 
0.001474320313539418 
0.4025446639538638 
0.0004465577052675346 
0.2037266550424035 
0.0797261611959854 
0.2976128336839367 
0.04803068602297162 
0.1474395086994434 
0.6162589102478556 
0.3763938005362971 
0.002562354175901465 
0.2454127507626386 
0.1275288463250876 
0.3218928955606158 
0.0754112971504511 
-0.005736386569063247 
0.147042028064993 
0.1283916446652395 
0.02422692318605417 
0.2504460086599185 
0.0002511233355394327 
0.0002511233355394327 
0.0002511233355394327 
0.0002511233355394327 
0.0002511233355394327 
0.07559912483778236 
0.3881832835352829 
0.003073705548045581 
0.2279234038187523 
0.003073705548045581 
0.006434900447653744 
0.007683402664223321 
0.007683402664223321 
0.007683402664223321 
-0.3040080038264474 
0.02251723696442676 
0.00392268924036656 
0.009177397149370908 
0.00392268924036656 
0.09206056535105717 
0.2709926438895878 
0.02505133437198646 
0.1478229380413643 
-0.0993420392366433 
0.09383506860023988 
0.1113905747118581 
-0.0279984296822916 
-0.0279984296822916 
-0.0279984296822916 
-0.3153391787574547 
-0.03596534666665108 
0.1106756496138759 
0.2547307891203238 
-0.06905058277558715 
-0.472914866264061 
0.02899759266646721 
-0.4912260697245567 
0.0001675612101356624 
0.1485754273941637 
0.0899054197048141 
-0.02015153766298065 
0.06321697346488751 
-0.05437983784580949 
0.4998028980968072 
0.1786328577654454 
0.4988489573832898 
0.3807093925208089 
0.001591910120866113 
0.1039258745109272 
0.1499143761432019 
0.03456471436080365 
0.1554626982058013 
0.3959521523432659 
0.01818374266228354 
0.03312996716177134 
0.04003855719918877 
0.1210988078235044 
0.1267496369526306 
-0.005382163393168179 
0.001879037255894789 
-0.0419534046384148 
0.001704884095597439 
0.01306012833973176 
-0.1598146500890503 
0.05344296712929303 
0.05344296712929303 
0.06847907818778594 
-2.033726807655928e-06 
-0.6586302185101118 
0.001672221358797674 
0.09344821422192985 
0.0324328348296145 
-0.8309834575318027 
0.4337370131983818 
0.373159328335146 
-0.943381411845804 
0.001223885021902923 
0.0002904034169522889 
0.008269133204662892 
0.2070151731248659 
0.03690585394347648 
0.08057874399336028 
0.6306611848562037 
0.1199519609615197 
0.5617039109277707 
0.255301258172124 
-0.4098725487722434 
0.4447924721238045 
0.5356581410971362 
0.005951091629592389 
0.1995502130492865 
0.04493991189255231 
0.0004260139899147294 
0.01605723482330942 
0.0007612082065249087 
0.0007612082065249087 
0.0007612082065249087 
0.0007612082065249087 
0.0007612082065249087 
0.001976541891575216 
-1.578260597606018 
0.001906767636636532 
0.2234799378571715 
0.01397917499705646 
0.02589097712701385 
0.5285801468860304 
-6.220512061108792e-05 
0.2292552807166011 
-0.02899713281905021 
0.05589030422142293 
0.1740764775639095 
0.02681061864687274 
0.02708377850733661 
0.3231394696555357 
0.06968886206472884 
0.1320246815823749 
-0.1371053719425287 
-0.2053178409868046 
-0.1671528585623837 
0.3758867804716244 
0.1436572805559199 
0.1453115331167578 
0.02276472259446517 
0.6685023140134361 
0.1248545794472744 
0.272839944152368 
0.04036444715956695 
-0.3718483711622211 
0.109477857653106 
-0.2913269123576666 
0.9764101108718957 
0.0004596926336481781 
0.5609837754791183 
-1.107291375229927 
-0.04112771601413587 
0.1700644115293323 
0.0192205002855582 
-0.105741418116256 
0.0537814488203314 
0.05595224141941765 
0.1890333632466083 
0.1290482026207129 
0.01105998112668868 
0.01105998112668868 
0.03303941026575688 
0.1106843315208775 
-0.6593136118357799 
0.2492030111573265 
0.1242752603202973 
-0.1934112216053576 
0.4788298746193088 
-0.5983756399720703 
0.0008075827800266076 
0.05487712347108041 
0.1726600292407004 
0.0009340404505921709 
-0.2497253761267013 
0.08284512401330646 
0.4881600014122726 
0.08470360297378866 
0.0002142290481600058 
0.02304682587717836 
-0.09479977652351168 
0.03793152379564083 
0.1473804782112378 
0.2136809549382897 
0.1596061679909216 
0.000475550952181874 
0.2574097736787533 
0.000128541780886164 
0.08057874399336028 
0.03529685407476433 
0.0002599387805224791 
0.470160849452981 
0.0002599387805224791 
0.2072005712106511 
0.3035795776778332 
-0.3648941915228912 
0.08108848010123094 
-0.3518944249989825 
-0.001562184911720907 
-0.001562184911720907 
0.4550928531526608 
0.05349971153761695 
-0.001562184911720907 
0.1479294822566462 
0.2433574425154054 
0.2194118219406112 
0.1990501903360788 
-0.7687268572614545 
0.1871576587514966 
0.1871576587514966 
0.2018385966613066 
0.08463280198344537 
-0.002193070500046696 
-0.002193070500046696 
-0.002193070500046696 
0.06927609554284844 
0.1627185741485946 
0.03521084214451129 
0.03521084214451129 
-0.05217301401403205 
0.2141958532393339 
0.01335333533997254 
0.348317263851424 
5.558591955588688e-05 
0.01011623042139692 
-0.1612548811348262 
0.1271732563845607 
0.0008161399802090709 
0.0008161399802090709 
0.04639994754448598 
0.2751012161392346 
-0.01842716016024776 
0.011442959438189 
0.0008161399802090709 
0.2058918047483598 
0.0008161399802090709 
0.0165752809694484 
0.0146426150462546 
0.0008161399802090709 
0.00542439039191312 
0.4062132634389078 
0.4962228158030297 
0.2986411554372254 
0.5518347331607116 
-0.5457616736946178 
0.09676100675100355 
0.2504705355373139 
0.138196497554876 
0.06306229200844568 
-0.3006156383422444 
0.03253309224750314 
0.3659863249135818 
0.01654462222147266 
0.6462888981520386 
5.149631979995741e-05 
0.3030318423010006 
-0.650559863300239 
-0.1980227301282788 
0.2327639027980148 
0.0626840890950229 
0.0626840890950229 
0.0626840890950229 
0.1328258985731156 
0.1253839511292838 
-0.3566490836770769 
0.001690950150616676 
0.006206933416977631 
0.08570494474134674 
0.03910971478641836 
0.01431154320276916 
0.1696255033357973 
0.08128114981874023 
0.2339947981989292 
0.08134985036667933 
0.2361134526273599 
0.2321707677785016 
0.2090131202214063 
-0.4899197987157111 
-0.691136951681234 
0.3046516169373568 
0.4272634059783462 
0.18337868864914 
0.05685788153594958 
-0.4380110996666493 
-0.4380110996666493 
-0.3217992715427471 
-0.4380110996666493 
0.1576931348071421 
0.03898219085329796 
0.9987828031701432 
0.1914650148253824 
0.02851981572674971 
0.02851981572674971 
0.02851981572674971 
0.00520552416703772 
-0.2942212377001968 
-0.2052823943061171 
-0.4819308469441532 
-0.4819308469441532 
-0.3853086553252261 
-0.7137720652721647 
0.06067505366387313 
-0.04662625656687714 
0.2361678256784191 
-0.5582514314152871 
0.4136562671308291 
0.4912442939874443 
0.0001175253861473513 
0.0001175253861473513 
0.4603197058867436 
0.3896032435610384 
0.1112342240612889 
0.004561434786951068 
0.5285279376694543 
0.4469487731849924 
0.3440264416989285 
0.1091457426915837 
0.0001734118833591903 
-0.08868730705187276 
0.008659901992488773 
0.01309974409595076 
0.009841162303973722 
0.06997386527255395 
0.06997386527255395 
0.1671085205422759 
0.2330819819158118 
0.3934041772442718 
-0.9074868934861523 
0.03087058802585923 
0.03173772487503659 
0.1300553546917148 
-0.03869525848941405 
0.0009519616160072081 
-0.008871798679873893 
-0.0004009676782495235 
-0.0004009676782495235 
0.171883333849043 
0.1803954335692436 
0.1386754101930986 
0.0001001101634601705 
0.007597162450389708 
0.0001001101634601705 
0.3957653073256102 
0.02404559872033744 
0.06302570268632507 
-0.596657770757562 
-0.5587960134428698 
0.4538307786146912 
0.01688151300675619 
-0.00166884816267114 
-0.2653486767432316 
0.002760657686917225 
-0.00166884816267114 
0.2345445710030366 
0.0799052088695094 
0.07844304041664799 
0.2182275435901936 
-0.07441392957708071 
0.1040438948720591 
0.1199795809730778 
0.007014668355531905 
-1.035925398245022 
-0.05226800381293884 
-0.4909250113524036 
-0.4777280121246802 
0.03484302588841531 
0.1157652926377338 
0.001706981795915967 
0.005194200499773608 
0.4929439838695294 
0.2061991460861871 
-0.2058509123250443 
0.08057874399336028 
0.07874344318633299 
-0.200170828062179 
0.2364724451616283 
0.3021813883376986 
2.741743600872726e-05 
0.1245739728933623 
0.4410509099105612 
0.04118286783277496 
0.06411960918120917 
-0.5803147083807523 
-0.3263508385051511 
-0.9282130371883611 
-0.5819232399130121 
0.372769079844155 
-0.2915727406883913 
0.08352584309589198 
-0.2268750428343419 
0.4167817718606002 
0.0002413995182371064 
0.1267383144744539 
0.0002413995182371064 
0.1724168781070929 
0.2130823095427062 
0.2995606986363473 
0.009715726567659771 
0.1146438375713847 
0.5956244672592457 
-0.0004409515211423822 
0.2461913694365596 
0.0004527488272930111 
-0.2226138334554419 
-0.2149263920769386 
0.006235305401696198 
0.006235305401696198 
-0.0443860280681927 
-0.5617812656266423 
0.1306204770008375 
0.04913192854725221 
0.106900663200857 
0.3065336497986728 
0.09117197110452203 
-0.1698641033845507 
0.03098524074217699 
0.0007877361364216594 
0.002484021060958038 
0.379740258406411 
0.1094223862124035 
0.2238748137380772 
-0.008557795543698742 
0.2387981876146657 
-0.1537864898956155 
-0.3699940586204623 
0.08669490492026277 
0.2197113360013937 
-0.1359988278911247 
0.03455857286104361 
0.03455857286104361 
0.03455857286104361 
-0.4093042252160626 
0.03455857286104361 
0.03455857286104361 
0.001496215574602831 
-0.1794743370239235 
-0.04689409798213932 
-0.096010404974653 
0.5080147829497189 
0.181822423169866 
-0.2896031811008787 
-0.3926578436730165 
-0.3926578436730165 
-0.3926578436730165 
-0.3426817404383358 
0.2470534220239059 
0.01766160904215519 
-0.07565642724234813 
0.001331640705507201 
0.1256837715072812 
-0.03477223933464633 
-0.005935298414106482 
0.3399828168645741 
0.003694140671561442 
0.003694140671561442 
0.003694140671561442 
0.003694140671561442 
0.1159282715868391 
0.2510098970386609 
-0.3284646917796584 
0.3215956185197246 
0.1281915336937799 
0.05639648764089235 
0.4022312051546081 
0.3619977445220422 
-0.196807314391659 
0.00386075357174875 
0.002153350282034434 
-0.04168821293682337 
8.70765801486752e-05 
0.4372593278281137 
-0.2540685022613194 
0.06805753608039813 
0.0835532713745236 
0.03969411899747095 
0.07333484546755319 
-0.07477465962472289 
0.2323205075245636 
0.007629265765304052 
0.796093006763102 
0.2475985393414228 
0.001510922318878324 
0.01289960619594019 
0.3267324632504155 
-0.04042489078194477 
-1.003463639087351 
0.221272008927669 
0.1238030038146612 
0.005316208054998163 
0.0836404981555523 
0.06261374193497204 
0.02154611851608453 
0.4847410200530876 
-0.2317328616617927 
-0.3370409803527577 
0.4762560250403254 
0.1813407720416322 
-0.03204259683313732 
-0.5355271124784583 
0.03947710342997855 
0.4041291897621598 
-0.7430077071932503 
0.159482072253158 
0.3938431550375246 
0.2144518377517906 
-0.5864146634214911 
0.6344401331667205 
0.08544217987179457 
0.0538490032406632 
-0.3500812584950979 
-0.6078991889373313 
0.2358812780569369 
0.03366286203871831 
0.0005510322048025949 
-0.6345722261524505 
0.2374259720782352 
0.1242372068773623 
-0.1773195645241877 
0.04025818279387625 
0.1036794211981265 
0.0405862027490839 
0.1032967617876701 
0.04114705152963244 
-0.137086844223223 
0.2175614572159721 
0.04292869856767005 
0.006522319150901521 
-0.1015144396549165 
0.2216098906643003 
0.08632619099445403 
0.07629276289595346 
-0.7941563545503689 
0.08057874399336028 
-0.02364846209918409 
0.4613419506188304 
-0.0001967308425524624 
0.01929463517106189 
0.2736562974708991 
0.07663304652866425 
0.1989757067656836 
-0.2040966200307128 
-0.07870183450746925 
0.1130804786857742 
-0.04354944041873747 
0.04666357587582764 
-0.5999978407851271 
0.2365713346763011 
0.3257911045136914 
0.1800764744487643 
-0.0008053217807787234 
0.08708682358987964 
-0.0008053217807787234 
0.1647459759910767 
0.1289088504425636 
0.2611896554135129 
0.001998918888895211 
0.001998918888895211 
0.001998918888895211 
0.06180862904254449 
0.09311352873882008 
0.5449367995487597 
-0.4841367053455644 
0.01781370316385568 
0.4313457085796567 
0.08854637856512008 
0.07562449689444849 
-0.4792422884958868 
0.02354263947642596 
0.131064472256026 
0.1385403260227394 
0.2708759851763682 
0.05718361245624605 
0.05869596185977741 
-0.0797329568500878 
0.001971635103834832 
-0.03681354615932782 
0.1850406189948026 
8.70765801486752e-05 
0.0009464562505874727 
0.5744444034037929 
0.001271131700159464 
0.02282824634627096 
-0.09504154944549997 
-0.9871694060668244 
-0.03592755438269723 
-0.5134623182452323 
-0.3203021045012207 
0.3816521171150092 
-0.1432947860747628 
0.08745941508246292 
0.07305475246706876 
0.03605516588960951 
0.004175344907066129 
0.09751334273535157 
0.2746851496142254 
-0.01244917721021498 
0.003188209840231886 
0.3696807445326679 
0.08207228383931471 
0.1043214360873143 
0.4813277532237817 
-1.048169621282777 
-1.276278463929154 
0.1295098027211123 
0.2645604083683865 
0.01131591363119739 
-0.01309901481611926 
0.1935793146532749 
-0.01309901481611926 
0.03253588516377024 
0.03253588516377024 
0.03253588516377024 
0.03253588516377024 
0.1483107993341704 
0.2745094235064495 
-0.2497823739182888 
0.3558482420818447 
0.2469848941529663 
0.1532178190587735 
0.1835646326113117 
0.4279255325493296 
-0.571279321550337 
-0.6306382919979499 
-0.968035229417928 
0.0129609439909564 
0.05800627961025072 
-0.006109029617821921 
-0.006109029617821921 
-0.5183467915363317 
0.1915946626388635 
0.0448647192228052 
0.1392939338212891 
0.2760584993326969 
0.1970137705622317 
8.70765801486752e-05 
0.6260063801305875 
-0.06867408925730535 
-0.334453800154915 
0.05279410313910379 
0.05418144203765814 
0.3219970739769067 
0.00209125055633334 
0.1068859342585861 
-0.3390769969488296 
-0.5954408215548902 
0.3655032024349277 
0.1226267211630995 
0.1177091671752337 
0.4881082565999081 
0.03963754707975013 
0.1581242859441951 
0.01606377233577925 
0.3200532337630853 
-0.707279788644938 
0.3773151955661602 
0.2338015159326395 
-0.1823307396471847 
-1.068618726969416 
0.08682387690569243 
-0.002895495437692003 
-0.02754404210397246 
0.1076441036620784 
0.4403276810377634 
-0.0379827844748336 
0.2124592591727091 
-0.6947174723606311 
0.1569625027460615 
0.007184811937999839 
0.2543517883207635 
0.006263221353875734 
0.05636827356649579 
-0.07893762226224048 
-0.1408542778532525 
0.05552300927260119 
0.3343402295264162 
0.0003524758538442265 
0.5669539971165335 
0.1073103496665051 
-0.08275041462254025 
0.0210047021021801 
0.1122583970301141 
-0.3421398470667139 
0.03428592405397515 
-0.6414761093211094 
-0.4582243769454487 
0.3072508647505234 
0.2965488046984173 
-0.4042406053114601 
0.3387784182609072 
0.08020745496665951 
0.1396712165274903 
0.202601526772111 
0.1114932618150685 
0.000862265323356008 
0.04794468016847049 
-0.1806112363106168 
0.02980236901986182 
0.0561229250703348 
0.02980236901986182 
-0.2718199301539603 
0.01852563815759742 
0.03263825861406254 
-0.2020484760848695 
0.1585586809298046 
0.1949088398946647 
-0.0004470240166866293 
0.1945281645501013 
-0.0004470240166866293 
-0.000285169510579219 
0.2081269177210215 
0.03652721426576316 
-0.3308690099792553 
0.1260787990887481 
0.1260787990887481 
0.1260787990887481 
0.1260787990887481 
-0.7466305381968946 
0.02594582874702232 
-0.1317191760564992 
0.1574199072752822 
-0.1395273187516907 
0.3551382803695889 
-0.3929556468326669 
0.2442491806172297 
0.2901026604301926 
-0.3443648796855198 
-4.175388728831048e-05 
0.0925739220921387 
0.01932565617069481 
0.1162741177249633 
0.006915667799892141 
0.006693792351735769 
0.1622828099403809 
-1.151855951505577 
0.01458561201363418 
0.380556158154963 
0.1114558539180013 
0.1862948934098944 
-0.4143608782578825 
-0.4143608782578825 
-0.4143608782578825 
-0.4143608782578825 
0.03266183936207687 
0.04543422307091984 
0.03293608171708222 
-0.3086065035525019 
-0.0005301130896487857 
0.222002506375706 
-0.1489225447133442 
-0.1311824602012535 
0.213264575490745 
0.2827170037102934 
0.3589055935006756 
0.0003285778801530699 
-1.085555337221411 
0.004552309611557602 
0.01201860212618337 
0.2329440357232773 
0.00381570958667566 
0.00381570958667566 
-0.1777164484716551 
0.05304618601075056 
0.01874264152688331 
-0.04465001487277252 
0.0008675529373876996 
0.007825004677312527 
0.08057874399336028 
-0.0008888369683907904 
0.537222450549188 
0.00641994900495322 
0.1413153679640361 
0.1413153679640361 
0.1413153679640361 
0.02002423818420011 
-0.1245538537805328 
0.1070489708364187 
-0.0003119810013667513 
0.1628040544940281 
0.325634473945736 
0.2437320333796162 
0.339468648187446 
0.00937962579567804 
0.001239398510942631 
-0.2062236858396337 
0.2169662927341397 
0.0009464883430245826 
0.1670552639584622 
0.0002445701634785019 
0.08134151668729381 
0.344422683747135 
0.1484176235323586 
-0.00254241595845445 
-0.3058860886017388 
0.00132588869391487 
0.008731953145890568 
0.0110617024152205 
0.001062028875918407 
0.07431136154109121 
-0.3928165447114326 
0.09331418109081696 
0.02574459735900105 
0.005211220484041662 
0.1283483801098064 
-1.22235173423322 
-0.3073662090405679 
0.1318997138500635 
0.1489123993026947 
0.2687876277411613 
0.2696002207596016 
0.1420865687488479 
0.1050901791913593 
0.1617353156253435 
0.08057874399336028 
0.2021804837114115 
0.1118159552596099 
-0.8856718472128955 
0.1801703856462314 
0.1760657900974257 
0.001347271578465235 
0.001347271578465235 
0.3437735817397072 
0.02728621645068904 
0.001347271578465235 
0.1313547442210186 
-0.7318227248691963 
-0.0002482205686453868 
0.3120389625425313 
0.01667983947683242 
0.1707367428755317 
0.3263203117782069 
0.1785382633394333 
0.0114595137448566 
-0.2295211216330838 
5.529248272033195e-05 
0.07180971229436786 
0.2549750748833359 
-0.2649924939437438 
0.006129384854805002 
0.2076122895888625 
0.001251752273579052 
0.1855854955226993 
-0.1949604522569713 
0.001251752273579052 
0.001251752273579052 
0.04997114055392315 
0.06868872301385959 
0.04393410360173642 
0.1733928989491403 
0.002493895652451621 
-0.01432459111708165 
-0.01543292201337888 
-0.09481230107877034 
-0.6255504197178885 
-0.1689964087308673 
0.09561380128355133 
-0.5752382533253233 
0.0171272419049188 
0.1059361021708885 
0.001716738783763291 
0.1183695888273028 
0.09701029917522919 
0.2047847018966243 
0.001764732191658664 
0.1732976396700353 
-0.1401223004810906 
0.001764732191658664 
0.03020984741822976 
0.08416453758318207 
0.5567493096817437 
0.975249096910894 
0.003196997839857091 
0.003196997839857091 
-0.3310542328193213 
0.2404487313916284 
0.3692753888894422 
0.1670144821977197 
-0.4397935158048923 
-0.9773957462809442 
0.1320568998486112 
0.1985489613630646 
0.3303570358610602 
0.2854072164593199 
0.3037127127225038 
0.3402160082074215 
0.5316038252489305 
0.01710022993329822 
0.01710022993329822 
0.1506017360632141 
0.1673200455577306 
-0.4847754225940925 
0.07154665285963599 
0.1960145013534209 
0.1260688993255048 
0.07831219388917961 
0.1766066677467242 
-0.4745791267581959 
0.1057003133295426 
0.0025682137663327 
0.07705093683358281 
0.0025682137663327 
0.0025682137663327 
0.0025682137663327 
0.05437246806420747 
-0.2594229535602427 
0.07321701135818405 
-0.265404839620524 
0.1092104031862013 
-0.001993612442579279 
-0.001993612442579279 
0.002837926565483185 
-0.001993612442579279 
0.007298531972664319 
0.1319572172993751 
0.03380715525982351 
0.4542998438860668 
-0.5056654603485675 
0.4064553069475516 
0.1199422427515358 
0.08057874399336028 
0.2744427284638882 
0.004350152996435788 
0.3219872143500389 
0.0001140386585644767 
0.2538252671764612 
0.097418565109434 
-1.142220793064076 
-0.009649129615167153 
-0.5861561734006373 
0.1820601541410447 
0.2185671220134917 
2.443994019107836e-06 
2.443994019107836e-06 
2.443994019107836e-06 
2.443994019107836e-06 
0.1342174763486387 
-0.6990647751541078 
0.3359308781710854 
-0.5953499452107461 
-0.03241652942526486 
-0.006976887321409429 
-0.006976887321409429 
0.03121720829299247 
0.009187300077282268 
0.06552997862986407 
0.004972692053552228 
0.1549520618442242 
-0.002375438007896889 
-0.002067137447702567 
-0.001401234170774027 
-0.08670018515611327 
-0.002133905878139489 
0.4462936812392408 
0.5883411677952695 
-1.331124939133529 
0.3841138355244803 
-0.0002118699328666361 
-0.0002386991809292392 
0.001168526815223921 
0.001168526815223921 
0.001168526815223921 
0.003969916506962077 
0.2488107435689994 
-0.1740862523120751 
0.05157821772282692 
0.04280102043937335 
0.001362672542400168 
0.08857547503126402 
-0.1310415567277632 
-0.01992807471638105 
0.03844431391136918 
0.2958542789205771 
8.70765801486752e-05 
0.2191421599300961 
0.02098579831304014 
0.2693021548575767 
0.0005767404692785453 
0.001777327147331197 
0.1057638190523571 
0.01833261713381334 
0.0005721905464296187 
-0.06889684477157818 
0.06981298009166038 
0.00225582423773471 
0.0002594752819608087 
0.4609874811314672 
0.3765198796613531 
0.003132965936703167 
0.03320958752843757 
0.1056185064468439 
0.03656343069280073 
0.001467817328815894 
0.0174374111770925 
0.1814764156416781 
0.08067238437952362 
0.07372173188526554 
0.0908333386234092 
4.844926686886012e-05 
0.1684804441765725 
0.1245991963188162 
-0.006643236218670557 
0.335628169013969 
0.129416631892941 
0.2509244267939326 
0.05182913395901888 
-0.2892792085037608 
0.0603229169482318 
0.05182913395901888 
0.003691152739491887 
0.4707850608538862 
0.1835915116349555 
0.1727541384893759 
0.001626022608557519 
0.1349502181464426 
0.03049047302661229 
-0.3223164723570626 
0.02773435356535648 
0.004982900935206349 
0.01015737960408532 
0.000521641842884646 
0.3706219771526237 
0.3387290464405062 
-0.2991714702839548 
-0.3473134675409569 
0.3050814992385064 
0.1367837213039934 
0.1705709497277863 
0.1717684764203476 
0.1037802472437773 
0.9604198781975919 
-0.8461375552409639 
0.5729093943178245 
0.5014846137941802 
0.08057874399336028 
0.03773639822754133 
-0.001239458176982838 
0.1673194205196592 
0.02534425972180767 
0.01592345582394612 
0.06928383632966582 
0.0677363765881982 
0.3018123819170481 
-0.04920878101789126 
0.4391162196310102 
0.1783311869577889 
0.06576101824264745 
0.2465880298982839 
0.004105445521933458 
-0.3807158969406922 
-0.2348801386495918 
0.278357229184474 
0.0009699561807553194 
0.008584461958357678 
0.0009699561807553194 
0.0009699561807553194 
0.0009699561807553194 
0.0009699561807553194 
0.0009699561807553194 
0.0009699561807553194 
0.0009699561807553194 
0.002209421268214301 
0.0009699561807553194 
0.0009699561807553194 
-0.006453670400966711 
0.0143544397273011 
0.07362959701997107 
0.4324718776516234 
0.1260713266471615 
0.1260713266471615 
0.1338432130872507 
0.1260713266471615 
-0.2620341268524776 
0.0487676436858997 
-1.078944428143207 
0.08221188381028141 
-0.7844049257854222 
0.0558133541887628 
0.05130956461783952 
0.01349698638034997 
0.01305200886036429 
0.01305200886036429 
0.01305200886036429 
0.01338689040355369 
0.01305200886036429 
0.4171403954416922 
0.01576860881081312 
0.003878220754997187 
0.003878220754997187 
0.003878220754997187 
0.003878220754997187 
0.08057874399336028 
0.6806717684950291 
0.003223203090597138 
0.1064831674317024 
0.4125015214527722 
-0.2604001187413288 
-0.299616723409524 
0.3150237099485576 
0.06668574492451881 
0.05480897035132311 
0.3008652811511429 
0.05801953658270576 
0.1971755494700662 
0.1081753307998623 
0.01380125514492645 
0.04919006842403083 
0.1979811070487529 
-0.3686986146919088 
0.2896583447725179 
0.01639653846269206 
0.0312953777578257 
0.002080094982937828 
0.00427054768718191 
0.01009989462160705 
0.006776593636420285 
0.05608764317818054 
0.1114709515251997 
0.005959336193036512 
0.0005117195797944387 
0.007183550812488142 
0.06248937202242738 
-0.0008000566040144593 
0.08962193987548911 
-0.9387021371053235 
0.1520055372624066 
0.7098438124761564 
0.331165239666873 
0.0665385408573048 
-0.5353741837882081 
0.06203152437866943 
0.1275052549423114 
0.1897799413736137 
0.004594248796455359 
0.1772948905111341 
0.1132428442915239 
0.07810331270421263 
0.007443112605816908 
0.007443112605816908 
0.01761433415026237 
-0.2599282981755125 
0.03954564254222976 
0.293887319016746 
0.3310266821203328 
0.125599438685646 
0.1330082243743782 
0.1164482970671919 
-0.006438199604760483 
-0.005028567640722513 
0.002035072300520162 
0.04505010312545594 
-0.4092848617004357 
0.1453992670404978 
0.09324990896294097 
0.01804921171420838 
0.08237632092467161 
0.05497496220726029 
0.09754324252845051 
0.0001947414559528353 
0.07207582852160223 
0.01213110343293533 
-0.001556384146337915 
0.3666959542413872 
-0.2382771559137023 
0.003367463995724383 
0.5814028795885348 
0.06293412711146544 
0.02639445433410431 
0.06218311271725022 
0.07656050664625692 
0.04956731235514131 
0.08057874399336028 
0.239358750592006 
0.007478747414686033 
0.2274831369308913 
0.3030427870676522 
0.1966343945099203 
-0.08159228842718154 
0.0003360594803428867 
0.0007175747775987542 
0.08051773173087474 
-0.0008187247700502633 
0.0562481537062231 
0.001448783903973668 
-0.8014728209438302 
0.1078359695156984 
8.70765801486752e-05 
0.1970312398197062 
0.04240378218019156 
0.1967182449400416 
0.04240378218019156 
0.04240378218019156 
0.07566523956472776 
8.70765801486752e-05 
-0.4374518279326082 
0.2870497793536904 
0.4528092687753781 
0.1083722724289756 
0.004065169647100957 
-0.0981417833028235 
0.5027401925237012 
0.2010681876396907 
0.0198596858626445 
0.02214118410505138 
0.0198596858626445 
0.0198596858626445 
-0.54180804341524 
0.1025320832351148 
0.102379532112641 
0.102379532112641 
0.102379532112641 
0.102379532112641 
0.1253397302185497 
0.0357028505957924 
0.01655528998648215 
0.05069414313079491 
0.1642303221487088 
-1.32577467945651 
0.1806917168756495 
0.1628188756133697 
0.1614158340635014 
0.1614158340635014 
0.1614158340635014 
0.03431708856436422 
0.0183018493553534 
-0.2073507571000734 
-0.004179314296899466 
-0.004179314296899466 
0.484165822364005 
0.02492095097109254 
0.1940748617469992 
0.0002634082637426726 
-0.1373462281171727 
0.391366580412474 
0.2118843746559088 
0.1209145310938965 
-0.0005309133133049187 
-0.4718148969177842 
0.1604038849597635 
0.436431838210083 
0.0568515442803048 
0.3299480536995925 
0.2255329075197396 
0.0003686092067159831 
0.31037431401032 
0.14524301060346 
-0.5810911291903009 
0.4469739914396671 
0.04480374012625674 
0.0142587210762089 
0.1842598928078746 
0.02698697839029178 
0.1706705257107713 
0.2239421671248072 
-0.5109634054765042 
0.0007785619303822094 
0.1075183853669918 
0.0946282010716354 
0.08543996706601317 
7.041870703057902e-05 
7.041870703057902e-05 
-0.01947018550882498 
-0.0003787356841442733 
-0.382038308991848 
0.1705131387502682 
0.5337210858988437 
-0.3483350244172925 
0.0132065714480318 
0.02027936455863715 
0.002134722738015956 
0.279079471616645 
0.06325395997130573 
0.2115445596532596 
0.1929704834829757 
0.3487486513590453 
0.1686867251849184 
0.0003995902810396225 
0.06755139664631377 
0.4523858192370085 
0.0006417388319255281 
0.1393351792075933 
1.693248717308989e-05 
0.01807057687536091 
-0.1736109518227276 
0.2106748297609226 
-0.1176040753505749 
0.09811014607392492 
0.08129023516770061 
0.02804819642651596 
0.0001078378498823092 
0.01820030656956596 
0.2036482764362448 
0.3766949538938738 
0.1889966275939149 
0.2232653283601792 
-0.002035318566755928 
0.3950837223159702 
-0.0008928259919998245 
0.0006924971230582082 
0.2220700665263995 
-0.06383551551880531 
0.002588885814197501 
-0.1048254552635031 
0.01696157630764928 
0.02335542312787901 
-0.0006832106200805329 
0.2486043118054721 
-0.4372779411808553 
0.2391431654262113 
0.1144580179168115 
0.02713821973069306 
-0.8719699715171479 
-0.212204363490187 
-0.1687209685170869 
0.3198930910174635 
-0.2785455309629962 
-0.4036460975768214 
-0.0003280199552076558 
0.008863004191900345 
0.002409895719913617 
0.1500988850936413 
0.1571098795351102 
0.000632965848677921 
0.000632965848677921 
0.0001854893949168061 
0.09888014010063828 
0.000330598718157533 
0.000330598718157533 
0.000330598718157533 
0.000330598718157533 
0.02894072279045285 
0.0587073193374485 
0.04102995589817902 
0.001799762833906794 
0.3931566474209774 
0.2826676630024513 
0.592532582128543 
0.004661914656661729 
0.5484120545424287 
0.1405373089164625 
0.2301919329092696 
0.01282015270086709 
0.01282015270086709 
0.01282015270086709 
0.01282015270086709 
0.01282015270086709 
0.01282015270086709 
0.01282015270086709 
0.01282015270086709 
0.01282015270086709 
0.01282015270086709 
0.08050791133516379 
0.08184881650796311 
0.01672969628917675 
0.1145703472597267 
0.0989647820459531 
0.05152319754321612 
0.001866567045990214 
-0.0463200023464436 
0.3688299275419824 
0.01471781536918178 
0.002528686124499313 
0.4124552585757432 
0.3129210291373227 
0.0118460828661573 
-0.9326153133584912 
0.001482340714594087 
0.04206142179897399 
-0.1078648440902881 
-0.5263600992725403 
0.2032634893380767 
0.01127156970431465 
-0.1870249641155369 
-0.4610762478252061 
-0.4610762478252061 
-0.3805678614078977 
-0.5349047006506299 
0.299798595780403 
0.2317174494589817 
0.03510359801847709 
0.3058846802301715 
0.03493794413550738 
0.1572195469844196 
0.003198804173709271 
0.1099004455437795 
-0.0001622964959083825 
-0.2056372126799944 
0.2437624451228732 
-0.3470830396533289 
-0.132829354093415 
-0.4218568832685682 
-0.4218568832685682 
0.01818144605388941 
0.000309941770855897 
0.000309941770855897 
0.08057874399336028 
0.0009764868195306903 
0.2432384730199386 
0.0009764868195306903 
0.2249105721171346 
0.144547106542142 
0.1769151217253329 
0.0005065577459869229 
0.2188334088945944 
-0.0003200576706976384 
0.003450431187784474 
0.02495872773635354 
-0.0003642595119234399 
0.08935618162063466 
0.1715792782120786 
0.08213153020719105 
-0.002258140021221428 
0.03917354316096946 
0.03842850527863791 
0.03842850527863791 
0.00729959127806761 
0.4454593177783995 
0.201497815134654 
0.009797641251658972 
0.06072600967091472 
0.02268835172875149 
0.02268835172875149 
0.02268835172875149 
0.04538967596501251 
0.02268835172875149 
0.02268835172875149 
0.02268835172875149 
0.02268835172875149 
0.02268835172875149 
0.1438082783081481 
-0.005635653053659101 
0.003518369496439152 
0.07259105142979322 
0.09663760911423694 
0.06029745011921956 
-0.3655363605672537 
0.08057874399336028 
0.217935221822264 
0.2024231746671887 
-0.0005207761480198236 
-0.202468362153499 
0.002636025436107671 
0.09952017780931806 
0.003021145271128056 
0.003021145271128056 
0.1476918790400211 
0.1195942892636534 
0.01671625371354655 
0.2259170315781172 
0.004654210763002906 
0.08400844048762764 
-0.08170254164501067 
0.1556725591445371 
0.01427783772975579 
0.1720366959290263 
0.1077625871406355 
-0.02528687222148522 
0.1770578878938556 
0.1756916965805287 
-0.6983584342211868 
-0.3243990603653489 
-0.7393669914259324 
-0.06361767723895183 
0.1116031057683527 
0.06854081754690967 
0.4752019433006806 
0.1113550561544027 
0.1108607133827744 
-0.244046218588049 
-0.3577952708840028 
0.3969165429120762 
1.378318824434681 
-0.0003604796293860841 
0.1597081090685371 
0.1830152576115952 
0.2820920223131272 
0.3152104156989378 
0.2948058497871506 
0.1400345218965543 
0.2874971007465746 
-0.4593566449076465 
0.1178105024833288 
0.1400223209672412 
0.0829585026869246 
0.09560187686706494 
0.07615788910639933 
0.4174537812134708 
0.0005295343703422915 
0.1310371580694819 
-0.1272134484223464 
-4.928326684101464e-05 
-0.004867756778685473 
0.2468791550727108 
0.08610571047507555 
0.5496588185341288 
0.07814381504713885 
0.07814381504713885 
0.1206105701512214 
-0.4107619788932593 
0.5706842940068978 
0.2676524234396992 
0.0122325105790545 
-0.004631844776595832 
0.3551018255526995 
0.1295412192570921 
0.02237130716262423 
-0.6022262232555008 
0.3041649074565252 
0.3036410721960123 
0.0004401258119181106 
-0.2725092039529292 
0.2515661714938073 
0.04109531614864055 
-0.3566621494037023 
-0.0004965194921627751 
0.1680896901635399 
0.08463626848540029 
0.08463626848540029 
-0.822038620522637 
-0.4602478399553345 
-0.3310843641289076 
0.1584807566273885 
0.05288860159022129 
0.0005233043321304815 
0.05266297827641436 
8.084654193686518e-05 
0.229950204617733 
0.08144489701770649 
0.112401014005242 
0.3550847208858354 
0.0002144536505173135 
0.002690970792900814 
-0.01275705127849574 
0.2192844788932021 
0.001170640078444351 
0.04729763076995641 
0.01308846147654878 
0.1068859342585861 
0.002255799337003127 
0.1690852927359667 
0.08057874399336028 
0.002392563632615074 
0.0007712060943713864 
0.00907117638129845 
0.5399778421477774 
0.2643279888592583 
-0.232671378328128 
-0.02098290664090965 
0.08057874399336028 
0.009278659550127782 
0.008896013457241499 
0.2424526560060773 
0.0004945985296904471 
0.2239728048837039 
0.1526272086872685 
-0.3865037721263922 
-0.0395056116144336 
0.03808490242420636 
0.1710470147902105 
-0.6126130740143878 
-0.6126130740143878 
0.2793319337990372 
0.01654262514219418 
0.01654262514219418 
0.01956070045549761 
0.01956070045549761 
0.01956070045549761 
-0.5304349385900208 
0.04508678395373522 
0.1068859342585861 
-0.0004628824078298142 
-0.914589915953038 
-0.914589915953038 
0.09654558835431315 
0.001254057598851236 
0.04141902411489105 
0.2867261631446813 
0.1493895713917659 
-0.195108607859218 
-0.7419633759496871 
-0.03917670585725408 
0.06279761569721699 
0.09485112095936939 
0.05252512746283691 
0.263936131238826 
0.06339979448394503 
0.06339979448394503 
-0.2613443125858518 
0.0001676244230222443 
0.4176124143446487 
0.1245664317390314 
0.1801200911158518 
0.0001676244230222443 
0.02662583358373284 
-0.5568813319757139 
0.02468088072014765 
0.02468088072014765 
0.0640788677678981 
0.06044993667468965 
0.1102262500365568 
0.1102262500365568 
0.1102262500365568 
0.2047426538891931 
0.0445338094142716 
0.2150220044840442 
0.001144151148646334 
-0.03543171501718734 
0.1390557820554694 
0.06877982713954095 
-0.4271769838313261 
0.2137818100171537 
0.2570454065576722 
0.2895881673617662 
0.0003439808636149069 
0.107719154581506 
0.04219751194978375 
0.04219751194978375 
0.0876356107573507 
0.06754920588126728 
0.04279475360107639 
0.04219751194978375 
0.1929180889503995 
0.1146009450000682 
0.003614410243246136 
0.206284181230614 
0.0007332036710623453 
0.1573703536834519 
-0.5684339321383065 
0.0421643988437931 
0.08121453380048918 
0.05228269417739218 
-0.2258292971580057 
-0.2992731075694978 
-9.490829406606477e-05 
-9.490829406606477e-05 
2.109992125013594e-05 
-9.490829406606477e-05 
-9.490829406606477e-05 
0.08061637500601658 
-9.490829406606477e-05 
0.3360838066592867 
-0.002542315760423151 
-0.08581887207391761 
0.08686247859903558 
0.5260593273178156 
-0.1436477712740492 
9.211165318643829e-06 
0.005914479632634202 
0.0001819259836792619 
0.0001819259836792619 
0.01611460982242802 
0.01184201929840432 
5.312750821145826e-05 
0.2599138772035487 
0.05344296712929303 
0.05344296712929303 
0.01772865098480628 
0.1509203864300994 
0.2780274438234843 
0.003866389954316161 
0.1703810217754524 
-0.02738185912135313 
0.1821775581524966 
0.1763339784713028 
0.1138673033273546 
0.3070083624410783 
0.001028440511834542 
0.3731729407687059 
-0.2829117971431204 
0.1095968165244641 
0.07604076269758642 
0.1181950503493522 
0.05232708222147761 
0.008318385070850249 
-0.0001288304674369856 
0.0005202874348450641 
3.65870011207561e-05 
-1.078944428143207 
0.05449378942978037 
0.05477023854791763 
0.3092173869360887 
0.0003798751489811648 
0.009125232243523386 
0.01078279078625558 
0.09349548066398336 
0.07559597000878276 
0.181148179571177 
0.1777080659219396 
0.1758607278336959 
0.181148179571177 
0.1444821282021416 
0.00448776421528938 
0.09870983276844096 
0.004524710593886263 
0.117806446468486 
0.08138465029035499 
0.0003439346250143414 
0.0004257842517222047 
-5.878605885668406e-06 
0.2788537062107869 
8.70765801486752e-05 
0.2554990825337433 
0.1129401085269943 
0.04332129959935858 
4.535909353724595e-05 
4.535909353724595e-05 
0.1247787107830909 
0.3136662249860906 
0.336174624608668 
0.002616633959473899 
0.2948924904187827 
0.02946041736147928 
0.02946041736147928 
0.02946041736147928 
0.02946041736147928 
0.006223166438446927 
0.0003745268315236188 
0.07055228035221196 
-0.005981769304933723 
0.02804283756184883 
-0.1753860424191754 
0.1320225930367605 
0.02080211112248561 
0.06256712672381706 
0.0007099801898729355 
0.01787944675842104 
0.002882039242079543 
0.02737251455480138 
0.05434333692083095 
0.001714453984504527 
0.001714453984504527 
0.1519914827321862 
0.001714453984504527 
-0.07827826575672565 
0.00090835593882682 
0.00090835593882682 
-0.1249679196296072 
-0.5347359168025165 
0.007001505734842484 
0.1975384872515848 
0.05331826439540968 
0.0002922108374581506 
0.001737683915605303 
0.001629590234213405 
-0.03149703689578552 
-0.4307397986119955 
-0.6157028131665564 
0.03907287060920522 
0.03907287060920522 
0.03786962595058809 
0.0008108334515713284 
0.5746758837008936 
0.0776699125509852 
0.2994620366784873 
0.00955976026780809 
0.06293636917040314 
0.0124304991660168 
0.0834625717279405 
0.08360326230515217 
-0.002138454649334829 
0.2827988468145503 
0.02495455882763797 
-0.3118134318564579 
0.07361121610096218 
0.2577214147496247 
-0.2106461057811294 
0.0002534221138139379 
-0.7106584425415592 
0.2776531631280706 
0.3418144954053343 
0.161504525442461 
0.0002414566696442996 
-0.003242830615263298 
0.0268695309258351 
0.009977512825151431 
0.04603286776250951 
0.2308212147259192 
0.002279010194023368 
0.05863651322592984 
0.02064974972452656 
0.02064974972452656 
0.02064974972452656 
0.02064974972452656 
0.02064974972452656 
0.02064974972452656 
0.2578704449296699 
-0.03215029741706348 
0.001009620333956229 
0.01373158390841726 
0.01732687469530361 
0.348419372826792 
0.348419372826792 
8.70765801486752e-05 
8.70765801486752e-05 
7.711677484969705e-06 
-0.4542991919373317 
0.156787916381182 
0.1345686459431267 
0.002101429726563889 
0.01120261887997958 
0.1428388650171851 
0.01315299933010038 
0.0004866575113686202 
0.39043832009919 
0.00254089196170986 
-0.5620154722625627 
0.02500100453909785 
0.002463234086480789 
0.01998265680913222 
-0.0007714809797651112 
0.08057874399336028 
0.04141800847773079 
0.08654969782213309 
0.04501975677978626 
0.0005120800570900984 
0.4131257128442254 
0.4131257128442254 
-0.4942995434318411 
0.415739822012822 
-1.019241060155138 
-0.4943191466635669 
0.1492712062189328 
0.1561272062658842 
0.2719273802435564 
0.0004564747674498855 
0.2634634106491469 
0.255877647034339 
0.05683977523761637 
0.0563449269953168 
0.0009464562505874727 
0.2436360823755693 
0.07504379187676335 
0.07504379187676335 
-0.02129022161735133 
0.09458969294623196 
0.2683786837287082 
0.04410657559545723 
-0.1854166382022133 
0.1181138342784418 
0.1181138342784418 
0.2190991505558226 
0.09766855460564226 
0.03034446850659364 
-0.1777404292848778 
0.7424856610853851 
-0.06800413726835604 
0.03246475288173133 
0.1435637679228457 
0.04878316638408473 
-0.8433146559303414 
0.1819683164160671 
0.01358566967769537 
0.2016255058331364 
0.002433760615471309 
0.002433760615471309 
0.130260766778765 
-0.3678891990986324 
-0.5985761955838532 
0.03984756306276778 
0.04616403273257565 
0.02207083840651979 
0.04616403273257565 
-0.734795747365515 
0.07462845497617167 
0.2515083090116033 
0.008574192060243586 
0.1073336935120492 
0.04697298546837349 
0.1291900172313142 
0.05344296712929303 
0.05344296712929303 
0.1264430206716801 
0.001192825703340865 
0.001192825703340865 
0.1323137090276116 
0.1133120706531034 
-0.4387017050434777 
0.195459618295808 
0.0806565072010275 
0.0003139157865472174 
0.1057081170613867 
0.1566630567161358 
0.04739014660431746 
0.1739989512948647 
0.01768474759402093 
0.01768474759402093 
0.01905775548399354 
0.01768474759402093 
0.01768474759402093 
0.01768474759402093 
0.01768474759402093 
0.0275932163996693 
0.3271188150217956 
0.007817934114301915 
0.01283765622934697 
0.04049452208369859 
0.0009286087026222497 
0.1176741994768744 
0.1626109579376596 
-0.002282462519885956 
-0.002282462519885956 
0.007380204407318122 
-0.0009828934424230729 
-0.002282462519885956 
0.008470833337990537 
0.4865205560494569 
0.01428383890260746 
0.006289105593500953 
0.0008665075585702194 
-0.2882886056438585 
0.01666384608691685 
-0.9859740052301973 
0.1476471830312791 
0.1829862878875906 
0.1985735014197264 
0.00885990526207699 
0.00297476549848204 
0.5625198611903427 
0.09773725667287243 
0.1451868013465837 
-0.001373721089069531 
0.3287162465126067 
0.002115149388308687 
0.002115149388308687 
0.002115149388308687 
0.002115149388308687 
-1.0570404962702 
-0.4944890294601961 
0.3730770038000539 
0.003650705782491188 
0.002371309180220266 
0.07185042854539869 
0.0006297983654113477 
0.4534845104308833 
0.0748328239128834 
-0.8113515511663687 
-0.3514286024151925 
0.02855581103562496 
0.02855581103562496 
0.02855581103562496 
0.02855581103562496 
0.02855581103562496 
0.02855581103562496 
0.02855581103562496 
0.02855581103562496 
0.04122215285435672 
0.002025018828625662 
0.0009249021642502182 
0.0009249021642502182 
0.07452025178400402 
0.1160255388389568 
0.04993736743771685 
0.09026049217403417 
0.3064299215236145 
0.6227419084711106 
0.06065976973000319 
0.03686589742487142 
0.0363287681771319 
0.01789998659750874 
-0.1750439368086819 
0.01139219084068817 
0.211210614032043 
0.3174120905297264 
0.1148035623658726 
0.05513723273006205 
0.2640738852625019 
0.5115779428060272 
-0.2113884907602882 
0.3427040844052127 
0.04088175139979804 
7.919720180958854e-05 
0.007536930949462974 
0.001094425720161864 
0.0007639684977092842 
-0.2498123641455514 
-0.5900450014817633 
0.007152519579615342 
0.149629633258946 
0.001425560812683998 
0.003741441239144226 
0.003741441239144226 
0.2125135510311169 
0.001999353546980995 
0.006777332718418686 
-0.1534898438301349 
0.101450094988952 
0.4264597598599204 
0.2979976628714651 
0.09731543093305701 
-0.1856307393759076 
-0.1975536546999636 
0.1105192165144089 
0.1668773580823438 
0.08105484579176826 
-0.3670374743868561 
-0.5077719614377754 
-0.2377991544826944 
0.1122186532027444 
0.1302033236665565 
0.1946662853201043 
0.01160396873640487 
0.01160396873640487 
0.03893009777777444 
0.01160396873640487 
0.0003177067225223515 
-0.3776706760727264 
0.2697387857659733 
0.1296851130729962 
0.0008308028373060197 
-0.5859152491416553 
0.02562516604092615 
4.198007129414346e-05 
4.198007129414346e-05 
4.198007129414346e-05 
4.198007129414346e-05 
4.198007129414346e-05 
0.03672913486818809 
2.392685937007726e-05 
0.03231597584282284 
0.3860663999854081 
0.1380026321672956 
0.1685651331784579 
0.2188026250017009 
-0.7215919561256202 
0.3450459551746414 
0.3534981461138434 
0.1153721021673795 
0.08512146831275334 
0.01263611984710723 
0.006227286488626521 
0.1119075189888961 
0.2639570960872413 
0.09015763292329594 
0.002170281176804743 
0.002170281176804743 
0.002170281176804743 
0.04883890252901207 
0.09497409105039828 
-0.6225881791548032 
0.001923710477841863 
0.0009270586180519704 
0.1223490253782378 
0.1261676394869998 
0.04629882099973271 
0.4343632425489655 
0.249361971126024 
0.007657332149689893 
0.007657332149689893 
0.08129039198869613 
-0.4897928573144846 
0.007476455633156331 
0.007476455633156331 
0.007476455633156331 
0.007476455633156331 
0.02131180434079227 
0.3871921940237734 
0.03726863385135574 
0.02942548176792612 
0.0003297278381497759 
0.0006327446707850229 
0.0006327446707850229 
0.0006327446707850229 
0.0006327446707850229 
-0.2177664796291316 
0.001676780945068142 
0.2066336931962836 
0.1406011932870462 
0.3109122892560232 
-0.05410653647362488 
-0.644187575527881 
-0.644187575527881 
0.2036264020341734 
0.2036111950257313 
0.2413443278476428 
-9.525479274562349e-05 
0.2843793200973749 
0.0342989962648515 
0.02789951399180196 
0.02789951399180196 
0.02789951399180196 
0.07410329771896086 
-0.6037520977912125 
0.5369173256584604 
0.4037305412257994 
0.001658174494434179 
-0.2268038274592965 
0.2741641863534596 
0.1250407897451948 
0.122688183781085 
0.122688183781085 
-0.2799568081887102 
0.07227120572713848 
0.2187850102473867 
0.08082435590465996 
0.0004117894645598151 
0.0004117894645598151 
0.0004117894645598151 
0.2421528215615982 
0.0812316200089645 
0.0009594422380916178 
0.0009594422380916178 
0.0009594422380916178 
0.0009594422380916178 
0.1180253333127668 
0.1161663575715836 
-0.2183273492595834 
0.1161663575715836 
0.1161663575715836 
0.1161663575715836 
0.001803741931541921 
0.02201767737160644 
0.01115739613654041 
0.2467408987058131 
0.008523408534204113 
-0.8253816620659304 
0.004962393464614653 
0.3153039517463467 
0.3190627618274734 
0.0009042240289963981 
0.1069523320263518 
0.0009042240289963981 
0.0009042240289963981 
0.0009042240289963981 
0.1032260182533165 
0.2464022820737821 
-0.2040592507441935 
0.001060937177085711 
0.06089143791760723 
0.2647552795271727 
-0.001159082428542169 
0.00026800114789877 
-0.1608717857039327 
0.08057874399336028 
0.08807898297772614 
0.017398783654691 
0.00427460568309524 
0.2025266748869208 
0.09321214533703387 
0.2244678292726701 
0.1053593629202216 
0.1346913619950806 
0.05385939180058617 
0.1553643275054612 
-0.5814763247409318 
0.1374337923512811 
0.1374337923512811 
0.2761007835182236 
0.06178495494586984 
0.08057874399336028 
0.1843009805074596 
0.07342900095175496 
0.3379013913585746 
0.3972796052151131 
0.3972796052151131 
0.003425641353680816 
0.4086649979041824 
0.01085188857142706 
8.70765801486752e-05 
8.70765801486752e-05 
8.70765801486752e-05 
0.0005260408173207262 
-0.003368627175920788 
0.3028025715546912 
0.1889584874821787 
0.0007096248612713038 
0.0007096248612713038 
-0.1644767614431671 
0.001279170027162278 
0.003182277346506994 
0.01528688952462893 
0.09913063928672905 
0.01603307926655585 
0.1038358731510029 
0.008336960356028078 
0.008336960356028078 
0.7910789879060761 
0.1462993468816596 
0.0005250197588439958 
0.07021998286895516 
0.07070611249667107 
0.0003898086927865416 
0.0003898086927865416 
0.2456814417201776 
0.3039309737970697 
-0.0003648299676530106 
-0.8500271009662782 
0.04076363293014569 
0.0009598410486090913 
0.1052724286099262 
0.1052724286099262 
0.2405335966030566 
0.46229412924206 
0.2604400455099847 
0.002791412148917668 
0.002791412148917668 
0.0727566043091093 
0.003624558788886449 
0.03591740732726935 
-0.4666397436298576 
0.3769640731477296 
0.3769640731477296 
0.07325074151362018 
0.04151697777662348 
0.002828381503303065 
0.1890383662129743 
0.1085035729071207 
0.02296863320674168 
0.173980193661973 
0.730251164763843 
-0.007114033052677536 
0.2762720789890701 
0.1886864126716479 
0.1989958845463692 
-0.3514504866059929 
-0.5338370050482509 
-0.7258042858217584 
0.003678395995072819 
0.09978811244970004 
-0.3074811181867444 
0.2217031864439806 
0.07001833920039152 
-0.149482280105509 
0.1946411596206944 
0.0003531559223762598 
0.04091528522857205 
0.0003531559223762598 
0.006195074270222216 
0.01543319144805815 
0.1554473505588455 
9.727328778112409e-05 
0.178739877924039 
3.227691785392771e-05 
0.004152618663459914 
0.265790069673891 
-0.0003524767615361665 
0.1691285645214534 
0.008088771161240165 
0.004395598620551257 
0.004395598620551257 
0.004395598620551257 
0.006584224552586234 
0.004395598620551257 
0.09538114352038023 
0.004395598620551257 
0.04002061975764735 
0.1753764297906086 
0.06375542250367258 
0.1355598628002053 
0.08057874399336028 
0.03577387453561911 
0.23112527562708 
0.1277779568672013 
0.002391565593202283 
0.003182838563030979 
0.003182838563030979 
0.007331382508342526 
0.007331382508342526 
0.007331382508342526 
0.007331382508342526 
0.03571835445306721 
0.0003508293355338368 
-0.9636250519783917 
0.03497398838808221 
0.01424316901157903 
0.08338580278950485 
-0.1582288295072001 
-0.3403751097601463 
0.0008081420474149583 
0.4489316310249293 
-0.5729521097908882 
0.4489316310249293 
0.04145827390220879 
0.03918054427797606 
0.01708425132452063 
0.04505456401521529 
0.2623328182672516 
0.02606922815007606 
0.02606922815007606 
0.02606922815007606 
0.0392069377225689 
0.3910450181230923 
0.2602537111155386 
-0.3661963958764528 
-0.164546623740343 
0.08846030169775282 
0.08846030169775282 
0.08846030169775282 
0.08846030169775282 
0.08846030169775282 
-0.08076251850659982 
0.02582248860959213 
0.02582248860959213 
0.02582248860959213 
0.02582248860959213 
0.02582248860959213 
0.02582248860959213 
0.002599012357377737 
0.1537666557903905 
0.0820356287014465 
0.1222936217078987 
0.2412437632639376 
0.1056734419384808 
0.003750860715347401 
0.1929922345660323 
0.003750860715347401 
0.01634205166941238 
0.1752962792938305 
0.3710093358239175 
-0.09745767457586764 
0.1299751022044905 
0.00243753232343798 
0.0005793774873449834 
-0.3460682027106805 
0.0611751444707835 
0.0611751444707835 
0.001235682796407375 
0.001235682796407375 
0.004260021574731911 
0.001235682796407375 
0.1162021243686816 
0.06457454848155492 
0.0001369100567015641 
0.002936946690964402 
0.3036907440639675 
0.0001232954735439852 
0.1184338700334285 
0.3871536319927345 
0.1356194926885712 
-0.134362941372476 
0.0004729103417006223 
0.1792899128447714 
0.0155990209676683 
0.007851395970441615 
0.04416397114725103 
-0.2864626083796749 
-0.4341921010165355 
0.061062526192568 
0.061062526192568 
0.06114960277271668 
-0.4159363827561954 
0.02687515236872908 
0.1404706009497634 
0.001919485871973271 
0.001919485871973271 
0.001919485871973271 
0.1827524525837932 
0.1587185618057474 
0.0004952314379504731 
0.0004952314379504731 
0.0004952314379504731 
0.0004952314379504731 
-0.5724103524779178 
0.001200167879476973 
2.921816499863499e-05 
0.0001777947728770982 
0.09481372045162985 
0.02974086323319587 
0.2755215602948403 
0.1294882952587577 
0.2732680499587208 
0.007936954168736384 
0.1949642683200485 
0.001123521953958413 
0.05146286741060684 
0.02915288136522876 
0.02915288136522876 
0.02915288136522876 
-0.1468734128395215 
0.004460282717950326 
0.1063733492409804 
0.0534249354911478 
0.0009593972375352958 
-0.003171717071270501 
-0.003171717071270501 
0.0140928689216161 
-0.003171717071270501 
0.14301445454653 
0.01338203612497311 
-0.608739834207674 
-0.7843142888738485 
0.056910840978843 
0.1176587543227448 
-0.7172458471811836 
-0.7172458471811836 
0.1839984752866054 
-0.1880285997830369 
0.009113467990783365 
0.005633733354409917 
0.005633733354409917 
0.005633733354409917 
0.005633733354409917 
0.005633733354409917 
0.1080079932611469 
-0.8278191750309307 
0.158538959379296 
0.1531115154110483 
0.1518700811994761 
0.1554573284695493 
0.002096024680812695 
0.000390466497155335 
0.007069727735963176 
0.000390466497155335 
0.0005302279032687795 
0.0005302279032687795 
-0.5158840883512822 
0.03553966225758607 
0.2020788880713427 
-2.488560274868405e-05 
0.0007139483799883181 
0.00184919699255905 
0.09518416272566564 
-0.6057363997322599 
0.3147645353889305 
0.1378362937538661 
0.0157826326433267 
0.0157826326433267 
0.0157826326433267 
0.0157826326433267 
0.0157826326433267 
0.0157826326433267 
0.0157826326433267 
0.0157826326433267 
0.008783345030777805 
-0.0005538499453224655 
0.2776284441410236 
0.003697499089054206 
0.02177998307629345 
0.0004759140981358364 
-0.001377659293205515 
-0.0007422109939073404 
-0.001377659293205515 
0.31999182862446 
0.2011752697562661 
0.08057874399336028 
0.001987040109131421 
0.4568779859090791 
0.001987040109131421 
0.001987040109131421 
0.001987040109131421 
0.001987040109131421 
0.001987040109131421 
-0.1471707761263824 
0.3718672008709399 
0.02109395529997744 
0.4595379826176121 
-0.31110795713083 
0.0005130239968810666 
0.08057874399336028 
-3.50247001029726e-05 
0.01481189258589137 
0.4051024496555578 
0.06576990028474292 
0.06023418037737995 
-0.7259891792758145 
-0.7259891792758145 
0.1235092457208532 
4.769187188356939e-06 
0.004063016032361287 
0.004410307702560257 
0.1139293529574476 
0.1984427832841383 
0.007529215267368955 
0.0004035179496818163 
0.06608443137841405 
0.2664399597798199 
0.001074793983553001 
0.001074793983553001 
0.03075375295111486 
0.05892009543679504 
0.05883262022660429 
-0.6500945260135935 
0.002001590866830113 
0.04021921799202781 
0.00302673597111006 
0.00143347116113121 
0.09683411568001807 
0.1154632718866601 
0.0009464562505874727 
0.1311627502356527 
-0.0934536436538264 
0.002839180491614532 
0.002731144521777749 
0.001026718199986728 
0.001026718199986728 
0.2037110109611225 
0.2117775696696016 
0.08704530007416919 
0.0003276177675525209 
0.0003276177675525209 
0.001424137690258489 
-0.0001051164147815107 
0.1294479179288235 
0.1987046454999575 
0.06511205084182901 
0.03778592180045941 
0.03778592180045941 
0.2151624269198545 
0.5796283382088265 
-0.6102829293186185 
0.110329602173868 
0.03767359089388127 
0.1339273773178496 
0.002904028814365402 
0.222519251986308 
0.001148392549364067 
0.2371815387075874 
0.0840312219879036 
-7.24899586792059e-05 
0.156913674097542 
-0.2887586549608261 
0.156913674097542 
0.009408739068207491 
-0.004069100741060733 
-0.004069100741060733 
0.04620592618070462 
0.03494040762993917 
0.1124869104857385 
0.08057874399336028 
0.08057874399336028 
0.1919672807735075 
0.1919672807735075 
0.2727110288439394 
0.0007183479381328824 
0.003591809485538553 
0.08467352229090061 
0.05877496685277946 
0.06266984560715994 
0.002322938025691753 
0.002322938025691753 
0.1423012009339412 
0.001154184355149095 
-0.7887099966907301 
-0.9578385318991182 
0.2622842990776683 
0.000391732348096001 
0.000391732348096001 
0.08057874399336028 
0.06111021073519513 
0.0002886787282400858 
0.01759159578673787 
-0.512361403560833 
-0.8503620267834584 
0.009143599422193085 
0.01888968830301144 
-0.0006548365461820996 
0.2110263975194155 
0.0007451363336852568 
0.3351267849655736 
0.1402445083515166 
0.004842659360988894 
0.006324459088709963 
0.5331370738168102 
-0.4961455896936532 
0.08747074208809616 
0.04519338042746057 
0.06883847623598104 
0.197735866946093 
0.08148591693932407 
0.08057874399336028 
0.001169036438459322 
0.5200237942008044 
0.1115897786822036 
-0.2562556707315664 
-0.4026449919697953 
-0.3491776893241186 
0.1502566654909105 
0.001902700554568414 
0.001902700554568414 
0.004626120157527608 
0.004626120157527608 
0.004626120157527608 
0.004626120157527608 
0.001902700554568414 
0.0005723315337649867 
-1.035557684724111 
0.00295142106700348 
0.002771056972705689 
0.002771056972705689 
0.002771056972705689 
0.1495067557659302 
0.2270699183226344 
0.0403708890982471 
0.0403708890982471 
0.0403708890982471 
0.0403708890982471 
0.0403708890982471 
0.0403708890982471 
0.1166621258721376 
0.001004635315220522 
0.001004635315220522 
0.17202844702001 
-0.5124813818269667 
-0.001728124515530253 
-0.1417193868747027 
0.0002966387011938753 
0.01352393157426887 
0.01270968676758952 
0.04903745674711674 
0.4170391851536574 
-0.698579069667424 
-0.7797524350747428 
0.2296369483464425 
0.0004313617765336849 
0.03842482723270577 
0.001531765095518859 
0.009958240110004807 
-0.0004333836410466798 
0.03867517961298559 
0.03867517961298559 
0.03867517961298559 
-0.00511134314521982 
0.001350195533310512 
0.001350195533310512 
0.08057874399336028 
0.0006182423621582415 
0.01144195710372635 
0.01622859514062044 
0.06136493831275192 
0.006280552291989983 
-0.001249804200615552 
0.02891854614843428 
0.02732612904136957 
0.2425327186985383 
0.2425327186985383 
0.2425327186985383 
0.2075486690774256 
0.004159598088944791 
0.05660745945759533 
0.108456906475688 
0.0003723535037269807 
0.2095386087266749 
0.004848571384903906 
0.06683457485382782 
0.08057874399336028 
7.863326277086951e-05 
7.863326277086951e-05 
7.863326277086951e-05 
7.863326277086951e-05 
7.863326277086951e-05 
0.0005131520671330929 
0.0003195609801943372 
-0.5097800619801685 
0.08057874399336028 
-5.477450938718603e-05 
-0.2466732492939757 
-0.03122319820248145 
0.2368200280964809 
0.008799195563863521 
0.01247510337687707 
0.08057874399336028 
0.07281643531888909 
-0.1853168673762393 
0.007115518294288348 
0.3216634230155915 
-0.584229745331087 
-0.584229745331087 
0.02610999292732516 
0.02610999292732516 
0.02610999292732516 
0.02610999292732516 
0.02911859157615606 
0.1005185524002069 
0.2663891205547443 
0.0003462138113809408 
0.0003462138113809408 
0.3692484476529908 
0.1704137427275035 
-0.002065798426653905 
-0.002065798426653905 
-0.07524739191025118 
0.06108531759820622 
0.3367131206472307 
8.70765801486752e-05 
8.70765801486752e-05 
-0.6139223385408363 
0.01075793472715712 
0.01075793472715712 
0.02175011832891874 
0.02175011832891874 
-0.8981541373904613 
0.1160539394963483 
0.04931294777109327 
0.0008812054916229644 
0.0008812054916229644 
0.0008812054916229644 
0.1042605766254592 
0.03996844499708911 
0.03996844499708911 
0.1012877727135369 
0.003931806989014535 
0.02150977644446419 
0.1325790209275118 
0.006329055152777526 
0.1322117796980755 
0.000353476205269172 
0.08195187986413176 
0.03264037186609351 
0.001020061185401115 
0.1156483839787504 
0.2841240872381516 
0.007950576637152415 
0.08057874399336028 
0.1998062313532311 
0.07921052098931745 
0.2456704938510546 
0.01764447985298928 
0.2513303463465713 
0.002057087716474856 
0.1501562334756596 
0.166681592408382 
0.1044362249607212 
0.1028229598412578 
0.2100030500164097 
0.0007356002138414321 
0.0007356002138414321 
0.0007356002138414321 
0.3804272776992703 
0.3693612995885048 
0.3693612995885048 
0.3700103814512982 
0.001210721948103748 
-0.004195619493928398 
0.007396041888578373 
0.1654824432090758 
0.001682288250470727 
0.001682288250470727 
0.001682288250470727 
0.001682288250470727 
0.001682288250470727 
0.001191984087837444 
-0.2991781992754318 
0.5016883018978499 
-0.2991781992754318 
0.004189650407575712 
-0.1086385291602063 
0.0275868633277618 
0.0001011325363584651 
0.01509321006246303 
0.004660801352225749 
0.004660801352225749 
0.00479968244134445 
0.004660801352225749 
0.004660801352225749 
0.004660801352225749 
0.004660801352225749 
0.004660801352225749 
-0.3465983830250658 
-0.260064013813309 
-0.260064013813309 
-0.260064013813309 
-0.260064013813309 
-0.260064013813309 
-0.260064013813309 
0.006667935194941943 
0.09812311716802996 
-0.6969578049727686 
0.001311030294271182 
-0.005344718820339188 
0.05063746214706431 
0.002185824829200675 
0.0193366695396273 
0.02650878593167626 
5.56748270555102e-05 
0.003129373646823638 
0.1404228300495695 
0.3137574260257103 
-0.5920033014099916 
-0.001652169058386644 
0.0004455797633759496 
0.2340661222993847 
0.262903338637557 
0.004712793393558889 
0.001125083026327129 
0.07322966824448646 
0.003180246428206872 
0.01161537888137065 
0.2189006496167282 
0.04819761390405937 
0.009531264302551565 
0.009531264302551565 
0.1075218327796 
0.3796619158460472 
0.1711119929539417 
0.08737515174873557 
0.08737515174873557 
0.1813314435942762 
0.2122955115932571 
0.009680638981121229 
0.1052210553629059 
-0.1068177177424958 
0.1056800588821699 
-0.1886426922005151 
0.0840440051930568 
-0.0003919821911439319 
-0.4774681394327461 
0.0518913576503221 
0.126210261702434 
0.009822753759665126 
0.1346040710367333 
0.002152905008367679 
0.001788276812404793 
0.001788276812404793 
0.3373506457083745 
0.06380467209053126 
-5.395993488338455e-05 
0.0004165875276561839 
0.0001696807629931904 
0.1069023183912911 
-2.217574497372604 
0.09608827687973216 
-0.0002082386384860023 
-0.007607662987525091 
-0.006773537689714068 
-0.5622772252997671 
-0.6970191463712637 
0.3115360293892426 
0.01029632362566045 
0.01072443474714557 
0.01072443474714557 
0.3995976783218904 
0.001863146541762317 
0.001159125449278369 
0.001159125449278369 
-0.684308806836742 
0.2617919564578648 
0.2292643452050296 
0.3099674035045248 
0.1584460426748917 
0.0003630079384567702 
0.03377304431836378 
0.1986658416956148 
0.357256613495255 
0.4135810766757114 
0.152612132352728 
-0.6577655176129099 
-0.242948310224797 
0.1614651552717026 
-0.9457170438867656 
-8.793236507299924e-05 
0.05777831108496932 
0.03755784694636448 
0.0005552228151181754 
0.001784201831676368 
4.225070751219423e-05 
0.0002341775195126678 
0.0002341775195126678 
0.0002341775195126678 
0.0001984937696043144 
0.0001984937696043144 
0.0001984937696043144 
-0.6795939396064278 
7.394590454427239e-05 
0.1212806467681286 
7.394590454427239e-05 
0.1073285248583217 
0.01620561051154759 
0.001700685843026797 
0.1996727994819365 
0.04270043577185459 
0.114576340606898 
-0.9316869772493247 
0.06479351979475773 
0.1788304917983858 
-1.017239751154907 
0.319509764802436 
0.1056422683429479 
0.1123152910879548 
0.1049117921893393 
0.0001523000102349705 
0.0888337001448208 
0.001732668963380067 
0.01583109993258703 
-0.3371654290474345 
0.02011260431667479 
0.02012531613436259 
0.0345228536752946 
-0.07780836690099903 
0.002200276076861924 
0.1373868061850148 
3.537889093569582e-05 
0.002897446135514315 
0.03556974655264404 
0.03613080266662535 
0.06639572299583969 
0.0212823150943198 
0.0212823150943198 
0.1085236488413048 
0.1375563790834338 
0.03304474553695604 
-0.003707200143794297 
-0.02189934695840008 
0.05952314660706545 
-0.0001471600969161008 
6.855334870633783e-05 
0.05344296712929303 
0.05344296712929303 
0.03087587068948895 
0.03087587068948895 
0.06965636591083085 
0.1977585111640467 
0.0007593302892699602 
0.123266322136318 
-0.00476943110258201 
0.1294882952587577 
0.1294882952587577 
0.193500334267353 
-0.0008871319441179136 
0.09437627931294899 
0.2193493270628642 
0.06841186268105941 
0.05358821173267683 
0.04570840392847254 
0.07373302253477801 
0.02596688580432611 
0.03237388047542364 
0.2002133690574466 
-0.05495757364052359 
-0.3673519921880812 
0.003422609722285958 
0.0102506954707478 
0.2189105261894609 
0.0295792864067016 
0.159385914679262 
0.08150742527004678 
-3.616458677090731e-05 
0.1667090105110924 
0.0009552379688007125 
0.0009552379688007125 
0.02428771652640067 
0.02428771652640067 
0.3213527037065771 
0.01258987371415709 
0.1097490040593093 
0.004023163516659585 
0.001290247853873032 
0.05458885008513616 
-0.003062743723616947 
0.00012328860054886 
0.1714021158324586 
0.00012328860054886 
0.07964570836733048 
0.007021960565755814 
0.0005074221284696658 
0.09512257313076861 
8.70765801486752e-05 
8.70765801486752e-05 
8.70765801486752e-05 
0.02061161668478607 
0.02061161668478607 
0.02061161668478607 
0.02061161668478607 
0.0500154552059228 
0.3971405940577519 
0.0004739985541695989 
0.0003869219740209236 
0.04913012181105331 
0.04913012181105331 
0.0004814010938340304 
0.1159218390170472 
0.01151929968870151 
0.003911883689329007 
-0.1815722975479019 
0.1804923393264945 
0.09166187207805281 
0.008012047651844233 
-1.088001680861056e-05 
0.1568014750825933 
0.4215907858657598 
-1.006078564901133 
0.03929133111008578 
-0.006989111516694511 
0.08044598160701658 
-0.5996680929971697 
0.05509263038797037 
0.2292388885114032 
0.001479854476330122 
0.3378154931973232 
0.004623372473728349 
0.06111031946181628 
0.07720304649776714 
-0.4654769333350306 
-0.004250196245175678 
0.08057874399336028 
0.6995903948182673 
0.4826484121580528 
-0.0001296534895197908 
-0.003076969930423411 
-0.003076969930423411 
-0.003076969930423411 
-0.003076969930423411 
0.03224118556249986 
0.0326658327801438 
0.1281443168279192 
0.1615952920947125 
-0.4238592232045306 
-0.8672821028964376 
0.01490436391698138 
0.3299357917740547 
8.70765801486752e-05 
0.314429600734479 
0.002418259598499308 
0.001040048219672185 
0.01405761284951706 
0.226471883977303 
-1.130434512881282 
0.0007336516933234724 
0.1152307887844196 
0.01498020192889385 
0.08066798156582386 
0.1198429692997514 
0.06815317524934618 
-0.7658055832543089 
0.1463893212382289 
0.1463893212382289 
0.0061704773259669 
0.0001620765889189709 
0.1131678753814238 
0.1461990635590053 
8.70765801486752e-05 
0.4365793337163738 
8.70765801486752e-05 
0.08735820245155552 
0.0003523012730052002 
0.07461198185394752 
0.05651753131918656 
0.2284471892102012 
0.03142752370573217 
0.03142752370573217 
0.7340553264661183 
0.1814823967597907 
-0.006200424930896705 
0.001017692347628684 
0.001017692347628684 
0.001017692347628684 
0.001017692347628684 
0.001017692347628684 
0.08253336801955098 
0.7028925332331323 
0.001017692347628684 
0.001017692347628684 
0.001017692347628684 
-0.006368421879268664 
0.1846992349267709 
0.3684179938030564 
0.09187787313388446 
0.07244063735834246 
0.1617651403633917 
0.1535798602695477 
0.03935308351373128 
0.1967091791159123 
0.1071472051043675 
0.005091388433031245 
0.003931358949491164 
0.003931358949491164 
0.003931358949491164 
-0.2563599008936026 
0.07955833733417673 
0.2297013421869457 
0.2305914393994511 
-0.02498279579718171 
0.006068971217936847 
-0.7532364318147589 
0.1365972739017347 
-0.7532364318147589 
-9.171752213355591e-06 
-9.171752213355591e-06 
0.1673005082700857 
-0.808950944243939 
-0.6113849819973839 
0.0001731796317476381 
0.07690843949287912 
0.01859137940241111 
0.06477500073145212 
0.3147000459262399 
0.001312817629109393 
0.07075211954039538 
0.1081259604729961 
0.1081259604729961 
-0.9308289426628176 
0.05735386700343319 
0.05344296712929303 
0.05344296712929303 
0.04851705706940349 
0.1332692008169936 
0.1332692008169936 
0.002437470576109131 
0.0107707780486656 
0.0107707780486656 
0.0107707780486656 
0.0107707780486656 
0.0107707780486656 
0.3507921583953688 
0.007530424974579729 
-0.005082285249498932 
0.07088618371875867 
0.005709235550694633 
0.02855930610562597 
0.1597877803931746 
0.05306471745676612 
0.005750065633442102 
0.01194055809414884 
0.01112666702600242 
0.3460503323446907 
0.001923971213742116 
0.0003261198523310297 
0.1249181815088522 
0.5070739587124093 
0.0003219987944101961 
0.0001783695065117419 
0.08057874399336028 
0.3509350094516943 
0.02859982315113668 
0.02859982315113668 
0.02859982315113668 
0.1062723360906741 
0.06493936221546127 
-0.001810045386600838 
-0.001810045386600838 
0.1345169862929368 
0.0005306311249845717 
0.005743773739819639 
0.005743773739819639 
0.03377616174190241 
0.08230277730813497 
0.0001181886277956001 
0.0001181886277956001 
0.2386597984481297 
0.4643691935357827 
0.4476791256853342 
0.4476791256853342 
0.4476791256853342 
0.01673839743888098 
0.1053280472383906 
-0.32095336936944 
-0.9961141470522763 
-0.3492992006915051 
0.0232052562689302 
0.172085866208627 
-0.002306909042461855 
0.0004745730899307112 
0.3757525234706247 
0.02401660788113607 
-0.001391322976058919 
0.3518554289381329 
0.03192970669352385 
0.1434374043432894 
0.0007750984334211255 
0.0007750984334211255 
0.1613145175558019 
0.0007750984334211255 
0.0007750984334211255 
0.0007750984334211255 
0.0007750984334211255 
0.5037093944709398 
0.007586434135989757 
-0.2248520117895966 
0.004025035406757428 
0.006151537671940032 
0.003943096865923939 
0.07099791175945624 
0.0672160447122107 
0.07696373143555253 
-1.198134325161015 
0.3615351108169614 
0.1400754473813194 
0.003487240140663982 
0.003487240140663982 
0.003487240140663982 
0.003487240140663982 
-0.9898517099781291 
-0.1787099619299088 
0.04566796287842928 
0.000123589936912606 
0.04173228754685396 
0.4049644221619034 
0.4049644221619034 
0.01975908279586942 
0.2241413362060554 
0.0005409426732020126 
0.04350369731026962 
0.09462804364949245 
0.0107869832264877 
0.0107869832264877 
0.03544012999943758 
0.005801717738374954 
0.1736246591375371 
0.08057874399336028 
0.07758380257487567 
0.01425516363657442 
0.01831036600342031 
0.0003681070068055412 
0.0003681070068055412 
0.002816431122353775 
0.002816431122353775 
0.002816431122353775 
0.003174517665869902 
0.009491121505628055 
0.002816431122353775 
0.2693877924979555 
0.02999744962715524 
0.02999744962715524 
0.02999744962715524 
0.02999744962715524 
-0.3603389640576715 
-0.3603389640576715 
0.005648388667734208 
0.2298790654582483 
0.1316527010835297 
0.02861335666566758 
-0.313201967645784 
0.005311248749624371 
0.4046498315071685 
0.2320750401580401 
0.3524532546348387 
0.6345060643422082 
0.2083392269171387 
0.003349304229415147 
0.004416880659909065 
0.0003348815431893958 
0.005457161309110953 
0.05758842835676244 
0.02703915676902206 
0.1116426963987769 
-0.8176933337182802 
0.09205073948009969 
1.619190049213208e-05 
1.619190049213208e-05 
1.619190049213208e-05 
1.619190049213208e-05 
1.619190049213208e-05 
0.3664392617877911 
-0.0007086863007101282 
-0.0007086863007101282 
-0.0007086863007101282 
-0.0007086863007101282 
0.004914728023823614 
0.004914728023823614 
0.001143012130396926 
0.001143012130396926 
0.005163285296612868 
0.005163285296612868 
0.005163285296612868 
0.043775305191399 
-0.008022043894315312 
0.02250755280231873 
0.01471766618697519 
0.1546545735597551 
0.1018346176209798 
0.1018346176209798 
0.02480003633456081 
0.04024518043274546 
0.01126551855076545 
0.304581491844277 
0.01126551855076545 
0.2085143483363162 
0.01417702066011714 
-0.1301109266479389 
0.05499131552219338 
0.05499131552219338 
0.1396985537317392 
0.1727346996763732 
0.1353692075267461 
0.03630580060585053 
0.0008118199874170419 
0.0008118199874170419 
0.0003872138721378078 
0.0003872138721378078 
0.000436366868594765 
0.000436366868594765 
-0.7604265768753479 
-0.2038533885468785 
-0.7604265768753479 
0.002372999704142145 
0.005104935069667247 
0.002061349352986849 
0.2763669587187972 
0.2533040734814335 
0.0007963177100639909 
0.09972156029619884 
0.09958820151450573 
0.03499597981535611 
0.2849436140650626 
0.0006534745944963861 
0.1076697308812054 
0.001083548933242541 
0.08135793724801653 
0.002356710785321263 
-1.141812770472346 
0.05652780175447972 
0.1424573326109204 
0.3775523696759542 
-0.5786541541297622 
0.2969010156480388 
0.04040592444134738 
0.004192752762081851 
0.00341893423055992 
-0.198415683431236 
-0.280067932819272 
0.1842189376800844 
0.0003889114126967019 
0.08620663502503782 
0.0003889114126967019 
0.354411329986809 
0.09128541594591785 
0.06044023552819108 
0.1298655059906154 
0.003024338778324536 
0.00326408110985464 
0.1758827587270207 
0.00212710427319102 
0.2291850831660212 
-0.0001000457211912747 
0.00241136228852674 
0.00241136228852674 
0.117200248510415 
0.05344296712929303 
0.05344296712929303 
0.1666171624695221 
0.05396961438489354 
0.2965230406099316 
-0.2835560731192055 
-0.1522700886367405 
0.07637875462650713 
0.07637875462650713 
0.1188039613907872 
-0.03413174789817878 
-0.03061068051317674 
-0.08481133631837683 
-0.7137487051220812 
0.001796904172920994 
0.058115036635518 
0.005259134317596558 
0.1568874191993324 
0.005259134317596558 
0.003839816072338197 
0.08269516210764144 
5.290070274965692e-05 
-0.0009925548705160842 
-1.085198124513156 
0.2755419431820337 
0.2755419431820337 
0.1881628458799089 
0.1288912283085969 
0.1296360341940773 
0.1154025959866837 
0.111224793250842 
0.08349216412411464 
0.1107496926201332 
0.006408833358480715 
0.07117541827600096 
0.2414212326056897 
0.1054317982897251 
0.5030081515695642 
0.04735627624585639 
0.09304285076592732 
0.09304285076592732 
0.09304285076592732 
0.09304285076592732 
0.09304285076592732 
0.09304285076592732 
0.09522644617641032 
0.2006254373929998 
0.04098630098395298 
-0.0006236179697315281 
0.0009714470175900918 
0.07903351109908717 
0.001717151245534328 
0.04000336683635893 
0.001807667051379016 
0.002160924267904783 
0.1475313042327782 
0.1828589462705479 
0.01278514279301857 
0.004165116958025248 
0.02409319432605586 
0.06461610942098685 
-0.001474043938670719 
0.007888888491045222 
0.2737825529442796 
-1.078944428143207 
0.2773037886068329 
0.01579248277476854 
-0.103680773611726 
-0.6421143378887246 
0.005679605867591389 
0.07032740999054324 
9.944576225477282e-05 
9.944576225477282e-05 
-0.257169623322738 
0.003727398216507095 
0.00201918860434081 
0.1252108181741186 
0.08057874399336028 
0.08062329539966909 
0.1251628328024393 
0.000411048588045879 
0.1010129829401587 
-0.4563337366265863 
0.001588486029047148 
0.001588486029047148 
-1.531015412999496 
0.1105119649679404 
0.001409942081830937 
0.2069032309805967 
0.0252832108384493 
0.002237256912398674 
0.002237256912398674 
0.08218300863058933 
0.005236103341266979 
0.005458544145945649 
0.03945488201029572 
0.05529888128986773 
0.005856382425755941 
0.1646900718909269 
0.002294501309895894 
0.002294501309895894 
-0.002572957134795817 
0.007327440593706995 
0.004036644254402587 
0.07793574596320084 
0.001496457510197262 
-0.3678680493925477 
-0.0009423895662976353 
0.08948367829620349 
-0.132062988145885 
0.08057874399336028 
0.1649958872731397 
0.05929468440896352 
0.02797006030646423 
0.03074914311370606 
0.02797006030646423 
0.0001973790499872091 
0.0001973790499872091 
0.06077419538020917 
0.006099189945823545 
-0.226437281565946 
0.0004608518547158528 
0.0004608518547158528 
0.0004608518547158528 
0.0004608518547158528 
0.0004608518547158528 
0.0001250922954792806 
0.2497091915407011 
-0.000130967438620813 
0.0002845586909196957 
0.04874711188761153 
0.006967945869974152 
-0.08107826664623015 
-0.6390436433168014 
0.01352493338925917 
0.0001285661686884991 
-0.7609432280076438 
0.06985038237210256 
0.01964015542726318 
0.05698915957844404 
0.02411308941625096 
0.01964015542726318 
-0.5548667853903353 
-0.5710457449851508 
-0.7825606943796258 
0.02177568318966039 
0.07275517745679563 
4.777552686229606e-05 
0.0001478855685191645 
0.0002318140488207088 
0.1774677880535318 
0.001487650022149983 
0.06824914727238668 
0.09442690281661084 
0.09664294468125503 
0.002750646038611426 
0.332160262661136 
0.06092773078290471 
0.1414468300078174 
0.08127098425108598 
0.01862990251770861 
0.3710570133046108 
0.001354907605149536 
8.70765801486752e-05 
0.002102371941857584 
0.1899108042793057 
0.1590481385979565 
0.4397974501630837 
0.04175874142477506 
0.04175874142477506 
0.04175874142477506 
0.04175874142477506 
0.04175874142477506 
-0.6970602843544119 
-0.6970602843544119 
-0.5591541902109736 
-0.48111451622687 
0.03019320353560534 
0.03019320353560534 
0.1322252003860535 
0.07431136154109121 
0.0434396138870336 
0.2694277790017337 
0.0009666062679642693 
0.0009666062679642693 
0.0009135220041005831 
0.05934088167271965 
0.0234276573807554 
0.09113010966084271 
0.2377044260101439 
0.1854667575839133 
0.08056895186110191 
0.001715251379818345 
2.592389860647446e-05 
2.592389860647446e-05 
0.001166637055615174 
0.07568973096375732 
-0.0007933330081106704 
0.175395239768624 
0.0005831328494734466 
0.06956755378853914 
0.06823406108187205 
0.01854080791849651 
0.0005624063637876237 
0.0005624063637876237 
0.004526030193010494 
0.03500064545172071 
0.03500064545172071 
0.2124087855066748 
0.001021876795644297 
0.001021876795644297 
0.05136065752515616 
0.05136065752515616 
0.03878653959298718 
0.1395564408902902 
0.123899255345876 
-1.015640713731876 
0.0004253790510732545 
0.01428336342708461 
0.06217653632713809 
0.02625606580811243 
-7.63520206661218e-05 
0.003157454633941943 
0.0374450260156401 
-0.8218610476491451 
0.0004387154513246533 
0.0004387154513246533 
0.0004387154513246533 
0.04137659853389758 
0.04137659853389758 
0.07557299114192725 
0.3830938058509068 
0.005345193450341218 
0.000446628661750541 
-0.003110311471710719 
0.2509964222956053 
0.0009464562505874727 
0.04134180916321881 
0.04881391823216306 
-0.001583524475450809 
-0.001583524475450809 
-0.001583524475450809 
0.03565082066078203 
0.2775359536179358 
0.0008063793449222727 
0.03348503952662307 
0.03348503952662307 
0.0001736961100219744 
0.2558008660194118 
0.2789285166371375 
0.2971239059208866 
0.0005069452393655308 
0.09362776723222994 
0.2304597859847797 
0.2902280181687536 
0.003107058173974919 
0.03514338530898623 
0.02275151452586005 
0.07834427070380703 
0.02275151452586005 
0.04883163827160069 
0.4197116078129872 
0.03929010813799103 
0.0541873765578032 
0.04971584514779566 
0.04971584514779566 
0.04971584514779566 
0.04971584514779566 
0.04971584514779566 
0.08071187458881481 
0.02177568318966039 
0.2176596344140599 
-0.2261894820573728 
0.002381026937765121 
-0.001080916059169015 
0.0001373050310421057 
0.07439852056503087 
-0.0001370723883929124 
0.08054438512926394 
0.07872443362648432 
0.01567493232387726 
0.6983723217453999 
0.03059672189528849 
0.06630955036415936 
0.06630955036415936 
0.06630955036415936 
0.00529970460152535 
0.4530423319714853 
0.2454919803032224 
0.3256567960133531 
0.009747761312692411 
0.207066123838002 
-0.001244931580632277 
-0.7875707032036734 
0.0001990188922541623 
0.07436061686434826 
0.001583773271043741 
-0.9701461342601365 
0.07658785084176342 
-0.001214151782834266 
-0.001214151782834266 
0.05061783175627067 
8.70765801486752e-05 
8.70765801486752e-05 
8.70765801486752e-05 
8.70765801486752e-05 
0.005979595848578329 
0.1087538755727912 
0.09088730003094252 
0.04243851910061332 
-0.1559933141407847 
0.004145385546726367 
0.0003316740910789458 
0.003500614904490578 
0.04030724569513091 
0.04030724569513091 
0.1336385901452645 
0.0003817588982441368 
0.1318961408368032 
0.033461396940531 
0.004862332755200871 
0.004862332755200871 
0.1599954407829324 
0.168527659491567 
0.004210435054137185 
-0.2015442929516277 
-0.7314347475115585 
0.08270835096762191 
0.06877087846345384 
0.06877087846345384 
0.06877087846345384 
0.06877087846345384 
0.0919391624211237 
0.06567080952717344 
-1.060037790065882 
0.4256341026086275 
0.03016586805591797 
0.0005418846733944783 
0.1940573045865964 
0.01043796961598069 
0.3613142340325102 
0.3617833558011354 
0.03417004816995392 
-0.0005838264756213698 
0.1028073029746143 
0.05793198740394422 
0.03948249317423225 
0.09865925800720868 
0.006948623505975691 
0.006948623505975691 
0.09702039918732752 
0.02266942219703194 
0.006813023203079086 
0.006507101740022753 
0.006507101740022753 
0.08057874399336028 
0.0005488070461963348 
0.01608237256193342 
0.01608237256193342 
0.01608237256193342 
0.1390207939936998 
0.277377598081945 
-0.001554247058800381 
0.0008583581263636094 
0.001570237606413652 
0.007769544460062354 
0.003801808057133808 
-0.00572281149684946 
0.0001827299407669789 
0.0001827299407669789 
-1.134255865290024 
-1.048794680074344 
0.2400489103884655 
1.143528955903214 
-0.5604540146956661 
0.1472648372962595 
-0.002761213145390184 
-0.005994012846192983 
0.08505899994494423 
0.1341838871966902 
0.0427853828700939 
0.002138649997462422 
0.002138649997462422 
0.08057874399336028 
-0.221976695653172 
0.02137325548770665 
0.2414893530677124 
0.2559293425580427 
0.1642010965097602 
0.0004190816760729838 
0.0005322234701496068 
0.0005322234701496068 
0.121748856120714 
0.2312066328708538 
0.001180884143974029 
0.1736377393857024 
0.1082213372766655 
0.004029933517349539 
0.004029933517349539 
-0.00129044675600398 
0.004029933517349539 
0.01218700090315349 
0.007522159326256266 
0.2550522468667906 
0.2882059468277448 
-0.00679484382090609 
0.04925445199952688 
0.03230388421912689 
0.004913286303271166 
0.02530143477394889 
0.003329499516200295 
0.003329499516200295 
0.0009370130301105463 
-0.8317194640265017 
-0.5032773377714501 
0.0002113182299381517 
-0.0004324419146583352 
0.0001962886979666654 
0.2521124148104612 
0.1253906124942993 
0.08057874399336028 
0.00332339714905694 
0.00247992215659152 
0.4786233166878425 
0.004532358072073314 
0.02429993985579471 
0.1263904252411418 
-0.002149959336354597 
0.06294790911879755 
0.01047254178328694 
0.01047254178328694 
0.01047254178328694 
0.04299613322561459 
0.0006721198864011917 
0.0006721198864011917 
0.1751568673284234 
0.1263634986120902 
0.07326351503505669 
-0.38858065574894 
-0.38858065574894 
0.3201427479707736 
0.29641921894498 
0.01549796746522461 
0.2184021946208141 
0.09298024819537094 
-0.0006049623956208361 
0.008947484041911286 
0.06849923756941499 
0.008947484041911286 
0.008947484041911286 
0.1069972871786581 
-0.001122833450106275 
-0.6689842801648066 
-1.392042575529273e-06 
-0.001735222637364409 
0.001237433715072216 
0.001237433715072216 
-0.4534427748196986 
-0.4534427748196986 
0.1813778379278496 
0.1914981609866978 
0.05791794471029058 
-0.4891754558185349 
0.01863895648719494 
0.05344296712929303 
0.05344296712929303 
0.05305234875716019 
0.06213334060939106 
-0.0007358891188365633 
0.004963427421292229 
0.06881212961487024 
0.002240950187265087 
0.01198178009733531 
0.006722360577413725 
0.002281498242406881 
0.002281498242406881 
0.004044688354010249 
0.01563785695428873 
0.213415956964157 
0.04124080491023274 
0.08057874399336028 
-0.2551024187847008 
0.1360585990149423 
0.00727395348732998 
0.0003518262676714643 
0.0001373950287300544 
0.0001373950287300544 
0.0001373950287300544 
0.1366652589085643 
0.03993951269332315 
0.07229618431868602 
0.1276103668584945 
0.002379345373030344 
0.002893620468018803 
-0.001087219364035697 
0.002546116458421651 
0.4086101229825057 
0.000273613566118111 
0.000273613566118111 
0.002478470312310066 
-0.003854725509739254 
0.001994499353543779 
0.001994499353543779 
-0.8236451118924311 
-0.3102472443468931 
-0.1596983495911425 
-0.3102472443468931 
-0.3102472443468931 
0.2772425364676134 
0.2772425364676134 
0.05628103937767236 
0.01852874895967714 
0.0002095551131070351 
0.0002095551131070351 
0.09671427527213669 
0.09671427527213669 
-0.002536027794744454 
-0.002536027794744454 
-0.002536027794744454 
-0.002536027794744454 
0.05691839229190734 
0.2062873826378715 
-0.8913341853499408 
0.2062873826378715 
0.2099801550214632 
0.2260783108880866 
0.009835054397475333 
0.01750535767189744 
0.3978280711951525 
0.1311599307564363 
0.08057874399336028 
0.1515273763359403 
0.02045587725332728 
8.70765801486752e-05 
8.70765801486752e-05 
0.1059174526908434 
0.001471215587097603 
0.001471215587097603 
0.001471215587097603 
0.07347785838958774 
0.07347785838958774 
7.08517979152166e-05 
0.0002285266510415179 
-1.141093909357345 
0.0004119790023319717 
0.001403041549868345 
0.007871074878253679 
0.1243222617767054 
-0.02102675622058025 
6.491221632182682e-06 
0.3382121353744553 
0.0744961800094838 
0.004847384358589737 
0.000342967610919503 
0.000342967610919503 
0.04983323916459435 
0.05746194897084177 
0.004909378866686812 
0.100706209350858 
0.004909378866686812 
0.1131176381843191 
0.09627827140416474 
0.05272735089108129 
0.05207801223250311 
0.05817616102350713 
-0.01787889383525541 
-0.3492886194565711 
-0.6518441431063053 
0.001537062030660531 
0.0008677225946022459 
0.1829155000099585 
0.1074518730843152 
0.006436670450880914 
0.3642489537371348 
0.002183595410482993 
0.002183595410482993 
0.002183595410482993 
0.002810949238371528 
0.002810949238371528 
0.001199499070685437 
0.3185908134881051 
0.01774218835860382 
0.01489290987598721 
0.1425757056496166 
-0.4534199959714419 
-0.2349888612578045 
0.3073519404272414 
0.306397995376619 
-0.5449398209477777 
0.2417554996484425 
0.0003356695050559136 
0.2698214888620268 
0.08057874399336028 
0.1730154220670896 
-0.001417543381174861 
-0.001000840288046579 
-0.001417543381174861 
0.2651702154166569 
0.1895731382642731 
0.01125995575581244 
0.0188881621574729 
0.2157164993652857 
0.002932925359250618 
0.1851838625289943 
0.00885990526207699 
6.870168624905779e-05 
0.08305204541125233 
-0.0002187022007202031 
0.0003696555770995914 
0.08513139831059591 
0.1058059708528655 
0.07692909396542316 
0.2760337394384389 
0.05578518472188788 
0.001857876283436515 
0.001857876283436515 
0.001857876283436515 
0.0004517804815992441 
0.006783903365803028 
0.1084009806516837 
0.03599619126953971 
0.1279674771395772 
0.2274991695525558 
0.04401435896481872 
0.04286891124449702 
0.1911109856953163 
0.008751499625864233 
0.0005860207202995634 
0.0005860207202995634 
0.0005860207202995634 
0.3799194844524271 
0.009338334181777845 
-0.6067928027115033 
0.2916435333272209 
-0.004027151206034177 
0.1136516095556739 
0.0002970739013141996 
0.0527730747457128 
-0.005406341442032147 
-0.005406341442032147 
-0.005406341442032147 
0.07827101188139059 
-0.6201757223834378 
0.1632579842173 
0.04149795429699908 
0.08357509759823173 
0.08551661324100418 
-0.7810754585341652 
0.007743245050033063 
0.1931247325312439 
0.01166126041961725 
0.0001283192062278012 
0.02524913704024929 
0.002160835931193659 
0.267340471299722 
0.006011113813511274 
0.0535767721518457 
0.05331952371264923 
0.09496312368338884 
0.03370255086027076 
0.05641616992349129 
0.009918261346013171 
0.009918261346013171 
-0.4335980919965338 
-0.40414928782136 
0.01965747526128215 
0.04430575080495478 
0.01965747526128215 
0.01965747526128215 
0.1479642948795409 
0.1119983116545687 
0.114608800024092 
0.7871446942400233 
0.06533284669910681 
-0.1758506181855835 
5.738961950021088e-05 
0.1611917111426084 
