solver_type L2R_L2LOSS_SVC
nr_class 2
label 0 1
nr_feature 32502
bias 0.5
w
0.003593187388261459 
0.2377719281605774 
0.2035359049840857 
0.1557471934115396 
0.09162455949797682 
0.06881351911910417 
-0.1079176690956267 
-0.04725685044581564 
0.2040644645725877 
0.159288744504054 
0.04433044707583086 
-0.01396152680174401 
-0.1018970349709297 
-0.07041274901821798 
-0.9681911421009819 
-0.1217361841136553 
-0.1921516527447947 
0.08282283843946261 
0.08282283843946261 
0.08282283843946261 
0.08282283843946261 
0.1291747710432283 
0.08305121068862861 
-0.03226388420887478 
-0.3514026795846147 
0.2427191924099567 
0.3014675722467924 
0.1103417053439082 
0.297057772178682 
-0.0694030953943043 
0.002480342005660306 
0.1792687168435267 
0.4198380013480597 
-0.4714354796320093 
0.02697549469132855 
-0.03548520883962192 
0.4752383434278754 
-0.0924531306086801 
0.1848623720158267 
0.06405876952834352 
0.09268871791205528 
0.1173049743350969 
0.2141121303397634 
-0.169978908814662 
0.01660954315514778 
0.4281851176300532 
0.02141794267293091 
0.02894356782983455 
-0.3479671553683671 
-0.01400369422947195 
-0.09265121129642592 
0.05124498999164628 
-0.08370402502363941 
0.1189783356658128 
-0.04632402218289122 
-0.5840999344344194 
0.4060370123244327 
0.005600208694618974 
-0.2112586772911317 
-0.1716502765578367 
0.6357702173641496 
0.4320507898975527 
-0.009441936198223415 
0.01948302323991094 
0.0205208876803134 
0.004330816990860463 
8.765002762900178e-05 
0.07599439925046572 
-0.1296773574539641 
0.2001966991065927 
0.2275438328902403 
-0.1099334085991563 
-0.02049573810510783 
0.12269776922328 
-0.09711965315639087 
0.05812531114648339 
-0.05114244240381605 
-0.03038816577952864 
-0.06029710170990572 
-0.02248179228033172 
0.09419140346364442 
-0.04422709033882732 
-0.1883059192543783 
0.0108101146745702 
0.0108101146745702 
0.0108101146745702 
-0.05756888826480326 
0.06305182126780093 
-0.103391157539107 
-0.04128700472178218 
0.0582835038538457 
0.1672097254823152 
-0.03630062347996089 
-0.3447105044688802 
-0.03774108938891822 
-0.2388055294436031 
-0.2569446434451116 
-0.2212329143017465 
0.08353155314702287 
0.4520223811719508 
0.09003320100770541 
0.2801940047459987 
-0.05571987337792897 
-0.04048878411866742 
0.04631927056314998 
-0.05683870930950773 
0.07625070320082938 
-0.4965425991838355 
0.2282061840237065 
-0.02570421782552993 
-0.2190332452422633 
0.3780560936669593 
-0.1497915049487486 
-0.1959667639169488 
-0.1082371317393973 
-0.1867683995219404 
0.088613527263317 
0.3990904172309077 
-0.002603444642746018 
0.0840792568301825 
-0.03776966362777731 
0.08118257779746579 
0.19959230549486 
-0.3095922079249825 
-0.3698762167625343 
-0.09272256795422025 
0.2770062694767167 
0.01931023284525921 
0.8232265481837051 
-0.01993276749885203 
-0.04754243043300548 
0.1257277004491218 
0.01902208045102648 
-0.122839200053695 
-0.2681791993308363 
0.01115203386603305 
0.008655249986439966 
0.01115203386603305 
0.1993077992677408 
0.147090963502228 
0.003618184134287702 
0.2174661162395866 
0.008702773788719934 
0.03199852207800537 
-0.05926454671372956 
0.2055210925273966 
-0.2321120252267883 
0.0002528630803269351 
0.04673740821626091 
0.1774550966476516 
0.2624429781476317 
-0.2758336181003951 
-0.1053574274198047 
0.1345264649073764 
0.1900359763072828 
-0.04605933149984785 
0.0009417707847564676 
0.5045756472651399 
-0.06625975501362304 
-0.02658166517550957 
-0.9220085874865531 
-0.4391262650448237 
0.06006817637708464 
0.1430888398491858 
0.4431963629846831 
0.04792718507510513 
-0.246570043069101 
-0.1764222373196044 
0.3627923762498535 
0.180306081929087 
0.0004638343369815898 
0.1739014464440859 
0.1056648980570163 
0.004385407181519869 
0.002718926518569071 
0.09001236776939013 
-0.1308612728182566 
-0.06020355061176654 
-0.007632079851395948 
-0.2059559363738749 
0.2676898342600129 
0.02029645199198712 
0.02660904914809929 
0.1799474049005127 
0.1763033409963003 
0.1109164957791324 
-0.006254265757162542 
-0.3241111106586965 
0.004848131588846691 
0.4421809484961672 
0.1335196775672466 
0.03678466146866225 
-0.06757809802556483 
0.03168031770881927 
-0.06194395877791204 
0.1447946395034115 
-0.302763888019582 
-0.08850046796984803 
0.2448889255228669 
0.1043162743179969 
0.2587788497864787 
0.4607785919029189 
0.07148756203501773 
0.227433425811085 
0.3565296626798677 
-0.0393385391275726 
0.0211111983449435 
-0.05426497401722033 
-0.2092730005027691 
-0.0661478577520522 
-0.03137829875116582 
-0.1075671687132531 
0.2586827818742712 
-0.2537629203765965 
0.08602332408361282 
0.1031838943667419 
0.2563466229895608 
0.3209623349831332 
0.01109935459119819 
-0.2260136351780054 
0.2151549744344702 
0.1359868970938896 
-0.2166027275379676 
0.0002441933495504365 
0.2428536593251986 
0.5570147089607641 
0.3100164186637805 
-0.08007038938843948 
0.5643761894119478 
0.002361645275816854 
0.1549041104044755 
-0.1529573221542398 
0.8436524481960737 
0.005742378243671131 
-0.06482516552390817 
0.02650226868075764 
0.2738074167361038 
-0.154026634644789 
0.01519324230740928 
0.001939383255564453 
-0.006761761737454862 
0.05081137381372567 
-0.1153546578551511 
-0.2552518875638629 
0.3203799911148935 
0.2830310323017713 
-0.0368703361618446 
-0.3710804434587259 
0.009174255768151821 
0.07291300545911228 
-0.01904513107931198 
-0.1228105374563735 
0.1303310739373046 
-0.1931670052887281 
-0.08878065108194028 
0.04694528581720076 
0.01630103086199139 
0.2704644196939591 
0.2147320809602178 
0.2656905941331177 
0.01952720293077966 
0.02528362792640597 
0.02540173264440528 
0.04433044707583086 
0.05469469960649824 
0.06391981468020855 
0.4146499073766906 
0.07295086948947577 
0.3236110788681954 
0.2514746465556721 
0.2677203917285764 
0.2594112687276131 
-0.05387178370957512 
-0.05822332136174457 
0.1803082162895543 
0.01713311123134882 
0.1914710303155906 
-0.129265705927983 
-0.06345084570579759 
0.1243128806867972 
0.05675190889526532 
-0.4794055668450878 
-0.149749519918683 
-0.09603543901832498 
-0.1437679927290008 
0.3089414134181386 
0.08808182056764147 
0.08091332821191374 
0.195681501275923 
-0.313922706378377 
-0.08903557085958859 
0.02043891473897688 
0.1110292881462879 
0.05624323578656863 
-0.049000627699979 
0.0004722596505839505 
-0.3530921831014528 
0.05144124542276127 
-0.01536556447686725 
0.2690558864388125 
0.157751953094567 
0.04607576800929266 
0.4361412527884326 
0.1833796739991359 
0.04978409635556381 
0.2444637141732525 
-0.04438579541803906 
0.4103449717198234 
0.07815374095798036 
0.0742310781452054 
-0.000761618189818938 
0.02126671372713845 
0.2744086854484778 
0.1361521775286663 
-0.1816668992071798 
0.0353317805611033 
0.3992886533123302 
0.07845422750431388 
-0.009590079288172432 
0.1207664483693587 
-0.7082307466051938 
0.04539237113037717 
-0.01604924275430116 
-1.145306204207206 
-0.1713431903304091 
0.2222324070281401 
0.09368494687865388 
0.1365193028231367 
0.09380360389309071 
0.09325403803837187 
-0.04030767789519504 
0.5121397265367597 
0.7459614989002441 
-0.06398923982621547 
0.2490142011307757 
0.2026639319254006 
-0.05513054397605518 
0.3673519556000371 
0.4178341431874232 
0.2915281744594725 
0.1268021146159238 
0.5328932281228027 
0.07459035116481311 
-0.1594501114814684 
-0.01279020243609441 
0.234180024304681 
0.1871151913654724 
0.1033877435811853 
0.002329584204901283 
0.4018905072832957 
0.005497487164092668 
0.003818570556884265 
0.002139801693394545 
0.00143388850242677 
0.01332859424157194 
0.4717196334726056 
0.1048615240346123 
0.1189380230248902 
0.3253443273678829 
-0.1365754095343321 
0.446181645286467 
0.6085568536180157 
-0.118881917061763 
0.1690428026288164 
0.2628783118371114 
0.009667765208576365 
0.005188519649293672 
0.3161414490217566 
0.2446467235190899 
0.1899684246948653 
-0.3206337258264289 
-0.05741586856235892 
-0.2821954493280917 
0.1481359507326312 
0.2748753035818822 
-0.2124051447857153 
0.2122651648735937 
-0.3903047566306087 
0.1022569264748534 
0.1089648975147777 
0.0003780603441643484 
-0.1002469667842836 
0.0003501541965287046 
0.244555558877492 
0.1456627966001162 
-0.2800162806477695 
0.232094548268064 
0.0313655451974736 
0.0001777455981721256 
0.1750837729564649 
-0.1103618392134593 
0.3103205285396274 
-0.003774610502133518 
-0.2875972699201166 
-0.04297005268050183 
0.1067844971225749 
0.1932757793184979 
0.5294829788950988 
0.0006265145297461599 
-0.1444825605731696 
0.1319821004702459 
0.4853108284465173 
0.004989620033880725 
0.402198239360417 
0.2429124079250168 
0.371941262783868 
-0.07601358450301987 
-0.0004178442828206333 
0.2480555232988332 
0.001075191602955289 
0.281643997257061 
-0.1254190167755737 
0.654250564391648 
-0.06264999776116116 
-0.04716967751142834 
0.01047892194005158 
0.1134867187439904 
0.3094557276242697 
-0.170198279979324 
-0.01233833944862064 
-0.275353225854629 
0.3652682110956436 
0.2106693450125033 
0.1065553448872895 
0.02465565186642752 
-0.1062289453483713 
0.235743956786525 
0.06052015980440734 
0.2066000594321581 
0.220802983608438 
-0.4536598971277997 
-0.180990231416946 
-0.13259121395827 
0.5058368495813974 
0.3405622172862083 
-0.4101624163512875 
0.6175372764239603 
0.1122051469482139 
0.002311990268892657 
0.002311990268892657 
0.002311990268892657 
0.04986506381987925 
0.03402632530655895 
-0.1221411459415429 
0.3832171613004553 
-0.5821940638848384 
-0.05842465697766522 
0.09049349026194752 
0.1600424071347504 
0.08587643330576337 
0.01646529712374355 
0.05647333105292771 
0.08570704741678493 
0.2370693261872822 
0.04576724454607568 
-0.121190877473578 
0.000223040993164576 
-0.1802818420450047 
0.06299056073204094 
0.2324633767998318 
0.3114517601677548 
-0.4483614307819628 
0.05066837435304387 
-0.02807397883150854 
-0.4405042786747795 
-0.005489559314314208 
-0.1224465086788679 
0.0003882236516829291 
0.0002654571736813234 
0.06372818369819223 
0.07617243201612646 
0.2859720877859633 
0.7580422100977821 
0.09983884830665837 
-0.01835538221449488 
0.004172383387436163 
0.004172383387436163 
0.1755060945146746 
0.1074423828005796 
0.02274482048493168 
-0.03733389776964521 
-0.01800591499411478 
0.2593801430187496 
0.4958138975183745 
-0.1009881452792966 
0.2469052119622954 
0.3746271210796595 
0.2116657844004321 
-0.04484793603408565 
0.08856897016203556 
0.1984263227779343 
-0.05697709412475323 
0.18315506393603 
-0.1815889122894489 
-0.01866074530308623 
0.3934750780057409 
-0.0763906308666501 
0.1077260274795336 
0.004077392605593588 
0.0611676462062129 
-0.3611893811806886 
0.0611676462062129 
0.02152170546723681 
0.2830210584682692 
0.3337169087865922 
-0.3359962622203694 
0.05843062079039017 
0.002979397999356271 
0.03069965797988924 
0.002979397999356271 
0.5777065255760342 
0.06719545999700909 
0.2706423050633833 
0.1381834794946775 
-0.2993253453014843 
0.082763923862153 
0.2258317465482271 
0.1020050229557794 
0.08215043138943526 
0.2133467823556309 
0.4847788689183104 
-0.150034568663389 
0.001078916090762948 
0.03306481611180409 
-0.06099692543372539 
0.01639662639561183 
0.0722308761572697 
0.1156933554096039 
0.07972337855381181 
0.1864669274605969 
0.1197563216911998 
-0.03358676676503747 
-0.5088079594976612 
-0.1197316375283414 
0.1972326783084957 
0.4679298551373513 
-0.1893609354978862 
-0.06469586024805191 
-0.3582989787643834 
0.4288662874382212 
0.2195635504905891 
0.07069938488569724 
0.008803269758790333 
0.1710509498340722 
-0.1875732800503943 
0.008803269758790333 
0.307876971353221 
0.008803269758790333 
0.008803269758790333 
0.008803269758790333 
-0.504926813390684 
0.2031492703531302 
0.3019946187243948 
-0.09291689092302087 
-0.1698507038648498 
0.2183688381625745 
-0.3882667775970365 
-0.3785183473826922 
-0.2268484477608377 
0.05356350688158013 
0.05356350688158013 
0.3202590116126223 
-0.1089298005487873 
0.00119854201155439 
0.405152128376798 
0.4846391631316035 
0.1146734091252788 
0.0002468979727323174 
-0.0002071083701674276 
0.4948769878895024 
0.2542802256473264 
0.005630248154681591 
0.07955661746626003 
0.4700198186850529 
0.1668443218600686 
0.0001682033390702834 
0.02118584463570946 
-0.0211562309097648 
0.004786740668692314 
0.01178087706023373 
0.4095595733547326 
-0.2867260499250919 
0.191579897085765 
-0.1888390069137151 
0.2166824631711651 
-0.2211572333549312 
-0.1666307515953257 
0.001886798180960504 
0.004146304155488712 
0.03446120217084922 
0.04625840432491166 
-0.1239147063500855 
-0.1151519265944692 
-0.01900026540524708 
-0.06837524928103336 
-0.01414796958345892 
0.1717730934453986 
0.1458294393534996 
0.1428711761302802 
0.1545654638803793 
9.863246865205897e-05 
-0.06352878832680757 
0.2849980158612681 
-0.1612530877513447 
0.07632226131860512 
0.0448145105384009 
0.01035950612596655 
-0.007461735258111741 
0.001418518077325213 
0.02087198643342948 
0.005921904545083254 
0.07781941945625284 
0.0005789866497951133 
0.0005789866497951133 
0.0005789866497951133 
-0.1587600071118098 
0.007304760910982679 
0.5323444508648093 
0.006043088483733658 
0.0646582804149301 
0.03906365851265383 
0.008135770897850147 
0.1027783404545152 
0.004335547871854612 
0.004253766131637383 
0.02033182753238543 
-0.2745583612282684 
0.002965572439080494 
0.3818836287152279 
0.06866460370484445 
0.1127318656427067 
0.2194674826200951 
0.06580299808826294 
0.2685776448442913 
-0.3190190907234601 
0.1386800820498925 
-0.7003909752315505 
0.3326381035756034 
-0.05249493164985126 
0.04951467117438355 
0.3029619899074996 
-0.1843292387653068 
-0.5966294803400654 
0.3016941690141059 
0.3036692619929147 
0.01723664326333016 
0.06636941616442327 
-0.1042484143126803 
0.318562645564438 
0.03675078708148621 
0.003486848899779857 
-0.1317082400605543 
0.04610361203667315 
0.0001284521632856106 
0.07687756570045526 
0.6025783428513579 
0.0001284521632856106 
-0.06153588899645893 
0.2822818849912174 
0.00368777675671602 
0.001451115491937372 
0.0860518893729853 
0.03877367941275871 
0.1330156496013275 
-1.000486437262859 
-0.09990638816855561 
0.3670478554573133 
0.4246988264723813 
0.1529982282616641 
0.3507428624547363 
0.003454582148456372 
-0.03451934082578983 
0.5136153667569079 
0.0002155174897194985 
0.3432148926510505 
0.4268173792914678 
0.2193116161239338 
0.004662352946181333 
0.2681703236012816 
0.1356024788890696 
0.1037777633850638 
-0.1147589907298416 
-0.111711187249247 
0.3267125944148981 
0.1851848805485856 
-0.3631414186685469 
0.04633107025197059 
0.2537273656158298 
0.0007588323912137701 
0.1987179273548751 
0.02391236080399772 
0.0009250403641114339 
-0.5702339234819849 
0.0009250403641114339 
0.02905161552525268 
0.0009250403641114339 
-0.02391117208191644 
0.08362979021600248 
0.06045369343619682 
0.07274531051763969 
0.2938672633816988 
-0.005759033703946654 
0.1104530562626152 
0.1104530562626152 
0.1697280520678508 
-0.09272788787998887 
-0.5561767116999744 
-0.181922809564724 
0.0290205019284355 
0.07830141682859344 
0.2777450406184238 
0.06126995347029354 
0.01675225200229406 
0.07088238934884859 
0.1663972898321193 
0.002842069525571015 
0.230243149569186 
-0.07922571078690109 
0.04574690005903823 
0.3479131376030965 
-0.1675966257402226 
-0.3201097982731259 
0.009876412744003178 
0.0005668341635231977 
0.1693923922686081 
0.1341910754493667 
0.1344353124791783 
-0.5235919353755301 
0.005464329893525925 
-0.09432029972976848 
0.08712294062424031 
0.207947839566313 
0.03781485263770903 
0.007986525802095553 
0.01039344162708104 
0.006850034500098232 
0.006850034500098232 
0.006850034500098232 
0.00767737266227092 
0.003658735880944705 
0.04526810585801423 
0.1295658243605709 
0.1155399191190128 
-0.2291755896340787 
-0.2500500799879976 
0.0447482824353674 
0.0229494250495212 
0.1338860962898515 
0.1989203728249617 
0.209685168963611 
0.3890502995412746 
0.002380336171547677 
0.04003333697438961 
-0.1285017230398481 
-0.4062779163291639 
0.320709519089408 
0.4143175321706525 
0.03035918892823478 
0.05561591858465484 
0.0721443724242702 
0.5126185194381512 
0.1475288973024558 
0.1117261605272672 
-0.0009759351597454355 
0.04243071422792209 
-0.4472966930401913 
0.06744147369191876 
0.1721635868978707 
0.2370617899637805 
-0.1052424712235295 
0.1025449593635912 
0.00793437260969135 
0.3666154740002251 
-0.1573019409708836 
-0.7959481200953309 
0.003284172761686406 
0.4196978396655044 
0.3062305498294235 
-0.2008752454760503 
0.0373686885447146 
0.01578271385655042 
0.0009088537949555763 
0.0503221987528602 
0.08074066269388051 
0.328595493369658 
-0.0006384717604266771 
-0.0006384717604266771 
-0.0006384717604266771 
-0.0006384717604266771 
-0.0006384717604266771 
0.02823239485087979 
0.01067160338968766 
0.003672846302741953 
0.2419375517984944 
0.003672846302741953 
0.005059418972893394 
0.0005675113855500531 
0.0005675113855500531 
0.0005675113855500531 
-0.1147902083026391 
0.01792289851034588 
0.01772955873296384 
0.0230115667204826 
0.01772955873296384 
0.3027829765785796 
0.06907204523640434 
-0.1636166909837155 
0.1399493493100065 
-0.1015449097524545 
0.08451852368951926 
0.08521283197442985 
0.0832521986354717 
0.0832521986354717 
0.0832521986354717 
-0.1148190926647447 
0.4341567391230687 
0.3693546116235865 
0.03780116131863723 
0.3802608316072887 
0.04075848230742663 
0.02009972325394718 
0.2994839560902262 
0.001937992230871212 
0.3380183170578194 
0.04420802256550021 
0.2424219008324953 
0.2397768598439724 
0.208366038491294 
0.06258491609009922 
0.2497085670578082 
-0.001750058595245654 
-0.1516645841466881 
0.029898852006792 
0.5628386256283416 
0.1134849045485657 
-0.2857109804528718 
0.06383460234088481 
0.2496617688228532 
0.2422865918826029 
0.1905250175096697 
0.01992932672432724 
0.268085665426673 
0.03764763515570208 
-0.006169363276830049 
-0.0003387673465935573 
0.0009880298313244367 
5.637644682541139e-06 
-0.1882051801178722 
0.3042378439423327 
0.02876130249150033 
0.02876130249150033 
0.1108274378917933 
0.004552760286643 
0.2664320550232703 
0.06721745397792911 
0.1394404082792032 
0.006532168448231839 
-0.1564663793568307 
0.273177225155019 
0.001500684186619064 
0.1170703228243394 
0.2911034359830325 
-0.01947927179803094 
-0.0001491666775911701 
0.2664887763757259 
-0.4559185517562382 
0.04433044707583086 
-0.03090972695107613 
-0.1422999961895268 
0.3025007987366367 
0.03128982571195944 
0.1024694757150093 
0.3622029819209958 
-0.2986160812813369 
-0.8582501909227528 
0.01172510158179846 
0.1530111229290368 
0.002121636225758871 
0.1443021404517165 
0.000772396096853695 
0.000772396096853695 
0.000772396096853695 
0.000772396096853695 
0.000772396096853695 
0.1177946771877853 
-0.07622141075891664 
0.08174669140335866 
0.185225819775357 
0.008668650644311406 
0.07242712213606121 
-0.1679909290041093 
0.06144161388467832 
0.07424278101497976 
-0.1656786226593108 
0.009198001331768096 
0.1128576559512696 
0.1193893148713972 
0.1053528748990391 
0.2252944520517075 
0.3386753379663455 
-0.2672238172082861 
-0.05922041780238697 
0.04904616611340129 
0.05989692320790004 
0.5353876735530203 
0.4402124651762971 
0.1947468107817507 
0.159678116569017 
-0.1878896857971754 
-0.1909374938207386 
-0.08586262513512213 
-0.1027069714383033 
0.2296137213771034 
-0.7187805583418411 
-0.2760342360339654 
-0.06259926807973185 
0.2674889561508783 
-0.3959533871868177 
-0.002023791895212379 
-0.1364124087379926 
0.06061622337947081 
0.5118859453528923 
0.07600082752655954 
0.1521905618579438 
-0.1968877186868112 
-0.7685948875666399 
0.1046823502978155 
-0.0016203581335796 
-0.0016203581335796 
0.03824023681091789 
0.1503037861298974 
0.1709969108122451 
-0.09015141997307217 
0.009216402312127073 
-0.3992822081926237 
-0.5339890428242866 
0.9631780447732803 
0.08741248993660687 
-0.1053179338602816 
0.004826839457926897 
0.04095741749121486 
0.6685033099935719 
0.1419723348935787 
0.03407215308644942 
0.1244326831546884 
0.03311153733414703 
0.001769731848969953 
0.2306304601209093 
-0.02282170880103852 
0.2403718582978258 
-0.07107867597246917 
0.2530564215570964 
0.0001094303590550673 
0.001699387329547514 
0.2447319930973712 
0.04433044707583086 
0.152377703241366 
0.006726394397483001 
0.386097052087481 
0.006726394397483001 
0.0770055983693677 
0.1418524602368927 
0.08657597167587276 
-0.7094600309064165 
-0.2350342575699974 
0.1082835862016753 
0.1082835862016753 
-0.155799213065164 
-0.1477140426231088 
0.1082835862016753 
0.3035592458028438 
-0.1007894689193359 
0.3960493756949881 
0.2750932278212351 
0.06287675524482636 
0.005586121403954311 
0.005586121403954311 
0.1571673875130542 
0.3539019418776868 
0.0004082398426523184 
0.0004082398426523184 
0.0004082398426523184 
-0.7314351328484351 
-0.2951783462030063 
-0.7244583988771187 
-0.7244583988771187 
-0.1011855957631115 
0.1651003677185806 
0.002340780302117255 
0.02107360665530815 
-0.0001883636094779685 
0.04323296466265023 
0.3164533558656532 
0.3140939834990874 
0.1811075650416251 
0.1811075650416251 
0.1815227457651325 
-0.08453394048764802 
-0.1334854600922697 
-1.078255582637192 
0.1811075650416251 
0.1191177732290291 
0.1811075650416251 
0.2376776944265538 
-0.5108036355349469 
0.1811075650416251 
0.002777259237063248 
0.2344340489104298 
0.2984305370880971 
-0.1573881301194768 
0.5669561024700374 
0.03017455918879754 
0.004777419531516528 
0.05978106983532247 
0.363571018846021 
0.1182231267199443 
0.2026881796961583 
0.2627691809335269 
-0.1302460240072377 
0.2822432144740403 
0.2662089704107679 
0.08200710860842313 
0.2794107140029674 
0.3474572065934395 
-0.5674831823505097 
0.3501627968838167 
0.000982504759872977 
0.000982504759872977 
0.000982504759872977 
0.1264310928037983 
0.1714211730726019 
-0.1444575166039482 
0.001072697504175083 
0.5273829878893317 
0.2837513335862484 
0.01278309192397159 
0.004287311307481197 
0.2627372057443563 
-0.3002616377573134 
0.280179745245193 
-0.1135193042224325 
0.04591942595659864 
0.06018427651778752 
-0.2778332398173811 
0.23744146295383 
0.2154155127628833 
-0.4187365807518817 
0.1767579159542281 
0.1763912972909558 
0.2698009173882689 
0.01554897952623226 
0.01554897952623226 
0.01622982289075891 
0.01554897952623226 
0.05623147940690443 
0.2647085940984277 
0.7311660047320313 
0.3703087464125271 
0.001916800901046428 
0.001916800901046428 
0.001916800901046428 
0.1451925770347287 
0.121586026759198 
0.1201305848189317 
0.02510226861729584 
0.02510226861729584 
0.03743081383487685 
0.1921344698285685 
-4.671291802137644e-05 
0.1742004134407043 
-0.06033248206524191 
0.1854512395019584 
-0.4339244293597889 
0.08379000279262458 
0.06933602415272339 
0.06933602415272339 
0.1824767807542174 
0.07619140439277788 
-0.1192281872713903 
-0.9118959479506961 
0.3214875258842573 
-0.1959040782522855 
0.03621606858504693 
0.2203455433438581 
0.03041907065408021 
0.001475136645222322 
0.0008648677798762478 
0.1195270644113553 
0.1262441651524154 
0.04118723982655541 
0.04118723982655541 
0.09408434540166641 
-0.5239448724219404 
-0.1405562870445599 
-0.4429565248253732 
0.0008459615601726613 
0.02825141769013539 
0.1033106368457055 
0.2571009185373015 
0.0006038081895671529 
0.1651412559742675 
0.01173365390516817 
0.01173365390516817 
0.1316107881206628 
0.1853279992593814 
0.02371268686335118 
0.000700861763329032 
0.09943240575820883 
0.000700861763329032 
0.1652921274242721 
0.1030146471706303 
0.277628256551832 
0.03330209318389225 
0.007278532865843686 
0.3112650293257743 
0.0834122115274518 
0.08322900250373351 
-0.09530156547790553 
-0.0416167802975195 
0.08322900250373351 
0.1174432644791063 
0.08590175078184681 
0.006735375666193991 
0.06516715252453269 
0.02893306448271191 
0.002053251328803062 
0.149279775436176 
0.08663024919180755 
0.04215949086318146 
0.1492522034279759 
0.0881282122917716 
0.07534054986139307 
0.2064337567819862 
0.06084780257590071 
-0.006426743955509769 
0.09032791283243261 
-0.04767261917374963 
0.1381032291240103 
0.4667425115438789 
0.04433044707583086 
-0.1436443240032761 
-0.2559730464171029 
0.11403070016644 
0.3662536054358954 
0.02122330906664625 
-0.09026041206279753 
-0.1855963519427018 
-0.1563079039361814 
0.02201713062461803 
-0.9677754701716916 
0.3089756103571451 
0.1730423133899016 
0.351907914076543 
0.002549362768352998 
0.2957487936790178 
-0.7539855101094699 
0.166306316467074 
0.2421503294095177 
0.003453936106964262 
0.0201880312209955 
0.003453936106964262 
0.1006724090270674 
-0.09890886218862341 
0.06167444267626751 
-0.2340014871656461 
0.2951650555466681 
0.3548076839621048 
-0.001134540138452073 
0.096466133965132 
0.0003887556021462955 
-0.1168268455738218 
0.2757246917636289 
0.002729267604545331 
0.002729267604545331 
0.315304548234591 
0.06329494840726253 
0.5329069038194787 
0.3678586352686314 
0.0576214955751285 
0.01671037941747118 
0.03512609845646229 
0.4821616205779845 
-0.03897973811497991 
-0.8276086321167851 
-0.6549031349276857 
-0.1181437452338127 
0.2293086890848235 
0.3872468663582865 
-0.4487389854444022 
0.281841185490865 
-0.2139006206888113 
-0.1774523977236649 
-0.04987965219826888 
0.3393999722066708 
-0.2513411744608386 
0.02848810737826864 
0.02848810737826864 
0.02848810737826864 
0.04069730871526481 
0.02848810737826864 
0.02848810737826864 
0.01481353620753606 
0.1494120094947276 
-0.2777890845917382 
0.3039610535428472 
0.1675940058212025 
0.09737738469336193 
0.001082055465207206 
0.0007006541926019262 
0.0007006541926019262 
0.0007006541926019262 
0.162029419832029 
-0.02623016492865061 
0.01629956793338154 
0.0135098738087465 
0.003066930338001603 
0.4602020713315867 
0.0376015836554441 
0.0004461948018469841 
-0.10213087231308 
0.0002129385066335005 
0.0002129385066335005 
0.0002129385066335005 
0.0002129385066335005 
0.04943232987571482 
0.1879609770049706 
0.01505557500464375 
0.01152968932824267 
0.1007439501911307 
0.007831519828517958 
0.2061862160681184 
0.118809574719972 
0.03875542044663634 
-0.2416714291123333 
0.0008913136287974797 
0.6123863869546806 
0.002869833251173873 
0.1277321236855511 
0.255134152534772 
0.2400172948951671 
0.3689284912348098 
0.1051630584014966 
0.2609345908308095 
0.0501265024550706 
0.08370631990634841 
0.009925477670233811 
0.3193576249062406 
0.08035859915138781 
0.00269021102890143 
0.003573099407499345 
0.09500837900608328 
0.282928860363041 
0.04557565457227242 
0.04933676264377246 
0.02472485327568859 
0.02112095976034865 
0.005587107106972673 
0.09422815449864842 
-0.4358212782790908 
-0.1628078040223994 
-0.2757476191519836 
0.1153206838550405 
0.1617579542806763 
-0.02686053702554275 
0.371594726656168 
0.2629594783037899 
0.0007477497082148151 
0.0002168477658633054 
0.000819150495666114 
0.3845333603362258 
-0.322919239431012 
0.1588267234540691 
0.1595980246030658 
0.07760411561258013 
0.1642926914610441 
0.02737529636778694 
-0.1553826110543185 
0.05115242414957827 
0.4347688795171245 
-0.06784104684217675 
0.2402884011879831 
-0.2267863150604638 
-0.8142482480276139 
-0.001679119682499884 
-0.05872469164866216 
0.006658470051044828 
-0.4206795905713097 
0.00633362195534279 
0.2549314450535614 
0.1255079668441718 
0.5067061809089904 
0.1249251249944359 
0.0008585602410884814 
-8.641762503498129e-05 
0.0750301988926258 
0.3703280939826512 
0.2593325379482874 
0.1778084417946709 
0.08435916390678164 
0.04433044707583086 
-0.3057750596512 
-0.1209576784833629 
-8.848019490406868e-06 
0.0118182706303409 
0.2499211368327375 
0.2687677649750039 
0.3025769590575779 
0.5886380289866908 
0.1874723692507405 
0.4408180877876667 
-0.0191883899092394 
0.003261365741499779 
0.2586056920562526 
0.09378313255417997 
-0.1065770959064521 
0.0450841452917335 
0.314701852829146 
-1.047540059029589 
0.314701852829146 
0.3881329446521846 
0.3132170901569229 
-0.153827099408435 
0.002470491100004193 
0.002470491100004193 
0.002470491100004193 
0.07364793615140386 
0.06897080334021312 
0.01804689719446319 
0.1665133202591227 
0.07003802989305397 
0.07013522448307531 
0.1092521033727815 
0.006529133712753705 
0.007840036380450537 
-0.5216497967780577 
-1.15033391628729 
0.04883493905493493 
0.008062806475057771 
0.007818714835160395 
0.008368451825624672 
0.09924277814666556 
0.07139985654088733 
-0.01064129646071846 
0.03042110018171946 
0.08790120929696872 
0.1424562727827246 
0.4292001370423805 
-0.0002479085972717403 
-0.1628381249054404 
0.1254548673211391 
0.5019719590587666 
0.08174662130549873 
0.1284453800535603 
0.189430737722204 
-0.2710624098303901 
0.1489332806699842 
0.254359362898979 
0.6593818500372992 
0.08240575273527297 
0.0001089022413111802 
0.003547160969334764 
0.06980535995570455 
-0.1709281794902334 
0.02628868743520121 
0.4129471095608335 
0.04504904114555314 
0.05762249419727647 
0.0951693415738576 
0.1382028296513945 
0.006802866873051249 
0.01116109107987373 
-0.1403388486414743 
0.1705457738433493 
0.002953233310010255 
0.7011097724230402 
0.002953233310010255 
0.01439657667051669 
0.01439657667051669 
0.01439657667051669 
0.01439657667051669 
0.02793675647984797 
0.2825795525414668 
-0.3016432852148813 
0.3898896269749335 
0.01003135814316306 
0.09757424325847715 
0.3252337561489695 
0.3074196347850691 
-0.02030113430990796 
0.0239453777412077 
0.08053740715856783 
0.001253669359461299 
0.03228747799787982 
-0.01157454782148394 
-0.01157454782148394 
0.2418644571749038 
-0.4784503034066703 
0.001432192070591348 
0.003987945225753043 
0.08908239866352777 
0.07487974756521071 
0.0002658263493804178 
0.3451007439590036 
0.3471423655858112 
0.3991844835769616 
-0.5301064147752147 
-0.8278910816109587 
0.171735381301283 
0.001673780138333398 
0.05752260498300066 
0.2952173141841385 
0.02627243437880375 
0.1508883963044391 
0.0009161255663903022 
0.226614134709994 
0.4451800259999834 
0.07626454503534708 
-0.03804574391062584 
0.07298909906683523 
0.2659748014310475 
0.0109590861009236 
0.6435323071582401 
-0.08155225337163576 
0.009266152088530356 
0.07244050674878602 
-0.1551961099397463 
0.09088655420031368 
0.258458090731423 
0.0008438072884983194 
-0.271686162945587 
0.07145421078049063 
-1.006495491694966 
-0.2126994958353471 
0.1999883739350151 
0.1560319874881492 
0.4933059861308732 
0.02518549198658685 
0.3677867535640761 
-0.1361059690860229 
0.002036895736461639 
0.2524663146381491 
0.3315121938807791 
0.3056081961479521 
-0.2441976693330274 
0.02610479389705945 
-0.2898666976817269 
0.0478259302442518 
-0.0126695661136523 
-0.2922581421730391 
-0.2422138120450311 
0.1931273621586389 
0.4939955898254214 
0.0230649094087553 
0.00329062778714436 
0.3094524018164154 
0.07025787528920828 
0.0003836342688081854 
0.2332750824262293 
0.06711887279531857 
0.002704596405421989 
0.0006688175356530947 
0.0288984118716771 
0.4989940740854278 
0.0004040215959781086 
0.00408038866183426 
0.0004040215959781086 
0.2303258247744083 
0.03757756291676306 
0.006374994284319893 
0.1257089684632896 
0.02823691025847538 
-0.6225128283842042 
0.0001212812754474758 
-0.3055092314192173 
0.0001212812754474758 
0.1529821260226536 
0.03171147951169281 
-0.01203114451639851 
-0.1652230272609661 
0.05367459239292102 
0.05367459239292102 
0.05367459239292102 
0.05367459239292102 
0.1366175346021685 
-0.1511089310408868 
-0.2199207772540173 
0.2776310000222114 
-0.02026646870734949 
-0.1885565135870069 
0.315812201965025 
-0.1419614317226354 
0.0823826266895782 
0.01404774135681645 
0.004629849689903982 
0.1695639989240076 
0.004464027347784508 
-0.8188693886352655 
0.07633177601949197 
0.0653871956127101 
0.08867944529172109 
0.03168521684892796 
0.000937262539297365 
0.1792770649000042 
0.005462416065120076 
-0.007109282714647926 
0.01571918881120659 
0.01571918881120659 
0.01571918881120659 
0.01571918881120659 
-0.001118509488896984 
0.03960878861883661 
0.003497287216586035 
-0.02557125787110623 
0.004794858386193696 
0.3805212256965477 
0.242254978275555 
0.2842617183093593 
-0.3628689587798322 
0.003383415776844549 
0.3720593773171678 
0.2225478107176053 
0.01189518606747692 
0.09559521152212572 
-0.4963764269598598 
0.3117684255937844 
0.09520675745490127 
0.09520675745490127 
-0.313715918590401 
-0.04482777000144314 
-0.2757867072953393 
-0.1183111874723733 
0.07396785972594935 
0.1386372441806063 
0.04433044707583086 
0.09267716346241828 
-0.009064719093789045 
0.08141443610175433 
0.0001290620099808828 
0.0001290620099808828 
0.0001290620099808828 
0.002201330854834944 
0.1110931217296381 
0.5943575743796667 
-0.002249010302140715 
-0.5295397317515566 
0.1644385383953428 
0.02719593403963608 
0.07038502366506073 
-0.008280287986014923 
0.007551067085574551 
-0.1489801935728111 
-0.1164218446243736 
0.0032035394575278 
0.01450349729564406 
0.001296014780963325 
0.4652137943768666 
0.06781332287936818 
0.3230106315051184 
0.06371149684100702 
0.264517990023003 
0.006823154854144871 
0.09964512133805059 
0.2229733737416478 
0.006998794246156453 
0.01977631917151018 
-0.1785180533619901 
-0.267672976621858 
0.09730333779076618 
0.06544086947428424 
0.06883514169597238 
0.006328157692741089 
0.2203299784638918 
0.1261796522060958 
0.07926107036301497 
0.1863298174363252 
0.1753819804471359 
0.005223157476982319 
0.06233965681824329 
-0.5424342706133787 
0.04433044707583086 
-0.1237113084363275 
0.3036418551694254 
0.313401715369771 
0.0910518451219149 
0.003651991562096843 
0.0004127161139493333 
0.0004127161139493333 
0.003342269029873877 
0.08846130703101612 
0.0004127161139493333 
0.2090767022243426 
0.1354792283743208 
0.0008558873481659407 
0.4038772740677154 
0.04595493445098348 
-0.09956338374683386 
0.05513666177198285 
-0.479307732159353 
0.1970515495093462 
0.4719094339170218 
-2.01426431808229e-05 
0.1256243905509742 
0.0456658634899119 
0.2971380614397652 
0.05801411498512479 
0.2593671715987561 
0.0006731675723688159 
0.0331297965016595 
-0.2190787710080574 
0.0006731675723688159 
0.0006731675723688159 
-0.4835400441215829 
0.02901046236241308 
0.02853570588574423 
0.1497131089656421 
-0.6545236531744215 
-0.01518739176411578 
0.00676326991143274 
-0.6782400837461883 
0.2513429837337412 
0.1628063914430096 
0.2479432100573935 
0.006036454788073655 
0.278844796086447 
-0.05793541739999863 
0.001605426756888802 
0.2073015393061137 
0.1449089027697839 
0.01059429612712413 
0.0001740086060665669 
0.1425282577440797 
0.4619168699510987 
0.0001740086060665669 
0.2627229732688231 
0.09928247068919541 
-0.1807832380796496 
0.3180387498687503 
0.003255444997026721 
0.003255444997026721 
0.5928680638702812 
-0.2796107992162772 
-0.5030495694033686 
0.147908661539009 
0.1364414016586721 
0.1509739614968503 
0.263747996248642 
0.2326867831223061 
0.2138285605907595 
0.02065672133936102 
0.5159938343121583 
-0.06973547058191935 
-0.0490200130417489 
0.01896696819684819 
0.01896696819684819 
0.07836906651474033 
0.1863740963167205 
0.05704763156654433 
-0.003071557246470154 
0.1774676557808437 
0.2855847329809635 
0.1543878692923873 
0.002306226303477134 
0.2786698431803738 
0.1680882315831145 
0.001877146022574511 
0.4674523936242825 
0.001877146022574511 
0.001877146022574511 
0.001877146022574511 
0.4389505185551499 
-0.1158852843552055 
-0.573285144539843 
0.1197951788623116 
0.007669388350823344 
0.008866425901389328 
0.008866425901389328 
0.01424882132548879 
0.008866425901389328 
0.1531180434015874 
0.03274627907638657 
-0.5203723247433404 
0.291702675472206 
0.1635594034317427 
0.4608641198776913 
-0.003713042352247992 
0.04433044707583086 
-0.1796233759109035 
0.0003718757553551315 
-0.2914674961022271 
0.1687121322029786 
0.004275537762347847 
0.3121348990168968 
0.00524169233546321 
-0.3047778001157866 
0.007925283496321562 
0.1706339494676078 
0.1790980170098546 
8.760847891937709e-05 
8.760847891937709e-05 
8.760847891937709e-05 
8.760847891937709e-05 
-0.1823060294909906 
0.04436073863113411 
-0.492485075309482 
-0.1030647375897414 
0.3211968422621687 
0.0003965523589748985 
0.0003965523589748985 
0.08682046016802904 
0.1482071144544315 
0.2101457008353778 
0.1457477843875857 
-0.3660340528690488 
0.2423311481056467 
0.02579862802142473 
0.03231366533651061 
-0.2223142564127419 
0.02557536479656537 
-0.1157696951800713 
0.03403373679630046 
0.1323009265765328 
0.1068435235344128 
0.0009537481141546062 
0.02944185837502203 
0.0006330952553278886 
0.0006330952553278886 
0.0006330952553278886 
0.001671371697147662 
0.131599002501532 
0.1916041177907133 
0.0711477914415576 
4.841756003120929e-05 
-1.02434712425875 
-0.1568634131525022 
-0.01192627730766402 
0.06507793632842948 
0.03848116018476906 
0.02598649294301532 
-0.001975951129757209 
0.1197286988098907 
0.1199132233777122 
0.2923544088479041 
0.001125799658381577 
0.01248853027720597 
0.01260725110308315 
0.1859604048495887 
0.03523025745139412 
-0.03565059516465061 
0.191579897085765 
0.03223558581665716 
0.03041024695347919 
0.2456801674202878 
0.1427519079757577 
-0.5186023039758649 
0.009974759929393347 
0.05719090049451275 
-0.4514123042353509 
0.04294560917438855 
0.07666899282709516 
0.2785869934246489 
0.1573216542877794 
0.04963200391005958 
-0.4312196249358993 
0.1571679129885453 
0.143796035623331 
-0.2833000916493146 
0.2827632846055244 
0.2969034761623178 
0.1941206243316928 
-0.1548200403953034 
0.009585306509355329 
-0.5519543789405847 
0.0571800775265064 
0.009585306509355329 
0.3272418559971997 
0.1796941699433805 
-0.2007776503734645 
-0.4155597882241312 
0.002037441967806893 
0.1698154502910494 
0.003411124713638316 
0.05290922635206656 
-4.468448168569104e-05 
0.4735214540843262 
0.1122253969743971 
0.09704098029971485 
0.3180837278161183 
-0.3537185946136589 
0.5533372905745914 
0.05283746145649325 
0.1055689768940214 
0.2717078102950207 
0.3556613253343883 
0.002728977766143955 
0.002125376108410157 
0.2835888563204987 
0.4103269412603754 
-0.2894739356439137 
-0.2757146535756545 
0.04433044707583086 
-0.03530589833775422 
0.274018396115949 
-0.4110436966883979 
0.1900817748241476 
0.00291241208828722 
0.2601683531951977 
0.03156909470556105 
0.01338653368762057 
-0.0546920548533156 
0.1617187705182863 
0.0001822352136591555 
0.09944105281952484 
0.07682101569938718 
0.001993294244461059 
0.07423277978865157 
0.09077438857341864 
-0.4252702545536121 
0.004542300586071932 
0.007740883559214416 
0.004542300586071932 
0.004542300586071932 
0.004542300586071932 
0.004542300586071932 
0.004542300586071932 
0.004542300586071932 
0.004542300586071932 
0.01121997206622104 
0.004542300586071932 
0.004542300586071932 
0.1740659583785994 
0.1352181439954901 
0.7040429661671255 
0.01120100124025271 
0.0009618323575729098 
0.0009618323575729098 
0.1920136116223022 
0.0009618323575729098 
0.1360165277939699 
-0.1043604007576341 
0.04433044707583086 
-0.2958660864011052 
0.04553177530343305 
0.0301500679747558 
0.02751221284173404 
-0.01440531005279255 
-0.01433303091319243 
-0.01433303091319243 
-0.01433303091319243 
-0.01131275168871092 
-0.01433303091319243 
-0.2362413501173209 
0.2409611699630394 
0.01667100585808673 
0.01667100585808673 
0.01667100585808673 
0.01667100585808673 
0.04433044707583086 
-0.5242171204122337 
0.005065205839917906 
0.1500675819939231 
0.01788941609672035 
-0.08238747015854768 
0.1548869086570178 
0.2054533716424607 
0.06755399338005209 
0.002331953681165988 
0.136239456198277 
0.2157167011505102 
0.285433508336453 
0.04650390715642173 
0.002727327307901851 
-0.06059527363337927 
0.144121263053642 
0.1110694065575909 
0.005419721749035481 
0.04081716530671844 
0.05485320753686831 
-0.0003704219514353837 
3.09345660639386e-06 
0.2444925744201027 
0.009731289712649199 
0.2726927167113664 
0.1098675968404241 
0.01527563004759174 
0.06560974241579243 
0.1527987104242068 
0.0814671033739903 
0.002252242636160086 
0.05032915355933815 
0.06560469874838193 
0.1139738680098263 
-0.2638147455531226 
0.0108837031729032 
0.5201778076908746 
0.5297099889322897 
-1.067602915092375 
0.0461419294991148 
0.1144031315229475 
0.005179619278766767 
-0.168027239976532 
0.1037344656001609 
0.02253305350138327 
0.0002357630327587174 
0.0002357630327587174 
-0.4344285352878384 
0.2205290496201182 
0.3825516862120316 
0.2244415815789751 
0.2055029352907943 
0.00411567073804423 
0.05237078080748808 
-0.422696954401625 
0.2457878484957916 
-0.4708599863218 
0.001215345450730737 
0.09147885038731952 
0.3395546473004272 
0.0004130507785596655 
0.1023619463121766 
0.09270900255314996 
0.04768349101054674 
-0.5852890525541564 
-0.007840073594419687 
0.10657451664721 
0.6112778938742595 
0.0547569456246535 
0.007094289976201623 
0.1353566529146014 
0.3572887256226134 
0.0007125429924459657 
-0.02197021152032636 
0.1534463379996723 
0.1034318484953231 
0.06566611992456037 
0.1450387519278194 
0.0352091078036512 
0.04433044707583086 
0.01516845528445326 
0.2026379182586555 
0.09375990178271566 
-0.1651639812481257 
0.07513260286355745 
-0.1759053678187177 
-0.0001640515930121842 
0.1158196186880297 
-0.3787760740927708 
-0.9126144148433648 
0.3283018548364654 
0.1494333388390923 
0.1624609644717147 
0.1344424669842791 
0.02136540578039197 
0.005868886717065256 
0.001998511391969519 
0.002632010181678364 
0.001998511391969519 
0.001998511391969519 
0.02707490791215284 
0.3407311999476813 
-0.06808359735509509 
0.003204728917256608 
0.1399749849989826 
0.3662622840250507 
0.3636198627289813 
0.1574819914697871 
0.1023662850160748 
0.3753449838623125 
0.000541452658297845 
0.002107015423714515 
0.000541452658297845 
0.000541452658297845 
0.003018607743705011 
-0.009849124068019549 
0.001540406577704042 
0.001540406577704042 
0.001540406577704042 
0.001540406577704042 
0.1356067926030253 
0.1744712123432553 
0.1734718745723828 
-0.602821379241307 
0.1795686356448596 
-0.07264409506980965 
0.1298663530062775 
0.04801357621129433 
0.04437443609286952 
0.04437443609286952 
0.04437443609286952 
0.02167380235662143 
0.04691000063021745 
0.157413040491279 
0.0001023792122467551 
0.0001023792122467551 
0.001515882478681821 
0.244628900237381 
-0.06332489609727827 
0.001976042697020097 
0.009329322724239643 
0.1946070263944454 
0.113405993286071 
0.1877995521825085 
0.07841708136513932 
0.3391737791521109 
0.3692094569215785 
-0.9192795837876343 
0.05536608839992967 
0.1122465022723984 
0.1917481853372543 
0.00190365821873966 
0.2848862995011309 
0.185181061502513 
0.190744251627413 
0.1369540863089343 
0.08582582719773896 
-0.1608855889340866 
-0.7390711622033428 
0.5406263831712185 
0.003512237869475078 
0.1966990896374677 
0.04073221585310913 
0.0001769303752350616 
0.06142008273398426 
0.1673632880062294 
0.07901238038116359 
0.0001439570622739361 
0.0001439570622739361 
0.2265027360217442 
0.01414994069324976 
-0.1178467956435391 
0.2817757544039762 
0.5357269382080245 
0.4399472998520812 
-0.000304701964101047 
-0.0002190754947983374 
0.0002927445451940891 
0.2330484559729367 
0.01027402475060444 
0.08097222367672371 
0.3060786032414164 
0.1907277306193316 
-0.1113158963277129 
-0.7747398685855378 
0.02965690140163953 
-0.07411028966849251 
0.3524576647471913 
-0.9741082378294813 
0.05013145142605544 
0.08628956110148095 
0.2638101978328992 
0.1550271492647383 
0.2865185144266186 
0.0615332484549557 
0.1770403421111588 
-0.2615108956091334 
-0.0002186129065557522 
0.06712076160004954 
-0.3329870562622498 
-0.5480197018021378 
0.08193609444898635 
0.2377249870244501 
0.06050260710087071 
0.075173215113943 
0.2828086017788348 
0.01275527137506536 
0.1322241607621005 
0.2716637346717514 
0.03391391451263854 
-0.2627615158131176 
-0.0002190543793223419 
0.1063772614979208 
0.1035103868581687 
0.1062696780123404 
0.08474055746849987 
-0.03833662216878105 
-0.2692429008546063 
0.0003125729161027154 
0.1296472724310153 
0.04568648964866565 
0.0471506647519677 
0.02732763395999156 
0.04977078635157251 
0.5142837728472281 
0.0003248480957020397 
0.1555376183020245 
0.1352642618213907 
0.02577205052630222 
0.03262733082610094 
0.0725277042227792 
0.0725277042227792 
0.00211696388127393 
0.3835121299419122 
0.0005216559265741337 
0.0005216559265741337 
0.0005216559265741337 
0.0005216559265741337 
0.05404894838798242 
0.01819864678719225 
0.03137930259917812 
0.08686932327567384 
-0.1782405840367134 
-0.1321109632900879 
-0.30375164014754 
0.01387553975665635 
0.343198526167558 
0.004046956900573074 
-0.01453734870797032 
0.00648746376978954 
0.00648746376978954 
0.00648746376978954 
0.00648746376978954 
0.00648746376978954 
0.00648746376978954 
0.00648746376978954 
0.00648746376978954 
0.00648746376978954 
0.00648746376978954 
0.04499679710403314 
0.04482794346892069 
-0.5543732811316344 
0.4210759295876822 
0.0005726972386965324 
0.509008570718205 
0.1423796325527731 
-0.1586365172329362 
0.1554297220539118 
0.308688486243388 
0.1914487132185652 
-0.2947357132708112 
-0.3425907422226105 
0.1022177750337904 
0.08071373315667502 
0.01901377144823796 
0.05930439289068709 
0.1786924636624957 
0.1847693704666513 
-0.006760839404846656 
0.1417815674211359 
0.03963538172743739 
0.0007090918941719035 
0.0007090918941719035 
0.2081688512758038 
0.09411050270212866 
0.01937954608623916 
0.1134228354735096 
0.001418298216068853 
0.2292971638961507 
0.0009649996031885354 
0.1278148870655776 
0.001679876231036228 
0.007724275992184591 
0.01167991268446785 
0.4309364069753813 
0.04473609428024496 
0.07636633691051482 
0.1043463679038918 
0.00133593426970688 
0.00133593426970688 
0.1329922909040053 
0.1333150101577726 
0.1333150101577726 
0.04433044707583086 
0.1212836678008899 
-0.4651365974297281 
0.1212836678008899 
0.1448927427718496 
0.04861569750296611 
0.07214937549140903 
0.0146443545180993 
0.07561261981559061 
0.04276397161034832 
0.146611940802314 
0.1462152400930495 
0.03681671819598591 
0.01324327776588651 
0.3077534024372213 
0.2649263610371415 
-0.0002055191126220566 
0.02094438550174929 
0.02006351498810581 
0.02006351498810581 
0.004343769376932003 
0.2718921187205141 
0.01643878254989357 
0.006657851049237632 
-0.008474563626974071 
0.0004031895360809644 
0.0004031895360809644 
0.0004031895360809644 
0.5466367835879146 
0.0004031895360809644 
0.0004031895360809644 
0.0004031895360809644 
0.0004031895360809644 
0.0004031895360809644 
0.3676923505778202 
-0.9464447292262176 
-0.2238336989329345 
0.04935829092632835 
-0.8208747113217112 
0.2046356366992082 
0.2333726131976912 
0.04433044707583086 
0.002756248799375152 
0.1866146344394003 
0.1437587973222932 
0.2364624098734605 
0.05685914445679211 
0.00447443429651683 
0.001793433781140023 
0.001793433781140023 
0.2548712790885957 
0.06603423558121189 
0.4016852239858916 
0.228566971989109 
0.04188586189246651 
0.0939637378307792 
0.2907874508502361 
-0.5172056140763692 
0.09274974165607218 
0.05347129643060256 
-0.2477016729922464 
0.4540521658200223 
-0.4550576139970747 
-0.8866071034007004 
0.06742448755256157 
0.2021502471988549 
-0.4202211441614334 
-0.09802154440953401 
-0.6771515778410092 
-0.2795264760284868 
-0.08966985167498491 
0.2567368907186902 
0.04012447488086844 
0.411733472068238 
0.328197527034378 
0.02177582257141209 
0.06113032554580781 
-0.001190123235004508 
0.1209073433049034 
0.05480273450798753 
0.0003512800422628374 
-0.4814949165472283 
0.08287722815395278 
0.2073199195026543 
0.09366659032982851 
0.1450701880295278 
0.002060658354422333 
0.1056589725486175 
0.01245098223537389 
0.03358080834323492 
-0.1346707318229204 
-0.8197188427971698 
0.1175778102108003 
-0.2862772058300618 
-0.4624474202448626 
-0.6553621712541803 
-0.5472918138195008 
0.1278904980890746 
0.0110303481654352 
0.00359801728485023 
0.002442661134800487 
0.002442661134800487 
0.1251316024516709 
0.1775816420167589 
0.003027975985117948 
0.6865810046278511 
0.3123835014742534 
0.007007908742334748 
-0.1371787947578932 
0.09743487746571182 
-0.582162814476282 
0.04640632967179508 
-0.7732111699992442 
0.0549898857513127 
-4.419172950570097e-05 
-0.200330979555416 
0.2878222179881004 
0.009114079094353834 
0.2502240959891865 
-0.1771095017718783 
0.6729201321984286 
0.006872767636578321 
0.006872767636578321 
0.001494736523920715 
0.138327432682014 
-0.1269306657220439 
0.00336400469998891 
0.09642959218108776 
0.07112047868082733 
0.1378952962997652 
0.07208809959986795 
0.08640950034114891 
0.1489414026356208 
0.01114826057134929 
0.2848882101481389 
0.02857696972145735 
0.006991926377441702 
-0.001684721510773976 
0.001824170470574458 
0.0009288414338523259 
0.001424476519178883 
0.04174642719322062 
0.05752260498300066 
-0.6288955501172071 
0.2483978296541303 
0.04433044707583086 
0.0009902070655395012 
0.2546290556159869 
0.1306297830705392 
0.08218742787428072 
0.01980694982673332 
0.244096769319088 
0.153856552575065 
0.04433044707583086 
0.212593817810405 
0.01864917653578551 
-0.3748176380816026 
0.002664633646897606 
0.002017015413301133 
-0.2285105426639324 
0.314433723276015 
0.1817080484909654 
0.04421709356968914 
-0.2797841398089649 
0.007547814076488198 
0.007547814076488198 
0.2363727697824021 
0.0006950255789447955 
0.0006950255789447955 
0.03857064822232899 
0.03857064822232899 
0.03857064822232899 
-1.158797400989604 
0.2635163557376289 
0.05752260498300066 
0.255268207085831 
0.08353861728498836 
0.08353861728498836 
0.3511992012486559 
0.01403336470197323 
0.07516250800309643 
-0.04231421742589195 
0.2744203001161166 
0.004586068075694586 
0.06707629692512096 
0.1012145442270076 
0.1206578321030386 
0.05446902527822119 
0.2260445918793516 
-0.262107066817431 
0.2727265760603541 
0.2727265760603541 
0.4507162467018415 
0.0007089807093260542 
0.7328687444822117 
-0.5885791363398571 
-0.4754638350792371 
0.0007089807093260542 
0.1282149050574327 
0.1358459249133876 
0.003442521396360145 
0.003442521396360145 
0.3006975543803828 
0.06048327824358854 
0.0003202135350610997 
0.0003202135350610997 
0.0003202135350610997 
0.03646570473615205 
0.08514527347689463 
0.4032887393834792 
0.1557487042976745 
-0.1345906915499878 
0.1284322959059754 
0.05661783040814868 
0.1390570193633616 
0.04317970847958339 
0.09304495637057257 
-0.1740518803778226 
0.4648954169529593 
0.04467515811847341 
0.0008170687789378962 
0.0008170687789378962 
0.1622822373489668 
-0.0008224332043264608 
0.001914407908431478 
0.0008170687789378962 
-0.4931246107429158 
0.0006856333502547468 
0.4707194003481766 
-0.4871009572546908 
0.002713050393044893 
9.396385197970848e-05 
0.0001687699013314045 
0.0003979246805044397 
0.07057300743945238 
0.08501001450294392 
0.2024591390502646 
0.0633577053518727 
0.05824591048856124 
0.05824591048856124 
0.2723057619278074 
0.05824591048856124 
0.05824591048856124 
0.2054643743787161 
0.05824591048856124 
0.1005564884042934 
0.09067054215706345 
0.1888358774524703 
0.08930924865235397 
-0.03066546720670758 
-0.5905799376081268 
0.05332446987297636 
0.0576504964938424 
-5.22166428987414e-05 
-5.22166428987414e-05 
0.06026464859161906 
0.00461514482272067 
-0.0001742987544675721 
0.1481317737277174 
0.02876130249150033 
0.02876130249150033 
0.02859050563772821 
0.0007336074070045391 
-0.05384890591111105 
0.102850256762198 
0.08731454176281829 
0.2507494325375522 
0.09073217356230108 
0.09958805631468499 
0.3445811758537869 
-0.4486610777657171 
0.2045483681525293 
-0.3331702833715973 
0.1401742637457936 
0.006529242498794693 
0.1200418308880465 
0.008689202825020703 
-0.2705761298051205 
0.06181016577585394 
-0.0001731787150403154 
-0.008204984982182636 
0.04169113370441056 
0.04433044707583086 
0.06333148177640537 
0.05794738398440152 
0.008710507216536462 
-0.0006203395141982478 
0.006532522343015242 
0.03795258716629527 
0.2546583614249544 
0.01934930821446806 
0.002542437716457761 
0.03514651236577582 
0.1776716860039882 
0.002542437716457761 
0.08354217076667539 
-0.281804861299523 
-0.2286286185308536 
-0.685993216399406 
0.09531256481503554 
-0.3148322339332802 
0.07693278919457275 
-0.001125718831286471 
-0.002356689275899966 
0.1193391498334192 
-0.0001861523784642722 
-0.00664191413838594 
-0.2854533399381475 
0.0370725229806306 
-0.000187648789018532 
-0.000187648789018532 
0.330842626336901 
-0.1593715943244474 
0.0006752846271666676 
0.3089801250368758 
-0.1344197971651745 
0.01649734535484948 
0.01649734535484948 
0.01649734535484948 
0.01649734535484948 
0.1267964608814198 
0.0001358237462469875 
-0.5028103589132713 
0.02391942599441126 
0.3137882909657468 
0.4291778126745235 
-0.1611640593625113 
0.137649591378667 
0.4084631889773657 
-8.449392843953763e-06 
0.01601745877046816 
-0.0007263521672307255 
0.3911360165822691 
0.1048794054355144 
0.09327014206829576 
0.09327014206829576 
-0.3270898149747831 
0.09327014206829576 
-0.6463592201327886 
0.06731840467210468 
0.06731840467210468 
0.129198414873906 
0.2609908084668432 
0.08096305538008146 
0.002595194305269308 
-0.08119655700084114 
0.0004006346571395903 
0.1243364240569119 
-0.0005844088203527747 
-0.008636885644321071 
-0.1110654712519854 
0.2828409165154434 
-0.5552296437870412 
-0.5552296437870412 
-0.5392071969982566 
0.006807258591728054 
-0.2643581730180786 
0.005884682166029887 
0.1388235450156408 
0.006803902194651117 
0.06664395900225549 
0.05642315054602604 
0.07141237018841777 
0.1813609554033138 
0.158640205865551 
0.1184800202172903 
0.3127107878573263 
-0.3393654661595125 
0.1104622327879071 
-0.1465875057619318 
0.0543558634344389 
0.2122695811435278 
0.1533511878501938 
-0.563427160190098 
0.001049142332283857 
0.1850279303340614 
-4.51143083149645e-05 
0.2787694800356036 
0.1270900249361464 
0.002137914930894697 
0.02002859867544476 
-0.367102298876737 
0.1310469267988661 
0.001673801740125783 
0.01070143129525965 
0.01070143129525965 
0.01070143129525965 
0.01070143129525965 
0.01070143129525965 
0.01070143129525965 
0.06122891092207849 
0.1796648352860088 
0.007832633784108577 
0.05501832185157223 
0.1648284764652372 
-0.0009593509661400157 
-0.0009593509661400157 
-0.0001060757532376558 
-0.0001060757532376558 
0.2123736691489202 
0.2111280017984546 
-0.2129561154956545 
-0.3065234502856073 
0.0008089113696474477 
0.001448679613742855 
0.14352492791384 
0.005910974765269475 
0.004954240991426084 
0.001339521131006783 
0.2053925801624522 
0.05179348039483958 
-0.02931245580156042 
0.231756813912814 
0.2919945262590341 
-0.2367456302448137 
0.04433044707583086 
-0.1622030766503875 
0.06005994384933088 
0.0351320912786796 
0.01622435308790255 
0.0007615139956284557 
0.0007615139956284557 
0.2277841694467702 
0.164758292481207 
-0.0002253885633971814 
0.09091360110277599 
0.08154917906922395 
0.05548544670702324 
0.1243047930571498 
0.1880038414104783 
0.001823515122889117 
0.03831057173651781 
0.01792271310498282 
0.04168766713394139 
0.1424562727827246 
0.4576685901823874 
0.001329252294186929 
0.001329252294186929 
0.01419483876315142 
0.1047101397148375 
0.03305367333999348 
0.01613964501654091 
0.01946080912274929 
0.01283966581484156 
0.01283966581484156 
-0.8897091701215616 
0.199904511399383 
0.005708163236194538 
0.1085253082704319 
0.1278215184503769 
0.1446091215724253 
0.2430881203753391 
-0.2283153414911991 
0.0003150598095271558 
0.3270479675741004 
0.1438577885018495 
0.003169702313823302 
0.08362353494354459 
0.03531303088222358 
0.03531303088222358 
0.02766961257850744 
0.5149887302278751 
0.007918937820214847 
0.4842869857573555 
0.02120003551447042 
0.002479981573173457 
0.02120003551447042 
0.4117423617796802 
0.2950895017407527 
0.2486621271805178 
0.0004736623973825815 
-0.4376744984466542 
0.001221100933976571 
0.08006119704977786 
0.02876130249150033 
0.02876130249150033 
-0.3148870263952211 
0.05586618374878802 
0.05586618374878802 
0.3178936887672399 
-0.4132177418004744 
0.006811453274562378 
0.2683090319009438 
0.04437971291628613 
0.0001967877186016352 
0.3241313263685238 
0.002092324684214972 
0.01629551272465587 
0.0178846829034825 
0.009080724152656381 
0.009080724152656381 
0.009993567544398405 
0.009080724152656381 
0.009080724152656381 
0.009080724152656381 
0.009080724152656381 
0.2201628489725883 
0.1635634601697151 
0.0008460579944302505 
0.01987360130649058 
0.439323909630814 
0.3090016739596661 
0.1032766382900061 
-0.4287963736309586 
0.2187256422979997 
0.2187256422979997 
-0.8386004726334053 
0.2198357167011835 
0.2187256422979997 
-0.9303280869086272 
-0.1800498587336207 
0.3097756383443236 
0.1044835612309509 
0.001945980621564305 
0.06785994104633888 
0.02344644631156969 
0.01212904034867835 
0.002608343846390975 
0.002458265904142371 
-0.04467369914527106 
0.03450544975829096 
-0.005044618316377633 
0.1568340272337009 
0.2290227958904782 
0.2511063129230851 
-0.0005027948001343939 
0.4200977165052178 
0.0002031634621832374 
0.0002031634621832374 
0.0002031634621832374 
0.0002031634621832374 
0.001663977967648123 
0.002501643971440803 
-0.04285785313492401 
0.000739336514309763 
0.0001012343117984649 
0.4090344435228941 
0.0004889170582757805 
0.1623069176532313 
0.4970046322652982 
0.0001311332396838109 
-0.1191378163940081 
0.0004947706686549984 
0.0004947706686549984 
0.0004947706686549984 
0.0004947706686549984 
0.0004947706686549984 
0.0004947706686549984 
0.0004947706686549984 
0.0004947706686549984 
0.001451504442498388 
0.003043408514180653 
0.09675258596138198 
0.09675258596138198 
0.01990984712916983 
0.06106098238575156 
-1.695947163200354 
0.07465451894255551 
0.07391528693596937 
0.08903862258440827 
0.164116426398206 
0.02432988892636385 
0.1405420107104638 
-0.005052586225661532 
0.1561474868268217 
0.246129107286462 
-0.2665155704926528 
0.0187310879033848 
0.08639353469628863 
-0.2832832592284699 
0.01600904206075621 
-0.3341025553580305 
0.004019579724109526 
0.1749312145604901 
0.132085384546248 
0.0003094410390693127 
0.2412867285614981 
0.01367995342323693 
0.01329678636509322 
0.3012936007584884 
0.1546694423612772 
0.0005699893755189013 
0.001911817915018331 
0.002047908398147869 
0.1118071226708283 
0.1118071226708283 
0.1164801170582323 
0.04307578853223025 
0.001117369186162887 
0.001920579109435013 
0.1147074792454113 
0.08685568220267204 
0.01924738998782509 
-0.1751559639172744 
0.03115291084849721 
0.02195582101483249 
-0.2534570249068911 
0.1619366331567417 
0.002328085739604728 
0.1372013155919674 
-0.1350550429073908 
-0.3319916497864589 
-0.6922128846324401 
0.144480380686571 
0.1889889708913836 
0.003248077437487277 
0.003248077437487277 
0.00527212024116821 
0.003248077437487277 
0.005511962277618514 
-0.2804767097680461 
0.02259525632912989 
0.2536685055031218 
0.2433673205032523 
0.002838091018586786 
0.1685696211238925 
0.0001030111550506313 
0.0001030111550506313 
0.0001030111550506313 
0.0001030111550506313 
0.0001030111550506313 
0.01084198763424751 
0.0003738055654438997 
0.1795746612024913 
0.001594630274929008 
-0.191568760712557 
0.01189580240207162 
0.4999829431763753 
0.2811989401528873 
0.07953603745597207 
0.09616262825553767 
0.03316046276506773 
0.008605527391462295 
0.08925316882996437 
4.064067238115211e-05 
0.08812626936082112 
0.08262914788894059 
-0.5063538465366932 
0.194078981996516 
0.194078981996516 
0.194078981996516 
0.001735286801545353 
0.0008830926779380922 
0.1264486712813638 
0.0003567217490218028 
0.08640329222586403 
0.06591880380666577 
0.2516664279849404 
-0.5667764896742872 
0.02440318160839073 
0.1229615355966599 
0.006222567670313558 
0.006222567670313558 
-0.3765885507307556 
-0.1049985607919164 
0.0004993419771369701 
0.0004993419771369701 
0.0004993419771369701 
0.0004993419771369701 
0.1152341085622732 
0.09844012550159832 
0.004825456584771045 
0.0007019080996912568 
0.009127895403839837 
0.1485069890327596 
0.1485069890327596 
0.1485069890327596 
0.1485069890327596 
-0.02462980480916784 
0.150397430192009 
-0.5696025362672206 
0.0005088911191038898 
0.2297684220748059 
0.002515536158546788 
0.001478201166000968 
0.001478201166000968 
-0.143305298990589 
0.160631615608851 
0.2980183198407925 
0.001393961206039653 
-0.2267327944242995 
0.01690000870642448 
0.01532558711768645 
0.01532558711768645 
0.01532558711768645 
0.04381290320499914 
0.02617908839392744 
-0.1954840697547034 
0.396795174679774 
0.2908477586796862 
0.197572096819049 
0.02429019920687647 
0.03514988930004349 
-0.0001244275742879003 
-0.0001244275742879003 
0.0004630726509338599 
0.00832641617511988 
0.003280948031016159 
0.01140268690422744 
0.001730425792341871 
0.001730425792341871 
0.001730425792341871 
-0.6837736086090817 
0.0001943966204304608 
0.07186711841308732 
0.07186711841308732 
0.07186711841308732 
0.07186711841308732 
0.06682045868643251 
0.038382715866277 
-0.3228651835894147 
0.038382715866277 
0.038382715866277 
0.038382715866277 
-1.083039961867266 
-0.4295539874892446 
0.2386407906440304 
-0.1026353057281192 
-0.3072931657469355 
-0.2313194218729381 
-0.5953259127546261 
0.2106550033688784 
-0.2773298216932292 
0.001103842212956492 
0.05763253517716035 
0.001103842212956492 
0.001103842212956492 
0.001103842212956492 
0.2257058265891519 
-0.3201759252645407 
-0.4048145088564049 
0.1651114162858467 
0.1756176984619968 
0.2345823128712128 
0.01881938701447027 
0.1085000096333835 
0.06490438526801832 
0.04433044707583086 
0.04617219670524171 
0.04672543361086001 
0.0448053973980015 
0.2094987537289062 
-0.3749823974712411 
-0.4178831182521235 
-0.0005491636144222208 
0.3751317574612645 
0.2579055366726408 
0.05630856382369521 
0.1660004388158217 
0.05464101891019126 
0.05464101891019126 
0.2761510287601636 
0.1708223097597455 
0.04433044707583086 
0.02006914069055902 
0.06350038867943934 
-0.3207119674840586 
0.0009287426109978269 
0.0009287426109978269 
0.007748186122508879 
0.005072262688422782 
0.03286849496281188 
0.03279796503454212 
0.03279796503454212 
0.03279796503454212 
0.0007574614219532279 
0.09772484621729433 
0.1040778184879282 
0.04601652584805159 
0.0005427564096382462 
0.0005427564096382462 
-0.6516585440281422 
0.01329076543336635 
0.1556517055625556 
0.006196143410030137 
0.04619215140199145 
0.08241758856138816 
0.0006011825351408362 
0.0001987012714977934 
0.0001987012714977934 
0.1400964373089669 
0.009769104568114775 
0.0003520122892369619 
0.004249150017494173 
0.004363667525220658 
-0.01605424635272035 
-0.01605424635272035 
0.1995831061913382 
-0.3102951336300496 
0.004862270179506595 
-0.12600647052543 
0.3815912097735094 
0.2720451633914773 
0.06735764642262287 
0.06735764642262287 
0.07337650348250237 
0.4598835251354591 
0.3641279674874157 
0.00908024565702705 
0.00908024565702705 
-0.3978149164571022 
0.141499362865031 
0.1258434531100691 
0.02920599301964614 
0.0008461409380794284 
0.0008461409380794284 
0.001134977008345723 
0.07012141518120467 
0.008513926080961945 
0.04112476083634736 
0.2776855941253095 
0.004387666741340865 
0.08632218502368273 
-0.1714160168513082 
0.06465393112577406 
-0.2236323001503721 
0.02125466150041534 
0.2662193517050284 
0.0001637832913830412 
0.001654298977727493 
7.480604935169511e-05 
0.002116912930523597 
0.001356914325376651 
-0.1231736469869304 
0.1079644794499434 
0.1221644342488639 
-0.2596015024133643 
0.2032509769934108 
-1.638543814260008e-05 
-0.3360811734579335 
-1.638543814260008e-05 
-1.140809557147866 
0.1756608796323054 
-0.3620895795255462 
-0.3681024185869826 
-0.1919549441498843 
0.03781945441840601 
0.1974121942928161 
-0.1094077040296366 
0.2329199332756995 
0.1318823611530751 
0.03857285426011459 
0.02663547545250131 
0.02663547545250131 
0.02663547545250131 
0.0274730963051112 
0.02663547545250131 
0.06734769565899079 
0.02663547545250131 
0.02092278655475601 
0.3795132147756952 
0.02821494961499025 
-0.0005384358124802841 
0.04433044707583086 
0.008063592104569129 
0.2231274062565938 
0.4223124090015425 
0.0004624141500970351 
0.06702246186399774 
0.06702246186399774 
0.0007249161540803582 
0.0007249161540803582 
0.0007249161540803582 
0.0007249161540803582 
0.1015088397914446 
0.0426324835525853 
0.086867688672668 
0.01998450429497004 
-0.1772603820873686 
0.2656752191706248 
-0.1876907899219237 
0.4766445331048307 
0.1432890613399754 
0.09880798070800277 
-0.2183817177434862 
0.09880798070800277 
0.04641312087165929 
0.1358906515770968 
-0.001430423364478474 
0.07007560516812847 
0.1936829080188927 
0.1492144995102581 
0.1492144995102581 
0.1492144995102581 
0.2185355417520401 
0.0003270201169312334 
0.1326813835995096 
0.005980438364737561 
0.006813862156610824 
0.009494367491849287 
0.009494367491849287 
0.009494367491849287 
0.009494367491849287 
0.009494367491849287 
0.5385239525004147 
0.007875924168045681 
0.007875924168045681 
0.007875924168045681 
0.007875924168045681 
0.007875924168045681 
0.007875924168045681 
0.0007648822050378148 
0.1951154164455677 
0.01284081764929067 
0.1536733954654278 
0.1435202984728102 
0.1467249885416727 
0.002352520456940748 
0.02758434885681187 
0.002352520456940748 
0.00802987900828191 
0.2704492545867871 
0.05058063508057727 
0.4170047106556742 
0.1099900444957838 
0.005001299287613476 
0.08004916315030564 
0.242437589392077 
0.006031204485776053 
0.006031204485776053 
0.03053217071499722 
0.03053217071499722 
0.0306594446694653 
0.03053217071499722 
0.03876837058419189 
0.01538270025708058 
0.01496842308235348 
0.139974740427546 
0.1419137354408048 
0.1410112567014122 
0.006075983922424797 
-0.7983838556392727 
0.04400958287787252 
0.09917289737512558 
0.008277000685692006 
0.3221315191426717 
0.09765374566508798 
0.04310269832478617 
0.02953618009371138 
-0.09813295778982067 
0.4624632686563062 
0.0006435891749577337 
0.0006435891749577337 
0.0005742047874221271 
0.2338181034901511 
0.09774788820138179 
0.08160087100094264 
0.1784669174305597 
0.1784669174305597 
0.1784669174305597 
0.1668931256687567 
0.0181676052409554 
0.0007698812897879379 
0.0007698812897879379 
0.0007698812897879379 
0.0007698812897879379 
0.005992814334639461 
0.0006664118155611195 
0.0003267089487580319 
-0.0003735990036203207 
-0.2798150495859888 
0.043373316671838 
0.08326269719755409 
0.005263494994705064 
-0.3248090675675711 
0.00137764845893443 
0.09129461866949007 
0.0008427860976570429 
0.0136061564430597 
0.0004821110332296029 
0.0004821110332296029 
0.0004821110332296029 
0.08825142003267833 
0.004554249312006773 
0.001065717208222851 
0.03870371182918087 
-0.001621873899093321 
0.0003623629499919776 
0.0003623629499919776 
0.007823767608640373 
0.0003623629499919776 
0.1206414204522553 
0.004723114016722845 
0.2132365290153806 
0.1025324951165285 
0.2952294253531063 
0.000364367582425883 
0.06303742153475601 
0.06303742153475601 
0.0565452916382761 
0.1488877686780117 
-0.5022132599692679 
0.1202186570648573 
0.1202186570648573 
0.1202186570648573 
0.1202186570648573 
0.1202186570648573 
0.04295761875167733 
0.02872582589280249 
0.05310733943325172 
0.004164668388944695 
0.002147489353592017 
0.0003577735167637447 
0.05138399626918268 
0.001873881050227537 
0.1322830647642262 
0.001873881050227537 
0.1099723666621307 
0.1099723666621307 
0.09186366082991504 
-0.881623319541551 
0.0909103549784917 
-0.638958932204601 
0.004077945011555588 
0.00425126684685735 
0.05054612580957112 
0.2964651170123054 
0.2284072899627206 
0.1635481492874145 
0.008083929181041897 
0.008083929181041897 
0.008083929181041897 
0.008083929181041897 
0.008083929181041897 
0.008083929181041897 
0.008083929181041897 
0.008083929181041897 
0.1108919609033484 
0.004382500465334927 
0.212580004322009 
0.175739318913268 
0.1087535975440769 
0.008322570925673253 
0.004164154814309118 
0.004737101035119192 
0.004164154814309118 
0.07184296701447751 
0.1853322682009722 
0.04433044707583086 
0.001060697575216494 
0.5377199470610343 
0.001060697575216494 
0.001060697575216494 
0.001060697575216494 
0.001060697575216494 
0.001060697575216494 
-0.1243259985555574 
0.06887028667924139 
0.06724037985118975 
0.03071524306310658 
0.2060151302385317 
-1.019823352305096 
0.04433044707583086 
0.03484580610231135 
0.09954180354360047 
0.03821949357532592 
0.1531476203238664 
0.08636947555343864 
0.02876130249150033 
0.02876130249150033 
-0.3251191118130773 
0.0003783926044222606 
0.0007444982930612533 
0.3509648294896142 
0.1382279356947764 
0.001050819593428891 
0.0002172101741939615 
0.2876219353867839 
0.2889780416583023 
0.001989992105150136 
0.0002776036535158335 
0.0002776036535158335 
0.01187219117142218 
0.1174577941350391 
0.11740686217773 
-0.6121814761275737 
0.003811026771400871 
0.1375705528480205 
0.01177326168326815 
0.0025472956969426 
0.3133216259104236 
0.0608627575277389 
0.1424562727827246 
0.2716122788229067 
0.3736887558556181 
0.02569291059730559 
0.000558510706055386 
0.001101159994386894 
0.001101159994386894 
-0.02135791063521747 
0.1013289805015678 
0.0669242121420747 
-0.0009415614257567356 
-0.0009415614257567356 
0.04781316696651817 
0.00281753627517887 
-0.9516055382276521 
0.1863031320248401 
0.004257250324927029 
0.002233207521246095 
0.002233207521246095 
0.2078248641488272 
0.08025239247009804 
0.05386484911232996 
0.1803856502807022 
0.1792276360662244 
0.1381419587818679 
0.001007684386863366 
0.3372989529721243 
-0.5779287040669185 
0.3164393722916867 
0.0361358548226339 
0.2275034763231112 
0.09850835064194975 
-0.2095972807604837 
0.09850835064194975 
0.005574993058983933 
0.001249960753408051 
0.001249960753408051 
0.01546273843790033 
0.01693037817798275 
0.1443250280265212 
0.04433044707583086 
0.04433044707583086 
0.001579492928375796 
0.001579492928375796 
0.04228990149247393 
0.0004508527590282627 
0.07923535067055669 
0.08009480103917865 
0.004771265623818894 
0.08014901951832165 
0.03468427648890619 
0.03468427648890619 
0.05028742331706149 
-0.0001233914563828459 
0.1021211781630209 
0.006720459560985102 
0.009555637734834923 
0.004483792875302924 
0.004483792875302924 
0.04433044707583086 
0.05681205824214172 
0.0002224090436234351 
0.01836660747546333 
-0.7543730311805463 
0.1512772609097977 
0.005862875139734633 
0.004036922083475385 
0.2338423935184697 
-0.293569192457559 
0.04426482906171574 
0.1239683988004434 
-0.6450978842125196 
0.003414634482722034 
0.1119738534786032 
0.1752087775247722 
0.1235929268475112 
0.0663411046069631 
0.06990720067829509 
0.04934685752874775 
-0.2935007523574611 
-0.1204252185804768 
0.04433044707583086 
0.0317296007273325 
0.2370846041494711 
0.0709056489131013 
0.04839302073506652 
0.0005875002252217605 
0.0462513699622497 
0.3261566858014958 
0.000689641655404302 
0.000689641655404302 
0.004990157149170275 
0.004990157149170275 
0.004990157149170275 
0.004990157149170275 
0.000689641655404302 
0.002717377986345763 
0.006071783613528336 
0.0009305274762316424 
0.0006216972939765501 
0.0006216972939765501 
0.0006216972939765501 
0.3190634228095935 
0.2134298799209878 
0.003060207031792142 
0.003060207031792142 
0.003060207031792142 
0.003060207031792142 
0.003060207031792142 
0.003060207031792142 
0.03937528254904411 
0.0008435666830097855 
0.0008435666830097855 
0.03671847513071252 
0.09228207138915863 
0.01083382752706247 
0.05181759394289849 
0.120933326070204 
0.0008115940364250337 
0.2388290267380555 
0.2140659441048354 
0.1002367353125565 
0.1289173899887571 
0.1319524626554754 
0.1724903515113013 
0.009667499162943509 
0.06207608347757786 
-0.3966776928921174 
-0.6788013693936702 
0.1176800161472629 
0.02035366079525052 
0.02035366079525052 
0.02035366079525052 
0.2789498142037893 
-0.0005476693078592268 
-0.0005476693078592268 
-1.112057819666414 
-0.7685356085798969 
-0.4152268890662886 
-0.1914196082562181 
0.1542467411871214 
-0.9314247462907629 
0.2251963859988004 
0.006639156917192609 
0.002024042803680932 
0.09777831515238035 
0.09777831515238035 
0.09777831515238035 
0.008858130439599923 
0.0002478568628816211 
0.002099108609745529 
0.3248809050538892 
0.1827143559748025 
0.1020750133534533 
0.0008489087565213079 
0.2343160578913604 
0.04433044707583086 
5.521512622684697e-05 
5.521512622684697e-05 
5.521512622684697e-05 
5.521512622684697e-05 
5.521512622684697e-05 
0.112768064918772 
0.04355288444775033 
0.1148183948225467 
0.04433044707583086 
0.001407305303884579 
0.02080955109947327 
0.2312851117756182 
0.01581358878059708 
0.01689380001544036 
0.01706675623026096 
0.04433044707583086 
-0.1429880963391974 
0.05514412300478276 
0.09266410650510765 
0.1550625442255678 
0.00129257656789082 
0.00129257656789082 
0.004036530464035337 
0.004036530464035337 
0.004036530464035337 
0.004036530464035337 
0.1337511483405397 
0.02617348514338684 
0.08281026871431865 
0.0003286691726687532 
0.0003286691726687532 
0.001188751745992319 
0.005594504313283461 
0.0153614421543674 
0.0153614421543674 
0.01061418066854641 
0.1756147482939939 
0.06919311376500131 
0.3988655321763839 
0.3988655321763839 
-0.01595602113157763 
0.002133066427366837 
0.002133066427366837 
0.001238050933335472 
0.001238050933335472 
0.001917299106513482 
0.05932156618694331 
0.01592227183896528 
0.002910050756421984 
0.002910050756421984 
0.002910050756421984 
0.01276223812333757 
0.001770701813203212 
0.001770701813203212 
0.1822532895517138 
0.005153626209773078 
0.07119271185420523 
-0.5231264054741327 
0.2719866886629329 
0.05701620693292912 
-0.009133524183416191 
-0.4756589070744155 
-0.8037608891105485 
0.1435565979087454 
0.05099406778464505 
0.1798795562762393 
-0.00201821818542534 
0.04433044707583086 
0.001291472909223821 
0.04338437113292103 
0.07123766537707713 
0.0657993563318979 
0.4174995718707217 
0.08942883664776347 
0.02328630520362051 
0.006448126409703774 
0.336336188321043 
-0.000167674577387001 
0.2494129859994628 
0.01956891118925532 
0.01956891118925532 
0.01956891118925532 
0.0004535568916255899 
0.0009835115614141542 
0.0009835115614141542 
-0.002673547605457127 
0.07192125491864391 
0.07184977610045208 
0.009783348731063679 
0.3467618826884812 
0.001535770775491537 
0.001535770775491537 
0.001535770775491537 
0.001535770775491537 
0.001535770775491537 
0.138546704992648 
0.005111794863311457 
0.004340493714314754 
0.005111794863311457 
0.007040943807489812 
0.2527029035847332 
0.03712490307693431 
-0.01044492306795507 
0.4540222577273271 
0.01817307452093562 
0.01817307452093562 
0.01818438987447639 
0.01817307452093562 
0.01817307452093562 
0.01817307452093562 
0.01817307452093562 
0.01817307452093562 
-0.005497730446228646 
0.0004106879387690094 
0.0004106879387690094 
0.0004106879387690094 
0.0004106879387690094 
0.0004106879387690094 
0.0004106879387690094 
-6.668107696540834e-06 
0.0006217053292953055 
0.126663896565566 
0.318499654039673 
-1.17023419311729 
0.2814057217310934 
0.001676027809215549 
0.02084294629585312 
0.131014096997635 
0.0005428787309551653 
0.00416051242231651 
0.21391995628531 
-0.3919596430309793 
0.003969718864208126 
-0.01344621371848967 
-0.003956045992677074 
0.1127152277742218 
0.04682333331664592 
0.1667806250670031 
0.2837131715847349 
0.1404225441979574 
0.004702528548784829 
0.006958872640245014 
-0.0136039936568872 
0.005346467204961186 
-0.1251277534426734 
-0.1251277534426734 
-0.6286841195092319 
-0.6311160575740242 
-0.750172255141501 
0.03834036250681613 
0.03834036250681613 
0.006627682938298358 
0.3325968504876251 
0.2767912065557983 
0.05459335576481163 
0.1561108480251857 
0.1570320715658075 
-0.08504892297188696 
0.1517690424151168 
0.1006608021414235 
0.4135530015049235 
0.02842605915826561 
-0.1563767873013062 
0.0976176641365972 
0.1879526630259514 
0.0002018998938189448 
0.03792536161138624 
0.03792536161138624 
0.04610937414327714 
-0.2305074149418935 
0.2065858622462841 
0.01860667745744768 
0.2339489207212093 
0.09066328178875678 
0.0008760847891937709 
-0.390302125707097 
0.0001216002846063889 
0.0778778340994241 
0.02015197526447405 
0.2196892129180944 
0.06822358695614673 
0.04886898328216541 
0.001199887126995345 
0.0005792888245187938 
0.0005792888245187938 
0.01729788906764694 
0.06255343758280257 
0.04222482197384382 
0.04222482197384382 
0.08465523619809749 
0.1498601922833833 
0.1334176638167124 
0.07909411723041895 
-0.2868871324681198 
-0.7382319588592361 
0.01058174676382373 
-0.7778331376273102 
0.3259723877375547 
0.2458137924346738 
0.07672171350030178 
0.1299819938844035 
0.06005988564998244 
0.04921361345458548 
0.2626000096590889 
-0.01382322137247032 
0.1003172617333343 
-0.1913309155574879 
6.968961380377307e-05 
0.0006951367840368444 
0.0002934675304650012 
8.760847891937709e-05 
8.760847891937709e-05 
8.760847891937709e-05 
-0.0006320370251512343 
-0.0006320370251512343 
-0.0006320370251512343 
0.001073023044551279 
0.0001752169578387542 
0.1979261924771337 
0.0001752169578387542 
0.002844660900988572 
0.004958635291791795 
0.0006506705370605204 
-0.5237811418317236 
0.06940938528886481 
0.2568571999722813 
0.002422980302124072 
0.171858906641677 
-0.9706489873565534 
-0.002344910270829272 
0.3793153879160781 
0.1403731775058443 
0.1882410595992173 
-0.3426920084405893 
0.01614619643992377 
0.06460279289220208 
0.0007082931308123063 
0.01581282763655754 
0.2576760149333331 
0.01051465341450148 
0.008038115775931727 
0.0372175813360031 
0.1011351664815547 
0.0008365843656931711 
0.1397418419682005 
-0.004159955280759053 
0.1152503628925937 
-0.0001416681738452587 
0.01371241796281202 
0.3103647528237968 
0.002998353180485809 
0.002998353180485809 
0.04792604188277087 
0.0513048142293455 
0.0002980891389727837 
0.1122079566721143 
0.05218965031628125 
-0.7481486278102207 
-0.003272284566510005 
-0.001562810364872132 
0.02876130249150033 
0.02876130249150033 
-0.5968354317941308 
-0.5968354317941308 
-0.5020268335896876 
-1.105432574753501 
0.08534976064229324 
0.07984670461770697 
0.005110666410912512 
0.005263494994705064 
0.005263494994705064 
-0.3981971402110478 
-0.000436779216219734 
0.2543916720636972 
-0.2234697641614015 
0.1106072628987278 
0.03026393117852628 
-0.4789594057380181 
0.02722553535191867 
0.1935915313482683 
0.08100447816077148 
0.0009044293654914057 
0.2032622590004583 
0.03415651957160462 
0.06368150263804559 
0.1869567406014274 
0.2280388257884996 
0.0473924315781458 
0.1548735735113712 
0.1240254794097088 
0.03562276492823035 
0.05803437550556755 
7.644438465497725e-05 
7.644438465497725e-05 
0.09351111452860224 
0.09351111452860224 
0.02726869495726 
-1.118338224692672e-06 
0.04570635130680863 
0.001141740769574721 
0.08069499797560305 
0.02965311403311758 
0.03425976951763833 
0.0001789376989500294 
0.09646279945725908 
0.0001789376989500294 
0.1161422014697784 
8.760847891937709e-05 
0.0004526217480237782 
-0.4675878164100759 
0.01029655313901704 
0.01029655313901704 
0.01029655313901704 
0.003662055521204192 
0.003662055521204192 
0.003662055521204192 
0.003662055521204192 
0.004961468282982828 
0.140233354744386 
0.0001429216437323686 
-0.0002908802796262825 
0.01266250219933859 
0.01266250219933859 
0.02246353170573073 
0.06106255866093583 
0.135992099699958 
-0.8160877316031435 
0.3395887397991911 
0.09701198183383959 
0.01304139049157928 
0.06806012260471342 
0.1072266299109995 
0.0002657827619280155 
0.01163199575305559 
0.007793780893280592 
0.0013351107562314 
-0.0001599968596981983 
0.04422606460341953 
-0.7549246469159115 
0.07614600219488409 
0.1750587988308551 
0.0009193362482718594 
0.395715636439961 
0.1963307080573388 
-0.7888983826701336 
-0.5724685771118829 
-0.3239349242075324 
-1.433053633940821 
0.04433044707583086 
-0.001069508120728336 
0.02346616671364469 
0.004750450154677545 
0.002859899616811329 
0.002859899616811329 
0.002859899616811329 
0.002859899616811329 
0.02076995976592094 
0.237019363238991 
0.0586230100059161 
0.155332336176114 
0.377869085114163 
0.1398651197912654 
-0.3238643886847619 
0.1231862400393092 
-0.001526949733286066 
0.1086928040890997 
0.08025903493511695 
0.01065223857331511 
0.001903782350262335 
0.143735693900321 
0.0001170857835121933 
0.001264994045213434 
0.1186531854764205 
0.2622417880868189 
0.09031599748653396 
0.0444901903273445 
0.004036409551843763 
0.01212386760310229 
0.04780552050984476 
0.04780552050984476 
0.03918943021823709 
0.03888584699357628 
0.2450211936064418 
0.05486230259297687 
0.00839450826941178 
0.2407008831358437 
0.001288567045191999 
0.0005256508735162627 
0.01234389022664915 
-7.663668900335066e-05 
0.3299256975955641 
0.1424479656077619 
0.1811179119895471 
0.1811179119895471 
0.08741817591713066 
-0.7442180955167296 
0.1666068770374949 
0.0004696729907767563 
0.0004696729907767563 
0.0004696729907767563 
0.0004696729907767563 
0.0004696729907767563 
0.0493366654010988 
0.1326557292745384 
0.0004696729907767563 
0.0004696729907767563 
0.0004696729907767563 
-0.006232806448334878 
-0.6933272175502219 
-0.02145242710634803 
0.1133716013068077 
0.008161595802608328 
0.001086447289932068 
0.2011850585938323 
0.1450360815013233 
0.1565469647919462 
0.08756736148062762 
0.06409922599810067 
0.004556957758338378 
0.004556957758338378 
0.004556957758338378 
0.001309159750427593 
0.182838650992881 
0.001529637438353914 
0.002536072703714511 
0.2975772362900138 
0.01486443441627777 
0.0340286959947904 
-0.01572355057579762 
0.0340286959947904 
0.0889481248068128 
0.0889481248068128 
0.222005714621954 
0.08550161279897477 
0.09041818344251654 
0.1330456296181323 
0.02071300972059125 
0.0530395349991467 
0.0796098247408013 
-0.2781304133774716 
0.002221891183101267 
-0.3513172997246622 
-0.0008895014155768414 
-0.0008895014155768414 
0.1967602536613976 
0.001045402578565556 
0.02876130249150033 
0.02876130249150033 
-0.2087907715316442 
0.1402220068499168 
0.1402220068499168 
0.1022074274654337 
-0.002507817814807614 
-0.002507817814807614 
-0.002507817814807614 
-0.002507817814807614 
-0.002507817814807614 
0.004829536133998428 
0.005080241825595315 
0.0001356986270953467 
0.008407044489381489 
0.003738691265060763 
0.008751030989926169 
0.4501608466414184 
0.06287043750984425 
0.05051099279715217 
0.001282708600734768 
0.000615859185148591 
0.006588179482138606 
0.004177970847983555 
0.1282586328275069 
-0.3677363665816526 
-0.2022331893003824 
0.0003347818549033909 
-0.002787549499298905 
0.04433044707583086 
0.06277027069460095 
0.1532508077606169 
0.1532508077606169 
0.1532508077606169 
0.08547646633999655 
0.06609355355117949 
0.000364836518062246 
0.000364836518062246 
0.02828307428673995 
0.02772442547824303 
0.0005842757112158854 
0.0005842757112158854 
0.3201079621113275 
0.2235907642543374 
0.0001285930366807508 
0.0001285930366807508 
-0.3185272378450645 
0.2644160109259107 
0.002182486823008069 
0.002182486823008069 
0.002182486823008069 
0.0008885944411856663 
0.09637379426872819 
-0.197002758853172 
0.004875561267150485 
0.1858091925262687 
0.09264226695434148 
0.1082942794579405 
0.02407616460833569 
0.0002663160636337777 
0.1036250885557232 
0.2569175419549464 
0.07203654753552741 
0.09790163191826767 
0.08344590634290409 
0.1239439091464314 
0.01465886209747368 
0.01465886209747368 
-0.1890307833384219 
0.01465886209747368 
0.01465886209747368 
0.01465886209747368 
0.01465886209747368 
0.1844362242635471 
0.2289435277391256 
0.1649262487679971 
0.001027453488565809 
0.04330767566341596 
-0.5365565694060721 
0.001675725219972582 
0.1094259821543229 
-0.6361128496715673 
0.05093374925751595 
0.1189354848555353 
0.0007015885895189655 
0.005224523485468075 
0.005224523485468075 
0.005224523485468075 
0.005224523485468075 
0.00259161271017888 
0.1003308815703011 
0.06063163570172627 
0.08802117906878218 
-0.08985911750609267 
0.1398860359088023 
0.1398860359088023 
0.110844653610052 
-0.1922739773811938 
-0.853302001736314 
0.04946644467934459 
0.00203141951120182 
0.00384803575915182 
0.00384803575915182 
-0.4629412878825521 
0.2282673062579851 
-0.4032984380439915 
0.04433044707583086 
0.1255471212268123 
0.001962920756643066 
0.1075516775421416 
0.0008565391487340185 
0.0008565391487340185 
0.06910238469491596 
0.06910238469491596 
0.06910238469491596 
0.1204602178867924 
0.08905673344789788 
0.06910238469491596 
0.4389193695761237 
0.01571918881120659 
0.01571918881120659 
0.01571918881120659 
0.01571918881120659 
0.3080585296560537 
0.3080585296560537 
0.004731956646532724 
-0.665280196522427 
-0.5365699596082966 
0.0007985570077994425 
-0.6367137310670353 
0.1680854391313765 
-0.01076773716637317 
0.007057788691028461 
0.3769940317464883 
0.001675944492757218 
-0.181065252873558 
0.08861881573445403 
0.004817327836752936 
0.003020279224481509 
0.1041142702374712 
0.1040417236407492 
0.1235192616884962 
0.1785304712391344 
0.6293709468613714 
0.3837438179761173 
0.003837706056850778 
0.003837706056850778 
0.003837706056850778 
0.003837706056850778 
0.003837706056850778 
0.2298044810320279 
-0.001909716996890484 
-0.001909716996890484 
-0.001909716996890484 
-0.001909716996890484 
0.03432732350658718 
0.03432732350658718 
0.1128275034891877 
0.1128275034891877 
0.002854510119364011 
0.002854510119364011 
0.002854510119364011 
0.07609551637108575 
0.3879996505516156 
-1.107208392646194 
-0.0113952252224505 
-0.004472130466141651 
-0.001806033266665505 
-0.001806033266665505 
0.01927296476120131 
0.1547633981173339 
-0.001467639740082427 
-0.004489401366747387 
-0.001467639740082427 
0.4948700822957477 
0.002032864932442216 
0.117746285858933 
0.01197386804262781 
0.01197386804262781 
0.2312240459864466 
0.2156915003773944 
-0.7093933541324605 
0.00649256805172706 
0.0003548088513854907 
0.0003548088513854907 
0.001682557174427649 
0.001682557174427649 
-0.0001128168925093036 
-0.0001128168925093036 
0.0196370317038557 
0.06268105005019321 
0.0196370317038557 
0.001256128967490679 
0.04288340070042135 
0.01672603664038318 
0.1718770554676002 
0.02378760624933517 
0.0004457733473932255 
0.1282062250546523 
0.1280929013725154 
-0.968933222069549 
0.004217060170813592 
0.0005574070264190858 
0.05502142338863137 
0.0950673349935096 
0.007717501807713631 
-0.001340035867064861 
0.002201330854834944 
-0.001574637440680418 
0.04326971790728112 
0.003246071155032045 
0.3147709775552092 
0.004125128542220179 
0.09026462277314769 
0.008518068725023838 
0.0003883151780180215 
0.2705024646264479 
0.1351155767307402 
0.02276502335582488 
0.06158701201337907 
-0.4963356189279403 
0.06158701201337907 
0.1273323674822443 
0.3195838239924482 
0.0690547425249802 
0.0750521232416963 
0.0001272739544680743 
0.001817817402957642 
0.006495396605884598 
0.0001043431411209407 
0.005908797658204966 
0.05287969065599592 
0.2374186848831791 
0.2374186848831791 
0.001233293828970966 
0.02876130249150033 
0.02876130249150033 
0.2417702865571432 
0.1974882386519344 
-0.2860705950019178 
0.4433818945241363 
0.004527663921405684 
0.0005245119261813981 
0.0005245119261813981 
0.2552291699600335 
0.1588541942435236 
0.0110034707387304 
0.2764328969392059 
0.09866620457400244 
0.007336541175652109 
0.01048155231856771 
0.003604761928770214 
0.3492494738365481 
0.003604761928770214 
0.1242865228553931 
0.03859172449556593 
0.0002542574793534102 
0.03365958877092465 
0.002873806794660805 
0.006072718615742422 
0.006072718615742422 
0.1376367119690181 
0.004520462675669666 
0.04358919480116928 
0.2048992519154167 
-0.4752241691677077 
0.1520594546593125 
0.1484437869482066 
0.08921252815758321 
0.03414105112870937 
0.05173785227744861 
0.001047342914313843 
-0.1223497090955911 
-0.4828854900128262 
0.001192502518660755 
0.001192502518660755 
0.001192502518660755 
0.001192502518660755 
0.001192502518660755 
0.001192502518660755 
0.02115889151920071 
0.005436044807793966 
0.2866746882969772 
-0.1140830700303817 
0.005993186686286281 
0.01450181755252676 
0.0360232927609491 
0.1042115261348568 
-4.364579717906711e-05 
0.003616984511648186 
0.01344521115989275 
0.1655205334059282 
0.006410788709933095 
0.004096198216912102 
0.01872005394129697 
0.2100890098135199 
0.2196388891305298 
0.1299465397824761 
0.04288792116324357 
0.04433044707583086 
0.04452681461201039 
-0.002620983698973895 
0.167752720431131 
-0.7040671432993469 
0.05602847046815478 
-0.971416742628612 
0.0002177938984799328 
0.0002177938984799328 
0.164760369366467 
0.0005242150612190196 
0.00354886893361239 
0.0087886577548974 
0.04433044707583086 
0.04438830742257668 
0.2720016929029443 
0.1017001448107906 
0.1647742921079162 
0.1358451386477092 
4.217047301943629e-05 
4.217047301943629e-05 
0.1865784788407858 
0.1846349649874803 
-7.126134412422004e-05 
0.3284792039700346 
0.194825465542436 
0.03958905236187217 
0.03958905236187217 
-0.1290395287724429 
-0.811581219983758 
-0.5072448169103704 
-0.2893809186507799 
0.03097887651369697 
0.1906699349839104 
0.01055632041509774 
0.006647249582716029 
0.006647249582716029 
0.01117445283797167 
0.008560901243822394 
0.05794004589738014 
0.1541345710964557 
0.0006286187741172133 
-0.3437093069945125 
0.0111192951947911 
0.02315233839798232 
-0.2045139094137111 
0.04433044707583086 
0.2770241784629391 
0.05646707388071689 
0.002996701875638935 
0.004970194950809505 
0.002996701875638935 
-3.754269022973726e-05 
-3.754269022973726e-05 
0.0532320981972936 
0.03171188303458716 
0.01647282329391757 
0.0004449657575240909 
0.0004449657575240909 
0.0004449657575240909 
0.0004449657575240909 
0.0004449657575240909 
0.0006775232926584139 
0.00162807325779711 
0.001185896654774825 
0.0007814344503915043 
0.2584930089185625 
0.07710068590000975 
0.1707965004977652 
0.001558941986940596 
0.009420095454899951 
-0.002591547959393289 
0.02549514420907618 
-0.0001724720253221197 
0.00435777185549201 
0.05967986202261091 
0.1770229916457461 
0.00435777185549201 
0.001310902667696831 
-0.1127568972131368 
0.119063594715751 
0.0001691986006248675 
0.3970886755515415 
7.665578600016879e-05 
8.985528818562796e-05 
0.1809943998228887 
0.1827715251241561 
0.1820810344323319 
0.08402687565785401 
0.124410116363625 
0.01177932641821308 
0.2405209312565295 
0.05699862435643532 
0.08952423208169477 
0.6031804966275297 
0.04534289983124106 
0.0799179986734182 
0.1466024164329019 
0.0003743060496912638 
0.001303760831959952 
0.3484977821873556 
-0.9355233718888811 
0.1715192684871005 
-0.2587854166431962 
-2.757235099831854e-05 
-2.757235099831854e-05 
-2.757235099831854e-05 
-2.757235099831854e-05 
-2.757235099831854e-05 
0.03601294749633632 
0.03601294749633632 
0.248765584379143 
0.1857925605356492 
0.0001150913119961629 
0.0001150913119961629 
0.005059918562713647 
0.01977631917151018 
0.01587594316774409 
0.1289491926883124 
0.001089098184647161 
0.001089098184647161 
0.00133507336084148 
0.05631254292993076 
0.06730115361960341 
0.07998483238330964 
0.1411323018647995 
0.03315508497644991 
0.04429227618437316 
0.1941883052114518 
0.0003933198131015129 
0.0003933198131015129 
0.02405642534455451 
0.04392887599898547 
-0.5351360305982725 
0.0007861953079806467 
0.0002004884203202641 
0.06582201356125905 
0.01183278408977297 
0.1848107630276609 
0.005660405270517518 
0.005660405270517518 
-1.072185013875805 
0.2205299882374038 
0.2205299882374038 
0.3386983244378991 
0.2118483266900812 
0.2118483266900812 
0.02821176344974448 
0.02821176344974448 
-7.283367990134246e-05 
0.1555082763828926 
-0.1663300704202571 
0.05581748734972591 
-0.0002076524347642005 
0.1485787520955631 
0.4485739227303984 
0.2112498409156667 
0.2099913993325959 
0.1110148501791878 
0.1228511833800046 
0.2050806256666412 
-5.542222874509349e-05 
-5.542222874509349e-05 
-5.542222874509349e-05 
0.04375633539249765 
0.04375633539249765 
0.04128376755692052 
0.08203435875931975 
0.1311304640009705 
0.06759031393602263 
0.0001260946949761378 
0.02078883234325606 
0.1424562727827246 
0.04473248645158336 
0.002276992976880628 
0.0005462717816116547 
0.0005462717816116547 
0.0005462717816116547 
0.03092964564342139 
0.08548488274799025 
0.1671486625471914 
0.0002636941182821139 
0.0002636941182821139 
0.08784888226030108 
-0.7347456937547172 
-0.08693677433436098 
-0.1278736114117117 
0.001336910404187512 
0.05012718064731615 
0.1794453448370487 
0.0001752169578387542 
0.0497286058279431 
0.00351734567233801 
0.01907635189704726 
0.02295917587571364 
0.01907635189704726 
0.008399594879146653 
0.011706576834045 
0.002763106489651856 
0.1437593906916157 
0.0004020587291625244 
0.0004020587291625244 
0.0004020587291625244 
0.0004020587291625244 
0.0004020587291625244 
-1.048861825192609 
0.0001691986006248675 
-0.000172195489235094 
0.1091446464123529 
0.07390580180153178 
0.001220125073401177 
3.639227310556886e-06 
0.2086762499142085 
-0.01407559286836877 
0.03294745559023782 
0.1599552349320867 
0.001210395002700738 
0.001256106605934685 
-0.0009449977160370773 
0.09661585985329324 
0.09661585985329324 
0.09661585985329324 
0.002380576655404497 
0.006852637009899529 
0.01196580609326212 
0.02433496894864697 
0.008279298143061824 
0.1114764997051609 
-0.001561886482889838 
0.002928851773784276 
0.2219444367756086 
0.2244108844946315 
0.002474434357841028 
0.0009250486315233844 
0.04210071031378847 
-0.005529384038707339 
-0.005529384038707339 
0.001044553557061457 
-0.001023685018367272 
-0.001023685018367272 
-0.001023685018367272 
0.006386648830304647 
0.1186850609480528 
0.06178769836930654 
0.06485635091190653 
0.3293253591397327 
-0.6878416292241591 
0.07485201573573465 
0.0003419079708046424 
0.013101427617406 
0.0004638829718061833 
0.0004638829718061833 
0.0721443724242702 
0.001183310587996735 
0.06367681531984591 
0.1383611768247319 
0.03567093956262569 
0.03567093956262569 
0.1315374562369697 
0.2535138829484114 
0.03898804462994256 
0.2071424532668881 
0.02352779418280913 
-0.3210018673425606 
0.0003844601588890579 
0.0003844601588890579 
0.0003844601588890579 
0.0003844601588890579 
0.09493822386578021 
0.03391741949975517 
0.01446870252243627 
0.158836338046757 
0.1617383735010082 
0.05706326832626441 
0.0897754591664493 
0.1425331327441901 
0.00715895703610404 
0.001195752663638094 
0.006651080604337811 
0.1244134087943593 
0.01467677273116391 
0.04115396759150027 
0.1337523488176892 
0.03373205954238215 
0.0004712244307533227 
0.0004712244307533227 
0.03857860447973734 
0.02190277071391497 
0.02133933184503527 
0.01620354272726791 
0.01620354272726791 
0.04433044707583086 
-1.143590585869347 
0.009689137174025324 
0.009689137174025324 
0.009689137174025324 
0.2548810601347593 
0.111094468731755 
0.002050379821633759 
0.05577423862780729 
0.05346818369380425 
-0.6064421755637627 
0.06524642749914092 
-0.0001421492273126148 
0.002403825610199127 
0.002403825610199127 
-0.002987623469627853 
0.02000319097983507 
0.04416406383979586 
0.486223641972563 
0.01072764030159978 
0.000938635156850176 
0.003346025696456582 
0.001179833896473096 
0.3683354688781032 
0.415711082796963 
0.00581112666437605 
0.09698270821291435 
0.09698270821291435 
0.04433044707583086 
0.09091213454503928 
-0.3831015951604028 
0.1090680270318016 
-0.0008532739969238069 
0.07970558647454742 
0.01714541860885826 
0.04997975406332131 
0.04997975406332131 
0.03350981025860744 
0.0378044096140107 
0.002648209976617901 
-0.6129095883210931 
-0.1994181664214369 
0.004739848162587768 
0.004739848162587768 
0.1773355118832892 
0.004739848162587768 
0.1093107096972849 
0.2421017764630698 
-1.040422567049632 
0.1517852483195576 
-0.001515967992352968 
0.1185364008725835 
0.003524103126238189 
-2.763360638277359e-06 
-0.5782538868590262 
0.00113683267964294 
0.00113683267964294 
0.0002708404398599778 
0.0004796123497994804 
0.01446328420932936 
0.4010373305084476 
0.05612450442291893 
0.02583420924185849 
0.02607290429547646 
0.02566700984509463 
0.04433044707583086 
-0.8290443618284119 
0.08232944078984651 
0.3507904619683129 
0.1695188918284928 
0.0007568511688315464 
-1.04558353912492 
0.04937037381643292 
0.01306854045302884 
0.001988778663523681 
0.001988778663523681 
0.001988778663523681 
0.00276368657192805 
0.0008499004499467576 
0.0008499004499467576 
0.0004996899134405346 
0.250454882531077 
-0.001946182259656874 
0.01236448791521488 
0.01236448791521488 
0.0003836560235070012 
0.1177376075622048 
-0.008112856632273431 
0.3284857751629484 
0.001538169703814365 
0.08770209875225168 
0.1005238642759767 
0.1760166452048745 
0.1005238642759767 
0.1005238642759767 
0.1852797513716817 
-0.0001075513765985726 
0.0004128355515545286 
0.04789695036394254 
-0.3468333957019676 
0.2846149075556531 
0.2846149075556531 
0.007121869427786985 
0.007121869427786985 
-0.002385588839050439 
0.1732646130055017 
0.03669976439126384 
0.00245401943165294 
0.001469705006860469 
0.02876130249150033 
0.02876130249150033 
0.2010695774156585 
0.06461046633238537 
0.115233745805368 
-0.4426983087511215 
0.1735393594441726 
0.170897034811152 
0.1991530523907777 
0.1730532945285275 
0.00156556276541667 
0.00156556276541667 
0.01044280829332375 
-0.00550116030850548 
0.02786176089115904 
0.02589357226639981 
0.04433044707583086 
0.002059567913973539 
-0.79041237710858 
0.2719646047651059 
0.0001181836963126837 
0.009071617276628547 
0.009071617276628547 
0.009071617276628547 
-0.4543141248650751 
0.02216383121480729 
0.03621369052839336 
0.04616074060997646 
0.1361558476959843 
-1.012700843468495 
0.0002279407000774135 
0.0009809566842382937 
-0.5040540389793354 
0.009681145701134238 
0.009681145701134238 
0.0005649614595545985 
0.1274956356988682 
0.002351576399610508 
0.002351576399610508 
0.01831684881732812 
0.0006282853632022721 
0.000962857426935053 
0.0006282853632022721 
0.0006282853632022721 
0.05402165739420084 
0.05402165739420084 
0.02357511339346731 
0.06713538395359799 
0.1555896170612758 
0.1555896170612758 
0.02305906535632296 
0.02305906535632296 
0.0001148837114940208 
0.0001148837114940208 
0.0001148837114940208 
0.0001148837114940208 
0.09049415537946852 
0.004545853348268996 
0.004674048850837578 
0.004545853348268996 
0.02924808474329474 
0.00603330713942668 
-0.3984679393250578 
0.05060504893390111 
0.1347246303335582 
0.01905947932771977 
0.04433044707583086 
0.3489234033249318 
0.002532866221270972 
0.1949669511724187 
0.1949669511724187 
0.05461437363390458 
0.04850607778634607 
0.04850607778634607 
0.04850607778634607 
-0.004698192927884382 
-0.004698192927884382 
0.03220991471355352 
0.000642550636102672 
0.1468186606575199 
0.3789945662358813 
0.003639140118424808 
0.01810206621233655 
-0.6355570199194077 
0.08864104739167576 
0.0004043327345470017 
0.008470570782350485 
0.1044844968492078 
0.1889224902754891 
0.007958910960561071 
0.007958910960561071 
0.02042259613220943 
0.03860426211811257 
0.08397012673349186 
0.1130829184124264 
0.08397012673349186 
0.01297817755031169 
0.0443120220652383 
0.2194488427604797 
-0.01294435520358869 
0.004215549045446562 
0.08737491531974637 
0.1619701508833149 
0.04311061138853026 
0.0146168155401238 
0.001949841785548194 
0.02717776123658835 
0.2162230989470197 
0.01166698851352273 
0.03266680702376628 
0.01996638900053995 
0.01996638900053995 
0.01996638900053995 
0.09245075908991104 
0.09245075908991104 
0.0004068528292642548 
0.08244487408968815 
0.05174825071230794 
0.0129829302797937 
-1.148976182025659 
0.06106098238575156 
0.0389803945549466 
0.04806067836886899 
0.0002041601198381572 
-0.8767698803625709 
0.0002472345763566066 
0.001912542215287073 
0.2389443934176051 
0.04433044707583086 
0.3364432014524509 
0.2321309323714581 
0.2389634507486816 
0.2321309323714581 
-0.4293841768349776 
0.3211970859106311 
0.00680300509432622 
0.07630149214059657 
0.03130681188392905 
0.2379359664671219 
-0.9231295113444939 
0.03450544975829096 
0.0002028752050824363 
0.1014527937292404 
-7.677716049755581e-05 
0.03941023696196225 
0.2216231586821197 
0.1070440448019801 
0.05757063700416452 
0.1996777891441011 
0.2510982661720561 
0.0009410002862528571 
0.0009410002862528571 
0.0009410002862528571 
0.06925803587858323 
0.004504370133822308 
0.03069990530117493 
-1.148068292536681 
0.08376807473343609 
0.5244453577054704 
0.04958528608493384 
0.004660581066566426 
0.01081942175751225 
0.001139497699389945 
0.002580366609942078 
0.002580366609942078 
0.002580366609942078 
0.0009729659916932211 
0.2596728298777378 
0.02309600120796177 
0.1264490472195531 
0.1234282697300273 
0.004646400265077323 
0.2939758439074367 
-0.6630524297721099 
-7.147881819181981e-05 
-7.147881819181981e-05 
-7.147881819181981e-05 
0.1394631311708286 
0.2090918620398364 
0.1233941190533277 
0.001506471581987613 
0.4190853674960205 
0.2373838273521465 
0.01541280663550551 
0.005091241681649816 
0.08464058829153659 
0.03633790284483108 
0.1745881373518221 
-0.2238124990694214 
0.001677586391184627 
-0.002953595056262519 
0.0006695537514470433 
0.02826297943564375 
0.02919210654821476 
0.007139541511628816 
0.3363728535109659 
0.06412696863506542 
0.01724472553257346 
0.01724472553257346 
0.07211178604156347 
0.09071420375154288 
0.000679190441111829 
0.001440547074723509 
