solver_type L2R_L2LOSS_SVC
nr_class 2
label 0 1
nr_feature 32502
bias 0.5
w
0.0521321354045122 
-0.1943282081595514 
-0.002421437159115756 
-0.1770504635868013 
0.222342418448046 
-0.1423243772616559 
0.03274509890890284 
0.08256688823414782 
0.2385685986655895 
0.02327783105792785 
0.00103150522503655 
-0.03597268283383165 
0.003225780130968048 
0.06786999553328645 
0.0008682874198123 
0.01247165532571254 
-0.1125695894534914 
4.565373109448647e-05 
4.565373109448647e-05 
4.565373109448647e-05 
4.565373109448647e-05 
0.7668819853426226 
0.0001139110545180121 
0.2453075338492163 
0.2970061674302544 
0.176949913085454 
0.1586595275667348 
0.1469272641221179 
0.06553544584651341 
-0.1763726536479295 
0.0004803547132209784 
0.1803341419821042 
-0.005122686485486147 
0.3101588700813155 
-0.07658044811845333 
-0.4154724711027234 
0.1601858500852345 
-0.1349958842423238 
-0.02043502933069768 
0.05478852362769701 
0.01945404540859231 
0.1601483747199624 
-0.1603152280581841 
0.09740539888609065 
0.004673048577688407 
0.02559485305540542 
5.945499465191337e-05 
-0.009595056469741001 
0.05591172444745939 
-0.1582003922384176 
0.2870305796327482 
-0.1388704842674323 
-0.07142412592099492 
-0.0005697062979983167 
0.06367370415202327 
0.1285080764030607 
-0.0363286493553935 
-0.08959916894683281 
-0.1421939884462222 
-0.1319331772020495 
0.1626420473248617 
0.07955588486994651 
0.606331806426583 
0.0008367661458169959 
0.007053007331834397 
0.0715049074452965 
4.474371742341647e-05 
-0.03600233613673164 
0.03911909911350595 
0.385024659314963 
-0.07501283918463951 
0.2295890868316453 
0.2130231225953004 
0.3749586384339306 
-0.01399667807638604 
-0.03710956762461692 
-0.07193502700978846 
0.07153036002900375 
0.05579867743403522 
0.05764711074719179 
-0.07488734416786735 
-0.1040629608699784 
0.03531161822498205 
-0.0005772170883044011 
-0.0005772170883044011 
-0.0005772170883044011 
-0.221420582706344 
0.1981982254332952 
0.2454115158787447 
0.1718354471669757 
0.2269787140995715 
0.413207728333567 
0.1229627246482702 
0.1696101387192996 
0.1558486362715999 
-0.08288614701117561 
0.08917604960668671 
0.0001859879715451064 
0.004731450277119743 
0.2050585319085762 
0.001149669121397842 
0.001819548495917813 
0.02488273448638592 
-0.07751049108761832 
0.003159270310326413 
0.2579312495317897 
-0.05778948554726976 
0.0357361787482191 
0.002051553353055006 
0.3402979792253839 
0.1484276503313461 
-0.2780809577129021 
0.06251044436672279 
-0.09661153572886315 
0.639171982410113 
0.002997395280595623 
0.3277903463137741 
0.03289988820938802 
-0.07551919154052231 
0.3881122294264399 
0.04867699317147821 
-0.08045145459078393 
0.2331604317960504 
0.07201546069657123 
0.01176507087666496 
0.2175359652632914 
0.003180231574126811 
3.957154000662502e-05 
0.09810566192450493 
-0.1339573767026035 
0.1163733392123463 
0.1024739326611856 
0.07743259092383503 
-0.1343719115329226 
-0.02671521725240106 
0.0002258374258188738 
0.01546427386614281 
0.0002258374258188738 
0.4730733735943711 
-0.089320519404152 
-6.707067373750006e-07 
0.09384559143170532 
0.113543227334474 
0.07055699310373335 
0.3236162758485584 
-0.01209546832179217 
0.1927685568550659 
-0.112747117273174 
0.001146754553733771 
0.1923581237297935 
0.1256086854119774 
-0.06233600001280935 
0.311605285389813 
-0.1406092224023008 
0.4000886731502813 
-0.09023571978541392 
0.0001482462041771188 
-0.3185797753898069 
0.2822662423900227 
-0.2477648262019787 
0.03932941048631142 
0.145188955277324 
-0.2767785313062291 
0.3588620921765523 
-5.972583855869746e-05 
0.3926893461102127 
0.1481050396770501 
0.08755783373435207 
0.02444417567404885 
0.009299367642648652 
0.0001276591547575388 
0.1591756007411081 
-0.1137181273180174 
0.01150096115175994 
0.01040359346238722 
-0.02238920035638427 
0.04722113145533208 
-0.001023128527018857 
-0.1380193455479011 
0.1913611684363091 
0.002418481863517999 
0.3419838084228428 
-0.1583794391898945 
0.03244293297756078 
0.4311467299588739 
0.3462014508924041 
7.423831955312482e-05 
0.1513121496977678 
0.0008665418045384684 
0.1346324610855794 
-0.1283760424774275 
0.01929545229874141 
0.02697881630578352 
-0.03206151593170817 
0.04714229312660938 
-7.028042354399036e-05 
0.008504303064431555 
-0.2866627105485067 
0.02167712584859159 
-0.06751903719013706 
0.2679040218135066 
0.05244331353589381 
0.001202097801055424 
0.0473665136287028 
0.2716758858991081 
0.09614215685943947 
-0.01519666033492967 
-0.03406185437537927 
-0.09224410729777396 
0.2268005511810616 
-0.06362728098623077 
0.01202632255079406 
0.1706507492879891 
0.05717372391565233 
0.05553862723027651 
0.3789543355072179 
-0.00976052656864633 
0.1320287737896466 
0.00464375307833728 
0.08124567136330496 
0.1233401847297505 
0.03255724850224466 
0.1202649834588535 
1.754774691908117e-05 
-0.1517146516914295 
-0.04971963143716265 
-0.1043007181888234 
0.1034499014187425 
0.1703845441667523 
-0.01093316507913505 
0.003618336936744285 
-0.003913076744928076 
0.1914482785889222 
0.3490717112449764 
0.3109718953808444 
-0.750833814428441 
-0.02190569602826536 
0.7563273065844438 
0.2656705027784735 
0.02044321047609443 
0.04895413325281826 
-0.06015837875787945 
0.2830420250665007 
0.5675926414401155 
-0.3042510225987706 
-0.2501138411957192 
-0.08052654713001295 
-0.2317197102177833 
-0.01565472862893377 
-0.07126129234702407 
0.2252745824329252 
0.07552173327036658 
0.02095154752842698 
0.2376586790514031 
-0.1668616049317044 
-0.2294219551375137 
0.1650111614470002 
0.1710508313812293 
-0.002363545349829297 
-0.08327334500499166 
0.2130514494541625 
-0.01134239226718608 
-0.0113204282062335 
0.00103150522503655 
0.2034966993871569 
0.04472837023340767 
0.2432877137646933 
0.3187909164497292 
-0.03218580376728434 
-0.09148026785372673 
0.005796923484818826 
-0.0453332397059782 
0.5525585170201203 
-0.4237174095491011 
-0.7071796914981696 
0.1923020432377139 
-1.048140329420768 
-0.09526070784261101 
-0.2681094069009278 
0.1923552016260864 
-0.0176589012891207 
0.0526189794983009 
0.3449279174400768 
-0.4226519641775312 
0.2883002321389342 
-0.1195225025162198 
0.01150217950652739 
0.04830073798529592 
-2.868538154625372e-05 
0.1935652946350958 
0.1765134340266596 
0.279359497121586 
0.0001048518352165573 
0.0004999232607843427 
0.07029774277068643 
-0.2829058065250742 
0.156652409604766 
-0.1121833365083783 
0.0135385412569167 
0.4058270976371656 
0.001738213927732222 
-0.2595804956976133 
-0.2975269754388346 
0.0827812373934978 
-0.06976048161827639 
-0.002205207557855605 
0.06287119537490279 
0.1548866308292659 
0.1070295504528481 
-0.0002332724693628819 
7.606983152373813e-06 
2.033693866324424e-05 
0.1323254662072643 
0.09647436799845892 
0.04743435941816146 
-0.004074123068245642 
0.008816105033624356 
0.2005812814784579 
0.07945933990675458 
0.105071360128555 
-0.0430542736686307 
0.0003001111108382943 
0.0002553673934148779 
0.0007715173673510242 
0.4278756281370007 
0.4653888054093838 
-5.142045891546927e-05 
0.0334671553209234 
-8.916712673541365e-06 
-0.2441204205213262 
-0.2785629938920766 
-0.2329253039211239 
-0.1989140481691681 
0.1329316790543887 
0.01720608275419477 
0.118971963994061 
0.4081073728831411 
0.1568167843817811 
0.005441670834680163 
0.05622998945309879 
0.1472283746190987 
0.04227331704391478 
0.0001233604824758457 
1.14859956416536 
0.4859070709724719 
-0.3166129675429412 
0.02382948173945899 
0.0009620359391401737 
0.001040700846274203 
0.5192809240299324 
0.002032939422080274 
0.001442386765407282 
0.0009873813776125786 
0.0006710447570484866 
0.585760100032496 
-0.3684239641113528 
-0.382259950411962 
0.001528619545317422 
-0.9068906051581884 
0.06808083901533343 
0.2786963843935539 
0.3593812442840899 
0.228879710723867 
0.001738046708271917 
0.3193320343855651 
0.000162256576090837 
0.2069294712331854 
0.01455092812434605 
0.0327142619273497 
0.1267555446249163 
0.03437379250103176 
0.0258035352949392 
0.1223639618100274 
0.2390757001272584 
0.07929016428135074 
-0.04052396295988111 
0.05318913115184316 
0.05520608735529123 
0.2417735217912868 
0.1480956807769886 
0.006592376558359297 
0.05543702168789744 
0.01773899136287872 
-0.553463941419558 
0.01471229145719744 
0.08269420572776318 
0.231854495898186 
0.0007145097662425248 
7.887781561218639e-05 
0.08546923820010188 
-0.07436946434847623 
0.002002362942975242 
-0.00413669849199168 
-0.05904350691512119 
-0.1078728107385057 
-0.1543576322071634 
0.002254540896326067 
-0.02472626914668297 
0.001319031106716289 
0.03996790571404669 
0.01038407819744815 
0.3058624188457754 
-0.002682017924646585 
0.1294812993289357 
0.09632723641781274 
0.2376806887459412 
-0.1725981551095112 
4.474371742341647e-05 
0.3079618625532712 
0.0002693000445746753 
0.1420028677226185 
-0.1040945662328589 
0.1057606440629651 
-0.1017134705615063 
0.4304550397486979 
0.0003468530797168618 
0.3328476984935697 
0.4219182776045694 
0.0688591640464566 
0.2480317265307692 
-0.0004385429611508174 
0.01830182646367597 
-0.2121709448206882 
0.02501450035782089 
0.0004988612901698701 
0.0430849051164575 
0.04849485291875283 
0.2012694427059758 
0.03276435909479283 
0.3039016361704521 
0.02511954871056673 
0.3654842921306857 
0.1960575155247359 
0.4196455598561823 
0.1879070040152774 
0.0004882479407291001 
-0.2975110043500785 
0.1506961447108573 
-0.0008959604653100885 
-0.0008959604653100885 
-0.0008959604653100885 
0.1449269622845379 
-0.1287411423743599 
-0.1406057649333976 
0.04033799176660592 
-0.003300511582201797 
0.1577725940524275 
0.0001575488059774562 
0.3353844298064552 
0.0002039854850193572 
-0.05090948211970039 
0.0005052333106630403 
0.1364792570580802 
0.002572975316893653 
-0.03445776280889752 
0.3025596919031905 
0.01211357067965672 
0.09958512022161678 
0.2125318049413479 
0.05817588797278295 
0.09977956508812155 
0.008582074193940128 
-0.0276598337714764 
0.2618416294226181 
0.07048022059729853 
0.0188453966736722 
0.2093370833879785 
0.1432926710534935 
0.004638852939719503 
0.02531025304992111 
0.2521985692550133 
0.2081366331430141 
0.07311845325142249 
0.1226900720162238 
-0.05830531259987444 
0.0007071469603386955 
0.0007071469603386955 
0.001352396892692832 
0.001968502740766963 
-0.0993414026865633 
-0.06686725342902167 
0.4248175268454158 
0.07511372908594581 
-0.208779035652634 
0.242754028209661 
0.3629607688467781 
0.08350432882438591 
0.0004463558566795039 
0.068826245790354 
0.001420092600742187 
0.1033164977217765 
0.1136783600061762 
0.03906044512343657 
-0.07424649650216764 
0.0753602841173546 
0.1238638855921957 
0.04941273374026779 
0.1925013762934596 
0.153837956121044 
-0.8379637363411765 
-0.08913640470011479 
-0.8379637363411765 
-0.09023822630449094 
0.2040343902645035 
0.1968534703078069 
0.7956457200350673 
0.0006654393767288484 
0.00330989929608596 
0.005623529297029219 
0.00330989929608596 
0.2643957476303057 
0.006848983121658422 
0.3017107452110875 
0.2275451349918187 
0.2200206952392171 
0.0003061998686866401 
0.002017130121755471 
0.6472993663777822 
0.13452826761527 
0.3075486184209312 
0.3382827780099982 
-0.0547822780120612 
0.0007913266291580251 
-6.171479587746524e-05 
-0.08213733301245867 
0.1750611059343921 
0.01998453787532196 
0.353510002187623 
-0.0876392757874985 
0.2384125422533289 
0.1474620518564037 
0.1434095015015086 
-0.0003196952736258448 
-0.02443696326484818 
0.1513951247390475 
0.2212206672366187 
0.01531169596959557 
0.2182618679202449 
0.0003496496268192938 
0.008269236426074304 
0.3048144388313748 
-0.00260182977817222 
0.0001760375144347075 
0.0006879497145976629 
-0.07865778793355691 
0.0001760375144347075 
0.05219485823025977 
0.0001760375144347075 
0.0001760375144347075 
0.0001760375144347075 
-0.1840702133850662 
-0.001075724666783336 
0.2461047127716844 
-0.3316861678740547 
0.4087431362484468 
0.0001111785819710522 
0.0002890364961169519 
0.1278448973067098 
0.1412304007377706 
5.242947742697174e-05 
5.242947742697174e-05 
0.09041983623067847 
0.2379376567901962 
0.1242032275232155 
0.104350804053503 
0.1843922346475082 
0.003599006756317262 
0.00263560479609658 
-0.00182279301631497 
-0.1575249990838603 
0.174213535814287 
-0.3236852740332353 
0.0221029810388654 
0.1068125412981878 
0.04911913990121086 
-0.00106579983919006 
0.02765353224705586 
0.5013639488055901 
0.001523469825013175 
-0.1042762976120542 
0.1961228383256834 
0.1521486553818791 
0.0002366179235493073 
-0.0007982225132570258 
0.04317525994687598 
0.050535889041331 
-0.03209899200500526 
-0.001334197324698791 
0.2035789497229902 
0.0002550175086746784 
0.2418774930619962 
0.1563709931041878 
0.1381357316913776 
0.1792614473180398 
0.6856171751175453 
0.1199217745022599 
0.3493113322814092 
0.04532545316311973 
0.4491804275776173 
0.08851058156271099 
-0.002826462551137955 
0.1450917624787887 
0.01522188993692713 
0.1383734331707378 
0.197891789792166 
0.0002788281710728817 
-0.0005674119848573775 
0.3509719425138275 
0.07391243851412407 
0.02852390121269448 
-0.0005688229402661732 
0.007219862682459992 
0.0001834888515567611 
0.0001834888515567611 
0.0001834888515567611 
0.002389301102379244 
0.0004197826923505333 
0.165391402354421 
0.009460397504914534 
0.0004477886671818839 
0.2450488281080265 
-0.6148318999242208 
0.2555365638110457 
0.1879694908019455 
0.001180108582360606 
0.002248507958723803 
0.04852815307012658 
7.109653745776257e-05 
0.3516239940198035 
0.0002634602803810227 
0.104728406390141 
0.01115074849965741 
0.004498392791438044 
0.0486585268043746 
0.04460761996274486 
-0.05161441136362855 
0.07113211701814447 
0.3928768074589846 
0.2765272941243373 
0.2514159655406914 
0.1146329081338578 
0.04134146724027793 
0.04415739588190561 
-0.000334752883628784 
0.01333333826177031 
0.04099543824659038 
0.04732050840591336 
-0.2087287874281208 
0.01554717964268192 
-0.002791629099568933 
-0.003596318420921526 
0.04731823884481362 
-0.0006444120495039328 
-8.785411416030899e-06 
0.08808102802258927 
0.06651213951428914 
-8.785411416030899e-06 
0.1099428430492826 
0.2363422636196799 
0.0004530725596405907 
0.0001027078237301913 
0.1279632227837095 
0.1552443513732824 
0.0565335023287513 
0.0003204552367916473 
0.09143769684182371 
0.08075123267794709 
0.04601801971860336 
0.293580107960861 
0.00336401370482777 
-0.006616995864382053 
-0.04001925344395568 
-0.09429517926596775 
0.0382338066419161 
0.01756956028447814 
-0.3375294618535154 
0.1415520316610744 
0.002296715893418315 
0.005707019807760505 
0.001974032962158996 
0.1161885213329305 
0.0007239995982466812 
-0.1321322610976097 
0.1215699961273406 
0.1577903233727552 
0.09176949581039452 
0.002250434271033812 
-0.09144469611313552 
0.001837112107218372 
0.07883442580829118 
0.002762805393548615 
0.001412007744874451 
0.001185122663073815 
0.001412007744874451 
0.06657793919955446 
0.001412007744874451 
0.2065371609559023 
0.05935634515033954 
0.04787942582460783 
0.006597464265862434 
0.1314703572703089 
0.1296029279302164 
4.16128161920965e-06 
4.16128161920965e-06 
0.1623722964922059 
-0.07253150449965856 
0.04154939714090099 
0.06123503733096729 
0.04740408756680244 
0.1798597161603399 
-0.566807390087725 
0.1343966472566717 
0.2163150815770327 
-0.1751536982905514 
0.1560138582960954 
0.001234468713997218 
-0.1178419157894165 
0.4257844527263175 
0.001373507634470629 
0.1963401813608302 
0.5992390276321145 
0.07176187565679848 
0.02976169398277591 
6.197363173372891e-05 
0.03778110596911614 
0.001418785424157826 
1.619116634786626e-05 
0.007974359047516732 
0.0002557506976650883 
0.2841568334617602 
0.2376634517833293 
0.05112025744660292 
0.01254816424755108 
0.0008217246075693067 
0.0004570309208936621 
0.0002854201781885806 
0.0002854201781885806 
0.0002854201781885806 
0.0005197450683782413 
0.1541327812882733 
0.00199788615971026 
0.1716848388597311 
0.07820227180172477 
-0.02408734691517143 
-0.3667287588936607 
-0.1238005077834817 
0.05117129350003954 
-0.0001945718900084484 
0.07078338742726697 
0.1316646400150567 
0.0386089800625437 
0.00323785041309067 
0.393569291699085 
-0.1979540071226236 
-0.8024573262639647 
0.2798880467218106 
0.3574411697800327 
0.086134655328861 
0.3765457598003825 
0.001229551030908312 
-0.145014976148534 
0.1781668506611796 
0.009286806936786376 
0.000172807985216965 
0.0009001611318714911 
0.1215097545190032 
-0.1359432057236421 
9.291349865444893e-05 
0.09779512128905965 
0.09394271200897546 
0.05708481915178893 
0.002232896584466527 
0.01570602165840482 
-0.2235279391471013 
0.03649751226263352 
0.003106104153679188 
-0.2822047799400302 
0.01022954204630346 
0.03569519088052309 
0.03634280983865382 
0.03078759227799928 
-0.0002189265900088415 
-0.1722164165040662 
0.04130980976455029 
0.03954097476919687 
0.001495444774286058 
0.001495444774286058 
0.001495444774286058 
0.001495444774286058 
0.001495444774286058 
0.004065886623917245 
0.001239263348885305 
0.0004679138655671645 
-0.002646815493718908 
0.0004679138655671645 
0.004771571537806895 
0.06025361270789293 
0.06025361270789293 
0.06025361270789293 
0.08490435896178988 
0.01999856709687432 
0.01999950595103538 
0.01993871622361082 
0.01999950595103538 
0.08749217236555613 
-0.4909341490244729 
-0.1580827308850094 
-0.2582288552648178 
-0.4398354092414702 
0.0007522795147169516 
0.0008901064503282676 
0.000606641291889421 
0.000606641291889421 
0.000606641291889421 
0.01759257030306409 
-0.2147539099570787 
-0.03936807676752797 
-0.03919297756847206 
0.01304092304229773 
0.1010295620511635 
0.2317357821082214 
-0.01082171961033329 
-0.001076427338072918 
0.1844304063087842 
-0.09028966329449677 
0.07657230135850089 
0.002036843002696475 
0.4365937391097088 
0.6147539671867474 
-0.8269111407821388 
0.108187823813286 
-0.2356144271205657 
0.09277974755363355 
0.4004727454391468 
-0.001608473682343103 
0.02816348776748892 
0.04841630290323032 
0.08943587086292391 
0.100067371891087 
0.07359028563629078 
0.001179653470670766 
0.01252411569332676 
0.07428974701845775 
0.000198384578161391 
0.0001088971433145581 
0.0003697175193601492 
1.940970846772514e-05 
0.1573867791534539 
0.2126814676530465 
0.0009409681968186038 
0.0009409681968186038 
0.1570904703926533 
4.474371742341647e-05 
0.2236125527802601 
0.00661009431145613 
-0.001219702973927801 
0.001096848989102649 
0.4368178846152901 
0.0073995894973724 
-0.0001767964891833826 
-0.0001827557886055039 
-0.006169901231922018 
0.0005369246090809978 
4.474371742341647e-05 
0.2327006782602307 
0.08135212659887572 
0.00103150522503655 
0.01347991816652659 
0.0419097496985353 
0.00765297662493349 
-0.2875766789227133 
0.1738552310816288 
0.09387656089737542 
0.4815918633068273 
0.0003098310093937144 
0.2566339354710117 
0.04697752837313239 
0.009128930419593938 
0.001461595936524266 
0.0002237225119157842 
0.0002237225119157842 
0.0002237225119157842 
0.0002237225119157842 
0.0002237225119157842 
0.001853618223753277 
0.2584846973625902 
0.0003071493220315648 
-0.001224479382280036 
0.0008351614304917376 
0.04955742124205675 
-0.4859421142310725 
4.474371742341647e-05 
0.0002679494966991805 
0.2500438781630583 
0.5030809554625568 
0.1174689240431345 
0.002951831246895397 
0.00336412646171986 
0.03284959112114912 
-0.0001186334303582402 
0.06026722976948803 
0.2584001568605802 
-0.1664791252856517 
0.1680215030834588 
0.2813419403948153 
0.01526137025383848 
0.1297218166212405 
0.2164251900675372 
0.001424983478221212 
-0.2852479413070563 
-0.08461708521393009 
0.02691310742104968 
0.02699867815069207 
0.1535374423629081 
0.002963587114208436 
-0.0230989213413007 
0.002033337882645922 
0.1587428577040401 
-0.000674675723004908 
0.06741011160013856 
0.001319291877353443 
-0.16938169362014 
0.2554734789356427 
0.0009395891189247271 
0.002081771409576938 
0.0001283104466906947 
0.005272514031034417 
0.04532997159437489 
0.04532997159437489 
0.01194215361156177 
0.20900016841574 
0.1371990749937307 
0.7280805001458351 
-0.1682279001302452 
0.3818820437229061 
-1.047955724152705 
0.6822740884736014 
0.0001183791263243818 
-0.1325726206517898 
0.1566612937170193 
0.0002535929933095241 
-0.1379218208458687 
-0.0008587153475395535 
0.1979606989490047 
-0.4387429789597548 
0.1976827297139219 
8.580582259595669e-05 
0.009570803641802298 
0.1453471179240182 
0.1412914185060513 
0.06310123480881408 
0.04509838321688125 
0.0002415889943311017 
0.315540108406048 
4.474371742341647e-05 
0.00103150522503655 
0.0003379186397839031 
0.05402589089362626 
0.1650494574783185 
0.05402589089362626 
0.0561188530417038 
0.01682793766857709 
0.1444103940866712 
0.001091008243995973 
0.1255206551324664 
-0.001805530994336098 
-0.001805530994336098 
-0.06096491709159493 
0.1770153442820518 
-0.001805530994336098 
0.8916592668780876 
-0.1375082362189733 
-0.3415633990382484 
-0.8168735704649251 
0.003174161066990295 
0.0008017224368032906 
0.0008017224368032906 
0.1425272687022882 
0.0100164254623756 
-0.0002589964512362825 
-0.0002589964512362825 
-0.0002589964512362825 
0.3422424896157194 
-0.2981614761326134 
0.001271318783877546 
0.001271318783877546 
0.2868984896046422 
0.004718762439654906 
0.000146086290161266 
0.1919276371744073 
5.723585390201457e-05 
5.339213311374437e-05 
0.3478986139350712 
0.01930437715873311 
0.0003674287580623287 
0.0003674287580623287 
0.0004094348133881064 
0.007821884398770976 
0.06654222155295385 
0.001889624951864139 
0.0003674287580623287 
0.06221442668450657 
0.0003674287580623287 
0.0005154511830455998 
0.09221726953279435 
0.0003674287580623287 
0.0004804204643750469 
0.1782490135932929 
-0.1036558407738279 
0.300787369220252 
0.0004614372336373072 
-0.0006985817844560617 
0.0001247045305965082 
0.2844159391321914 
0.1147221822507028 
0.1314343406802081 
0.02750277700653451 
0.1343958669935697 
-0.08450968837817224 
0.5573161054231465 
-0.5660309844682299 
0.0003291045446866532 
-0.1441430061289956 
0.009116907549602718 
0.1263289662813983 
-0.009494154180876874 
-0.5369979286585549 
-0.5369979286585549 
-0.5369979286585549 
0.1111865541612244 
0.1522786595960397 
0.4127044045790406 
-0.00860674609753008 
0.3608823687121405 
0.03613488770713812 
0.01749724260575097 
0.00149132598473075 
0.08495743309564527 
0.02805259589372328 
0.01133375460699508 
0.4628837473827581 
0.0008623580074875483 
0.06758856535453329 
0.1854934681405888 
0.000915043421664086 
0.08571397739366322 
0.4550452333635721 
0.06672276799896738 
0.00771760245495753 
0.6865757212447432 
0.0007696565964761793 
0.0007696565964761793 
0.01370289226808651 
0.0007696565964761793 
0.0003543338410854227 
0.004098876401880915 
0.2796993266695664 
0.03755094106643614 
0.0003992919575682977 
0.0003992919575682977 
0.0003992919575682977 
-0.3684564383497916 
0.03338302957225174 
-0.1824724290838126 
0.0001369419272138227 
0.0001369419272138227 
0.001072112543036916 
0.2757179766029772 
0.0003492783585049897 
0.04623477578498852 
0.03405727746882362 
0.0001733797510010057 
-0.2406748795016029 
0.05886412858530235 
0.05750709203562088 
0.05750709203562088 
0.08776192285384514 
0.6116597365938179 
-0.1797960246223369 
0.002650461826349682 
0.07652989034486822 
0.1540514339173645 
0.05385665290037689 
0.01439459875757503 
4.474371742341647e-05 
-0.1218598400517039 
0.0003626388897935812 
0.4145195811575186 
0.002736485891109302 
0.0002460109227712641 
0.0002460109227712641 
0.01829384160147307 
0.2049931144701996 
0.04394738759767802 
0.04010897713743829 
0.0004126742030149871 
0.000511121848669017 
0.001244856264553486 
-0.01991691678992719 
-0.0003623968402836983 
0.003745192329187642 
-0.001353798638984588 
-0.001353798638984588 
-0.2540221871719039 
0.004332403951642258 
0.004119060214749223 
0.1225192556636773 
-1.072923542093554 
0.1225192556636773 
0.174445537395327 
0.0561826650273404 
0.1121008383866689 
0.1281852480941868 
-0.1547867512591204 
0.1288604816183948 
-0.4580207972165118 
-0.4581078293786188 
-0.1778450868757665 
-0.2786766523865586 
-0.4581078293786188 
-0.2034121882311453 
0.07433096543272501 
0.07407917953350424 
0.1643020367105451 
0.1749214120280655 
0.0001938600408987046 
0.006580307382162338 
0.008628723824509441 
0.1942290469702915 
-0.08527846030853531 
0.08204009992356202 
0.09819899511364026 
-0.1727814407865263 
0.2018793541936155 
0.20044672009728 
0.2007615759776829 
0.2156482739692009 
0.2542878712185904 
0.1160254345855738 
0.00103150522503655 
-0.0340850133549887 
-0.164409125875233 
0.01134165193439377 
0.04548390190413377 
4.474371742341647e-05 
0.04171312252321278 
0.0451520915123667 
0.02353620344000151 
0.01602006301319968 
0.004131777072156837 
0.1423477487484505 
0.0001070354110624441 
0.1250881330855758 
0.005487179808013703 
0.2804986976159496 
0.007504867660677674 
0.03260946057310922 
-0.3082338024921886 
-0.002252980093733094 
-0.001626510986561193 
-0.002252980093733094 
0.1900144917245036 
-0.1397804046752867 
0.3194944989458934 
-0.2865678057227477 
0.2768797599702794 
-0.3162738889060147 
0.2182165144271325 
-0.9235119004554131 
0.2181717707097091 
-0.2011080756491131 
0.07673207324345147 
0.000392493699158657 
0.000392493699158657 
0.0008003052209207315 
0.002034168581578909 
-0.06734832291127756 
0.08850996381051343 
0.001913578282820767 
0.0001424853838867438 
0.0002828545210932593 
0.007251150546769316 
0.003794369850732932 
0.001022433454111867 
0.001233459395303757 
0.00259690523773677 
0.06580897460793979 
0.1798227507817639 
0.003814507358669728 
0.001616343573399352 
0.3819432373196353 
-0.1351096375201106 
0.1669503960564965 
0.1747821414892576 
0.1798524680099849 
0.0001256369678267003 
0.0001256369678267003 
0.0001256369678267003 
0.02004356072026004 
0.0001256369678267003 
0.0001256369678267003 
0.0239901775148826 
0.04633849111090678 
0.004770788359368732 
0.3301911471301299 
0.03296049963151868 
0.3216953121781076 
-0.0009983360467743128 
3.047895345883165e-05 
3.047895345883165e-05 
3.047895345883165e-05 
0.1741176825557336 
-0.2715688907348547 
0.1121071891096459 
-0.1199577209566144 
0.04085967858143733 
0.05400822742664674 
0.03915681962610992 
4.474371742341647e-05 
0.341495098770475 
4.627552342765678e-05 
4.627552342765678e-05 
4.627552342765678e-05 
4.627552342765678e-05 
0.0005099927608061927 
0.0006121300827530644 
-0.001256887895865647 
-0.001512101340162978 
0.06315500021508724 
0.0001275021233885696 
0.06541202062047935 
-0.1720123927688588 
0.2184076819944179 
0.3145647622423967 
0.0002094150617773826 
0.1455859679939788 
4.474371742341647e-05 
0.4744698141467542 
0.01528338583791698 
-0.2455548227698016 
0.307542830507461 
0.101882453163507 
0.357843846244335 
0.04949498803025393 
0.272010652955254 
0.06585940268019773 
0.1195267728984665 
0.03875555087676049 
0.0004359813993214893 
0.0001679780225614184 
-0.002485570609738436 
0.2694696856137787 
0.001178500995790323 
0.1627422748328291 
0.005022253772568286 
0.0003429324919151111 
0.02901897500809157 
0.02906371872551499 
0.04427193793474919 
-0.162599379295228 
0.2741032935799358 
-0.01796211957254321 
0.1718628238302208 
-0.0204719330312081 
0.004644054689853723 
0.2124405963123626 
-0.001496092537119125 
0.03818134205281007 
0.02134972991196569 
-0.4096016164858076 
-0.004802590912356811 
4.474371742341647e-05 
0.0001196755667585423 
0.3234830733368922 
-0.00326219336088412 
0.0002947731598760781 
0.08143986210832072 
0.4482922331937105 
-0.5665935439380581 
0.2538011117119823 
0.0001253038607345774 
0.03880467788463972 
0.002408711036160546 
0.001177490016459229 
0.07755287739159998 
0.003839800899356759 
0.02700747737759003 
0.00372632388603596 
0.1658278920647753 
0.0003776339431907562 
0.01564027016553933 
0.0006479150815593723 
0.0001484919063936188 
0.1849381917290497 
0.1046601398286945 
0.08019540161111684 
-0.5292458840090679 
0.08109872856850088 
0.0201990405877149 
0.00103150522503655 
0.2327340335037226 
0.03672284431716012 
-0.001433396150074942 
0.005853520223910459 
0.183037024322906 
0.08490683467710536 
0.0001642574538064778 
0.003727664654623473 
0.2128024728397301 
-0.2267230099176143 
-0.1002212554101737 
-1.135203054362803 
0.03152006994528288 
0.001348863201133277 
0.05095838314819508 
0.123125569557034 
7.553647107844373e-05 
0.01205510956916173 
7.553647107844373e-05 
0.0009189621441539109 
0.0001823482662005101 
0.08740759627963768 
0.0001744184258670074 
0.0001744184258670074 
0.0001744184258670074 
0.01194861499626504 
0.01172251685072659 
0.1258617102407631 
0.1888860550576315 
0.01228168312631693 
0.01232642684374035 
0.0006132261611504174 
0.0002047008538258398 
0.009298544314397824 
0.0005413142619016619 
0.1130241393982215 
0.0001315713972338213 
-0.01387658367019953 
-0.01393139789659898 
-0.01356800269412064 
0.09949164151914276 
0.2112954654257428 
0.2600050580286748 
0.01584796462172833 
4.474371742341647e-05 
0.0001191065661163362 
0.1997648054061497 
0.0002155765818945368 
0.2440841823099839 
-0.002825560729866401 
0.05456741689329721 
0.09574809791197053 
-0.00532195467342186 
-0.00272522564565292 
-0.364041152011486 
0.0660781815094188 
0.1317851027292828 
-0.1952627154968818 
0.01996169433179718 
0.0024982157292029 
0.006819974798081498 
0.0002103444754083996 
-0.3658445403938885 
0.1616925554091662 
0.06146369778198258 
0.001182283847645417 
0.05666582938649357 
-0.09921192190418045 
0.2514508421594505 
0.00342859010385364 
-0.0001802677201985046 
0.07297542166117037 
0.0004419049620373114 
0.006147693330078182 
0.03738091653089745 
0.006147693330078182 
0.001922572113450264 
0.001922572113450264 
0.001922572113450264 
0.001922572113450264 
0.4458630256927095 
0.08181991155821509 
-0.1188078799498146 
0.2529553337471267 
0.037498893071895 
-0.03970135948571604 
0.210332789860056 
0.0661783834337728 
0.01613373286969663 
0.03608619414629059 
0.0008487387668459354 
0.000269894316880139 
0.08369592842687902 
0.08342794657356685 
0.08342794657356685 
0.06065222454137639 
0.2998717728776794 
0.0005193022768538674 
0.0001100433763361829 
-0.2598542035671517 
0.003672442233435766 
0.0001460932772657794 
0.08460911306495048 
0.4318968594716181 
0.1811404702576096 
0.001991145108948633 
0.001058654446971194 
0.1802055864850519 
0.0005027934636538864 
0.001881936393637208 
0.1095027875609257 
0.006406662590282258 
-0.005461218021072385 
0.1546968641288389 
0.1296476412847896 
0.1948600054963442 
-0.001269052272996613 
0.4217988702482051 
0.000823930855375278 
0.187903759557762 
0.0002181829832521719 
0.1332979280412487 
0.08740373619997294 
0.02906012832408568 
0.01336910290614524 
-0.008752431759265395 
-0.0007951388945650995 
0.1540008225541735 
0.06170891793306223 
0.0008460263419474723 
0.1007611947796116 
0.0005772375767640493 
0.2758754343021309 
0.05686293823102642 
0.02211550536458607 
-0.586335364341583 
0.0006072426925921215 
0.1163282923587347 
0.08240711314785731 
0.02275661130210998 
0.0488009851613559 
0.4261039244651268 
4.189434959380478e-05 
-0.0684871842557357 
6.311093845898157e-05 
0.4454459546299281 
0.03356480310875974 
-0.009819218803848943 
0.2266602423784726 
0.04947689236390634 
0.0001269934640251282 
0.0005306699463747753 
0.001572444479945891 
0.001000320372094514 
0.2331222317875055 
0.06740590466414417 
0.005865612878614233 
0.0768928148243038 
0.0176471515323496 
0.02301023145923381 
0.0001869509557600589 
0.08155611937132759 
0.3079598773743849 
0.007214580712462172 
0.007179705825111194 
0.007214580712462172 
0.1972065332433422 
0.0008185034222856167 
0.08780802887665283 
0.0008406689246945721 
0.0007861765472693089 
0.09642188269234177 
-1.641821936812277e-05 
0.00770785877749931 
-1.641821936812277e-05 
-0.0002907536003703215 
0.3726786998738933 
0.1088031872636719 
0.116294141276789 
0.0002045620965540929 
0.0002045620965540929 
0.0002045620965540929 
0.0002045620965540929 
0.001293144072292845 
0.2700411289560295 
-0.004639792845134161 
0.006091588313857518 
0.1885414195148395 
0.1363030817458007 
0.03854007970841121 
0.2551295809612197 
0.0150489180918006 
0.0007319414367726639 
0.003603350158428161 
0.08454965093986946 
0.0004661840172688106 
0.1076037127796375 
0.09615600891884574 
0.1048988834811556 
0.1257784445427722 
0.0001964237957854617 
0.0002522410978077366 
0.1724482626722421 
0.01278148479169908 
0.03536784557517025 
0.0007935402667475737 
0.0007935402667475737 
0.0007935402667475737 
0.0007935402667475737 
0.0007972956713650935 
0.2705959153855941 
0.0821628650338827 
0.09007373885506278 
8.173786432509199e-05 
0.03172448770913599 
0.1817916297022279 
0.1732486365740737 
0.0009177878212206141 
0.001121253987560916 
0.1757443737957838 
0.0001461156599855035 
-0.02191165810660695 
0.0006371465183161914 
0.4417903500151447 
0.02319120542182257 
0.0005174395035979537 
0.0005174395035979537 
0.0004725903211125838 
-0.0002632630536031713 
0.1128868890830463 
0.3599195314604879 
0.0001186581846548772 
0.001290618072264873 
0.00103150522503655 
0.0005151504046116522 
0.2051123512928316 
0.04057009139427029 
0.05857657630874063 
0.05857657630874063 
0.05857657630874063 
0.0002273578934681103 
0.4248644095434999 
0.002606102684421904 
0.0005875029995211272 
0.01855722410012046 
0.09227900653163749 
0.001379283657159837 
0.06692433574029683 
0.2440018624512309 
-1.053107005975834 
0.1432183829129489 
-0.3675923736215561 
0.0003337870638187749 
0.09423823497462061 
-0.0008116113394242693 
0.001103728301616997 
0.0006713546187284192 
0.08697039201009082 
4.474371742341647e-05 
0.1219965373443758 
0.03576442608574832 
0.0001388485183267016 
0.01777689211376362 
4.877632414444344e-05 
0.002284650943275467 
0.08753985051772883 
0.01174910709263312 
0.01070711488665203 
0.0001854919798324277 
-6.130617012461674e-05 
0.0006044148052555306 
0.01276385623542609 
0.0130984235725845 
0.1958007303263106 
0.09283595488691215 
0.1567996342970309 
0.000469841798021916 
0.1190914839643819 
0.03858304928406683 
0.00103150522503655 
0.2642991470621158 
-0.9806501981689392 
-0.2066679572682658 
0.07144221329388878 
0.001002972036828548 
0.0004106552771472772 
0.0004106552771472772 
0.0006020946692625905 
0.000336152308214131 
0.0004106552771472772 
-0.01503989201904356 
0.06128097766018568 
4.474371742341647e-05 
0.1223230751602126 
0.0768558926214694 
0.003921419797008907 
0.003161675233954377 
0.001880848504017264 
0.001176171983863114 
-0.006040106847944323 
0.1006022542610401 
-0.3621742520708837 
0.001279423863865272 
-0.2585655530058859 
0.0001848678369967026 
0.1935896703168798 
-5.414498331778728e-05 
0.0003424092289700484 
0.08205724006363753 
-5.414498331778728e-05 
-5.414498331778728e-05 
0.2098950343636752 
0.0009616407253146147 
0.0009363210330096986 
0.09944387056700593 
0.0005354260091316582 
0.2861775777101908 
0.0008371610325757851 
0.2030043342274359 
0.01760784208721753 
0.1828373946992286 
0.1475177771547084 
4.474371742341647e-05 
0.03856749336929072 
0.1400685197544843 
0.003640313570021594 
0.1488763873450956 
0.0001746599886592027 
0.03692350019571977 
0.0001983591042984228 
0.2211381472227997 
0.06643073742233534 
0.0001983591042984228 
0.01278497268226347 
-0.4976164480832693 
0.3989956856402724 
0.2892894410774326 
0.0003024475882476503 
0.0003024475882476503 
-0.0004809506471091486 
0.2328533617380159 
0.08691696631527759 
-0.02264110986190986 
4.474371742341647e-05 
0.00132132840292333 
0.03662434294470675 
0.019114180703661 
0.1131248758280416 
0.1239009893310214 
0.1010876099071122 
0.1332177797120436 
-0.3463729697361603 
0.0001153288516677816 
0.0001153288516677816 
0.001263827692819512 
0.0004754312341631391 
0.006336531255523655 
9.430851894678229e-06 
0.01256312099317194 
0.09855638096884395 
0.02270185467181064 
0.001875259241937105 
0.1344341756726287 
0.001753782824671028 
2.60536092704782e-05 
0.1121514334829859 
2.60536092704782e-05 
2.60536092704782e-05 
2.60536092704782e-05 
0.05604216241962285 
0.08131554200092501 
0.01581938278918276 
0.1942456813849239 
4.474371742341647e-05 
4.474371742341647e-05 
4.474371742341647e-05 
0.0009260040114407753 
4.474371742341647e-05 
-0.00418602783693204 
0.05427181320011176 
-0.001682041042660082 
0.1165785383913596 
0.2385861229511545 
0.4524677862276897 
0.005108024353176479 
0.00103150522503655 
0.05057889141280936 
0.0003651649679175665 
0.6050961641548561 
0.2121214167849247 
0.3086400908047962 
-0.04026694712034529 
-0.5864993114618925 
0.05768291850933156 
0.05697054921983127 
8.793765348949254e-07 
0.01616733862846349 
0.0003353788165667379 
0.0003353788165667379 
0.0003353788165667379 
0.0003353788165667379 
0.01441499457363281 
0.001067661100155329 
0.03441445722071394 
0.0009888090084058179 
0.08029683992168929 
-0.001083396729843627 
-0.001083396729843627 
0.01611144463387329 
0.08942612563615385 
0.05573770729983919 
8.11637834424509e-05 
0.1042166725173722 
-0.0003008869794509326 
0.08069829363711956 
-7.426573162462251e-05 
0.2375162294684142 
-0.0002599067364825015 
0.2288014257761309 
0.0009094793089527599 
0.07711252922711292 
0.01487561327655206 
0.0002348411623637311 
0.0001942643931190943 
5.103857363163615e-05 
5.103857363163615e-05 
5.103857363163615e-05 
5.855261787775294e-05 
-0.002726031320637548 
0.02989405141196093 
0.05636852352216236 
0.009373359587119856 
7.46139294224109e-05 
-0.5109013003375367 
0.3011547002207918 
-0.002063038052352915 
-0.0001333238435373278 
-0.006383728400390379 
-0.00329703090279211 
0.043440451301961 
-0.2058721383091635 
0.08174424330755546 
-0.005652563288274456 
9.730786593600639e-05 
0.0001359787797246304 
0.000523407732173701 
8.450765996874266e-05 
0.1001346820143573 
0.0002366179235493073 
0.08997239588180371 
-1.783724367892326e-06 
0.1375606430012035 
0.3236788728522271 
0.0002533618840399745 
-0.003212402976176055 
0.004938165964467859 
0.02799476913702268 
0.1256886493059966 
0.03120892375020689 
-0.3987868786912889 
0.01425114671405564 
0.003780543073530231 
0.002886705709252092 
-0.0001260104473683218 
0.1062418069591768 
0.0007121597060006143 
0.0002956090252428339 
0.3767171314439476 
0.00874977813541236 
0.145550125066595 
0.001195938017771666 
0.008490957176009575 
0.00509401882724653 
0.001195938017771666 
0.157585097707392 
0.1411864098042542 
0.2598276884260235 
0.1140134205159056 
0.05358909779009185 
0.08358438441635016 
0.006292880174628122 
0.1297554427172413 
4.474371742341647e-05 
0.002455247514102328 
0.006729636208480295 
-2.018803559078331e-05 
0.2353243779187502 
0.105018218756628 
0.001650255178037493 
-0.6258579439148001 
0.144778518219209 
0.1780780833265161 
0.07804650172645361 
0.04633718545522147 
0.01224698859202693 
-0.3876885954382402 
-0.01277358711518787 
0.07354314103303151 
0.1401559631281548 
0.00103150522503655 
0.07516556367236558 
0.1182849789086586 
0.001615760813060913 
0.03259655220663837 
8.698488646334775e-05 
-0.4166712204910402 
0.000953618353432855 
0.3358793097733748 
-0.2169665379920986 
0.01868655896449728 
0.000125376879300318 
0.001154476390009859 
0.002291799754863262 
-0.0002494852356050279 
0.2186559020883317 
0.03668245446814936 
0.1389135346173124 
0.0001073543092905558 
0.001210670118350873 
0.0001073543092905558 
0.0001073543092905558 
0.0001073543092905558 
0.0001073543092905558 
0.0001073543092905558 
0.0001073543092905558 
0.0001073543092905558 
0.01074161928851416 
0.0001073543092905558 
0.0001073543092905558 
0.004478653399262037 
0.0001531525659644773 
0.0001953635102413891 
0.001276862276273117 
0.02364927213319307 
0.02364927213319307 
0.02408470743301548 
0.02364927213319307 
-0.3409353229021186 
0.0657238679641996 
0.00103150522503655 
0.1772707728007134 
0.008442776472334166 
0.001406759728885816 
0.000857401717679073 
0.004166072434813105 
0.0002352645549811101 
0.0002352645549811101 
0.0002352645549811101 
0.08881678187469057 
0.0002352645549811101 
0.001984992617751922 
0.09292750651843976 
2.14667773178158e-05 
2.14667773178158e-05 
2.14667773178158e-05 
2.14667773178158e-05 
0.00103150522503655 
0.05285160580508984 
0.1877720367507477 
0.1933175483694103 
-0.1847212074980896 
-0.04243355010170476 
0.04610463968541956 
0.03121256184049189 
0.07585429188798734 
0.0002835328391501588 
0.102531799059578 
0.002067125249790635 
0.06610109934594231 
0.000592889360102165 
0.0002196109867708184 
0.1296271754216041 
0.2979704811748479 
0.00220067391791204 
0.0001030399005709837 
0.07774416694926098 
-0.0001441741695250009 
4.474371742341647e-05 
0.001160574315164595 
0.2528706528039715 
0.07138070862149962 
0.009357404251350124 
0.04817522548566766 
0.0001308831644641709 
0.003080415041579993 
0.06591267543456208 
0.1298206894894814 
0.00135224296826342 
0.03342777349361043 
0.0009990614050804066 
0.4320974502859654 
0.4046926562324313 
0.001444397440906951 
-0.003111568140371605 
0.04751855875739953 
0.03472764267243157 
0.01364569783424955 
0.06487192990800954 
0.04017835291929536 
0.07855690071499183 
0.007181903192871902 
0.002616558941054044 
-9.021059489405214e-06 
-9.021059489405214e-06 
0.0001172437473453631 
0.1336972270617152 
-0.2857091457688495 
0.1818346333418124 
0.0179075177638321 
0.0001946563425997076 
0.0002394000600231242 
-0.2770692746810386 
0.06089167126926889 
0.06414089933333986 
0.007920381396674281 
0.1611557361061941 
0.1320170197332657 
2.625949946180033e-07 
0.01290502818227406 
0.01087010339695881 
0.07154652763093568 
0.002079775314154399 
0.00741696535870693 
-9.804739198397547e-06 
0.1728089272244475 
-0.005307417082591728 
-0.004424048913652686 
0.2309465045600346 
0.1489486314747982 
0.0001118151253544841 
0.1344197680870228 
0.252283931777359 
0.007802444830300832 
0.0003218736356256043 
0.004462703060253004 
0.2705647574839748 
0.00103150522503655 
0.0002592174446933316 
0.05998291596436209 
0.001350637822983444 
0.01786872365835018 
0.1074180489436974 
-0.1060838121272869 
0.0001288356651042339 
0.0009682574357130331 
0.0270058437921482 
-2.078836846443891e-05 
0.08324134049147391 
0.0002766496620827596 
0.06663261721893896 
0.00386069738717148 
4.474371742341647e-05 
0.0001864079537268886 
0.0002385832096745718 
0.01140740900894953 
0.0002385832096745718 
0.0002385832096745718 
0.345210227808725 
4.474371742341647e-05 
0.2351068204696355 
0.3488126292049152 
-0.001552725061192484 
-0.0004029491386206042 
4.474371742341647e-05 
0.006363532652280548 
0.194151181879676 
0.0952891041780026 
0.0001290066693611154 
0.0003944162215855899 
0.0001290066693611154 
0.0001290066693611154 
0.0009421451693922645 
0.0008701830302860363 
0.0007319424785477435 
0.0007319424785477435 
0.0007319424785477435 
0.0007319424785477435 
0.000993274834419495 
0.0008099209042335797 
0.0004260998662376946 
0.3167444261874339 
0.09713716975963591 
0.002035192665240842 
0.03368578707020658 
0.0008166175841247385 
0.0003271150665702162 
0.0003271150665702162 
0.0003271150665702162 
-0.0005300444433630156 
0.0006550662697144975 
0.1901096593207311 
-9.237384902068513e-06 
-9.237384902068513e-06 
0.0007018814261511114 
0.3777749654736785 
0.02480321394119339 
0.0001075349177632957 
0.000199758825109128 
0.004858902719384488 
0.0001235094823986518 
0.06269121853984322 
0.0003177443805422119 
0.008852056991982162 
0.2492692299143197 
0.0007910068444222822 
-0.3355586981838427 
0.2058914474584943 
0.001532645645924074 
0.004079227177433137 
0.3197535772535314 
0.1159231547734234 
0.0761114559547615 
0.001189251457681924 
0.02738516126653631 
0.01490626987772866 
0.2182264442823201 
-0.2806444933539993 
0.0006908896088056522 
-0.002201306519440685 
0.1751998254010953 
0.0001331766282292339 
0.0005119639874768048 
0.002565356330760138 
0.001018071379442891 
-0.0001377510406558758 
-0.0001377510406558758 
0.1290952881291346 
-0.0002568055176140441 
0.04249772399731966 
-0.2456690491077992 
0.2610036183334251 
0.1063869806451373 
0.0001127747676618872 
-1.773995106568137e-05 
8.032072470828228e-05 
0.06492675493547487 
0.05271048465444032 
-0.0008038280329871247 
0.04049915324355776 
0.2607231532572392 
0.1562482247635549 
-0.003602817624934455 
0.1951924132161201 
0.01298566729281453 
-0.0001024124860641615 
0.01723018380898917 
1.095014326285047e-05 
0.07967586384126465 
0.04022368512170722 
0.09017951708941577 
0.0006880936559121587 
-0.6317626222070739 
0.001968568719466992 
0.0003157125523724102 
4.13705776490928e-05 
0.00702731572065219 
0.1013405931827291 
0.09275874584185789 
0.001545913247359882 
0.008420822468189329 
4.361695165474869e-05 
-0.5703282326289373 
-0.007398822369713894 
0.008531027302261761 
0.06838037348764783 
0.1143382193715084 
0.000111680994511434 
0.09800820283255376 
0.0679422405071148 
0.0001542692781275782 
0.000267480420673529 
-0.0003524584150745396 
0.001628235156370221 
0.01251129034085118 
-0.5472414457365262 
0.169663735665341 
-0.0005226838078886437 
-0.0003676211991214214 
0.0007297464902512956 
0.0001499471510886336 
0.1318989201734595 
0.2880661639610224 
0.0001134770133207987 
0.02141852206308214 
0.001117656346258239 
0.3206510827770991 
0.0004538169531001964 
0.03113073180656294 
0.03113073180656294 
-4.360090759005814e-05 
0.08795871321784074 
0.2938721511752393 
0.2938721511752393 
0.2938721511752393 
0.2938721511752393 
0.08002062551425076 
-0.0003860551956681396 
-0.004869878866256002 
0.09021709927362795 
0.1123452858467241 
-0.2507697313114838 
0.249919278041835 
0.0002268416053583435 
0.2380598312849532 
0.002477331607384599 
0.125314034269241 
0.0004806455274649363 
0.0004806455274649363 
0.0004806455274649363 
0.0004806455274649363 
0.0004806455274649363 
0.0004806455274649363 
0.0004806455274649363 
0.0004806455274649363 
0.0004806455274649363 
0.0004806455274649363 
0.001225435191776968 
0.002458669273862552 
0.03373000797217339 
0.02240146755448305 
0.01471014888604178 
0.09631745313559148 
0.0004164459575919674 
-0.01014221702708479 
0.008363113697550282 
0.0595916587826163 
0.0001412564828554102 
0.06765490867350768 
0.0001882310048412092 
0.0009638338096931684 
0.001521438054826833 
0.000229443771274191 
-1.469245035105348 
0.02299334038888542 
0.02418336057390375 
0.0005182350756462695 
0.0005058169340091705 
0.00117363048255753 
0.0001499829849936158 
0.0001499829849936158 
0.07366283871470146 
0.0005341564692690379 
0.0003739947560714983 
0.01482229424495802 
0.0001884133617078866 
0.001526794036317722 
7.480058325488599e-05 
0.00425196848924222 
0.0004029829956081681 
0.004851964527915162 
4.474371742341647e-05 
0.1596218656007976 
0.0003941183452097889 
0.3178577628250907 
0.09563823987066816 
0.002218669906790817 
0.002218669906790817 
0.05864536241493433 
3.936822623197661e-05 
3.936822623197661e-05 
0.00103150522503655 
0.05322768463332616 
0.0602616448814714 
0.05322768463332616 
-0.2032709903564315 
0.005229137291319482 
0.2672164275023922 
0.0001768805072125303 
-0.5994816782202071 
-0.87854391734022 
-0.0008128691992349512 
-0.0007664618877208049 
5.25369057466874e-05 
0.04631727157652094 
0.08931400613780247 
0.0006063399163512993 
4.474371742341647e-05 
0.001431998150308023 
0.0007976003026357954 
0.0007976003026357954 
0.0004406377930365771 
0.1213564827980059 
0.03104105882955575 
0.03219007386806847 
-0.002552162847578099 
0.0002104285994839898 
0.0002104285994839898 
0.0002104285994839898 
0.2004465606901637 
0.0002104285994839898 
0.0002104285994839898 
0.0002104285994839898 
0.0002104285994839898 
0.0002104285994839898 
0.02523535193104677 
4.474371742341647e-05 
0.2140108342558651 
0.00714370975320158 
0.09550837452556488 
2.364583966886499e-05 
-0.7069358225846096 
0.00103150522503655 
0.0001212194781056808 
0.003506720983812694 
0.005213643578734032 
0.2852053270314985 
0.00035430902005637 
0.01327839145068211 
0.0002988594494132233 
0.0002988594494132233 
0.04683755215515084 
0.008147225216867608 
0.0008411862116126024 
0.1044229669826917 
0.0009882788834834275 
0.001307460610254728 
0.1292045088267407 
0.001515745712026973 
0.0003699260233321848 
0.002888697196626125 
0.1107382677544087 
-0.6010048494443905 
0.08392534244958134 
4.474371742341647e-05 
0.1725089696941554 
-0.006739325997702623 
0.001014408182208249 
0.2277592209441572 
0.002020666030986914 
1.679538338954543e-05 
0.03553180840684236 
-0.000205186314406349 
0.1584605463019158 
0.1241366216599507 
0.1678819901584208 
0.1258079939172156 
-0.001500092042270172 
-0.0004617132053992729 
-0.3251621203994698 
0.01762742430262688 
0.000206998723288745 
0.030736106324104 
0.02978975935247517 
-0.2688742525900862 
0.0293761856823008 
0.1105473192181108 
-0.0002599278697388463 
0.1577780930413065 
0.1492001335581254 
0.0001423238621052551 
0.02399879630090724 
0.05729140336346428 
0.001798783669923327 
-0.002847652165121322 
0.3078675644098732 
4.474371742341647e-05 
-0.0006525595711706638 
-0.003812566849908489 
0.0001909527026019538 
0.0001868112041416962 
0.0003149959801170729 
0.0003149959801170729 
0.06680803161853391 
0.004307252164115838 
0.0004387246906356515 
0.02087280531387393 
0.08009581282932693 
0.002247168392245126 
0.1963868921568957 
0.09899348787709347 
0.06310589649854924 
-0.006353835834468387 
0.06669642114983045 
-0.9006139027355947 
0.2577596997893208 
0.04372264258043482 
0.002160474206260105 
0.0006133374780461925 
0.07345863563564815 
0.0004271140442024669 
0.1105755546561132 
0.0001146952284917528 
0.0001146952284917528 
0.0001805847190032012 
0.01711169329861686 
0.2691059168824111 
0.0002824229978174362 
0.1187369501086137 
0.09521981962799493 
0.09368220408004814 
0.09346577967549502 
-0.6382514383609585 
-0.0001542008401866496 
0.005233768925490689 
-0.3893300300543112 
0.04825393180177398 
0.0219008147365839 
0.001968723566630325 
0.01519753539362085 
-0.001006124077186931 
0.0003824268253743214 
0.03885098110941224 
0.001881936393637208 
0.006537650222937329 
-0.0111307415869903 
0.00103150522503655 
0.04803903984062913 
0.07964985252864534 
0.0006041052884098431 
-0.0003200629085812422 
0.002316154400469203 
0.4686519401190128 
0.005225932383962267 
0.00103150522503655 
0.001636977610204071 
0.00201126114291244 
0.1369451476866133 
0.0001002796872999102 
0.0001632707592642257 
0.003545865625550757 
0.03225941950686102 
0.1107087467752038 
-0.01695892139268971 
0.00378595922876685 
0.0008570544206102238 
0.0008570544206102238 
0.2855807664476782 
0.0001478725202033815 
0.0001478725202033815 
0.02447411871123183 
0.02447411871123183 
0.02447411871123183 
0.00338653179400398 
0.002108454063630067 
0.001881936393637208 
0.01687824373491122 
0.0002058075124732887 
0.0002058075124732887 
0.0001747884176291431 
0.001584617385699966 
0.09923704838312783 
-0.006445268208203202 
0.06048788540141935 
-6.4459409753562e-05 
0.002100053465059291 
0.001083174024896977 
0.1059641000469197 
0.07931082585577896 
0.0004334630140860319 
0.06528917339748104 
4.474371742341647e-05 
4.474371742341647e-05 
0.02458167633259122 
0.0700122581459327 
-0.3651251029616198 
0.07008492566336905 
0.08458031134243381 
0.0700122581459327 
0.009159531578635877 
0.1345785080338375 
-4.941649770197585e-05 
-4.941649770197585e-05 
0.06053871558429551 
0.007216001665030152 
0.0001362391865494462 
0.0001362391865494462 
0.0001362391865494462 
0.004065306462888872 
-0.001257803692474538 
0.2587507656243872 
4.474371742341647e-05 
0.2631605787803523 
0.003811725858865845 
0.0003503639474423317 
0.1722508083984652 
-0.004055971323240556 
0.02267637782317658 
-0.5428868610824453 
0.0001172402828886838 
0.003233256547830007 
0.002226559768254055 
0.002226559768254055 
0.1289613901182184 
0.1287652840962681 
0.002373187080693044 
0.002226559768254055 
0.003720746703091255 
3.345041359229127e-05 
0.0514500713257213 
0.009809118403908227 
0.009396517616972317 
0.0001397689801022674 
-0.0006336038102945053 
0.103922768837096 
0.224947718779146 
0.2426739063621623 
0.1799344979829746 
0.005878348000349195 
0.005587785515088621 
0.005587785515088621 
0.002564165676292285 
0.005587785515088621 
0.005587785515088621 
0.03328658814291512 
0.005587785515088621 
1.797670024679492e-05 
0.1403389898800312 
0.1139758424692097 
0.001126049636161952 
0.007190916032590919 
-0.1795895770009473 
3.637688742403151e-05 
0.0001615710336942202 
4.474371742341647e-05 
4.474371742341647e-05 
-0.0005597385357547617 
-0.0001691058110016905 
4.474371742341647e-05 
0.08736811031164854 
0.0009409681968186038 
0.0009409681968186038 
0.0008291678881959419 
-0.005713894533548229 
0.07918588377263522 
0.0002350002613706022 
0.008937568070324413 
-0.2232063277689628 
0.0005731906504909487 
0.001015348394129568 
0.002381119174917213 
0.001518545735349228 
0.03292741423491618 
0.193034551245215 
0.1319535205068753 
0.00036572239362894 
0.01553723273212345 
-0.001730430119462826 
0.3545697404783041 
7.875841429635764e-05 
0.004756349200586761 
0.004840833060314624 
0.03140476942435302 
0.00103150522503655 
0.000810774870314592 
0.0001147275298643578 
0.001596756076745478 
0.0006999128570689278 
0.0005138288996218328 
0.0007450465424033649 
0.1483883522708801 
0.00534845347449299 
-2.497490846174861e-05 
1.976880896166786e-05 
0.1015283356456628 
-2.497490846174861e-05 
0.001745695753689735 
0.01034685434670061 
0.008751261524101736 
0.0103021106292772 
0.001577634719381215 
0.01437401274932564 
4.364815589547391e-05 
-0.0008207604197600228 
-0.0009197341842779605 
0.1368307334401913 
0.0004789424822409038 
0.1142475033657027 
0.0857966324817071 
0.1610200437573308 
4.474371742341647e-05 
4.474371742341647e-05 
0.08532633910073591 
-0.198339363725387 
0.10191790785707 
-4.591160898993942e-05 
0.07394062486720973 
0.0001283566620925336 
0.0001283566620925336 
0.0001283566620925336 
0.0001283566620925336 
0.173327637446148 
2.763526001855519e-05 
0.03609969207365077 
0.001104254717547353 
0.2432292488686858 
0.01839791133213177 
0.000844314051616745 
0.0009398341912216912 
0.2282769397583649 
-0.0006639933763345237 
0.140262175568468 
0.2653653845651175 
0.1572103225527912 
0.001493581158553651 
0.0006157027231864522 
0.0006157027231864522 
0.1036556109554002 
0.0006157027231864522 
0.0006726652461996017 
-0.7371500307016396 
-0.7371500307016396 
-0.1647627986195599 
0.0760714262815403 
0.3886871140139809 
0.0002550096967390681 
0.2187582451089004 
2.332537397442501e-06 
0.01127128866770383 
0.0002291634468967896 
0.382710555496165 
0.006616636306793157 
0.1776634303770747 
0.000719015430526992 
0.000719015430526992 
0.002104306559896088 
0.000144232561068917 
0.03562245346128795 
8.648410243475167e-05 
0.03770744595376879 
0.0003748915270278295 
0.001296663636825276 
0.0008740472139244221 
0.001803414823734517 
-0.002771107143043249 
0.0005142098590638084 
0.2053455927369328 
0.01114691532416383 
0.1638722389770622 
0.08378372509251282 
0.1755532606181943 
0.04863566447485973 
-2.7449420564667e-05 
-0.008861957853557721 
0.1597426833465309 
0.00453216541327246 
0.04611089619089891 
0.000209802233025606 
0.05577239997471393 
0.07166088483092596 
0.0003914060099045502 
0.07939204522923969 
0.09690939682532879 
0.2155358374107154 
0.0002215157259157353 
0.0006698862782009889 
0.0006698862782009889 
0.0006698862782009889 
0.0006698862782009889 
0.0006698862782009889 
0.0006698862782009889 
0.1237001758158876 
0.008169454376970444 
0.0009339715087056367 
-0.0008386244515156231 
-0.0004722430275799515 
2.72693286685936e-05 
2.72693286685936e-05 
0.0003150511208484157 
0.0003150511208484157 
-0.0006040878305321253 
0.04006510076994845 
0.01194116557789489 
0.003133721606245422 
0.08921205681068893 
0.0002028627338536458 
0.003355248645641989 
0.004650527413645646 
0.0001218638957396044 
2.282585244607092e-05 
0.1542066577379696 
0.1031033219332835 
0.03014029820560674 
0.0003823659592497084 
0.4236735785156042 
0.001296278812627622 
0.00103150522503655 
0.004217541196696181 
0.001199778725422443 
0.0005365743335256143 
0.002986715524801232 
0.0002361977944717992 
0.0002361977944717992 
0.1595931429036617 
0.2891329253990486 
-0.0008582143946505138 
-0.0002341582800119642 
0.02639552588351501 
0.0009883887386649441 
-0.1917593391287228 
0.01521265163264595 
0.0003153643052377368 
0.002687167717440399 
-0.0157801909164975 
0.001061469265995472 
0.0001191065661163362 
0.0026214543778993 
9.430830142720951e-05 
9.430830142720951e-05 
0.001130317694201236 
0.009585608922333583 
0.008988203069178096 
0.03220989677738262 
0.01907795796720822 
-0.0002591135348395204 
-0.0002591135348395204 
0.06059477810394526 
0.005497532297501597 
0.0005965189754063464 
0.1845104619986847 
8.342608062351952e-05 
0.131570939384079 
0.0001932401525081709 
0.04705469888467451 
0.0001071233544719417 
-0.006382328086794842 
0.001915615551789919 
8.966348255592465e-05 
-0.0002922245889150186 
-0.8288849035279692 
-0.8288849035279692 
0.02706013964575595 
0.006405075519019879 
0.0003701678985010472 
0.01222088667781499 
0.001416406962234329 
0.0007340141662528366 
0.001416406962234329 
0.001995431902591193 
0.03919623033866174 
-8.711142915481066e-05 
-1.984947182549424e-05 
-0.52457779129438 
0.0003621812362809174 
0.09271670490656661 
0.0009409681968186038 
0.0009409681968186038 
0.02470607959953873 
0.0002146741884797402 
0.0002146741884797402 
0.001900355581121562 
0.3467107389502931 
0.005179081921599362 
0.07699606132676201 
0.02326258170531213 
0.02245892291817427 
0.0254107919919587 
0.009373324697649198 
0.1510781716871893 
0.001940239930886982 
0.0005936175927003482 
0.0005936175927003482 
0.0008169630106760156 
0.0005936175927003482 
0.0005936175927003482 
0.0005936175927003482 
0.0005936175927003482 
0.1587911851241141 
0.06217198855801608 
0.0002459812265799644 
0.002016267955026426 
0.09851345117482264 
0.09792342517474356 
-0.650402731387965 
0.02752177024365148 
-2.616284497727661e-05 
-2.616284497727661e-05 
-0.001706796652111844 
0.0276289006496954 
-2.616284497727661e-05 
0.0004820891653784794 
-0.1674162068997297 
0.002273576146215111 
0.000277620808039308 
0.0001496578586271436 
0.05729658547512698 
0.0003195499025833408 
8.014207880264406e-05 
0.0004425448148545012 
0.000369964256206488 
0.08028791136754738 
0.0006960335567549512 
-0.004741436983095757 
0.001152847791207727 
0.0007953754222301241 
0.1997921104511191 
-0.0004084008311629145 
0.01886521552298882 
7.18006136780697e-05 
7.18006136780697e-05 
7.18006136780697e-05 
7.18006136780697e-05 
0.06600460049154463 
0.0762536124849082 
-0.0004846576807393728 
0.0001861300352520678 
0.001061372987672802 
0.001659826271681752 
0.0004738686534349666 
0.6891010386594169 
0.4929652800886476 
0.0005271346722810549 
0.0005074940816862388 
0.008456105489210008 
0.008456105489210008 
0.008456105489210008 
0.008456105489210008 
0.008456105489210008 
0.008456105489210008 
0.008456105489210008 
0.008456105489210008 
0.01298476900711605 
0.0003470232948776748 
0.0001188741024546195 
0.0001188741024546195 
0.005791093761932041 
0.002592152151299855 
0.005766047555826593 
0.0004915374983472047 
-0.3393271473164025 
0.0002015167950569735 
0.0005937479000973482 
0.004091098335459949 
0.0003499278477423508 
8.948743484683295e-05 
0.02048411585256816 
0.0008458225178397678 
0.08321274253402307 
0.03986970293625887 
0.04888091060447 
-0.005138947519268698 
0.1415813750381864 
0.1516184795986516 
0.1594107545226705 
0.002018138926018686 
0.001204082068200327 
4.474371742341647e-05 
0.0003614693078553962 
0.0004193742407014635 
0.0001945142863152965 
0.008371393807592701 
0.006854884447549783 
0.000152705440601712 
0.000545372525020624 
4.474371742341647e-05 
0.001260286455377267 
0.001260286455377267 
0.08046003913747368 
0.0001722261449821438 
0.0003132060219639155 
0.0006568324814410427 
0.003023736400595972 
0.1497820581691159 
0.000118177123514693 
0.3131985059714266 
0.006109545120936301 
0.1699959906748366 
0.1742338869622555 
0.1172681466896776 
0.0003186147434842814 
-0.4251497739989084 
0.0007875170474708404 
0.0166858193928515 
-0.0008245928939854756 
-0.003597208726945006 
0.02304380867775041 
0.0006256407179355373 
0.0006256407179355373 
0.0008785242586904799 
0.0006256407179355373 
-4.495088729354273e-05 
0.1388241025756455 
-0.00985547513035517 
-0.0003934539806336978 
4.474371742341647e-05 
-0.007238296265944995 
0.3343723830101374 
3.42089311633344e-05 
3.42089311633344e-05 
3.42089311633344e-05 
3.42089311633344e-05 
3.42089311633344e-05 
0.005511471306496996 
4.474371742341647e-05 
0.1263691412087301 
0.0001271662175974982 
0.4184173618417497 
0.0940797649882656 
0.1825894371342776 
0.005000220444897832 
0.005115366357374586 
0.0001402790561011739 
-0.7411800963874919 
0.1811418927281767 
0.08704483829160152 
0.08690975487229075 
0.08601856559434032 
0.0007781902778843937 
-0.003767814555171567 
7.908420319249301e-05 
7.908420319249301e-05 
7.908420319249301e-05 
4.646857455314175e-05 
0.0001359560093999747 
0.0002108691659224641 
0.0007629758750358941 
0.0003487389379374539 
0.001147661913383677 
0.01865018050182693 
0.05973452659631346 
0.0004290852552622643 
0.001133738414316946 
0.0008247247861144977 
0.0008247247861144977 
0.001186463455109399 
0.3616551378513359 
0.004945124271270165 
0.004945124271270165 
0.004945124271270165 
0.004945124271270165 
0.005784508742198922 
0.09270034872299097 
0.2070402188297078 
-0.001928031658308628 
0.06686435799975848 
0.02618388725752066 
0.02618388725752066 
0.02618388725752066 
0.02618388725752066 
0.2296968746735634 
0.06569320863684878 
-0.9292306886517885 
9.493272058647964e-05 
-0.001824262159147256 
0.0006754219087960771 
0.000210202690844521 
0.000210202690844521 
0.1434246371643778 
0.125203413503657 
-0.3649144459179106 
0.07433028494869091 
0.00795322704322781 
0.001637540511738193 
0.0007572545503455251 
0.0007572545503455251 
0.0007572545503455251 
0.05914953910339205 
0.0008217358685483241 
0.1936081323749555 
0.1436609089174013 
0.000435241532936474 
-1.043035399044969 
0.04306501434620079 
0.05155777540179667 
0.05841878889917902 
0.05841878889917902 
0.05847278782304132 
0.02197109250187492 
-0.0009892623649250939 
0.0001956965482681175 
0.07918672320690984 
0.07918672320690984 
0.07918672320690984 
0.002749212272288946 
-0.001664246872361979 
6.69115658020207e-05 
6.69115658020207e-05 
6.69115658020207e-05 
6.69115658020207e-05 
0.1987501382382747 
0.0001943489718639349 
0.03629502083820225 
0.0001943489718639349 
0.0001943489718639349 
0.0001943489718639349 
1.858157996848282e-05 
0.0003768712164523866 
0.03247665943557012 
0.1116481377229969 
0.00035748021167869 
-0.0001979875252764372 
2.489896636599786e-05 
0.8704576969254989 
0.002335142995815624 
0.001124531665119303 
0.07124729998440731 
0.001124531665119303 
0.001124531665119303 
0.001124531665119303 
0.08460291241900265 
0.08115456661624529 
0.1109173511093896 
2.383343463732208e-05 
0.003455996478193404 
0.06291879951343453 
0.1592690445009329 
5.678825260588241e-06 
0.001380700737303142 
0.00103150522503655 
-1.313596465976302 
0.0003087165279733599 
0.0002484789961323981 
0.0001887158526851971 
0.2158508011846773 
0.0006097002244538964 
0.0002628315623475481 
0.02239848572341544 
0.2665048866521331 
0.01581341253671205 
0.01493334556570031 
0.01568863643890589 
0.01568863643890589 
0.01034518680257311 
5.361100578314325e-05 
0.00103150522503655 
0.07976163892126087 
0.002318014075840222 
0.06485636300983988 
0.0002789220621896114 
0.0002789220621896114 
0.0008331135807906726 
0.004061422708250145 
0.0003250355845104175 
4.474371742341647e-05 
4.474371742341647e-05 
4.474371742341647e-05 
-0.0005772494215947467 
0.0559240784445709 
-0.00175941988387106 
0.002230340786231532 
0.0001491070658655641 
0.0001491070658655641 
-0.2125560320096253 
-0.002898943579251767 
0.001008064443146773 
0.0005665563716755475 
0.1054034719667785 
0.000946367553771299 
4.411006727161673e-06 
1.211699853003576e-05 
1.211699853003576e-05 
0.09816094154188698 
0.04964109072283451 
4.474371742341647e-05 
9.554179113831549e-05 
0.0001631818784995186 
0.0002621241481329374 
0.0002621241481329374 
0.009726949230203216 
0.0009213256644460305 
4.474371742341647e-05 
0.01386131110420139 
0.02297585225741978 
0.0001471867668125419 
-0.8064319254843207 
-0.8064319254843207 
0.1322526826380965 
0.04327575842596601 
0.02379608976018202 
0.0002159333570120116 
0.0002159333570120116 
0.03060008998605401 
0.02268104105378154 
0.2018001085520364 
0.0007163077233639866 
-0.0001983768618523787 
-0.0001983768618523787 
0.0003221899541362467 
0.0002356972933176664 
0.0002614997024049396 
0.04182453483074325 
0.003326364019469311 
0.0005496673135743123 
-0.3372640381986604 
0.03274903050400582 
0.06253287439472136 
0.3176685028103062 
0.246103381692266 
0.0002313890425016458 
-0.0004177544900076561 
0.00396108735801704 
-0.0007733727903967732 
0.002864102601833507 
0.01487021961046465 
-0.5452628649966994 
0.2970803768816512 
0.0002268205887710532 
0.0698255051574914 
0.3032679202410964 
-0.0002358070183541064 
0.01381257104093946 
-0.0002358070183541064 
0.1058932989128356 
0.0001333621558139819 
0.00011026535698741 
0.006842864615157271 
0.07417828608477842 
4.474371742341647e-05 
0.03515254035146859 
0.1159816869993341 
-1.569716647598698e-06 
0.01100115153348076 
0.0003597000594812361 
0.0001366969394996551 
0.0001366969394996551 
0.0001366969394996551 
0.01077689251085949 
0.0001366969394996551 
0.0004693069538683818 
0.0001366969394996551 
0.0003929695330325317 
0.05517584899043493 
2.258133677048427e-05 
0.1127244929135424 
0.00103150522503655 
0.0007214206875416579 
0.008938066685947229 
0.002822520373894568 
0.0001303824377919085 
0.000498369471786612 
0.000498369471786612 
0.0001598144690340569 
0.0001598144690340569 
0.0001598144690340569 
0.0001598144690340569 
-0.01247514332485941 
-0.01339827383444682 
-0.004586432843834382 
0.0008666886417940349 
0.07710754715375399 
0.04504725662861347 
0.04978290377195585 
0.05642657804617286 
0.02004006590586655 
0.0002837226953784188 
0.0002334342458399181 
0.0002837226953784188 
0.07944198383762528 
0.03541623061195105 
-0.0001559809111870319 
0.02523150354315078 
0.0006099891597661632 
5.78166348168467e-05 
5.78166348168467e-05 
5.78166348168467e-05 
0.1004424750372289 
-0.9278548395210025 
0.1209720411055958 
4.474371742341647e-05 
8.948743484683295e-05 
0.0001139176771094427 
0.0001139176771094427 
0.0001139176771094427 
0.0001139176771094427 
0.0001139176771094427 
0.1786096786867033 
0.0002204355331792231 
0.0002204355331792231 
0.0002204355331792231 
0.0002204355331792231 
0.0002204355331792231 
0.0002204355331792231 
0.0001356653562088494 
-0.002517490498185739 
0.117153410938059 
-0.2575553108006302 
-0.0003491757369277158 
0.04127924687486266 
0.3183204730663716 
-1.097343403522089 
0.3183204730663716 
0.001433648238623395 
0.2373271126608332 
0.05817755006218724 
0.04819036048511734 
-3.158273558664572e-05 
-0.495732386308677 
-0.2530377530291607 
0.0007598189136690922 
-0.0001636807528551422 
-0.0001636807528551422 
0.001400319725835868 
0.001400319725835868 
0.001372748352359071 
0.001400319725835868 
0.0003569792481033271 
0.00176363000315468 
-0.0001560266000544307 
0.006845364509412017 
0.01001126846886929 
0.006817023168452801 
0.0001555536845108302 
0.1420142291500172 
0.1411996450789394 
0.1440808647514118 
0.1409887437544481 
0.1419236026587371 
0.1689525227665711 
0.0357568441603436 
-0.01057374246373773 
0.1751416909317923 
0.1750892431689252 
0.003514026514691161 
0.003514026514691161 
0.003558770232114576 
0.02216953722903708 
0.000207029394302543 
0.008508946673063674 
-0.5221744597936644 
-0.5221744597936644 
-0.5221744597936644 
0.3061359213688939 
0.09039403758391365 
8.567668055139421e-05 
8.567668055139421e-05 
8.567668055139421e-05 
8.567668055139421e-05 
-0.0002382459219758224 
9.181110594128129e-05 
0.01765068108620204 
0.01838395633662378 
0.1026603274573656 
0.1973612123653422 
-0.1633680672214765 
-0.0002179628225189231 
0.14966391479618 
-0.0007553689363219986 
-0.0006257289036843233 
0.0004163674557386161 
0.0470498862633066 
0.04592303605647658 
0.04592303605647658 
0.04592303605647658 
0.001358103459356611 
0.04139288550412887 
0.0001441712307766144 
0.2670823038034918 
-0.00108580439835218 
0.01605610296250409 
0.01605610296250409 
0.01601917921250374 
0.01605610296250409 
-0.005526040878673102 
0.000239565423712474 
0.0001881876531406728 
-0.5638733470962656 
0.00567710288062792 
0.0001323227383702753 
0.0002744020069132607 
0.0002744020069132607 
0.0009217072062029496 
0.08567602728036344 
0.002774819121390638 
0.0003906397882111667 
0.0003906397882111667 
0.0003906397882111667 
0.0003906397882111667 
0.0003906397882111667 
0.0239567823910997 
0.0003323523030441328 
-0.0002482245380879725 
0.0003711795408930596 
0.0001802619695507629 
0.0001869309468924729 
0.0001821257656870043 
6.908231650078371e-05 
0.03235055726029448 
6.908231650078371e-05 
5.497179214460263e-05 
5.497179214460263e-05 
-0.004594296120222456 
0.0364059404426374 
0.001506648416899049 
0.07743640636807619 
0.0004839058405816034 
0.0005945226378614262 
0.002658277170870014 
0.2487806566447341 
0.0009324722879869917 
0.05668389606833071 
0.0005665859307223994 
0.0005665859307223994 
0.0005665859307223994 
0.0005665859307223994 
0.0005665859307223994 
0.0005665859307223994 
0.0005665859307223994 
0.0005665859307223994 
0.0005310264887992104 
-0.002344893810113736 
0.008877770901381685 
-0.002239402719176242 
0.2144452534093312 
0.0001764355585714847 
6.409569621492909e-05 
0.0009113130530697489 
6.409569621492909e-05 
0.002832294725769301 
0.00032518812888239 
0.00103150522503655 
0.0001900327481699133 
0.03091069841462622 
0.0001900327481699133 
0.0001900327481699133 
0.0001900327481699133 
0.0001900327481699133 
0.0001900327481699133 
0.3610741527852847 
-0.0003806678843842137 
0.0002797489754508647 
0.002513006069785045 
0.002906992152201672 
7.435026930866134e-05 
0.00103150522503655 
-0.0001295017036864911 
0.04955241431510968 
0.06384301414742879 
0.002776680491717053 
0.001205493325016593 
0.0009409681968186038 
0.0009409681968186038 
-0.2657206459730705 
-0.009492146386022058 
0.001142400640365856 
0.001081865513927465 
0.3233528219142974 
0.0003905380324381441 
0.0002014682541316063 
8.368880629876646e-05 
0.1766575524183925 
0.0005174250743659087 
4.770260146815135e-05 
4.770260146815135e-05 
0.0006730856647065159 
0.02677541640899478 
0.0268587233205009 
0.01582838029025114 
0.001608954993478596 
0.004073281697239424 
-0.510438852742028 
0.001478934798980208 
0.03505929652904156 
0.009757907620069447 
0.0001191065661163362 
0.01119483972372263 
0.01672851093982156 
4.474371742341647e-05 
0.005933579144714657 
0.108021217205614 
0.108021217205614 
-0.0171078078298542 
0.002494632273521381 
0.1241015496392925 
-0.003086762030792393 
-0.003086762030792393 
0.0004942927697896991 
4.474371742341647e-05 
0.0007335671025870271 
0.0002031204708258407 
0.0002897505381416476 
3.686699738670501e-05 
3.686699738670501e-05 
0.00216680016952982 
0.0008835433042561453 
-5.022855840876753e-05 
0.03201849044493305 
0.00763412165280746 
0.1086097787327063 
0.0008739644390042378 
-0.001127057819139943 
0.0002776091732030377 
0.08035608033613921 
0.005502264170008479 
-0.0001820758547053467 
0.0008311063322387779 
-0.00188931583098482 
0.0008311063322387779 
4.892570949829784e-05 
-0.0006797264393909253 
-0.0006797264393909253 
0.01685727759512544 
0.0008135227227392867 
0.007223401057964478 
0.00103150522503655 
0.00103150522503655 
0.004734460148413811 
0.004734460148413811 
0.005840025196024737 
0.005022422628763711 
-0.0001423033324655552 
0.001034123535828918 
0.0002452468447123748 
0.000500976821118888 
0.0002186476630530222 
0.0002186476630530222 
0.0757856212889549 
-1.858177708587763e-05 
0.2614024818629938 
0.2611285555059334 
0.00577496712446901 
0.0042767761786123 
0.0042767761786123 
0.00103150522503655 
0.0009797983066876135 
1.742834947228531e-05 
0.4666276461531912 
0.009042352152577669 
-0.8807953811074628 
-0.0004908434363947993 
6.302125215786712e-05 
6.734561060969354e-05 
0.2220006128093464 
0.002254110976507227 
0.1734002259622359 
0.1371698644788614 
0.0003707717459046839 
0.0003630062995710321 
0.02369590806811048 
0.01505910199867896 
0.08713911810472563 
0.003185874493869019 
0.0003841059516343436 
0.002339457978234406 
0.001261994275617554 
0.00103150522503655 
0.01065966937815466 
-0.02876981204446243 
0.0377879640962399 
0.0001740070116236871 
5.399892386229429e-05 
0.03411521303559815 
0.04656663090001399 
0.0006435036966871274 
0.0006435036966871274 
0.000919683739310955 
0.000919683739310955 
0.000919683739310955 
0.000919683739310955 
0.0006435036966871274 
0.0001654922613347971 
0.000720924115546964 
0.02176418553077726 
0.0005955652572343117 
0.0005955652572343117 
0.0005955652572343117 
0.1606267934770352 
0.002623236768043122 
0.0004051387795529723 
0.0004051387795529723 
0.0004051387795529723 
0.0004051387795529723 
0.0004051387795529723 
0.0004051387795529723 
-0.3530288571223208 
0.1183208884205971 
0.1183208884205971 
0.1146041132600647 
0.0006647548121084159 
0.007847573110729245 
0.005545141484043424 
9.403578962520145e-05 
6.02200072518486e-05 
0.2761070646747673 
-0.002443750993167786 
0.03170971453785426 
0.08720460026007408 
-0.001068233691471906 
0.1486817568023377 
-0.000137555436475114 
0.05143659901971832 
0.01820382802385752 
0.0007451372961900979 
-0.0002988572974411964 
0.0008640507170999517 
0.0008640507170999517 
0.0008640507170999517 
0.02750017469699943 
-0.0001215329586590713 
-0.0001215329586590713 
0.00103150522503655 
0.0002581442182750522 
0.0006157574092699337 
0.0005351329558149298 
-0.002614262700920169 
-0.0004566783047585898 
0.08813715140322138 
0.0005559045778317964 
0.0002528835407549427 
0.114115759709574 
0.114115759709574 
0.114115759709574 
0.08218154380381951 
0.08186606772693375 
0.02858585919062133 
0.02949906682393693 
1.173746339384767e-05 
0.08276094785621191 
3.537987402676116e-05 
-0.0003205891645648386 
0.00103150522503655 
0.006775988639293172 
0.006775988639293172 
0.006775988639293172 
0.006775988639293172 
0.006775988639293172 
-5.55345209057124e-06 
2.66592835093615e-05 
0.08692578385213487 
0.00103150522503655 
0.0005368672257085851 
0.0152289104703013 
0.07125617091032421 
-0.527519298814593 
0.1810400570482492 
0.1811105255977074 
0.00103150522503655 
0.05326776565549281 
0.3222803122737539 
0.00106097379312265 
0.02068804692567906 
0.0002233014622927528 
0.0002233014622927528 
0.0004791011783571914 
0.0004791011783571914 
0.0004791011783571914 
0.0004791011783571914 
0.04934406534714268 
0.07822480190558551 
-0.01570290975351119 
-0.0139864627996554 
-0.0139864627996554 
0.006680629229805411 
0.005074753493782509 
0.005075417150318949 
0.005075417150318949 
0.001121851014388191 
-1.260578077545504 
0.08001179844324602 
-2.542087885412494e-05 
-2.542087885412494e-05 
0.0008091328078750498 
-3.347799494871696e-05 
-3.347799494871696e-05 
0.0009193204587519907 
0.0009193204587519907 
0.0001684414801263328 
0.09212515754670698 
0.1383880792817711 
0.0004171392369841072 
0.0004171392369841072 
0.0004171392369841072 
-2.145179082109314e-05 
0.0003299539214110181 
0.0003299539214110181 
0.010492838911555 
0.05023725733853317 
0.05142576979613299 
0.01688726294146117 
4.474371742341647e-05 
0.0484288764534571 
0.00300113882442618 
0.005603359832501963 
0.0008334052588021726 
0.03121913229525521 
0.0007864218269518199 
0.1622636816125578 
0.0001904619648145242 
0.00103150522503655 
-0.004421646153752316 
0.04785490820311569 
0.05436576840947444 
0.05853584473283557 
0.08501370873700358 
0.0001852174802137813 
0.005896969915379906 
0.0003731653266219738 
0.4653037786775208 
0.4649672742648752 
-0.3961116541494557 
0.0004091541015299185 
0.0004091541015299185 
0.0004091541015299185 
-0.002470296792759993 
2.53148853250082e-05 
2.53148853250082e-05 
0.0001459364129447746 
0.000234191551205808 
0.0008506890230322958 
0.002090991409078034 
0.0667995385581524 
0.0004596523634315357 
0.0004596523634315357 
0.0004596523634315357 
0.0004596523634315357 
0.0004596523634315357 
0.0002688840211639447 
0.0002905624852605763 
0.0002156306359254504 
0.0002905624852605763 
0.0003811157510417825 
0.04618032800788574 
0.1365153311681497 
4.474371742341647e-05 
-0.001828508645661166 
0.0002108973556919708 
0.0002108973556919708 
-0.0005863933137555219 
0.0002108973556919708 
0.0002108973556919708 
0.0002108973556919708 
0.0002108973556919708 
0.0002108973556919708 
0.003113277492287605 
-0.004906556442947079 
-0.004906556442947079 
-0.004906556442947079 
-0.004906556442947079 
-0.004906556442947079 
-0.004906556442947079 
4.474371742341647e-05 
9.621135648211392e-05 
0.006661804576225047 
7.425019205301858e-05 
0.08565661391756646 
-0.0002319085433658928 
0.001880867028134126 
0.0005268259843196842 
0.001281118671096952 
0.006319289941610465 
0.06128020405084682 
0.1449618502897235 
0.1450435176563979 
0.0002512928452409177 
-0.0009293264409828784 
6.832748945248627e-05 
-0.6058160718991714 
0.1806070984987746 
-1.179977128130313 
0.0001290184871594074 
0.02290302468304384 
0.0003473418834310766 
0.0007235708443627017 
-0.001063827985725765 
0.0002344166403887931 
0.01877418448647132 
0.01877418448647132 
0.1124828251363199 
0.007687436282602158 
0.1104616538827858 
0.0005823522569173986 
0.0005823522569173986 
0.3521404430313371 
-0.8383544439191791 
0.0004427924928985056 
0.008167565690677692 
0.02988434911141232 
0.0003439354797963299 
0.0237937172653566 
0.080645057446029 
0.0001538300387650995 
0.001616805502246333 
0.0004890499043381554 
0.06461363461996118 
0.009381203962974777 
0.003233713030071025 
0.000162120984393012 
0.09521091411700607 
0.09521091411700607 
-0.2738580486773487 
-0.000787937232451871 
0.001600201925324531 
9.228284773509049e-05 
0.02575345844636902 
0.1064601096837466 
5.704114874212845e-05 
0.1843214716182864 
0.01088657281153116 
0.0004093447605959429 
0.0002147666620865748 
0.3552497105594786 
1.016496056485009e-05 
0.03181094099207789 
0.03083262372793243 
0.1105133071232643 
0.1105133071232643 
0.08321807190475244 
0.08298068978908189 
0.08107098295985112 
0.08107098295985112 
0.0605233021822683 
-0.007968111778516357 
0.0003431577683767773 
0.0002933237692076346 
-0.6707799238291015 
0.09019120839279493 
0.00198904952398204 
0.00111794276941994 
-0.8773088806258561 
-0.1714919423728239 
0.7648201846917934 
0.000238629601441405 
0.005573813888968 
0.002294541745671118 
0.6719722211389396 
-0.004320355166436724 
0.007186267460175957 
0.1241174782530779 
-3.42531541822209e-05 
0.0004992694935758422 
-0.001185746379480064 
-0.000488399850695073 
-0.000488399850695073 
-0.000488399850695073 
-3.169420070910228e-05 
-3.169420070910228e-05 
-3.169420070910228e-05 
0.004080459276078495 
8.948743484683295e-05 
0.1650436003494359 
8.948743484683295e-05 
0.0001180965166551545 
0.0001379153945177063 
0.0004010734125673247 
0.3013502636720808 
0.03943734879340614 
0.05565612959760836 
0.1345393544247353 
-6.123975661090914e-05 
0.01768075093230723 
0.04806292446932348 
0.0523794235038203 
0.07901068416089302 
0.2666029810833216 
0.07486844634997647 
4.474371742341647e-05 
0.001172337716977005 
0.04577846033000909 
0.1031389535849283 
0.1751833962167884 
0.0007910219907587351 
0.0008795556339974547 
0.01024947291224956 
0.2296953832747318 
0.0002580921415689721 
0.01269978743086331 
-0.008969767577648544 
0.002963827591315762 
4.474371742341647e-05 
0.007544622221040049 
-0.001461459709338596 
4.474371742341647e-05 
4.474371742341647e-05 
0.0001887628853636711 
0.000399414217763213 
4.474371742341647e-05 
0.003370903195999114 
0.000279497358478555 
0.07943208060995083 
8.77612442976232e-05 
5.997593992232631e-05 
0.0009409681968186038 
0.0009409681968186038 
-0.0007766257963923805 
-0.0007766257963923805 
-0.0005343778251262737 
-0.0002179941067333207 
-0.0002236546958626383 
0.02845085526703266 
0.1953426383559372 
-0.0002179628225189231 
-0.0002179628225189231 
0.03627401499917575 
0.0003579497393873318 
-0.003868883289232097 
-0.01924632812920314 
0.0318199710793744 
0.00106123004625339 
0.214003113236571 
0.08904864517501272 
6.6090548931087e-05 
0.0003812811210351097 
-0.0002322766416292657 
0.01952066434132822 
0.0003879378914443198 
0.006075400653595535 
0.0713580588922335 
0.1606169582687704 
0.001315075375117617 
0.06185726584536918 
0.07228627399461066 
4.474371742341647e-05 
0.0002160502297317095 
4.474371742341647e-05 
4.474371742341647e-05 
-0.0003235814604010527 
-0.0003235814604010527 
0.0007701152785201284 
0.03432524252840903 
-0.3457343913075421 
0.0131646652679879 
3.17600360274899e-05 
0.002442851449336618 
-4.225931231307228e-05 
-0.0004912646608730478 
-0.0002188109325391229 
-0.0004912646608730478 
-0.496203070194034 
0.0008241301535444007 
9.187166344946923e-05 
0.0164992456071391 
-9.189313625363681e-07 
-9.189313625363681e-07 
-9.189313625363681e-07 
0.0006134073796562778 
0.0006134073796562778 
0.0006134073796562778 
0.0006134073796562778 
0.002111298059597829 
0.002080155192997465 
0.02669692817385867 
-3.666163106094228e-05 
0.00100404574489575 
0.00100404574489575 
-1.732582396150633e-05 
-0.002502234810547442 
0.1624229098253931 
0.08981406671521208 
-0.6280978735661946 
-0.493786376445269 
0.0009805416431939128 
0.007826557695219755 
4.474371742341647e-05 
-4.645678361173799e-05 
0.2245522510120917 
0.0009401856666254255 
-0.000293323632196762 
0.0008704755969814037 
0.0006370942264268624 
0.001227602830471415 
4.474371742341647e-05 
0.003364868400368489 
0.0002157119203721205 
0.1726221424216836 
0.0003369567762439474 
0.0002819317069476416 
0.06347442652013456 
0.001873923172603192 
-3.581838540330637e-06 
0.00103150522503655 
0.06682584029136232 
0.001118995489766367 
0.1345588815184151 
-0.0009528839641790491 
-0.0009528839641790491 
-0.0009528839641790491 
-0.0009528839641790491 
0.07034451237719523 
0.07075588275260927 
0.003909540189595478 
0.08511615785001309 
-0.3037471655487173 
-0.00513972934771619 
0.003041233435982337 
0.0006875929872316816 
4.474371742341647e-05 
0.0001568378047179294 
0.0002420798811028337 
0.0001492184779560345 
0.1863559344406547 
0.002594161570371688 
0.03425189209976018 
7.975960399377393e-05 
0.0002205816432595008 
4.474371742341647e-05 
0.001067661100155329 
0.001506280831545546 
0.0007490309555259733 
0.0007073645876593737 
0.0001200080877613928 
0.0001200080877613928 
0.0008136119915580977 
-2.488591146693713e-05 
0.01330578185858381 
0.001043217404514935 
4.474371742341647e-05 
0.06436345334049903 
4.474371742341647e-05 
3.069556137222308e-05 
-5.734899740198877e-05 
4.79810760271117e-05 
0.0007957803311755809 
-0.5367714679073601 
0.004641108726489082 
0.004641108726489082 
0.0002862008354940341 
0.0004809358831775471 
-0.002701615683993997 
-0.002942765907792158 
-0.002942765907792158 
-0.002942765907792158 
-0.002942765907792158 
-0.002942765907792158 
-0.001364772806041044 
-0.002716756081211328 
-0.002942765907792158 
-0.002942765907792158 
-0.002942765907792158 
0.002878509070551704 
-0.0002083402218966309 
0.006965552905469307 
0.02207892701261129 
0.1558578601129236 
0.1573826523724957 
0.08884103509562795 
0.0006839806495287041 
-0.2042833112806358 
-0.9003787607903497 
0.07620017679369329 
0.07603490779480784 
0.07603490779480784 
0.07603490779480784 
-0.3707758463283573 
0.144966627044864 
-0.7305085539782286 
-0.5857192838477973 
-0.000220760179132231 
0.09099132275892829 
0.0009906539523190485 
-0.2361300093524371 
0.0009906539523190485 
0.00390378575900682 
0.00390378575900682 
0.02800589175643392 
0.000248806676256227 
0.0005020918317757937 
-0.0008060359654776193 
0.08381562642225313 
0.1739224782781571 
0.000763090396963001 
-0.0007122711587640027 
0.0002739366299851663 
0.007543334045168009 
-0.0003124145209323119 
-0.0003124145209323119 
0.001077205388382994 
-0.001122180203942832 
0.0009409681968186038 
0.0009409681968186038 
0.0002998893258312832 
0.0007867584296978336 
0.0007867584296978336 
-0.001556133008623741 
7.531725136769015e-06 
7.531725136769015e-06 
7.531725136769015e-06 
7.531725136769015e-06 
7.531725136769015e-06 
-0.01693196576758255 
0.0008172855623257201 
-0.005037232989023479 
0.07687356842653786 
0.0003646381285886076 
0.05025869480773219 
0.1858639548394904 
0.008960649588733988 
0.0001100934228040158 
0.0002617533018026787 
0.0001367131928792382 
0.0007003543512487398 
0.0001809665613173468 
5.220141189849172e-05 
0.1152677410086352 
-0.5224296966244545 
0.1141504650831829 
0.1141333283475684 
0.00103150522503655 
0.008962915075862898 
0.0007531273824498453 
0.0007531273824498453 
0.0007531273824498453 
0.1313871160207972 
0.0219751199360257 
0.01927009902257967 
0.01927009902257967 
0.000693446611116007 
7.437644870740995e-05 
0.00116889293391639 
0.00116889293391639 
-0.0002904145301252776 
-0.5052331760375887 
4.474371742341647e-05 
4.474371742341647e-05 
0.2611603138132439 
0.05123287036464251 
0.003813722320341872 
0.003813722320341872 
0.003813722320341872 
0.1039439742804903 
0.07739002705084431 
0.03602675408469017 
5.425195652803828e-05 
0.03616943050508863 
0.0001840329510409578 
0.0003064754768266737 
-0.001660172579275232 
-0.004075932033286668 
-0.003813156273946443 
0.05794132396902597 
0.0002370324214221805 
0.1459468528838464 
-0.5362452071778435 
0.0001838780472530315 
0.00099927483440271 
0.00099927483440271 
0.003359025995019666 
0.00099927483440271 
0.00099927483440271 
0.00099927483440271 
0.00099927483440271 
0.001239560550379813 
0.0003410722552493212 
0.0006906937347113892 
0.0008111742942909183 
0.0007369273681074994 
0.000586169080497294 
0.1032571084497689 
0.1310146786062708 
0.2009942360989388 
0.001482204091467139 
0.002839740777275399 
0.03438603885946947 
0.06490578688382077 
0.06490578688382077 
0.06490578688382077 
0.06490578688382077 
0.01190048612819978 
0.002528247039352179 
0.001584554353892184 
-0.001889318533745446 
0.02190714419051866 
-0.004327621192897859 
-0.004327621192897859 
0.1769735833004595 
0.003863696770645322 
0.003813536985779847 
0.001844590288992011 
0.2859378078686474 
5.156046068259265e-05 
5.156046068259265e-05 
0.1452490445184436 
0.1447556416192223 
0.001199113968900557 
0.00103150522503655 
0.004855798158934337 
0.1023580074243912 
0.05856829590601653 
6.311620113002188e-05 
6.311620113002188e-05 
0.0002592724508534392 
0.0002592724508534392 
0.0002592724508534392 
0.0003251738322066076 
0.07263444246601136 
0.0002592724508534392 
-0.7027273603602288 
0.0007935402667475737 
0.0007935402667475737 
0.0007935402667475737 
0.0007935402667475737 
0.0001037904431165333 
0.0001037904431165333 
0.0004571596432457071 
0.001623372029101292 
0.001428961630846833 
-2.072775282319039 
-0.0001080107716313351 
0.001262900458292003 
0.3107090495580666 
0.00103974129488167 
0.1970992256470961 
0.0002637793374400038 
0.1740835548982619 
0.001122164856207742 
0.08878142391691091 
0.08858151731970944 
0.1574792525972342 
0.1874684222971622 
-1.144228119515549 
0.1602328691558754 
0.7965694427827252 
0.04109678254572453 
-0.2286802127301019 
-0.2286802127301019 
-0.2286802127301019 
-0.2286802127301019 
-0.2286802127301019 
0.02064337843052196 
4.474371742341647e-05 
4.474371742341647e-05 
4.474371742341647e-05 
4.474371742341647e-05 
0.001065956451735752 
0.001065956451735752 
0.001591250625628212 
0.001591250625628212 
0.0002921017578855467 
0.0002921017578855467 
0.0002921017578855467 
-0.002121275150033099 
-0.0008104999468996966 
0.0001044237377397456 
0.002414966889930903 
0.09546744763315182 
0.09337272210484746 
0.09337272210484746 
0.002596106336821957 
0.01668724301242963 
0.01604375487238615 
0.01684659755714234 
0.01604375487238615 
0.1925385615084398 
0.0003122912128442331 
0.06270536242268901 
0.04576141533688131 
0.04576141533688131 
-1.534620469026135e-05 
0.000895804844989347 
0.001129738992888367 
-1.560149343833157e-05 
3.601880272769209e-05 
3.601880272769209e-05 
7.666119386392462e-05 
7.666119386392462e-05 
0.03411510750261534 
0.03411510750261534 
0.001083975611061361 
0.1923489035675615 
0.001083975611061361 
-0.02140534067372602 
0.07667907845604276 
0.07649239916005623 
0.000206460099232458 
0.009656832307020725 
0.0001939584394577783 
0.03217707129782145 
4.474371742341647e-05 
-0.0004428885116667178 
0.0005133373217914776 
0.09660740313102351 
0.2108498787237026 
0.1261259340492109 
0.0001365156166829622 
3.260904918137471e-05 
0.0002273578934681103 
2.008864078870524e-05 
-0.4283119144089546 
0.0003808427977974606 
0.1429053755998747 
7.530882567512561e-05 
0.03725107607215169 
0.0200077532638503 
-0.000127910588111713 
0.2728537901237108 
0.01304425705501577 
4.474371742341647e-05 
0.02063672059973039 
0.09225840262235939 
0.02063672059973039 
0.02077594242162958 
0.1131452434866578 
2.007240154575413e-05 
0.07085070946412576 
-2.757137347679702e-05 
-2.430954639445362e-05 
0.000174420844126664 
0.001911295246887324 
0.0225610476301948 
-0.005182163630252906 
1.688735950053156e-05 
1.688735950053156e-05 
0.0007159463028218365 
0.0009409681968186038 
0.0009409681968186038 
0.008053731617889279 
0.001070948410379945 
0.01781328873702773 
0.06036965436265329 
0.0004663983522753718 
0.0001224973617687372 
0.0001224973617687372 
0.1360777379706991 
0.002016380050441986 
5.317658148548434e-05 
0.1449556673268562 
0.001266295574372833 
0.2971333437170066 
0.006074839821468591 
0.0007716386473811605 
0.1539176317403566 
0.0007716386473811605 
-0.04864630860045666 
0.1139183714592341 
4.474371742341647e-05 
-2.786115480465477e-05 
0.001250684387094182 
0.0006508203803400972 
0.0006508203803400972 
0.005627686140131169 
0.0002054859960198702 
0.2746437729591888 
-0.001654741240522823 
-0.0007709188763393522 
0.001400119711392105 
0.0002092494069148815 
0.0001350834193107721 
0.001709443054888189 
0.002639195474822154 
-0.003226111791376767 
0.08200580474472755 
-0.3620552719946583 
0.0002321672952489926 
0.0002321672952489926 
0.0002321672952489926 
0.0002321672952489926 
0.0002321672952489926 
0.0002321672952489926 
0.0002252109623453354 
0.00230483966139368 
-0.00036777400303844 
0.0002677497655576517 
0.0001322566006799274 
0.100084625165295 
0.07500932869898119 
0.01269389731421178 
4.446534949944717e-05 
2.362133880434538e-05 
0.1301059929234565 
0.02424303988742171 
0.0231003573555396 
0.0001877926759238493 
0.0006823927959814927 
0.2088569830505758 
0.002063627040049438 
0.01166581979043453 
0.07199481690305685 
0.00103150522503655 
0.01024146079338995 
4.474371742341647e-05 
-0.01463475960176904 
0.003616859733890361 
0.3748804326412385 
0.000400437484462632 
4.474371742341647e-05 
4.474371742341647e-05 
0.001225837237319912 
0.000202463029619526 
0.0001798201836542467 
0.0002294918153785525 
0.00103150522503655 
0.01144050435024748 
0.150303769694389 
8.196404129448399e-05 
0.0003091049960430819 
0.07181998870645029 
-0.003250123073673351 
-0.003250123073673351 
0.1375413408318619 
0.02296170633667816 
-0.0003094043186747342 
0.06483901200354131 
0.2015100859240595 
-0.005203848503832953 
-0.005203848503832953 
0.001792389358147783 
0.0008376515506343118 
0.2631504582563732 
0.001351796523459636 
0.001257591279310154 
0.00478131972080008 
0.07310667887938055 
4.474371742341647e-05 
4.474371742341647e-05 
-0.02280762510603258 
0.002382717941375709 
0.141608564690415 
-0.0008989809239098041 
0.1710308828877977 
0.04923076267483598 
0.004485151697424326 
0.001130331569359649 
0.004161985890929009 
0.00103150522503655 
-0.02140021725358408 
0.0002945957580734907 
4.597449328065537e-05 
0.0001247516335897626 
4.597449328065537e-05 
0.2469639327051703 
0.2469639327051703 
0.0006772513393967421 
0.04263466959293861 
0.06233257814683493 
-0.001106088379541729 
-0.001106088379541729 
-0.001106088379541729 
-0.001106088379541729 
-0.001106088379541729 
0.0002646887169535134 
0.0006453300619688056 
-0.0006924795415405966 
1.487282728440506e-05 
0.0186249642922347 
-0.0016482655541859 
0.04241195147861588 
0.008023023219051739 
0.0002227893649351593 
4.474371742341647e-05 
0.000424230714094935 
0.0003820698776160696 
0.0006952413324005852 
0.00106253826552635 
0.001332062431000216 
0.0006952413324005852 
0.009093843460571986 
0.157215892976414 
0.000577731402132229 
0.0001584968373569343 
-0.54444791979881 
4.474371742341647e-05 
8.260225576900228e-05 
3.254512401460298e-05 
0.0003798351611058887 
0.000251205384025335 
-1.049761321816047 
0.1707349927274236 
0.1701143756963444 
0.001300032223536684 
0.04277480745254855 
0.2628254058254491 
0.07313911161090471 
0.001202657414731149 
-0.00334023560569906 
0.1371056131689238 
0.04019495111164335 
4.474371742341647e-05 
9.351405040689762e-05 
0.03448838688154972 
0.1061266424595334 
0.302957990507858 
0.03915896274969143 
0.03915896274969143 
0.03915896274969143 
0.03915896274969143 
0.03915896274969143 
-3.434789289864834e-05 
-3.434789289864834e-05 
-0.008201895863596273 
-0.0002380554050309549 
-1.291476706536749e-05 
-1.291476706536749e-05 
0.0003488799065074644 
0.002284650943275467 
0.09536295354029883 
0.1808452914471304 
-1.09831316479748e-05 
-1.09831316479748e-05 
0.0002148643647924617 
0.0007805939795864775 
0.08384537153584694 
0.006739801832525036 
0.02504838658708927 
0.08823003476623957 
-0.000425729853056533 
0.0002253408081860995 
4.474371742341647e-05 
4.474371742341647e-05 
0.2014945460143264 
0.0008518683455421954 
-0.0004863190735973977 
-9.470167328841497e-05 
-1.770938365588502e-06 
0.001841464050507019 
0.001502635270848126 
0.1058784067399744 
0.009292405998190397 
0.009292405998190397 
0.1858002436304811 
-0.0003707497759760581 
-0.0003707497759760581 
0.0005623390037624378 
0.0001298263537304817 
0.0001298263537304817 
0.0001211731593245903 
0.0001211731593245903 
8.400369276390839e-05 
-0.0001699893360952532 
0.002766537944829339 
0.005506756112000929 
0.03022309253801824 
0.007775007817136182 
-0.00962022039377001 
-0.000326136155134131 
-0.000571733854369888 
0.164415780500318 
0.000277788320430118 
4.474371742341647e-05 
-6.591263350766568e-05 
-6.591263350766568e-05 
-6.591263350766568e-05 
0.0002894024486134172 
0.0002894024486134172 
0.0001234854380918995 
0.0003052472226152987 
-0.0002187056092172234 
-0.03119278663380001 
0.0003523259817279549 
0.0002390391326895559 
0.0001191065661163362 
-0.003173558216684646 
0.002524465611900404 
0.0001961452123087592 
0.0001961452123087592 
0.0001961452123087592 
0.0002408889297321757 
-0.9111839827376529 
-0.0001329784596856465 
0.001560476924248363 
0.001560476924248363 
-3.417414918709225e-05 
-0.0004183514192844221 
0.03362820963444619 
0.02725242102672265 
4.474371742341647e-05 
0.001805105372633974 
0.001479343728338764 
8.948743484683295e-05 
-0.448436766655305 
0.0002172491260043341 
0.0008229394182924076 
0.001152382139878149 
0.0008229394182924076 
0.001898224451267326 
0.001228176630503145 
0.0003819128544644059 
0.0001513729643487831 
8.350728110153773e-05 
8.350728110153773e-05 
8.350728110153773e-05 
8.350728110153773e-05 
8.350728110153773e-05 
0.01843422186283499 
0.0001584968373569343 
-0.9167440715214292 
0.01350645597477342 
0.0007051771055877845 
0.0009277288834267097 
-0.0005804210123510706 
3.293186389818776e-05 
4.474371742341647e-05 
0.001067661100155329 
0.001650754746159269 
-0.6777553666023769 
9.87341296118708e-05 
0.0001910386912228215 
0.0007665142567062284 
0.0007665142567062284 
0.0007665142567062284 
0.0004748328518302335 
0.04500172824547136 
0.001447360768449437 
0.05108805737043732 
0.0002429797220837896 
0.0002295693434876103 
4.474371742341647e-05 
0.0001839646120162393 
-4.320183150532425e-05 
0.002271539586960839 
0.0007836437437764417 
0.0002472840824716128 
0.000200479330626825 
4.474371742341647e-05 
4.474371742341647e-05 
0.0006803521125287476 
-7.961860477439336e-05 
-7.961860477439336e-05 
-7.961860477439336e-05 
0.1320862260906738 
0.0001733373515125396 
-2.178092530861581e-05 
-0.009836284122297371 
5.896474695893205e-05 
0.003323203227799729 
0.0003722796633114762 
-7.957087779136736e-06 
-0.0005804421282325622 
9.714441933587335e-05 
9.714441933587335e-05 
0.001229551030908312 
0.2907980388105582 
0.1170072179810751 
0.005136331927697544 
0.1184442168425198 
0.1184442168425198 
0.001172802215260131 
0.02432512085872521 
0.0003892740242010039 
0.05117358767381083 
0.0002443845253176122 
0.02834939109512674 
5.634886732776497e-05 
5.634886732776497e-05 
5.634886732776497e-05 
5.634886732776497e-05 
4.952441696809657e-05 
0.002160226351688056 
0.2541183850365191 
0.002985309951789234 
0.001410116184293377 
4.474371742341647e-05 
0.2701314858709911 
0.0001636611072293632 
0.001249422751645895 
0.001278121640427221 
4.701360229812109e-05 
0.02624032103811412 
0.003249295463060013 
0.01218695145200123 
0.008644251604801197 
0.009623108556460249 
0.001737555377031518 
0.001737555377031518 
0.1305479500131196 
0.0004501990590568935 
0.0002185775275625133 
0.003351853921426519 
0.003351853921426519 
0.00103150522503655 
0.004781064900629559 
0.0006274472497108823 
0.0006274472497108823 
0.0006274472497108823 
0.1803363622463425 
0.002331055442300793 
1.902186071117992e-05 
0.0005411867399513373 
0.001169508626413574 
0.06038431254585726 
4.474371742341647e-05 
4.474371742341647e-05 
0.0001141906492974994 
0.0001141906492974994 
-0.001054276675535799 
0.04841216908916684 
-0.000912635229235863 
-0.002548713220648741 
0.003062215336624306 
-0.0001104583788616426 
0.003625322654405677 
0.003272514754400522 
0.09174396349149169 
0.003829996697558443 
0.09984271244724727 
5.973467164114349e-05 
5.973467164114349e-05 
0.00103150522503655 
0.001043414691717353 
0.02273562201692147 
0.001335324036469039 
4.452511053697433e-05 
0.1561147288466519 
8.864077089641386e-05 
0.02500618291119748 
0.02500618291119748 
0.03878383146736435 
0.0002810594746382899 
0.1109984371753848 
0.0005148112477945052 
-0.0252327052383352 
-0.001085966763617039 
-0.001085966763617039 
0.2181679134560348 
-0.001085966763617039 
0.0008226566404088314 
0.2343038010841197 
0.007853216047035549 
0.1763376364567294 
2.501643276870431e-05 
0.01737028110839513 
0.0005255077748274233 
5.141269476512652e-05 
-0.0002585649127956794 
0.0001208425888261286 
0.0001208425888261286 
0.0001040145308207534 
-3.364367653931501e-05 
-0.0005294432645732421 
-0.0006945292229123272 
7.512673560301169e-06 
3.478157985213742e-05 
0.0002123341168866143 
-0.9139181218579108 
0.00103150522503655 
0.03005777501590276 
-1.314217868068819 
-9.039936016227064e-05 
0.07661730556161442 
0.000411496689889551 
0.0959131814797626 
0.0003989001809269097 
9.114030796000168e-05 
0.09375542222903759 
0.09375542222903759 
0.09375542222903759 
4.801461977743222e-05 
7.830043011436522e-05 
7.830043011436522e-05 
-0.001974969989465422 
0.2758414413746972 
-0.002214803229306215 
0.0001306426396534593 
0.0001306426396534593 
0.000310874582965701 
0.0001010655889902037 
0.05421718072218241 
0.03151584249334868 
0.00250610636138534 
-1.185323279855698e-05 
0.000492982960521794 
0.0008065938841498506 
0.000492982960521794 
0.000492982960521794 
0.002069892375631753 
-0.0002044447852390061 
0.07681779932193182 
0.06845057004578331 
-0.0005548229518022559 
9.423085760909912e-06 
9.423085760909912e-06 
0.0002978089586372023 
0.0002978089586372023 
0.3583720949411506 
0.3607900491142763 
-0.5711626303267745 
0.0001565296014511069 
-9.57262913901305e-05 
0.0009409681968186038 
0.0009409681968186038 
0.4208618010449248 
-0.001628413162484067 
0.0003013856435031542 
0.001506810455240488 
0.0004557629484465231 
0.0002958223167359306 
0.001100379843397473 
0.0003268805229557405 
0.0002654095522244745 
0.0002654095522244745 
-0.00151308259457995 
0.0001104746336203689 
0.0001239293066957669 
0.002331364525474361 
0.00103150522503655 
0.0004331931431980547 
0.07521888336908716 
0.07537341651381894 
0.1330956432888301 
0.001330964961672672 
0.001330964961672672 
0.001330964961672672 
0.005827798328613275 
0.0008622024441453745 
0.001181971708715554 
0.01085497945409747 
0.01200098853006138 
0.0001280294227164411 
4.474371742341647e-05 
0.000154404733093995 
1.580619622537538e-05 
0.0002551094735243058 
0.0002551094735243058 
0.1922548672971379 
-0.003686794111760491 
0.0002655869057471483 
0.0002655869057471483 
0.0002141097146834644 
0.0001125808266302818 
-0.001516065962043435 
0.0001125808266302818 
0.0001125808266302818 
7.294239229158522e-05 
7.294239229158522e-05 
0.00124575153705039 
0.0001061449919701735 
5.21800116061111e-05 
5.21800116061111e-05 
0.004607263988302429 
0.004607263988302429 
0.02633582314448216 
0.02633582314448216 
0.02633582314448216 
0.02633582314448216 
4.474371742341647e-05 
5.100330571799553e-05 
0.0009083207951658646 
5.100330571799553e-05 
