solver_type L2R_L2LOSS_SVC
nr_class 2
label 0 1
nr_feature 32502
bias 0.5
w
0.295377508326741 
-0.1628258744793396 
0.6205990880346829 
-0.0569041509861111 
0.2561715344260326 
0.1303643130027708 
0.5010717954253543 
0.530616503345184 
0.533817216633816 
0.3609568668949971 
0.1485388528639767 
-0.03680436195990497 
0.256277309136867 
-0.2034702616606459 
0.1498086839314882 
-0.05846931575126631 
-0.1300598064036233 
0.1206200855615511 
0.1206200855615511 
0.1206200855615511 
0.1206200855615511 
-0.2341166991553319 
-0.7973145468235819 
0.4919055139893448 
-0.009878204714681621 
0.1918056808642531 
-0.1132476380499383 
-0.0339808573474068 
-0.7323151020464663 
-0.02127697860174149 
0.5285064972066061 
0.003864308905908415 
-0.5630653378642185 
-0.2319576045847961 
0.06270839546205609 
-0.02807644313779848 
-0.3108321676120386 
-0.05436819318915949 
-0.08278046315123234 
0.187945902709829 
0.4490870922103125 
0.08536270004334341 
0.04276610102079859 
-0.08179500062904523 
0.03271624727003015 
0.2078827635357143 
0.1633258869002538 
0.1996167817459788 
0.1871272234640046 
-0.08280304648442627 
-0.1374519572942036 
0.118466819270078 
-0.0004981411497894765 
0.0868768040569131 
-0.03635993299542846 
0.3650511957682011 
-0.09396377291122951 
-0.02258178623776072 
-0.01364323984747365 
0.04119660117936234 
0.4400560939582675 
0.4974483538357724 
0.1318090583457015 
-0.6400037646348321 
-0.06126824887158419 
-0.06271031299284908 
-0.3023061786735228 
-0.0202001826366806 
-0.00266624245738286 
-0.278192763234433 
-0.2763954938923395 
0.05331596788436495 
-0.04692296193066884 
-0.184768014159211 
0.2757211615532491 
0.1673740657543159 
-0.0197261439442183 
0.04423793937644913 
-0.0796647264151384 
-0.01517854098009519 
-0.06153633983964683 
0.165924530321978 
0.1958465102968439 
0.05761795008000975 
0.05761795008000975 
0.05761795008000975 
0.01369216880238 
-0.06254122388181303 
0.1229690627249476 
0.2723487147138378 
0.03977586039441628 
0.06711318800100627 
0.05297003082715345 
-0.1348151658934768 
-0.03314879110687982 
0.03822347497551022 
-0.01630987371012316 
0.2889568776489857 
-0.9100692633339335 
-0.1975277180956339 
-0.2686079016209397 
-0.03368316935822211 
-0.03449068512250777 
0.1648416817126607 
0.07710659188401334 
-0.02916219843637215 
-0.0751046460300662 
-0.1289548909369702 
0.255437681656907 
-0.183574336120813 
-0.04044280692651618 
0.2184591367785215 
0.02158088505200511 
0.2596902253125558 
-0.10895193191586 
0.05250867948345341 
0.1221727438470212 
-0.2219380078779682 
-0.2996032998866472 
-0.3078827547768709 
-0.02002695128481727 
-0.4700630579839445 
-0.07529098852260062 
0.1286276694893385 
-0.3785441939233298 
0.1711713513333199 
-0.1754200882170114 
0.05911929555684196 
0.3500355633287127 
0.1775735286828966 
0.1614852015482636 
0.1369783113131537 
-0.1877072949425669 
-0.4479442897131762 
0.3764464068284095 
0.07228175225664973 
0.2776872037429504 
0.07228175225664973 
-0.1388909551122178 
-0.07264268128579568 
0.6466299115076606 
0.07050257909422597 
0.3221125644972151 
-0.01006924275905886 
0.00791518195757477 
0.02976487550332195 
0.294409733046469 
0.2199990820252562 
0.1884887272756505 
-0.1842644672665966 
0.1801320403033005 
-0.04344401104190051 
-0.152717256095293 
0.1525755391114656 
-0.4716919841994302 
-0.07470785709212382 
-0.09205983080114849 
0.4751376093992254 
0.1497027047426647 
-0.4277336151693947 
0.01327693609380541 
0.2031422059900532 
0.3558919099999628 
0.08058956883629931 
0.121358065589405 
0.166257339769974 
0.03645137858527779 
-0.01219126395680137 
0.06360840956753311 
0.2425496068494631 
0.002462473533795634 
0.4282404332323805 
0.07740266984643604 
-0.4395456962134761 
-0.6165374485858144 
0.06952718275118297 
0.03001615360333416 
0.03976514410392827 
0.1591399899260648 
-0.1043201704126013 
0.1650126487144694 
0.1319820655775709 
-0.04170509181269581 
-0.1222990159074691 
0.173515395737845 
0.2881685415615894 
0.02189290029457939 
0.09175794778999641 
-0.9095066602944158 
-0.2002763276114309 
-0.08578818773724037 
0.1542426249578487 
-0.007313597117357896 
-0.1059970712567918 
0.04904137660601178 
0.1088862750905543 
-0.2751247684842414 
0.2828776239160281 
-0.05095278145331386 
0.03451929207779536 
-1.492793756049465 
0.05901171851495604 
0.3648784443860202 
0.238744749848309 
-0.104585263042854 
-0.05761486714336474 
-0.1305873225362078 
-0.0009105760558044077 
-0.1174963314972307 
-0.05816963782963731 
0.1891175829945812 
0.002392817409334787 
0.1580950997514444 
-0.2051180956978847 
0.1235388025253108 
-0.2864924493034328 
0.3325255855897726 
0.1572034293736478 
0.09984038042951882 
-0.5234683473043105 
0.3363295713521678 
0.4556403808835614 
0.4390797990021946 
0.07029413445543502 
-0.2524710374147279 
0.06807578753369282 
0.002168921526980179 
-0.08940101557704699 
0.1823485789418473 
0.3727618045518428 
0.2913274484206497 
-0.06392206107061027 
-0.8550788053961993 
0.1541964442815973 
0.2137463590227051 
0.01416384525658555 
0.5264793022663772 
0.2740913181908237 
0.02628219439245091 
-0.1707336084880792 
0.03553171616302234 
0.3221847861925976 
0.1098639412797476 
-0.1220842566599812 
0.3141981309620211 
-0.1314261048182425 
0.2235229055458318 
0.1712080254539953 
-0.008219306190615894 
-0.03260593057744614 
0.01057949440251749 
0.07858016010860588 
-0.456999868663878 
-0.1405394890450585 
0.136167944726337 
0.3445988674356819 
-0.1857129591198887 
-0.435827953054748 
-0.2092890861357433 
-0.9513737963663886 
-0.1307570660815991 
-0.1983591933167834 
-0.2380149300769887 
0.1485388528639767 
0.2819433330715745 
0.07853465902271246 
0.1830126826805257 
-0.3541569361685733 
-0.03738041797395607 
0.06833839395544279 
0.3788167579285866 
-0.532684323646837 
-0.2201441495718213 
0.2241846140850698 
0.0107051868724382 
-0.7351537643093702 
0.9545642428262363 
0.3694840041490347 
-0.03111450081316726 
-0.3501808214503734 
0.09837956127490817 
-0.05034617899572519 
0.3825692352241183 
0.2714550893790176 
0.007569822031619683 
0.4964102597829987 
0.562973646001688 
-0.2365948851018156 
0.3715788558692121 
-0.4104269517836031 
-0.04397152504044914 
-0.3418916046937568 
0.3062861438762761 
0.1596770391831605 
-0.2002065571705176 
-0.08672054344500349 
0.4410380297139324 
-0.2330428274587349 
0.2354064715845318 
-0.07189533298686471 
0.229207969394911 
-0.03170721925968681 
-0.3989706276661889 
-0.3313634134137681 
-0.1274671539519034 
0.1083001892455421 
-0.07733861754386111 
-0.01606639138699933 
-0.1228021003253462 
0.08714757114112918 
0.0004145727028641402 
-0.3774008774433911 
-0.1851984852087764 
-0.06080672837594812 
-0.0633411842131624 
0.1621250703329375 
0.2280055997632063 
0.2030342097739089 
0.1421874006180615 
0.3663712011655994 
-0.01116464982924637 
-0.3011532490121289 
-0.6082301457733184 
0.04745051891992511 
0.3990688930693226 
0.1318923521268734 
0.02727654266461148 
0.2713332390427915 
-0.5860445164706901 
0.2535513162267713 
0.03754887717644928 
0.1241784803789778 
0.04921222419496022 
0.2903793137431319 
0.6545276514015237 
0.1822308479777293 
0.1969363781961966 
0.2609348330594445 
-0.1768282410239771 
-0.3663551845111616 
0.2693121312005164 
-0.1243567089784032 
0.01006019706343391 
0.1685975999643093 
0.4990414613979719 
-0.004705439864772745 
0.2967372570687282 
-0.5066684735156198 
0.05316398509645043 
0.4056485355803102 
0.08865806223622649 
0.06133916841204318 
0.03370558278682426 
0.0244945930849653 
0.02767683317708248 
0.09229488630640002 
-0.07406812543166795 
0.251437714263457 
-0.06126621988193511 
0.04609947599999931 
-0.1330934575598915 
0.4525947799679387 
0.1157957563391059 
-0.06906133595918774 
0.05455761142596133 
-0.4417411985910539 
0.3722379541345728 
-0.778608662684434 
-0.1431824049067167 
0.5361703496624469 
-0.1844618536569287 
-0.02248337200647251 
0.3525386339395746 
-0.5630024724893825 
-0.6409416475615498 
-0.04117843393779225 
-0.4057092419159802 
-0.4226446561380743 
-0.0117621071169609 
-0.519654033428011 
0.2429674353997689 
0.4001569065433708 
0.5260540051333092 
-0.217877362679622 
-0.03959485086934543 
0.1142415330036271 
0.02688481878552906 
0.4158886016254914 
0.1161771645989566 
0.0002684503921996234 
0.154815978058256 
-0.4718352596718743 
0.4005863857462636 
0.3141141936434172 
0.1433159097200641 
-0.3102406954960352 
-0.3398850946647304 
-0.08349246167356025 
0.3190173169618525 
0.3212338901985077 
0.3445902417052385 
-0.3100134296100782 
0.2471622575516514 
0.4966689949347711 
-0.02514450671395786 
-0.03414875710482029 
0.07882867368245591 
0.0001242798376169867 
0.2833647666994124 
0.1080795537609779 
0.6841890858461138 
0.2251671644431763 
-0.4727506071848404 
-0.01529803798730762 
-0.2968627997089008 
0.5614875809356702 
0.1041525334915126 
0.1770063391456406 
-0.02125003751060772 
-0.2273551088793593 
0.4709868259643854 
-0.2598675085713384 
0.3953300320144473 
-0.1383627734796181 
-0.2851552782169288 
0.1983545811147023 
0.2246643984894966 
-0.347923235921668 
0.2808372318646239 
-0.381696489344527 
-0.4279121785903656 
-0.7558131136668746 
0.1586377464923046 
0.03607486641947537 
-0.2252408790843464 
-0.1994904521073046 
0.2478387310001345 
-0.03541908517551454 
0.07262417276136938 
0.07262417276136938 
0.07262417276136938 
-0.112831347379539 
-0.004008354642768178 
0.1901171493210737 
0.3456576060179756 
0.1061070859825271 
0.2627280668519182 
-0.400573067225806 
-0.3964528677237737 
0.07328919883759664 
0.1533432599149704 
-0.292610782428864 
-0.05910680102849761 
-0.4393366020694622 
0.06892426674159546 
0.5025252286977905 
0.3460867657413719 
0.09268555642244136 
-0.2094717897005657 
0.5176797455907081 
-0.274742382462027 
0.4151905320471947 
-0.06684284384648614 
0.02551458164757017 
0.2534783627544174 
0.2711226667418643 
-0.01884755843471227 
0.001687794805050039 
0.00114753280603419 
0.2180240392337661 
-0.09513502125077002 
0.03971926833501028 
0.1279588321609241 
0.004974277972136038 
0.2760432768358743 
0.1765559636029944 
0.1765559636029944 
-0.2677837511257978 
0.239946047674946 
-0.1634904870300481 
0.2125341457600039 
-0.5542925649959061 
0.2178278713121649 
0.2244441306156611 
-0.002947646574909951 
-0.2482537076637868 
0.09061787057798433 
0.1158001751691375 
0.3124188849890621 
-0.336090766969518 
0.03895251957399466 
-0.274744696891569 
0.472029349170912 
0.2594466877069539 
-0.7662376525645506 
-0.6951238673480369 
0.2089259324263276 
-0.01814168622535206 
0.1709326827390998 
0.02844143211303996 
0.3357880252529097 
0.02844143211303996 
0.03659237830434727 
-0.1320834427239008 
-0.0596877007205307 
-0.1805123310016637 
-0.9537918723423416 
0.1402042618719446 
0.1559702913645158 
0.1402042618719446 
0.02296709884845369 
0.3140825758815521 
-0.1858177973431031 
0.03770764192991323 
0.1478106155123268 
0.001837141863484057 
0.1083680156152221 
0.283750608460947 
-0.1208172122922218 
0.05290884443723209 
-0.3419996721522306 
0.1777988140026999 
-0.3877530220356811 
0.2357011507268357 
-0.07218914497621812 
-0.4866771979823536 
-0.2178875758141699 
-0.5163532006181699 
0.02623236691535147 
-0.244099976201551 
0.2057722445045759 
-0.04244519783561593 
0.01213136107602901 
0.2327364000544263 
0.04927212684397139 
0.04529051143307601 
0.06496024719307658 
-0.350940218871279 
0.6047279529571008 
0.5011220375963266 
-0.1536612906798446 
0.1541583758270934 
0.08029286651474411 
-0.2947490619698192 
-0.1427739365131657 
0.08029286651474411 
-0.1483324869487838 
0.08029286651474411 
0.08029286651474411 
0.08029286651474411 
0.10174202634027 
0.1783526157077353 
0.187862952083673 
0.2051796415197675 
-0.08483847034331946 
-0.6318122275613416 
0.5718018488103003 
-0.1777195539596739 
0.4489047040888533 
0.03336730927174469 
0.03336730927174469 
-0.5853489713298151 
-0.001651259850601883 
-0.4700383234878101 
-0.8495968342040481 
0.1915874673723827 
0.3343570714727362 
0.2107215860162763 
0.02121555780786504 
-0.05434022282487035 
0.2790617191936334 
0.123956700555277 
-0.4055005738341155 
-0.2867896964939979 
0.4354683527880135 
-0.006489414248298999 
0.3081489151213693 
0.09163811661034922 
0.1542377765136695 
0.558829966937347 
0.6058631167301494 
0.09960160346355092 
0.1235384364511112 
-0.1631928637075113 
0.2179562819877763 
-0.2030484395433915 
-0.08422254039384333 
-0.5763341676098713 
-0.1508913663321512 
-0.4218914588420509 
-0.07884397832211787 
-0.1189505824096295 
-0.07335785929314941 
-0.092860376632391 
-0.572957997623281 
-0.0600473795094582 
-0.04978662825748133 
0.2635609438500571 
-0.06008598184410353 
-0.008122257309810466 
0.004760878850498563 
-0.3358613111751409 
-0.2104104316979774 
-0.2013537913988022 
0.06719037585719743 
0.3094954707284671 
0.2143211645956083 
-0.2769220612642703 
-0.1579083766375111 
-0.4426533390115889 
-0.6109699347242737 
-0.2140409609379157 
0.02225430157934186 
0.02225430157934186 
0.02225430157934186 
-0.2199865576332789 
0.2715300820341913 
0.584304969448965 
-0.4044629199538337 
0.05891124059932523 
0.1522030587912599 
0.2554718267963343 
0.3323674021278565 
0.02438360246307032 
0.1185817521692938 
0.2287137310461971 
0.157987064964682 
0.3257666655157965 
-0.9324372789573637 
0.05326103395227509 
-0.6359967197957643 
-0.2898199762405418 
-0.5378835851051837 
-0.6187661100326165 
0.02191770872733552 
0.3227741298175907 
0.5024111898457821 
0.1528577574920525 
0.1377650658690726 
-0.2807939681717623 
0.08946443188414448 
0.04707940099057913 
-0.4638046855512372 
0.06736523750679436 
-0.05949196735785578 
-0.4662075636208389 
-0.1283232574018258 
-0.3060245812958596 
-0.4513020089331222 
-0.007843171714223926 
0.5708955801823008 
-0.2521972290537568 
-0.04570903323345059 
0.4020226934657771 
-0.1906799774306011 
-0.5341939062738273 
0.4020226934657771 
0.2720905595579061 
-0.7168873402747451 
0.3793945741383695 
0.3022877380358822 
-0.06116575454251647 
-0.1642262738571534 
0.7525780006994172 
0.06167633517719937 
-0.06925855335494127 
-0.1122450378353878 
0.3414092034558239 
-0.5812487899724379 
0.1921899059752718 
0.01251001084444636 
0.1816621244467646 
0.3503302057381362 
9.079174387162462e-05 
-0.2417449210854963 
0.466950049456218 
0.1081868399045698 
0.08106434906122854 
-0.0266882659750341 
0.43453899426256 
0.09535901380430915 
0.06285157909501662 
0.05485356353362744 
0.09523318215986563 
0.03831865896227714 
-0.4294854794570759 
-0.2508403626729898 
-0.4356030717177817 
0.04109154280717699 
0.3342184048941895 
0.1821364198665454 
0.005738953832947042 
0.4931146834010688 
0.005738953832947042 
0.12951962959806 
0.005738953832947042 
-0.1152351376817624 
-0.03297303376816983 
0.05867915979374213 
0.1199960626334033 
0.3694666449329018 
0.1467272175634346 
0.2348047792387844 
0.2348047792387844 
-0.7248269248684212 
-0.2193047194746204 
-0.1561311362266322 
0.2323354265112671 
0.5543560835896986 
0.2976649592614369 
0.07835347363001895 
-0.368881335287526 
0.08906521833288764 
-0.2597840886081022 
-0.3233109427263554 
0.1030071007960494 
-0.1219153587670701 
0.278456035637511 
-0.3220111708212943 
-0.3169264165148951 
0.04151097976606305 
0.1029879258166881 
-0.004322110206131105 
0.09743773805768433 
0.1522604419027089 
0.01513582972647663 
0.02645106351875807 
0.1402002591334734 
-0.6259452352898749 
-0.9068292444306381 
-0.06993727383536943 
0.08281936959823477 
0.05726369399881291 
0.3756859152567184 
0.01009396436237134 
0.009767647635099999 
0.009767647635099999 
0.009767647635099999 
0.04858234957565621 
-0.0257254584067296 
0.3813526976394045 
-0.4837038817014603 
-0.1406776017486305 
0.4262873218864773 
-0.04748397583479249 
-0.3170513914721917 
-0.2782096682440009 
-0.7249327741460907 
-0.02713645491125274 
0.4771400711595397 
-0.0287463407519253 
0.001060913009508197 
0.5203851233419784 
0.3265245750409117 
0.1680650350059116 
0.386726454629944 
0.07590264549022646 
0.107130901903262 
-0.2012184556798761 
0.1555271153708815 
-0.0230665143546212 
0.05995258918549062 
-1.199031095767135 
0.03464323282290424 
0.08993809154126679 
-0.01704146867276699 
-0.2703290447352556 
0.003761286368728842 
0.05863766201146263 
0.7650514111373449 
-0.365731574301324 
0.4255082508103931 
0.5882070886518985 
0.2451433404690242 
0.002417699291211322 
0.4654339006376525 
-0.3172842555160751 
0.5945916085448946 
0.2085868042437536 
0.07869130728680493 
0.07667114700930625 
-0.6167627636724633 
0.007621410654709157 
0.3500234623919548 
-0.3259952832698899 
0.03093628233307276 
0.03093628233307276 
0.03093628233307276 
0.03093628233307276 
0.03093628233307276 
-0.1092249571406566 
0.07138281165507791 
0.03582080777143741 
0.1007727460416361 
0.03582080777143741 
0.1104848402837492 
0.06534126911349535 
0.06534126911349535 
0.06534126911349535 
-0.07774833479193677 
-0.3476431342432658 
0.1064781588080616 
0.1069894506190326 
0.1064781588080616 
-0.1794980300251578 
0.199598791344243 
-0.02502220774440919 
0.4379715870524674 
-0.06824315228307423 
0.1570126630590129 
0.01827616060810209 
0.01702839263001307 
0.01702839263001307 
0.01702839263001307 
0.05293295561303542 
0.6223951278502087 
-0.4435028904638691 
0.1056668330057292 
0.02000258088091592 
0.2256827340671619 
0.1930892801746278 
-0.1063066007662537 
0.09888667298551709 
0.03449580056369499 
0.04085671584369623 
-0.2913681571902871 
-0.2838734880461165 
0.8333003939531864 
0.1429618552475524 
0.1960062487437342 
-0.002203679444583932 
0.01595020135446899 
-0.7668639526841323 
0.02194606910153006 
-0.01565038045051196 
-0.374457198609399 
-0.3898598983195198 
0.08044075905570831 
0.5743258497067675 
0.04107930838573577 
0.09812400450152022 
0.2065186654130359 
0.1092781443424192 
0.0009077102784006072 
0.0006591506031666337 
0.1332420596755483 
7.308533144207821e-05 
0.02882138208815171 
-0.3761551667732932 
0.1197393622415881 
0.1197393622415881 
0.1787096529656453 
0.1663759821768691 
0.2442676924608588 
0.2487342883616021 
-0.07452479143000855 
0.1602854484140966 
-0.2259929298135447 
-0.1903586005187897 
-0.4725167465495925 
-0.1352606279498636 
0.2338804065138011 
0.1586789015905808 
0.2725178942179305 
-0.3204634197407384 
-0.08357668216365198 
0.1485388528639767 
0.1602038992584355 
0.368305456937652 
0.03634704259785779 
0.2130606534983559 
0.3905377551371653 
-0.3557325738770393 
-0.08377284439804623 
-0.3964411178750136 
0.5008561377524949 
-0.2362499598270848 
0.1994397484371618 
-0.4284539789795173 
0.05505191544459602 
0.05505191544459602 
0.05505191544459602 
0.05505191544459602 
0.05505191544459602 
0.4581481739063332 
0.5614103590200107 
0.1149149772286086 
-0.5889186552738668 
0.3088363404845363 
-0.4360350019838233 
-0.2294441864235163 
0.3070768967611894 
0.3542339754254497 
-0.1189683298675211 
-0.4291665621833541 
0.08316609617578075 
0.1649681488712226 
0.323947472501336 
-0.1090185600890649 
-0.05972360375237259 
0.2572971182838898 
0.2881426673814217 
0.3364522680403037 
0.0722526338351076 
0.06232896253482304 
0.1627709034065377 
-0.05776149816006419 
0.2705557299250382 
-0.3644234358008873 
-0.06785397807597658 
0.2057451991442885 
0.3683431129151947 
0.07342950541327245 
0.000891399405413211 
0.1096699271023045 
0.1176963079480626 
0.2311208315196389 
-0.0203259419995343 
0.1880496596606454 
0.7156318845596964 
-0.1226150086425119 
0.322532839184219 
0.09802741429498835 
0.09704360063182749 
0.1783217796560072 
0.04539955782848795 
0.2057209455551016 
0.01116510307762693 
0.01116510307762693 
0.1975745568054436 
-0.2014310488280606 
0.8599176259896173 
-0.117168821927067 
0.007940992608761016 
0.4585268019084003 
-0.2707614198221387 
-0.4503208419158722 
0.001725074405959549 
-0.1352412983830063 
0.1906639264941483 
0.1974482916210291 
0.5870955946757042 
-0.5383806312631223 
0.009041118496397967 
0.03500993996264945 
0.001851061229283798 
0.1258544015051505 
0.08727665207261051 
-0.1940612994477239 
0.3459803365962616 
-0.08967950684236978 
0.6781656562402917 
0.001809656621441882 
0.6829966128020286 
0.2067648075220652 
0.1485388528639767 
0.04502554158156019 
0.08222381528937607 
0.1107765385025194 
0.08222381528937607 
-0.2866801620770675 
-0.4252448112623045 
0.3337807124538368 
0.1675276797558021 
-0.1654454241046495 
0.02067075569646443 
0.02067075569646443 
-0.1290790212805826 
0.134907938595223 
0.02067075569646443 
0.2726135352289328 
0.3435367328161916 
-0.07143423350591835 
-0.3304623167550765 
0.3236068061119326 
0.03703586205482271 
0.03703586205482271 
-0.6692093664626808 
0.0653763502702938 
0.09834614641313866 
0.09834614641313866 
0.09834614641313866 
0.1691432172953308 
0.2624093057968589 
0.05157273449437937 
0.05157273449437937 
-0.1916584636056581 
-0.6088852542068461 
-0.4116970807265719 
0.3064572738883773 
0.4739356866253993 
0.3425682010793494 
-0.0130033003517325 
0.2674406533586192 
0.003107552154379735 
0.003107552154379735 
-0.2417699877377674 
-0.04838226603491488 
-0.3590739656126202 
0.07345954063478499 
0.003107552154379735 
-0.1030577577945874 
0.003107552154379735 
0.01346781671120688 
0.4808658801437647 
0.003107552154379735 
0.1323654896009144 
0.08584129240521397 
0.8543131284155397 
0.02841656765338239 
0.05379200463023277 
0.03719881739553708 
0.01677466017604465 
-0.3028239788380335 
0.4932622362123561 
0.1136585897318968 
-0.1197209073761459 
0.1542054587601709 
0.05733440775250163 
0.5207897945758598 
-0.2403587929668947 
-0.1807900053624506 
-0.7249255849170665 
0.1204066584789698 
-0.3036602619082257 
0.2053329404267938 
0.01905158005431237 
0.01905158005431237 
0.01905158005431237 
0.5008145039232599 
0.1748365415102127 
0.1752520620512043 
0.4726015838419955 
-0.03902830788143802 
0.09896915851989191 
0.02247207031131612 
0.01070365050803924 
0.4920532329099304 
0.4637756655259017 
0.4311175450152444 
-0.9729620885793555 
0.1220149107307099 
0.01613622279750829 
-0.4351066256819152 
0.3057170395374789 
0.06805517284634011 
0.2306151531802787 
0.01210591371959123 
0.008438007232600086 
0.1473853321957117 
0.1252914699390964 
0.1252914699390964 
-0.1366511571490446 
0.1252914699390964 
0.02153469284673908 
0.02217543348532475 
0.1425060417322725 
0.4735625439441172 
0.1645544617561202 
0.1645544617561202 
0.1645544617561202 
0.3140597472072764 
0.2948961615290072 
-0.04004386806911976 
-0.002535692043587568 
-0.002535692043587568 
0.3544126540474796 
0.2480084158562187 
0.01650112723015464 
-0.3175198365096725 
-0.1547256361168948 
0.253592471905445 
0.479811300495431 
-0.330152844585141 
-0.04363471520100742 
-0.04363471520100742 
-0.1325579071518466 
0.1757121261418411 
0.8484815766961707 
0.001740529202090156 
0.09125637133602892 
-0.1231482853832024 
-0.1639325279608393 
-0.2875778813016786 
-0.539072089843976 
0.3035395759171988 
0.2603645912361098 
0.2580109064278693 
0.00158375458940267 
0.009178814541826178 
0.009178814541826178 
0.325878978506942 
0.1177957737236753 
-0.6315610944819009 
0.1732539978725575 
-0.3496322764020923 
-0.1775012387461078 
0.1071200797214986 
0.2910520955541326 
-0.004639285440721449 
-0.01006330799363162 
0.2757047804962045 
0.2757047804962045 
0.3469066856335148 
-0.1534586571834416 
-0.4236035912041519 
-0.4601685137167422 
-0.02033933489535073 
-0.4601685137167422 
-0.07800011132554682 
0.06995946902872405 
-0.4560939060817203 
0.004210371893931339 
0.5365359299868649 
-0.8616222461945913 
0.2471567490482456 
0.2463547527459022 
-0.06766415286303883 
-0.6660614922606737 
0.2463547527459022 
0.1927354220170872 
-0.4837543155551304 
-0.1007712347727031 
0.04599723492371194 
0.1400535217225735 
-0.7909757762629832 
-0.4236725896097822 
0.02338339699317582 
0.5636944584232505 
-0.1594845567772915 
0.1393662001166709 
0.2885185375233663 
0.2922825065717145 
0.293220311730402 
0.0004730219170385474 
0.1773786761350285 
0.1145200877572087 
0.1126594728678065 
-0.1077092836422714 
0.1485388528639767 
0.5326357474766381 
0.7479280969744665 
-0.3903483072537952 
0.9853279628354602 
-0.09055462771040665 
-0.271445942568828 
0.03507878778208472 
-0.6524123321433501 
-0.04841929838303916 
0.2175794553738631 
0.3642853366997598 
0.01636448110700464 
-0.2116525975773894 
0.3928339460005978 
0.05622330435978216 
0.2923175411925666 
-0.02327265665853118 
-0.1078266994732696 
0.1057344767286651 
0.1159274203712537 
0.1057344767286651 
-0.02630369965352557 
-0.4459629629858416 
-0.09411296576354709 
0.3658583957011254 
-0.0009768198077595991 
0.01882605988157095 
0.1478673129383757 
0.08911805444356666 
0.03177964543157869 
-0.06359448812476109 
0.05532277610614258 
-0.2502973984073298 
-0.2502973984073298 
0.1442873797090082 
-0.5688137644646675 
0.0007627557289427087 
-0.05673388844386532 
-0.02000714880109714 
0.01377313445972083 
-0.5292011758353155 
0.1013123415003816 
0.2514412125221757 
0.5429459158063533 
0.6367429050943567 
-0.8389093341596339 
-0.7430681493226435 
0.1506689557600187 
-0.2906308914616966 
0.03805789776239377 
0.2083450793524568 
-0.0150387688492609 
0.4871943738552924 
-0.1785926460164195 
0.1083736780001465 
0.02089551960793517 
0.02089551960793517 
0.02089551960793517 
0.5767347772311002 
0.02089551960793517 
0.02089551960793517 
-0.5465339261979071 
-0.0417475035608503 
0.03109965647826435 
0.2320286298926246 
0.2840373592772177 
-0.2389079874224526 
-0.003707207175359662 
-0.0008831071732704223 
-0.0008831071732704223 
-0.0008831071732704223 
0.6820464798323713 
-0.1236002123817092 
0.2648372917684277 
0.01453040806287165 
0.1720944212330937 
0.121362728773213 
-0.1733196033146392 
-0.005881377633119309 
0.4175374742376217 
0.0007670812863783186 
0.0007670812863783186 
0.0007670812863783186 
0.0007670812863783186 
0.04038833675786153 
0.09830247420708389 
0.1114305429652984 
0.1079322066273688 
0.1066512938072408 
0.1050824821610606 
0.6949498651712507 
-0.2536259360415786 
0.2656674313229354 
0.3901334984828309 
0.4786340871205004 
0.1696114903561634 
0.1251480489771441 
0.1840464694023577 
-0.3109428757077033 
0.09344407200962691 
0.1885613049399408 
0.008863832337367067 
0.4222316001037359 
0.1299498805095605 
-0.2031597098913804 
0.1574484937379988 
-0.02183759016902383 
-0.314141742714954 
0.3672395529994161 
-0.3073004740826637 
0.1163873096961993 
0.09559505351801359 
0.1946414550067442 
0.159125486404039 
-0.9559362458501566 
-0.4090111250355655 
0.08668780341071586 
0.0867574613898686 
0.01778478317712511 
-0.1124304677731403 
-0.2585855153802356 
0.219660714347543 
-0.1666102347749481 
0.2363896295773736 
-0.1081844045002468 
0.1232356154390062 
0.470404186373004 
0.1437852664611166 
0.1452239336690056 
-0.1301195656695578 
0.07951455891359593 
0.02912852073082544 
0.03963677874571325 
-0.1317520642630627 
0.03301354894262774 
0.1408412744714189 
0.1516151170944859 
0.07243142580688128 
-0.2166259078239812 
-0.07994536902586481 
-0.3152768549747703 
-0.008920124328109964 
0.3250193794883613 
-0.01174306858069046 
-0.2385624993460656 
-0.2265469310182929 
0.02743614285816775 
0.2790848827612375 
-0.3530730802894692 
0.09183696558766628 
-0.04905443561684419 
0.2531123159379766 
0.03205312212980673 
-0.001628268086483229 
-0.1895458427051217 
-0.1013583979989624 
0.1344171676906268 
0.04444491396534619 
-0.01937046231018345 
0.1485388528639767 
-0.02714676098932484 
0.2174537810146271 
0.1534498770914347 
-0.115119031269408 
-0.1634936181998417 
0.03276990749256071 
-0.1575423669671325 
0.1583253325211939 
-0.4015262358800713 
-0.0865415165031323 
-0.05101944742087554 
0.2131722747127313 
-0.4345631796265724 
0.2521476718142229 
0.1357307614437745 
-0.2971190810849363 
-0.3606980840202992 
-0.1271801767388192 
-0.3606980840202992 
-0.6236170849365977 
0.195754898044376 
0.671441050899389 
0.003466353990265368 
0.003466353990265368 
0.003466353990265368 
0.1999485893940632 
0.1868060888462548 
0.1392428417529009 
0.3129037275468975 
0.09273786441979999 
0.09286214425741697 
-0.1114153398843533 
0.1810418229185394 
0.1866951592999462 
0.1187832385044008 
0.1213998067247144 
0.002693520165005658 
0.03769302308305908 
0.03598714418359126 
0.07749971352541599 
-0.04768379023013056 
0.1576559374668752 
0.2121771361351639 
0.2982314418167619 
-0.716002453572096 
-0.00756420380217517 
-0.1128119942042458 
0.05009691714067972 
-0.1360652182291333 
0.003525735009769913 
0.344009290910573 
0.5348642134445217 
0.161694837813352 
0.09964158050064399 
0.07014490141697138 
0.3480895828154348 
0.5721412241113266 
-0.215996797651095 
0.09760701354752831 
-0.0336055881261477 
0.2442717202061037 
0.3292752561317241 
-0.09803312792848895 
-0.0321018868999681 
0.2749612789540041 
0.1771435332472399 
-0.5852584426107108 
-0.04691326607364853 
-0.1249660624539951 
0.2817197792910668 
0.03345019150778225 
-0.08566886473558592 
0.09439186315265879 
0.2070856221495553 
-0.1811039437210745 
0.2070856221495553 
0.1076559855282415 
0.1076559855282415 
0.1076559855282415 
0.1076559855282415 
-0.514813791092518 
-0.07416195925750924 
0.2223402880365158 
0.397664189377286 
0.0935488377308665 
-0.09073566383526942 
0.1898204555307076 
0.3650854091753754 
0.2596488459299711 
0.2159351030083818 
0.1835025222407473 
-0.3808434734415777 
0.321238828230927 
0.0007173780792829877 
0.0007173780792829877 
-0.3612432549809591 
0.1293513180537987 
0.1484810288296461 
-0.3805666732583804 
-0.2420702516347945 
0.1051762201393202 
0.0002412369978080131 
0.392330056877836 
0.2404690970284469 
0.1818324211506671 
0.3177781830199775 
0.08259400368254663 
-0.4755745198254873 
0.2149540377395438 
0.2394787244831763 
-0.1982139716976288 
0.1277905062914673 
0.2668038815501006 
0.1494842085604193 
-0.7600000135267532 
-0.1321752167961474 
0.1751572351438475 
-0.1278392362993171 
0.2789743796623477 
-0.0536769845828122 
0.2463959267974591 
0.09397454916084338 
-0.4348645227485633 
-0.3415111742888646 
0.5136784004443439 
0.3365802807084591 
0.0001242798376169867 
0.1468199553657542 
0.005839875279070028 
-0.2222229332564286 
-0.1734576098770911 
0.1016192576332952 
0.3141698912012353 
-0.1798793865515357 
0.2004304243228606 
0.378893481188489 
-1.241727271080362 
-0.3478563020005223 
0.3827154071425625 
-0.3239113606453192 
0.1017705591594445 
0.5716128327401635 
0.2034059204158951 
-0.2628072892792215 
0.312955221341558 
0.09350763416673759 
0.4399389119599575 
0.001192523694124743 
-0.1469742457311737 
-0.2126878199051177 
0.1398650359498859 
0.3942824329231197 
0.1655138030725576 
0.0819514067143905 
0.1613297199652385 
0.2668310060966484 
0.06085754271930182 
-0.3884086743276795 
0.2886108979770525 
0.1434034155724098 
0.06017449112276861 
0.2834999307459524 
0.0513780538364294 
0.06929185332985002 
0.03860818734259539 
0.06929185332985002 
-0.02664911103289085 
0.1029811203209807 
0.3252376545884691 
0.3608626238751538 
0.1523977954078179 
-0.2036390743048065 
0.0004363934287326822 
-0.04872804616386893 
0.0004363934287326822 
0.1139660443445607 
0.02495928250203262 
0.09151638107743817 
0.5174463883664995 
0.02063763919358415 
0.02063763919358415 
0.02063763919358415 
0.02063763919358415 
0.1399837916697018 
-0.1061331503606717 
0.3341167445263132 
0.2083271946460596 
-0.5509345317330581 
0.1153635787326695 
0.1086500044656625 
0.1846854844558993 
-0.08948996921439127 
-0.5632767654366282 
-0.4939311761780389 
-0.8348138867941414 
-0.3562851887024734 
0.4630903157544565 
-0.325120082502827 
0.09818518055512915 
0.145812384338888 
0.1549292823291735 
0.1389522498652568 
0.0186331573466007 
0.2145991601992577 
0.7116902955504095 
0.08090170152798315 
0.08090170152798315 
0.08090170152798315 
0.08090170152798315 
0.1799274473639385 
0.09912293533311364 
0.1015128265130621 
-0.05290059032634975 
0.1806559511763519 
-0.06267793447715639 
0.0910577934991829 
-0.2288240023637502 
0.05673950375093113 
0.003451367239415249 
0.4064856617078864 
0.202913266550087 
0.4413970414359681 
-0.2663757571862087 
0.3176233280305099 
0.06078532117062048 
0.02002225197934545 
0.02002225197934545 
0.003647514269393461 
0.232938783406205 
-0.03948627556271236 
-0.07490051288676647 
0.06215793707193506 
-0.2060478020487619 
0.1485388528639767 
0.1383688493853043 
0.5663086372627878 
-0.4543238033836054 
0.0008246006821247994 
0.0008246006821247994 
0.0008246006821247994 
0.1269678111190208 
0.187011641966228 
0.107830723939704 
0.02749102573232839 
0.04043931945956572 
0.8171093651361184 
0.1718612865535633 
-0.03292578273794945 
0.6986787256212765 
0.1648350762847079 
0.3248711694197487 
-0.5384116733406576 
0.03924511991144684 
0.03427078856007324 
0.04143790280010824 
0.2870372307152918 
0.1097297570608396 
-0.1715296302140352 
0.3947694480763562 
0.4213979572108337 
-0.3125199145647355 
0.2721469602466735 
0.03755459853816585 
0.001479902001766455 
0.03867600654472272 
-0.1547398751514613 
-0.2248722652527332 
0.199794676659183 
0.0718913050772155 
0.09708493719016831 
0.1705787268127496 
-0.05796645170278839 
-1.179947842619814 
0.03462664695402116 
-0.275691542069854 
0.2708850117643868 
0.08599874012265131 
0.07231652913989473 
-0.2455163238770415 
0.1485388528639767 
-0.06398176274266597 
0.001793619858764069 
0.3471781187986301 
0.1021607841504223 
0.001744095660552544 
-0.298585686771697 
-0.298585686771697 
-0.1703374440855479 
-0.2441557476188813 
-0.298585686771697 
-0.3729297954515415 
0.02661622599762612 
-0.4782491792273998 
0.1500552805915835 
0.3391130169371249 
0.3307549137165415 
-0.6229079538027903 
0.05164406089848813 
0.2142938283183667 
0.3272904152272876 
-0.3420269791971999 
0.2731838097081752 
0.2464576736883112 
0.1212285762069041 
0.07226961214416451 
-0.09391499769105363 
0.05837058888944788 
0.08171811482132237 
0.419253089162539 
0.05837058888944788 
0.05837058888944788 
-1.01457337342355 
0.2043374770186424 
0.09533341066131698 
-0.4143549874544629 
0.5544187819250634 
-0.1493071994055738 
0.1336644857338449 
-0.3067120608537633 
-0.3584619845440722 
0.129729455685041 
0.3869109089360808 
0.0004213616696017904 
0.2411059456965534 
0.1418089808291061 
-0.4921637688903413 
0.406704001091696 
0.02882973463123664 
0.3088430329537367 
0.00654261815217781 
0.1610057244259239 
0.4739728612036854 
0.00654261815217781 
0.1173395947314236 
0.2609767892352713 
0.1623127165183452 
0.1634054638503502 
0.1578366131267919 
0.1578366131267919 
0.1823892781243336 
0.5101857772689731 
-0.168891252331 
-0.03459223755745044 
0.08360627433559395 
-0.4002667929650301 
0.0535362937132491 
-0.480364946572018 
-0.1340065193930674 
-0.2808834457169524 
-0.16569008643755 
0.4581743311635687 
0.5252475895306844 
0.149055807320111 
0.149055807320111 
-0.6908493607332385 
0.3882797776482946 
-0.7710172803807488 
0.1888191745565553 
-0.09109524848117993 
-0.04131495437186172 
0.4520841683141371 
0.5996824713270426 
0.07106788158334956 
0.149090654877025 
-0.4046742659746674 
0.1696221132967601 
-0.4046742659746674 
-0.4046742659746674 
-0.4046742659746674 
0.01373421212237255 
-0.2055649694197105 
0.1856569014968367 
-0.03154629247775985 
-0.6438259429313895 
0.02100599524065076 
0.02100599524065076 
0.2871852426570635 
0.02100599524065076 
0.3263928682888331 
0.1251057371314065 
-0.1278344814521306 
-0.260711538012165 
-0.3123503195071852 
-0.7327907974657262 
0.1391378413415934 
-0.6472387236770987 
-0.1111380178900212 
-0.6744346278826561 
0.3614534454332251 
0.8106975681728518 
0.09101135251192571 
0.0731741173160238 
0.4607292061395498 
-0.125197445885978 
0.1205713711497063 
-0.5504153211875572 
-0.5863581507585042 
-0.1948552393929234 
-0.1948552393929234 
-0.1948552393929234 
-0.1948552393929234 
-0.3016917095234712 
0.148089892887327 
0.1537338543186564 
0.01652465122888344 
0.2764906300740513 
0.01561702159259585 
0.01561702159259585 
0.2925801556383144 
-0.08878293171871043 
0.3243094028037514 
0.02362906854671097 
0.351216726376935 
0.3236294771924462 
0.02327234693771371 
0.2329279592830496 
0.3121624691689666 
0.01599891685937588 
0.2035932141221124 
0.4615106599058015 
0.3871836871011167 
-0.1043088888513471 
-0.2547219964827496 
-1.067675821647632 
0.1779007214444667 
0.1779007214444667 
0.1779007214444667 
0.1443677699390868 
0.1104681402674848 
-0.2666208033044186 
-0.0239875026780575 
0.07149538683100279 
0.08648698193276148 
0.5137132590940306 
0.004137585544617538 
0.1650107613197243 
0.05066653229586752 
0.03041938651949574 
0.01460550538514224 
-0.1009445564471994 
0.563176270251442 
-0.03830465806797068 
0.0939499169375351 
0.0214598091278884 
0.03095829449065829 
0.07226780173263331 
-0.4140149262912054 
0.1341842728958119 
0.1235384364511112 
-0.6388309248604029 
-0.413160994609149 
0.3570150514556935 
0.04474929263594155 
-0.06841915599072848 
0.3471145850396844 
-0.09478233821433403 
0.03969318344286325 
0.0669008981908996 
0.3227977869299385 
0.04027787496162779 
-0.5826359301066412 
-0.4233513826340943 
-0.6053690426074086 
0.16941598526084 
0.3680585522970848 
-0.02515779871895622 
0.3162540482267789 
0.436521033967358 
0.1939479097381503 
0.5316458129641268 
0.0004256610574212566 
0.07830558703335391 
-0.3197447996224675 
0.0004256610574212566 
0.465636039944177 
0.4296114198415408 
0.4256622067520457 
-0.1193861934534423 
-0.529679098710589 
-0.2853583311962012 
0.08831511152996267 
0.5357641633811197 
-0.01020683811390329 
-0.03444122461802793 
0.04054220773901955 
-0.5319192509265042 
-0.2273837879379896 
0.3947344156575913 
-0.2260046264164003 
0.3653681751132553 
0.4343637809795218 
-0.3474999046176322 
-0.3065790832615157 
-0.3139205581089151 
0.1702346947755889 
0.1326784992093022 
0.5106113416353623 
0.07044198383339322 
-0.2319768356683798 
0.1485388528639767 
0.3019025490110201 
0.1341871109852939 
-0.2475727419353695 
-0.1532094866573976 
-0.3097881411514681 
0.487190401850986 
-0.7753274419835405 
-0.240272284796551 
0.04647003428644521 
0.09303607154791313 
0.00114095047313487 
-0.143687374714861 
0.2995675094355377 
0.1134753637458527 
0.3898887882946099 
-0.5742828736668457 
-0.01405836751771306 
0.01082676533218649 
0.06290933549165192 
0.01082676533218649 
0.01082676533218649 
0.01082676533218649 
0.01082676533218649 
0.01082676533218649 
0.01082676533218649 
0.01082676533218649 
0.1112677243610621 
0.01082676533218649 
0.01082676533218649 
0.008615643490973716 
0.164267861898544 
-0.5301483682149252 
0.01783548810949119 
-0.00865994185485934 
-0.00865994185485934 
-0.1462186754653597 
-0.00865994185485934 
0.3846443491964111 
-0.4217248694760735 
0.1485388528639767 
-0.004080596240144545 
0.2641722490308462 
0.1814264265257641 
0.09332693114350235 
0.07521115727250742 
-0.0005939949714401319 
-0.0005939949714401319 
-0.0005939949714401319 
0.03514123054067866 
-0.0005939949714401319 
-0.0844536758603832 
0.3398230741632522 
0.0004490524252628384 
0.0004490524252628384 
0.0004490524252628384 
0.0004490524252628384 
0.1485388528639767 
-0.593521758740884 
0.1291971616940097 
-0.3261721118626858 
0.08009865701045213 
0.2543110080277708 
-0.004507448456692924 
0.4441617817335498 
-0.4119727541373163 
-0.6410319551744819 
0.08736212836670468 
0.1729256534249876 
-0.5173913130095043 
-0.04093699758301032 
0.3504647957922088 
-0.2244727801444715 
-0.01109092686275521 
-0.7164737782650549 
-0.3199856211954744 
0.361123016068492 
0.1493313935518453 
0.0001314786317919704 
0.08127282584978164 
-0.04076669478448258 
0.001018348443761449 
0.08737844303486005 
0.4796153672122605 
0.2745732045268484 
-0.009430180093471281 
0.1848790586172552 
0.2893051578385509 
0.03739579359845081 
-0.2237582827501218 
0.1540096523393107 
-0.08058827799142096 
0.03955325437847701 
0.01808523103018166 
0.1282123339506573 
0.1368020319787897 
0.2699246552098166 
-0.7011707063913704 
0.02339667229526842 
0.3397510878075902 
0.0646455542000552 
0.1896969841415866 
-0.240860820086521 
0.002404780895644533 
0.002404780895644533 
0.2088340272270717 
0.4675279049668418 
0.2889157258213089 
-0.1776485357515835 
0.4964904148971377 
0.1008392609556694 
0.1744408717928884 
-0.6867374736943191 
-0.313138361530742 
-0.3729192309881713 
-0.5485187312483065 
0.08933986092005955 
-0.1330777754441865 
0.2542726627564968 
0.2491136945740432 
0.298503753047741 
0.37264460084872 
-0.5051873849776534 
-0.5498575537775647 
0.3286168561439289 
-0.3894381802093343 
0.09956109229653774 
0.2400680939797407 
0.06440419046372692 
0.01085225028175042 
0.0007234501503953808 
0.1653488766426341 
0.09976933144968626 
0.2915800444946077 
-0.6538386333817576 
-0.3317624482297795 
-0.02087020869532367 
0.1485388528639767 
0.03700640201494845 
0.0005858165916588759 
0.1252406472849965 
-0.6268300120672584 
0.2190877748479152 
0.04019633790176871 
0.2503785801265958 
-0.3032240582023722 
0.219580099471932 
0.07005033495537907 
0.1076053482620578 
0.2058405774444616 
0.284547573179796 
-0.06182124408834029 
0.2718551126671033 
0.06539048384828716 
0.01911832194243347 
0.0283125029724733 
0.01911832194243347 
0.01911832194243347 
-0.0309550881591561 
0.003715166565573087 
0.1373654863381063 
-0.2090913418887756 
0.2560618497271094 
0.01767496224622709 
-0.01195624906069713 
0.260230824361555 
-0.309096599593168 
-0.2801588656885489 
0.007625278169520021 
0.1482634282360282 
0.007625278169520021 
0.007625278169520021 
0.09056135337136199 
0.0327124217487747 
0.001414362852643185 
0.001414362852643185 
0.001414362852643185 
0.001414362852643185 
0.06852247226613803 
0.05506157249120133 
0.05080799260474492 
0.1560662295186719 
-0.231804322202704 
0.396267502265008 
0.1803612722076741 
0.07066607752819644 
0.001842450434092827 
0.001842450434092827 
0.001842450434092827 
0.07844837978260685 
0.2432299895642095 
0.09685268775816368 
0.257260161687456 
0.257260161687456 
0.05853206355584657 
-0.03340907414472684 
-0.03526520565279304 
0.326984189554273 
0.3408803025989815 
-0.08623167693801474 
-0.9523899209102562 
-0.09077492383612376 
0.0003498786335773642 
0.08123642702833568 
0.1502380950547488 
0.1510731072253889 
0.2133399254930848 
-0.1978039552721315 
0.4129331684873543 
0.03852622557283109 
-0.2024664496327679 
0.1604012251971954 
0.211280612795024 
-0.245214760646831 
-0.3518710560316425 
-0.1911595022932331 
-0.2394635576561283 
0.1989954607500377 
0.1947677470660368 
-0.05584346318441034 
0.1111228672993496 
0.0823239773429339 
0.1028811900852237 
0.2512689274138639 
0.3296276488448851 
0.1514588002578668 
0.1514588002578668 
-0.4913424014090509 
-0.6546918208477173 
0.1282607662205998 
0.4886437460770657 
0.1872847899923697 
0.5309377809337567 
0.04932018951477446 
-0.8481016696868315 
-0.6056132294013492 
-0.1665325853073186 
-0.5025568267007543 
0.0001674888016851313 
-0.4292709251682842 
0.2718273774520495 
-0.2653789560917669 
0.02383372869739714 
0.266749632775233 
0.02609994225935258 
0.1672958723050319 
0.07500339424246384 
-0.0008589308335078469 
0.2616438687084261 
-0.07641909558933056 
-0.1150331774484701 
0.3425960485773143 
0.1488069361012095 
0.167777760211009 
0.0951523560244841 
0.0001242798376169867 
0.2436136581657866 
-0.6079302358325644 
0.4153546052268956 
-0.05190985054582067 
-0.1509226755380848 
-0.2329266133622996 
0.2737074345448397 
-0.05181655262078035 
0.3261330009678729 
-0.1741083107491103 
0.347009392666231 
0.004062060522249926 
-0.04097000470508905 
0.102082906017455 
0.197496478129025 
0.09042922821291054 
0.2518302996013352 
-0.1902202474364761 
0.1593668306259856 
0.618665069365309 
0.01432338932506611 
0.08916021330419824 
0.002053387023607541 
0.0657159916684895 
0.3639235348004636 
-0.2545092271608216 
0.3913159133236258 
-0.5056318137795304 
0.1628387899841147 
0.3688280872092493 
0.02491289701899399 
0.1115935337986118 
0.2741574678929573 
0.2741574678929573 
0.04185784468148792 
-0.3263379444103623 
-0.1737804513881488 
-0.1737804513881488 
-0.1737804513881488 
-0.1737804513881488 
-0.4587792361643779 
-0.09815768132544821 
0.4072302347746082 
0.202091202834101 
-0.237403710793849 
0.1626543896299517 
0.4441416512697797 
0.0118117038128709 
0.2779021629353244 
-0.08631362931830142 
0.2196938227186372 
0.03605569244610444 
0.03605569244610444 
0.03605569244610444 
0.03605569244610444 
0.03605569244610444 
0.03605569244610444 
0.03605569244610444 
0.03605569244610444 
0.03605569244610444 
0.03605569244610444 
0.1497548129338188 
0.2344997186155579 
-0.01450775126318306 
0.102151660917797 
-0.6832390389976886 
0.504305066880933 
-0.4968436362166981 
0.2911639519705834 
0.1766742944273211 
0.3351785096576738 
0.001579613428843505 
0.01356042482752201 
0.09768674366975252 
-0.2011273770161102 
0.1037706051896637 
0.1502057489970927 
0.1416310178801667 
0.01125495555317233 
-0.1573504986626074 
0.008393911950918676 
-0.4205488538023139 
0.228160813101577 
0.121191811036928 
0.121191811036928 
0.1045844253456177 
0.0366498455867843 
-0.6521955547123013 
0.02800359312761281 
0.1138435882974936 
0.06574955033260395 
0.0486615134968295 
0.2815523864797392 
0.008569270488077978 
0.03547763446150956 
0.002583769474919665 
-0.01994731232010291 
0.2263474844489799 
0.3728202651469684 
0.02836887465118938 
0.005847778361268909 
0.005847778361268909 
0.1496988027615519 
0.1290947380024222 
0.1290947380024222 
0.1485388528639767 
0.09203912218086718 
0.3378025015188758 
0.09203912218086718 
-0.3359525456981595 
-0.07546021550155586 
-0.3794976834126179 
0.1393680380437481 
-0.2183893350094464 
0.1180089731057733 
-0.0169716179192656 
0.4575601414856631 
-0.01040185287647047 
-0.6956933559471877 
0.3195668374695343 
0.3631546204995649 
0.0003995589488424467 
0.1822018817774413 
0.0749638919414729 
0.0749638919414729 
-0.2907471537992099 
-1.095504577461075 
0.1126320828519361 
-0.6710448083222289 
-0.007129381629600467 
0.009791512439164733 
0.009791512439164733 
0.009791512439164733 
0.1404219420196895 
0.009791512439164733 
0.009791512439164733 
0.009791512439164733 
0.009791512439164733 
0.009791512439164733 
-0.4160129837463 
0.216594371623848 
0.07376212447724939 
0.1593627418259355 
-0.5556835710239432 
-0.6196352590843951 
-0.06988281384547378 
0.1485388528639767 
0.2146759930725276 
0.1952553879513859 
0.2722804911637859 
0.5705564572313678 
0.09889757581842389 
0.1624050362120912 
0.0251380021000107 
0.0251380021000107 
0.2674223809691826 
-0.1996726223405553 
-0.5946156388911912 
-0.8404784937715808 
-0.6990918423297845 
0.02821506055243169 
-0.07810828863244283 
0.6219385597321339 
0.03254315240865864 
-0.2201160896759859 
-0.6825138629985759 
0.7307725158233646 
0.1552399098206316 
0.02031986368158453 
0.1970507817814065 
0.1549055076533459 
0.2588412410035996 
-0.4073905097597851 
-0.2310437652287562 
0.3120850891131228 
0.296775203794304 
0.009216336611537162 
0.2043828687627408 
0.2104904699234346 
-0.3775508211414358 
0.4235124158208008 
-0.5733830058657933 
0.4648721076150378 
0.06391665122865692 
-0.02112149091865939 
-0.6501594563484571 
0.3123650173761778 
0.002540591486113369 
0.350085969610162 
-0.6278073143943144 
0.1583967638692373 
0.1480133381674387 
0.09622426400090142 
0.0909026055928665 
0.210926480225888 
-0.33857298868903 
0.4668445152964884 
0.02243737388126257 
0.1439101447114407 
0.312010608544815 
0.2888422552128282 
-0.01160670764726529 
-0.4037307463994304 
-0.2681427967685511 
0.08236346952633106 
0.005343861412218781 
0.005343861412218781 
0.3178750453225502 
0.1857963632453071 
0.007162184505156324 
0.7280817884409387 
-0.08415693194509968 
0.2169469655670131 
-0.3575755387341249 
0.2592496570818966 
0.5160669083373682 
0.285064516504013 
0.06594322098986222 
0.06145175912687452 
0.0001958180287744095 
-0.3221408250946775 
-0.7179261501502116 
-0.4298231312730507 
-0.05304534765972005 
0.400149598987779 
0.316769034345998 
0.05039650306816613 
0.05039650306816613 
0.2231641270590457 
0.2813242456683193 
0.3730700491014969 
0.3853410614470559 
0.2047182066704436 
0.03463642642487624 
0.2011556474537305 
0.01480418178321631 
0.1299886594706009 
-0.3998403369237596 
0.1978135920354282 
0.0628821230469705 
0.02132692665693121 
0.2123000417317909 
0.3943543927750824 
0.4352560782883069 
0.1530298097032967 
0.1329741765702499 
0.524893514767389 
-0.4000930251250028 
-0.03135598525139105 
0.175032163599141 
0.1485388528639767 
0.06875730557639696 
0.5798903635502238 
0.2968980715080732 
0.03622498850107822 
0.3102398153643726 
0.2625790755568589 
0.100720017214203 
0.1485388528639767 
-0.8796268986388237 
-0.407739160115173 
0.3087072044089475 
0.01045263133118624 
-0.01849582103634601 
0.2648890275591814 
0.3752542656303561 
0.0515802765021699 
0.3559471812973022 
0.0497973394139148 
0.1660419892629767 
0.1660419892629767 
-0.1297864480873938 
0.05721178032826897 
0.05721178032826897 
0.1595038049290337 
0.1595038049290337 
0.1595038049290337 
0.168042546793085 
-0.0001693133082769733 
0.2394787244831763 
0.3096555490643851 
0.01176129182141262 
0.01176129182141262 
0.08269167922496468 
0.1113305354474955 
0.6590853382445681 
-0.4293492450722908 
0.6568676120333543 
-0.01240742158399621 
0.04903799364385535 
0.236805879643977 
0.2475233409013946 
0.3552823092809353 
-0.1443668388703227 
-0.09418577843981434 
0.0970538529024064 
0.0970538529024064 
0.04378668231746896 
0.003842651729395792 
0.2176622786873783 
0.221340839709412 
-0.1584523858247563 
0.003842651729395792 
-0.2611368286356081 
0.2192045701092473 
0.02495607381156129 
0.02495607381156129 
0.001443668361081427 
-0.4817223076642456 
0.09299240361357361 
0.09299240361357361 
0.09299240361357361 
-0.1831555536594963 
0.3198867669899511 
0.641288186726567 
0.007426550695575639 
-0.09417360086998436 
0.02119197805935881 
-0.9294591704646643 
-0.06583731809403065 
0.05913888260678667 
0.2824299939202811 
0.03225659012265852 
0.01005345564267494 
0.2293628915929002 
0.04939984889263939 
0.04939984889263939 
-0.2769957846233222 
0.0503966152133721 
0.2218722461825776 
0.04939984889263939 
-0.7849363792057736 
0.08540377360169482 
0.01439548795036275 
-0.2824904397341736 
-0.4213563390145201 
0.2323430328823475 
0.3443193565046022 
0.001926964031291098 
0.1918281150344136 
0.1413970337546143 
-0.3447857392632483 
0.2065220627529494 
0.1317271506037568 
0.1317271506037568 
-0.7795862919919087 
0.1317271506037568 
0.1317271506037568 
-0.5855410552333443 
0.1317271506037568 
0.002229182260335855 
-0.3634769269757306 
0.03428802964680305 
0.1689617408973609 
-0.5250479710813466 
-0.304992878750955 
-0.5183346762196711 
-0.3954054043396844 
-0.3447644249466575 
-0.3447644249466575 
-0.2569539450511454 
-0.6686359472247719 
0.01067266531109742 
0.2710925119528335 
0.1197393622415881 
0.1197393622415881 
-0.2722729159481477 
0.02511256601695061 
-0.5995669985747063 
-0.4226642335415387 
0.0639982006513703 
0.3324930911872053 
0.02509148664381339 
0.05906569381404977 
0.3056418995759195 
0.6130774765533167 
0.2234886018191111 
-0.06689941248801862 
0.5689462452271288 
0.0545254070684895 
-0.1822603109760811 
0.1977522971394508 
-0.389236549531466 
-0.6578373390517039 
0.05077429047392251 
-0.2524435886099723 
0.1303317446608802 
0.1485388528639767 
0.125934097855974 
0.1079906695199382 
0.07624351433064006 
-0.0582338183941079 
-0.532304123224712 
-0.513489541402752 
-0.04763263934123499 
0.03786453060649141 
0.01345391273085183 
0.1143166249878149 
-0.2588888848447162 
0.01345391273085183 
0.3226360620347113 
0.2663873960867034 
-0.2314156286782633 
0.2474062829058274 
0.2027939097059707 
0.4571944759661073 
0.2479414691932957 
-0.3292926716451176 
-0.02911038218191683 
-0.7572114509265998 
0.0003140879635507981 
-0.3642642630108314 
0.5299837295600809 
0.3208958057869881 
0.0003925413233479495 
0.0003925413233479495 
-0.2855894666183831 
-0.1834172836678657 
0.04976731096811862 
0.05589480596989019 
0.2304055570749869 
0.01103381965133425 
0.01103381965133425 
0.01103381965133425 
0.01103381965133425 
0.1137223163886222 
0.0004455352234812957 
-0.4354562459145861 
0.0188809023707989 
0.2354322217633018 
-0.05459489218671798 
0.2666616694688722 
0.07751157409778205 
0.06079808843990013 
0.4838107385702621 
0.248684200210377 
0.04525557608798318 
-0.1094873388543949 
0.1246771660980138 
0.007676510392470508 
0.007676510392470508 
0.5107657663585672 
0.007676510392470508 
0.3159913249247776 
0.0382522651732083 
0.0382522651732083 
0.6067393456432897 
0.5100597939852061 
0.08949204220978238 
-0.7067776590543789 
-0.01809630833653782 
0.2042243623409187 
0.2503610210508136 
0.09425831503447279 
0.05265874997560607 
0.1944381261121913 
0.471016577303988 
0.09727078209128316 
0.09727078209128316 
0.09880832445813238 
-0.3607052202191081 
0.03512214768411152 
0.1804928863899571 
-0.4854516813186721 
-0.3441666283813898 
0.3567751553948491 
0.005507381217780868 
0.1515648843116894 
0.5779027192778615 
0.03639982549539701 
0.07967723233352512 
0.3222199781509913 
0.2616870591613674 
-0.680951590532237 
0.2055620265326037 
0.02730727362708914 
0.005817352657188056 
0.2259612178061925 
-0.09683620920819624 
0.004368285587140842 
-0.02498914162791166 
-0.01871917626862359 
-0.004555419907793903 
0.2385417753838426 
-0.9064418897728265 
0.1888149851856447 
0.1441812681675288 
0.02079439502700253 
0.1258652629578857 
0.05816466492714939 
0.05816466492714939 
0.05816466492714939 
0.05816466492714939 
0.05816466492714939 
0.05816466492714939 
-0.7567656259854193 
0.04034732887317534 
-0.3192899440297833 
0.09348779199913471 
-0.2842219347576712 
0.0007642764616215094 
0.0007642764616215094 
0.02466013089050275 
0.02466013089050275 
0.3005241867078911 
0.1972349577480486 
-0.07031482008183207 
-0.08833638674072242 
0.1236447110977492 
0.09044878827142186 
0.01203520047858401 
0.09659787432599649 
0.0318859002613704 
0.0375882291698917 
-0.7455647097544926 
0.2474847318904395 
0.2362847817404252 
0.006419380415735918 
0.4224548039139716 
0.1503214190494103 
-0.6472387236770987 
-0.05868036675404761 
-0.2891173251000531 
-0.5127679799167802 
0.1040477873540401 
0.006802001908396076 
0.006802001908396076 
0.4666735260237265 
0.02131354847625426 
0.03506239483979789 
-0.6113706852894197 
0.06801287095033359 
0.1010431829715073 
0.1325948499485794 
-0.6421627272596717 
0.05530126684556431 
-0.6940983370008341 
-0.4172526331272587 
0.3446246185585299 
-0.00756420380217517 
0.4203223030485544 
0.3592623284333867 
0.3592623284333867 
0.4156478555935447 
-0.5739466549604345 
0.3628562528022776 
0.1872341346466913 
0.108596655402298 
0.08935575742347622 
0.08935575742347622 
0.3837372302010841 
0.5948468791641641 
-0.7414402539103532 
0.12135811675327 
0.220433769391029 
0.222071681539195 
-0.3815340250730153 
0.1432646057844539 
0.147310007869503 
-0.3307767655549986 
0.3858473903319204 
0.1576057983672691 
0.3306115861857808 
0.002692152955370035 
0.002692152955370035 
-0.2829198598547121 
0.2152901418796742 
0.02600647037532817 
-0.9914732056011115 
0.1521137713509021 
0.1055786881460075 
0.1521137713509021 
0.3923729877663457 
-0.1560493035923503 
-0.4857461779677357 
-0.5448602042726259 
0.09719689509764558 
-0.3946205825394501 
0.1438199290854852 
0.1197393622415881 
0.1197393622415881 
-0.003408853902461869 
0.02416782861614207 
0.02416782861614207 
-0.345063699089558 
0.276061380129103 
0.4688960242398969 
0.09118964025673443 
0.1498978403293394 
0.01014680548022348 
-0.2693704409572171 
0.1656973281197458 
0.1705811658275799 
-0.3806873415289133 
0.04352110395822897 
0.04352110395822897 
0.09153480334285019 
0.04352110395822897 
0.04352110395822897 
0.04352110395822897 
0.04352110395822897 
-0.2831409247622771 
0.005911901990022547 
-0.6162825838841783 
0.5493165903960725 
0.3848038610437767 
0.2071156082149171 
-0.2520771321802243 
0.5972444559017839 
0.09866219047311206 
0.09866219047311206 
0.1402979015571334 
0.09992008714204992 
0.09866219047311206 
0.07826179966041423 
0.03383079100935846 
0.1970065326837908 
-0.8135364455336233 
0.01337146727310811 
0.1205241229294615 
-0.6611414976858275 
-0.007555525501051328 
0.02895975639051006 
0.02357741468047247 
0.1412029056773988 
0.1631019489193458 
0.01258516370096002 
0.4235723027061534 
-0.4836904934470768 
-0.05137290319877211 
0.06863851847619386 
0.03269514048921684 
-0.009995358833713757 
-0.009995358833713757 
-0.009995358833713757 
-0.009995358833713757 
0.0463546067855185 
0.5012794198290287 
-0.414026031841585 
0.005781155998667626 
-0.3504701513105031 
-0.7007248562742472 
0.1245733689461321 
0.006693297450493362 
0.1077091045091978 
0.00152322376816932 
-0.08079906367717454 
0.001162585140555667 
0.001162585140555667 
0.001162585140555667 
0.001162585140555667 
0.001162585140555667 
0.001162585140555667 
0.001162585140555667 
0.001162585140555667 
0.06587455920518175 
0.1924695001706109 
-0.007247125661599343 
-0.007247125661599343 
0.6541510918314736 
0.2931638045975998 
0.6888009288978802 
0.1236285126027233 
0.1382522576641718 
0.2731369428188316 
-0.3127414237301204 
0.1617455257457962 
0.167037021048818 
-0.01087395972505436 
0.07795981786224015 
-0.9102879776773326 
-0.1956964162549102 
0.3656047650308721 
0.0388644553856116 
-0.4612757159417474 
0.3029434522524439 
0.4346716164820498 
0.236452798326968 
-0.2487467499166112 
0.2772132087761912 
-0.002518880643086029 
0.06722909567180309 
0.09656786672015483 
0.09955180807572349 
0.3027663048307239 
0.3251308141046391 
0.002739776164933254 
0.2057561648674605 
0.01438639842567906 
0.01424495086755784 
0.01424495086755784 
-0.1127644342080855 
-0.669052045827797 
0.001552348094659181 
0.02765915914775294 
0.0153926512019236 
-0.1468324698943017 
0.2587095296681108 
-0.3934904459366967 
0.007205407793166519 
0.2243366585331295 
-0.02036142905645368 
-0.1171714332320882 
-0.7353374314469947 
0.4964888137704418 
0.4437700582356449 
0.5421688663501664 
-0.05116891955783106 
-0.02554041205248457 
0.3719033381940218 
0.05964474216804776 
0.05964474216804776 
0.07100768281585745 
0.05964474216804776 
0.008079734803454169 
-0.06938823097214378 
0.0001242798376169867 
-0.3099268286225256 
-0.02361498692658749 
0.3158598166110472 
0.1717917900041296 
0.0002022615499428044 
0.0002022615499428044 
0.0002022615499428044 
0.0002022615499428044 
0.0002022615499428044 
0.0009930857366348364 
-0.5968286779287935 
0.4195160940392905 
0.1089837451625838 
-0.01121644998468288 
0.07520727434088338 
0.283422760060095 
0.08215153566352376 
0.1264532286298082 
0.001404070543717311 
0.2354322954051377 
0.003125047904016749 
0.1253731409334057 
-0.1131209568818416 
-0.3056360482747924 
-0.5781567024281845 
-0.3987519046812172 
0.1449500160146711 
0.1449500160146711 
0.1449500160146711 
-0.5386812865693963 
-0.7888610715700928 
-0.2649359412926794 
0.190973737972488 
0.4376253090900051 
0.2094294079138062 
-0.1973666851069845 
0.2791008056254942 
0.2111194995901618 
0.3450487896364051 
0.03455127133713726 
0.03455127133713726 
0.2250864890756125 
0.2892796620461878 
0.02308951204579482 
0.02308951204579482 
0.02308951204579482 
0.02308951204579482 
0.143601519549505 
-0.284214011299853 
-0.1644466540039883 
-0.5553494840614868 
-0.1080701813790808 
0.03963584445167783 
0.03963584445167783 
0.03963584445167783 
0.03963584445167783 
0.1097343019054956 
-0.00087475717675989 
0.4320251033876712 
0.001312755499901735 
-0.6545843826871119 
0.1825267221625639 
0.08914699051871879 
0.08914699051871879 
-0.06012883072057257 
0.1847979465431622 
-0.2343145786456471 
0.0002584842179129206 
-0.08571984768543167 
0.1018471258591051 
0.07094672358052825 
0.07094672358052825 
0.07094672358052825 
0.1498185666917311 
0.1772383784384678 
0.3640292018229614 
-0.05301811419052746 
-0.5585534340959926 
0.2394852121191793 
0.07309698605569509 
0.1021073232459113 
-0.01076929928872337 
-0.01076929928872337 
-0.007608216070282751 
0.08385404039001294 
0.06588382955247883 
0.07015026976284766 
0.08667106165362878 
0.08667106165362878 
0.08667106165362878 
0.141532671845375 
-0.5456021266017683 
0.1444916737000239 
0.1444916737000239 
0.1444916737000239 
0.1444916737000239 
0.3609952861446035 
0.01266108003369195 
-0.1611783188136248 
0.01266108003369195 
0.01266108003369195 
0.01266108003369195 
0.0003940128479939676 
0.1857983223313546 
0.71921027745216 
0.1627504343017586 
-0.2550633648059883 
0.2325487413706353 
0.1463622157220306 
0.358767528778532 
-0.004535722635270509 
0.102396668346877 
0.04426996928219162 
0.102396668346877 
0.102396668346877 
0.102396668346877 
0.5314264789278254 
-0.02236799288226322 
0.07346374143892646 
-0.5066975818506121 
0.1877739656966471 
-0.03981695917454121 
0.1572754178509279 
0.2290628107219558 
0.1947081979574284 
-0.6472387236770987 
-0.2907444777883335 
-0.3422645528688051 
-0.5577344327809883 
0.1072341640731641 
-0.02771408760895736 
0.3008495180327351 
0.001517810590338782 
-0.5054178817052829 
0.4974440060386284 
0.004153993067503256 
0.4124214257231292 
0.002190465432012843 
0.002190465432012843 
0.0182266838806608 
0.2068562947748415 
0.1485388528639767 
0.2692321130864981 
0.04080013468615052 
0.2050743491023154 
0.2121141674493831 
0.2121141674493831 
0.2028407306249461 
0.2144889129187176 
0.1133450086245561 
0.1131281926605595 
0.1131281926605595 
0.1131281926605595 
0.0909983703591221 
-0.5981814640744139 
0.2610009560457045 
-0.935925110619488 
-0.2163335785389946 
-0.2163335785389946 
-0.2539469901307195 
0.03939922544677346 
0.1897357469515942 
0.07411158991012244 
0.2018138218621844 
0.07638820000120783 
0.1992027021483654 
0.2675337205814569 
0.2675337205814569 
0.1538367537678161 
0.540483891628166 
-0.5815076630930284 
0.2187455288121659 
-0.4904941172729863 
0.4893091311335357 
0.4893091311335357 
-0.1587594406942806 
-0.1516597852586124 
0.02610608506080983 
-0.07571432949554163 
-0.1630522762552706 
0.004709572547451529 
0.09488104320314428 
0.09488104320314428 
0.2345723010494776 
-0.3744973830293186 
0.277500910481629 
0.09010468486784345 
0.09010468486784345 
0.4489134122869464 
0.2912979208913016 
-0.1280818771583025 
0.129599787997945 
0.01614921698900142 
0.01614921698900142 
0.2332356882061982 
0.008680529789371751 
0.2338885340211724 
-0.4943656664665342 
0.02352022955575476 
0.1435602279633214 
0.3968284363598608 
-0.5415631228024844 
-0.6316968659383857 
-0.3710873073746658 
-0.1102296928034052 
0.3168615565242446 
0.1118862937912403 
-0.1121991542752769 
0.1119763236222547 
-0.1348835219975001 
0.2546927154398242 
-0.2451482483838309 
0.2652697059985512 
0.008175232160796827 
0.05156044924842015 
-0.207468802697898 
-0.6467752769843771 
0.305331765332886 
-0.6467752769843771 
0.1018513551427504 
0.02395849950120751 
-0.1523570696450295 
0.3472137060431115 
0.1659928157510641 
0.005596237083401492 
-0.2666565266460855 
0.612377622450057 
0.02555962239264841 
-0.3856216559564827 
-0.03303626819046357 
-0.1229953162701278 
-0.1229953162701278 
-0.1229953162701278 
0.06345216216407762 
-0.1229953162701278 
0.4393865848665076 
-0.1229953162701278 
0.2264748335138438 
-0.09603317055367973 
-0.3540552959016059 
0.05482001868565228 
0.1485388528639767 
0.05480284442314677 
0.2954737636557317 
0.2772563144396072 
0.06521370897910077 
-0.3366796878485262 
-0.3366796878485262 
0.1754087919452088 
0.1754087919452088 
0.1754087919452088 
0.1754087919452088 
-0.1730606309748778 
-0.6338880538944651 
0.151900713301267 
0.00723491351300292 
0.3358013438741935 
-0.2575997011048761 
0.005975017726359179 
0.4194400392446305 
0.1851118187228651 
-0.4752538953103994 
-0.2585232740857649 
-0.4752538953103994 
-0.3152160013725647 
0.4323502279326152 
0.09529491344690606 
0.4890704145109966 
0.1709414750991955 
0.2385881319323218 
0.2385881319323218 
0.2385881319323218 
-0.1732447502145383 
0.03036492869655307 
-0.07104138172671434 
-0.001615722426833334 
-0.005354775601565094 
0.02422322715818139 
0.02422322715818139 
0.02422322715818139 
0.02422322715818139 
0.02422322715818139 
0.2353311249706806 
0.005359180309608679 
0.005359180309608679 
0.005359180309608679 
0.005359180309608679 
0.005359180309608679 
0.005359180309608679 
0.02262180589982122 
0.3195264886767343 
0.2612871027338226 
0.6432337462268943 
-0.08469396227373842 
-0.5345657735734177 
0.03181980323391419 
0.09601535844080057 
0.03181980323391419 
-0.6426152076398579 
0.1111974709562193 
0.007623565962629152 
-0.1453613766246304 
0.07726167596524111 
0.02434194437117014 
0.2229275848646969 
0.1442157013984899 
0.05153211938173834 
0.05153211938173834 
-0.3535131380558341 
-0.3535131380558341 
-0.3322035723317977 
-0.3535131380558341 
0.04480225202986836 
0.1925545697476421 
0.1020403471352718 
0.116352373950592 
-0.2135201745754881 
0.007520016544948105 
0.002137048330489135 
-0.3867804951373034 
-0.1069547281424955 
0.2988131114808866 
-0.3967204289936413 
-0.2035877960541976 
0.4469906892222462 
0.2768497982484287 
0.3114218687708525 
-0.1846625676429647 
0.01294826115745975 
0.03136551806611582 
0.03136551806611582 
-0.3308762129800233 
0.1306673508597909 
0.02401389467533806 
-0.531131036659962 
0.1091279343972954 
0.1091279343972954 
0.1091279343972954 
-0.3716183535554223 
-0.7160701797780541 
0.07124303138846369 
0.07124303138846369 
0.07124303138846369 
0.07124303138846369 
-0.4133727355612926 
0.1820123145389334 
0.2832015993273725 
0.3075738303256383 
0.9105497729681548 
0.1949176497745916 
-0.1618537582188848 
0.04821679818082698 
-0.347150204224343 
0.1295479608773455 
-0.2706379496453581 
0.4384255572355326 
-0.1376873061933744 
0.2617143479468852 
0.2617143479468852 
0.2617143479468852 
-0.5344556555817511 
-0.4526986832206019 
0.195220108826343 
0.175060556718497 
0.009127573447478698 
0.03266820556252913 
0.03266820556252913 
0.2486589273553401 
0.03266820556252913 
-0.3638459218757593 
-0.4300519408017074 
-0.1872435531409634 
0.02264528941571664 
0.1543527373611915 
0.001616920249034172 
0.05024271095766587 
0.05024271095766587 
-0.3743171596887838 
-0.04771826931561622 
0.4994430062744963 
0.01760146524273111 
0.01760146524273111 
0.01760146524273111 
0.01760146524273111 
0.01760146524273111 
-0.3349318693684566 
0.08859268573792473 
0.5180563024869911 
0.06775664910595021 
-0.2784160419947158 
0.02955126873606271 
0.3650105878770921 
0.00421193582575494 
0.2581882091588706 
0.00421193582575494 
0.00983231729860715 
0.00983231729860715 
-0.1697081793033768 
0.09283895627609941 
0.5167871268520026 
0.03236112655417083 
0.00439521817578945 
0.004809771725556964 
0.1885167760251427 
0.08614999651560161 
0.4952369822004699 
0.3390201580872618 
0.04457493740960125 
0.04457493740960125 
0.04457493740960125 
0.04457493740960125 
0.04457493740960125 
0.04457493740960125 
0.04457493740960125 
0.04457493740960125 
0.06708897173087024 
-0.4418519512614353 
0.1850216019060781 
0.09592392033526148 
0.2500610604763699 
0.03371345766086833 
0.03119173634372554 
0.03406049473094756 
0.03119173634372554 
0.4685849468734051 
0.1628828773832429 
-0.6472387236770987 
0.04277461340784416 
0.1734046522807531 
0.04277461340784416 
0.04277461340784416 
0.04277461340784416 
0.04277461340784416 
0.04277461340784416 
-0.205548403633348 
0.1760889270506585 
0.1553139194894596 
0.01484183116611411 
0.4421780550239479 
0.00411186079419246 
0.1485388528639767 
0.1272117555730859 
0.1260133337071238 
0.2460291283879629 
0.3001770840994282 
-0.1242002527381298 
0.1197393622415881 
0.1197393622415881 
0.1923905172568154 
-0.5645604547579989 
-0.4800383096681323 
0.08784962761864872 
-0.09967984948916876 
0.005485903625219371 
-0.20796931923203 
0.1100138640669132 
-0.6204071212249638 
0.1357768532915481 
0.00102228107340506 
0.00102228107340506 
0.03004213689140955 
-0.4582359103574934 
-0.447936955324285 
0.5553021111548677 
0.2290213555645672 
0.2417401308222391 
0.08818656579139246 
0.006589774647716234 
-0.1649546734143383 
0.2963378160911096 
-0.00756420380217517 
-0.2265594421990858 
-0.1251925260247339 
0.1244650446021205 
0.1090049978909564 
0.1611485080983842 
0.1611485080983842 
0.1958611057837099 
0.3182986669374903 
-0.2605232570463563 
0.0122497667874787 
0.0122497667874787 
0.1644770440878977 
-0.6445560866715001 
0.1228740851359425 
0.2099978530350958 
0.03627522967103643 
0.02491228902322675 
0.02491228902322675 
0.1642007229869158 
0.273320520131718 
0.1463568178387702 
0.5926302671522464 
-0.2712503953620507 
0.4240895427201619 
0.07784693594892021 
-0.00398533244443891 
-0.1267529711420315 
0.1915157973817963 
0.1898316283612177 
-0.3870397476169694 
0.1486575622444788 
-0.1090176209358126 
0.1486575622444788 
-0.569535437259292 
0.2516205645983469 
0.2516205645983469 
0.1297076305609642 
0.1114978381365008 
-0.006925824168880833 
-0.6472387236770987 
0.1485388528639767 
-0.2241754778975316 
-0.2241754778975316 
0.463724348799223 
0.003897981297867498 
0.02923063358688135 
0.3076518060907403 
0.08079828936474535 
0.2200497507103381 
0.2304945390524679 
0.2304945390524679 
0.4861947922617857 
0.236499233776013 
0.1201976106997503 
0.05041178259050785 
0.03939204771180717 
-0.004615099875676593 
-0.004615099875676593 
0.1485388528639767 
0.1638297068009764 
0.02057549418784804 
0.1128172627794497 
0.314733722903429 
0.06338170057541027 
0.278769483394012 
0.188749082858741 
-0.4378239211240837 
-0.08880267037388397 
0.2625146828065114 
0.5158955115745838 
0.08033995517711134 
-0.1546545541720105 
0.2692444550684064 
-0.5530450074434198 
0.444159523126144 
-0.5038577095225589 
-0.3152791963947094 
0.07391165955105636 
0.0472331849099125 
0.07015547971444983 
0.1485388528639767 
-0.4480417828486457 
-0.09945826548584615 
0.2791494938777572 
0.1076831832014612 
0.003161083218440607 
0.0865033919443238 
0.2311608328155904 
0.004804306116792843 
0.004804306116792843 
0.1025173669862179 
0.1025173669862179 
0.1025173669862179 
0.1025173669862179 
0.004804306116792843 
0.2551870567607294 
0.01675876148164062 
0.2795009192069128 
-0.4561877429381008 
-0.4561877429381008 
-0.4561877429381008 
0.3847920370969064 
0.4233562579831068 
0.01860353540036154 
0.01860353540036154 
0.01860353540036154 
0.01860353540036154 
0.01860353540036154 
0.01860353540036154 
-0.2750660515205495 
-0.4063256018179623 
-0.4063256018179623 
-0.1378564899225434 
-0.2060703603594515 
0.3221484219619687 
0.2366230308856855 
0.08191667580294709 
0.3756323565716173 
-1.267113040995241 
-0.1559209896130929 
0.2721310319163301 
-0.3391364981283806 
0.1259132638182912 
0.4900873227333307 
-0.3268623475978456 
-0.2781987441373895 
-0.1375327376495066 
0.2035777852800502 
0.0096503802948274 
0.09772126819919992 
0.09772126819919992 
0.09772126819919992 
-0.1704633011600637 
0.2519561145064526 
0.2519561145064526 
0.1485388528639767 
0.2925661997629368 
0.2243027537364238 
-0.5288348075672472 
0.4172517129568661 
-0.04957622750478006 
0.3938472313609211 
0.1398318979810108 
0.01136294064780967 
0.0007330482581545728 
0.0007330482581545728 
0.0007330482581545728 
0.1737766606787265 
0.02088302074455324 
0.152333570618932 
-0.1664125192216492 
0.0006004535977204956 
-0.2854293353876875 
0.02634267550759598 
-0.401450481413614 
-0.6472387236770987 
0.0345416285376518 
0.0345416285376518 
0.0345416285376518 
0.0345416285376518 
0.0345416285376518 
-0.3112404714360893 
0.1703791409758967 
0.025366454095912 
0.1485388528639767 
-0.0663327118592088 
-0.6013340167493153 
-0.1402890912022549 
0.3652178963095168 
0.02966560228643558 
0.1943864373584914 
0.1485388528639767 
0.2248722180341032 
0.5087729976930513 
0.3014523128674354 
-0.5890721913549658 
0.09184531363000974 
0.09184531363000974 
0.1157142923514377 
0.1157142923514377 
0.1157142923514377 
0.1157142923514377 
-0.2396023381179263 
0.3020310489218329 
-0.3264519709102329 
0.001671872995208209 
0.001671872995208209 
0.01209768124232356 
0.4023815055806112 
0.1534263367425051 
0.1534263367425051 
0.01141885900747016 
0.05697741009113116 
0.00312743110414557 
0.01570212472489493 
0.01570212472489493 
0.1691760165300226 
-0.3657704639383276 
-0.3657704639383276 
0.001752521826324192 
0.001752521826324192 
0.1464753506098182 
0.2055008983094813 
-0.3186204868544794 
0.01574390710442311 
0.01574390710442311 
0.01574390710442311 
0.006261717930402625 
0.08433688337560788 
0.08433688337560788 
0.1055548045880143 
0.02504507821513938 
0.2304984461042505 
-0.1435136746535989 
-0.363253686594496 
0.2658219554265478 
0.02371325824214071 
-0.4011040114800484 
0.2546362784473556 
-0.2642849470105953 
-0.06262834813492411 
0.2727383834645884 
0.1377173318453709 
0.1485388528639767 
0.1762147874521146 
0.1491409036066968 
0.2732138478635018 
0.2452622019721686 
-0.7828377313156706 
0.5147103159996841 
0.006148347869320624 
0.004953206002600723 
0.03890682378038345 
-0.0009251762962200636 
0.3054714284719534 
0.1674502876978031 
0.1674502876978031 
0.1674502876978031 
0.01844663075799319 
0.0196746187164703 
0.0196746187164703 
0.38801981991136 
-0.3956975847649357 
-0.3952876370791363 
-0.219765572217915 
-0.5636768459756962 
0.1411102644606928 
0.1411102644606928 
0.1411102644606928 
0.1411102644606928 
0.1411102644606928 
-0.5309846689404436 
0.07479491214919257 
0.06428665413430476 
0.07479491214919257 
0.3091362413503131 
-0.2319217919314343 
-0.7419491533350482 
0.01609978805787581 
-0.262845786379534 
0.1225879527019065 
0.1225879527019065 
0.12281788341017 
0.1225879527019065 
0.1225879527019065 
0.1225879527019065 
0.1225879527019065 
0.1225879527019065 
0.07670318480655836 
0.005145553926914665 
0.005145553926914665 
0.005145553926914665 
0.005145553926914665 
0.005145553926914665 
0.005145553926914665 
0.08909257407474426 
0.001466533332518122 
-0.09019258947596775 
-0.006464705856859277 
0.7505877366143604 
0.3646468946059034 
0.258080217616941 
-0.5613343671701831 
-1.328375161119039 
0.1301878931235033 
0.1701902716459581 
0.1990884388003741 
0.04312095822194376 
0.1504297385569357 
0.0001242798376169867 
0.162660047910553 
0.1780452795147692 
0.2703465184339182 
0.0111776408458236 
0.1086366288766752 
0.3109621275341792 
-0.3475799346403867 
-0.4804295869086793 
0.07494375785445598 
0.1126336742711304 
0.001941014865444534 
0.001941014865444534 
0.002616568220313555 
-0.233990538149747 
0.455535772751774 
0.002972678328105148 
0.002972678328105148 
0.08795082933252468 
-0.4086034258779573 
0.1382569970306388 
0.0734892718106096 
0.05902607506113697 
0.06140403728942513 
-0.01074434193143119 
-0.2945438183280266 
0.5608031635918527 
0.09190391401627841 
0.1086526274913734 
-0.1151047113413657 
-0.56785544696209 
-0.3492560524985397 
0.131885210617531 
0.3183364636390158 
0.3183364636390158 
0.3189594090596582 
-0.4560777726288144 
0.4039830730137531 
0.001658403412231776 
0.2600716235435975 
-0.1246244799269729 
-0.01758658458023017 
0.5052062967610336 
-0.6613734390713766 
-0.1492399038615368 
0.3792306393642037 
0.09278045589616185 
0.09069560433554787 
0.1219844499676002 
0.01674099251218852 
0.1332259171114752 
0.1332259171114752 
0.2206779541242402 
-0.3785351652392338 
0.09720946487080954 
0.09720946487080954 
-0.8046015202449635 
-0.3465240722657784 
-0.3223364633822673 
-0.5385197026321298 
0.3963427546336054 
0.09498061062875381 
0.1116087139019756 
0.2832767014784006 
0.126408642022311 
0.05579158946426914 
-0.2581212112268856 
-0.2965554890190877 
-0.1141274359938908 
0.4811693559579106 
0.02368478663637285 
0.09869403124311132 
-0.5245875444852239 
0.900925268382839 
0.6413330054220333 
-0.5303144186539288 
0.002657382088232488 
0.002402480059942787 
0.002402480059942787 
0.002402480059942787 
0.13096382321606 
0.13096382321606 
0.13096382321606 
0.03141316662416201 
0.0007594672536033269 
0.3953291306220653 
0.0007594672536033269 
-0.5537826749763956 
0.1508342778793886 
0.09070112278838298 
0.03005817421665155 
0.2759690294669829 
0.3580553265574364 
0.0647192123941514 
-0.8674798308171173 
0.2939827172110354 
0.1275999461433939 
-0.03926803217797135 
-0.2206569258337287 
-0.4063242672018427 
-0.1975634011427979 
-0.3489459647823084 
-0.4149178914819504 
0.1723725393822532 
-0.3321025286160227 
-0.3570857630141069 
0.07089889881477029 
0.2362792599772319 
0.2976459771568215 
0.1389323510336831 
0.004980815916386328 
0.2743024354643091 
-0.4619717551874662 
0.1932588731994611 
0.2829834103115827 
-0.02197962685886014 
0.1553030816567446 
0.0009605848038109308 
0.0009605848038109308 
0.138306909622713 
0.3385755366082099 
-0.2870949463540052 
0.4105017452445269 
0.2711773745955135 
0.2302049808732674 
0.03097213640194715 
0.1992916216441112 
-0.5198323873665909 
-0.5198323873665909 
0.2192860119316745 
0.2192860119316745 
0.2259191055853824 
0.4816561290669891 
0.001936002801712319 
0.1853528550361981 
0.0303008571595544 
-0.7475607783602485 
0.04821679818082698 
-0.4991680928118494 
0.04240340511452707 
-0.2752958337944695 
-0.07297643511991803 
-0.4957474453838681 
-0.8939265767696828 
0.2879595672137322 
0.2279247951183878 
0.2347119551781679 
-0.4392665150095131 
0.09886315514082449 
0.5029441327144237 
-0.3737302319812931 
0.2019879466193246 
-0.1096181253549202 
-0.3146004500734397 
-0.7663959830865579 
-0.4351046428695938 
0.3366799871769526 
0.05246222499632017 
-0.5655471216510902 
0.0009866132892367159 
0.0009866132892367159 
0.0004539896269540592 
0.0004539896269540592 
0.1443159217266838 
8.687752704981537e-05 
0.3155318679534018 
0.006236278397116924 
0.1756142485067622 
0.3003505194679496 
0.1618498442567017 
0.09586428980720701 
0.5018842565952999 
0.09586428980720701 
0.6263034502579403 
-0.5343281782828664 
-0.3963816108644269 
0.03603464934425663 
0.03682521282833528 
0.03682521282833528 
0.03682521282833528 
0.2539115233802118 
0.2539115233802118 
0.2539115233802118 
0.2539115233802118 
0.0460793181915951 
-0.1472612471149535 
-0.06502685642368966 
-0.4016626509710416 
0.02989282438265021 
0.02989282438265021 
-0.5378264296190015 
0.2935416802555255 
-0.249393502132266 
0.01766452635525315 
0.280278103594529 
0.355255733091469 
0.2427502626185507 
-0.3053651293396706 
0.08197227942427446 
0.01705562171425227 
0.3260517505042807 
0.02172480667278716 
0.1868001496297363 
-0.04548043486965548 
0.4159849872662724 
0.4257214249347697 
0.1401052427624586 
0.1468337784123732 
0.08390457544211744 
-0.5050445932749003 
-0.6209422062934992 
0.02386677865782965 
0.2157821116404237 
-0.1608157328834624 
0.2430978087160148 
0.1485388528639767 
-0.01609731488161099 
-0.2314189351944161 
-0.2139441026258328 
-0.2559528977390386 
-0.2559528977390386 
-0.2559528977390386 
-0.2559528977390386 
0.005905143217075665 
0.007043584840109901 
-0.08007578188076782 
0.3410702321178929 
0.3249167865629229 
-0.08924108623031711 
0.4517708357788329 
-0.007627927281531389 
0.2344941926845588 
-0.485356980585014 
-0.542465557511641 
0.00495996553689161 
0.02442297674821317 
0.01511491028064909 
0.0674452473459137 
0.1706319368582752 
-1.181942218927188 
0.002198267684434524 
-0.49846879117285 
0.1506458391440931 
0.07475972834685264 
0.2122534710648213 
0.1045220999830206 
0.1045220999830206 
-0.6055131064482508 
0.3370150647093935 
-0.128499212233558 
0.4237842120007493 
0.1201884385400661 
-0.1496390819835597 
0.03194942303993221 
-0.06258551439462305 
0.2987295997037177 
0.2426303682436965 
0.2116408653656084 
-0.1080286710682114 
0.0725907855816981 
0.0725907855816981 
0.2181415164341448 
-0.3933903181648502 
0.267624822475656 
0.09274844715125394 
0.09274844715125394 
0.09274844715125394 
0.09274844715125394 
0.09274844715125394 
-0.9762774831912628 
0.3334438618358974 
0.09274844715125394 
0.09274844715125394 
0.09274844715125394 
0.0001242798376169867 
-0.1900272347603237 
0.006194834108070213 
0.4709770865153867 
0.1767060883241284 
0.2254002649132983 
0.1831051376616778 
0.1622405020883597 
-0.02118651509252063 
0.3209108232748097 
0.1900534805946847 
0.08382712796835452 
0.08382712796835452 
0.08382712796835452 
0.2033142640502506 
-0.2979320472135114 
0.2047774238865618 
0.4601047845610251 
0.7532977470293303 
0.1132408931470899 
0.01476227586421863 
0.04547709546474672 
0.01476227586421863 
0.07731756115624611 
0.07731756115624611 
0.3274040745440829 
0.1878445359686439 
-0.3425168417374295 
0.04093869716821315 
-0.4474902431601602 
-0.2756728944669216 
0.006329033010552532 
-0.1108177658898558 
0.02024266047544986 
-0.05124697629530434 
0.001289796969510529 
0.001289796969510529 
0.4531203157401689 
0.3695195704021771 
0.1197393622415881 
0.1197393622415881 
0.3620491733532965 
-0.4275071404031465 
-0.4275071404031465 
0.004063773092454725 
0.0006435748368405452 
0.0006435748368405452 
0.0006435748368405452 
0.0006435748368405452 
0.0006435748368405452 
0.1876584347528984 
0.1411979296455363 
0.002926519290408763 
0.2080759770967278 
0.02010371133703595 
0.04190769849456469 
-0.08620119007604901 
-0.3423801400849185 
0.2184907963007897 
0.2470695411655103 
0.1866682865689784 
-0.01475151087453785 
0.1669908380560562 
-0.006662559291771644 
-0.1582818132961384 
0.08027810706069255 
0.005943651504100238 
0.2947940327236498 
0.1485388528639767 
0.0391970545276701 
0.02074632205468542 
0.02074632205468542 
0.02074632205468542 
-0.6502821035407133 
0.1359172509770202 
-0.5331764623670001 
-0.5331764623670001 
-0.3529196738499296 
-0.546498381866077 
0.02573953443632102 
0.02573953443632102 
0.426474422575834 
-0.0004376123692033909 
-0.05088980153721685 
-0.05088980153721685 
-0.1785386660088059 
0.1667192907496736 
0.001224114673560927 
0.001224114673560927 
0.001224114673560927 
0.3535695863280648 
0.01234248536992051 
0.4883245039669925 
0.05432493687655175 
0.07422605352339159 
0.1189076866303776 
-0.2273634159948995 
0.1233476790514128 
0.001896342677116291 
-0.3417429504432384 
-1.042394645192845 
-0.148999427956494 
-0.3048844876072632 
0.09460398784964784 
0.02036561201240691 
0.08218089469659232 
0.08218089469659232 
0.218102684751503 
0.08218089469659232 
0.08218089469659232 
0.08218089469659232 
0.08218089469659232 
0.1189341652953595 
0.07299233366584953 
-0.05865621450646391 
0.02196035651720419 
-0.8399429837834541 
-0.07113978950698971 
0.1560467693150212 
-0.5674844650914319 
-0.2350163767845881 
0.01116821683308715 
0.2662958511459795 
0.003953891240290149 
0.04968782329827443 
0.04968782329827443 
0.04968782329827443 
0.04968782329827443 
0.08884659395866334 
0.2964478933682422 
0.4235251471358791 
0.2219045856570804 
-0.4753255805043832 
-0.4958778664860379 
-0.4958778664860379 
0.0006850950564559967 
0.2294725091409644 
0.02350607758793915 
0.1094788446012868 
0.09125606704710534 
0.004433808700220176 
0.004433808700220176 
0.2011050772323332 
0.07627491729282938 
0.07531044768375246 
0.1485388528639767 
-0.5070331499321045 
-0.4004252900415303 
-0.1480041268543485 
0.1873498211303725 
0.1873498211303725 
0.1061052319108013 
0.1061052319108013 
0.1061052319108013 
0.1217794863076797 
-0.2377933549269533 
0.1061052319108013 
0.1118103564181722 
0.08090170152798315 
0.08090170152798315 
0.08090170152798315 
0.08090170152798315 
0.0005696154370083729 
0.0005696154370083729 
0.1864659186450727 
0.1985328496148008 
-0.4307550817315632 
0.8971142014809665 
-0.123394664858796 
0.3445504969363786 
0.1587000493044637 
0.1015215306950332 
0.2933669984714167 
0.06397295590717189 
0.03119921889079289 
0.2216729397877409 
0.04423065886661805 
0.03573522551211879 
0.004103059558729586 
0.1197959372771385 
0.01482044917534688 
0.4318839181655319 
0.3178604971542022 
0.3325210156451675 
0.1037393151684154 
0.1037393151684154 
0.1037393151684154 
0.1037393151684154 
0.1037393151684154 
-0.1899149271593871 
0.0001359291877184493 
0.0001359291877184493 
0.0001359291877184493 
0.0001359291877184493 
0.2094003628839447 
0.2094003628839447 
0.1625344330360225 
0.1625344330360225 
0.1181103984350424 
0.1181103984350424 
0.1181103984350424 
-0.2694808121272558 
-0.6238836342711824 
0.007261281455714505 
0.1432434149543392 
0.09318734498878442 
0.001666754513025143 
0.001666754513025143 
0.3612639386644039 
0.03914060275865722 
0.01820979242446341 
0.08950561736418806 
0.01820979242446341 
-0.5093933954386212 
0.03740279586951864 
-0.04744326441322057 
0.1785678269736508 
0.1785678269736508 
-0.5598406714750929 
0.2732524030360976 
0.2014662814413472 
-0.3106298759096989 
0.0001313506126199128 
0.0001313506126199128 
-0.1837621050937291 
-0.1837621050937291 
0.0001697384348472995 
0.0001697384348472995 
0.3686610890040634 
-0.4440953772830137 
0.3686610890040634 
0.05562147025253207 
0.1603330673576993 
0.009871073018692665 
-0.8130319154917163 
0.5481443459038984 
-0.6478695087632426 
-0.4972296597037849 
0.0004512636215101442 
0.07099784954055127 
0.162968279718693 
0.05830562971184865 
0.3097277590016542 
0.04154936819539985 
0.05929054058903163 
0.000444196663151016 
0.1269678111190208 
-0.8481632401109633 
0.2252993900272192 
0.159153204147726 
0.01540185250479429 
0.1283796566742813 
0.181558763033608 
-0.2412886380392644 
-0.3403639443425272 
0.1922727190091946 
-0.6865963945773321 
0.004968716625722462 
-0.4245195684257169 
0.04875138269467765 
-0.4245195684257169 
-0.1273185609366806 
-0.3871649297048962 
0.05753785030060239 
0.3250370574782329 
0.0213095657240363 
-0.3982632414654025 
-0.4606371198192515 
0.05443193754650557 
0.2826062058555173 
-0.162631977229809 
0.007503295843755552 
0.007503295843755552 
0.2462532202570211 
-0.5198323873665909 
-0.5198323873665909 
0.298261151127044 
0.02437709976166012 
-0.2074249152243615 
-0.01596391336960394 
0.4709279038202551 
0.1887373332714047 
0.1887373332714047 
-0.6118681774364365 
0.1961332857494956 
-0.001190400689284464 
-0.2423972007802801 
0.2829314585503169 
0.04489148349339861 
0.4254561655958663 
0.1129510266920719 
-0.1524986856505885 
0.1129510266920719 
0.1992270319532445 
0.3172022585780322 
0.2318325484271384 
-0.5262083780015077 
0.3143086686112787 
0.03294625727086727 
0.03294625727086727 
0.185207020156904 
0.1108666521350863 
0.1307687869068849 
-0.3543419940064417 
-0.1389957530732694 
-0.3923789862640071 
-0.2685013870725245 
0.2384940978152472 
0.04132055135281474 
0.4328762031720836 
0.006082896956399521 
0.1686167305329904 
0.1559154030060782 
0.02075141062880783 
0.02075141062880783 
0.02075141062880783 
0.02075141062880783 
0.02075141062880783 
0.02075141062880783 
0.03673143728186164 
-0.2314402903165157 
0.3103864536356173 
-0.5325767049732669 
0.1617690822087299 
0.04133720397028968 
-0.6496540202625927 
-0.08265806323458086 
0.0005442599253907988 
-0.04217518098081563 
0.2749758092797907 
0.2695747302604799 
0.1695989237126425 
0.4005677400500793 
0.04653508320489461 
0.08556896555343238 
0.02697387327485685 
0.003098792764793816 
-0.2751137612485463 
0.1485388528639767 
-0.4407483779179163 
0.2842051455360891 
-0.6269652908397887 
0.4024923246138782 
0.1360751180514295 
0.007199245573120747 
0.07646517292407987 
0.07646517292407987 
0.2525480287300332 
-0.3800632145975237 
0.07195998418342127 
0.05927901887790513 
-0.6472387236770987 
0.149134244310212 
0.1587919003421358 
0.09998610618520253 
-0.2254413327957352 
0.05328906102828075 
0.0003953064723776457 
0.0003953064723776457 
0.1659637235562256 
-0.2573094133107388 
0.4872974742711269 
-0.07661441246135765 
-0.3823610945016572 
0.00292032728403528 
0.00292032728403528 
-0.1981586209448905 
0.1609034660440465 
0.4756370013645357 
0.4764220125414094 
-0.2919065904745455 
-0.0895415467449156 
-0.5187159244075806 
0.2773588439410833 
0.2773588439410833 
0.2864687157383329 
0.0005714078554436632 
0.1248866597236602 
0.1124338474616423 
-0.5052433799729706 
0.2559801717412957 
0.1618368475004189 
0.07200156637787017 
0.2313101968193592 
0.1485388528639767 
0.01962231966280107 
0.4125525386169349 
0.1285251885532554 
0.2052735689422681 
0.1285251885532554 
0.0005208709411109596 
0.0005208709411109596 
-0.2160867118368555 
0.2702886864635357 
0.6292432833235938 
0.006068738426546596 
0.006068738426546596 
0.006068738426546596 
0.006068738426546596 
0.006068738426546596 
0.001701045956614457 
0.2276460865954667 
0.1680303204986463 
-0.2226933896864378 
-0.02763774353000208 
-0.3463140778153893 
0.3357903104527334 
0.429368696715998 
-0.3909439646268427 
0.1594121491778537 
0.3656584525579661 
0.03708844116471423 
0.1269947562990036 
-0.3245421643204532 
0.2343088686314278 
0.1269947562990036 
0.005653336381406868 
0.1338812481105945 
0.1226053731006742 
0.003135238440294792 
-0.3562005789411404 
-0.02788817799382799 
0.2525289325519486 
0.02123932963850647 
-0.3365336593352708 
0.2382603263639844 
-0.2866154235376571 
-0.08542990454615768 
0.3343857340845361 
-0.861920264196836 
0.3826943137180596 
-0.9242518269515401 
-0.02346722977345762 
0.2606773629692601 
0.2116816757592603 
-0.2138801548116726 
0.1170294943827068 
-0.2869977148621976 
-0.1510292815546214 
0.07722824712083827 
-0.5218581727947565 
-0.07159169769548392 
0.0009275496719084845 
0.0009275496719084845 
0.0009275496719084845 
0.0009275496719084845 
0.0009275496719084845 
0.07092162427150284 
0.07092162427150284 
0.199881708029959 
0.3575536853018968 
0.2332307355191953 
0.2332307355191953 
0.09017677884294675 
0.03867600654472272 
0.2779116430443364 
-0.1699311018251997 
0.06351233024816627 
0.06351233024816627 
0.02895082103644073 
0.07166064873599494 
0.3205754286498581 
0.02177189782233852 
0.12001233642483 
0.05868050135753611 
-0.1304220714047483 
-0.5334330916030786 
0.1001726202384094 
0.1001726202384094 
0.1191267392168028 
0.02004674743040719 
0.08352976865460639 
0.09070537156769011 
0.08072432754807508 
0.1976380238836593 
0.2260061840750561 
0.2167977676798776 
-0.5032957578943665 
-0.5032957578943665 
-0.4151959237058448 
-0.0176923968564939 
-0.0176923968564939 
0.4125155135921832 
0.1350771440330775 
0.1350771440330775 
0.01483632676324807 
0.01483632676324807 
0.06278022736486724 
0.001414761791723323 
-0.01655734470465363 
0.2540370394801852 
0.0002601304479487221 
0.4535718951311775 
-0.4329656006972506 
-0.2031307513047901 
-0.3325864564823497 
-0.3974684519780901 
-0.0646078350869045 
-0.002601723963123241 
0.2372763230402039 
0.2372763230402039 
0.2372763230402039 
0.1139239766958091 
0.1139239766958091 
0.02063584933184603 
0.4236446084547783 
0.06377652285109056 
-0.2733813207777684 
-0.0004246927635843262 
0.08131961059538323 
-0.00756420380217517 
-0.2607171506037798 
-0.1596671156171273 
-0.4226861954140735 
-0.4226861954140735 
-0.4226861954140735 
-0.2280153529995072 
0.2060935698749399 
-0.6177829528222549 
-0.5912269086067217 
-0.5912269086067217 
0.05639031330877628 
0.008097868456854158 
0.07386670739987033 
0.5419973585104958 
-0.3206513617794762 
-0.943910971541515 
0.1634002579757696 
0.000259242263092763 
0.2860270714625645 
0.1505100761880178 
0.08107247557499042 
0.1471501406312264 
0.08107247557499042 
0.2632154687199884 
-0.2911480437149309 
0.1397584546404671 
0.1887302728568744 
0.01693977076548605 
0.01693977076548605 
0.01693977076548605 
0.01693977076548605 
0.01693977076548605 
0.1934687753937577 
0.003135238440294792 
0.09474079087381444 
0.1133897004846397 
0.006639143701520143 
0.001371662590627821 
-0.5613689845265623 
0.001284382036581933 
0.05464910097527791 
0.1848964644829462 
-0.6962893062965244 
0.02276551560931935 
0.0004723508253424139 
0.003011791418578524 
0.05835772202562665 
0.05835772202562665 
0.05835772202562665 
-0.1585861273387874 
0.1088853107728076 
0.1575569276765949 
0.2323381034748188 
0.2090476703315426 
0.08867337609266339 
0.0008302778878028578 
0.1008291204434925 
0.001786990517560538 
0.03962790963151654 
-0.5902853219014844 
0.1317523595086844 
0.3616435337931543 
0.0001242798376169867 
0.0001242798376169867 
0.1285106202152162 
-0.01266285640649537 
-0.01266285640649537 
-0.01266285640649537 
0.1553794738799803 
-0.2794309159219036 
-0.306805599391287 
-0.1946090513594633 
0.615561225520497 
0.2349894945505787 
0.005360545834785983 
-0.1540040697000654 
-0.5700646940832652 
0.009431844943649311 
0.009431844943649311 
0.1555271153708815 
-0.8679030515175942 
-0.6248140845297987 
-0.5135944357103936 
0.2186527621215183 
0.2186527621215183 
0.3835784727650993 
-0.7133864296992742 
-0.953157543134213 
-0.0911436169825067 
0.02172264006371762 
-0.3962880531828546 
0.01888354224114914 
0.01888354224114914 
0.01888354224114914 
0.01888354224114914 
0.06294447749148221 
0.05148330828774345 
0.2558069505004833 
0.1314644074688572 
0.2644923065582776 
0.0001754150245333812 
0.6837444240302408 
0.1103006834789445 
0.2924278309457609 
0.003879028629891804 
0.04600504247770276 
-0.7143171393867562 
0.1594754531248204 
0.4478304038156257 
0.003934854010483124 
0.4814152849296488 
0.0008143945686082627 
0.0008143945686082627 
-0.2825394055114377 
0.1679291523192266 
0.1435517918514693 
0.2032119133262767 
0.2032119133262767 
0.1485388528639767 
0.07260619513137649 
0.0248389651493832 
0.0248389651493832 
0.0248389651493832 
0.06754128319736864 
0.1464922568433691 
-0.4874048695124064 
0.1001556399747114 
-0.3052472027692723 
0.1767886902405444 
0.1548650793428572 
0.009317581552051767 
0.008593623825576387 
0.008593623825576387 
0.3955784918502906 
0.1081431412146758 
0.1308691936383858 
0.3201941166405539 
0.09350986079529722 
0.1980531077207574 
-0.3840276608717064 
0.2810767323391468 
0.04444890603484156 
0.139822118170691 
0.2596812325112093 
0.001506066497912729 
0.001506066497912729 
0.1485388528639767 
-0.122092391203473 
0.07712644312438019 
-0.4262063701906648 
-0.000613953923094452 
0.08541938616881142 
0.02572388224380261 
0.08816793363221753 
0.08816793363221753 
-0.4514795098151919 
-0.1150134524428973 
0.07678419219814087 
0.216779209044324 
0.0847113114510655 
0.0257919171254246 
0.0257919171254246 
0.02873761734343401 
0.0257919171254246 
-0.09886861320772289 
-0.1059967790096271 
0.00380332523440954 
-0.9186770687728372 
0.001395703538226848 
0.1220220410642597 
-0.5730883964999218 
0.007795236275628681 
0.03828233141702191 
-0.4908952812305498 
-0.4908952812305498 
0.09328811505507839 
0.03836484944452825 
0.4896145139944215 
-0.5433063885131919 
0.1241306343797435 
0.004307938073971492 
-0.0008608749051064526 
-0.5105827495080184 
0.1485388528639767 
0.2629182998209454 
0.08705837168748914 
-0.04649614639782774 
0.08900461902218765 
0.05871592925252065 
0.02539587702350522 
0.1124339435928968 
0.3138718921327225 
0.009460182544009278 
0.009460182544009278 
0.009460182544009278 
0.3118613525737224 
0.07653637275209366 
0.07653637275209366 
0.02395322884475271 
0.5714281500454752 
0.01208009959996073 
0.007381411834395554 
0.007381411834395554 
-0.0002250109501804919 
-0.293449352485643 
0.9731283892237178 
0.2191458500136417 
0.078218786550909 
-0.6382936886330319 
0.03134023681732885 
0.1994151287573083 
0.03134023681732885 
0.03134023681732885 
-0.1848139490235834 
0.0002922353566243 
-0.2005181964536757 
0.1689410529778737 
-0.6228889128927994 
0.2723909276839621 
0.2723909276839621 
0.02318726449191649 
0.02318726449191649 
-0.2502433082263046 
-0.1984148010466588 
-0.5789885876951426 
-0.06719600201800004 
-0.1328149887691022 
0.1197393622415881 
0.1197393622415881 
0.2562292362039385 
-0.2302828888820767 
0.0003959699456653021 
0.01328645897166878 
0.3292552293570886 
0.3496473996726197 
-0.0877687005153803 
0.3274537929157862 
0.1406381500665082 
0.1406381500665082 
0.1098707576987793 
0.113584112426748 
0.1014760468621276 
-0.3480743086824767 
0.1485388528639767 
-0.6065651503980679 
0.06567256488206522 
0.01366302775904645 
0.09492446459722655 
0.002552908916141636 
0.002552908916141636 
0.002552908916141636 
0.3298504897937808 
0.07867407407378905 
0.2812763516570621 
-1.046086341042778 
0.01685659437339096 
0.001746606574089044 
0.2121775278881278 
3.659635732945805e-05 
0.004908472639808207 
0.05705625043941968 
0.05705625043941968 
0.05670579327993129 
0.1059278442301944 
0.1902737595715654 
0.1902737595715654 
0.1551743443543852 
0.1519169538154394 
-0.362347492473952 
0.1519169538154394 
0.1519169538154394 
0.0007079256720906668 
0.0007079256720906668 
0.0494026295879648 
0.01165437343401526 
0.01020848106336773 
0.01020848106336773 
0.1407489514932491 
0.1407489514932491 
0.0004887232957818036 
0.0004887232957818036 
0.0004887232957818036 
0.0004887232957818036 
0.2114855768917429 
0.01085875940481609 
0.1648215253657261 
0.01085875940481609 
0.01292066355733478 
0.04517085434607006 
-0.1688445587123197 
0.1408122090090603 
-0.7692491124528011 
0.1842129685377022 
0.1485388528639767 
-0.6168819976804473 
-0.235567246735562 
0.01557090657527309 
0.01557090657527309 
0.2107127376093582 
0.1054667117512717 
0.1054667117512717 
0.1054667117512717 
0.1429634875447266 
0.1429634875447266 
0.1867958750599765 
0.2119986627558348 
0.1224147473043974 
-0.4497336247655656 
0.06882362709410363 
0.1753461658353241 
0.7477088637443026 
6.965797915274818e-05 
0.1516742880456153 
0.03565186829645443 
0.04494945311441178 
0.08369041429572252 
0.05376416162437218 
0.05376416162437218 
0.1083707839274211 
0.1344791422113628 
0.0007899805135539337 
0.1210150311720231 
0.0007899805135539337 
0.1137666875464514 
-0.5609296917079801 
0.1171703729114134 
0.3944717939086437 
-0.4741728044247502 
-0.7864377795526138 
0.3526400273657026 
0.3768797262477566 
0.1749655092353624 
0.04365863589298696 
-0.3292137732037853 
-0.1928953961509781 
0.02012357770051527 
0.1663244802670191 
0.0159800266530538 
0.0159800266530538 
0.0159800266530538 
0.06964811844502239 
0.06964811844502239 
-0.700337751872226 
0.3100451808086208 
0.4942719481188149 
0.04583589642977128 
0.09171408391270267 
0.2931638045975998 
-0.5495777051338115 
-0.5135584739272847 
0.2309865080157757 
0.2311194563523882 
-0.3181309894946839 
-0.003259919837913414 
0.1761198777531758 
-0.6472387236770987 
-0.2852136444886486 
0.03576184028827899 
0.03694579748198541 
0.03576184028827899 
-0.005025040537272901 
-0.8449681058840643 
0.1199489253080187 
0.1469150938500803 
-0.05747316527915232 
0.1779782231722403 
-0.01555168311186646 
0.1631019489193458 
0.0002681471712594307 
0.2728208580077399 
0.000419513084544177 
-0.008438965634381967 
0.1165023750721864 
0.2104390283724764 
0.1184982954149745 
0.4519672327634948 
-0.3763652625396641 
0.04604168657942711 
0.04604168657942711 
0.04604168657942711 
-0.4892146903017325 
0.04386843787672623 
0.223792630997347 
0.1361174034399748 
0.1896745286631224 
0.1867184093010184 
-0.4170527588595925 
0.2965725335354168 
0.04175317323565012 
0.01441292559932343 
0.02346628255373794 
0.02346628255373794 
0.02346628255373794 
0.007332609881175045 
0.03084225618793793 
-0.09376503065405581 
-0.6245349778695302 
0.0130725496117672 
0.07154759896619917 
0.1003642706007553 
0.32731100066583 
0.0004099476857993419 
0.0004099476857993419 
0.0004099476857993419 
0.1247726518148666 
0.1833051383867036 
0.03036570505970063 
0.1622741529324943 
0.3709733918954335 
0.4813548608652766 
0.1411340812870395 
-0.5792966848215745 
0.133368594756937 
0.05869508221164153 
0.2193477127169661 
0.2544099912300092 
0.2066626524792033 
-0.007884549409999133 
-0.5471884546704968 
0.1771734347611227 
0.1002357163713149 
0.02156599554404166 
0.0009641753001759275 
0.1311924628143167 
0.0005858672871178726 
0.0005858672871178726 
0.1885501244130445 
0.1908778389854687 
0.003877345913327382 
0.01072131846411516 
0.003877345913327382 
0.003877345913327382 
0.228118667006937 
0.002050861963692387 
0.3472652292400021 
-0.3749225684677193 
0.002512465061749561 
0.1588573126610518 
0.02915708019962367 
-0.2555766488871093 
0.2793409828134895 
-0.211183183652457 
0.1564810666909451 
0.288809585380029 
0.288809585380029 
0.1587343468362357 
0.1587343468362357 
-0.02827647105466594 
0.1587343468362357 
0.004081137206348119 
0.3246954909520505 
-0.002051184908421426 
0.1701025681785322 
0.05401117051769797 
0.2382781807590109 
-0.520037758932411 
0.1407732808269731 
-0.1382253480650412 
-0.63814601607239 
0.009704476090523115 
0.2081107221360231 
0.4755044298103504 
0.08789962407445404 
0.08789962407445404 
0.1457788494263572 
0.08789962407445404 
0.2103955090897349 
-0.0003509186540074875 
0.1485388528639767 
-0.2992800342998924 
0.3566889818445122 
0.2253178599401735 
0.2253178599401735 
-0.5543669078126306 
0.234662395406837 
0.002822308025246383 
0.002822308025246383 
0.01251129185767732 
-0.01326544739829822 
-0.6228380924881123 
-0.7106271314849176 
0.2227163864153386 
0.05108165107720566 
0.02651281601459353 
0.1818739126029692 
0.1818739126029692 
0.004031334486743624 
0.004031334486743624 
0.004031334486743624 
-1.358306623763233 
0.1749557446197043 
0.1002841238267056 
-0.2095543729349 
-0.5277030061645667 
0.3458890675908594 
0.002660549582081891 
0.002660549582081891 
0.391283675827243 
-0.1566128040494242 
0.000537062673857163 
0.000537062673857163 
0.2090055589707035 
0.03678182910763678 
0.009050467614126246 
0.1204337191154348 
0.05709393549162851 
