solver_type L2R_L2LOSS_SVC_DUAL
nr_class 2
label 0 1
nr_feature 32502
bias 0.5
w
0.269199827178908 
-0.1772447757894472 
0.9256896665677911 
0.01344619826574824 
0.3149107379882067 
0.170412859375204 
0.8054341772963408 
1.130942817221774 
0.6045667262786752 
0.4271344288493499 
0.2601033697709084 
-0.007014722894183776 
0.2437455447299777 
-0.3823053982082935 
0.4898702128514649 
-0.1994748497895096 
-0.100302232233451 
0.1270922007372759 
0.1270922007372759 
0.1270922007372759 
0.1270922007372759 
-0.2844815651700128 
-0.6600100921790215 
0.5684823937200941 
-0.01488927022938553 
0.2960941326894262 
-0.08078088570673189 
0.1173458890804108 
-0.8567935527040283 
-0.06659091634627576 
0.998735498754008 
0.02397678105553111 
-0.8823001861244164 
-0.1985166976908753 
0.1028906011201383 
0 
-0.2583229701676074 
0.001973980947562829 
-0.1024387819508639 
0.2378846688262119 
0.5801619340762376 
0.1599115133437795 
0.0604231870812546 
-0.1676895728440793 
0 
0 
0 
0 
0.04201493505902291 
-0.08681755108813394 
-0.06319510587317023 
0.1109803757741856 
-0.06525297981228971 
0.09789656318753551 
-0.03442332254289379 
0.4021900988172769 
-0.1115883996149689 
-0.02060345028888421 
-0.08719903347627012 
0.06523465075432902 
0.466736781071197 
0.6544434953176381 
0.09664550795469355 
-1.216920287311154 
0.008116895998288671 
-0.01882233553550749 
-0.7138575219871666 
-0.04859442133413108 
0.1259457447686856 
-0.3017157100853244 
-0.2105345065955404 
0.02903168687088658 
-0.00912824238696228 
-0.04139378866951787 
0.2139915083786317 
0.2058771109197294 
0.01510296883112534 
-0.009988811167806595 
-0.07730649851584143 
-0.03175230428125229 
-0.04284472988150247 
0.2263796252501116 
0.3029167084706169 
0.03500351865523945 
0.03500351865523945 
0.03500351865523945 
-0.01633866745648941 
-0.04267213226558829 
-0.03303897840858668 
0.2201199852572626 
0.01768925778679185 
0.2636135454600038 
0.01752518216782193 
-0.1598161974602437 
-0.002806626669794961 
0.03705061313249563 
-0.1650804869146303 
0.5694591098951273 
-0.9916877447302592 
-0.1515264660314544 
-0.4446567443894769 
0.01720234606240674 
0.06616832868012086 
0.2575690200363042 
0 
0.07633274204878032 
-0.1045629117190597 
-0.2979347845213729 
0.6082220126948298 
-0.1672998116734966 
-0.2238180032306648 
0.3003638249118563 
-0.01001980409330788 
0.4232004077846379 
-0.04246741400936853 
-0.1682974346941917 
0.1732412268797265 
-0.396325467502975 
-0.3227458846290732 
-0.3944228309343397 
0.0242217568451491 
-0.5288631378232745 
-0.008165400798175293 
0.1160573484003762 
-0.5245243442247348 
0.2952530645253041 
-0.4635871396750292 
0.2292103000488552 
0.3561305437239232 
0.07405306555183397 
0.192980461957147 
0.1620426082103334 
-0.1563185654725017 
-0.2844287908452371 
0.4310712317198271 
0 
0 
0 
-0.176961563452686 
-0.05332899990402727 
0.7225503048339353 
0.1772899957227237 
0.2879942460297822 
-0.06244094369237065 
0.02950090700821209 
-0.01477353651329317 
0.3142759455081788 
0.2529125116436768 
0.2599281362878574 
-0.2258634386940052 
0.2888486214133792 
-0.01487225843319662 
-0.1700625302793655 
0.1823368693418393 
-0.3390332726030059 
-0.07626763256469052 
0.1685672038095549 
0.5051585236761105 
0.09356089074487983 
-0.4795550116002149 
0 
0.3040222384686679 
0.3768671380192463 
0.2728370978393744 
0.1019472269955579 
0.1877858989091357 
0.01618366700503599 
-0.01199601530802115 
0.1247797832189487 
0.2971713444720828 
0 
0 
0.1820826546811432 
-0.5010774948771078 
-0.9470896776355673 
0.06291932846694559 
0.068900910668434 
0.07929219687143665 
0.1627023730892446 
-0.1386647724724913 
0.3307936060603031 
0.2270994237591279 
-0.06227257052033632 
-0.06363122676649641 
0.2949580964627392 
0.4121232898042768 
0 
0.2177311528958234 
-0.8205079919542644 
-0.2576533337868571 
-0.03850868112540387 
0.3829617630077969 
-0.1461552627894886 
-0.05247045913657318 
0.08591348895998852 
0.1080778040748448 
-0.281521560155404 
0.2507748742181779 
0.09063644030048813 
0.07638734706333683 
-1.572504030764762 
0.005020893371372428 
-0.02317641849223669 
0.2739896973609783 
-0.08477054897425761 
-0.02456894534161144 
-0.07446386581088425 
-0.04282725919064702 
-0.02835746672818515 
-0.03132786596173253 
0.2300843432816876 
-0.05836149984317574 
0.2318760279390538 
-0.4207413322103214 
0.2017141193088285 
-0.3451860149015159 
0.2465097218084527 
0.02194661422965145 
0.3096760744295085 
-0.5757388230576281 
0.04475994105311365 
0.4227752373568915 
0.5255686257669867 
0 
-0.2378145844012594 
0.03333437702498888 
-0.03476626809922014 
-0.1975395176339153 
-0.01031812773513206 
0.474963638289197 
0.4084796001616378 
-0.04539774992609389 
-0.9411586134836867 
0.0742478613570634 
0.2603049216319404 
0 
0.8454512165162188 
0.1796779715174775 
0.03563682453437761 
-0.1054356829484844 
0.03687364945049435 
0.3407003199279058 
0.1464074604033082 
-0.206112197873616 
0.2419294242720186 
-0.1574787430720685 
0.3256230873193133 
0.2885148065992593 
0.06872066978354584 
-0.09995543127484216 
-0.01016200519538897 
0.06280405492517992 
-0.5578996944584087 
-0.1526301770640589 
0.0649341475521806 
0.5918672891683407 
-0.09319283916016818 
-0.5436305968460977 
-0.2903348739214307 
-1.174504537115193 
-0.09866364482254768 
-0.1144927358674167 
-0.1448085490109882 
0.5082913621167061 
0.3917916312985708 
0.1678586997597871 
0.1101096293272205 
-0.3426043316301952 
-0.04556393351677249 
0.1282121369312966 
0.3986311830658029 
-0.4987098176162641 
-0.2727876281880444 
0.2544172778540402 
-0.3990038520313414 
-0.7900837592716237 
1.440983894201996 
0.4463631881660836 
0.02309679805681798 
-0.4067399477709032 
0.04370062189855311 
0.05934968615517441 
0.466149437842118 
0.2138939373446558 
0.03556484295926566 
0.631060306860119 
0.8017061187422859 
-0.5808482943459993 
0.4926602565552873 
-0.2053124435907046 
-0.03108767021148426 
-0.4070055606942837 
0.5760525932032527 
0.1409158496696608 
-0.1026805444922621 
-0.09742329734947087 
0.5259630067768817 
-0.2472407037917877 
0.1819556193933574 
-0.01263308710713471 
0.2778032043183927 
0.06355715907492195 
-0.4429797285188904 
-0.3655815204951443 
-0.1518869485612989 
0.3102734847071197 
-0.06285057655199648 
-0.002789659373921054 
-0.1638184683238626 
0.167536528854129 
0 
-0.6481908269318946 
-0.1379631201139936 
-0.04541427525354035 
-0.1060989274283387 
0.2232004682838745 
0.4319824119477884 
0.266159783920472 
0.3140818418455711 
0.3884619027319733 
0.0299691483640903 
-0.4251262610546261 
-0.9020908338090018 
0 
0.4906711900895934 
0.26342918400032 
0.12951177034464 
0.3419390681685167 
-0.945671146368796 
0.4176890659359308 
-0.142341615315875 
0.2920628007613543 
0.1201436673320912 
0.1013154402879175 
0.8611334470835192 
0.1795297887237605 
0.236151535564732 
0.2870051702411919 
-0.2047480877983699 
-0.3901163662169785 
0.3651503981717447 
-0.1567231210616987 
0 
0.1166686486766655 
0.4276035819627313 
-0.02183115412081529 
0.7293836506970214 
-0.7632872604183373 
0.3959170752307387 
0 
0 
0 
0 
0 
0.02769214351384776 
0.006277329729234893 
-0.006070408990492531 
0.3191007806131981 
-0.004614782878440367 
0.02721355567058819 
-0.07953929579544089 
0.3897732032899408 
0.2087791373287021 
-0.01990970922350312 
0.08891914212019356 
-0.8633873843857952 
0.3979140355151335 
-0.8949366870396198 
-0.04115838650708496 
0.4517539375881542 
0.006270670220114911 
-0.01539878027660891 
0.3830002336890119 
-0.8055293654565963 
-0.6302315377500882 
-0.06862954068167718 
0 
-0.4908057824596044 
0.07763124466516438 
-0.4755003154723205 
0.5674230141083859 
0.3552178280761529 
0.8710928197073781 
-0.2073705739485458 
-0.5732145755739774 
-0.03150704088029206 
-0.08387121232570509 
0.7923723208724724 
0 
-0.0241136255668203 
0.127743452925851 
-0.7766946509279918 
1.028185828572421 
0.280318873922104 
0.1733146317891001 
-0.2749905535065105 
-0.2419040735397742 
-0.07469713423170621 
0 
0.3816105913733164 
0.7284996122375221 
-0.3298003638038149 
0.3370234409272397 
1.025866662155017 
-0.05059587968580295 
0.00731285755400965 
0.07107851418139939 
0 
0.4084827852162565 
0.03927642061337103 
0.6249279232678944 
0.2757957355126849 
-0.5286022201546985 
-0.006368393425247403 
-0.2446548965334707 
0 
0.0284468070971472 
0.09083843987458347 
-0.1212980483355254 
-0.139411035526403 
0.8606109548394116 
-0.289154885712397 
0.5456247884049416 
0.13045346219029 
-0.4715553315830647 
0.1540914744478914 
-0.03149159359790293 
-0.3776031295719039 
0.7624916516017289 
-0.4151470900201725 
-0.7971396753878849 
-0.8389208108328606 
0.2365036396433901 
0.126724575813751 
0.07009436023529274 
-0.1893175683898792 
-0.1194920577977534 
0.2156959750586113 
0.1100418330865502 
0 
0 
-0.1636165759111208 
-0.0250481766925926 
0.2103181003077781 
0.2452236623449383 
0.1203254261053859 
0.24990556087935 
-0.4708504043724883 
-0.4797962274038975 
0.08603808800900502 
0.2112428059856348 
-0.31155416768246 
-0.1183503116230816 
-0.5217744987519298 
0.112389758654869 
0.5386608204311414 
0.5316412222675525 
0.1112627236221905 
-0.2287963100446219 
1.095884838759998 
-0.4041341966291665 
0.7502598305912505 
-0.03307272185467757 
0.06100904943760151 
0.2304419795967398 
0.2653898870009498 
0.03388389972336038 
0 
0 
0.3296086999978124 
-0.08672394577995997 
0.1130518748851153 
0.04155657795883513 
-0.01916809765566756 
0.2574826318585967 
0.3144627027722415 
0.3144627027722415 
-0.3956746895940904 
0.319914781938719 
-0.1602028139721281 
0.3007644096543139 
-0.5454853785749048 
0.119924118046883 
0.2936438236630501 
0.1523538809855546 
-0.2352331048689723 
0.03771940853394824 
0.1461588625623498 
0.3266116345890788 
-0.2650799503304576 
-0.00904713053649292 
-0.1797508952216239 
0.4729458452123421 
0.2883067877609608 
-0.8309927425938891 
-0.7991191525253379 
0.3622403777077989 
0.3981263060053282 
0.2834036853959538 
0.02633417018883327 
0.3764975163805439 
0.02633417018883327 
0.06359673986336016 
-0.07723430219527197 
-0.1376923526976063 
-0.06839049685610074 
-1.127771565295147 
0.1134781487298873 
0.1134781487298873 
0.1134781487298873 
-0.04874884604852297 
0.6408674941001475 
-0.02639585490984961 
-0.1488044327362808 
0.347733725651229 
0 
0.3181170570116579 
0.3457384800261383 
-0.3244520513364747 
0.2195881372657066 
-0.3742110596631645 
0.09146642814667186 
-0.07221605719448704 
0.03350167359165651 
-0.1346693125792351 
-0.3168819901770755 
0.03620179321919796 
-0.5030824769632318 
-0.1468320039278485 
-0.3994088053338091 
0.2705837617485382 
-0.05840292870077966 
-0.2025426813299779 
0.1033448275908063 
0.02616435299789753 
0.004653457018873519 
0.2299559693140331 
-0.2591989523073228 
1.021172044739607 
0.4092105976761398 
-0.1808304067834009 
0.2360569707383983 
0.1671185999961082 
-0.5602419988000111 
-0.1002582756208423 
0.1671185999961082 
-0.2592535626277751 
0.1671185999961082 
0.1671185999961082 
0.1671185999961082 
0.03368773699143626 
0.2998514551129902 
0.3977811107280168 
0.1242435656561252 
-0.1175163945875588 
0 
1.126505861214905 
-0.03721536081501312 
0.1704521938647384 
0.1594393346267449 
0 
-0.6075489777417931 
-0.05461061573073808 
-0.5288591393999067 
0 
0.1617422074793533 
0.3693866156803718 
0.3693866156803718 
-0.1956834295062976 
-0.1000488935415018 
0.5127639275714224 
0.06645259932978401 
-0.7202347694585531 
-0.3776618392989631 
1.175492125722573 
0 
0.3766113480438688 
0.09256502765798788 
0.221482254310193 
0.7971399821314296 
0.9153016986619413 
0.1284530013050182 
0.175232217300935 
-0.1729347689583584 
0.3738330086065357 
-0.1552584613650922 
-0.07158445403142702 
-0.9040811592318775 
-0.1404949277237305 
-0.4244476308174167 
-0.05338422311481511 
-0.07686772477357748 
-0.09478149574692718 
0.00743836826566285 
-0.5152858461486308 
-0.04424746872630653 
-0.07182576596809112 
0.3317237582245209 
0.01173572761774395 
-0.1368280298830275 
0 
-0.4124556534351881 
-0.04088243471577156 
-0.198902968973102 
0.1558894025527334 
0.355434338140975 
0.2802218512158921 
-0.2707805864532673 
-0.1289530201753821 
-0.5140663605972935 
-1.117426603056828 
-0.09069223530453335 
0.007836089883406524 
0.007836089883406524 
0.007836089883406524 
-0.2552207584381772 
0.2131305859439057 
0.9579086007860478 
-0.5787531493578764 
0.0922124877424856 
0.2084897718550004 
0.6642252286274383 
-0.3191893197314671 
0.02939942247063666 
0 
0.5016488256588687 
0.04653945815244448 
0.654718995954226 
-0.9927130870247458 
0.1137751670600623 
-1.000922559177145 
0.1854663887997292 
-0.8593018405470969 
-0.7265259436369416 
0.07606724489993112 
0.3494649137774132 
0.6698130697322799 
0.1972343992702162 
-0.0489002584595124 
-0.2327203310447626 
0.08644118009559175 
0.006120751125050183 
-0.6091809114689626 
0.09429770861296727 
-0.05070757197826457 
-0.7933987917910487 
-0.08202204213700579 
-0.2186336451321373 
-0.6368695445318709 
0.4593567649283203 
0 
-0.05060635244336234 
-0.3919359450742777 
0.7655689789676822 
-0.1608837206607953 
-0.6901252454719635 
0.7655689789676822 
0.4104343081473107 
-0.7618009680062111 
0.767514423584154 
0.372588099127452 
-0.2186032416876563 
0.1294028739543657 
1.14081928785971 
0.0566808069074072 
-0.04675616526939552 
-0.08006423152077261 
0.3061159535547032 
-0.5915868191727602 
0.2565936430152449 
0.006627409892650854 
0.2855598482624091 
0.4488589574692872 
0 
-0.07859789530060804 
0.734630011438558 
0.002839891592902807 
0.06282015894736201 
0.06569075386503692 
0.730883128342156 
2.775557561562891e-17 
0.1854791374945597 
0.06468544072803099 
0.07161365609306161 
0.1035815692340924 
-0.5030731263099996 
-0.1867871829616677 
-0.4468178629364841 
0.09032533241306098 
0.3321303778113647 
0.3817158719921013 
0.090325332413061 
-0.02652591982057058 
0.090325332413061 
-0.3842052965937192 
0 
-0.161482177587624 
-0.1123796429486388 
0.03461271574428486 
0.2496923219932203 
0.4171432807028334 
0.1618417741714881 
0 
0 
-0.6626671033921728 
-0.2136627355504168 
-0.09095128981904455 
0.3337914719310009 
0.7325198284163804 
0.3240066855758642 
0.1545424001433702 
-0.3046325915891235 
0.001171949095506754 
-0.2244766948515042 
-0.2330877779572739 
0.1080233817412666 
-0.03813873843031313 
0.2660808783792801 
-0.3954981631668288 
-0.3012284379104824 
-0.04042723440636233 
0.09828940134287531 
0.04160123815627768 
0.06984402577034926 
0.4686245806084381 
0 
0 
0.02466574580157494 
-1.226197017289523 
-0.9890433787932894 
-0.04821654838752473 
0.0756531218979458 
0.44031899115052 
0.4382094729658774 
0 
0 
0 
0 
0 
0.1998927848909525 
0.9263857319812177 
-0.8950268411096916 
-0.209035389484131 
0.2708701385694551 
-0.1378958333335284 
-0.3028882911262271 
-0.3921889499604774 
-0.5248595566426283 
0.08413049246572969 
0.5982542923024762 
0.03744586282320366 
0 
0.6578497500764596 
0.3711051499532849 
0.1756566149170987 
0.3384174358213498 
0.2366406554774388 
0.2218885509593089 
-0.1329438855119519 
0.3034305350507914 
-0.09528029945971046 
0.05519932427528011 
-0.7899950394436116 
-1.387778780781446e-17 
0.05116719980904561 
0.03980461529328561 
-0.3051509366164483 
0 
0.1220313890705944 
0.9268874843857221 
-0.2891397770539001 
0.2492019809691125 
0.6594119516228731 
0.288947068528543 
0 
0.566378607089942 
-0.2484377460703026 
0.6634331442356838 
0.2211440507775421 
0.2211440507775421 
0 
-1.017369595955488 
-0.003810130135890672 
0.4098463305109996 
-0.4590728188083014 
0.142725362012314 
0 
0 
0 
0 
0.0423478863563865 
0.01533476939709381 
0.01533476939709382 
0.1151476590621721 
0.01533476939709382 
0.2208184737562663 
0 
0 
0 
-0.06752555227315463 
-0.4158191886532981 
0.2204942179155305 
0.2204942179155305 
0.2204942179155305 
-0.3987846067195419 
0.2917946182636142 
-2.627672052240085e-05 
0.5183900991132981 
-0.09555411492405534 
0.2469635468920392 
3.469446951953614e-18 
3.469446951953614e-18 
3.469446951953614e-18 
3.469446951953614e-18 
0.05660154116912595 
0.9359231606637063 
-0.5184956420118059 
0.08145941398410242 
-0.02678056624023738 
0.3454718033921315 
0.204427632992739 
-0.1927079375388032 
0.1209358633318447 
0.09616500414180121 
0.1327429109528442 
-0.3182783327812022 
-0.5642840294825686 
1.02679665189043 
0.1980208616538102 
0.2738220575632497 
-0.04109826997357595 
-0.0609079421435748 
-1.005287824300229 
0.1979210238443185 
-0.3038965323626168 
0 
-0.2819074719935535 
0.06739189136594068 
0.700235641264407 
0.05509707581650014 
0.1559584773091841 
0.1385747053880835 
0.3813569312605454 
-1.387778780781446e-17 
-1.387778780781446e-17 
0 
0 
0.1379130094278584 
-0.3674480148226268 
0.1559615522223387 
0.1559615522223387 
0.3741767270346759 
0.3426374742275649 
0.148438178945164 
0.2868965419659371 
-0.06878264691708634 
0.3059776058067472 
-0.1893733291683727 
-0.2890359730069672 
-0.6340377261202155 
-0.3340670844131343 
0.1718272043487749 
-3.469446951953614e-18 
0.6270040491436305 
-0.4395021656708779 
-0.03567057219503476 
0.2598038466107307 
0.203871520309696 
0.3816250093752335 
-0.09230231023043325 
0.2635970448946074 
0.5002685563967919 
-0.1625421015407525 
-0.2184264872385422 
-0.6158822781605575 
0.6703722858159714 
-0.4124606116321466 
0.3441113329291342 
-0.812446233040623 
0.1706489489478598 
0.1706489489478598 
0.1706489489478598 
0.1706489489478598 
0 
0.7401877520506179 
0.3792979660675467 
0.2074285260918724 
-0.9123524800405926 
0.8682238370751265 
-0.9136464308824344 
-0.02592292681100423 
0.4769645727543757 
0.4769645727543757 
-0.1856804174247535 
-0.4568686811489955 
0.2144886200695033 
-0.319739549435618 
0 
-0.2077259566045428 
0.1038866330965828 
0.3559509967150443 
0.2981613699831309 
0.4984703674438526 
0.06904733254996734 
0.02558803085942311 
0.1995623162438192 
-0.09532021116225689 
0.1828305077628467 
-0.342524287473038 
0.05729673315882983 
0.2010268467356157 
0.1343215936041597 
0.05613599711554786 
1.387778780781446e-17 
0.1224590788301459 
0.129452283934742 
0.3889500612204872 
0.04404820849004611 
0.3654375339852962 
0.978298454009693 
0.08648175337972594 
0.3583761679100083 
0.0902733228466492 
0.2601311607752823 
0 
0.1305153630405745 
0.2079674491781799 
0.3852436705881669 
0 
0.4157036134952645 
-0.2340572709611368 
0.5097375039709999 
-0.1075230893632373 
-0.005545372348824292 
0.3079858930917803 
-0.1702717101622735 
-0.4748880663988223 
-0.4411192482805428 
-0.1702946670945332 
0.3373534899170523 
0.3373534899170523 
0.7723354984046485 
-0.5537631588720117 
0.1558894025527335 
-0.03144573237689882 
0 
0.07523228593656749 
0.1463546916625133 
-0.2187165287490148 
0.2951544884734376 
-0.2072393240521563 
0.9052213060834399 
0 
0.8824057578647131 
0.5304359011289628 
0.2602326438164586 
0.05067946990697873 
0.1063440560457441 
0.1904550752776455 
0.1063440560457441 
-0.279700250560768 
-0.4274741153228887 
0.3838796824760267 
0.259881254910058 
-0.2405598318193321 
0 
0 
-0.08894833516209334 
0.5212536726245433 
0 
0.1601926537783309 
0.2360355592501917 
-0.09262591787459475 
-0.2391094871255497 
0.3467137975317826 
0 
0 
-0.7393961606401795 
-0.05095780852538595 
0 
0 
0 
0.4515699382961056 
0.3258247407961892 
0.1193588334862814 
0.1193588334862814 
-0.1237838078636165 
-0.6108284226848026 
-0.5919087401980142 
0.3107622562622436 
0.7373498808000152 
0.6339016888159865 
-0.02404039644841856 
0.380539566435384 
0 
0 
-0.2287662667124675 
0.01896765148199036 
-0.2634954956242278 
0.1973443703048435 
0 
-0.2430337263397724 
0 
0 
0.656324361776648 
0 
0.1376550883171168 
0.1852539112383981 
1.044405034527632 
0.005094622059173499 
0.007578942945023898 
0.06636504279537347 
0 
-0.4192841209112427 
0.6697351680048341 
0.1799641630912561 
-0.1168879564729623 
0.1671782632101181 
0.0728079382794357 
0.5444429609482291 
-0.2048831940204081 
-0.2443547453179386 
-0.5543021394847117 
0.5049609573387026 
-0.5910893293065271 
0.1327222436740392 
0 
0 
0 
0.6363208792221537 
-0.03961281930802435 
0.1268774665610478 
0.4475152447447002 
-0.01576926637317783 
0 
0 
0 
0.5491781260197774 
0.9030152985278088 
0.6028155097257134 
-1.01396365134399 
0.05125307670452738 
0.03399547673365756 
-0.6869924011110055 
0.4376909161728407 
0.1194702880319387 
0.3113579093564965 
0 
0 
0.1325862473487727 
0.1888454280028571 
0.1888454280028571 
-0.2715046538866425 
0.1888454280028571 
0.2599271454635528 
0.1446503737447486 
0.06980874515508659 
0.5908844158768167 
0 
0 
0 
0.4959940997262911 
0.4394755963536629 
0.1264171179453396 
0 
0 
0.2254422724766537 
0.3038489660298785 
0 
-0.4165522189297168 
-0.09970719815174325 
0.3416457547226993 
0.8355786221631065 
-0.5212516577571789 
0 
0 
-0.2667448628261323 
0.1333477554749873 
0.2758597239748978 
0 
0.2405251971798837 
-0.04282302263809178 
-0.2417353286783321 
-0.2104649373647782 
-0.889160096336941 
0.4150432620366854 
0.3553051094031521 
0.1699351837889645 
0 
0 
0 
0.4383049474650788 
0.255751614482805 
-0.2001839106569415 
-0.4747779632167058 
-0.360513408201877 
-0.1254596510752225 
0 
0.5096650311885607 
0 
-0.06486134587901715 
0 
0 
0.3531486353290234 
-0.10138252047737 
-0.5951514197376526 
-0.7325062680774217 
0.02074607318128355 
-0.7325062680774217 
0.1645299265316807 
0.1188695882173204 
-0.3769015912948494 
0.3223313966410518 
0.5750022141588503 
-0.7622063744277963 
0.3011639953367636 
0.3011639953367636 
-0.1312648307998082 
-0.5573364537728785 
0.3011639953367636 
0.4591706991152635 
-0.06721235526506264 
0 
-0.05251714061805979 
0.2256725775327277 
-0.7943298394795097 
-0.6847546676894242 
0.1410238900895382 
0.1259965832508146 
-0.1406134744324548 
0.2059359572512763 
0.4647593361889647 
0.1733582108404658 
0.3341579610966745 
0 
0.07981915432108802 
-0.1332592915607234 
0.02600564306818119 
-0.06489481885650003 
0.2599143367719379 
0.5756348371380673 
0.6907666370080772 
-0.3824600735146848 
1.300340994066917 
-0.022268668050912 
-0.5189016122337081 
0.1356174074419965 
-0.9400693822190394 
-0.022268668050912 
0.3976457479060575 
0.6040551807458667 
0 
-0.2428371425145197 
0.7031521638799031 
0.04192693426686554 
0.3104863716189286 
-0.2207722282318149 
-0.1216473543700965 
0.2651926371740126 
0.2651926371740126 
0.2651926371740126 
-0.08400050212272028 
-0.3597529130115099 
0.04681095153177961 
-0.02361955923132147 
-0.1237849843132937 
0.04220030428958372 
0.1953869674232475 
1.387778780781446e-17 
0 
0.003235860145735568 
0.2487386307410326 
-0.4190994115726571 
-0.4190994115726571 
0.06891432862580056 
-0.6196660217665245 
-0.2850193744613891 
-0.07413868548539784 
0.1542060663391718 
0.1346812965363231 
-0.9416231060020358 
0.2934406006938092 
0.3138667969757205 
0.8015974694021102 
0.9219247242393678 
-0.9943966006666706 
-0.6304992322865404 
-0.006521648097295812 
-0.2209932248751957 
0.04531098120778492 
0.2709365519449492 
-0.09688471764290284 
0.7041466021243481 
-0.3111800446865755 
0.05349125286364542 
0 
0 
0 
0.9724729461564856 
0 
0 
-1.064278435625759 
0.1451490450440633 
0.1776116241147062 
0.3103104324574932 
0.03645611733678363 
-0.1941014104113855 
0.1831287187272833 
0 
0 
0 
1.008679359449652 
-0.1889304939799734 
0.2081090090340124 
-0.002066707459539579 
0.3763179436372904 
0.005052244009559264 
-0.204436790121544 
0 
0.6679039270894355 
0 
0 
0 
0 
0 
0.3448122014626647 
0.08934718252051137 
0.08934718252051137 
0.1025023810084387 
0.08934718252051137 
0.8830415571975473 
-0.2523515697046139 
0.2464726135168855 
0.5001210717479073 
0.6449255701317925 
-0.1318395320352077 
0.4869272500005223 
0.1732867226385644 
-0.289164926037923 
0.08197725294411476 
0.2691491505774233 
0.2896599545099821 
0.5806976836231228 
0.06587315750389046 
-0.3927380560452259 
0.2627688890662667 
0.01626276432591783 
-0.2937098041740153 
0.8228594534946783 
-0.7179107119757091 
0.2076748981895523 
0.2097516876272675 
0.2698084996487221 
0.2944380693416264 
-1.115342183230876 
-0.5259257726373272 
0.111321511502922 
0.111321511502922 
0.03908601040608511 
-0.144383936871398 
-0.2891562204129034 
0.6190222917572801 
-0.3022874663214394 
0.1905964576369294 
-0.04605288424968078 
0.2816758042768261 
1.049212619759575 
0.2016879863367576 
0.2016879863367576 
-0.2553790392685397 
0.06209676508507284 
0.06209676508507281 
-0.1962608792520467 
-0.05005928983248049 
0.2182249403257985 
0.2678512322106725 
0.05758647686013886 
0.307907006193218 
-0.1610008964240595 
-0.2440586161180134 
-0.4661857700232824 
0.009050337736205623 
0.4961302713172028 
0 
-0.5141355166376441 
-0.4195673523648736 
0.2988449922002229 
0.4964876327949707 
-0.4231897171948323 
0.1250698469260897 
0.08943475626111419 
0.310462370778667 
0 
0 
-0.2834722570284082 
0.1014920738544844 
0.2071964971367461 
0.06905559439750231 
-0.1029661777674516 
0.259710381255677 
0.1233414491403247 
0.06132857248053373 
0.3387438264252028 
-0.1036134768910781 
-0.1804631362242021 
0.1139171644533072 
-0.2181510178550597 
0.0856683617925085 
-0.315944782554852 
-0.0006174948026019117 
-0.02035005252709215 
0 
-0.4274702621857819 
0 
-0.03242206484243659 
-0.3939791808897601 
-0.5068286113995844 
0.004519559825507363 
-0.5068286113995844 
-0.6051200365045047 
0.2401383141652825 
0.8683505024506465 
0 
0 
0 
0 
0 
0.2373833774425741 
0.7031840399960155 
0.1292839012249629 
0.1292839012249629 
-0.07015333828714274 
0.1891779730389926 
0.1891779730389926 
0.2595784475428473 
0 
0 
0.08049784721408353 
0 
0.106616647674303 
0.06183785769335426 
0.2147721594020139 
0.1318105634398606 
-0.05094892587094283 
0 
0 
-0.0497247045185225 
0.03926065459526765 
-0.1140002477551319 
0 
0.1762621599658593 
0.8846720969608243 
0.1335195478244046 
0.08963656211068508 
0.05891349153745401 
0.582090362942233 
1.046461732556649 
-0.2602206372366069 
0.1710995663638756 
0 
0.50382108552234 
1.05071076583331 
0.05192161720315216 
0.664268285133873 
0.2569558023617671 
0.265841362048521 
-0.7078642143055555 
-0.06550238668369741 
-0.01984008646459488 
0.7043955733992385 
0.05031686431556439 
-0.2844568715566759 
0.2530473061684688 
0.2186765220800827 
-0.1282262528951293 
0.2186765220800827 
0.3302630983190437 
0 
0 
0 
-0.5295917970425531 
-0.07998971442726543 
-0.04604376209614319 
0.3668798351593999 
0.05774063033133293 
0.1674201332027794 
0.3436305914983866 
0.3688509120974512 
0.5359792843069167 
0.2078088124290647 
0.3928477884075847 
-0.6978540223738443 
0.3856849890003127 
0 
0 
-0.3063017307870672 
0.2711923152961762 
0.3632718281713735 
-0.4160865967184743 
-0.2256124546949397 
0.1018867831153686 
0 
0.4637472680411553 
0.3108287448495544 
0.2118585085505605 
0.4117806442962668 
0.1202722831061198 
-0.4789164179754106 
0.4290396976428862 
0.3117322185741171 
-0.2486758359596428 
-0.1477144536712778 
0.5688143344820973 
0.1878717308954167 
-1.450109818968369 
-0.3773027353340344 
0 
-0.150637809561355 
0.4221879416375259 
0.4233036535809983 
0.2930598330286165 
0.1256089282631146 
-0.5476562854311248 
-0.4387037377183999 
0.5001626885193182 
0.2836046934176735 
0 
0.2279498649336663 
0 
-0.08180099009943106 
-0.2629927722173778 
0.3797797767552877 
0 
-0.0733216798201452 
0.1875217189685414 
0.5805396199321244 
-1.729903730784429 
-0.2314936363657198 
0.6389454798305725 
-0.2187737299303202 
0.1239192788640601 
0.5611890453500753 
0.3582607524324785 
-0.3463683506511086 
0.06790218138426982 
0.18799156628321 
0.721121467086314 
0 
0.08779766575466529 
-0.1461410158985022 
0.1766869821034805 
0.3210245648212055 
0.1113890332191583 
-6.938893903907228e-18 
0.1521111008135959 
0.7313676221198878 
-1.734723475976807e-18 
-0.329141941883078 
0.3786319399074296 
0.2235215140067546 
0.08736427137939824 
0.182052169316251 
0.1687762054986529 
0.06756227791019002 
0.0698638010738182 
0.06756227791019002 
0.005789283723089844 
0.2817153331976033 
0.6686899201342014 
0.3910131206166592 
0.1881217515076017 
-0.2707622566971298 
0 
0.03153216708161947 
0 
0.1498233923145858 
-0.01780078628956483 
0.1229961705214501 
0.5356697352443134 
0 
0 
0 
0 
0.2292175114905075 
-0.1029136019985997 
0.3701489881206254 
-0.2449702069296935 
-0.4602852510601782 
0.1415803736893403 
0.2928576128329113 
0.1474978038523508 
-0.00447302026256885 
-1.007048282313199 
-0.8163429954524136 
-0.8431493541248863 
-0.4423573033162809 
0.6590990334614998 
-0.4334138767076849 
0.1809895684947035 
0.2446899050049468 
0.3028959357899033 
0.2919622205180113 
0.05729801351326835 
0.3293495138432455 
0.7554141810727206 
0.2598635806299958 
0 
0 
0 
0.1381611251520068 
0.2381724093198507 
0.1645333906068765 
-0.1819386786451624 
0.3367380179680748 
-0.03939424457958253 
0.03731146736009071 
-0.1077417374944592 
0 
0 
0.2974302302912673 
0 
0.4342692622422591 
-0.2911081270026544 
0.317588840287302 
0.1175876204670949 
0 
0 
0 
0.1395564096042415 
0 
-0.1878554990255013 
0.06329109647740022 
-0.1964993616161657 
0.2600367984567831 
6.938893903907228e-18 
1.089015005048223 
-0.7987161629432586 
0 
0 
0 
0.1539795042904341 
0.1671924623957828 
0.3386129395269697 
0 
0.3780584180092769 
0.874228298577775 
0.04116788807989648 
-0.01901776967287906 
1.00976879248947 
0.308969191876834 
0.4814584495265276 
-0.563936690259377 
0 
0.1123316616976623 
0 
0.3555263211141526 
0.1148305888626347 
-0.1669703510178587 
0.7489989891374453 
0.3383774673112584 
-0.3368300268076726 
0.4038442317342985 
0 
0 
0.03184540562875059 
-0.411248546980756 
-0.4391571471185983 
0 
0.1148305888626347 
0.1148305888626347 
0.2598830050422571 
0 
-1.26828375018735 
0.1514787767012233 
-0.124660185917431 
0.4697345504482072 
0.04601113938401201 
0.1200959596586932 
-0.2919369467215413 
0.259927982210079 
-0.003512792922652913 
0 
0.163528332462093 
0.2523966806419842 
0 
-0.3457335756662248 
-0.3457335756662248 
-0.1200349656900418 
-0.2928797606990461 
-0.3457335756662248 
-0.276886524776969 
-2.992397996059992e-17 
-0.8545205159715672 
-0.04523970183559172 
0.5079597908420228 
0.6152470072975083 
-1.083116812591137 
0.007164094889637748 
0.1303829227914992 
0.5141771428589841 
-0.6395204353080763 
0.07854054220120571 
0.2712345566282195 
0.5049323823854802 
1.387778780781446e-17 
-0.03784832252088069 
0 
0.03949053691164345 
0.7292757449100227 
0 
0 
-1.229541040882104 
0.2291968547790808 
0.1071446034284384 
-0.6264368997394878 
0.9564640909650866 
-0.05950672481581216 
0.3089909666975078 
-0.1315945815389276 
0.02266844804866049 
0.05777515436264223 
0.1659193918897636 
0 
0.2446462619761012 
0.136493106793637 
-0.8328429179372683 
0.781773231591123 
0 
0.8163057113651834 
0 
0.2720453070281262 
0.5027027570850552 
0 
0.3426430233187825 
0.4424020575128944 
0.2502624194653901 
0.1229569488862378 
0.4611739998206725 
0 
0.1578717706734503 
0.7211656545062463 
-0.2655440693169897 
-0.06643713925262093 
0.2948429786959149 
-0.623621173980609 
-0.07915315624437669 
-0.1790628734011555 
-0.2210491430376282 
-0.1583454184385923 
-0.3092114621729029 
0.5906928723741816 
0.645027093369419 
0.1595942635476425 
0.1595942635476425 
-0.8145343315141222 
0.4603855929939817 
-0.7623230681277231 
0.2313009115184582 
-0.1328162451210917 
0.008802314120391248 
0.5818549080855947 
0.7604146595969834 
0.03965807995916605 
0.2600093020348902 
-0.6587593098195768 
0.2627997135361476 
-0.6587593098195768 
-0.6587593098195768 
-0.1526775058391325 
0.4521342056936142 
-0.1804326910446539 
0.1559173628694212 
-0.04727780957279851 
-1.047400970245802 
0 
0 
0.5220345337942788 
0 
0.6036516836255028 
0.145206923425579 
-0.2164921913274116 
-0.2318975409501786 
-0.1844977626565672 
-0.843985997892998 
0.4373697687612801 
-1.073476216996405 
-0.2070977973560607 
-1.092909741333794 
0.543160470063303 
0.5858917703725172 
0.1004309201369342 
0.06347993470037738 
0.5761101948850048 
-0.3491928707052937 
0.05251931266276033 
-0.9574085621249863 
-0.5445432811665181 
-0.3283689563358689 
-0.3283689563358689 
-0.3283689563358689 
-0.3283689563358689 
-0.3697571239429517 
0.2598750420927409 
0.2073603676414427 
0.08041385034928983 
0.477161586630056 
0 
0 
0.4865550271776822 
-0.1091743549575605 
0.4395437068347609 
0 
0.3638430865283441 
0.4656978166443295 
0 
0.3033448567884779 
0.6919924186986696 
0.0243809936706853 
0.1510333479716026 
0.7150129163611585 
0.3807731946109997 
-0.06677537698207837 
-0.3145930722508946 
-1.142178385462167 
0.2323758440503172 
0.2323758440503172 
-0.2089508317396701 
0.2632728069406304 
6.938893903907228e-18 
-0.04164916668937576 
-0.09069824751548994 
0 
0 
0.591460092634822 
0.007012458689186211 
0.2475304898338739 
0.2226927851696961 
-0.1639522806873249 
0 
-0.1559376416216944 
0.9359975000029115 
-0.07327891194779063 
0.2808824893304364 
0 
0 
0.08364144646900032 
-0.5284704009667931 
-0.03200007488074612 
0.1748784575208238 
-1.07091418193851 
-0.5878560968587949 
0.3376499734687691 
0.1183113284159988 
-0.01675304996608507 
0.4096211008747914 
0.203335444023952 
0.02894912716986548 
0.3604819198224168 
0.542894231873333 
0.08566254681517685 
-0.5176714267833527 
-0.6628036959275654 
-1.011640844517625 
0.3141471877891795 
0.3836281592362992 
0.1148304630620172 
0.4145864218202366 
0.3914493904782981 
0.1723344195467574 
0.6731462525527081 
0 
0.185205746664278 
-0.4800020449043619 
0 
-0.009831592722587462 
0.5588219725737124 
0.7254567589891984 
-0.2220571272468917 
-0.6591107931557292 
-0.4392554235295075 
0.1391538725873059 
0.4229382396376997 
0 
-0.2259381994869489 
0.1543669951120293 
-0.9311817327003342 
-0.1406525114783935 
0.2855631664117185 
-0.2948829462849537 
0.3770290156669885 
0.5923127445616749 
-0.3571297913067076 
-0.2236163138975295 
-0.3396848037202306 
0.3062300782546122 
0.1268211914654053 
0.823261447431894 
0.1294544979332586 
-0.3416222002452371 
0.2597498798817537 
0.4274054911837772 
0.2202542569417607 
-0.2001987859639951 
-0.1858901413747922 
-0.8954722655688625 
0.6232920997848715 
-0.3667335229291843 
-0.1627849286849167 
-0.06487636702873464 
0.08440281404532216 
0 
-0.2733223486679512 
0.4961721135430727 
0.169396810250743 
0.4659568279879437 
-1.010649210142456 
0.2067572901469346 
0.01155042188603582 
0.1318624296538489 
0.01155042188603582 
0.01155042188603582 
0.01155042188603582 
0.01155042188603582 
0.01155042188603582 
0.01155042188603582 
0.01155042188603582 
0.04643451409241449 
0.01155042188603582 
0.01155042188603582 
0.01155042188603583 
0.2200435189240921 
-0.9897648996762751 
-0.06646773919810689 
0 
0 
-0.04622510503780525 
0 
0.4700466680365271 
-0.56634421317476 
0.2598016191964084 
0.009624368882203568 
0.3406451163352848 
0.2475877529230754 
0.0949612663033913 
0 
0 
0 
0 
0 
0 
-0.01136849094934289 
0.4726558893866626 
0 
0 
0 
0 
0.2600098309212387 
-0.6954471716474797 
0.2975025170764979 
-0.5602637374547785 
0.0832182868195423 
0.450143025698282 
0.08132652640450796 
0.5936953417066099 
-0.1344956667494553 
-1.434228275618655 
0.170809964102004 
0.3515924343155119 
-0.6786922282298844 
0.09741569055816778 
0 
-0.3890544406562748 
0.06821917625944493 
-0.7377150031503019 
-0.3527079081046236 
0.4062390640383162 
0 
0 
0.1545929657486431 
0.07369477895523396 
0.547582512049137 
0.04867164769052953 
0.4696505246783883 
0.4477680491436432 
0 
0.2949699160419038 
0.3418303220528809 
0.0153901990208625 
-0.2879047981582858 
0.2982450576773273 
-0.1873217833030392 
0.1926381380114703 
0 
0.06895138199582984 
0.06895138199582984 
0.7303386490846303 
-1.042753949644771 
-0.03616106533705646 
0.4780604524659766 
0.0108665806242042 
0.2736106895851352 
-0.6110577023779764 
0.1109381595660578 
0.1109381595660578 
0.2443038134352368 
0.673146252552708 
0.4485476370055093 
-0.3733522160908231 
0.8233238462337923 
0.2120554802707072 
0.2212508883189002 
-0.5109034797262391 
-0.8751727402623066 
0.1564808935866355 
-0.8482597235514475 
0.170299322684365 
0.0261739808448237 
0 
-0.03150182654250167 
0.6067338517369545 
0.5915973272706021 
-0.5078019119352066 
-0.6417478315952738 
0 
-0.2651043279336722 
0.1009766173754083 
0.3470395581418393 
0.1506982574376195 
-0.02121548787479934 
0 
0.1970673443552108 
0.1499798459511473 
0.4503707757095886 
-1.083198471510547 
-0.5408570385789033 
0 
0.2599550182263081 
0.03096859689984219 
0 
0.07330654662938946 
-0.7504728363898463 
0.3613484511426994 
-0.04369638503731404 
0.567156765882678 
-0.4638672691664533 
0.3492380687514111 
0.003967951484561465 
0.0902999454450283 
0.2884659560846402 
0.583600583618628 
-0.1544364197629205 
0.6363803749633483 
0.02372460941156733 
0 
-6.938893903907228e-18 
0 
0 
0.0146946728476348 
0.006092814097026649 
0.1102098168709222 
-0.1425759358310427 
0.3559697761796659 
0.003192624969663329 
0 
0.3074503608451561 
-0.3699568814902021 
-0.4941571877184907 
0.2510658648831225 
0.3338669684235361 
0 
0 
0.3409709736270108 
0 
0 
0 
0 
0 
0 
0.08364144646900032 
0.08364144646900032 
0.09681815632054246 
-0.05850476624318855 
0.530344307141992 
0.259896744312797 
0.176635460403897 
0 
0 
0 
0.1998976186836664 
0.5958001825743077 
0.2425309066077608 
0 
0 
0.5203697096312151 
0.07268899336253724 
0.004790153991064958 
0.4585575066133461 
0.4585575066133461 
-0.03766703301395341 
-0.8889350564027229 
0.001496608247879505 
0 
0.04255987087241154 
0.09609818693562949 
0.3156905913356165 
0.4157219565745163 
-0.1663720152765996 
0.6431417316606159 
0 
-0.1813381496505146 
0.2503191718409685 
0.496079153771439 
-0.1476525748707117 
-0.4623896886190565 
-0.3772947800486969 
-0.3388350139893837 
0.1469136879299127 
0.2591933643609275 
0.1048241387896573 
0.01074063790040269 
0.009324446268205029 
0.2810590574218868 
0.3105024542185758 
0.4054606748074707 
0 
0 
-0.6377325852628424 
-1.295839578603712 
0.1804811181262827 
0.5533848818131745 
0.3933644589674782 
0.7634891022484287 
0.08017598789217555 
-0.8028467664898951 
-0.8039278576500837 
-0.2073713662996647 
-0.8532162024434016 
0.0326487104347659 
-0.3362326819281629 
0.3349273497646023 
-0.1178535185196458 
0 
0.508122020582768 
0.0637272130835162 
0.09659532091725398 
-0.2789652203424856 
0 
0.288217789712494 
0.07710043929995956 
-0.3104599189610068 
0.3642804349183469 
0.259710318476234 
0.2599636962100026 
0.1275042701908212 
0 
0.3171234557341626 
-0.6071043978169741 
0 
0.05262840601030435 
-0.3092801850164024 
-0.1810098663341271 
0.2442620636691553 
0.254114580975092 
0.3982743083674967 
-0.2131964162030495 
0.2963887887112002 
0.1540076746654251 
-0.3434870696177821 
0.1825512823180453 
0.4140251122680517 
0.3091590173254514 
0.6006187915928194 
-0.169585152348654 
0.1365779351760013 
0.5944941356942673 
0.05259145122074096 
0.1256151908095046 
0 
0 
0.390472312728928 
-0.5329824220500872 
0.8301989173821481 
-0.9160549851598443 
0.3823847511228426 
0.5030112618685328 
0.1152725877553098 
0.1161202622371949 
0.6180597285638676 
0 
0 
-0.1729354931808594 
-0.5817962136202528 
-0.193168907268114 
-0.5817962136202528 
0 
-0.4821135949805923 
0.02513350021593208 
0.6561607315544773 
0.3305380514718933 
-0.2814306290572109 
0.2475273775762916 
0.4380559179876986 
-0.06443361899183066 
0.6591323557130705 
0.05917162258904817 
0.1815176389003715 
0.2599281577546518 
0 
0 
0 
0 
0 
0 
0 
0 
0 
0.2599141134706349 
0.2814881776513707 
-0.1054152505476534 
0.1574016805304532 
-1.159098599251339 
0.4291234373811244 
-0.6292191724301102 
0.4102587575981071 
0.3452702267294557 
0.3593353415649653 
0 
0 
0.1468674234036934 
-0.314488878954561 
0.1798425837076456 
0.3529339924366871 
0.1908093660640366 
0.1880660164236229 
-0.2728911540643439 
0 
-0.9398347772775941 
0.23182423882767 
0 
0 
0.1416644255422618 
0.05791409273537274 
-0.8247164728459594 
-0.08092299727297515 
0.1212940971229981 
0.1488702628713865 
0 
0.4515738535588927 
0 
0 
0.03804056322963799 
-0.122138860249896 
0.2865230043266194 
0.3890174315593912 
0.1651349956683112 
0 
0 
0.2719854116340852 
0 
0 
0.2601207508666647 
0.09118104220117278 
0.4289082605395601 
0 
-0.3514099507446971 
0.2188530701817198 
-0.6302706251955978 
0.464643972122937 
-0.3545746795746588 
0.3299525949399937 
0.1558951207925839 
0.5411600637952142 
0 
-1.18716943002763 
0.09820850087345515 
0.4685598407878633 
0 
0.1592089810300947 
0.0922253711022735 
0.0922253711022735 
-0.2575663287778057 
-1.225063144413639 
0.1638156259663372 
-0.5093767047939993 
0 
0 
0 
0 
0.285613985327524 
0 
0 
0 
0 
0 
-0.8009423855227474 
0.1868629878675658 
0.1464918980389472 
-0.04074616814084974 
0.0480426428233756 
-1.274890580868291 
-0.02738277157082136 
0.2599150551003505 
0.3926096452237786 
0.4466241300035851 
0.3682020785792929 
0.4085730506591586 
0.1237089484243211 
0.3974625025450219 
0.02275157206094577 
0.02275157206094577 
0.3242672018686072 
-0.3447427152605023 
-0.7322637755518158 
-0.5656502045095758 
-1.329131696672007 
-0.09212233840978906 
-0.0629690338355563 
1.198573327142309 
0 
-0.2791555393500637 
-0.7860855746637274 
0.9012836348608837 
0.2055353985918927 
0 
0.07626476509955288 
0.1073212297864214 
0.9152816457411931 
-0.4411085015662338 
-0.4737056292713068 
0.4599456694714907 
0.3152648511129408 
0.05669604352387791 
0.1587889949674843 
0.2690004696512059 
-0.3654809948748883 
0.688843221227778 
-1.082255769371018 
0.9388900511569599 
0.06216417680746159 
0.2850248061877657 
-0.819378823670537 
0.4045842775561899 
0 
0 
-0.6988601417623836 
0.01006292974382586 
0.09524252145426275 
0.09524252145426275 
0 
0.2793670110278572 
-0.1332856189740413 
0.4879294241628662 
0 
0.2187575893766313 
0.2771045428221606 
0.2047197027220074 
0.5164584815747435 
-0.4262575437827201 
-0.103027389558235 
2.081668171172169e-17 
0 
0 
0.4377989401791227 
0.3340629314778702 
0 
0.8680863007272923 
0.08178612356085091 
0 
-0.3245707646625279 
0.3502113296042967 
0.8819676484803515 
0.2778537922136292 
0.2706268260080789 
0.1102012909408326 
0 
-0.1843423016547729 
-0.8901159267222445 
-0.4813244661830262 
0 
0.6713495580097143 
0.1582327001509408 
0.06045882110469028 
0.06045882110469028 
0.3498276682871533 
0.7414588919301986 
0.5471138712051488 
0.5054744648620668 
0.4948920009750587 
-1.387778780781446e-17 
0.3292330376494307 
0 
0.08654691304460625 
-0.574879479201813 
0.262749018403421 
-0.7146097801956288 
0.3994344554427718 
0 
0.2542691715306645 
0.5881148972414557 
0.2900182808102076 
0.1763008657982331 
1.096425301110989 
-0.4879797410163971 
-0.08957103907871383 
0.2809910195103612 
0.2599390221099417 
0.09935882889881871 
0.6634571140411409 
0.4396457817932027 
0.1261913626728485 
0.4741437162901461 
0.4774194275342955 
0.1509513505189575 
0.2597862498393589 
-1.145738511085829 
-0.3607855065741248 
0.3927420643734869 
0 
0 
0.539386736901504 
0.4445032410098979 
0.1123590040761941 
0 
0 
0.3690572675797871 
0.3690572675797871 
-0.1264395861763001 
0.1402060094613837 
0.1402060094613837 
0.2767019406357213 
0.2767019406357213 
0.2767019406357213 
0.2879518177684662 
0.03491402501830986 
0.3120206941495263 
0.3736642979919855 
-1.474514954580286e-17 
-1.474514954580286e-17 
0.03179544120020239 
0.150445789645194 
0.831213317770703 
-0.498637904186751 
0.3189602289089045 
0 
0.008127326555108443 
0.4334899918856171 
0.3083958831590179 
0.5874282588042617 
-0.03568899544100743 
-0.0955964925165783 
0.1019693604179296 
0.208980542670217 
-0.2237591963117561 
0 
0.1941266137951395 
0.5379761394858326 
-0.2505440573779382 
0 
-0.5963732313520621 
0.5381701258217841 
0 
0 
0.191334727488353 
-0.4839963554610655 
0.1060777694948837 
0.1060777694948837 
0.1060777694948837 
-0.2769651752274791 
0.3117365785196564 
0.6744773337348602 
0 
-0.2782598690997462 
0.1267866666154679 
-1.220330992210712 
-0.08690723463374973 
0.0516379869554137 
0.2612612190288886 
0.0484642390257966 
0 
0.3515817792559615 
0.167057051240196 
-1.033794540894583 
-0.2676475679582468 
0.167057051240196 
0.5130611154196243 
0 
-0.5435857148090036 
0 
0.1008978461912522 
-0.2064941415166664 
-1.015338502956903 
0.7378140255262898 
0 
0 
0.3285775047297058 
0.1857746191962442 
-0.5231765438264847 
0.2714966722837401 
0.2159052967828905 
0.2159052967828905 
-1.295715752456339 
0.2159052967828905 
0.2159052967828905 
-0.4583458347658516 
0.2159052967828905 
0 
-0.2031295103559537 
-0.09190077866723856 
0.2599345405220186 
-0.5517196469255602 
-0.2807519252556093 
-0.6962345024888668 
-0.4889021126092049 
-0.4549809010639837 
-0.4549809010639837 
-0.5226581031144748 
-0.9946698468803088 
0 
0.3172001911657923 
0.1559581812363962 
0.1559581812363962 
-0.27110615496268 
0 
-0.6156715373443699 
-0.4706532871866181 
0.07913501553655156 
0.2245670931597113 
0 
0 
0.4356959205842338 
1.489980175872793 
-0.1881814385625016 
-0.248951977262755 
0.7651862210025364 
0.1452969937587809 
-0.2979593293322738 
0.1997681936157552 
-0.721735267772131 
-1.077015595644868 
0.2454959271876035 
0.01380314430917984 
0.2373633957419192 
0.2598564530468685 
0.174527489389693 
0.1956312053989349 
1.110223024625157e-16 
0 
-0.775721820362416 
-0.7686528124147897 
0.1106944900092606 
0.1271260712596695 
0 
0.2291968308923411 
-0.1438993559019476 
0 
0.4451195801647677 
0.242836295247085 
-0.3314683756577481 
0.242836295247085 
0.3040442289338 
0.4168900532584241 
0.3276640516520313 
-0.369176109996102 
0 
-0.8175304488827043 
0 
-0.5738820230344887 
0.5880201125367122 
0.02475101344995018 
0 
0 
-0.3578772705652022 
-0.1297801462007372 
0 
0.002162539046264176 
0.3199593771582659 
0 
0 
0 
0 
-0.06604574597961879 
0 
-0.4843192188883289 
0.09902488179116253 
0.3963746035987756 
-0.05334851748591893 
0.2983596193871954 
0.06165395226390186 
0 
0.6196126850129539 
0.5499250622675833 
0 
0.1442467514084138 
0.2600434708875428 
0 
0 
0.5726026844739438 
0 
0.3284350099951705 
0 
0 
0.7088733503780772 
0.7701402711950565 
0.1134931004487752 
-1.269727327171658 
-0.07799323312346967 
0.2242641538925275 
0.3065324611476418 
0.2096201863265733 
0.1745446758211533 
0.3944917550996421 
0.7314720487007631 
0.1114136773323292 
0.1114136773323292 
0.1114136773323292 
-0.540983208988645 
0.04852427911928155 
0.3013342555440566 
0 
-0.4462515795391038 
0.3566391744330654 
0.2687055355843856 
0.2599105075907009 
0.5776263857275106 
0 
-0.06626344365199159 
0.4353672985912723 
0.3520533376292178 
-1.112962596630062 
0.2888083077624529 
0.03493068029232929 
0 
0.3962885566421935 
-0.03605175099283743 
0 
-0.1661219275209329 
0 
0.2988795682554684 
0.4756178063946233 
-1.160774828504727 
0.008770964888306337 
0.1177161169611979 
0.05722804968606374 
0.1557409431516907 
0.2752755541867321 
0.04593421652738568 
0.04593421652738568 
0 
0 
0 
-0.8107642549136647 
0.06334787668052161 
-0.2677170900708899 
0.1009766173754084 
-0.2212441817127628 
0 
0 
-0.177477371799215 
0.1684226079874707 
0.7286871685830022 
0.5788619572625154 
-0.04498190684709033 
-0.1503287058440921 
0.1976473308079627 
0 
0 
0.0605443689813833 
0.004642542076897115 
0.01360003817184341 
-1.468833807838661 
0.3631977390443238 
0.05015379903939809 
0 
0.3272065009797313 
0.1302319052684169 
-1.073239343808148 
-0.09135635178711166 
-0.08268276496110039 
-0.873689941168352 
0.06507181739646131 
0 
0 
1.270628376467032 
0 
0 
-0.3820791273265157 
0.09926809880115552 
0 
0.2087160145656979 
-1.40907243346306 
0.2176055011292329 
-0.8450630063069025 
-0.8152520472237716 
0.8035700750926457 
0 
0.5762522043834575 
0.4111867288981327 
0.4111867288981327 
0.512707994744797 
0 
1.071435953834768 
0.5655435882746627 
0.1696118588185332 
-0.1045580490112372 
-0.1045580490112372 
0.4223185288987755 
0.5839790154877458 
-1.146246983960183 
0.267597406947032 
0.4396225434540508 
0.08212188751465238 
-0.7897607531629203 
0.3067921700705583 
0.1767513919758104 
-0.1877161027565451 
0.4720462191352909 
0.2145960362843907 
0.3214453681672877 
0 
0 
-0.2681867986984799 
0.05887430140295878 
0 
-0.9144123692437263 
0.2276700320092633 
0.1196322917439374 
0 
1.026756973481701 
0.09461332939801617 
-0.4776602618955738 
-1.442740977588279 
0.1696390026881789 
-0.5808551284204522 
0.1055615837037865 
0.155936432880505 
0.155936432880505 
0.03081914021853458 
0 
0 
-0.6401630091986973 
0.3784941470245694 
0.6505931823383847 
0.07105001151181453 
0.2600349690475265 
0 
-0.3278250859760379 
0 
0 
-0.5316121490485675 
0.1113267620979888 
0.1113267620979888 
0.1113267620979888 
0 
0 
0 
0 
-0.3272293801298104 
0.002645723368185637 
-1.0098361170509 
0.9023082047806062 
0.6236346700840349 
0.0959255387756093 
-0.1783838599217463 
0.3584121088211659 
0.04725429467662936 
0.04725429467662936 
0.06465694944798209 
0.04725429467662936 
0.04725429467662936 
0.2320214107360519 
-0.2315042329009138 
0.6302203385918466 
-1.094839617194752 
0 
0.4012413749432956 
-1.06974321508066 
0 
0 
0 
0.1064466013988281 
0.2539619958931512 
-2.40692882291782e-17 
0.872928942381384 
-0.6373173428880956 
-0.0939637692524587 
0.2525147122119691 
0.3540657141670543 
0 
0 
0 
0 
-0.3297407229808318 
0.7142981208328925 
0.003075515501455049 
0 
-0.5803662099546075 
-0.7143161829943069 
0.0817924931128156 
0.002805078583011484 
0.29918164262587 
0 
-0.08048922447235685 
0 
0 
0 
0 
0 
0 
0 
0 
0 
0.3377572092633271 
0 
0 
1.061953640745071 
0.3342339003375142 
0.9136991103712715 
0.1005410529572208 
0.1674370202889774 
0.368444868602729 
-0.181398415066119 
0.2943921988696939 
0.2810350728118005 
0.03921328251837036 
-0.3886976099772422 
-1.05469190856045 
-0.2911292194437573 
0.5241423591793481 
-0.1093800609072593 
0 
0.60455163947192 
0.1472353713758291 
0.4943237088676369 
-0.4251102310243329 
0.7094606958553563 
0 
0 
0.2982472719715994 
-0.139153293258414 
0.2346365455477512 
0.3296957044140194 
0 
0.1920517442502386 
0 
0 
0 
-0.1107615609040531 
-1.123195138848148 
-3.469446951953614e-18 
0 
0 
-0.3694175530243913 
0.6050047497192099 
-0.3546923013175278 
-0.1354436500120797 
0.1935527738490551 
0.0625443009334052 
-0.08870926971236437 
-1.391621034085166 
0.6614225485910398 
0.6959319908398471 
0.6330459357719587 
-0.231019492403169 
0.104308500078819 
0.5259891600057367 
0.1396969489674498 
0.1396969489674498 
0 
0 
0 
-0.1576375519151942 
0 
-0.4630274134392782 
0 
0.3739743177416041 
0.1175335725244368 
0 
0 
0 
0 
0 
0 
-0.9719653259356833 
0.5032309352703958 
0.05198339144117759 
0.1269853470130388 
0.1294666467047282 
0.3165223069660998 
0.135079732148956 
0.1427010573183934 
0 
0.352944926403026 
0 
0.3329617221977422 
-6.938893903907228e-18 
-0.2223833163869309 
-0.6843678350315381 
-0.4261736447225919 
0.4808993698594711 
0 
0 
-0.7279926127464883 
-0.5561452356325378 
-0.1980135529753135 
0.1785975119574598 
1.015908760886631 
0.2974922178800662 
-0.3155636986088599 
0.3652649028640241 
0.1392876847559955 
0.4188508953587089 
0 
0 
0.3645678758425929 
0.02322562631869434 
0 
0 
0 
0 
0 
0 
-0.4291303172494673 
0 
-0.07718429968873419 
0 
0 
0 
0 
0.2369362771070293 
0.06117795353652564 
0.4580216801502637 
0 
-1.094466076410654 
0.3621411903363982 
0.3409709736270108 
-0.5788067759912827 
-0.1064758231484497 
0.3475478698256589 
-0.3315433237248965 
0 
0.2080789832713699 
0.08672704146470245 
0.08672704146470246 
0.08672704146470246 
0.08672704146470246 
0.260008483315111 
0.2610648777245362 
0.8604923831768498 
-0.03147328219826448 
-0.985171377252904 
0.3129330964179977 
-0.08626372760486598 
0 
0 
0 
0 
0.07320959062659507 
0.1351656524449336 
0.01784242525548914 
0.2350402124257387 
0 
0 
0.2240680413776257 
-0.9142559735911794 
-0.1815526221782003 
0.1877770567437676 
0.1877770567437676 
0.1877770567437676 
0.6082122654447898 
0.008452294659325201 
-0.3617763376473987 
0 
0 
0 
0 
0.2128525472157282 
0.9500797658921623 
0.3519010430207588 
-0.419331559763094 
0.1693286067047173 
0.1693286067047172 
0.5068991875154432 
0.3259917150040572 
0.229387063583678 
0.1470739471218755 
0.229387063583678 
0 
0 
0.9054709303997182 
-0.02272129337140852 
0.02401232341428527 
-1.167449763281345 
0.6345712266246684 
-0.02078065225170045 
0.1426481616292206 
0.4223283950987669 
0.2174114958573142 
-1.073396132153792 
-0.07663307581228473 
-0.6319149979085041 
-1.077846856309634 
0.2574502739575669 
-0.1230006184467192 
0.3620285367231013 
0 
-0.5170002847377547 
0.6597976678152664 
0 
0.6791711693526963 
0 
0 
-0.07426007898506545 
-0.2278966341423387 
0.2599717261455211 
0.504861596928313 
0.03197501935962985 
0.2700309181468376 
0.4098578125302086 
0.4098578125302086 
0.5480424696047178 
0.5480424696047178 
0.1238788764399345 
0.1238788764399345 
0.1238788764399345 
0.1238788764399345 
0.0109026390248162 
-0.8904625258133689 
0.3037211149432702 
-1.240869558215932 
0 
0 
-0.01893016777097455 
-6.938893903907228e-18 
0.3569897338821339 
0.04592028136203237 
0.2752135205566254 
0.04592028136203237 
0.2078169841668266 
0.3882893086499721 
0.3882893086499721 
0.3271185426568182 
0.790575639324173 
-1.135264429869214 
0.300978691806413 
-0.5798386390889828 
0.6291263130679624 
0.7438702676037289 
-0.907393019737979 
0.005329233782544449 
0 
-0.2780448329753755 
0.220533146682881 
0 
0.2289288408500368 
0 
0.2631553767867998 
-0.2884250507113944 
0.5166874164977482 
0.07057396779396531 
0.07057396779396531 
0.450714855579235 
0.242444818207795 
-0.2403720492152533 
0.1559711036780014 
0 
0 
0.5864007606960475 
0 
0.5257772285589494 
-0.3472039713352926 
-0.02183637286214923 
0.2747417090566122 
0.515585163268751 
-0.5661095300392625 
-0.7091511097380139 
-0.3667853433429004 
-0.04512339872989553 
0.4795979522700012 
0.4106733401708461 
0.08441150915048123 
0 
0.1820270332202419 
0.3475320587464305 
-0.3985696743596344 
0.540601851612324 
0 
0.1529645452823607 
-0.1831501151562027 
-1.019917855400919 
0.2815025259337647 
-1.019917855400919 
0.1481332217401525 
0.08928830553775788 
-0.4611293792931089 
0.4129919136725947 
-0.1081435064204059 
0 
-0.2263174321641607 
0.8029659956437227 
0 
-0.4052908778785381 
-0.01288995635711649 
-0.01288995635711649 
-0.01288995635711649 
-0.01288995635711649 
0.09107899417868956 
-0.01288995635711649 
0.1051219842167832 
-0.01288995635711649 
0.332243747266132 
-0.1843699725544322 
-0.304115617041715 
0.2008703631222981 
0.2599099994901016 
0.02892225161585616 
0.3571598056740122 
0.3175391607886308 
0 
-0.4613524013630257 
-0.3466084468272606 
0.2801921916946242 
0.2801921916946242 
0.2801921916946242 
0.2801921916946242 
-0.07677576485806206 
-1.188559391580337 
0.2441460266391629 
-0.2174521329547516 
0.543554526991348 
-0.3760070059408509 
-0.1041122376708404 
0.5714997818725516 
0.4084405565348141 
-0.827036375874764 
-0.3767618154123835 
-0.61442507534469 
-0.7544803710198844 
0.9860447760390311 
0 
0.6926423122094807 
0.3505157694296366 
0.3607864143601829 
0.3607864143601829 
0.3607864143601829 
-0.5713812820268845 
0 
-0.04265337914019612 
0.04707316753269163 
0.04707316753269163 
0 
0 
0 
0 
0 
0.5528080228116711 
0 
0 
0 
0 
0 
0 
0 
0.3748422547825376 
0.2935769274704416 
0.6616409506171688 
-0.1803752770936654 
-0.9549016291238714 
0 
-2.602085213965211e-18 
0 
-1.26661725271259 
0.3953560531645252 
0 
-0.2214104894446477 
0.1107056233040808 
-4.119968255444917e-18 
-9.71445146547012e-17 
0.2711193814700839 
0.07370073800110041 
0 
-0.4944231719758375 
-0.4944231719758375 
-0.03254926366369876 
-0.4944231719758375 
0.03282710533703698 
0.278161028835995 
0.06507181739646128 
0.1731077772358985 
-0.3485194512748545 
0.1731077772358985 
0 
-0.3203548702441996 
-0.09069032438395758 
0.4567786696168256 
-0.8509673346526759 
-0.1128035913028618 
0.5340827559981464 
0.3897187632194096 
0.4654338835083092 
-0.06583403725777867 
-0.07606575907518343 
0.1834142577357905 
0.1834142577357905 
-0.6997585709297843 
0.3329758750110295 
0 
-0.6416934429520486 
0.02723270430293511 
0.02723270430293511 
0.02723270430293511 
-0.1379018235332836 
-0.9829517339756667 
0.09992269952837241 
0.09992269952837241 
0 
0 
-0.3472239521484114 
0.3321200635230007 
0.3371146779463751 
0.3371146779463752 
1.266903601211109 
0.3610593782231175 
-0.1543385845056151 
0.0500877129090216 
-0.3807768004121049 
0.2849028814192654 
-0.2940878828726471 
0 
-0.3753384483542634 
0.453963608586746 
0.453963608586746 
0.453963608586746 
-0.8314830244166269 
0 
0.3779557820372369 
0.1206457634785643 
0 
0.001548486385983958 
0 
0.4047353546130803 
0 
-0.4415593087714179 
-0.5487909394642548 
-0.1060201648721508 
0.0719444774341296 
0 
0 
0.0583371368589106 
0.0583371368589106 
-0.2169849628255538 
-0.02266886970429523 
0.7739005120314721 
0 
0 
0 
0 
0 
-0.4951078334000409 
0.3724983907388704 
1.203099816749092 
-0.5383922847717033 
-0.2441626880490025 
0.3338457257107924 
0 
0 
0.4311236030764749 
0 
0 
0 
-0.05600618993922524 
0.01707108418423746 
0.6690368788236956 
0 
0 
0 
0.1953869674232475 
0.2287067941822259 
0.7737700621385192 
0.2106026655263803 
0.2599732897784072 
0 
0 
0 
0 
0 
0 
0 
0.1173961874613776 
-1.077304186498621 
0.2917046349397722 
0.3005116670789222 
0.2299210895941731 
0 
0 
-1.734723475976807e-18 
0 
0.439593453244792 
0 
-1.073357511222448 
0 
0.4204971738153876 
0.135319753422093 
0 
0 
0 
0 
-0.1757388962163171 
0.2259637971534625 
0.2259637971534625 
1.387778780781446e-17 
0.7627701361827015 
0 
0.2600431959915034 
0.1969354811286583 
0.1711139486750765 
0.3959028385321484 
0.6290356475379566 
-0.1794838488874324 
0.1561152264908633 
0.1561152264908633 
0.1826071217374859 
-0.6302961401859661 
-0.6302961401859661 
0.172484036854225 
0.07911233109462396 
0 
0.08338959765598965 
0.2165642646288294 
0 
0.1523449209863325 
0.02970557404535503 
0 
0 
-0.5765854361089777 
-0.5765854361089776 
0.694407157548529 
0.447117191635114 
0.5295646612317768 
0.2538948812601542 
0 
-0.3347150118072343 
0.3341249862855969 
0 
-0.3539175851399113 
-0.1884173793277008 
0.3631863636364356 
0.1254425095285465 
0.1235980440109236 
0.1235980440109236 
0.1955452455105215 
0.6379009671261061 
-0.5675379940881149 
0 
0 
0 
-1.128114305557211 
0.11811064812249 
0.3971245950878588 
0 
0 
0 
0.1267790893334887 
0.3592986917898174 
0.2416208330608814 
0.9787729679521313 
-0.4463033670270781 
0.7977287619452644 
0.2098730007692521 
-0.1512258004813101 
0.2324474574908674 
0.5337288511768601 
-0.1461012336904177 
-0.7959283473087125 
0.1659098594812393 
-0.02516937531986937 
0.1659098594812393 
-0.949276057792953 
0.4232094856759386 
0.4232094856759386 
0.2430853556035175 
0.2430853556035175 
0.1165248501119379 
-1.073452221255991 
0.2599129848137665 
-0.3262618310203643 
-0.3262618310203643 
0.9304552497312985 
0 
0 
0.4417519794513615 
0.07923875298915943 
0.2523913951313844 
0.243432927102256 
0.243432927102256 
0.5664122018705422 
0.3596783656984878 
0.2396649660409601 
0 
-2.51534904016637e-17 
0 
0 
0.2601051996265756 
0.1872398982837471 
0 
0 
0.5336769242849583 
0.1104583944101233 
0.3395782104053467 
0.3012574110943944 
-0.7916658394135079 
-0.03027667854157567 
0.4962514243665259 
0.7394248496257553 
0.09041841459014427 
0.1385164452613238 
0.2491825726763213 
-0.6129329354266029 
0.5099709516755153 
-0.5674619624225474 
-0.3545197356821089 
0.1289081392534198 
-0.009278172572020611 
0.260149488804347 
0.2598287208861307 
-0.7144832294418161 
-0.1523256112932121 
0.3357895271871485 
0.09479119241451756 
0 
0 
0.3443605261059808 
0 
0 
0 
0 
0 
0 
0 
0.3227594438517175 
0.2866933654381687 
0.4796175672129412 
-1.173239980888942 
0 
0 
0.4737053099324393 
0.5950175422791096 
0 
0 
0 
0 
0 
0 
-0.4157983632015255 
-0.526898047268174 
-0.526898047268174 
-0.106064107723198 
-0.1402724048779243 
0.9872591187882237 
0.30709207104925 
0.1540348188806746 
0.6409684721963859 
-1.594909399931229 
0.28753334264078 
0.2195612735996121 
-0.4399575439825674 
0.2243808946641219 
0.1346021244387805 
-0.2579125734665922 
-0.4416491830072045 
-0.3863639856002458 
0.3111216023182036 
0 
0.1113787155658423 
0.1113787155658423 
0.1113787155658423 
-0.2099858828568917 
0.351702981508026 
0.351702981508026 
0.2602173365368547 
0.6064567308852993 
0.3259996833234253 
-0.6647552407508077 
0.6063234111015404 
0.1386821550173255 
0.8844583134536177 
-0.3218127094718847 
0 
0 
0 
0 
-0.3004911116448731 
0.1897564839930261 
0.2729277189184623 
-0.1315301558074594 
0 
-0.3564386917001825 
0 
-0.6939591394671647 
-1.073404089170056 
0.2954622319920245 
0 
0 
0 
0 
-0.4639840450679744 
0.5739751344860825 
0 
0.2598879742390201 
0.1781950263406424 
-0.9212467609248612 
-0.07843543226586838 
0.4231985457797931 
0 
0.4011573141801157 
0.26015279600414 
0.3498403893801155 
0.5605030378067559 
0.3379086651579807 
-0.3501147224059702 
0.05279061875293747 
0.05279061875293747 
0.2599822930407874 
0 
0 
0 
0 
0.3538902761536414 
-0.5761574496666555 
0 
0 
0.3855545468557174 
0.105208187305308 
0 
0 
0 
0.07385351122715968 
0 
0 
0 
0.2524956089759832 
-0.3077371269514335 
-0.3077371269514335 
0 
0 
0.2072917056960247 
0.3449340979849798 
-0.4527339071986203 
0.004256921196329324 
0.004256921196329324 
0.004256921196329324 
0 
0.05059031231738211 
0.05059031231738211 
0.06739919711217236 
0.2797025564446849 
0.2797025564446848 
-0.1373318680748558 
-0.5399471898735451 
0.311805100919776 
0 
-0.4699914829618268 
0.5731726986619177 
-0.3777412037297685 
-0.1209212354167219 
0.6817443046712368 
0.1921921379618681 
0.259888021903474 
0.2420963191942517 
0.2597555221308341 
0.343125804179 
0.3108565782253758 
-0.6122222751200054 
0.9187527303247065 
0.08819575157164664 
0 
0.0596860581456529 
0 
0.3966341560573799 
0.5002008673301266 
0 
0 
0.006974584461046339 
0 
0 
0.7573090680624002 
-0.6000320976793152 
-0.6000320976793152 
-0.2130819647672062 
-0.5168679942868745 
0.5127079947447972 
0 
0 
0 
0 
-0.8045773650981279 
0.0555913755008498 
0.0555913755008498 
0 
0.5767777824371153 
-0.2027850249560218 
-1.098197925210495 
0 
-0.1457200452519979 
0.1669831058057356 
0.1669831058057356 
0.1669831058057356 
0.1669831058057356 
0.1669831058057356 
0.1669831058057356 
0.1669831058057356 
0 
0 
0 
0 
0 
0 
0 
0 
0.0350546040203728 
0 
0.02776214419871932 
-0.3516695269407416 
0.8466759068777823 
0.6002716561184875 
0.3996351041101579 
-0.6332474240172699 
-1.333786412779292 
0.4114990954975911 
0.2489648441544427 
0.3371647171034863 
-0.08443072690603028 
0.1641407144631346 
0 
0.2277986091544861 
0.2716852374347172 
0.3966697555785091 
0 
0.1950755628169911 
0.366884676388489 
-0.440435874735104 
-0.4736423083133804 
0.4613663280393812 
0.1946406434372184 
0 
0 
0 
-0.2632522657285142 
0.7944615487601685 
-0.2927828643215905 
0.1334408112290324 
0.1263691099531565 
-0.4362180000102789 
0.1914395691733273 
0.106869929756709 
0.1453300817887475 
4.77048955893622e-18 
0.128735966605223 
-0.07761208974744616 
0 
-0.07668589667047201 
0.2251563171939286 
-0.19237077652051 
-0.9317464233713542 
-0.345361759322107 
0.2755191620774631 
0.3655843046628552 
0.3655843046628552 
0.3317800901869989 
-0.7025701151392627 
1.086459532768705 
0 
0.498622344527696 
-0.1161629205398998 
0 
0.6836700449240364 
-1.185462431081502 
-0.1860019116086323 
0.9399911368213971 
-0.6745240163068236 
0.5895038574663845 
0.07641286361483149 
0 
0.1386639070462752 
0.1386639070462752 
0.2371250161442017 
0 
0 
0 
-0.5499369161254192 
-0.3545956737397271 
-0.5486950789619257 
-0.9408609459789675 
0.6134153294503977 
0.1216277422610287 
0 
0.3387541041663871 
0.008024006832847038 
0.2244580711250707 
-0.4063737217612469 
-0.2610091811515647 
-0.3364989484860688 
0.6225079547537489 
0.007087963720851798 
0.3280107263254736 
-0.592547199644322 
1.327055591512729 
1.48789376819696 
-0.9723848192306915 
0.040883225124368 
0.040883225124368 
-0.8473665912987214 
0.040883225124368 
0.2259494396405458 
0.2259494396405458 
0.2259494396405458 
0 
0 
0.4505448939934115 
0 
-1.01748170863377 
0.2721658882446674 
0.1841509288521202 
-0.1410483818445259 
-0.3362286013016507 
0.5931220797805712 
0.03187193104331806 
-1.003106496637776 
0.5531846584518706 
0.298323758906498 
0.2190102117943717 
-0.2378266802050365 
-0.4191965100634873 
-0.2917176423316311 
-0.3477972198831487 
-0.5024432285890064 
0.169092210578076 
-0.1092532771256195 
-0.6079097317554019 
0 
0.3342657862562193 
0.400993727385603 
0.1141761835931021 
0 
0.5158315920862795 
-0.6439567747719295 
0.1912093192403758 
0.6794174896227722 
-0.2874558716115755 
0.4888778918866598 
0 
0 
0.4572519812014747 
0 
-0.1159632271497573 
0.4638679077410029 
0.3120426539371717 
0.2855103136695287 
0 
0.2580066607505773 
-0.6440687048369731 
-0.6440687048369731 
0 
0 
1.535793949016142 
0 
0 
0.3129599457464546 
0 
-0.4178477183683691 
0.05007923383020575 
-0.2533672375334278 
0.008018231800233529 
-0.4783349647868705 
-0.1699258403749593 
-0.3816659084633676 
-1.082293511054078 
0.6456304367430945 
0 
0.4310351971609834 
0 
0.3592074331402585 
0.5165874852988096 
-0.4744295475580668 
0.2843935994019577 
-0.215259192245162 
-0.5169268648983895 
-1.125685079885618 
-0.4256925877849803 
0.9037749689702508 
0 
-0.9652626895112121 
0 
0 
0 
0 
0.2157400436571998 
0 
0.296807176087365 
0 
0.4756277512198435 
0.4519298019992548 
0.1584171433314101 
0.06920664473372151 
0.7676078388058403 
0 
0.7943651155832896 
-1.195092514744083 
-0.5868804967564012 
0.2004314532545255 
0.05240688177052111 
0.05240688177052111 
0.05240688177052111 
0 
0 
0 
0 
0.0724909320913398 
-0.1511095115744704 
0.2062581714116234 
-0.5301213572511575 
0.03210622908549922 
0 
-0.8155174418078962 
0.3389606071889346 
-0.1147393274936947 
0 
0 
0.3694439612435022 
0.3494523045541379 
-0.3876279009939716 
0.1797610031056571 
0 
0.3857640555523181 
0 
0.3980425471609935 
0.4643143692038174 
0.7814553132549803 
0.4328811947475276 
0 
0.1736362852561393 
0.2991871064586243 
-0.584368498261986 
-0.5637249191593749 
0 
0.2734061078991158 
0.2913463972512139 
0.3393725172453966 
0.2598512329662286 
0 
-0.4436330140171346 
-0.2720053457168263 
-0.8335938790364441 
0.3191122430348756 
0 
0 
0 
0 
-0.1620249149484395 
0.4579358772711314 
0.294046050011204 
-0.485980269805692 
0.5226314057212463 
-0.0007810220130440491 
0.5957577798648555 
-0.6796995898780208 
-0.9109844140754646 
0 
0 
0.06597934768839937 
0 
0.357933713636845 
-1.267670355955425 
0 
-0.390562008890559 
0.2595813500958981 
0 
0.2643857123335953 
0.0947911924145175 
0.0947911924145175 
-0.9294827584737382 
0.5020650585103096 
-0.007852609036167704 
0.5020650585103097 
0.2973595968603598 
-0.114461682473804 
0 
0 
0.4787763037830392 
0 
0.4190549791735644 
0.2549985809230872 
0.1587180861976936 
0 
0.2721966297844087 
-0.2571068200505644 
0.4192687728385442 
0.07326470865911576 
0.07326470865911576 
0.07326470865911576 
0.07326470865911576 
0.07326470865911576 
-1.277285373191992 
0.6398638396133657 
0.07326470865911576 
0.07326470865911576 
0.07326470865911576 
0 
0.03332879897834093 
0 
0.6033714395364553 
0.1501062992943082 
0.2300612536865253 
0.1544976088256186 
0.5384015790978567 
0.2516564322247162 
0.3327170452890632 
0.2577975070185989 
0.09016989301991386 
0.09016989301991386 
0 
-0.08528152532233445 
-0.1768798533812687 
-1.490777987167569e-18 
0.5699739485703254 
1.340593193921202 
0.2424022215184043 
0 
0.1549691244664798 
0 
0.1612712807412706 
0.1612712807412706 
0.4633786839841809 
0.1617186868251629 
-0.1782940058770537 
0 
-0.4380929166792385 
-0.192850718488763 
0.1509981141592353 
-0.2998625655807952 
0 
-0.1159464844269827 
0 
0 
0.8524924053580536 
0.4451004247663696 
0.1560011746586749 
0.1560011746586749 
0.5711030468927097 
-0.5000829209981376 
-0.5000829209981376 
0 
0 
0 
0 
0 
0 
0.1983259847914613 
0.1983259847914613 
0 
0.2565120334056426 
0 
0 
-0.2921318685290618 
-0.4540120013936164 
0 
0.2877020079670186 
0.2877020079670186 
0.2929460632592762 
0.01173534534371229 
0 
-0.1514897238764844 
0.07711557508686964 
0 
0.6671781397105073 
0.2596886539616708 
0 
0 
0 
0 
-0.961695702198036 
0.4024753862382103 
0 
0 
-0.2380165147135567 
-0.943352367853172 
0.1030069381274007 
0.1030069381274007 
0.9256627824029734 
0 
0.02985451917724202 
-0.06287058717080113 
-0.1491194125469817 
0.2596305968038332 
0 
0 
0 
0.5185716058288697 
0 
0.1237143520679282 
0.08735311019580352 
0.09784238397481206 
0.06373827098754309 
-0.297406000222028 
0.2158187916652683 
0 
-0.4033582247447355 
-1.295384998056568 
-0.2675735954388349 
-0.3104046674584427 
0.1037437122981054 
0 
0 
0 
0.2668453992966145 
0 
0 
0 
0 
-0.242021548770278 
0 
-0.08007222663721339 
0 
-1.069321123484301 
-0.1990984888844713 
0.2420183652643637 
-0.7551709411306404 
-0.4973929119772947 
0 
0.4179564305122342 
0 
0 
0 
0 
0 
0.02199779803966649 
0.3632198377863574 
0.9737573372954866 
0.3300071014576789 
-0.7594968652278788 
-1.048193169128804 
0 
0 
0.2743327547245084 
0.006815545757850038 
0.1759422592438039 
0.2710489293497501 
0 
0 
0.200915396343794 
0.1467630029918355 
0.1311683356850843 
0.2598966719191445 
-0.4119172186649707 
-0.6458735231542565 
-0.2939337161665171 
0.2876458397349418 
0 
0.1407621975069929 
0.1407621975069929 
0.1407621975069929 
0.2349724391810945 
-0.6170987065450282 
0.1407621975069929 
0 
0.1114192085227769 
0.1114192085227769 
0.1114192085227769 
0 
0 
0 
0.4760751127007702 
0.3772421152927625 
-0.5962197995607011 
1.162150460666044 
-0.09992753953875284 
0.5059266403759831 
0.4335390559423478 
0 
0.5291375873177329 
0 
0.2036232768994017 
0 
0.05487691872863632 
0 
0 
0.1498953857313393 
0.1460388295098129 
0.5236559859903409 
0.389150225781984 
0.649527710016226 
0 
0 
0 
0 
0 
-0.411932839038232 
0 
0 
0 
0 
0.2850116429339264 
0.2850116429339264 
0.2068330246770377 
0.2068330246770377 
0.161073127281213 
0.161073127281213 
0.161073127281213 
-0.3625011149497565 
-1.162709631943987 
0 
0.2092707525276533 
0.2130892114395337 
0 
0 
0.4110472676717752 
0.9477199348481737 
0 
0.3404497484142742 
0 
-0.6631014601672195 
0.06583266990392588 
0.2862556009437575 
0.2195023138173634 
0.2195023138173634 
-1.020929359567046 
0.5370235254152838 
0.4273339967736485 
-0.3833682038799597 
0 
0 
0 
0 
0 
0 
0.2919978539603729 
-0.243044999298 
0.2919978539603729 
0 
0.1876766558141411 
0 
-1.541955623142534 
0.7368161294707724 
0 
-0.3885778506721897 
0 
0.1184511271322036 
0.3178942536569304 
0 
0.3167449364082738 
0 
0.1482584133477416 
0 
0.1545577714436915 
-1.698666495068686 
0.2707317930052474 
0.1445951958027755 
0.1733106988194867 
0.124670175589671 
0.2860883777230862 
0.07462994651950208 
-0.7942104513865985 
0.06025095565618908 
-0.6861809461145375 
0.02555290522028927 
-0.73022256423336 
0.1492500691072202 
-0.73022256423336 
0.1773198553852304 
-0.5194460678337518 
0.1428848499746641 
0.8009289245453847 
0 
-0.6357790732388511 
-0.7145230104206153 
0.05907333133492004 
0.1580454244879368 
0 
0.03793423757699466 
0.03793423757699466 
0.3166970395798901 
-0.6441243579192567 
-0.6441243579192567 
0.3696612769946853 
0 
-0.1830342750875283 
-0.01776600711285223 
0.4927813623637787 
0.1865396049101997 
0.1865396049101997 
-0.5405461398388585 
0.3460932361839597 
6.938893903907228e-18 
-0.2418137272374687 
0.7790380183170722 
-0.2073883766696976 
0.4197622119198995 
0.01725759997086983 
-0.1568342616491627 
0.01725759997086983 
0.2426303381313518 
0.5796847927159174 
0.401778168299426 
-0.8285318991830362 
0 
0 
0 
0.3805930677771642 
0.2157703635865716 
0.2157703635865716 
-0.1593503720101065 
-0.8178904980843479 
-0.351785406903514 
-0.2029243755381128 
0.3329617221977422 
0 
0.5465807167970493 
0.1831287187272831 
0.1088367558162755 
0.1600403136864151 
0.05147299970528817 
0.05147299970528817 
0.05147299970528817 
0.05147299970528817 
0.05147299970528817 
0.05147299970528817 
0 
-0.106003116636404 
0.3929052091434335 
-0.6932619912998713 
0.283705958656371 
0.101746966868485 
-1.130276285871948 
-0.1959696981934118 
0 
-0.1110878711902127 
0.4037016451118203 
0.2576927091306572 
0.2262782389298517 
0.5558530542883439 
0.1080377402653256 
0.2340332338744472 
0.008568477448374343 
0 
-0.2798100784242525 
0.2600378563224003 
-0.5766318806618392 
0.5018981147145088 
-0.77022613982462 
0.6258218290066772 
0.1039073966155056 
0 
0.2397292163524797 
0.2397292163524797 
0.4432441145698133 
-0.4413152406055301 
0.07648399769065649 
0.07648399769065649 
-1.073395183966947 
0.2716096785008567 
0.234160571620297 
0.1896451227423099 
-0.4613325099444993 
0.003340554132783655 
0 
0 
0.2262292407107868 
-0.2938501599966333 
0.8286538592480204 
-0.005062880893419774 
-0.4743890084112265 
0 
0 
-0.2313223963771843 
0.2892415955916257 
0.3817044887596729 
0.5756367352611296 
-0.3731666372574042 
-0.01158090058422326 
-0.7930146516563661 
0 
0 
0.5184568537986928 
0 
0.3546893759923111 
0.1994674043013662 
-0.7439768911823043 
0.6373189190864836 
0 
0.2004380014040126 
0.2979569316944144 
0.2602774195116548 
0 
0.6430954654899459 
0 
0 
0 
0 
0 
-0.6853264093136922 
0.810686685297903 
0.8266673801174858 
0 
0 
0 
0 
0 
0 
0.3643780382436463 
0.7373579146777454 
-0.403806924055546 
-0.0001160862826059192 
-0.1961600056486418 
0.6772552660334021 
0.3676912370880598 
-0.5108382951839361 
0 
0.6213455701231569 
0.06019440902255691 
0.3090509976047076 
-0.7382833731405364 
0.3553695589692794 
0.3090509976047076 
0 
0.2085007835417807 
0.1209016170286412 
0 
0 
0 
0 
0 
-0.5655600117637387 
0.529695895456921 
-0.2644358296527625 
-0.1297644520382978 
0.6611217573130261 
-1.014688173920814 
0.5962738050673578 
-1.633219802763332 
0.1135345980142999 
0.2069495243775425 
0.2004243537841944 
-0.08797849279201711 
0.203381155431929 
-0.2347075033411117 
-0.5151752009689028 
0.290690464463053 
-0.5904612086139941 
0.07556048968589898 
0 
0 
0 
0 
0 
0.04555257451160976 
0 
0 
0.4888988617139021 
0.4888988617139021 
0 
0.04631856136457183 
0.03165368321005078 
0.443568922352078 
-0.3230071213264806 
0.04532134878017732 
0 
0 
0.01409121685354375 
0.3720168044078 
0.05379284818395123 
0.1398600714395554 
0.1296449334694537 
-0.02827387560147321 
-0.8281517480674456 
0.6101255921457296 
0.4249832261808644 
0.2383656928441296 
0 
0 
0 
0 
0.169658771874208 
0.3371079126974016 
0.2397016668418951 
0 
0 
-0.8944243750222696 
0 
0 
0.5742731465680735 
0 
0 
0 
0 
0.2001498606139654 
0 
0.03897433221945863 
0.2903455903861671 
0 
0.5168047965828543 
-0.3398086869526339 
-0.2525151247560289 
-0.5294912515634368 
-0.577522079235895 
0.2533051591765946 
0 
0.2411905432363122 
0.2411905432363122 
0.2720092506261638 
0.1502259964521629 
0.1502259964521629 
0 
0.6078362345428593 
0.009135018360465326 
-0.3078039720440507 
0 
0.04392121639383017 
0 
-0.4311260834109238 
0.04619195348259353 
-0.5901916722603178 
-0.5901916722603178 
-0.5901916722603178 
-0.2946370095796555 
0.3249158315007358 
-1.03064235246002 
-1.854683107967781 
0 
0.05285381496717895 
0 
0.153143767786229 
0.5882691748307146 
-0.4073788488917874 
-1.170888618827088 
0.2185400379516203 
0 
0.3927828213580016 
0.6799541985911698 
0.09254641448453511 
0.1587376574550256 
0.09254641448453511 
0.3986436402063072 
-0.2513624894901296 
0 
0.5421679087851102 
0 
0 
0 
0 
0 
0.2598890010689828 
0 
0 
0.07099640929454289 
0.04073649424659409 
0 
-0.923341487538805 
0.1239856317123203 
0.1110976444987542 
0.2968246298653389 
-0.6691247639613207 
0 
0 
0 
0 
0 
0 
-0.1075505175938258 
0.2532152695380491 
0.0355896046172443 
0.1359833318578595 
0.3482371087810625 
0 
0 
0.1296790382097496 
0 
0.03182092646960592 
-0.962427756254875 
0.1477740227596175 
0 
0 
0 
0.1416710966250139 
0.002301523163628223 
0.002301523163628223 
0.002301523163628223 
0.1966796498116881 
-0.397570287848396 
-0.4394510037906513 
-0.2344603906446566 
0.9946453826400889 
0.1203365351515339 
0 
-0.02073968236498814 
-0.5183559997515826 
0.009445711776224049 
0 
0.3032533671318677 
-1.419470871328484 
-0.7871083504388302 
-1.161979113735234 
0.338993385055771 
0 
0.6820424850216785 
-0.4614848683934866 
-0.9578147634311257 
-0.4900286613049159 
0 
-0.4039815813960143 
0 
0 
0 
0 
0.09796804479881165 
0.0317449314012412 
0.603740134544445 
0.2549542258491974 
0.3613484511426994 
0 
0.8518016504116583 
0.008243963318189286 
0.4656978166443295 
0 
0 
-1.202902632983039 
0.2181230433771398 
0.57110304689271 
0 
0.7728009460180533 
0.1561130906115003 
0.1561130906115003 
-0.4042254938065299 
0.3385249514364998 
0.3385249514364998 
0.5585334795830477 
0 
0.2599770633178125 
0.02466574580157494 
0.1830268447509883 
0 
0 
0.1845316272639485 
0.2699542928437156 
-0.8573568125882163 
0.6230088677286851 
-0.2252175815191197 
0.3288123769646509 
0.3288123769646509 
0 
0 
0 
0.1542188842159773 
0.1852915567883945 
-0.02739512135444717 
0.5408571918740726 
0.1278886674938475 
0.3679723308007268 
-0.7680318552781383 
0.7502149352172583 
0.3006871732466823 
0.2686570615821388 
0.4500571588007894 
0 
0 
0.259677895078027 
-0.3343482744403797 
0.1961003378310121 
-0.4797778176759664 
0 
0.08736791093269897 
0 
0.09575003264415019 
0.09575003264415019 
-0.6429245439933695 
0.06417493663464942 
0.1207107495104452 
0.2386053624882027 
-0.006066002228787851 
0.01755530671394337 
0.01755530671394337 
0.01755530671394337 
0.01755530671394337 
-0.2523704077959789 
-0.1632863525334001 
0.1101936676204742 
-0.8369056967933214 
0 
0 
0 
6.938893903907228e-18 
0.2839386309611909 
-0.8209270900693829 
-0.8209270900693829 
0.06605649030482187 
0 
0.9487473993371816 
-0.9719546496009861 
-0.05803837271653054 
0.05101607683319017 
0.05101607683319017 
0 
0.2602996995246534 
0.7669777683283735 
0.1249169705586991 
-0.03381031310350602 
0.05248025105387612 
0.2298963531248225 
0.02758645472741002 
0.2021362710892992 
0.3969172632050311 
0 
0 
0 
0.4320789059250766 
0.300321528164737 
0 
0 
0.6787228093828116 
0.004708110046450121 
0 
0 
0 
-0.3657584004889305 
1.562847767695501 
0.6583944088441068 
0 
-1.067664297122956 
0 
-0.1063575903747475 
0 
0 
-0.001061072674569563 
0 
-0.1894956212137058 
0.4125056953001748 
-0.7211697824776035 
0.3929052091434335 
0.3929052091434335 
0 
0 
-0.1500035364979383 
-0.2844026854048131 
-0.7689853811329226 
0.01538789317761311 
0 
0.156002901968277 
0.156002901968277 
0.3271980914353847 
-0.5562213057162038 
0 
-0.1008915068355418 
0.3976344004296584 
0.4151681461181395 
-0.196863954766682 
0 
0.08280110354041326 
0.08280110354041326 
0.1529501452668348 
0 
0.2319163765748113 
-0.6678593479772506 
0.2598313381022342 
0 
1.027348439300119 
0 
0.1807146547543022 
0 
0 
0 
0.6739785443464941 
0.2598800257851091 
0 
-1.090109979094438 
0.04136060016221886 
0 
0.02192466784001644 
0 
0 
0.1012208978291463 
0.1012208978291463 
0 
0.1016343005523334 
0.2972281720611221 
0.2972281720611221 
0.1864425534181372 
0.1864425534181372 
-0.4855984488639375 
0.1864425534181372 
0.1864425534181372 
0 
0 
0.05881679595418823 
0 
0 
0 
0.09142615564078549 
0.09142615564078549 
0 
0 
0 
0 
0.3979095091505525 
0 
0.3823403048545926 
0 
0 
0.04055668813604565 
-0.3676538613643116 
0.5764923490916257 
-0.9761728709783384 
0 
0.2598559053435259 
-0.7195128465533926 
0 
0 
0 
0.1903646446274432 
0.1381363023590108 
0.1381363023590108 
0.1381363023590108 
0.1249062461525579 
0.1249062461525579 
0.2321391034461151 
0.4575235513262638 
0.2043353258946445 
-0.9388878755554185 
0.176635460403897 
0 
0.6923813605962854 
0 
0.3592456660809997 
0 
0.03195000001321247 
0.2523966806419842 
0 
0 
0.2598248495059624 
0 
0 
0.1444440262661328 
0 
0.2687771080269115 
-1.023527252764011 
0.1498953857313393 
0.6548014018120613 
0 
-1.197424888857813 
0.7616587998693235 
0.7616587998693235 
0.3283243567792497 
0.06117795353652566 
-0.6771165943003442 
-0.163974121630011 
0 
0 
0.01268010892567068 
0.01268010892567068 
0 
0 
0 
0 
0.5863057411751544 
0.7377243391789046 
0 
0.1552033980456549 
0.3342918200829308 
-0.4558349484342933 
-0.7837855088579749 
1.079980290524603 
0.1832587179966527 
-0.6040972223039803 
0 
0.2809482945447002 
-1.073341098509064 
-0.2105236573258917 
0 
0 
0 
0.1801974057407973 
-1.030600622652047 
0.3394127387255015 
0.4152271196591071 
-0.5348414137034079 
0.3927352037295281 
0 
0.2534925413020986 
0 
0.4596387383379004 
0 
0 
0.09906735454807424 
0.2536749731756318 
0.1627653468134989 
0.536461404220556 
-0.3930880642442335 
0.08734373707432827 
0.08734373707432827 
0 
-0.8216415207351119 
0.03673784427289856 
0.3671373038588899 
0.1710785926770039 
0.3138777069700753 
0.2902412184787349 
-0.8118317914578567 
0.9953643761501236 
0 
0.1882929638605836 
0 
0 
0 
0 
0 
-0.2806175638083297 
0 
0 
0.1701302909387854 
0.1927937927746161 
0.03786558248263011 
0 
0 
0 
0.2045065066766637 
0 
0 
0.4319824119477884 
0 
0.6246333457219307 
0.1210688817709546 
-1.073317372524557 
0.2671877202527199 
-0.02650032810788963 
0.2704228671643043 
0.3158361190148493 
0.4124710925222289 
0 
-0.9744581172977205 
0.1702100319189108 
0.1464712771002288 
0 
0 
0.2363414904475178 
0 
0 
0 
0.7751203427767437 
0.1259047001511811 
0 
0 
0 
0.353835808360913 
0 
0.4614187870849882 
-0.521242782433617 
0.1928883168759958 
-4.510281037539698e-17 
0.02642749835812594 
-0.134752993721367 
0.5909119082257933 
-0.1989393638801374 
0.2811089766040772 
0.3534232177605841 
0.3534232177605841 
0.2830017682952257 
0.2830017682952257 
0.2163907751051602 
0.2830017682952257 
0 
0.4814490986662199 
-0.240341902346996 
0 
0 
0.5841293349226785 
-0.4265375957162008 
0 
-0.180975254616089 
-1.125129058064091 
0 
0.4890968652497971 
0.1817085818102276 
0.1439849902896362 
0.1439849902896362 
0.189143137171252 
0 
0.1996105508716875 
0 
0.2596357098875226 
-0.8008946384742333 
0.7959884909358763 
0.6977129026550122 
0.6977129026550122 
-1.249252197051566 
0.5652486367941729 
0 
0 
0.2813082937287441 
0 
-1.181679713685605 
-1.310540761546521 
0.3263265627611636 
0.11275899299529 
0 
0.2087890593192574 
0.2087890593192574 
0 
0 
0 
-1.329637714448973 
0.3116796820980632 
0.1055615837037865 
-0.2030203093918798 
-0.2592716266008873 
0.5096047864618903 
0 
0 
-0.05017325166081069 
-0.4617196025771157 
0 
0 
0.3296924999138605 
0 
0.03849060175461267 
0.2713624784617025 
0.03877438640012888 
0.03877438640012882 
0.03877438640012888 
0 
0.5514071039460906 
1.017665209493159 
0 
0.7518913535485064 
0.1364602351612315 
0 
0 
0.5131431162079121 
0 
0.2567106665047771 
-0.5093953017495597 
0 
0.1315535575180438 
0.1419792933097675 
0.107540602919378 
-0.6523414748299945 
-0.2212820218295526 
0.08671841645781385 
0.08671841645781385 
0.08671841645781385 
0.08671841645781385 
0 
0 
0 
0 
0 
0 
-0.1077194783314166 
0.1386882487693268 
-0.3055728090878887 
0.3062564467834485 
0.2850891374201706 
0.08803773723659231 
0.6709635317125616 
0.08042081650480966 
0.443568922352078 
-0.9894271080962411 
0.1037589467918222 
0 
0.05104760404521345 
0 
0 
0.6459715293829044 
0.6459715293829044 
0 
-0.3050489339151169 
0 
0.191567295538463 
0.1560014737484774 
0.1560014737484774 
-0.2927979439944278 
0.2598280024471676 
0 
0 
0.0405160557027817 
0.0405160557027817 
0 
-1.092268759142545 
-0.6730999045258631 
0.3525380940051415 
0.3976782531312217 
0.9867031559126755 
0 
0 
0 
0 
-1.073617121967414 
0.2160537907570684 
0.1169686370891884 
0 
-0.3972588538987325 
-0.5300710190441464 
0.229196830892341 
0.8635847272481901 
0 
-0.854592842815924 
0.5724831483268407 
0.259761452390717 
0.4034180055879547 
0.2852244655590126 
-0.02370578417981445 
0.4933284864790628 
-0.3529268216416246 
-0.3529268216416246 
-0.3529268216416246 
-1.053969580748719 
0.2890302312369951 
0 
1.057669743661928 
0.1649618457648155 
0.1499072777989106 
0.3433619480523671 
0 
0.5800826321254969 
0 
0.7811203623708668 
0.3659071692750801 
0 
0 
0.3681229428604715 
0.3681229428604715 
-0.7998770139084194 
-0.4315039272960324 
-0.3239633243766541 
0.544750752037616 
-0.4315039272960324 
0.3516892365735912 
-1.070878474649773 
0 
0 
0 
0 
-0.3881254143488729 
-0.2306387575945165 
0 
0.3483464037723902 
0.1048798223018328 
0.1048798223018328 
0.1048798223018328 
0.1048798223018328 
0.5309267172859294 
-0.2193309244428344 
0.4059532161581569 
0 
0 
0.1145900406596614 
-0.4725204752307391 
0 
0 
0 
0 
0 
-0.9537552288735655 
0.4868131770808968 
0 
-0.7988064030823777 
0 
0 
0 
-0.06682488863901732 
0.3432255359600153 
0 
0.1127667118840101 
0.6487550393388719 
-0.2720367263041319 
-0.2229194181265076 
0 
-0.2256721034279153 
-0.1422092591278878 
0.0765961866035984 
-0.8395228671980541 
0 
0 
0.07247816449250069 
0.07247816449250069 
0 
0.1743059850413471 
0 
-0.09075637825146399 
0 
0 
0 
-0.77378942835228 
-0.77378942835228 
0.1511371006673621 
0.1511371006673621 
0.402625845620079 
0.01392974733699721 
0.3052002824858925 
0.01392974733699721 
0.3724551903829327 
0 
0 
0 
0.02818475926124887 
0.1404932427016092 
0 
0 
0 
0 
0.2564308394141531 
0 
0.3318373558936677 
-1.146369906148559 
-0.5432054305585411 
-0.5432054305585411 
-0.5432054305585411 
0.1885774656962734 
0.02755947724165139 
0.4920001961531375 
-0.01125747918337594 
0.4920001961531375 
0.2601947422285826 
0 
0.2524412280473904 
0.1497011552657593 
0 
0 
0 
0 
0.05058483175322756 
0 
0.2289373105260114 
0 
0.1371437807940941 
0.01926234368132971 
0 
0 
0 
0.2092408480813419 
0.1764118096013267 
0 
0 
0.2173416706452155 
0.1560226724784353 
0 
0.119452428391831 
0.1457558014968572 
0.1571235061866161 
0.2081756249063471 
0.3649367864285891 
0.1312010374868449 
-1.379906146964516 
0.1996105508716875 
0.006010749263524874 
0.006010749263524874 
0.006010749263524874 
0.006010749263524874 
0.006010749263524874 
0.006010749263524874 
0.006010749263524874 
0.2874681967973217 
0.9151982601809244 
0.5529079078227669 
0.5529079078227669 
0.5529079078227669 
0.05742592262239837 
0.1575398773563821 
0 
-1.073477933306311 
0 
0 
0.04397801288396486 
0.1939090597289653 
0.1474004797381791 
0.8238320508982883 
0.1577837265671696 
-0.1352596655170153 
-0.6195221774391279 
0.482424756990934 
0.1549060447197273 
0 
0 
-0.6248359478136514 
0.009354466385085044 
0 
0.2202507356519015 
0.1053246304233673 
0 
0 
0.1277347978970668 
0.5864007606960475 
0 
0 
0 
0 
0.6286177753023878 
0.6286177753023878 
0.7635467666386505 
0 
0.5374252559857935 
0.00418360813257152 
-0.923023167489928 
-0.867369363986417 
0 
0.4329713739358272 
0.1658883752279262 
0.9505992267416722 
0.1658883752279262 
0.1658883752279262 
0.1658883752279262 
0.1658883752279262 
-0.4953547213118752 
0.4120831661288231 
-0.01485159388318221 
0.146601352670033 
0.3555122131860257 
-0.4591183071639482 
0 
0 
0 
0.1113890332191582 
0.1113890332191582 
0.4369007367834821 
-0.8159513470415933 
-0.6313441962908408 
-0.8159513470415933 
-0.2648742958958168 
0.2600017618733143 
-0.9022566626810156 
0 
0.4416746446679036 
-0.1032283830956177 
-0.4806592181480135 
0.2602056868934003 
0.3977492239570208 
-0.2306804782194928 
0.1287704836672136 
0.592312744561675 
0.2599326988965732 
-0.2099314422982228 
0.2714182588100032 
0.6884004066637605 
0 
0.4543128642670632 
0 
0.2945633695382406 
0.3470871327059766 
-0.8989530899022147 
-0.8989530899022147 
0.640184437891902 
0.2599066230491047 
0.155895120792584 
0 
0 
0.545028355228923 
0.1021878638664123 
0 
0 
0 
0 
-0.3948100448795209 
-0.3948100448795209 
-0.3948100448795209 
-0.4680484771601743 
0.3959188794987065 
0.3119193764183495 
1.295020488772638 
0.09270551047052897 
0.09270551047052897 
-0.4216012984961757 
-0.1547684217576497 
-1.37586760206209 
-0.7177587969146592 
0.2738185263160046 
0 
0 
0 
0.5036890767544105 
0.5036890767544105 
0.1898697908554057 
0.1898697908554057 
0.3409737434673234 
1.734723475976807e-18 
-0.9086518896223742 
-3.122502256758253e-17 
0.3263898698174089 
0.2922300023117009 
0.3581653359244932 
0.3581653359244932 
-0.8550785131696287 
-0.05871058662034195 
0 
0.1970677392701559 
0.1825512823180452 
0 
-0.5912757972582739 
0.07038631434254296 
0.4668804475720368 
0.05881830703023624 
0.2895517183152844 
0.2855877302880269 
0 
0 
0.4553287335455725 
0.09405082874050494 
0 
0 
0.01845705578430085 
0 
0.2410828376813898 
0.3136609528472534 
0.3136609528472534 
-0.6899661070694602 
0.3136609528472534 
0.6471747829689076 
0.4252170124296004 
0.5551326481824963 
0.554072587127199 
0 
0 
0.4117806442962668 
0 
0.1368505184499006 
-0.3850154477111321 
0.1368505184499006 
0 
0.2599623846380067 
0.2395025196496263 
0.1392102038679839 
0.3342560921026864 
0.3257977164169262 
0.3389507185163375 
0.4392861351557603 
0.0661912429704905 
0.0661912429704905 
0.0661912429704905 
0.0661912429704905 
0 
0 
0 
0 
0.03960916802138004 
-0.9737392278371081 
-0.3012589599847417 
0.4610900855901694 
-0.3818444926309677 
0.2549542258491974 
-1.073482236646197 
-0.933465892398299 
-0.6107888284248638 
-0.2215426833097248 
-1.073630293541723 
0.4861407519260965 
0.1226393469409774 
0.1226393469409773 
0.1226393469409774 
-0.4865688849538408 
-1.032486359159113 
0.07447620125663294 
0.07447620125663294 
0.7189709796156539 
-0.6273674757402325 
1.113891924064457 
0 
0 
0 
0 
0.5886465297373484 
-0.03459139537571732 
1.007157218856452 
0 
-0.2185189765968132 
-0.929683541653596 
0.2675034691496646 
0 
0 
0 
0.5954904455904916 
0.5003951826636743 
-0.7228365738173304 
0.7631110464434935 
0.3126843685966771 
0.1709709429499555 
0.1709709429499555 
0 
0 
0.5895102681767844 
0 
0.00992090334428595 
0.5773257924365379 
1.21887585428055 
0.5418727592056048 
0.5418727592056048 
0 
0.253517541236631 
0.02755051105543155 
0 
0 
0 
-0.286230875202465 
0.1602403832693549 
0.1602403832693549 
0.4395556078608894 
-0.5615546007120794 
0.4599694142788349 
-0.07183525333057525 
0.05046884948089976 
0.1576130451673597 
0.1488515460087325 
0.1903291668714986 
0.2594139873799472 
0.2598731210063936 
0.2821251987260442 
-1.411549676179379 
0.7150103224047699 
-0.3526338979946209 
0.9139325294875711 
-1.135370581684869 
-0.2316927828784236 
0.05245859199422556 
0.6773876621364459 
0.268599614348752 
0.2685996143487521 
0.28496062957732 
0.2001468428866287 
0.203163485238579 
0.2001468428866288 
0 
0 
0 
0.07290519439892969 
0.2804103246381338 
0.4610855865137426 
0.7869810399442539 
0.2303495042157898 
0 
0.02320885591592583 
0.02320885591592583 
0.02320885591592583 
0 
0 
0.1555795200342663 
0.1555795200342663 
0.1555795200342663 
0.8759956578456529 
0.6427750560131361 
0.2684523692565078 
0.1587180861976936 
0 
0.340914036942173 
3.469446951953614e-18 
0 
0.1027400727816315 
0.5324262709315398 
0.1711139486750765 
0.02785820968116365 
0 
0.1476965159754996 
0.4083779042735071 
0.3181412778109426 
0 
-0.4966442200237381 
0 
0 
0 
0 
0.2850366704626054 
0 
0.317747683120729 
0.317747683120729 
0.8366597477039767 
0.330775908513487 
0.2528072701609171 
0 
0 
0 
0 
0.2425277085524836 
0 
0.782439152852526 
0.2600820691252016 
0.09832993245695572 
0 
0.1041984542781377 
0.164688430418006 
0 
-0.8575311581755232 
0.05068870336818002 
0.05068870336818002 
0 
0 
0 
0 
0.1941153597259058 
0 
0 
0.05015801385309276 
0.2581822163961768 
0.3234987386071068 
0.3128784047892632 
0.3128784047892632 
0.3128784047892632 
1.436245742173862 
0.1103695669647574 
0.2599198258849547 
0.1392179522032042 
0.4176473025022981 
0.3593458928041957 
0.3593458928041957 
0.6393828898133825 
-1.073608888853957 
0.05115786941978252 
0.539386736901504 
0.1518525182192562 
0.3846053407518832 
0.3846053407518832 
0 
0 
0.5579014888342547 
-0.1694538931417558 
-0.1694538931417558 
-0.3673803025867489 
1.111211129222768 
-0.8883764609841549 
0.1680213054359055 
0.3889140767776512 
0 
0.03268221912016223 
0.1475852205003291 
0 
0.02736461144382203 
1.040834085586084e-17 
0.5190884362899451 
0.453685224553335 
0 
0.113270234495226 
0 
0 
0 
0.4769424169637257 
0 
0 
0 
0 
-0.4020541926821674 
0.1949163050852873 
0 
0.04544218305047773 
0 
0 
0.6300070029903175 
0.4455909092749608 
0 
0.6104885907280874 
-0.7388001492191471 
0 
0 
0 
-0.4509813063568052 
0.7589578017426686 
-0.1636155094673205 
-0.4800752516881371 
-0.4800752516881371 
0.1168012498364779 
0.1014223024626577 
0.01278812299069766 
0 
0.1596145024061985 
0.06688082043179321 
0.1652422654990492 
0.2552710576459447 
0 
-0.5429470202447982 
-0.5429470202447982 
-0.5429470202447982 
0.2139417496789837 
0.008204841597695182 
0.04211588366948377 
0.04788266642669649 
-0.3474794315103212 
0.04788266642669649 
0.04788266642669649 
0.04788266642669649 
0.04788266642669649 
0.5646047449172618 
0.3119125861501764 
-0.09470512149201929 
0 
0 
0 
0 
0.546105649780978 
0 
0 
0.1419205620146854 
0.1560908222250593 
0.1560908222250593 
0.2015242769880841 
0.5003013074715835 
0.06552291684868612 
0.06801513169780721 
-0.5094769596769546 
0.4042153404852313 
0 
0.2411399688934421 
-0.4203255722128214 
0.3880413786536345 
0.08513320156048387 
0 
-0.92868305572703 
-0.1172635350589623 
-1.505062037291473 
0.6772632076513472 
0.444838482715776 
0 
-1.001530353508305 
0.2735826860498568 
0.002470319162847615 
0 
0.2180238589036356 
0 
0.08707928784565239 
0.08707928784565239 
0.05007171777296431 
0.2337105167622538 
0.4583869534183395 
-0.7502749287681738 
0.4583869534183396 
0.1109493351059331 
0 
0 
0.1951877824098731 
0.1951877824098731 
0 
0 
0 
0 
0 
-0.2272360844601737 
0.2521793858044025 
0.2521793858044025 
0.5289994791240697 
0.2599240066935317 
-0.1552463876810829 
0.2713595193065873 
0.2226927851696962 
0.1012867617619287 
-0.1208184691476004 
-0.5072734218786525 
0.3194006636036314 
0.4473846394051219 
0.2230809598204507 
0.1113485419352526 
0.1113485419352526 
0.1113485419352526 
0.259922998090488 
0.2849110565614361 
-0.2707613227293154 
0 
0.161622431497749 
0 
0 
0.3473651605343109 
0 
0.039453026843937 
0.3572244042665098 
0.2386360786716992 
0.2766033671198115 
0.06959352562244915 
0 
0.3570193299757141 
0.3859972891788852 
0.4706810259901145 
0.04867164769052955 
0 
0 
-0.03423884022096929 
0.1917281899602302 
0 
0 
0.2400694052053244 
0.0142803978660287 
0.0142803978660287 
0.0142803978660287 
0.0142803978660287 
-0.5946223591232529 
0 
-0.547109527637172 
0 
0 
0 
0.4908233515834566 
0 
0 
0.178971763709575 
-0.1069125116892958 
-0.5268600518232947 
0 
0 
0.2872267089515771 
0 
0.5779293511414906 
-0.6810120418861141 
0.08672883894657157 
0.2801489949549005 
0.2599967108330649 
-0.08685020101522348 
0 
0 
0 
0 
0.1732784541324056 
0.1732784541324056 
0.1227728038726153 
0.1227728038726153 
0.2600102598959807 
0.3759504689809516 
0.5232027279597122 
0.04118806257272095 
0 
0 
0.1127667118840101 
-0.3364378546952618 
0.2599853265924388 
0.309431398314152 
0.4630538311236198 
-1.053662830726721 
0 
-0.001625205157623759 
0 
0.01539019902086251 
-0.5951713618674627 
0.09868406176319201 
0.0002719178131060223 
-0.6903589504161474 
0 
0 
0 
0.454354168721146 
0 
0 
0.1945088454818454 
1.387778780781446e-17 
0 
0.06150811632927719 
0.0615081163292772 
0.2599590819491719 
0 
0 
0 
0.1558312540699891 
0.1558312540699891 
0 
0 
0 
0 
0 
0 
0.5788233147989645 
0 
0 
0 
0 
0 
0 
0 
0 
0.0322542399037178 
0.543618881857542 
0.2432756157887929 
-0.0194680602624638 
0 
0 
0 
-1.358697162009872 
0 
-0.8558097442793011 
0 
0.2700925602897576 
0 
-0.4248004102647476 
0.7897841473274285 
0.168362529745631 
0.168362529745631 
0.168362529745631 
0.168362529745631 
0.04112419013603964 
0.3563507234400543 
0 
0.2599444956377865 
0.09289304261449892 
0.09289304261449892 
0.4282712128843669 
0.01538789317761311 
0.8017061187422858 
0 
-0.2772281534522802 
0.3058975416001082 
0.3058975416001082 
0.5533848818131741 
-0.4022735429485759 
0.1162980628802939 
0 
0 
0.05165329128882215 
-0.555047222604059 
0.4217883307793573 
0 
0 
0 
0 
0.1661089046775177 
0.2339777930396139 
0 
-0.004529204208821745 
-0.004529204208821745 
-0.004529204208821745 
0 
0.2237385735953945 
0 
0 
0.9686447715290541 
-0.5433021627286285 
-0.75798134289078 
0 
0 
0.2597606110821524 
0.313437840828207 
-0.8015093571221825 
-0.8015093571221825 
0.2600809381844659 
0.1289905200513265 
-1.304952180431217 
-1.280406052238621 
-0.3324377045668653 
0.3202221412445394 
0.2502762802837324 
0.1559745298626284 
0.1559745298626284 
0 
0 
0.2438550122873923 
0.2596242490767016 
0.2137409060056876 
0 
0.4460121827584592 
0.09793461945367221 
-0.04633428382383353 
0.05396485735672853 
0.05396485735672853 
0 
-0.9359315269986958 
0.05206633447045939 
0 
0 
-0.9587935761072659 
-0.2564490168109643 
0.2225485553350615 
0.02952643252116753 
0.5818433200630729 
0 
0.08938573798799787 
0.08938573798799787 
0 
0 
0 
0 
0 
0.1103695669647574 
0.1902313012089079 
0 
0 
0.380522681683708 
0 
-0.2726434749505657 
-0.2726434749505657 
-0.5593421005759287 
-0.2041575595089985 
-0.6970106213545982 
0 
0.2426316747391726 
0 
0 
0.1231250180202384 
0.7765716620954116 
0 
0 
0 
0.2601008591498434 
0 
0 
0 
0 
0 
0 
0 
0.07153082664790431 
0 
0.1211510003544502 
0.32960365526407 
-0.255288492070811 
0 
0 
1.059491391270951 
0 
0 
0 
0.07581438093360576 
0.07581438093360576 
0.07581438093360576 
0.07581438093360576 
0.07581438093360576 
0.16881136884997 
0.16881136884997 
0 
0 
0.7936438903097194 
0.4859956895063058 
0.2691975227964508 
0 
0.08862972755035416 
0.07450491039115723 
0.07450491039115723 
0.07450491039115723 
0 
0 
0 
0.3039823428057435 
-0.351677740636573 
0.02104327048425819 
-1.287990279927008 
0 
0.04546485831742849 
0.4505320000701938 
0.4193140318608428 
0.4193140318608428 
0.3927818631882325 
0 
0 
0.6140385833033891 
0 
0.1874282608537156 
0.1874282608537156 
0.3805554246290931 
0.1932774561856199 
0 
-0.5843316126198452 
-0.5843316126198452 
0.1641032107994517 
0.1385747053880835 
-0.1461901666117905 
0.1634427633049777 
-0.6476105507575727 
0.05017393135899924 
0.3764434219624 
0 
0.0562835768714251 
-0.8712066897746646 
0.2734061078991158 
0.3091082975469095 
0.1295449893177133 
-0.6647898787360713 
0.06227572306210358 
0.06227572306210358 
0.140567732363992 
-0.004410945804123816 
0 
-0.4069263210062293 
0 
0 
0 
0 
0.2296998316731078 
0 
0 
0.1091525767321473 
0.23613868417575 
0.1335195478244046 
0.2977336814948965 
0.1558902823581377 
0.1558902823581377 
0 
0.1293161309836784 
0.9138508077580292 
-0.846595999437332 
0.2743432873633332 
0 
0.2996213082157064 
0.06832899396306197 
-0.3180015834742853 
0.1545929657486431 
0.1545929657486431 
0.1545929657486431 
0 
0 
0 
0 
0 
0.7953899575837837 
0 
0.4571251939756651 
0.6130957573219943 
0 
0 
0 
0 
0 
0 
0 
0 
0 
0.6474174889053401 
0 
0 
0 
0 
0 
0.07786324338594798 
0 
0 
0.4473777623394632 
-0.6023622408115811 
-0.3188600331382572 
0 
-1.071114932064446 
0 
-0.464757498643758 
0.6229044725689374 
0.7062238559814136 
-0.3532889131622836 
-0.2427334576610411 
0.01751726728367717 
-0.4521330682006816 
0.4523367028369267 
0 
0.1971843687944529 
0 
0 
0 
0 
0 
0.3257250684825214 
0.03909007792824527 
0.1493810300413816 
0.4467626372122415 
-6.938893903907228e-18 
0.2930598330286165 
0.1885504941571845 
0.1885504941571845 
0.1067954163984182 
-0.1576084194855913 
0.3728073642995007 
-0.3850253526348461 
-0.1015189259139277 
-0.8660676633748309 
0.08291749848343599 
-0.2311640350447606 
0 
-0.1151308345565172 
-0.1751768133644027 
-0.4445710888180807 
0.1149145594906404 
-1.040535155513179 
0 
0.2396394767262334 
0.01317670985154221 
0.01317670985154221 
0.01317670985154221 
0.2599434631374593 
0 
-0.7305379721366675 
0.2599260389481223 
0.4974622839663733 
0 
0.05898022027962729 
0 
0.3403675260600814 
0.8466394577688988 
0.259968134563701 
-0.9044697710376084 
0 
0.5290163617087481 
-0.6045137070698877 
0 
0.945057387128407 
0 
0 
0 
0 
-1.113197188228922 
0 
0.2865004140510783 
0.3400024152038109 
0 
0 
0.6264630465792478 
0.1341679929324158 
0.1341679929324158 
0 
-0.436455571544466 
0.3347738861923368 
0.3713739099478738 
0 
0.03481345127196284 
-0.02100660108448044 
0.0250447100443584 
0 
0 
0.02866736526383618 
0 
-0.4442610578572153 
0 
0.1290579492185146 
0 
0.2600176323564842 
0 
0 
0 
0 
0.3348699500345096 
0.937349058947075 
0.5768749725106413 
0.4289091637451741 
0.2864204420131305 
0 
0 
0 
0 
-0.1352519457604564 
-0.1352519457604564 
0 
0 
0 
0.06827686844183851 
0.4072560353108879 
0.4072560353108879 
-1.073571488452039 
0.5795324943870621 
0.2292698074689279 
0.1486351490150987 
0.001460421922432828 
-1.099950479067474 
-0.5868547473735414 
0 
3.469446951953614e-18 
0 
0.07057019050995744 
-1.070985577441051 
0 
-1.078443693838373 
-0.3932825006631898 
0 
0.3819074029080429 
-1.132648757181441 
-0.5870803515002615 
-0.5870803515002615 
0.5730277480162564 
0.007476929043404995 
0.4808288747513489 
0.2834517899509262 
0.1197383820409505 
0.1197383820409505 
0 
0 
0 
0.4322495950227639 
-0.001466701330444686 
0.341244473682165 
-0.9238759348469626 
0.2999274820163305 
0.5298950232891728 
0.007771078086205716 
-0.364224276534828 
0.3282251919470537 
0.1927050502309643 
0.1927050502309643 
-0.1660809648145542 
-0.1660809648145542 
-0.1660809648145542 
0.1284300605075352 
