solver_type L2R_L2LOSS_SVC
nr_class 2
label 0 1
nr_feature 32502
bias 0.5
w
-0.206946826115078 
0.01339421202603459 
0.2495916215408021 
0.05337376961888206 
-0.2384270224177246 
0.08816276885507819 
0.06829737858059845 
-0.005704988934976864 
-0.520478824617715 
0.3026005111755348 
0.001308325068595288 
-0.005025937694592367 
0.1457464118023304 
-0.001895043371179374 
4.41649516778621e-05 
0.1004072342677131 
0.6631497723380367 
0.000136179436651474 
0.000136179436651474 
0.000136179436651474 
0.000136179436651474 
0.2907140218772049 
-0.0004482372847122276 
0.08305789816392659 
0.2446589169851819 
0.2536724029399473 
0.002148870212296336 
1.316730851181254e-05 
0.1733025717361458 
0.03576444627542424 
0.005385356354789556 
-0.2723378331374631 
0.1659002510518736 
-0.4832137235893968 
0.209093856698572 
0.1767084735734318 
0.1861531001616459 
0.01505556640870843 
0.09629655197627193 
-0.3337360537490538 
0.009333909374139804 
0.2080770856094805 
-0.0388701946945751 
0.01203320376054133 
0.005354255308629012 
0.06633319046443566 
0.006865348786385721 
0.07170769068359066 
0.03044852166777105 
0.03718877487485397 
0.1964472410006849 
0.1499574904000422 
-0.04253073706403372 
0.06016537085253967 
0.01719389617362018 
0.002930071388157895 
0.2789509592569521 
0.1982292340160598 
0.1454338935432019 
-0.008510086199100389 
0.01398856891251725 
-0.1176498908972214 
0.1062589353908933 
0.001018171918908837 
0.02218764508473214 
0.008572295447083531 
0.00799831812285076 
-0.1427322888855933 
0.05602796186088799 
-0.1102485165553732 
-0.09543808330471015 
0.02332009657072005 
0.4788939874697369 
-0.2248632421922271 
0.09465936375724972 
0.4201987515201792 
0.08708187166120634 
0.003346235670143778 
-0.008637863460922738 
0.004447294481831397 
0.04200623196838031 
0.2496119304473567 
-0.09197106551914938 
0.004506541548248812 
0.004506541548248812 
0.004506541548248812 
-0.1167808172736548 
0.2639930353831169 
-0.1737540806633647 
0.1682634640898736 
0.3387786075025505 
0.02368548758908519 
0.03911466267499729 
0.2051893396230403 
0.02474916874157651 
-0.04852526925779987 
0.2378729041605889 
0.01837117016219189 
0.005443504778372204 
0.1625246079625549 
0.0009863424016171426 
0.1928383873356921 
0.1039265105499023 
0.4548647829396886 
0.0001809201269269856 
-0.239492005274991 
0.008717146436925361 
0.001558647123821665 
-0.0001044223212366453 
0.3200313007852664 
0.1946775252105609 
0.2867973580235152 
0.2423819649240885 
-0.2592731104129875 
0.0317531676690115 
0.01735334814947527 
0.03581480000480767 
0.1518791057580413 
-0.05511942142784691 
0.2249335152999115 
-0.09660635884212102 
0.1506859593866096 
0.1061216318769024 
0.2029893528292201 
0.1443779654697613 
-0.2042231390283456 
0.1183804970035204 
4.403026812903389e-05 
0.1558676894361472 
0.3744796069663834 
-0.3064695609189594 
-0.5011194705734378 
0.5815759336324771 
0.07136208736075979 
-0.1634683882037992 
0.06049776174925212 
0.007071617364502184 
0.06049776174925212 
0.1129054010358921 
0.06067382769738377 
0.0001141249520486596 
-0.1296275563807344 
-0.1651205011254251 
0.1593234185869632 
0.04975887909960802 
-0.05092929196010632 
-0.01135805032213191 
0.04537879556019835 
0.001356671607401735 
-0.1269371855910901 
0.03435289038684719 
0.2631837810985355 
0.2300983462643302 
0.3981643819987343 
0.2081893776123084 
0.2733880852694236 
0.000130858902019669 
0.1403234946776001 
-0.2846979851285031 
-0.01411694645588802 
0.0003971117529452503 
0.01003856696295166 
0.0776006176796432 
0.09872737531351218 
-0.0001390171991753938 
0.003733453757117367 
-0.01047811876261648 
0.109610379083176 
0.07759496427920277 
0.09806834800395159 
0.002201752242577583 
0.1042128940645865 
-0.1404953830819812 
8.782506504147098e-05 
4.37477100188749e-05 
-0.08537529535754655 
0.3620667920464859 
0.2023160592886566 
0.01786988544916229 
0.5192838721382882 
0.1331038895686758 
-0.3061280405775744 
0.1912143321679573 
0.5525355144316458 
0.4247318315214708 
0.1767933522904225 
4.170682710764323e-05 
0.05047367437182943 
0.001057679838863115 
0.09479353144097179 
-0.02128346431062795 
0.0003454257207222764 
0.2643863556438397 
0.4266853629079578 
0.1488744829661724 
4.589666368471243e-06 
0.1605439153154773 
-0.2837148589651407 
-0.07868968929031726 
-0.07763536330943738 
0.003514077349675309 
0.115590246845236 
0.01747812960383015 
-0.09489313353106189 
0.2532680895952522 
0.4036792983022752 
-0.4050388861026089 
-0.08287170852043935 
-0.06195587268044682 
0.1171374675768091 
0.4425495115653862 
0.007721246711575518 
0.1822315344592744 
-0.4737822322872227 
0.001002273583051276 
0.03851964800453569 
0.1074478390364824 
-0.01059113426455797 
0.001668520937814109 
-0.0006901346839184028 
0.102082395289348 
-0.08789920881478444 
0.1607093999343851 
3.032237483689257e-05 
0.1022499536090737 
0.1792659208462423 
-0.1148501122426111 
0.2505165573400257 
0.08666638633081446 
-9.512271464766574e-05 
0.3121446047567614 
0.0907081740211194 
0.2779396857730972 
0.2071018381669036 
0.02897425966149517 
0.0002029634934485743 
0.06609285680879212 
0.42785558872817 
-0.1368078745581723 
0.1225302643540007 
-0.01070068618601175 
-0.2121241052518469 
-0.4549400831940499 
0.2903533522906393 
0.4779705518363185 
0.1071206717275986 
-0.0904974991946528 
0.04569505963504553 
0.2475172295767509 
0.4208689760745765 
0.2826783755015036 
0.04137789111065814 
0.08140643279345985 
-0.131020331614814 
0.4829502773429803 
0.3594746886800932 
0.2430377768408503 
-0.3836511824259478 
0.107020992514651 
0.06060147134385102 
0.1104736436642029 
0.0005741443718122074 
0.0005299794201343454 
0.001308325068595288 
-0.2005952935556721 
-0.1678492522655876 
-0.09674480487325912 
0.2317971984030983 
0.02155290895101634 
-0.1014413386647735 
0.0882304244625487 
0.1386132579251657 
0.4823174390877032 
0.1253226584842898 
0.09451683975358982 
0.2574455783154768 
0.0004898183770730402 
0.2339290756850604 
-0.03960775335171361 
-0.001679444670381924 
0.05430868719960633 
0.3266858174370219 
-0.02456839097434749 
-0.2015356390270058 
0.2141125117193638 
0.005147073538437611 
0.0003827206038506801 
0.000516709398583189 
0.0001425923575084882 
0.1692584201399036 
0.3887952808603619 
0.1275025440958743 
7.522035064670211e-05 
0.02090971032972992 
0.02051473449628476 
0.2103872722463931 
0.04944561070205619 
0.2107782082838918 
-0.01233101626575509 
-0.1479314268090605 
0.02524483731350638 
0.3375412067251561 
0.2184730741554538 
0.2256703590835943 
0.08744768263212446 
-0.0005257957981469905 
0.5505713030555432 
0.0002204006685072845 
-0.01300417314432608 
5.488529675985587e-05 
0.249014562299491 
0.002752166694642397 
-0.263366616296796 
0.1242079394507791 
0.2008965122767795 
0.2411563277432689 
0.07341759091567927 
-0.0673270744471995 
0.01174042418544582 
0.1150827831909861 
0.260254395043572 
0.04103777442568862 
0.04172261580654293 
0.09470616753956218 
-0.1877206943444555 
0.3588944224232911 
-0.001013430248296322 
0.001029321269078077 
-0.0009692652966184599 
0.05648069730921637 
-0.292341379938708 
-0.310160645095588 
-0.02063768082719518 
0.2225951968252465 
-0.001498601383847767 
0.1440799483211959 
0.2037262974357412 
0.1899228648960779 
0.1100939645228715 
-0.0004359670203987718 
0.2216087201430351 
0.001318853990912859 
5.163000507965667e-05 
0.1573919149561391 
0.1826573026756629 
0.04512104984507045 
0.1096044969487062 
-0.00620769322505979 
-0.006545347413216623 
0.1246955701658645 
-0.002347440681165393 
-0.00340287108521729 
-0.01307234345942227 
-0.007113853032499293 
-0.1398215432384573 
0.2910088812323129 
-0.199240916965484 
0.003387400754914281 
0.2057165089926767 
0.07664604544119434 
-0.06250741618708322 
0.148051043372478 
-0.0477532490325806 
0.0174019432942387 
0.447651689261797 
0.00427372883180755 
-0.09654091461330558 
0.1257182660369872 
0.03536459919095328 
0.0007007267535268311 
0.001251048122225731 
0.4509736590671873 
0.00421382810577501 
0.05750727832164158 
0.006481272996292851 
0.2618864843584943 
0.000348744843159635 
0.007344263720113684 
-0.3069536961950439 
-0.1512496027680644 
0.000197695697879354 
0.1091256346846466 
0.000241860649557216 
0.1195689886139076 
0.1488656967938009 
0.1915255190122885 
-0.239766752764241 
0.002374307668373802 
0.00233014271669594 
-0.01083878437600642 
0.273029631396644 
0.02114223231946794 
-0.009882848621168661 
0.1264870382314101 
-0.2544016283407138 
-0.06108440105293041 
0.2158868152523858 
-0.005772681794956746 
0.0001859665584363784 
0.1619893408001677 
0.0002927051806940053 
0.2347930223194897 
0.08653686062626088 
0.006227785568035248 
0.01161318208016617 
0.2276656731443099 
0.1997634030034574 
0.002745701175890371 
0.1472116065284476 
0.1110392050672748 
-0.1662609536607092 
0.3035377707069546 
0.02735509047648314 
0.329450923307452 
0.09606884088411 
4.182784612597716e-05 
-0.1880768703120813 
0.04261109387423066 
0.2533616563856615 
0.1966814169267969 
3.028683514301919e-05 
0.0726643167139864 
0.1618058765024707 
0.07463507725628185 
0.0001531603611576711 
0.2556203270875935 
0.005693236049051309 
-0.1206433077321632 
1.010056233864225e-05 
0.3147315340725293 
0.0003802595051999473 
0.3561239601137599 
0.1515494435753 
-0.1662395805420735 
0.0521719771363016 
0.3048842522336958 
0.10459476409261 
0.0655598671533906 
0.001611535618789588 
0.001611535618789588 
0.001611535618789588 
-0.1042569954670194 
-0.009651839934068786 
0.2138556527355271 
0.09287226927043998 
0.1478716457669673 
0.1376295631124394 
0.1181224484144114 
0.3338649969730639 
0.0003961977850587577 
-0.19481681910046 
0.08643717932753364 
0.1305822632595111 
0.0001253595618151469 
0.1835445454118462 
0.1440788938715605 
0.0007823578054474191 
0.2285297501667913 
0.4677165323285056 
0.08755031442432232 
0.1661863133992048 
0.04648882819470766 
0.3750873430006559 
0.1830981028108266 
0.001843269510204091 
0.0001169547180192784 
-0.2626892289771828 
0.108876736494518 
0.1545911030968324 
0.0478703136387193 
0.09687239913851499 
0.2117239785134948 
0.04351428858652638 
0.1310688847558943 
-0.07264518267364799 
0.0006699776701578188 
0.0006699776701578188 
0.0229212246153783 
0.05490189080657711 
0.1990800773491358 
0.03302979654893376 
0.2661999200973483 
0.0273007268070806 
0.3102680458027069 
-0.1764986048275798 
-0.1766347731722822 
0.01307846042582268 
0.0003913425335368941 
0.3241874185140636 
0.1137788753484403 
0.001446255808573138 
0.005975104263119348 
-0.3180906913852693 
-0.1057573306359475 
0.005081450476640209 
0.003960354349827134 
0.07633745071154045 
0.2030952555709009 
-0.1379486335999858 
4.41649516778621e-05 
0.02109261069628831 
4.41649516778621e-05 
0.02980138071675715 
0.5187236870126646 
0.08061328879665886 
0.08033438942093259 
0.0003249491646807974 
0.0001378207186494234 
0.0001588975952759124 
0.0001378207186494234 
-0.1191032524013558 
0.000431424427648468 
0.1249637716335873 
0.2325443892418469 
0.004703607058560569 
7.664972304896063e-05 
0.00220787426559469 
-0.1575401400842596 
0.1804298982144077 
-0.0528993431685105 
0.05123065045726259 
0.1339491103293295 
0.04469207594508626 
0.0005171918337005701 
0.3467716259830807 
0.0009063110185909097 
0.2294007191051849 
0.3898988145145415 
0.2252098997918331 
0.2159564100796307 
0.2511763716570989 
0.04920652444650677 
0.0004741996441712836 
0.160292567951634 
0.2269426111756828 
-0.189937266335594 
0.1322404253458188 
-0.09496643318989109 
0.03393856326479396 
0.004617922624452596 
0.05404527544478412 
0.1009842022890956 
0.0001377425060303709 
0.001074194958446005 
0.1026802874744491 
0.0001377425060303709 
0.001334194204711859 
0.0001377425060303709 
0.0001377425060303709 
0.0001377425060303709 
0.02909818144356608 
4.41649516778621e-05 
0.00216306552620499 
0.1410871517615237 
0.5462070548662564 
8.141233983634426e-05 
0.002077150451402378 
0.1613411867360458 
0.04288993742922545 
0.001002508284801304 
0.001002508284801304 
0.1478872716851845 
0.2647512239642406 
-0.05182134111090786 
0.1259431677305613 
0.2241383269252971 
0.001119201004026414 
4.41649516778621e-05 
0.1507516240423368 
0.08387581361584455 
0.03838988876214446 
0.1733959277403197 
0.01563416909439773 
0.1517547648916442 
0.09205582328730907 
-0.0003067368793079175 
0.02324951236322059 
0.234443758875668 
-0.0001608758200758235 
0.1302027628469121 
-0.3232364717935964 
-0.1485793608054052 
0.06635132246281247 
0.4449381799117187 
-0.0006356608735943566 
0.0002838381111218013 
-0.02172009564534226 
0.0001351522421732327 
0.1849907428037215 
0.000907287909664832 
0.08272239085483823 
0.0867464575804146 
0.360436767122329 
0.2246917235710402 
0.2354832804808681 
0.3103149243576611 
-0.04183532574887228 
0.003348362699559911 
0.003215558018548186 
0.009232441654010907 
0.07465774201019472 
0.1031288266130029 
0.01554874931629308 
0.003505887164326052 
-0.2658824820580088 
0.001030710695827063 
0.06373318916333476 
-0.0346956986036451 
-0.003858865462029344 
0.1758092442822373 
-0.001463970933751792 
-0.2619066268930098 
0.0002351121620205372 
0.0002351121620205372 
0.0002351121620205372 
0.428822422521122 
0.000579492444774041 
0.053063349436094 
0.1800888425647816 
0.0001706363413414987 
0.004667610820574764 
0.001582488222323046 
0.04701549213813741 
0.0005137390208308895 
3.517656773114441e-06 
5.244163978566802e-05 
0.02168335890372712 
-8.138133654302953e-05 
0.1756458509135367 
0.0003191682241338797 
0.001025367213590578 
0.0009321932998188943 
0.008515246796808509 
0.001029444353881461 
0.2669047880717356 
-0.2075466177027601 
0.03537763308536416 
-0.2388602266211522 
0.1045023524514311 
0.1180804579980002 
8.832990335572421e-05 
0.5120223125412792 
0.09787244170950592 
0.0512666276003245 
0.2481564131434335 
0.07947966546965012 
0.07633756635149175 
-0.1729301160588719 
0.08077321592324313 
0.09792546466995374 
0.09736839531132227 
0.00598963938296619 
-3.063711760790924e-05 
1.426582237462841e-05 
0.1093522983528417 
0.1218000176116999 
1.426582237462841e-05 
0.3047091747508966 
0.4719549052296781 
0.0004474109479592774 
0.001401918305964972 
0.02263926442713238 
0.07658328762729905 
0.0009785894954183621 
0.000210675887606079 
0.1861700412676049 
0.1426294743752187 
0.07779683213147931 
0.08469542437036294 
0.1060236742536773 
0.001088302674615544 
0.1214764506083737 
-0.1212837879239426 
-0.0006564838676913916 
0.1016269921793136 
0.06599500012954855 
0.471598630313713 
0.0001080916114503454 
-0.004179213884254706 
0.06831635744427442 
0.01268016778984842 
-0.5195928521403873 
-0.1924200170467193 
-0.4179503054290936 
-0.03282988628739704 
-0.001186460254926596 
0.1531144918069114 
0.3359744232204808 
0.0002537638316789083 
0.176688376269182 
7.287783811814265e-05 
0.0002095988800010462 
0.0006594937693375042 
0.0002095988800010462 
0.002692147068136983 
0.0002095988800010462 
0.2977094742625408 
0.00207747256509871 
0.1433887142182328 
0.0003470493444690583 
0.07579611598538848 
0.01858181267907383 
0.0004408255314999959 
0.0004408255314999959 
0.1020108880600404 
0.2427518207247222 
0.001393057299256775 
0.01499297373720878 
0.04682837629635261 
0.07799630295201582 
0.180276021118988 
0.6455410734015893 
-0.04999535845977068 
0.3490416393378843 
0.002369054577277561 
0.002869579036166779 
0.05286895798533587 
-0.09232403759505615 
0.002977411974743331 
-0.1803845995084664 
-0.149478591593857 
0.09599400211512746 
0.09463829704971746 
0.09438702364798163 
-0.008174986447800025 
-3.571783223689104e-05 
-9.93381276239682e-05 
0.0002691914477585177 
0.002944398021393132 
0.3010522713294336 
-0.04518353468118046 
0.1758805929136941 
0.006336587035057169 
0.001323608769283517 
0.0009916172219822453 
0.0009474522703043829 
0.0009474522703043829 
0.0009474522703043829 
0.001235319343842132 
0.0007555599016065317 
-0.005877898655624289 
-0.01247920046258122 
0.0005711886597377007 
0.1613485265474658 
0.08699735868174621 
0.02388139116795801 
-0.414692279300566 
0.08865543461851701 
0.06018311480470744 
0.3323186678022513 
0.3970420275332768 
4.41649516778621e-05 
-0.1597869209321005 
0.1040210604209929 
0.0909284680607621 
0.002817117829021186 
0.09007210093361073 
-0.5778346790355254 
-0.1014531233040603 
-0.002262203133422265 
0.2412244659326052 
0.1339448777997441 
-0.3500386162056555 
-0.004228913913894222 
0.09476040326120259 
0.0002109342049743456 
0.02307504222408654 
1.888461059418709e-05 
0.03147756015709273 
-0.3821147593383052 
0.001725311677877684 
0.001163501882170444 
0.03177545951301098 
-0.236834489279389 
0.07795805433326303 
0.0006918163644793734 
0.0474799267597364 
0.0006585122169112448 
0.1879455975607751 
0.0007727452259706383 
0.0001138924412408213 
0.1244589609924192 
0.1476711510543325 
0.01920007417919776 
0.000810249489492616 
3.305775916773395e-06 
3.305775916773395e-06 
3.305775916773395e-06 
3.305775916773395e-06 
3.305775916773395e-06 
0.000137863346842462 
0.2210163819833921 
0.0003516336759511235 
0.08409647536413475 
0.0003516336759511235 
0.09515553653903404 
0.0001118354002969742 
0.0001118354002969742 
0.0001118354002969742 
0.1529326572751372 
6.926824386545649e-05 
4.41649516778621e-05 
4.116560267699634e-05 
4.41649516778621e-05 
0.1942140998489299 
-0.01411947190446417 
0.3947421406998188 
0.2403006451508021 
0.1350559196872381 
0.0005356392378009654 
0.0007128389873520361 
0.0004734312958482275 
0.0004734312958482275 
0.0004734312958482275 
-0.3209953553073805 
0.03846772853783069 
0.004305404908446686 
0.206290788494589 
0.02839390567270188 
0.0007796295109315265 
0.3121530635949914 
0.1485033948573006 
4.41649516778621e-05 
0.2804137507933485 
-0.1351055450498669 
0.1030045571365242 
0.001731568057428063 
0.08823516413936701 
-0.02658126665174261 
0.06159992104923375 
0.1066746546679275 
0.03818158587097453 
0.1207200318762874 
0.1232600197145478 
0.03296675145984178 
-2.991367533501834e-05 
-0.002443833130123074 
-0.1972392878610585 
0.4659513478145639 
0.1992791919818684 
0.06244005938456162 
-0.245304914243497 
0.1303413556847586 
0.05796003156497812 
0.0512324762433728 
-0.4710484426328113 
0.05097852703888211 
0.5124505543068372 
0.1023438324142578 
0.001068348685211998 
0.001068348685211998 
0.002468353976205179 
-0.001635440846374757 
-0.000386604859472081 
0.0003892821660170852 
0.002143460522493654 
0.001242295494053778 
0.02283541939966542 
0.001081317168531135 
0.1465420160285714 
0.1514628724234305 
0.001028960705981546 
0.0005299794201343454 
6.741599186964339e-05 
0.1881504105071587 
0.001176005962895449 
0.001308325068595288 
0.02170468476653506 
0.003900252605604732 
-0.01904336418272653 
0.1422580017335193 
0.002809595307462834 
0.01097555284123141 
0.03465271547910387 
0.0006560331512755078 
0.1306802367417632 
0.003373028965539914 
0.0004727526187384737 
0.0007126594762276114 
0.0001388002702493295 
0.0001388002702493295 
0.0001388002702493295 
0.0001388002702493295 
0.0001388002702493295 
0.1193933085387939 
0.092566656735553 
0.0001413348255820288 
0.03204613765753348 
0.0008309531809326298 
0.1402207148980178 
-0.09563224300073993 
-0.0006848413808543238 
-0.0004313629744345952 
-0.4458271337578438 
0.1375470524247421 
0.06513325657834881 
0.01911190779126284 
-0.00195766836130922 
0.08428859852851851 
0.0001231597184674765 
0.02795358056462952 
0.09462816372080328 
-0.1065242321108507 
-0.1312714314839749 
-0.2039170671315428 
0.003979026468084043 
0.1039887625640094 
0.1466796561588706 
0.03625447233446091 
0.1496525759231478 
0.1984264491417194 
0.06696901166299643 
0.07300146044863418 
0.0002099193602467034 
0.0001443244932612555 
0.1188423378040966 
0.0001053953378273022 
0.2131558279905484 
4.41649516778621e-05 
0.06019581884247292 
0.002575743388378251 
0.1978744086874624 
0.0768268402543226 
0.001058702575479077 
0.001100521364107528 
0.1662564801406295 
0.007064751917222601 
4.41649516778621e-05 
4.41649516778621e-05 
0.0007188589217519576 
0.1034998444681864 
0.07383113246454795 
-0.2676258723190873 
-0.03544224860241189 
0.08634862995473284 
0.170495020941107 
0.06775939827098661 
0.0532802968879835 
0.4562707300856896 
5.037831731982466e-05 
0.0003981347965647373 
0.1434216582850316 
0.1129014640211691 
-0.7319883573781714 
0.1857515480843708 
0.03663442714048016 
6.619123072957401e-05 
-0.0008832936426093382 
0.260496115008913 
0.06528239204178465 
0.1332925869781664 
0.135524806068461 
4.41649516778621e-05 
0.2215093713495783 
-8.068531802455589e-06 
0.001308325068595288 
0.006098099687794303 
0.0004952965031867116 
0.1747338158318529 
0.0004952965031867116 
0.003705408762455906 
0.1304066945629982 
-0.3997127160898422 
0.06179102505190587 
-0.05287096020017486 
4.41649516778621e-05 
4.41649516778621e-05 
0.1626711836225362 
-0.007425181254051561 
4.41649516778621e-05 
0.0833273064798684 
0.05800217552446693 
0.2566516275459851 
0.09133072725597961 
0.003649597352778297 
0.05713425011461484 
0.05713425011461484 
0.03705461175071612 
0.1237438966659115 
0.0001179757373684013 
0.0001179757373684013 
0.0001179757373684013 
-4.304550271225119e-06 
0.1662467212389982 
0.0003945675542663535 
0.0003945675542663535 
0.3141045028232969 
0.001738121481452401 
0.0002025728614560073 
-0.1332121841946305 
4.41649516778621e-05 
0.00326450656114418 
0.06094660322890674 
0.01766422246556402 
0.016402054258832 
0.016402054258832 
0.01650453587936202 
-0.01422147046748771 
0.01908332086605561 
0.01926090764974744 
0.016402054258832 
-0.193985623405047 
0.016402054258832 
0.01644582776709096 
0.04363241381282022 
0.016402054258832 
0.0004309185836032977 
0.1957092075226808 
-0.2906026408147399 
0.1509890373387832 
-0.4534161536666103 
0.07960163913669166 
0.00189545326184739 
0.03028699784856961 
0.05094564770297577 
0.1515345996724271 
0.07289327347748334 
-0.2887206798208007 
0.4230791045899733 
0.001856133321035757 
0.1357941989639647 
4.901495079545927e-05 
0.03152455058520395 
0.04279246885286193 
0.01833262971206192 
0.003649500584121992 
0.0001817130895188525 
0.0001817130895188525 
0.0001817130895188525 
-0.04509691788684857 
0.1441476729289814 
0.06030553863773443 
0.0004362594776065187 
0.1362041827482185 
0.02594754727720629 
0.002904530245728106 
0.001895652822446843 
0.00812382982954171 
0.006085184735370642 
-0.0001093923483489928 
0.2265978796112576 
0.000920667882237997 
0.001765219470241899 
-0.000142766456511386 
0.0001274249847829553 
-0.004629923381461938 
0.05230639814871571 
0.0001570687935371238 
5.834272580131765e-05 
0.04942193012099873 
0.0009064303229536361 
0.0009064303229536361 
0.0009522725201660601 
0.0009064303229536361 
0.1391614867329012 
0.372570054506937 
0.244675995913063 
0.1078475969822514 
0.0005096741522611473 
0.0005096741522611473 
0.0005096741522611473 
0.001086693849381023 
0.00105924152018344 
0.009309672233603034 
0.0001553379601120858 
0.0001553379601120858 
0.003457110171677632 
0.05109736142224718 
4.41649516778621e-05 
0.182609503031433 
0.1292046620564082 
0.001581344793712247 
-0.008330960238952873 
0.07158006016467945 
-5.379356643926584e-05 
-5.379356643926584e-05 
0.05527173525610411 
-0.1928375203989315 
0.1096401533376025 
-3.220146895438368e-06 
0.08887821944331807 
0.2259536717156335 
0.02553236806651506 
0.001536093411525177 
-9.656787673234032e-05 
0.2570688430522368 
3.649311594408061e-05 
0.105221654477698 
-0.002244718198548781 
0.0002916438752668998 
0.0002916438752668998 
0.5596441258629179 
0.1745567238281055 
0.0838720841651095 
0.003924203879614518 
0.0009142374469673798 
0.001176424773953822 
0.002159362504605325 
0.008541826804206289 
1.038970779687049e-05 
-0.003262701499692832 
-0.0001287578816301988 
-0.0001287578816301988 
0.2410279274942497 
0.0001067518231117246 
0.001971234093989302 
4.41649516778621e-05 
0.0004625678225832351 
4.41649516778621e-05 
0.03079159670230998 
-0.003503246739676455 
-0.3313893011567532 
-0.008854579466959838 
0.05131681941584289 
0.00391548591949891 
9.689821772495314e-05 
6.214640291800147e-06 
0.07648313061219399 
-0.008649299822692687 
6.214640291800147e-06 
0.004134115384026881 
0.00189480475454707 
0.0001916376332156578 
0.04905958580468129 
0.03443796936665916 
0.0378141045251932 
0.0007922360102858243 
0.0004958756968049293 
0.0634329558790425 
-0.1644947874897229 
0.0002673146515276848 
0.002087173736009407 
0.327272728154167 
0.004196866951786956 
0.001740565736491978 
0.002150844297903281 
-0.7897026095999433 
0.3648121584984265 
0.1308882111946804 
0.001308325068595288 
0.1725204525764141 
-0.1937583060884567 
0.001118146665754149 
0.0007906366837582556 
4.41649516778621e-05 
0.4175985951946502 
0.05420321658204277 
0.00597779186789887 
0.002241482217400247 
0.1722144576466385 
0.1016092787373733 
0.0002630480837697121 
0.09820024028751696 
0.01832203144373903 
0.1540238311535554 
0.1959853350168044 
0.3499396683236941 
-0.1342659433368276 
0.03101950189889686 
0.03333019457537175 
0.03101950189889686 
0.2760047784456753 
-0.5751548722802582 
0.03274716907838435 
0.1008709831125173 
0.03546458836279043 
0.1454420197741854 
0.03111006789414875 
0.03193319098499257 
0.031790717785863 
0.3142254221906687 
0.05637072406706908 
0.0005223795321006605 
0.0005223795321006605 
0.0006290122170127524 
0.01505787058329414 
0.1274788665489432 
0.0009264627670154104 
0.002161416694877277 
-0.0208293654048527 
0.0003259136773772824 
0.01200431807026166 
0.2354752591883752 
-0.0001435372555524474 
9.484459677899523e-05 
0.3284244501143869 
-0.2850644083624649 
-0.2558029825376986 
0.48191182738868 
0.08252956814325155 
0.1224937370715359 
0.1736250826755951 
-0.1972134442511257 
0.1041947573771452 
0.1493382518808845 
4.657093271295162e-05 
4.657093271295162e-05 
4.657093271295162e-05 
0.0003549530271794567 
4.657093271295162e-05 
4.657093271295162e-05 
0.0192135969111306 
0.1394770540262118 
-0.002606670837243266 
0.2644707409209799 
0.03870772311207452 
0.00902001257041736 
0.001151096348342936 
0.0009744365416314876 
0.0009744365416314876 
0.0009744365416314876 
0.08955399250947094 
0.1333813215797758 
0.2247754236511726 
-0.009133849589858647 
0.001294666266351483 
0.005066453370538361 
0.5717439668208081 
0.002404340689996095 
0.1052237594979316 
0.1202637539797528 
0.1202637539797528 
0.1202637539797528 
0.1202637539797528 
0.1207512791675149 
0.0571757712702288 
0.000497545425969315 
0.0002741022150121281 
0.03507052462416643 
0.0001416312932037803 
0.2910023282912637 
0.1097639259232279 
0.3130148110569898 
0.05226598571229382 
0.0002002375520379354 
-0.0798470693454922 
7.670492386836324e-05 
-0.04695606537094776 
0.03482926145097916 
0.3374124720371423 
0.002965719536527193 
-0.00169756121137658 
0.0006350819137936204 
0.311424907079016 
0.03044080901312861 
0.0005081788935821443 
0.07397610661349292 
0.002022170326823294 
0.0008065240808648828 
0.0001811513043269853 
0.5015869606575679 
-0.001804636441861072 
0.001443246629378747 
0.08816641699211292 
0.001947093048084762 
0.0004108300710002688 
7.125568375782076e-05 
0.0004360001531693656 
0.02111217264008982 
0.09621375278880179 
0.2539574828932745 
-0.2951661350633228 
0.1792604897443253 
0.009810838361972881 
0.2971797908049552 
0.1815185223110055 
0.0002138243470248057 
-0.0005488941952714831 
7.860496876518971e-05 
0.009888245049473037 
0.2922932290456256 
0.05186180263415301 
0.1439341908258384 
0.1796532641420402 
0.04431492437760321 
-0.0001411287588278448 
0.1167138405352253 
-0.32504284263128 
-0.00298965056485312 
4.742919370203362e-05 
0.0002028065978226263 
0.007849618457865141 
4.41649516778621e-05 
3.266738762902425e-05 
0.1128456738422475 
-0.00016405730278866 
0.00270538941238103 
4.710696244273023e-05 
0.136308507130476 
-0.001753031244289814 
0.09563705076612677 
0.001238156464311476 
0.0006169873750067379 
-0.0003323887510119135 
0.005851396268621786 
0.001499944265602825 
-0.005768487824308884 
0.001461926357365881 
-0.0101045458115079 
0.001308325068595288 
-0.02769423776235263 
-0.2385944757995649 
2.448969300873761e-05 
0.0008857999358682634 
0.0209731761513121 
0.01173896724237242 
0.003112889897020863 
0.0002168708273574212 
0.06696453281038897 
0.002509569323642879 
0.1489462116672376 
0.0003882099050506169 
0.03915304543703436 
0.03203744426999931 
-0.2324062334536403 
-0.0872842039739543 
0.0007719807971842615 
0.07419186521540121 
0.0007719807971842615 
0.1909601523703365 
0.0001382095061726643 
0.3161134077683072 
0.0005053524773588662 
0.0005053524773588662 
0.0005053524773588662 
0.001257444612102128 
0.002396339515508771 
0.04776395478153227 
0.1594547268599845 
0.000117064502847053 
0.0006010180978453959 
0.0007910831743368126 
0.0002273452547001665 
0.0007974883595733152 
0.001156937728143315 
-0.007425913248551529 
0.000114748459145038 
0.0003030416053013394 
0.0002496863399627472 
0.0005533389187837458 
0.1029938306724903 
0.2222291481669136 
0.09647828944614281 
0.009563483956382728 
4.41649516778621e-05 
0.0906440561769354 
-0.2708328726952873 
0.004683948012136241 
0.1065595885638062 
0.0001575710553867001 
0.6029275919220436 
0.01650043510442834 
0.001061574359227027 
0.003346940213551311 
0.2530344569757921 
0.008727561797864471 
0.086791302934876 
0.1492886683911891 
0.04497069486161626 
5.434640414531341e-07 
0.0003066418507005518 
0.09470531277322375 
0.2441076352398358 
4.470841571931526e-05 
0.06494919955576843 
0.001703325218394711 
0.01915183279719939 
-0.1610017955020607 
0.05108467413590649 
0.1681823200355353 
-1.215142010153961 
0.0240180102262855 
0.0005590644352324466 
0.0001795714918519017 
0.2148931055018633 
0.0001795714918519017 
0.0003326519304529883 
0.0003326519304529883 
0.0003326519304529883 
0.0003326519304529883 
-0.1033127424223459 
0.1036286545310989 
0.008929371779730577 
0.1700465820227281 
0.0005821839061006066 
0.2206893350199459 
0.1758233380151873 
-0.3195474131092811 
0.1948359124610005 
0.02466839984365057 
0.0003492168282338146 
0.0002507272412138147 
0.189370036096721 
0.000215509102144873 
0.000215509102144873 
0.01462390943546615 
0.0005977131695237318 
0.001568939061655881 
0.001657277477677531 
-0.2288897603701954 
0.1054970048442817 
-0.0002154364805659877 
-0.2456595608392572 
-0.06697968905397314 
-0.156463027039859 
0.001009249826721517 
0.001292349546378886 
0.04305448798195718 
0.0002017311451430089 
0.002136697370423996 
0.002287913641917607 
0.0009044125724686886 
0.0002683798305894736 
-0.001056672689745826 
-0.0001772780976979801 
0.1139806541901532 
0.001634506714985742 
0.07000707898212463 
0.04286387634038578 
0.1987158135160501 
0.0002266978670540642 
0.1118611024396968 
0.1709203941806543 
0.07206293738364206 
0.005607429686635334 
0.3137396514715502 
0.01556472065876298 
-0.03915336405249851 
-0.001591092612545897 
0.0003165305702974289 
0.05088219841631964 
0.0001195898113244354 
0.1108221505665587 
0.05065343348139192 
0.0004754652754669847 
0.0006327254109242293 
0.0001549598049623685 
0.005947255422427958 
-0.4113468877666892 
0.1332500964143071 
0.1038639651374801 
0.1342423068818858 
5.770002534980857e-05 
0.1871337133340722 
4.321489647992473e-05 
0.2270041705892371 
0.001919798328670503 
0.0239504099152794 
0.001978745070274315 
0.08220839043868985 
0.000131940477317514 
0.5284487965288464 
0.001107055779859411 
9.985467935168843e-05 
0.002354540523247085 
-0.004624015306104502 
-0.000433644227719163 
0.09861323816629165 
-0.004330174344463108 
0.1064424845259745 
0.0002015086612123976 
0.0008023714569761149 
0.3088096665195788 
5.236384425382868e-05 
-0.0007138946191581556 
5.236384425382868e-05 
0.001445489053416435 
0.0003830068997082964 
0.1861261491820687 
0.0002258804195300175 
1.762559554201305e-05 
0.002226752941191034 
0.0002314536641133204 
0.01415179726508648 
0.0002314536641133204 
-0.0001417168866850416 
0.2073855641046332 
-0.06977169961490524 
0.007503874677026862 
0.0002382045970506567 
0.0002382045970506567 
0.0002382045970506567 
0.0002382045970506567 
0.03258416891664795 
0.1674569552989753 
-0.1758228876758604 
0.0001146474918069724 
0.1905235986152413 
0.07346555976206158 
0.1132808496268784 
0.00208860920606542 
0.001149468643226355 
0.0008461681335083577 
-0.0006619378435143813 
0.002739748640646165 
0.0007954364495350028 
-0.1313844291010685 
0.01015768310171695 
0.01015056671659203 
-0.01100882147273023 
0.0002031698532606839 
0.03931377935713683 
0.2235336974167415 
0.0002666479400630931 
0.1177101991142741 
0.0009123993381945742 
0.0009123993381945742 
0.0009123993381945742 
0.0009123993381945742 
0.0003448245299090337 
0.02329514339072908 
8.575056953327324e-05 
0.4470287493083472 
-0.0004040512888118566 
0.182385529783446 
0.001756494343585625 
0.00663583780174327 
0.0002627067689294466 
0.0002292604701886541 
0.05617954785992509 
0.04662043970743966 
0.05151360733745242 
0.0007140120199915647 
0.02215528198340984 
0.001729635509940718 
0.0004581984017166009 
0.0004581984017166009 
8.510105439732887e-05 
0.01249428516168652 
0.0006304191219333238 
0.08978809363501519 
0.05402564776668569 
0.0541641050226708 
0.001308325068595288 
0.0005347209683000983 
0.1359190561691194 
0.0004802767002641021 
-1.04369667898985e-05 
-1.04369667898985e-05 
-1.04369667898985e-05 
0.0002496625106782385 
0.15589916071755 
0.1229236897092269 
-0.001657912325966716 
-0.001283647398451067 
0.1219303835821593 
0.1348960016629989 
0.3664396685912003 
0.1134392224030637 
0.000127397870761319 
0.5924229982951492 
0.1304672914211746 
0.1750454041468648 
0.02850342781294239 
-1.658334122120975e-05 
0.001377277422936239 
0.002407971061281365 
-0.04228997185364392 
4.41649516778621e-05 
-0.0606600732961145 
0.03366750665907 
0.03431315398923786 
0.03410467395640301 
0.03364700258405701 
0.1040485538782519 
-0.1435334632787489 
0.1115347799876123 
5.970150031739499e-05 
0.002006096111588316 
0.1218190614060614 
0.0006997003345983349 
0.2096883557959902 
0.003525645867472055 
0.08673393225417578 
0.02284624626441025 
0.1178946536949377 
0.000636804716081777 
0.001045844474877175 
0.0553168752376101 
0.001308325068595288 
0.02860109866889066 
0.0001121031177737877 
0.01282103520976255 
0.0001847016360745078 
3.615821962145031e-05 
0.0006975223257268248 
0.0006975223257268248 
0.0009119725250885456 
0.001906937384046009 
0.0006975223257268248 
0.001906284738965814 
0.3585312884642876 
4.41649516778621e-05 
0.01020672734522051 
0.1409176769172585 
0.04952731966985072 
0.01166087178747979 
0.002120721025704421 
0.001563270664222274 
-0.008385173361120369 
4.41649516778621e-05 
0.1426965218486103 
0.04484967853955241 
0.06118597323507809 
0.000284142702304245 
0.006621332157200143 
1.694295016045769e-06 
0.0001671074570643967 
0.04906799900328365 
1.694295016045769e-06 
1.694295016045769e-06 
0.0006546980327345551 
0.003429706326763585 
0.0009531594397722004 
0.02907994153667478 
0.0003888533275764944 
0.6033647578358233 
4.41649516778621e-05 
0.09828882158301455 
0.005725073611849388 
-0.3488027934543331 
0.0002265305005925579 
0.0008078482075529353 
0.1686891937648105 
0.2813312247165552 
0.0002198390844544036 
0.1532019017835593 
0.0001650505462666623 
0.01265772811379026 
1.50880031839887e-05 
0.001560386205817858 
0.235592677300074 
1.50880031839887e-05 
0.0007394055754204608 
0.2358415841974331 
0.09629269164442646 
0.02981797885268286 
0.0005612147182680366 
0.0005612147182680366 
0.2807227533369955 
0.135119680678701 
0.06030942467578478 
0.07063903514558968 
4.41649516778621e-05 
0.02829027290259351 
0.0002822891419091088 
0.005739333060582745 
-0.4593659289818724 
0.1067559497958806 
0.1340860746549914 
0.0924580378046081 
-0.5205861836918907 
0.0001231337847003045 
0.0001231337847003045 
0.00673270893959479 
0.0006035801077687113 
0.002909008666584546 
2.67314832724729e-05 
0.02150934873208422 
0.02296882884850283 
-0.0007869569172601421 
0.0005553602240159586 
-0.1873261269711249 
0.2127255262606288 
0.02248947772522277 
0.1980859818550318 
0.02248947772522277 
0.02248947772522277 
0.02248947772522277 
0.02421599889477974 
0.06321645923212819 
0.001245126687296578 
0.09510774928719765 
4.41649516778621e-05 
0.0002817294647402908 
0.0002817294647402908 
0.004101059371453667 
0.0002817294647402908 
0.0001324948550335863 
0.09585077299680984 
0.06747229813851771 
0.1382718969426257 
-0.2798577441690069 
0.14431495314968 
0.024481080066547 
0.001308325068595288 
0.1163087057870649 
3.076811135114784e-05 
0.001467000659751476 
0.1613754511128596 
0.1847841158434209 
0.002024645818380823 
-0.2838593742007298 
0.002971857201859952 
0.0003204052917611078 
6.358629927039671e-05 
0.06042971659211899 
4.41649516778621e-05 
4.41649516778621e-05 
4.41649516778621e-05 
4.41649516778621e-05 
0.001377918902672052 
0.00124493860399348 
0.0365090218963038 
0.03651489034270566 
0.009150348220917565 
-0.0008503111182463018 
-0.0008503111182463018 
0.05200742928980141 
0.03313740431458523 
0.00252088736352545 
0.0003383014678755775 
-0.3324855002945473 
0.0002438466237621076 
0.0001579233209383916 
0.02190657826073521 
0.1589115531229116 
0.0001911168121748341 
0.06852288794474656 
-0.01170050084722878 
0.003098586037541745 
-0.0009260008622351588 
9.944886401911723e-05 
-0.006897371058528709 
0.0001241580621755492 
0.0001241580621755492 
0.0001241580621755492 
4.41649516778621e-05 
0.0008340219813684208 
0.06894984082810661 
0.0005919835371047124 
4.41649516778621e-05 
0.0005266797747463686 
0.03418494659657687 
0.1931309581563075 
0.0005686926745095565 
0.0007976016982368271 
0.01374744016119557 
4.41649516778621e-05 
-0.7169075046802592 
0.001222916565591285 
0.016918817146378 
2.30792451525641e-05 
0.0007715603314361331 
0.0007817734602878713 
0.001462156305789467 
4.586067405929578e-05 
0.1830462339552737 
0.06635132246281247 
0.0005252043698762295 
-0.007544929925542336 
-0.2059023604420761 
0.04719850629815726 
-0.007204818283451174 
-0.0010275878030311 
-0.002904066853894422 
-0.002889657667016923 
0.0007731402493684848 
6.500061862514508e-05 
-0.001261016585472909 
0.2722957610513779 
0.0002125575462335998 
0.0007805996051265675 
0.1304689456542307 
-0.001739747342540162 
0.4580744836971054 
0.0001766598067114484 
-0.4315654062170601 
0.01674515167542723 
0.2233705900004211 
3.488398493669463e-06 
-0.00260033146972724 
0.004973191026361802 
3.488398493669463e-06 
0.002008563582481714 
0.1565519665487922 
0.01372093457573379 
0.01343487892901443 
0.001716228732923426 
0.05436762025368971 
0.1304140989412058 
0.0004608490552530175 
3.435763026204578e-05 
0.04593237789896429 
0.1834007297299986 
0.004253112095275511 
-0.1373571394215857 
0.02879102412276725 
0.1177806038748367 
-0.2991118896761125 
-0.008239162215514982 
-0.5275405467785194 
0.0005754191869390666 
0.0008118572783985818 
0.001129271611372365 
0.2190579258197944 
0.00151598287017059 
0.006226170022382458 
0.169759375374909 
0.001308325068595288 
-0.0003525261307689356 
-0.3721574080654 
-0.007140612412362067 
0.0002324045345040526 
4.190348542303491e-05 
0.05265625581952162 
0.001090276809315656 
0.1668378044816866 
0.02339080025319839 
0.0003377934392371793 
0.0002156905448689395 
0.0384826361175961 
0.2157345771197831 
-1.21485031294026 
0.002362266052907335 
0.03449619262227087 
0.3738284058115121 
0.0001452436679185096 
0.02154383573233392 
0.0001452436679185096 
0.0001452436679185096 
0.0001452436679185096 
0.0001452436679185096 
0.0001452436679185096 
0.0001452436679185096 
0.0001452436679185096 
0.05722420708125688 
0.0001452436679185096 
0.0001452436679185096 
-2.375056558100379e-06 
0.001354488076717123 
0.01476084284045486 
0.1693241034289691 
0.0002030576708276621 
0.0002030576708276621 
0.0003668696121781486 
0.0002030576708276621 
0.122619130389985 
0.06462369799241033 
0.001308325068595288 
0.1262638938061379 
0.04840428871967185 
0.001577415794959469 
0.0009303136598853936 
0.006809007121714913 
0.00676484217003705 
0.00676484217003705 
0.00676484217003705 
0.006809687427252098 
0.00676484217003705 
0.07873969368794692 
0.01165742199960458 
0.0001404612162947857 
0.0001404612162947857 
0.0001404612162947857 
0.0001404612162947857 
0.001308325068595288 
0.1237129868275335 
0.0001711339245311012 
0.1526590251694482 
0.2599296636993784 
0.1943674454653599 
0.1130322211566002 
0.005125349999146479 
0.001218884366138575 
0.0003677933967475294 
0.06399354141502706 
-0.006263218855956302 
0.002686816034447836 
0.02408708217841625 
0.0002508724445776505 
0.1101027529777539 
0.05121141602884403 
0.002983874244810451 
0.0003464511971314611 
0.1159793179750532 
2.720929227445298e-05 
1.007773452025058e-05 
6.961477815689869e-05 
0.02422357152705743 
3.226927332657425e-05 
0.0004472632010364212 
-0.8049533095666641 
0.1756374057051948 
4.41649516778621e-05 
0.5422220130555057 
0.1321258030169114 
0.0002254777051214273 
0.1591849741460041 
0.0008385485330420816 
0.2538939525242775 
0.5625638493137998 
0.0001272352668305955 
6.061598103362452e-05 
0.03837698041508214 
0.0001697632928516046 
0.002082938135270876 
0.0005317738095085298 
0.01768921613133202 
0.1070988530328106 
0.02798035037293153 
0.1040349220050464 
0.0006774022185215956 
0.0006774022185215956 
0.0007869523396661962 
0.04704511472587618 
0.1904134002833605 
0.1367194420539647 
-0.02064704126446927 
0.0001994574952619468 
0.000243622446939809 
0.002420748382378211 
3.680794947290231e-05 
0.0001519906052066103 
0.04033607897509582 
-0.001688394607113493 
0.1217431717708057 
2.096935198488597e-05 
0.003468025142848966 
0.003186288510015245 
0.001378414727861532 
0.002586579149701962 
0.0003193142869345921 
1.377201269964008e-05 
-0.02999156175665169 
0.0003863745113248177 
8.832990335572421e-05 
-0.002897504657920603 
-0.01099237382927305 
0.000451438408362503 
-0.213678799253927 
0.004536300493544811 
0.1737729259912167 
0.0001395776318045539 
0.0906393538878227 
0.02325337606510869 
0.001308325068595288 
4.41649516778621e-05 
-0.0004087798751497645 
0.0002080766563065841 
0.09313442623444355 
-0.4504072346838224 
0.2120520714838854 
0.035961870417791 
7.073476560451379e-05 
0.001427720327602455 
4.41649516778621e-05 
0.02397954290752585 
0.0003889964187133256 
0.0004134482397319655 
0.001477648142809886 
4.41649516778621e-05 
0.00472479010720289 
0.0002860488715643613 
0.0007830638654909915 
0.0002860488715643613 
0.0002860488715643613 
0.003521963445669209 
4.41649516778621e-05 
0.2208491796780017 
0.06951328652909305 
-0.7709780390192786 
0.0003091272171636262 
4.41649516778621e-05 
-0.3585830172779499 
0.1342395818465675 
-0.1375446561275976 
0.007443542538530657 
0.007792339213162974 
0.007443542538530657 
0.007443542538530657 
0.001572667248540843 
0.08455547093940458 
3.725751531308506e-05 
3.725751531308506e-05 
3.725751531308506e-05 
3.725751531308506e-05 
0.005027597199917543 
0.001485614697461381 
0.0006905959743533335 
0.0009085526288816363 
0.001071480760175508 
0.0122710005943351 
0.01914964222923492 
0.00021375988598666 
0.0001486195666433711 
0.0001486195666433711 
0.0001486195666433711 
0.0001043327212506639 
0.0003454560555441673 
-0.123540252931553 
-0.6366476081929769 
-0.6366476081929769 
0.0279948475284281 
0.2194513320587321 
0.02928790573555742 
6.299845848733635e-05 
0.000333366677330596 
0.1123524918938441 
0.2067842613059946 
0.0008261427535696766 
0.1730083494630186 
0.235642659939799 
-0.5702606261616096 
0.1742690642906528 
-0.604481881576141 
0.01358700017308192 
0.006965273402241206 
4.287082946896705e-05 
0.02029503068084882 
0.001016658755776019 
0.2489828457327335 
0.2778716510852713 
-0.006926635624360212 
0.03163852116199633 
0.002663785211864852 
0.1706576812214664 
0.0772763115115004 
0.07946619719322637 
0.0115624515116952 
0.000182477712500129 
0.0005075435503453815 
0.002641578608156412 
0.003724995076549983 
0.002344680870588153 
0.002344680870588153 
-0.001217767484759586 
4.41649516778621e-05 
0.2235118595372018 
-0.08849005320387228 
-0.2777449554352915 
0.1207621715292145 
0.1160936600230479 
-0.003153742767156028 
-0.003155607234282551 
0.001422017992663226 
0.3391641605015255 
-0.9466038246260433 
0.1726108028759279 
0.2475985363907676 
0.0931916074373362 
1.276989100053291e-05 
0.1639568557903105 
0.1683145410299896 
2.772925025863561e-05 
0.0002466023601301056 
0.0005944365516144991 
0.08674624805971598 
-0.005080406226894242 
0.02082373554483494 
0.2783110728767168 
0.002297487623766875 
0.1090851229071671 
0.02260336463340448 
0.01969652391928688 
0.001245632161148426 
0.1121948818794554 
0.001328639535326839 
0.1218121380589113 
0.151614433834748 
4.41649516778621e-05 
0.05894636860277581 
0.003168793579187834 
4.812341145821812e-05 
0.1231067972997358 
0.2872822258647012 
0.004691904993718708 
0.2143054857340178 
0.3105244097145898 
0.0001095197842370558 
0.0009462076294742564 
-0.001730514024670611 
0.001851683289827276 
0.1517202892654659 
0.008996221626734045 
0.2791799378745261 
0.0001382527884408083 
9.408783676294611e-05 
0.000175986905664529 
0.0001225384664861274 
0.165905741578082 
0.05810798699074399 
-0.0002111642652313903 
0.0009093738803647914 
0.06998237209438998 
0.3878367145927127 
0.0004033348462273633 
0.0001559609001136131 
0.0001559609001136131 
3.149004890149397e-07 
0.01054373844268329 
4.41649516778621e-05 
4.41649516778621e-05 
4.41649516778621e-05 
4.41649516778621e-05 
0.005151481177259625 
0.002972675587857809 
0.000733141096571667 
8.85990669844573e-05 
0.001869504387034177 
0.03281111565187074 
0.003610686118641259 
0.0002489232550170485 
0.003315884028684199 
0.03281577099515426 
-0.3658976988010331 
0.0005655272674028676 
0.0005655272674028676 
0.0005655272674028676 
0.0005655272674028676 
0.0005655272674028676 
0.0005655272674028676 
0.0005655272674028676 
0.0005655272674028676 
0.0005655272674028676 
0.0005655272674028676 
0.001340916194602823 
0.01715571863829177 
0.03910606322130332 
0.001629834678571319 
0.0341584006765407 
0.05691869715814459 
0.1249112479110115 
0.06748935986722157 
0.1910395446213685 
0.03195002625280216 
0.03775522803560777 
0.03946750328920953 
0.03778658114999032 
0.0001299587717057413 
0.05227525962329761 
0.0002040904975054852 
0.002310543031610654 
-0.1096210245558298 
0.123961253686132 
0.0001497202617548888 
0.0006943845193849965 
0.06654197492372697 
0.06625268402031056 
0.06625268402031056 
0.01044633432019844 
0.0107329594478906 
0.009606365999292417 
0.001829813815068497 
0.01062276739089935 
0.2805938304547075 
4.41649516778621e-05 
0.09028073803406224 
0.001414941151995535 
0.003986543191241641 
4.41649516778621e-05 
0.06867140656977493 
-0.6504741648282782 
0.008048074706018116 
0.1220228060264911 
0.0001329537374463547 
0.0001329537374463547 
0.0009945181793375511 
2.313105729985659e-05 
2.313105729985659e-05 
0.001308325068595288 
0.0008761038917041836 
0.07747709408569313 
0.0008761038917041836 
0.002423335909688961 
0.003361023489302394 
0.003853886658205617 
6.209131360783145e-05 
0.05080591561430706 
1.057648155155647e-05 
0.0002330367395573175 
0.1159260158225608 
0.3199156248782259 
0.0001698731832475805 
0.1851456458471923 
0.005368350436874131 
0.001702055907421726 
9.416565152884927e-05 
0.0009829311673181765 
0.0009829311673181765 
0.0006572080600389452 
0.1296772641751312 
-0.2278927680670676 
0.02869284122642732 
4.41649516778621e-05 
0.0006217732926387095 
0.0006217732926387095 
0.0006217732926387095 
0.406436386278767 
0.0006217732926387095 
0.0006217732926387095 
0.0006217732926387095 
0.0006217732926387095 
0.0006217732926387095 
-0.0003373548928729698 
0.0002362382924227062 
0.1474242836854318 
-0.5146029564708509 
0.1648019988461611 
0.01153279732056602 
0.01638556921063633 
0.001308325068595288 
0.0001256557010570516 
7.297852437358301e-05 
-5.900603854759813e-05 
0.1721905006383093 
0.002690613783138745 
0.0006465020915102824 
0.0004536560971687694 
0.0004536560971687694 
0.0008698714217552838 
0.02014844112085009 
-0.003240929924433515 
0.1787106027041837 
0.000206882683441573 
0.0008824856897905294 
0.006997237318726297 
0.004350404515955907 
0.004237631538728545 
0.09801029052445509 
0.001717494510197114 
0.005635957381325968 
0.0001051946526806329 
5.679269777312741e-05 
0.1616281532041197 
0.00226057332954512 
7.424684811744369e-05 
0.1198876535417709 
0.351808413966495 
7.424684811744369e-05 
0.2263663935662051 
0.02532188036827146 
-0.08963858804148921 
0.1202055667303349 
-0.2549176611811322 
0.003575564765724458 
0.0007858812250662755 
0.002494252768596214 
0.1389680751453302 
-0.001347367792676074 
9.999084709336757e-05 
0.001388899199566476 
3.180207252015094e-06 
0.2121706204105137 
0.009215128233405123 
0.2069828834292399 
0.07325666774081883 
0.004476145539427141 
0.01258411519538849 
0.0001450792673391725 
0.105704985540083 
0.02437432082487317 
0.02553348381510779 
0.003751464826706247 
-0.0008692167886175253 
4.41649516778621e-05 
0.002239893171512758 
0.09233786891499433 
0.1105938611400692 
0.0001858076813692814 
0.0001314870692346513 
0.0001314870692346513 
0.01180600319660168 
0.07474231683115747 
0.0002585280514847258 
0.01507400121805083 
-0.01442646232869908 
4.41649516778621e-05 
0.1057416002229349 
0.03839747638144472 
0.0344184156177253 
0.001234111358078336 
0.1165643826158569 
0.1252608444422469 
-0.0001841513208594106 
0.02208308327756852 
0.04804626916313046 
0.0006428134763344555 
0.09789314245365964 
-3.938180219094507e-05 
0.301252262788779 
0.000758793105903377 
0.000758793105903377 
0.0002392088740624096 
-0.0003453108447989076 
0.0369750530402058 
0.001855366676519846 
0.001030705423950883 
0.02553348381510779 
0.0001175391733628766 
4.41649516778621e-05 
0.05992680306405378 
-0.0003647717773024545 
0.0267152985125734 
-0.7316236550301981 
0.2297907599476801 
0.0003147950291508882 
-0.01470163833622871 
-0.003211912809792779 
0.0005107236456240481 
0.002790315624469032 
0.001813110585970377 
0.002136697370423996 
0.06255337544215517 
0.0002203617911489042 
0.001308325068595288 
3.068577370276303e-05 
-0.002836458917804808 
4.41649516778621e-05 
0.1616181674701161 
0.1040455715089088 
0.1217285169793148 
0.1515187528335644 
0.001308325068595288 
0.04182501290303815 
0.00916542499363472 
0.1021430206597299 
4.00821313499851e-05 
5.416427599916679e-05 
0.0008768045532078073 
0.003301815693935289 
0.2670815086826402 
0.001834613640836445 
0.01618939996740567 
0.0007919197489849655 
0.0007919197489849655 
0.1564995256775609 
0.001749255203312662 
0.001749255203312662 
0.002061933519695523 
0.002061933519695523 
0.002061933519695523 
0.06418979627044652 
0.002458100134384254 
0.002136697370423996 
0.09148492741781122 
0.0002784286181632351 
0.0002784286181632351 
0.001645319609357356 
-0.001317238389893176 
-0.003446128986705242 
-0.000937381215090463 
0.005315234981689006 
0.003002016644620029 
0.003217822723766609 
0.003135518167008317 
-1.169415759738688 
0.00205950461440064 
0.5258445832184998 
0.01374263130119876 
0.001499253033354997 
0.001499253033354997 
0.08758956724157091 
0.02691733752047107 
-0.1068286772692745 
0.02774318438764222 
0.1326591693818681 
0.02691733752047107 
0.0002521975020823412 
0.008265216070107245 
-7.944060716263964e-06 
-7.944060716263964e-06 
0.0008376831006824226 
0.1299163204288772 
5.421134281379097e-05 
5.421134281379097e-05 
5.421134281379097e-05 
0.02269700818051828 
0.5030037061410532 
-0.4768929451641701 
4.41649516778621e-05 
0.004864378049187683 
0.0003352655886158748 
0.001671318045002977 
-0.1549218007242215 
-0.2905182566226199 
0.2894508812440771 
-0.08283292856445743 
0.1651828065062139 
0.001698063510540368 
0.0002201418707744485 
0.0002201418707744485 
0.01039830279726668 
0.0002643068224523108 
0.0003089241763821743 
0.0002201418707744485 
0.004765167299214172 
5.451557494306821e-05 
0.001074793997150509 
0.02893840225550956 
5.249742964461516e-05 
-0.002679814233268752 
-0.002591484329913027 
6.962588916807547e-05 
6.927272678834301e-05 
0.001641888848044628 
0.1045471458928859 
0.09238086428552847 
6.585548450718234e-05 
6.585548450718234e-05 
0.01287860441034745 
6.585548450718234e-05 
6.585548450718234e-05 
0.008736726202731011 
6.585548450718234e-05 
7.182823426057943e-05 
5.798036294474466e-05 
0.01815940479047946 
-0.4145539844743029 
0.1993445078165167 
0.007780349747293759 
4.41649516778621e-05 
0.0001575895330708598 
0.0002511548103252562 
0.0002511548103252562 
0.001058389638927022 
2.548055717327735e-05 
4.41649516778621e-05 
0.002290805067877673 
0.001068348685211998 
0.001068348685211998 
0.07595672553440583 
0.0001324948550335863 
-0.09710688615570007 
0.006586805974060989 
0.002330674000973674 
-0.2527108082597279 
0.02539957143330713 
0.002251535779347621 
0.2086473087293264 
0.001895283205022798 
7.290031846396661e-05 
-0.01667375436873068 
0.1140710026284249 
0.0001197321168108357 
-0.3618069135290392 
0.000161973734468779 
0.002500023065981088 
1.484103425738807e-05 
-0.0007061027951922439 
-0.0008165733654446343 
2.73481110900949e-06 
0.001308325068595288 
0.0001015227203155777 
0.0003802457557575053 
0.005718058815794349 
0.000122767768331921 
0.1061542362475991 
-0.5013493531726926 
0.1077680837210665 
0.04560002568142461 
1.212530808084417e-07 
0.004128570808048774 
0.04145250540854553 
1.212530808084417e-07 
0.001404320660274025 
-0.008604403036935559 
0.01206827980754773 
-0.008648567988613423 
0.02500473425636047 
0.0729556595794888 
0.07184407987097323 
0.005310578587309187 
4.41649516778621e-05 
0.30585460228176 
-5.434198938231142e-05 
0.08490652809459369 
0.07283462903699622 
0.07268892953159423 
0.0003198930383659094 
0.0003198930383659094 
-0.01434015208420317 
-0.6099803762363516 
-0.5549377343956625 
0.007962779378363614 
0.02590183473709882 
0.005922626525060876 
0.005922626525060876 
0.005922626525060876 
0.005922626525060876 
0.04964302470750703 
0.1469088423739956 
0.2743818873968673 
0.000227369080542485 
0.0009892534503505922 
0.01030420846922909 
-0.8869596909001456 
0.5251778002796971 
0.001736297816690328 
0.0001324948550335863 
0.001473147129009187 
-3.694777797026235e-05 
0.02001702178552548 
0.001222611107575228 
0.0001998439471838096 
0.0001998439471838096 
0.01797195079090311 
0.0001998439471838096 
0.0002034170821383081 
4.117335197974371e-05 
4.117335197974371e-05 
0.002062380139575429 
-0.0008930957533716484 
0.003451715414595042 
0.000332713124943762 
-0.253185442300462 
2.919586436741677e-05 
0.000552760437666131 
-0.005232212338541707 
0.2606995568043768 
0.1224329687997717 
-0.3524319781472472 
0.001002038956425459 
0.001002038956425459 
0.001046203908103322 
0.0001429120965614022 
0.0838293244540433 
0.0001514774036763973 
0.01795068278589743 
0.0009653070199531423 
0.03229094405173236 
0.01730750278891111 
0.01858565200250053 
0.06076850028601278 
5.646718500299926e-05 
0.2660250954877383 
0.0004328695188729454 
0.001671046774417499 
8.006298237212629e-05 
0.01609758629985695 
0.1067558828780307 
1.464655922671052e-05 
-0.02315475634216529 
0.0008716148599858664 
0.01126122770249784 
0.007409255854995261 
0.0006151359873990197 
-0.0007802286933562217 
0.1588864852283204 
0.0005934672325457952 
-0.04518320674662005 
0.04262703659781418 
0.4777767124595603 
0.0001358756719656113 
0.0007507581573010389 
0.0007507581573010389 
0.0007507581573010389 
0.0007507581573010389 
0.0007507581573010389 
0.0007507581573010389 
0.002624906210529343 
-0.0002380317627958527 
0.0002728554626664386 
0.0003422095596469554 
0.0009071734115223279 
0.04071168532030688 
0.04071168532030688 
4.41649516778621e-05 
4.41649516778621e-05 
0.0001184623414448389 
0.0008211559845659414 
0.190313634206299 
0.002730705220138327 
0.03267869951830712 
0.1595802971951567 
0.088730306675816 
0.0005636736981699192 
0.0003007005220932131 
0.1452232049913543 
0.01384938741972969 
0.1365779509205121 
0.1191986117113131 
0.0001429890539104828 
0.1329068442981264 
0.02298650239254071 
0.001308325068595288 
0.08097079790170737 
0.001404914634377589 
0.0135127591277693 
-0.0001379980742616966 
0.0001855391804811594 
0.0001855391804811594 
-0.00690283706023975 
0.1084481089269081 
-0.0006349080358002148 
0.2109275757121663 
0.003090653986780855 
0.001107609683789738 
0.00316599971432838 
2.429513880026801e-05 
0.001550567172964402 
0.001575502451754626 
0.1493806914833056 
0.0008267656600742583 
-1.246143071929678 
0.08235427855303211 
-0.3806334422874723 
-0.3806334422874723 
-0.002316742927053177 
0.004535905489518601 
0.0494914628667862 
0.01441460526932397 
-0.01834401227228222 
0.0009817329683994803 
0.0009817329683994803 
0.000648925626805578 
0.1474941576294848 
0.0002825546104832469 
-0.02904275986894655 
-0.03001010730137528 
0.2057325492647594 
0.000193833616235792 
0.0280013890440357 
0.001769145523540746 
0.001975872147575678 
0.000557222035588062 
0.0001816092555381847 
0.03168839247616705 
0.07434525845228926 
0.07434525845228926 
0.06899994719040313 
0.08055334847587926 
0.1514838349206206 
0.050095028211382 
0.0157333489596051 
0.01510519547672157 
0.0157333489596051 
0.1715671547455239 
0.01614225741075355 
0.001457129613443497 
9.155116663590473e-06 
0.01389378728242648 
-6.484785539280372e-05 
0.1715455126895417 
0.001068348685211998 
0.001068348685211998 
0.01135216804036483 
0.0002565036867013488 
0.0002565036867013488 
-0.004330241319620768 
0.120280528471203 
0.1217121185271349 
-0.006117384842041548 
-0.007781627394800504 
-0.00908688910467732 
0.1040395845348592 
0.02140351320809657 
0.0124814457821862 
0.0007060314214480545 
0.0006677087277211062 
0.0006677087277211062 
0.0009392894081967147 
0.0006677087277211062 
0.0006677087277211062 
0.0006677087277211062 
0.0006677087277211062 
0.07653522449032867 
0.1667359744764238 
0.0001589221077792633 
0.0007718685872140881 
0.001219812797587198 
0.0002058449708322294 
0.002005830057024229 
0.1583294844035733 
7.008066009700444e-06 
7.008066009700444e-06 
-0.0004139676408753136 
0.001544424871828409 
7.008066009700444e-06 
0.0006722845498191104 
0.1206554559582143 
-0.004682456186363982 
0.0004666925763197269 
0.0001091479965107131 
0.002336750116923993 
0.0004310089655885736 
0.001078413037650601 
0.0006290175412400651 
0.0006731824929179273 
0.06534371171647704 
0.0001447081185262987 
0.001369113502013726 
0.0002343624717224579 
0.0368324569979367 
0.003312063431597859 
4.41649516778621e-05 
0.1632137397249682 
-0.001924781939648429 
-0.001924781939648429 
-0.001924781939648429 
-0.001924781939648429 
0.02188901032792797 
-0.3985106411271419 
0.0002726506240644049 
0.000160801756025213 
-0.3055920169655854 
0.1544809631079881 
1.633376944371574e-05 
0.05443246001238891 
0.1008848340470727 
0.09244092276884255 
0.09497917419719333 
0.0002418654040750939 
0.0002418654040750939 
0.0002418654040750939 
0.0002418654040750939 
0.0002418654040750939 
0.0002418654040750939 
0.0002418654040750939 
0.0002418654040750939 
0.0005048385801517999 
-3.83181182614388e-05 
-0.7468578285260491 
-0.7468578285260491 
0.1040480135270787 
0.003064125258404377 
0.01750331865483578 
0.00945004901700288 
0.2075631098958833 
0.4080450323830921 
0.01857985351918552 
0.0005031003793129806 
4.704922760646828e-05 
8.832990335572421e-05 
0.0786048660413734 
0.001283763028553108 
0.03343691927548276 
0.04024883174480674 
0.09970326225126165 
-0.001004337904834692 
0.05531631114675437 
0.02446262042609831 
0.2284956500149808 
0.02012854863615167 
0.001379087497126793 
0.006103856527355078 
0.0007333337462684175 
0.00023242829255638 
0.0001694465487982939 
0.09659596850760242 
0.09008625247092431 
0.005247372338666602 
0.01582101665849659 
4.41649516778621e-05 
8.542973224800654e-05 
8.542973224800654e-05 
0.0004816438349866805 
0.0007783195837460549 
0.0003091546617450347 
0.008929016706986242 
4.41649516778621e-05 
0.001955563210596875 
0.0001005321331988069 
0.001937361096640533 
9.390900136370887e-05 
0.04797087110568508 
0.2042186379990954 
0.0208383561637765 
0.001849454973841505 
0.02273126994222269 
0.01136029925421687 
0.1303619639896251 
-0.009005929269123117 
0.0003386016382122873 
0.001691892572122949 
0.000488385597499804 
0.000488385597499804 
0.0008658848657298801 
0.000488385597499804 
-7.702627288990606e-06 
0.2048408246579785 
0.191359007952233 
0.1218392796827965 
6.01071323178616e-05 
0.0002178588401093638 
0.02588100992700299 
4.41649516778621e-05 
4.41649516778621e-05 
4.41649516778621e-05 
4.41649516778621e-05 
4.41649516778621e-05 
0.0003247309672027591 
4.41649516778621e-05 
-0.0007149515869918973 
0.09500449282371459 
0.1217519013734517 
0.0008114669313978518 
0.165238566720274 
4.29171606764763e-05 
0.008630933592692593 
-0.01176979133082426 
0.00711128907373194 
4.41649516778621e-05 
-0.6467330327727723 
-0.6568648097286729 
-0.3510376754167291 
0.001865365130882741 
0.0008096380888406745 
1.520041910526441e-05 
1.520041910526441e-05 
1.520041910526441e-05 
4.836659625842265e-05 
0.007557935158249142 
0.0002224294435447008 
-0.006858262399562103 
-0.006780943183913438 
-0.0139782332400725 
0.000860426752173453 
0.001161368448057754 
0.001866358845120149 
0.09985950504031546 
0.0006961475166263032 
0.0006961475166263032 
0.001319921805485462 
-0.2086449228003721 
7.480294823311584e-05 
7.480294823311584e-05 
7.480294823311584e-05 
7.480294823311584e-05 
0.0140463890286186 
0.01392253285382886 
0.02023967978948695 
0.005743763485037036 
0.001558145651731746 
0.000117354128890875 
0.000117354128890875 
0.000117354128890875 
0.000117354128890875 
0.003109726257977275 
0.0004338458764618637 
0.107157275422688 
6.937294097809838e-05 
0.005869741991710372 
0.001738622116867693 
0.001535409733227758 
0.001535409733227758 
0.05799373544050809 
0.4771966132979815 
0.03029450330338386 
-0.0007396172275457989 
-0.01127702587744218 
-0.006791131680169469 
0.0008372572658845221 
0.0008372572658845221 
0.0008372572658845221 
0.001349633387055352 
0.0005251436230569381 
0.003338340629975892 
-0.4288465224604331 
0.0001773805129848532 
0.1781512039106983 
0.007917243396498491 
0.003061751507413417 
0.002730921727692364 
0.002730921727692364 
0.003109567356192351 
0.0003674077495221048 
-4.638067286576994e-06 
0.0003093305432367821 
2.199060449560236e-05 
2.199060449560236e-05 
2.199060449560236e-05 
0.01403048318277718 
4.41649516778621e-05 
6.112144961644997e-05 
6.112144961644997e-05 
6.112144961644997e-05 
6.112144961644997e-05 
-0.3516588888128832 
-0.0004802821291099812 
-0.08749231347235834 
-0.0004802821291099812 
-0.0004802821291099812 
-0.0004802821291099812 
0.03662709389887861 
0.0001252183671198079 
0.09059707972065124 
0.01017599687573258 
0.0002150910796928524 
7.34931674653354e-05 
4.41649516778621e-05 
0.02039842671928144 
0.2403135240562227 
0.000171269767539346 
0.05106619100376035 
0.000171269767539346 
0.000171269767539346 
0.000171269767539346 
0.01417108835582662 
0.06202358421356988 
0.0009141611886095149 
5.995412141063215e-05 
8.796079105435758e-05 
-0.2288326285405793 
8.832990335572421e-05 
0.008046775390342271 
0.00147409620022484 
0.001308325068595288 
0.1659453012089686 
0.08734651034729105 
0.0002614261814258218 
0.0002118147703332241 
0.05967596757815104 
0.000799213547060344 
4.41649516778621e-05 
0.07134101301470427 
0.001643856328925565 
0.03559853321049766 
0.001468789466368653 
6.621195499511055e-05 
6.621195499511055e-05 
0.09525417450295516 
-4.641334316971421e-06 
0.001308325068595288 
-0.000139563572957554 
-0.6429162970255242 
0.09607829423477064 
3.457612925842041e-05 
3.457612925842041e-05 
8.955561411359779e-05 
0.000276481104676169 
0.01751384987458907 
-2.65569238215875e-05 
-2.65569238215875e-05 
-2.65569238215875e-05 
0.00104346354792214 
0.05047452842932747 
-0.9569321113389675 
0.003014974728729052 
0.0002046208436787807 
0.0002046208436787807 
-0.00893702646638499 
0.0003008043311816211 
3.158957717926373e-05 
0.0005618389976403116 
0.06494584429821389 
0.001861933817968705 
-0.003246783985747079 
1.158352589154934e-05 
1.158352589154934e-05 
0.08524182753571984 
0.0004174802893973704 
-0.001459584804649991 
0.06145303349479476 
0.0474586180329468 
0.0003091546617450347 
0.0003091546617450347 
0.0003927558249940937 
0.1218545242553519 
4.41649516778621e-05 
0.1438984274409158 
0.001375815978222025 
0.0001913225414457154 
6.522305534262143e-05 
6.522305534262143e-05 
0.1484068812919729 
0.002754700206758831 
0.0001837906077781866 
0.0007189770484119374 
0.0007189770484119374 
0.01310233047324824 
0.0001549260305017759 
0.05406162834483721 
0.06226393600783901 
0.0614861941978487 
0.0614861941978487 
0.001613450767985589 
0.09227741371315011 
0.0003356967215510691 
0.06774656216651928 
0.03501567945929672 
0.0005523470431077707 
0.001004223737693914 
0.0144013394688618 
0.00021267454767 
0.2241718822766741 
-0.1745749915402346 
0.0001551718267430418 
0.04647645827252593 
0.01021521969093655 
8.832990335572421e-05 
0.004134344774553464 
0.03415779327871948 
0.5170821094354928 
0.002267461030713195 
0.005757628781342991 
0.01954185158149215 
0.404994269746011 
0.0006437013475008908 
0.08256955863494274 
0.0006437013475008908 
0.05035640361349727 
1.86875831353827e-05 
0.0001235549029859965 
1.239469844095827e-05 
0.01689799304302283 
-8.063173737706445e-05 
0.01194435318870112 
-0.7139948711822455 
0.3176485367452947 
0.01080223469330933 
0.001196939125363625 
0.0001394790424306431 
0.0001394790424306431 
0.0001394790424306431 
0.06309153729368608 
0.0001394790424306431 
0.0004922358033654904 
0.0001394790424306431 
0.001646762160587375 
0.1425358062331833 
0.0977490810510806 
7.529895086340669e-05 
0.001308325068595288 
4.987594452585624e-05 
0.2271525092512813 
0.00705536120099774 
1.019778781170236e-05 
0.0001106855979645236 
0.0001106855979645236 
0.0001767388305009732 
0.0001767388305009732 
0.0001767388305009732 
0.0001767388305009732 
0.5869460871874862 
-5.558197048618562e-06 
0.1437609277763855 
0.001097228479336986 
0.0002605734706993141 
0.5589532620604059 
0.1747556799874752 
0.1306770681675511 
0.09064362863980713 
0.0003267997833933831 
0.007760839494352363 
0.0003267997833933831 
-0.002437753562007 
-0.001956220100304798 
0.06035388215405876 
0.0003924862547368858 
0.0001087405047238343 
-0.0001100719837228162 
-0.0001100719837228162 
-0.0001100719837228162 
0.004596939666574568 
5.762875719389031e-05 
0.06073445249616423 
4.41649516778621e-05 
-1.169415367937597 
0.0286335024623962 
0.0286335024623962 
0.0286335024623962 
0.0286335024623962 
0.0286335024623962 
0.1206986939196387 
0.01635767329742084 
0.01635767329742084 
0.01635767329742084 
0.01635767329742084 
0.01635767329742084 
0.01635767329742084 
0.0003309239179223968 
0.08920221399097589 
0.001000891650374018 
0.4291414634316403 
-0.005291126877962659 
0.003236072850771269 
0.0002202407869144943 
0.08703236079756066 
0.0002202407869144943 
0.000209222043586339 
0.06552104214903337 
0.001150238485822858 
-0.15923028249464 
0.1218378010574366 
0.0009881375284179748 
0.06556972981015899 
-0.01957045946244194 
0.06948984224419981 
0.06948984224419981 
0.005012004997815846 
0.005012004997815846 
0.005032433514270063 
0.005012004997815846 
0.07994524696666594 
-0.000516722629806922 
-0.0005733959820152959 
0.02234655702943938 
0.007168292859743054 
4.41649516778621e-05 
0.003161582391444901 
0.001722267350871159 
0.03291151630796128 
0.05376835323367461 
3.038478422610539e-05 
0.001618631240701883 
0.01390562530244086 
-0.003405247695320821 
0.000842919846378279 
0.1378012406686132 
0.04091815115247466 
4.41649516778621e-05 
4.41649516778621e-05 
8.832990335572421e-05 
0.01830622160189432 
0.0001333956186937563 
0.1218264812306663 
0.0001016716228806259 
0.0001016716228806259 
0.0001016716228806259 
0.009573520473817845 
0.005046237836321505 
4.881143533201575e-05 
4.881143533201575e-05 
4.881143533201575e-05 
4.881143533201575e-05 
0.0008970226589155358 
7.869486704610579e-05 
-5.897212157012713e-05 
0.002116498916558172 
-0.412789510805586 
0.0002944974275329824 
0.0008248505767004858 
0.1218402943369903 
0.0115875953399439 
0.001868688676906768 
0.1423797645429793 
0.0003315607969222711 
0.07518038195836996 
0.0003583347574927099 
0.0003583347574927099 
0.0003583347574927099 
0.06475590538639907 
-3.879692346792956e-05 
0.0002393792681266793 
0.04463432357333808 
4.829426391308917e-05 
4.41649516778621e-05 
4.41649516778621e-05 
1.169020760802703e-05 
4.41649516778621e-05 
0.003640769548060767 
0.001521538244305501 
0.0003684847511984194 
0.0001546168374809539 
0.002261297731124586 
0.0008294895466562376 
0.0001179761809582545 
0.0001179761809582545 
0.003343537979357017 
0.1594281492519536 
0.0007179606168140584 
0.0005311464860492067 
0.0005311464860492067 
0.0005311464860492067 
0.0005311464860492067 
0.0005311464860492067 
0.001355618097001754 
0.1175463080591046 
7.987079016684136e-06 
0.0005019048309185497 
0.06551991934219722 
0.0006335280643142041 
0.000195792828833665 
1.711952824425311e-05 
0.2680859372525519 
1.711952824425311e-05 
5.404552702335758e-05 
5.404552702335758e-05 
0.0901629770628032 
4.41649516778621e-05 
0.02407968661299922 
-0.0001225002400288637 
3.829158313245406e-05 
8.245653481031618e-05 
0.002678212597047272 
0.1046352154850193 
0.006392980225877738 
0.01746536920737576 
0.0006663594126799298 
0.0006663594126799298 
0.0006663594126799298 
0.0006663594126799298 
0.0006663594126799298 
0.0006663594126799298 
0.0006663594126799298 
0.0006663594126799298 
0.0005538127917212832 
4.41649516778621e-05 
0.08426874302927453 
0.0002897054190915588 
0.07606669987340005 
0.000125835393337128 
9.258884483466511e-06 
0.1080406316200243 
9.258884483466511e-06 
0.3535172870518097 
0.0002211278192182733 
0.001308325068595288 
0.002134884972315385 
0.05708283996888687 
0.002134884972315385 
0.002134884972315385 
0.002134884972315385 
0.002134884972315385 
0.002134884972315385 
0.3120262430004183 
0.0004880962318647401 
0.0004090407213080816 
0.0003661432938711614 
0.05866159059993244 
0.0004986419640208356 
0.001308325068595288 
-7.738882098019965e-05 
0.0004804573947654861 
0.05153437854649993 
0.09248579852736619 
0.007535676565518592 
0.001068348685211998 
0.001068348685211998 
0.001408130659733921 
4.41649516778621e-05 
0.0001025236616062365 
0.0007326779619161147 
0.02156318667573985 
0.001539969109512361 
0.000629918046443961 
0.002816342989865243 
1.331344366898436e-05 
0.01873521778736986 
0.0003556616303135495 
0.0003556616303135495 
0.0193209090724717 
4.656171615622683e-05 
0.0012749201904838 
0.00322433104837405 
0.02334574948890299 
0.03493949697794298 
0.0234587172810524 
0.0233259469588916 
0.005994935047280164 
0.0033909756969546 
0.0906440561769354 
0.03956555006677286 
0.1409529680252763 
-1.731205381258975e-05 
0.0005925648951395465 
-0.007387286919581142 
-0.007387286919581142 
-1.672176430050909 
0.1197529779729813 
0.001335710107076493 
4.256767999131776e-05 
4.256767999131776e-05 
0.0002256103023076129 
4.41649516778621e-05 
1.690246127260758e-06 
0.0002193462717693458 
0.0004216642199079384 
4.41649516778621e-05 
4.41649516778621e-05 
0.0002885346105932519 
0.02721586577430363 
0.121859102414341 
0.0003743016252206863 
-0.2683179542810821 
0.0003398609682567091 
3.497602284174894e-05 
0.1063213541040307 
0.001708828177476183 
0.000508778509103259 
-0.5236288527787786 
4.41649516778621e-05 
0.08756190335174495 
-0.2749936042933964 
0.08756190335174495 
0.0001405765541841463 
4.41649516778621e-05 
4.41649516778621e-05 
0.001159880275539081 
0.0009614619090378496 
0.1254713713788456 
0.001308325068595288 
0.001308325068595288 
0.01012688978758082 
0.01012688978758082 
0.005372832898558326 
0.0001125778377512609 
-6.474177457291736e-05 
0.001376690001706954 
0.0003352326577413815 
0.004009732808615028 
0.0001972182697086665 
0.0001972182697086665 
0.1892903035465919 
1.122735130682515e-05 
0.002180597475840741 
0.00179008294705527 
0.001929014709658688 
-7.210784637558592e-05 
-7.210784637558592e-05 
0.001308325068595288 
0.00123019452742705 
3.250553789356999e-05 
0.02433664713338144 
0.08626875212393513 
0.04552452108909456 
0.00093858135598165 
6.397086055005447e-05 
0.000591607823019556 
0.407891918764212 
0.0001084343096435297 
0.196991907593118 
0.1869109672654342 
0.0003049475860968008 
0.1989071320958539 
0.08330570807371965 
0.02204266262734278 
0.1363880423473636 
-0.0004986261102990532 
0.1096592850530397 
0.0117711865056414 
0.001220486656434088 
0.001308325068595288 
0.0001426454461908902 
0.1467962769887831 
0.001099130037329105 
0.0003895939553427835 
0.0003786456284999868 
0.001393323986373982 
-0.001661027981394026 
0.003528218869982112 
0.003528218869982112 
0.003818016345701729 
0.003818016345701729 
0.003818016345701729 
0.003818016345701729 
0.003528218869982112 
0.0001462145848007387 
0.003144990218072399 
0.0003009054784757935 
0.0679843109724268 
0.0679843109724268 
0.0679843109724268 
-0.1199662480440085 
0.2789227027231375 
0.0004057732028710645 
0.0004057732028710645 
0.0004057732028710645 
0.0004057732028710645 
0.0004057732028710645 
0.0004057732028710645 
0.06951834792262027 
6.711420307498106e-05 
6.711420307498106e-05 
0.0001097596397316742 
0.008769596719671473 
0.03561784769084472 
0.001731230328359572 
-2.02609226439157e-05 
8.832990335572421e-05 
-0.01368432512011359 
0.1547039955122552 
0.0903414799878039 
0.04960697374591109 
0.04960254080342445 
0.001636741655263839 
0.0002224130781656401 
-0.008234403381690018 
0.0008814257993117339 
0.0008847972799973843 
0.0001020993361721125 
0.001021375086134793 
0.001021375086134793 
0.001021375086134793 
-0.007837759022527308 
4.41649516778621e-05 
4.41649516778621e-05 
0.001308325068595288 
0.0003015682324652839 
-0.008210082506558091 
0.04770658151480157 
-0.002280640674116938 
-0.001231413464190208 
0.0001156339358275395 
0.0006883221172989808 
0.0003774992682300762 
9.564500309652034e-05 
9.564500309652034e-05 
9.564500309652034e-05 
0.1012036806120523 
4.41649516778621e-05 
7.488608854040895e-05 
0.1235249853293297 
-2.685749754979056e-05 
0.1802255306365346 
0.1061706184473238 
0.002210988238531403 
0.001308325068595288 
2.170884164666082e-05 
2.170884164666082e-05 
2.170884164666082e-05 
2.170884164666082e-05 
2.170884164666082e-05 
4.192938362973351e-05 
4.062020186054757e-05 
-0.123227418288198 
0.001308325068595288 
6.533428513041946e-05 
0.02885206414619214 
0.1881010892454693 
-0.6004287815744962 
0.2157817823015496 
0.2157747967395853 
0.001308325068595288 
0.0008900619985861912 
0.09356464271567086 
0.03930331449306954 
0.001628216947234843 
0.0004962899471123695 
0.0004962899471123695 
0.0004908896865923457 
0.0004908896865923457 
0.0004908896865923457 
0.0004908896865923457 
0.05753625245596224 
0.03412946892632016 
0.0001945603267184679 
6.680844190369339e-05 
6.680844190369339e-05 
-0.0003553503175993137 
0.1218321409730308 
-5.147146971283725e-05 
-5.147146971283725e-05 
0.0008255545575115043 
1.835351283346832e-05 
9.046995377854215e-05 
4.41649516778621e-05 
4.41649516778621e-05 
-0.4876425760968183 
-3.133042020254781e-07 
-3.133042020254781e-07 
-0.0001003793244398405 
-0.0001003793244398405 
0.1625997978458489 
0.003831074451011981 
0.003708389166500329 
0.0001593998607464342 
0.0001593998607464342 
0.0001593998607464342 
0.002640032249570657 
0.0003861075269721103 
0.0003861075269721103 
0.03458191273642637 
0.00741579632345235 
-0.5328401677013653 
0.0003128016608090797 
-1.181900236465548e-05 
0.002178499724490333 
0.002248606160000723 
0.001189487679105551 
0.003568568329274248 
0.000137061508414038 
0.0009140238737767857 
0.06558275877675823 
0.0001775973764271241 
0.001308325068595288 
0.01099352303280493 
0.001340916194602823 
-0.7137769311514478 
0.1856907420263149 
0.001656437269982436 
0.0001995574233277163 
2.132487422570839e-05 
0.0001984043930388352 
0.0272052716570603 
0.0001324948550335863 
0.03804475434288641 
0.0001445260973686864 
0.0001445260973686864 
0.0001445260973686864 
0.000527685022778845 
0.06351866718295356 
0.06351866718295356 
0.06388797388628067 
0.0003051549409612251 
0.0004622848158614511 
0.06073682215700985 
0.08098693826386848 
0.0001718037766878435 
0.0001718037766878435 
0.0001718037766878435 
0.0001718037766878435 
0.0001718037766878435 
9.404820792909154e-05 
0.09231500880102128 
0.0002426206093359095 
0.09231500880102128 
0.03205870958092075 
0.07764713008618357 
0.002984295514013586 
8.727552192589541e-05 
0.127826584122268 
0.0008948717183268033 
0.0008948717183268033 
0.1128105018239621 
0.0008948717183268033 
0.0008948717183268033 
0.0008948717183268033 
0.0008948717183268033 
0.0008948717183268033 
0.001951767259062219 
0.002650983865734534 
0.002650983865734534 
0.002650983865734534 
0.002650983865734534 
0.002650983865734534 
0.002650983865734534 
-0.0007519723804822674 
6.855983966721859e-05 
0.280745106968199 
0.000133330494335507 
0.2817318036589915 
0.0005319104427431024 
0.02453806324409855 
0.01334179623997143 
0.01411765305138505 
4.41649516778621e-05 
-0.6351809291510306 
0.0003782088276561111 
0.08465171995662468 
0.1486587321341776 
0.0001402036466621892 
6.136588386660104e-05 
0.01007585725891673 
0.0007497383214809156 
0.001017868452410649 
0.000103975215846487 
0.1183505905261636 
0.01848223929199936 
0.01896189498057224 
0.1537933761485134 
0.0001704689822007478 
-0.00189071297306294 
-0.00189071297306294 
-0.008582850976694839 
0.2341217452566481 
0.1522885308176392 
0.05239415701200263 
0.05239415701200263 
-0.003994627961906472 
-0.0006648867870542551 
0.000347080248233436 
8.487355069992919e-05 
0.07882365618697465 
0.0004183678135442833 
0.06148833391179227 
0.2211183901026157 
0.04191046118926009 
0.1789666770658469 
0.0004904939070774512 
0.1076709238195301 
0.0002314421194784683 
0.1216795009504998 
-3.556915534859194e-06 
0.04470389736386538 
0.04470389736386538 
0.1131633219866989 
0.1343036895804735 
0.0001301248244308451 
7.588293369542598e-05 
0.06656025998439781 
0.006448843907995966 
0.0004416495167786212 
0.05377429167067994 
4.41649516778621e-05 
-0.00121013692972453 
-0.001413210821699197 
0.02916304259763865 
0.01050760490682932 
0.03724135454417513 
0.000370146463878705 
0.1164044123468937 
0.1164044123468937 
-0.2450876148793477 
0.0001086209579553936 
2.391227358992158e-05 
2.391227358992158e-05 
0.002996026567930549 
0.001578570887177559 
0.009591956391831552 
0.00162150464448577 
0.02342584477181448 
4.40327186380178e-05 
0.002121625240492779 
0.02815790079707613 
0.1435726632098469 
-0.4990968496462271 
0.2185557174270629 
0.000238669285452837 
0.03548993438639691 
0.0005870503109354247 
0.0882975333580647 
-6.541253298268253e-05 
-1.083962197411322 
0.01477105269504941 
-7.215790816279803e-07 
-1.196860731245065e-05 
-7.048576889747801e-05 
4.41649516778621e-05 
4.41649516778621e-05 
4.41649516778621e-05 
2.189705127886788e-06 
2.189705127886788e-06 
2.189705127886788e-06 
5.267433691414784e-05 
-8.167876312754793e-05 
0.06287028145157969 
-8.167876312754793e-05 
0.0001032428547879348 
0.000100232268554351 
1.312528004060725e-05 
0.002477526613092896 
0.1334581051662697 
0.3318231861247222 
5.213156251429572e-05 
0.00646190462681109 
0.006347565187386276 
-0.009060964841779866 
0.1156826322917426 
0.01641111232500879 
0.0002388627976327426 
0.1645617280144003 
4.41649516778621e-05 
0.001483706047513954 
0.0003651963777638846 
0.001002967806821722 
0.000192941399484054 
0.0009948986415248397 
0.001039063593202702 
0.004893104040691109 
0.1136260772576018 
0.0001736534799711416 
0.02445023502000577 
0.0001324948550335863 
-0.002786283106128323 
6.736543160087267e-05 
0.000245312629539771 
0.01183271973056207 
0.01171007207779365 
0.01171007207779365 
0.2490225875599243 
-0.8384895717504084 
0.002340263509741208 
0.01198148783381908 
0.01066877747742648 
0.0009698499555236949 
4.41649516778621e-05 
3.87104456188671e-05 
0.001068348685211998 
0.001068348685211998 
0.0001735665612634421 
0.0001735665612634421 
0.1401354461474927 
0.00476858393066146 
-1.056074599121869e-05 
0.02309711742294212 
7.201227639843031e-05 
0.1218402943369903 
0.1218402943369903 
0.04793814460339479 
0.007106611312221259 
0.004061548475635189 
0.002664308872616026 
0.1659905587159611 
0.006439923473875681 
0.07727034293328797 
0.0006319468443891948 
0.0002271485541130925 
-0.01960292208165225 
0.04539043739135452 
0.0006781206452993068 
0.001071843326280607 
0.1204774453647716 
0.01593091713276933 
0.0156998764479164 
6.584180942050197e-05 
0.03160774504440712 
-0.01498553664228511 
4.41649516778621e-05 
0.0001977019814550517 
4.41649516778621e-05 
4.41649516778621e-05 
-0.6630103938349036 
-0.6630103938349036 
0.0007266535543009118 
-0.0001853468372180723 
0.03278484901277799 
-0.002548111172724921 
-0.00713500301496908 
0.07500843715540872 
-1.800813793835868e-06 
-6.679186159314964e-07 
0.0003153709561858672 
-6.679186159314964e-07 
-0.0001998470261466025 
4.41649516778621e-05 
7.049145773061768e-05 
0.1325355410168318 
4.41649516778621e-05 
4.41649516778621e-05 
4.41649516778621e-05 
0.0006426485061465762 
0.0006426485061465762 
0.0006426485061465762 
0.0006426485061465762 
0.1412700206195082 
0.01490262206539025 
-6.834772942799701e-05 
4.41649516778621e-05 
0.06296379548915286 
0.06296379548915286 
2.132994467534154e-05 
-0.5838742868901657 
0.01190487971919275 
-3.083327166911053e-05 
0.1016774567227251 
0.006086115135754769 
0.001299997292317886 
0.07949810010414318 
4.41649516778621e-05 
-8.268223406676814e-06 
0.03159183187699161 
0.0009195284883482073 
0.07565095406551188 
0.0002208247583893106 
0.2844298346214245 
0.1149068988902763 
4.41649516778621e-05 
-0.7097026330490875 
0.07239579587083581 
0.05083378071610899 
0.0003703054345630437 
0.07191460083482543 
0.07209390502374853 
0.073051410732777 
6.743576134487028e-05 
0.001308325068595288 
1.589140370779821e-05 
0.01008918061263727 
0.0005027864575413957 
7.652952632310805e-05 
7.652952632310805e-05 
7.652952632310805e-05 
7.652952632310805e-05 
0.0008821800042481663 
0.002776753437106532 
0.1560998143495048 
0.08673313887616484 
0.0251318299490295 
0.03355375503670444 
0.09441612642807057 
0.005100892424038619 
4.41649516778621e-05 
0.06652716694515974 
0.0003332402047402811 
0.0005348338938224131 
0.005141509291353437 
0.01866480808852885 
0.004356518418814863 
0.01634677474436137 
0.1306952067085586 
0.0001958264779608842 
0.001340916194602823 
0.001490072322054004 
0.0003909396486288632 
0.0003732112985864096 
1.094832684279697e-05 
1.094832684279697e-05 
0.0002014182438490172 
-0.0001393685216889101 
0.05017003023065684 
0.007403833138813782 
4.41649516778621e-05 
0.002234032708800644 
4.41649516778621e-05 
0.0002649897100671727 
-0.007645557396955552 
4.41649516778621e-05 
-0.3854752323255712 
0.1683086144783613 
-0.004479045276747691 
-0.004479045276747691 
0.01956505512664904 
0.2262850528444818 
0.0001036497798328849 
9.037835232618307e-05 
9.037835232618307e-05 
9.037835232618307e-05 
9.037835232618307e-05 
9.037835232618307e-05 
0.001474881698317348 
0.001243682611264656 
9.037835232618307e-05 
9.037835232618307e-05 
9.037835232618307e-05 
5.402295143434479e-05 
0.0002883429185243166 
0.003176627656707792 
0.07451843624460153 
0.001887103554977245 
0.1349249078349148 
0.003222692184306642 
0.02573855276411511 
0.02011125279831104 
0.002924863921987213 
0.0003733159227037835 
0.0001263212003758159 
0.0001263212003758159 
0.0001263212003758159 
0.00315246535754407 
0.04699924597273684 
0.002348223555157905 
0.05044457827055934 
0.008309466356471487 
8.547675128617622e-05 
7.736638643164847e-05 
0.2041838838231893 
7.736638643164847e-05 
-1.750597843209597e-05 
-1.750597843209597e-05 
0.1200006012479079 
0.008710410421633973 
0.01323537114814063 
3.518735611572098e-05 
0.002761373784458381 
0.0174378866759686 
0.01874482054302617 
0.01825823374224841 
1.480688796950533e-05 
0.0511432171779551 
0.05214239081891651 
0.05214239081891651 
0.00774670426020547 
6.189941768793561e-05 
0.001068348685211998 
0.001068348685211998 
0.0001148445554002184 
0.0001368243156951757 
0.0001368243156951757 
0.2152238639645625 
2.556914338284444e-05 
2.556914338284444e-05 
2.556914338284444e-05 
2.556914338284444e-05 
2.556914338284444e-05 
0.03923235156077486 
0.0002696052811099651 
0.2268174375177458 
0.001799188983546533 
0.0005241213177133477 
0.03833235389720686 
0.005426101646074498 
9.396491766581769e-05 
1.893305176534329e-05 
0.00125323879736612 
0.0001213126243683979 
0.0006824881473636007 
8.437693915229446e-05 
-0.003335972004902329 
0.1764780251528805 
0.004262436038576404 
4.786581427732881e-05 
-0.001163697034975495 
0.001308325068595288 
0.03025246463108832 
0.0001975823833875366 
0.0001975823833875366 
0.0001975823833875366 
0.008351481139710792 
0.06697759151214615 
0.01176336536186571 
0.01176336536186571 
0.03288832644715679 
0.002237517106941261 
0.0002037472313858358 
0.0002037472313858358 
0.0007213245447854444 
0.05631458232519529 
4.41649516778621e-05 
4.41649516778621e-05 
0.1088927423909268 
0.02716669947564777 
8.363363624160078e-05 
8.363363624160078e-05 
8.363363624160078e-05 
0.0001121124240628693 
0.01902692677116692 
0.09208964248134045 
-0.0004306181477377041 
0.3667837954429189 
0.005936936425844514 
0.03862911647576241 
-0.0004255199411823816 
4.803411735003449e-06 
0.000284162628205417 
0.001071857218359131 
-0.0009552860889572103 
0.00418361441268777 
-0.001709705066323602 
-0.01508275769575727 
0.0002278942741785185 
0.0002278942741785185 
0.0006774768629190014 
0.0002278942741785185 
0.0002278942741785185 
0.0002278942741785185 
0.0002278942741785185 
-0.8078722724639864 
0.0004691620601497386 
0.007347257196842958 
4.646088405337406e-05 
0.0007220915625847348 
0.2466811193562072 
0.0003490466404828339 
0.1657538325196951 
0.06579239204271536 
0.0005690528730168756 
0.002916426754314072 
0.001810933345351558 
0.0001524939954928818 
0.0001524939954928818 
0.0001524939954928818 
0.0001524939954928818 
0.000285542743351414 
0.0003828616596298565 
0.00226570992969235 
3.896934380102979e-05 
0.0001304232562618001 
4.41649516778621e-05 
4.41649516778621e-05 
4.690849604508402e-06 
0.00177204506977085 
8.832990335572421e-05 
8.749148568194477e-06 
0.0004102771972700025 
0.04422722997517275 
0.04422722997517275 
0.0005350556781662275 
0.0002862195220621427 
0.3217069670418138 
0.001308325068595288 
0.1322125866375952 
0.0004346704682443104 
7.590027252016066e-05 
0.0002945869053085973 
0.0002945869053085973 
0.0003726051614198623 
0.0003726051614198623 
0.0003726051614198623 
0.0004314684209330423 
0.0007945927693732024 
0.0003726051614198623 
0.08418158114717808 
0.0009123993381945742 
0.0009123993381945742 
0.0009123993381945742 
0.0009123993381945742 
1.182963822766903e-05 
1.182963822766903e-05 
0.0005434956680055403 
0.001888064921588311 
0.003941089143313894 
-0.02876800413997417 
0.03715818356774558 
0.0002920992389944386 
0.01236465487840703 
0.001936273678054659 
0.06504424471363658 
0.0002922332135042744 
0.03585728010715059 
4.27605802919728e-06 
0.0002200094893548302 
4.484525721504376e-05 
0.004038596557692498 
0.004082761509370362 
0.004461489682908123 
-0.2928118423589376 
0.1203899864578595 
-0.001330489555224263 
5.036387705969264e-05 
5.036387705969264e-05 
5.036387705969264e-05 
5.036387705969264e-05 
5.036387705969264e-05 
0.002973767011558599 
0.001271003115374712 
0.001271003115374712 
0.001271003115374712 
0.001271003115374712 
0.003121493016851552 
0.003121493016851552 
0.0002145921101327122 
0.0002145921101327122 
0.000221630499255316 
0.000221630499255316 
0.000221630499255316 
0.001521759090809839 
0.001163833477889464 
0.2801093128458461 
0.01716778217116032 
0.0009771386629273307 
9.981105452560927e-05 
9.981105452560927e-05 
0.002716614319127788 
0.03579921680525483 
0.0001984183665012316 
0.001288908843594662 
0.0001984183665012316 
0.02157405105412688 
4.41649516778621e-05 
0.0819047468040815 
0.0001032566497847405 
0.0001032566497847405 
0.0002232802133311819 
0.0253123265831294 
0.0002704275400095955 
0.09680425175906597 
0.0004824349206262083 
0.0004824349206262083 
6.578120021546369e-05 
6.578120021546369e-05 
-4.16548293988562e-05 
-4.16548293988562e-05 
0.001388499701595687 
0.003405061497302296 
0.001388499701595687 
8.013867486930436e-05 
0.1297861908300614 
0.1295839659033801 
0.1086914920330524 
0.0006499319849729535 
0.001657459064238607 
-0.0007963445958804264 
-0.0008405095475582887 
0.1263735482949085 
0.0658969420620918 
0.001026169028345736 
-0.001908848569250562 
0.0680347081669495 
-0.0003053951892245502 
0.02836562129241263 
0.0002496625106782385 
0.0001758766046789361 
0.0007305479766532421 
0.1238974916760723 
-0.2370746216388557 
-0.0001167961906929556 
0.001146894133354887 
0.000385016303812889 
0.0002637134573573141 
-0.4822321997856717 
0.002294774720595084 
0.0001502150301564397 
0.002036869471181598 
0.1267791119057982 
0.002036869471181598 
0.002081034422859461 
0.001122319536592324 
4.843795260661026e-05 
0.00510140208793677 
2.042851645421844e-05 
-0.004757586448800806 
0.0003153415636269972 
4.41649516778621e-05 
0.0109463579278746 
3.652297532786925e-05 
4.41649516778621e-05 
4.41649516778621e-05 
0.009062082561420402 
0.001068348685211998 
0.001068348685211998 
0.0007779347807533701 
0.0007005539805602951 
0.001272736906587411 
0.01157922983882101 
0.2129030861891757 
0.0001263069307947327 
0.0001263069307947327 
0.04532544570961154 
0.3995564109922214 
-0.0001053286959238069 
0.1478566676485421 
0.001553287464637815 
3.975037978921331e-05 
-1.182630728199087 
0.0008402602874478301 
0.02997791611812748 
0.0008402602874478301 
0.0002813905661236002 
0.002084389677147992 
4.41649516778621e-05 
2.995419271749973e-06 
-0.01200951063681318 
0.1067856204118616 
0.1067856204118616 
-0.0003832914069956545 
0.0001993625880956074 
0.0002060892972425511 
0.0005301383651886698 
0.009228947933040832 
0.09687364279637829 
0.0001097656248034078 
0.01013177695590056 
0.0002328351390608555 
0.006551860570095698 
0.0004858144684564831 
0.03199532140001895 
0.002374234227893428 
0.0002832770698409494 
0.0002832770698409494 
0.0002832770698409494 
0.0002832770698409494 
0.0002832770698409494 
0.0002832770698409494 
0.000225519889300906 
0.08546984655414461 
0.06065475264570099 
0.001607284362900818 
0.000158894142015373 
0.0003391585151792675 
-0.0004602942831242401 
0.003335540950639599 
0.0001058271898499376 
0.0003241636868755679 
0.01182051464396011 
0.1618519614909335 
0.000890232036123521 
0.04037832673127045 
0.0006281534828835292 
9.824712366842994e-05 
1.271662902753875e-05 
0.0002729315775102161 
0.0005827648188012716 
0.001308325068595288 
0.01024912570458783 
0.0006675270386976874 
0.06544640091275003 
0.0002435643923402227 
0.0002517765307631816 
0.1130940515822246 
4.41649516778621e-05 
4.41649516778621e-05 
0.1404332530195716 
7.134220659082906e-05 
0.001096524213749834 
0.001229101577316865 
0.001308325068595288 
-1.34850450134963 
0.0007268571621398452 
6.989493887254657e-05 
0.001598337329938254 
-0.4414222862225499 
4.41649516778621e-05 
4.41649516778621e-05 
-0.005373773146975026 
0.1183774774672277 
4.41649516778621e-05 
-0.006588063905491385 
0.002257895814507426 
-8.08820301963258e-06 
-8.08820301963258e-06 
0.001552941084311574 
0.0003167078111822846 
0.0569583371640632 
0.001357141501648237 
0.001156128069508126 
0.0003565091126673574 
0.02092280607249853 
4.41649516778621e-05 
4.41649516778621e-05 
3.776013805994334e-05 
0.09154381386118605 
0.1715814113715246 
4.076621081399291e-05 
0.00113434300629558 
0.1218118292772197 
-0.0001093574230223804 
0.02927098057256916 
0.02962445329099586 
0.001308325068595288 
0.000344484749682845 
0.0003012161586861387 
4.533069455906026e-05 
0.0001284248858852288 
4.533069455906026e-05 
1.432688273650528e-06 
1.432688273650528e-06 
0.0004370417365051477 
0.000235223842961077 
0.002048884136272923 
5.598962682047368e-07 
5.598962682047368e-07 
5.598962682047368e-07 
5.598962682047368e-07 
5.598962682047368e-07 
0.0004017687406206763 
0.0003476302065528841 
-0.0001251668995765856 
0.0004307574278902271 
0.002462264498664628 
0.003228254711183963 
0.0003279207343970336 
0.02210640180054369 
0.0002219600660763647 
4.41649516778621e-05 
0.0002420956982188591 
0.159717023287474 
-0.6049825788664304 
-0.03449079755972083 
-0.4981589747778787 
-0.6049825788664304 
0.0005701431048731485 
0.1660206606567155 
0.0006279666789317924 
0.03403759290509516 
0.1890843263568347 
0.002014654002600372 
4.41649516778621e-05 
0.03132164304795194 
0.03426531071266383 
0.03151937299506421 
0.01548788080201384 
0.008011201990940716 
7.486066628204836e-05 
-2.760569205478866e-06 
0.03622177298651656 
0.006841324520276241 
0.09743563670748501 
0.001380687819488943 
0.1011428837108395 
0.01164693140519613 
0.003607414938656698 
4.41649516778621e-05 
6.727555099576432e-05 
0.0005575116845808412 
0.1148928286496906 
0.0214101407913265 
0.0003331771121560411 
0.0003331771121560411 
0.0003331771121560411 
0.0003331771121560411 
0.0003331771121560411 
3.87904360361314e-06 
3.87904360361314e-06 
0.1321066386616916 
0.002478519177782524 
2.007738969608026e-05 
2.007738969608026e-05 
0.0001087295615554141 
0.1040485538782519 
0.0001299870730704421 
0.2267412812643706 
0.02267994603057218 
0.02267994603057218 
0.0001017462286069531 
0.1005723665815486 
0.002650724325199512 
0.01244630310548994 
0.000237046888135027 
-0.003255152163084868 
0.001373507320610362 
0.00214792073030132 
1.288280404119602e-05 
1.288280404119602e-05 
0.0002159475412560243 
0.0004388730100693115 
0.02308889728173705 
1.35140698635688e-07 
1.963867131283848e-05 
0.0004281441603374162 
-0.006155747563636065 
0.02439172857435006 
0.0001434933515455353 
0.0001434933515455353 
7.218410739040797e-05 
0.0108993444283837 
0.0108993444283837 
0.002501875628717808 
7.399207297604631e-05 
7.399207297604631e-05 
-0.7853967761565572 
-0.7853967761565572 
0.001668130276205748 
0.0001662550858293777 
0.004780092346604873 
0.002384841241701087 
-0.9826272010395558 
0.0006622707247854777 
0.7864688481890358 
-0.001003718590226085 
-0.001294173680896146 
0.0001912176340666465 
0.002107246769937065 
-2.87178640117486e-05 
-5.891310896816661e-05 
-5.891310896816661e-05 
-5.891310896816661e-05 
0.0001370806785339644 
0.0001370806785339644 
0.02829171788362362 
0.0003819395209930486 
3.783108588369664e-05 
-0.0002176999450777466 
0.04432151154739727 
0.002475528024147117 
0.0906440561769354 
8.832990335572421e-05 
0.0001552637435203613 
4.41649516778621e-05 
4.41649516778621e-05 
4.41649516778621e-05 
8.832990335572421e-05 
0.09465122304301965 
0.005374573504557912 
0.1462531966056533 
0.1462531966056533 
-5.195607876832338e-06 
2.140564437522085e-05 
0.002547925077513916 
0.007510720164743797 
4.41649516778621e-05 
0.002091663806089416 
0.0899991411165296 
0.0002435839402959587 
0.0001440877095058867 
0.001148319260703083 
0.0006600629559601564 
0.06465339772310477 
0.0006600629559601564 
0.0001719583978740747 
0.2349428025613398 
0.003240940789068611 
0.02351850785514027 
0.02355313910238648 
0.02355313910238648 
0.02355313910238648 
0.02355313910238648 
0.02355313910238648 
0.001445376140507361 
0.03403759290509516 
0.0001209037309746514 
0.0008786215349707423 
-1.288635700916731e-05 
-5.190800662713841e-06 
0.0001048666968482166 
0.0003551610455422168 
4.41649516778621e-05 
0.001340916194602823 
-1.474531215468026 
0.0001986156286359944 
4.41649516778621e-05 
0.02484411983224879 
0.004067655580514422 
0.004067655580514422 
0.004067655580514422 
0.0005067328292841923 
0.001025842109016008 
0.001724500960690165 
0.2229627740638915 
0.03748439941102889 
0.0003275848461887464 
0.0001553264381901074 
0.0001668676988835132 
0.02087351247206833 
0.1065274938677333 
0.09955228072532277 
0.0002466015152881504 
0.02829079629003721 
0.1241072698972305 
0.1241072698972305 
0.04609745620113268 
4.41649516778621e-05 
4.41649516778621e-05 
4.41649516778621e-05 
4.41649516778621e-05 
0.000181875901969956 
-0.001842448750547083 
-0.008984929555687958 
0.1502709340998876 
0.0007320192399386859 
0.0003705776894228449 
1.623231964215312e-05 
6.039727132001527e-05 
-0.0003555890607174658 
-0.0003555890607174658 
-0.002262203133422265 
2.610226332718683e-05 
0.03082303050526404 
0.0001533386449040551 
4.996634731907698e-05 
4.996634731907698e-05 
0.02663145375091212 
-0.02381588108372427 
-0.02425458045855797 
0.00054225625629923 
0.0003415494153753692 
0.1437978686355136 
0.01267159032624394 
0.01267159032624394 
0.01267159032624394 
0.01267159032624394 
0.0001200402512230326 
-1.193943523201122 
0.0006134359905067065 
0.0003182673300554518 
-0.3147704171197264 
0.09110555804145491 
0.009604970390360299 
0.09063822421112427 
0.0001570373173253874 
0.0001128723656475254 
0.4898153083907969 
6.937884406675671e-05 
0.04555193509291176 
0.0247727175129305 
0.007546651675000943 
0.1476366475308817 
0.0001249642927089849 
0.0001249642927089849 
0.0004494530564285004 
0.0002614467651270898 
0.0002485409245875951 
4.41649516778621e-05 
4.41649516778621e-05 
0.001308325068595288 
9.815750674922623e-05 
2.494181771621362e-05 
2.494181771621362e-05 
2.494181771621362e-05 
0.03289528575797172 
0.005781796891806983 
4.41649516778621e-05 
3.50770465426194e-05 
0.0003298879018017102 
-0.003206890147835627 
4.41649516778621e-05 
4.41649516778621e-05 
8.137358681608974e-06 
8.137358681608974e-06 
9.646726203733321e-05 
7.610704773936477e-05 
0.00118568541640598 
0.001148620546154631 
0.0003531739891972207 
0.0001615635006834605 
-0.01604608706471847 
-0.01642891228074232 
-0.6473948692934879 
0.09885378136180113 
0.09867353546764721 
0.01598328349887567 
0.01598328349887567 
0.001308325068595288 
0.02846407381797492 
0.1515317890143365 
0.07289801087385062 
4.761212330205714e-05 
0.007045536404026873 
0.006294503623097787 
0.08598263276412413 
0.08598263276412413 
0.1738654185993891 
-0.0001943238547435274 
0.01280232127600383 
0.1265181691641662 
0.1398039999983308 
0.0003329346009923904 
0.0003329346009923904 
0.0003450037764734339 
0.0003329346009923904 
0.05401024469103501 
0.009013756647849477 
0.002579826622124613 
0.01442956164866061 
8.832990335572421e-05 
0.0001805234321417829 
0.0005508659242341805 
0.0002047772564047522 
0.0001141075050965193 
0.0002068280201592801 
0.0002068280201592801 
0.009138991444638575 
-0.000282399983365281 
0.0008071838415141217 
-8.270383581588395e-06 
0.07870474024396903 
0.07869263140738043 
-0.3962364901174114 
0.0546433615912393 
0.001308325068595288 
0.02426207345709177 
0.0003426885705244377 
0.009056652303765428 
0.01009381528204039 
1.582663166736895e-05 
0.001118902771207179 
2.516247333203458e-05 
0.0008658113628011116 
-0.00195099648058338 
-0.00195099648058338 
-0.00195099648058338 
6.520744905238673e-05 
0.0002371425040881228 
0.0002371425040881228 
0.0002847590153362898 
-0.0004714728165925182 
0.001390316312354314 
0.0001162872133114985 
0.0001162872133114985 
0.009345776933925921 
0.001414495207718566 
-0.0001423517218555289 
0.0006809450836799551 
0.0002498198104227105 
1.318344745523912e-05 
0.0006531453819481254 
5.868855074424643e-05 
0.0006531453819481254 
0.0006531453819481254 
0.03096362804628725 
0.1986294679638267 
0.2867963612511137 
0.0005458123415886759 
0.003503337667008635 
1.115935261195847e-05 
1.115935261195847e-05 
0.0001561844856269776 
0.0001561844856269776 
-0.0002734888934301851 
0.158958008943755 
0.001706683954450844 
0.0002533682088365321 
-4.846361711108362e-05 
0.001068348685211998 
0.001068348685211998 
0.002267591340971329 
0.03653909195205766 
-0.002224326670801081 
-0.001666996897685826 
0.008845448561703995 
-0.4513480061020452 
0.006133928496683712 
0.006143909140795939 
0.0003487966746323179 
0.0003487966746323179 
2.341133752234336e-05 
8.631961740998681e-05 
0.001254265081944429 
0.001092538275570484 
0.001308325068595288 
0.007159422993967848 
0.4435552236517132 
0.005165327674415634 
4.41649516778621e-05 
4.41649516778621e-05 
4.41649516778621e-05 
4.41649516778621e-05 
-0.009187306060232507 
0.0009856172577818803 
0.001943731544300273 
0.0009320710097915636 
0.006458817743264747 
0.0002339361567865713 
-0.0001492403865753072 
-1.471415449899429 
2.746337815003198e-05 
3.522515497792338e-05 
3.522515497792338e-05 
0.01528871448562298 
0.00237764333065607 
0.004096032057409693 
0.004096032057409693 
0.06968199624747175 
0.008699584102827108 
0.01814563546771802 
0.008699584102827108 
0.008699584102827108 
0.03660633186338152 
0.03660633186338152 
0.0003235516773622211 
0.0006028153162873822 
0.000359157161356801 
0.000359157161356801 
0.001359082191999083 
0.001359082191999083 
4.41649516778621e-05 
4.41649516778621e-05 
4.41649516778621e-05 
4.41649516778621e-05 
